{"learner":{"attributes":{"best_iteration":"0","best_score":"111.71551884163236","scikit_learn":"{\"_estimator_type\": \"regressor\"}"},"feature_names":["watr","fedfunds_lag_5","fedfunds_lag_6","fedfunds_lag_7","gdp_lag_5","gdp_lag_6","gdp_lag_7","imports_lag_5","imports_lag_6","imports_lag_7","watr_lag_5","watr_lag_6","watr_lag_7","imports_lag_1"],"feature_types":["float","float","float","float","float","float","float","float","float","float","float","float","float","float"],"gradient_booster":{"model":{"gbtree_model_param":{"num_parallel_tree":"1","num_trees":"26"},"iteration_indptr":[0,1,2,3,4,5,6,7,8,9,10,11,12,13,14,15,16,17,18,19,20,21,22,23,24,25,26],"tree_info":[0,0,0,0,0,0,0,0,0,0,0,0,0,0,0,0,0,0,0,0,0,0,0,0,0,0],"trees":[{"base_weights":[-0E0,-9.01319E0,1.7655975E1,-1.0628779E2,-6.8795233E0,9.267068E0,3.1604593E1,-2.4749802E1,-5.1769633E0,1.1204022E1,-9.242153E0,-2.8677685E0,3.6033546E1,1.1696046E1,-4.443598E1,-9.481008E0,1.6757927E0,1.3261679E1,-1.271307E0,7.651545E-1,-1.1937768E1,3.252654E0,-5.995461E0,5.4564644E1,2.519282E1,3.4299652E1,-2.527269E0,3.5778263E-1,-1.1054841E1,6.216481E0,-6.298339E0,3.5763774E0,1.6246727E1,-9.196128E0,3.7358468E0,-7.4788456E0,-1.5093457E0,2.733604E1,-4.544346E0],"categories":[],"categories_nodes":[],"categories_segments":[],"categories_sizes":[],"default_left":[0,0,0,0,0,0,0,0,0,0,0,0,0,0,0,0,0,0,0,0,0,0,0,0,0,0,0,0,0,0,0,0,0,0,0,0,0,0,0],"id":0,"left_children":[1,3,5,-1,7,9,11,13,15,17,19,21,23,25,-1,27,29,31,33,-1,-1,-1,35,-1,37,-1,-1,-1,-1,-1,-1,-1,-1,-1,-1,-1,-1,-1,-1],"loss_changes":[3.437352E4,2.8947535E4,8.248707E3,0E0,4.161528E3,1.7885898E3,4.2259297E3,9.129807E3,3.8502603E3,1.1207866E3,1.4412518E2,9.6099785E1,3.4459375E3,1.6944933E3,0E0,1.242831E3,1.885763E3,1.0114077E3,3.1217554E2,0E0,0E0,0E0,8.585869E0,0E0,1.207917E3,0E0,0E0,0E0,0E0,0E0,0E0,0E0,0E0,0E0,0E0,0E0,0E0,0E0,0E0],"parents":[2147483647,0,0,1,1,2,2,4,4,5,5,6,6,7,7,8,8,9,9,10,10,11,11,12,12,13,13,15,15,16,16,17,17,18,18,22,22,24,24],"right_children":[2,4,6,-1,8,10,12,14,16,18,20,22,24,26,-1,28,30,32,34,-1,-1,-1,36,-1,38,-1,-1,-1,-1,-1,-1,-1,-1,-1,-1,-1,-1,-1,-1],"split_conditions":[1.7887E1,-8.2388E1,3.9334E1,-1.0628779E2,-2.1961E1,6.9E0,1.1287782E0,7E-1,9.135E0,4.8E-1,-1.71E0,-2.2E-1,2.2E0,1.0539463E0,-4.443598E1,-5.361E0,4.7E0,-5.1E-1,5E-1,7.651545E-1,-1.1937768E1,3.252654E0,9.9794817E-1,5.4564644E1,5.2941E1,3.4299652E1,-2.527269E0,3.5778263E-1,-1.1054841E1,6.216481E0,-6.298339E0,3.5763774E0,1.6246727E1,-9.196128E0,3.7358468E0,-7.4788456E0,-1.5093457E0,2.733604E1,-4.544346E0],"split_indices":[13,13,13,0,13,4,10,5,8,1,3,2,4,0,0,13,5,1,2,0,0,0,0,0,7,0,0,0,0,0,0,0,0,0,0,0,0,0,0],"split_type":[0,0,0,0,0,0,0,0,0,0,0,0,0,0,0,0,0,0,0,0,0,0,0,0,0,0,0,0,0,0,0,0,0,0,0,0,0,0,0],"sum_hessian":[2.14E2,1.42E2,7.2E1,2E0,1.4E2,4.6E1,2.6E1,1.1E1,1.29E2,4.2E1,4E0,3E0,2.3E1,4E0,7E0,7.9E1,5E1,3.6E1,6E0,1E0,3E0,1E0,2E0,7E0,1.6E1,1E0,3E0,1.1E1,6.8E1,3.2E1,1.8E1,9E0,2.7E1,2E0,4E0,1E0,1E0,1.5E1,1E0],"tree_param":{"num_deleted":"0","num_feature":"14","num_nodes":"39","size_leaf_vector":"1"}},{"base_weights":[-2.5539243E-1,-3.5429268E1,2.4116635E-1,6.096547E0,-5.924545E1,1.0705078E1,-7.795797E-1,1.49381E1,-8.900782E0,-1.6528931E-1,-1.1039047E1,7.986832E0,2.0889765E1,2.9730897E0,-1.3820088E0,-1.5112275E1,-3.1267183E0,-3.0657368E0,9.752871E0,2.3635073E1,8.432558E0,8.758047E-1,2.7919058E1,-6.0774217E0,1.1413594E0,-2.4529252E0,-1.681168E1,-4.7930675E0,-4.1479614E-1],"categories":[],"categories_nodes":[],"categories_segments":[],"categories_sizes":[],"default_left":[0,0,0,0,0,0,0,0,0,0,0,0,0,0,0,0,0,0,0,0,0,0,0,0,0,0,0,0,0],"id":1,"left_children":[1,3,5,-1,-1,7,9,11,-1,13,15,17,19,21,23,25,27,-1,-1,-1,-1,-1,-1,-1,-1,-1,-1,-1,-1],"loss_changes":[3.7640642E3,3.3286836E3,2.2834968E3,0E0,0E0,1.7098701E3,1.2270104E3,4.948142E2,0E0,7.105204E2,3.0708167E2,2.0563995E2,7.396631E1,2.6958384E3,1.5946522E3,1.09163086E2,2.0554825E1,0E0,0E0,0E0,0E0,0E0,0E0,0E0,0E0,0E0,0E0,0E0,0E0],"parents":[2147483647,0,0,1,1,2,2,5,5,6,6,7,7,9,9,10,10,11,11,12,12,13,13,14,14,15,15,16,16],"right_children":[2,4,6,-1,-1,8,10,12,-1,14,16,18,20,22,24,26,28,-1,-1,-1,-1,-1,-1,-1,-1,-1,-1,-1,-1],"split_conditions":[-8.2388E1,1.1610953E0,-9.1E-1,6.096547E0,-5.924545E1,5.5E0,1.21E0,-1.43E0,-8.900782E0,1.1337645E0,7.3E-1,1.001517E0,2.5E0,3.278E1,1.3625481E0,-2.12E0,1.2908025E0,-3.0657368E0,9.752871E0,2.3635073E1,8.432558E0,8.758047E-1,2.7919058E1,-6.0774217E0,1.1413594E0,-2.4529252E0,-1.681168E1,-4.7930675E0,-4.1479614E-1],"split_indices":[13,0,2,0,0,4,2,2,0,0,1,0,4,8,12,1,0,0,0,0,0,0,0,0,0,0,0,0,0],"split_type":[0,0,0,0,0,0,0,0,0,0,0,0,0,0,0,0,0,0,0,0,0,0,0,0,0,0,0,0,0],"sum_hessian":[2.14E2,2E0,2.12E2,1E0,1E0,1.8E1,1.94E2,1.5E1,3E0,1.84E2,1E1,8E0,7E0,5.1E1,1.33E2,6E0,4E0,1E0,7E0,5E0,2E0,4.8E1,3E0,4.6E1,8.7E1,1E0,5E0,2E0,2E0],"tree_param":{"num_deleted":"0","num_feature":"14","num_nodes":"29","size_leaf_vector":"1"}},{"base_weights":[-1.1120265E-1,-8.6992335E-1,5.6894717E0,5.014497E0,-1.7863992E0,-3.6903512E0,7.1367364E0,2.7290847E0,1.0826461E1,-2.3465788E1,-1.2433689E0,-1.6764692E0,-4.8609986E0,1.402879E1,4.825236E0,-2.288879E0,4.1272554E0,1.321769E1,-1.755458E0,5.3322916E0,-3.4845913E1,5.5572653E0,-1.8698723E0,8.479687E0,-3.895281E0,1.2871395E0,-3.5071685E0,-2.0960884E-1,6.118522E0,1.4895714E1,2.4087858E0,-1.4755753E0,1.1017592E1,-1.2449336E0,-1.049352E1,3.8648112E0,1.188175E1,9.166735E-1,-9.016127E0],"categories":[],"categories_nodes":[],"categories_segments":[],"categories_sizes":[],"default_left":[0,0,0,0,0,0,0,0,0,0,0,0,0,0,0,0,0,0,0,0,0,0,0,0,0,0,0,0,0,0,0,0,0,0,0,0,0,0,0],"id":2,"left_children":[1,3,5,7,9,11,13,15,17,19,21,-1,-1,-1,23,25,27,29,-1,-1,-1,31,33,35,37,-1,-1,-1,-1,-1,-1,-1,-1,-1,-1,-1,-1,-1,-1],"loss_changes":[9.511359E2,1.0389751E3,3.6574866E2,3.156692E2,1.9248225E3,1.2154961E0,2.8260095E2,1.4978458E2,2.3392139E2,1.4970066E3,7.048356E2,0E0,0E0,0E0,6.0671326E2,2.6319548E1,1.3951523E2,7.277197E1,0E0,0E0,0E0,5.539753E2,7.952066E2,1.5802313E2,1.5619351E2,0E0,0E0,0E0,0E0,0E0,0E0,0E0,0E0,0E0,0E0,0E0,0E0,0E0,0E0],"parents":[2147483647,0,0,1,1,2,2,3,3,4,4,5,5,6,6,7,7,8,8,9,9,10,10,14,14,15,15,16,16,17,17,21,21,22,22,23,23,24,24],"right_children":[2,4,6,8,10,12,14,16,18,20,22,-1,-1,-1,24,26,28,30,-1,-1,-1,32,34,36,38,-1,-1,-1,-1,-1,-1,-1,-1,-1,-1,-1,-1,-1,-1],"split_conditions":[4.0255E1,-5E-1,1.1287782E0,-1.5E0,-2.8632E1,2E0,4.616E1,-1.37E0,2.2E0,1.0539463E0,-9.14E0,-1.6764692E0,-4.8609986E0,1.402879E1,1.2401968E0,-2.36E0,1.1437931E0,1.4362367E0,-1.755458E0,5.3322916E0,-3.4845913E1,3.2E0,3.1684E1,1.1610953E0,1.2004002E0,1.2871395E0,-3.5071685E0,-2.0960884E-1,6.118522E0,1.4895714E1,2.4087858E0,-1.4755753E0,1.1017592E1,-1.2449336E0,-1.049352E1,3.8648112E0,1.188175E1,9.166735E-1,-9.016127E0],"split_indices":[7,4,12,4,13,4,7,1,5,0,13,0,0,0,12,2,0,0,0,0,0,6,7,11,0,0,0,0,0,0,0,0,0,0,0,0,0,0,0],"split_type":[0,0,0,0,0,0,0,0,0,0,0,0,0,0,0,0,0,0,0,0,0,0,0,0,0,0,0,0,0,0,0,0,0,0,0,0,0,0,0],"sum_hessian":[2.14E2,1.9E2,2.4E1,2.5E1,1.65E2,3E0,2.1E1,1.9E1,6E0,3E0,1.62E2,2E0,1E0,4E0,1.7E1,4E0,1.5E1,5E0,1E0,1E0,2E0,1.3E1,1.49E2,1.2E1,5E0,1E0,3E0,5E0,1E1,4E0,1E0,6E0,7E0,1.4E2,9E0,6E0,6E0,3E0,2E0],"tree_param":{"num_deleted":"0","num_feature":"14","num_nodes":"39","size_leaf_vector":"1"}},{"base_weights":[1.2355036E-2,-6.819188E-1,2.258489E0,-4.8374262E-1,-1.6586409E1,6.6172347E0,2.5825498E-1,1.2807989E0,-1.6259571E0,-2.8028154E-1,1.2014223E1,-5.8780354E-1,4.5881815E0,4.183082E0,-7.610587E-1,-8.0840147E-1,-8.1663265E0,-8.334748E0,2.0596063E0,2.9280217E0,1.4190564E1,-4.6541553E0,1.0284995E0,-2.6535425E-1,7.083788E0,1.1286463E0,7.90624E0,-3.200481E0,4.3632073E0,2.506324E0,-2.0518823E0,-1.1025782E1,-4.03333E-1,4.5675346E-1,5.8333616E0,6.579219E-1,3.7291105E0,2.8479204E0,1.5604684E1,-5.830036E0,-3.557157E-1,4.9047875E0,2.0131695E-1,-7.7067964E-2,-3.159634E-1],"categories":[],"categories_nodes":[],"categories_segments":[],"categories_sizes":[],"default_left":[0,0,0,0,0,0,0,0,0,0,0,0,0,0,0,0,0,0,0,0,0,0,0,0,0,0,0,0,0,0,0,0,0,0,0,0,0,0,0,0,0,0,0,0,0],"id":3,"left_children":[1,3,5,7,-1,9,11,13,15,17,19,21,23,25,27,29,31,-1,33,35,37,39,41,43,-1,-1,-1,-1,-1,-1,-1,-1,-1,-1,-1,-1,-1,-1,-1,-1,-1,-1,-1,-1,-1],"loss_changes":[3.3683377E2,5.118678E2,4.4286646E2,3.326255E2,0E0,5.990977E2,1.3461832E2,3.8841095E2,5.280202E2,1.6800145E2,1.3625061E2,2.0856921E2,7.462299E1,2.9803424E2,5.0146243E2,3.760999E2,2.396159E2,0E0,3.9614113E1,2.9583225E0,6.7653564E1,4.3354385E1,7.270868E1,3.0605495E-4,0E0,0E0,0E0,0E0,0E0,0E0,0E0,0E0,0E0,0E0,0E0,0E0,0E0,0E0,0E0,0E0,0E0,0E0,0E0,0E0,0E0],"parents":[2147483647,0,0,1,1,2,2,3,3,5,5,6,6,7,7,8,8,9,9,10,10,11,11,12,12,13,13,14,14,15,15,16,16,18,18,19,19,20,20,21,21,22,22,23,23],"right_children":[2,4,6,8,-1,10,12,14,16,18,20,22,24,26,28,30,32,-1,34,36,38,40,42,44,-1,-1,-1,-1,-1,-1,-1,-1,-1,-1,-1,-1,-1,-1,-1,-1,-1,-1,-1,-1,-1],"split_conditions":[2.3369E1,2.31E1,3.1684E1,2.4E0,-1.6586409E1,1.829E1,3.5E-1,-1.054E0,8.2E-1,0E0,3.6E0,8.889E0,1.1910319E0,-1E-1,4E0,1.0013033E0,1.3321E1,-8.334748E0,2.3710485E0,1.2450047E0,-3.3E-1,3.9E-1,-2.7E-1,1.078548E0,7.083788E0,1.1286463E0,7.90624E0,-3.200481E0,4.3632073E0,2.506324E0,-2.0518823E0,-1.1025782E1,-4.03333E-1,4.5675346E-1,5.8333616E0,6.579219E-1,3.7291105E0,2.8479204E0,1.5604684E1,-5.830036E0,-3.557157E-1,4.9047875E0,2.0131695E-1,-7.7067964E-2,-3.159634E-1],"split_indices":[7,7,7,6,0,8,3,7,3,4,4,13,0,4,5,10,8,0,0,0,2,1,1,0,0,0,0,0,0,0,0,0,0,0,0,0,0,0,0,0,0,0,0,0,0],"split_type":[0,0,0,0,0,0,0,0,0,0,0,0,0,0,0,0,0,0,0,0,0,0,0,0,0,0,0,0,0,0,0,0,0,0,0,0,0,0,0,0,0,0,0,0,0],"sum_hessian":[2.14E2,1.64E2,5E1,1.63E2,1E0,1.5E1,3.5E1,6.4E1,9.9E1,7E0,8E0,3E1,5E0,2.6E1,3.8E1,8.9E1,1E1,1E0,6E0,2E0,6E0,8E0,2.2E1,2E0,3E0,1.5E1,1.1E1,2.6E1,1.2E1,2.4E1,6.5E1,7E0,3E0,5E0,1E0,1E0,1E0,1E0,5E0,6E0,2E0,3E0,1.9E1,1E0,1E0],"tree_param":{"num_deleted":"0","num_feature":"14","num_nodes":"45","size_leaf_vector":"1"}},{"base_weights":[4.215177E-2,-1.1732996E0,1.0896775E0,8.098864E-2,-4.2472806E0,1.3891828E0,-5.835177E0,5.875748E-1,-5.5877213E0,-9.255749E0,-3.075296E0,6.148409E-1,5.679632E0,-8.573424E0,-1.1485379E0,-1.5402034E-1,4.377879E0,-1.442052E0,-6.126445E0,-1.1173825E1,-2.2718644E0,8.6174506E-1,-1.1415526E1,-1.3084114E0,6.6992655E0,4.1551944E-2,-1.7693588E0,4.914989E0,-7.3613644E-1,6.8667316E0,-1.6917955E0,-7.7815E0,-1.1137499E0,-9.5116205E0,1.0733938E0,-2.841936E0,8.743192E-1,7.5890675E0,-2.8739805E0],"categories":[],"categories_nodes":[],"categories_segments":[],"categories_sizes":[],"default_left":[0,0,0,0,0,0,0,0,0,0,0,0,0,0,0,0,0,0,0,0,0,0,0,0,0,0,0,0,0,0,0,0,0,0,0,0,0,0,0],"id":4,"left_children":[1,3,5,7,9,11,13,15,17,-1,19,21,23,-1,25,27,29,-1,-1,-1,31,33,-1,35,37,-1,-1,-1,-1,-1,-1,-1,-1,-1,-1,-1,-1,-1,-1],"loss_changes":[2.7501923E2,3.8595142E2,2.4864923E2,2.0999487E2,1.4163818E2,3.6853976E2,5.4221756E1,1.8904489E2,4.4898987E0,0E0,1.3714546E2,2.9488507E2,1.2994836E2,0E0,2.3072965E0,1.7176917E2,1.7784062E2,0E0,0E0,0E0,1.4438333E2,2.1869882E2,0E0,1.2546251E1,1.4963245E2,0E0,0E0,0E0,0E0,0E0,0E0,0E0,0E0,0E0,0E0,0E0,0E0,0E0,0E0],"parents":[2147483647,0,0,1,1,2,2,3,3,4,4,5,5,6,6,7,7,8,8,10,10,11,11,12,12,14,14,15,15,16,16,20,20,21,21,23,23,24,24],"right_children":[2,4,6,8,10,12,14,16,18,-1,20,22,24,-1,26,28,30,-1,-1,-1,32,34,-1,36,38,-1,-1,-1,-1,-1,-1,-1,-1,-1,-1,-1,-1,-1,-1],"split_conditions":[7.944E0,8.889E0,2.5592296E0,2.0533E1,1E0,2.3512948E0,3.1E0,1.0743E1,-8.3E-1,-9.255749E0,-8.2388E1,2.4347103E0,1.085E1,-8.573424E0,1.5011843E0,-1.7207E1,2.303916E0,-1.442052E0,-6.126445E0,-1.1173825E1,-7.6E-1,9.676338E-1,-1.1415526E1,2.0451431E0,3.1684E1,4.1551944E-2,-1.7693588E0,4.914989E0,-7.3613644E-1,6.8667316E0,-1.6917955E0,-7.7815E0,-1.1137499E0,-9.5116205E0,1.0733938E0,-2.841936E0,8.743192E-1,7.5890675E0,-2.8739805E0],"split_indices":[7,8,12,9,6,11,4,9,1,0,13,12,7,0,0,13,0,0,0,0,3,0,0,0,13,0,0,0,0,0,0,0,0,0,0,0,0,0,0],"split_type":[0,0,0,0,0,0,0,0,0,0,0,0,0,0,0,0,0,0,0,0,0,0,0,0,0,0,0,0,0,0,0,0,0,0,0,0,0,0,0],"sum_hessian":[2.14E2,9.9E1,1.15E2,7.1E1,2.8E1,1.11E2,4E0,6.6E1,5E0,4E0,2.4E1,9.5E1,1.6E1,2E0,2E0,5.6E1,1E1,1E0,4E0,1E0,2.3E1,9.4E1,1E0,2E0,1.4E1,1E0,1E0,5E0,5.1E1,7E0,3E0,3E0,2E1,1E0,9.3E1,1E0,1E0,1.3E1,1E0],"tree_param":{"num_deleted":"0","num_feature":"14","num_nodes":"39","size_leaf_vector":"1"}},{"base_weights":[-2.5589335E-1,-2.889061E-2,-2.7381516E0,7.2151357E-1,-8.177807E-1,-4.0171514E0,-1.0116901E0,-4.9415088E-1,2.0467048E0,-4.9912053E-1,-6.5793033E0,-1.3487895E0,-6.413756E0,7.992781E-1,-2.6223204E0,1.8824204E0,-1.7350037E0,1.6249435E0,1.1140622E1,-1.9145625E0,1.0530078E0,-9.3548E0,-1.607372E0,-1.5942372E0,-5.577528E-2,-7.0882087E0,-1.8529721E0,1.6024543E0,1.9537044E-1,1.0367163E0,4.7921314E0,1.8333616E0,-2.5101223E0,-1.405224E0,2.0915203E0,-7.501485E0,-9.6030617E-1,4.304826E0,6.3623674E-4,-3.9312756E-1,-2.0129304E0,2.077603E-2,2.4330989E-1],"categories":[],"categories_nodes":[],"categories_segments":[],"categories_sizes":[],"default_left":[0,0,0,0,0,0,0,0,0,0,0,0,0,0,0,0,0,0,0,0,0,0,0,0,0,0,0,0,0,0,0,0,0,0,0,0,0,0,0,0,0,0,0],"id":5,"left_children":[1,3,5,7,9,11,13,15,17,19,21,23,25,27,-1,29,31,33,-1,35,37,-1,39,-1,-1,-1,-1,-1,41,-1,-1,-1,-1,-1,-1,-1,-1,-1,-1,-1,-1,-1,-1],"loss_changes":[1.210413E2,1.1780432E2,3.5632202E1,1.6534766E2,1.7473419E2,5.5221634E1,2.8365396E1,1.625092E2,1.6970709E2,2.0634079E2,5.3851654E1,1.7987852E0,2.1564941E0,2.094171E0,0E0,4.1727966E1,1.0418134E2,7.080862E1,0E0,2.539481E2,1.5394965E2,0E0,6.619425E-1,0E0,0E0,0E0,0E0,0E0,2.5783971E-2,0E0,0E0,0E0,0E0,0E0,0E0,0E0,0E0,0E0,0E0,0E0,0E0,0E0,0E0],"parents":[2147483647,0,0,1,1,2,2,3,3,4,4,5,5,6,6,7,7,8,8,9,9,10,10,11,11,12,12,13,13,15,15,16,16,17,17,19,19,20,20,22,22,28,28],"right_children":[2,4,6,8,10,12,14,16,18,20,22,24,26,28,-1,30,32,34,-1,36,38,-1,40,-1,-1,-1,-1,-1,42,-1,-1,-1,-1,-1,-1,-1,-1,-1,-1,-1,-1,-1,-1],"split_conditions":[2.454996E0,1.0321E1,1.085E1,3.154E0,8.6E0,-8.07E-1,1.5879E1,5E-1,9.135E0,1.3778216E0,9E-2,2.4631703E0,2.4E-1,1.6E0,-2.6223204E0,2.6E0,8.8587546E-1,-8.8E-1,1.1140622E1,1.2979E1,1.5772157E0,-9.3548E0,1.2908025E0,-1.5942372E0,-5.577528E-2,-7.0882087E0,-1.8529721E0,1.6024543E0,1.5011843E0,1.0367163E0,4.7921314E0,1.8333616E0,-2.5101223E0,-1.405224E0,2.0915203E0,-7.501485E0,-9.6030617E-1,4.304826E0,6.3623674E-4,-3.9312756E-1,-2.0129304E0,2.077603E-2,2.4330989E-1],"split_indices":[12,9,9,7,6,9,13,4,9,11,1,0,1,4,0,5,12,2,0,9,10,0,0,0,0,0,0,0,0,0,0,0,0,0,0,0,0,0,0,0,0,0,0],"split_type":[0,0,0,0,0,0,0,0,0,0,0,0,0,0,0,0,0,0,0,0,0,0,0,0,0,0,0,0,0,0,0,0,0,0,0,0,0,0,0,0,0,0,0],"sum_hessian":[2.14E2,1.97E2,1.7E1,1.01E2,9.6E1,9E0,8E0,5.3E1,4.8E1,9.2E1,4E0,5E0,4E0,4E0,4E0,1.8E1,3.5E1,4.7E1,1E0,4.8E1,4.4E1,2E0,2E0,4E0,1E0,3E0,1E0,1E0,3E0,1.5E1,3E0,6E0,2.9E1,6E0,4.1E1,6E0,4.2E1,1E1,3.4E1,1E0,1E0,1E0,2E0],"tree_param":{"num_deleted":"0","num_feature":"14","num_nodes":"43","size_leaf_vector":"1"}},{"base_weights":[-4.7884505E-2,9.59347E-1,-5.005464E-1,3.9462927E-1,5.74198E0,-2.0973215E0,1.8845761E-1,-1.4213632E-1,2.5991E0,6.3536024E0,1.0311233E0,2.2791597E-1,-3.1551034E0,2.4855986E0,-7.6340675E-1,8.6903745E-1,-1.580378E0,3.2212431E0,-3.3774316E-1,-1.6138744E0,4.236272E0,-5.4265237E-1,-4.0397534E0,3.608585E0,-6.5932196E-1,-1.295278E0,2.4479604E0,1.5398006E0,-1.5534415E0,-4.1450357E0,6.877016E-1,5.4822534E-1,3.8197193E0,-5.566116E-1,4.4996854E-2,-3.7372274E0,7.76791E-1,5.22234E0,1.4099896E-1,1.06966E0,-2.8279576E0,-5.223377E0,-2.7267067E0,1.8969857E0,8.140285E0,9.043923E-1,-1.236725E0,-6.9049544E0,-9.123105E-1,4.0317655E0,-2.5695854E-1],"categories":[],"categories_nodes":[],"categories_segments":[],"categories_sizes":[],"default_left":[0,0,0,0,0,0,0,0,0,0,0,0,0,0,0,0,0,0,0,0,0,0,0,0,0,0,0,0,0,0,0,0,0,0,0,0,0,0,0,0,0,0,0,0,0,0,0,0,0,0,0],"id":6,"left_children":[1,3,5,7,9,11,13,15,17,-1,-1,19,21,23,25,27,29,31,33,35,37,39,41,43,45,47,49,-1,-1,-1,-1,-1,-1,-1,-1,-1,-1,-1,-1,-1,-1,-1,-1,-1,-1,-1,-1,-1,-1,-1,-1],"loss_changes":[9.850171E1,1.786288E2,1.6434181E2,7.2574326E1,1.3543671E1,1.114301E2,2.3150424E2,7.409614E1,2.3042427E1,0E0,0E0,1.1760131E2,6.940625E1,1.1189148E2,1.312618E2,5.1139137E1,1.25038925E2,1.3859627E1,2.8147104E-1,5.877114E1,1.9401115E1,3.6204166E1,2.14234E1,1.6285611E2,9.247848E0,1.332634E2,4.819844E1,0E0,0E0,0E0,0E0,0E0,0E0,0E0,0E0,0E0,0E0,0E0,0E0,0E0,0E0,0E0,0E0,0E0,0E0,0E0,0E0,0E0,0E0,0E0,0E0],"parents":[2147483647,0,0,1,1,2,2,3,3,4,4,5,5,6,6,7,7,8,8,11,11,12,12,13,13,14,14,15,15,16,16,17,17,18,18,19,19,20,20,21,21,22,22,23,23,24,24,25,25,26,26],"right_children":[2,4,6,8,10,12,14,16,18,-1,-1,20,22,24,26,28,30,32,34,36,38,40,42,44,46,48,50,-1,-1,-1,-1,-1,-1,-1,-1,-1,-1,-1,-1,-1,-1,-1,-1,-1,-1,-1,-1,-1,-1,-1,-1],"split_conditions":[1.1437931E0,1.1287782E0,1.3625481E0,8.2E0,4.9E-1,-1.2E-1,1.8271326E0,1.1E-1,1.0067886E0,6.3536024E0,1.0311233E0,-7.492E0,2.3E0,2.3805E1,8.3E-1,3.336E0,3.829E0,8.9077294E-1,9.8181164E-1,1.2116834E0,3E-2,1.2434927E0,2.8244E1,2.0559E1,1.3766751E0,1.8903478E0,1.5295E1,1.5398006E0,-1.5534415E0,-4.1450357E0,6.877016E-1,5.4822534E-1,3.8197193E0,-5.566116E-1,4.4996854E-2,-3.7372274E0,7.76791E-1,5.22234E0,1.4099896E-1,1.06966E0,-2.8279576E0,-5.223377E0,-2.7267067E0,1.8969857E0,8.140285E0,9.043923E-1,-1.236725E0,-6.9049544E0,-9.123105E-1,4.0317655E0,-2.5695854E-1],"split_indices":[11,11,0,4,1,3,0,1,12,0,0,8,6,7,1,8,8,10,0,11,1,0,7,8,0,0,13,0,0,0,0,0,0,0,0,0,0,0,0,0,0,0,0,0,0,0,0,0,0,0,0],"split_type":[0,0,0,0,0,0,0,0,0,0,0,0,0,0,0,0,0,0,0,0,0,0,0,0,0,0,0,0,0,0,0,0,0,0,0,0,0,0,0,0,0,0,0,0,0,0,0,0,0,0,0],"sum_hessian":[2.14E2,6.6E1,1.48E2,6E1,6E0,4.4E1,1.04E2,4.9E1,1.1E1,5E0,1E0,1.4E1,3E1,3E1,7.4E1,2.9E1,2E1,9E0,2E0,1E1,4E0,8E0,2.2E1,2.2E1,8E0,6.4E1,1E1,2.3E1,6E0,9E0,1.1E1,2E0,7E0,1E0,1E0,5E0,5E0,3E0,1E0,5E0,3E0,1E1,1.2E1,1.7E1,5E0,2E0,6E0,3E0,6.1E1,6E0,4E0],"tree_param":{"num_deleted":"0","num_feature":"14","num_nodes":"51","size_leaf_vector":"1"}},{"base_weights":[2.8637534E-2,-2.2838949E-1,8.187652E-1,1.9573447E-1,-1.4551688E0,-1.0687952E0,1.7400798E0,4.5387965E-1,-1.1429999E0,-3.0885782E0,-7.756179E-1,4.220153E0,-1.6287423E0,2.5118556E0,1.8064113E-1,-9.223317E-2,1.2494776E0,-1.6194501E0,-2.538514E-2,-3.9770565E0,-1.047297E0,-3.9436808E0,-1.5984263E-1,-2.8495624E0,9.962565E-2,3.2866333E0,1.6026875E0,1.4236977E0,-7.729814E-1,1.595634E-1,-2.4705951E0,1.6281451E0,-2.7523994E0,4.899471E-4,-1.8903143E0,-3.2106405E-1,4.7254142E-1,-5.064268E0,-1.6212778E0,7.049953E-2,-1.3468709E0,-6.277831E0,-2.916368E-1,-1.3812232E0,4.265925E-1,-1.0696481E0,-5.2495217E0,-1.0729979E0,1.0197995E0,3.5084603E0,4.1826785E-1,3.013636E0,1.0712754E0,1.8656361E0,3.5654712E-1,3.234292E-1,-1.1940231E0],"categories":[],"categories_nodes":[],"categories_segments":[],"categories_sizes":[],"default_left":[0,0,0,0,0,0,0,0,0,0,0,0,0,0,0,0,0,0,0,0,0,0,0,0,0,0,0,0,0,0,0,0,0,0,0,0,0,0,0,0,0,0,0,0,0,0,0,0,0,0,0,0,0,0,0,0,0],"id":7,"left_children":[1,3,5,7,9,11,13,15,17,19,21,-1,23,25,27,29,31,33,35,37,39,41,43,45,47,49,51,53,55,-1,-1,-1,-1,-1,-1,-1,-1,-1,-1,-1,-1,-1,-1,-1,-1,-1,-1,-1,-1,-1,-1,-1,-1,-1,-1,-1,-1],"loss_changes":[4.3855995E1,8.510739E1,9.4035446E1,4.2673603E1,4.4185158E1,6.0155193E1,4.2846664E1,4.4878895E1,1.0592199E1,1.754821E1,5.9803856E1,0E0,3.618183E1,1.158934E1,1.6517286E1,3.754686E1,6.811604E1,6.162792E0,1.1807859E0,1.2212395E1,1.782031E0,4.0725555E1,1.9937798E1,3.7038895E1,9.72585E0,6.1286316E0,6.478058E0,2.1422796E0,4.0879645E0,0E0,0E0,0E0,0E0,0E0,0E0,0E0,0E0,0E0,0E0,0E0,0E0,0E0,0E0,0E0,0E0,0E0,0E0,0E0,0E0,0E0,0E0,0E0,0E0,0E0,0E0,0E0,0E0],"parents":[2147483647,0,0,1,1,2,2,3,3,4,4,5,5,6,6,7,7,8,8,9,9,10,10,12,12,13,13,14,14,15,15,16,16,17,17,18,18,19,19,20,20,21,21,22,22,23,23,24,24,25,25,26,26,27,27,28,28],"right_children":[2,4,6,8,10,12,14,16,18,20,22,-1,24,26,28,30,32,34,36,38,40,42,44,46,48,50,52,54,56,-1,-1,-1,-1,-1,-1,-1,-1,-1,-1,-1,-1,-1,-1,-1,-1,-1,-1,-1,-1,-1,-1,-1,-1,-1,-1,-1,-1],"split_conditions":[4.2E-1,5E-2,2.8E-1,6.4E-1,-4E-2,-2.85E0,4.2E0,3.2E0,1.28E0,1.526E1,1.1E0,4.220153E0,-6E-2,3.469E0,2.9E-1,2.9E0,6.9E0,-5.977E0,2.1062796E0,4.5E0,1.1848879E0,1.2585014E0,3.154E0,-2E-1,2.3E0,2.2225456E0,4.8E-1,1.2004002E0,5E-1,1.595634E-1,-2.4705951E0,1.6281451E0,-2.7523994E0,4.899471E-4,-1.8903143E0,-3.2106405E-1,4.7254142E-1,-5.064268E0,-1.6212778E0,7.049953E-2,-1.3468709E0,-6.277831E0,-2.916368E-1,-1.3812232E0,4.265925E-1,-1.0696481E0,-5.2495217E0,-1.0729979E0,1.0197995E0,3.5084603E0,4.1826785E-1,3.013636E0,1.0712754E0,1.8656361E0,3.5654712E-1,3.234292E-1,-1.1940231E0],"split_indices":[1,1,2,3,3,3,4,5,3,13,5,0,3,13,3,5,4,8,0,5,0,0,9,2,6,0,1,0,1,0,0,0,0,0,0,0,0,0,0,0,0,0,0,0,0,0,0,0,0,0,0,0,0,0,0,0,0],"split_type":[0,0,0,0,0,0,0,0,0,0,0,0,0,0,0,0,0,0,0,0,0,0,0,0,0,0,0,0,0,0,0,0,0,0,0,0,0,0,0,0,0,0,0,0,0,0,0,0,0,0,0,0,0,0,0,0,0],"sum_hessian":[2.14E2,1.62E2,5.2E1,1.21E2,4.1E1,1.7E1,3.5E1,1.02E2,1.9E1,1.1E1,3E1,1E0,1.6E1,2.3E1,1.2E1,6.1E1,4.1E1,1.3E1,6E0,7E0,4E0,4E0,2.6E1,9E0,7E0,1.1E1,1.2E1,5E0,7E0,5.6E1,5E0,3.8E1,3E0,2E0,1.1E1,4E0,2E0,4E0,3E0,1E0,3E0,2E0,2E0,8E0,1.8E1,6E0,3E0,3E0,4E0,1E1,1E0,2E0,1E1,3E0,2E0,2E0,5E0],"tree_param":{"num_deleted":"0","num_feature":"14","num_nodes":"57","size_leaf_vector":"1"}},{"base_weights":[-6.2458575E-2,3.0417943E-1,-5.751689E-1,-5.31672E-1,6.189688E-1,2.4496353E-1,-9.894845E-1,-2.4315672E0,1.2094757E-1,1.1022846E0,-9.659266E-2,-6.888288E-2,3.200491E0,-1.5178609E0,2.3005724E-1,-1.3452607E-1,-3.556E0,2.3720212E0,-3.7324008E-1,4.7395343E-1,2.4783216E0,3.8520443E-1,-6.5387857E-1,5.3314346E-1,-9.670155E-1,-1.7218289E0,1.7043341E0,-3.4591103E-1,1.2682759E0,6.148249E-1,-5.9258467E-1,2.8659737E0,1.9310582E-1,-8.062275E-1,1.8825068E0,9.38646E-1,-6.489921E-1,3.7765918E0,5.444433E-1,1.5422038E-2,1.1211375E0,-1.4321082E0,-3.2851955E-1,1.2478186E-1,1.5679274E0,-4.626321E-1,-1.8576243E0,-2.1573792E0,1.6996726E-2,2.021749E0,5.29752E-1,-1.0767492E0,-1.7984634E-2,1.6930681E0,1.3419667E-1],"categories":[],"categories_nodes":[],"categories_segments":[],"categories_sizes":[],"default_left":[0,0,0,0,0,0,0,0,0,0,0,0,0,0,0,0,0,0,0,0,0,0,0,0,0,0,0,0,0,0,0,0,0,0,0,0,0,0,0,0,0,0,0,0,0,0,0,0,0,0,0,0,0,0,0],"id":8,"left_children":[1,3,5,7,9,11,13,15,17,19,21,23,-1,25,27,29,-1,31,33,35,37,39,41,43,45,47,49,51,53,-1,-1,-1,-1,-1,-1,-1,-1,-1,-1,-1,-1,-1,-1,-1,-1,-1,-1,-1,-1,-1,-1,-1,-1,-1,-1],"loss_changes":[4.059317E1,3.3482723E1,3.0831263E1,4.371401E1,3.1934002E1,2.9006807E1,3.9024696E1,2.2730534E1,3.094155E1,4.6349243E1,1.0457516E1,1.6200184E1,0E0,3.05382E1,1.1809573E1,1.7371E0,0E0,4.7973766E0,2.3971296E1,2.0963226E1,4.0582504E1,5.686182E0,4.0695896E0,7.3936114E0,4.507901E0,3.035189E1,2.1949768E-2,3.0852828E0,3.1267605E0,0E0,0E0,0E0,0E0,0E0,0E0,0E0,0E0,0E0,0E0,0E0,0E0,0E0,0E0,0E0,0E0,0E0,0E0,0E0,0E0,0E0,0E0,0E0,0E0,0E0,0E0],"parents":[2147483647,0,0,1,1,2,2,3,3,4,4,5,5,6,6,7,7,8,8,9,9,10,10,11,11,13,13,14,14,15,15,17,17,18,18,19,19,20,20,21,21,22,22,23,23,24,24,25,25,26,26,27,27,28,28],"right_children":[2,4,6,8,10,12,14,16,18,20,22,24,-1,26,28,30,-1,32,34,36,38,40,42,44,46,48,50,52,54,-1,-1,-1,-1,-1,-1,-1,-1,-1,-1,-1,-1,-1,-1,-1,-1,-1,-1,-1,-1,-1,-1,-1,-1,-1,-1],"split_conditions":[1.3065E1,-2.2E-1,-1E-1,-8.2E-1,4.1E-1,6.7E0,4.2E-1,1.0702932E0,-1.7E0,1.4289002E0,5.51E-1,3.9E0,3.200491E0,2.3282926E0,3.3947E1,9.881007E-1,-3.556E0,1E-2,2.4448693E0,1.0567E1,2.4180648E0,1.8879521E0,2E-1,2.3710485E0,3.7E0,4.8119E1,2.4209454E0,2.8E-1,4E0,6.148249E-1,-5.9258467E-1,2.8659737E0,1.9310582E-1,-8.062275E-1,1.8825068E0,9.38646E-1,-6.489921E-1,3.7765918E0,5.444433E-1,1.5422038E-2,1.1211375E0,-1.4321082E0,-3.2851955E-1,1.2478186E-1,1.5679274E0,-4.626321E-1,-1.8576243E0,-2.1573792E0,1.6996726E-2,2.021749E0,5.29752E-1,-1.0767492E0,-1.7984634E-2,1.6930681E0,1.3419667E-1],"split_indices":[7,3,3,1,3,6,1,0,5,10,7,5,0,0,9,0,0,1,10,13,10,12,4,10,6,9,0,2,4,0,0,0,0,0,0,0,0,0,0,0,0,0,0,0,0,0,0,0,0,0,0,0,0,0,0],"split_type":[0,0,0,0,0,0,0,0,0,0,0,0,0,0,0,0,0,0,0,0,0,0,0,0,0,0,0,0,0,0,0,0,0,0,0,0,0,0,0,0,0,0,0,0,0,0,0,0,0,0,0,0,0,0,0],"sum_hessian":[2.14E2,1.25E2,8.9E1,3.4E1,9.1E1,3E1,5.9E1,8E0,2.6E1,5.4E1,3.7E1,2.8E1,2E0,4.1E1,1.8E1,3E0,5E0,4E0,2.2E1,3.8E1,1.6E1,2E1,1.7E1,1.7E1,1.1E1,3.9E1,2E0,1.2E1,6E0,1E0,2E0,3E0,1E0,1.9E1,3E0,2.7E1,1.1E1,9E0,7E0,1.4E1,6E0,4E0,1.3E1,1.3E1,4E0,8E0,3E0,3.1E1,8E0,1E0,1E0,3E0,9E0,4E0,2E0],"tree_param":{"num_deleted":"0","num_feature":"14","num_nodes":"55","size_leaf_vector":"1"}},{"base_weights":[3.8859554E-2,1.819229E0,-1.21455705E-2,2.3614194E0,-4.4086182E-1,-2.4938418E-1,2.5626725E-1,-8.4507905E-2,-1.6154774E0,7.9133826E-1,-4.8558105E-2,-2.1622358E-1,1.0119134E0,-2.2247398E0,-6.337584E-1,1.4906641E0,1.5684436E-1,7.03643E-1,-2.7344728E-1,-4.4587398E-1,6.20829E-1,1.6711599E0,-1.1141438E-1,-1.5022385E-1,-2.5437884E0,-8.236708E-1,1.5290177E-1,1.6463494E0,-4.951507E-1,-1.3757261E0,4.0411475E-1,1.0343596E0,-4.6191734E-1,-5.398267E-1,1.8905735E-1],"categories":[],"categories_nodes":[],"categories_segments":[],"categories_sizes":[],"default_left":[0,0,0,0,0,0,0,0,0,0,0,0,0,0,0,0,0,0,0,0,0,0,0,0,0,0,0,0,0,0,0,0,0,0,0],"id":9,"left_children":[1,3,5,-1,-1,7,9,11,13,15,17,19,21,23,25,27,29,31,33,-1,-1,-1,-1,-1,-1,-1,-1,-1,-1,-1,-1,-1,-1,-1,-1],"loss_changes":[1.9563879E1,8.4126625E0,1.3436196E1,0E0,0E0,2.5072952E1,1.6193073E1,1.4796845E1,5.738962E0,1.5723572E1,1.1014468E1,1.776794E1,8.3478365E0,4.224022E0,1.0290275E0,6.0824585E0,8.125422E0,6.265564E0,6.2656507E0,0E0,0E0,0E0,0E0,0E0,0E0,0E0,0E0,0E0,0E0,0E0,0E0,0E0,0E0,0E0,0E0],"parents":[2147483647,0,0,1,1,2,2,5,5,6,6,7,7,8,8,9,9,10,10,11,11,12,12,13,13,14,14,15,15,16,16,17,17,18,18],"right_children":[2,4,6,-1,-1,8,10,12,14,16,18,20,22,24,26,28,30,32,34,-1,-1,-1,-1,-1,-1,-1,-1,-1,-1,-1,-1,-1,-1,-1,-1],"split_conditions":[-4.5E0,2.234954E0,1.2139E1,2.3614194E0,-4.4086182E-1,9.135E0,1.085E1,3.2624E1,6E-2,1E-2,-1.2E-1,1.2215E1,-2.1961E1,1.3767663E0,1.5772157E0,2.447168E0,3E-2,1E-2,4.2E0,-4.4587398E-1,6.20829E-1,1.6711599E0,-1.1141438E-1,-1.5022385E-1,-2.5437884E0,-8.236708E-1,1.5290177E-1,1.6463494E0,-4.951507E-1,-1.3757261E0,4.0411475E-1,1.0343596E0,-4.6191734E-1,-5.398267E-1,1.8905735E-1],"split_indices":[6,0,8,0,0,8,13,13,2,3,1,7,8,0,0,10,3,2,4,0,0,0,0,0,0,0,0,0,0,0,0,0,0,0,0],"split_type":[0,0,0,0,0,0,0,0,0,0,0,0,0,0,0,0,0,0,0,0,0,0,0,0,0,0,0,0,0,0,0,0,0,0,0],"sum_hessian":[2.14E2,5E0,2.09E2,4E0,1E0,1.11E2,9.8E1,1E2,1.1E1,3.5E1,6.3E1,9E1,1E1,6E0,5E0,1.6E1,1.9E1,1.4E1,4.9E1,7.1E1,1.9E1,6E0,4E0,1E0,5E0,4E0,1E0,1.5E1,1E0,2E0,1.7E1,1.1E1,3E0,3.1E1,1.8E1],"tree_param":{"num_deleted":"0","num_feature":"14","num_nodes":"35","size_leaf_vector":"1"}},{"base_weights":[3.0778549E-3,-3.3054152E-1,1.4359471E-1,-9.0331726E-2,-9.38837E-1,1.8739544E-1,-1.1796255E0,-2.8299558E-1,6.498241E-1,-7.871499E-2,-1.1782494E0,9.941037E-1,1.216622E-1,-2.685624E-2,-1.935853E0,7.3685676E-1,-4.2494458E-1,1.1572855E0,-8.709435E-2,4.3989635E-1,-5.7442135E-1,-1.2896587E0,1.3003552E-1,3.655283E-1,1.6732886E0,4.8925575E-2,8.8048625E-1,-3.722342E-1,3.2694983E-1,-5.2146244E-1,7.428944E-1,6.843415E-1,1.7560025E0,1.6524704E-1,-3.1373763E-1,-3.065945E-1,-1.3451978E0,8.160615E-2,7.1355575E-1,5.0039256E-1,1.8389144E0,4.2676365E-1,-9.934721E-2,9.457213E-1,7.645046E-2],"categories":[],"categories_nodes":[],"categories_segments":[],"categories_sizes":[],"default_left":[0,0,0,0,0,0,0,0,0,0,0,0,0,0,0,0,0,0,0,0,0,0,0,0,0,0,0,0,0,0,0,0,0,0,0,0,0,0,0,0,0,0,0,0,0],"id":10,"left_children":[1,3,5,7,9,11,13,15,17,19,21,23,25,27,-1,-1,29,31,33,-1,-1,35,-1,37,39,41,43,-1,-1,-1,-1,-1,-1,-1,-1,-1,-1,-1,-1,-1,-1,-1,-1,-1,-1],"loss_changes":[1.0124611E1,9.256487E0,9.02075E0,6.8824883E0,3.6013155E0,7.715975E0,4.2871623E0,5.8111506E0,3.851071E0,1.5394257E0,2.2198696E0,4.064085E0,7.5644417E0,4.887452E-1,0E0,0E0,4.2175674E0,4.728489E-1,3.3928654E-1,0E0,0E0,2.8083038E-1,0E0,6.255067E-1,2.7737617E-2,7.160607E0,5.4689217E-1,0E0,0E0,0E0,0E0,0E0,0E0,0E0,0E0,0E0,0E0,0E0,0E0,0E0,0E0,0E0,0E0,0E0,0E0],"parents":[2147483647,0,0,1,1,2,2,3,3,4,4,5,5,6,6,7,7,8,8,9,9,10,10,11,11,12,12,13,13,16,16,17,17,18,18,21,21,23,23,24,24,25,25,26,26],"right_children":[2,4,6,8,10,12,14,16,18,20,22,24,26,28,-1,-1,30,32,34,-1,-1,36,-1,38,40,42,44,-1,-1,-1,-1,-1,-1,-1,-1,-1,-1,-1,-1,-1,-1,-1,-1,-1,-1],"split_conditions":[-2E-1,2.3465936E0,1.48E0,2.2545025E0,2.093139E0,-5.361E0,1.2908025E0,-3.7E0,2.447168E0,8.7E-1,2.5303907E0,2.847E0,2.454996E0,1.0067886E0,-1.935853E0,7.3685676E-1,5.2E-1,4.4E0,1.4295535E0,4.3989635E-1,-5.7442135E-1,-1.26E0,1.3003552E-1,6.5E-1,-7.1E-1,1.1152195E0,2.0533E1,-3.722342E-1,3.2694983E-1,-5.2146244E-1,7.428944E-1,6.843415E-1,1.7560025E0,1.6524704E-1,-3.1373763E-1,-3.065945E-1,-1.3451978E0,8.160615E-2,7.1355575E-1,5.0039256E-1,1.8389144E0,4.2676365E-1,-9.934721E-2,9.457213E-1,7.645046E-2],"split_indices":[3,0,1,10,10,8,0,5,10,1,0,9,11,0,0,0,2,5,0,0,0,2,0,3,2,0,7,0,0,0,0,0,0,0,0,0,0,0,0,0,0,0,0,0,0],"split_type":[0,0,0,0,0,0,0,0,0,0,0,0,0,0,0,0,0,0,0,0,0,0,0,0,0,0,0,0,0,0,0,0,0,0,0,0,0,0,0,0,0,0,0,0,0],"sum_hessian":[2.14E2,6.3E1,1.51E2,4.6E1,1.7E1,1.47E2,4E0,3.7E1,9E0,4E0,1.3E1,1E1,1.37E2,2E0,2E0,4E0,3.3E1,5E0,4E0,2E0,2E0,1.2E1,1E0,6E0,4E0,1.26E2,1.1E1,1E0,1E0,3.1E1,2E0,4E0,1E0,2E0,2E0,1E0,1.1E1,4E0,2E0,1E0,3E0,3.5E1,9.1E1,1E1,1E0],"tree_param":{"num_deleted":"0","num_feature":"14","num_nodes":"45","size_leaf_vector":"1"}},{"base_weights":[1.9333888E-2,-2.0963157E-2,5.5869204E-1,-2.1058E-1,1.2847811E-1,1.7005461E0,3.5494915E-1,-6.3505374E-2,-8.77014E-1,2.688632E-1,-3.2826197E-1,4.7240904E-1,-5.4302868E-2,-4.4209048E-1,1.900737E-1,-1.3055757E0,-2.8400522E-1,1.3137567E-1,9.193784E-1,-7.888449E-2,-1.0280713E0,2.7838758E-1,6.475573E-1,-8.5412264E-2,1.4512653E-2,1.570766E-1,-7.068324E-1,8.599852E-1,6.4703085E-2,-3.6732745E-1,-1.5197428E0,2.4271486E-2,-4.7582555E-1,6.67556E-2,9.9485743E-1,1.2003634E0,-1.5092109E-1,-2.2210403E-1,5.828246E-1,-2.4488807E-1,-1.2903669E0,3.942903E-1,-4.2461525E-3,7.1407616E-1,1.8574095E-1],"categories":[],"categories_nodes":[],"categories_segments":[],"categories_sizes":[],"default_left":[0,0,0,0,0,0,0,0,0,0,0,0,0,0,0,0,0,0,0,0,0,0,0,0,0,0,0,0,0,0,0,0,0,0,0,0,0,0,0,0,0,0,0,0,0],"id":11,"left_children":[1,3,5,7,9,-1,11,13,15,17,19,21,23,25,27,29,31,33,35,37,39,41,43,-1,-1,-1,-1,-1,-1,-1,-1,-1,-1,-1,-1,-1,-1,-1,-1,-1,-1,-1,-1,-1,-1],"loss_changes":[4.6900153E0,5.723529E0,2.8655071E0,8.658283E0,7.333167E0,0E0,7.0282423E-1,7.190643E0,3.6795673E0,7.649791E0,4.6197815E0,1.842761E-1,1.05117895E-2,4.875264E0,3.7145338E0,1.2313623E0,4.891345E-1,3.996244E0,4.7027254E0,2.1160035E0,1.1066308E0,2.3488075E-1,1.196599E-2,0E0,0E0,0E0,0E0,0E0,0E0,0E0,0E0,0E0,0E0,0E0,0E0,0E0,0E0,0E0,0E0,0E0,0E0,0E0,0E0,0E0,0E0],"parents":[2147483647,0,0,1,1,2,2,3,3,4,4,6,6,7,7,8,8,9,9,10,10,11,11,12,12,13,13,14,14,15,15,16,16,17,17,18,18,19,19,20,20,21,21,22,22],"right_children":[2,4,6,8,10,-1,12,14,16,18,20,22,24,26,28,30,32,34,36,38,40,42,44,-1,-1,-1,-1,-1,-1,-1,-1,-1,-1,-1,-1,-1,-1,-1,-1,-1,-1,-1,-1,-1,-1],"split_conditions":[8.7E-1,1.2401968E0,9.7723305E-1,1.1806042E0,2.8E-1,1.7005461E0,4E0,2.598E0,3.278E1,4.8E0,7.5E0,-9.31E-1,2.303916E0,-7.918E0,9.147257E-1,-9E-1,1.2016163E0,4.8119E1,5E-1,6.3E0,1.9E-1,-5.359E0,2.2383583E0,-8.5412264E-2,1.4512653E-2,1.570766E-1,-7.068324E-1,8.599852E-1,6.4703085E-2,-3.6732745E-1,-1.5197428E0,2.4271486E-2,-4.7582555E-1,6.67556E-2,9.9485743E-1,1.2003634E0,-1.5092109E-1,-2.2210403E-1,5.828246E-1,-2.4488807E-1,-1.2903669E0,3.942903E-1,-4.2461525E-3,7.1407616E-1,1.8574095E-1],"split_indices":[2,11,0,10,1,0,4,13,8,6,5,7,0,13,0,4,11,9,2,6,2,7,0,0,0,0,0,0,0,0,0,0,0,0,0,0,0,0,0,0,0,0,0,0,0],"split_type":[0,0,0,0,0,0,0,0,0,0,0,0,0,0,0,0,0,0,0,0,0,0,0,0,0,0,0,0,0,0,0,0,0,0,0,0,0,0,0,0,0,0,0,0,0],"sum_hessian":[2.14E2,2E2,1.4E1,8.8E1,1.12E2,1E0,1.3E1,7.3E1,1.5E1,8.6E1,2.6E1,1E1,3E0,2.9E1,4.4E1,8E0,7E0,7.2E1,1.4E1,2E1,6E0,6E0,4E0,2E0,1E0,9E0,2E1,6E0,3.8E1,2E0,6E0,3E0,4E0,6.8E1,4E0,1.1E1,3E0,1.7E1,3E0,2E0,4E0,4E0,2E0,3E0,1E0],"tree_param":{"num_deleted":"0","num_feature":"14","num_nodes":"45","size_leaf_vector":"1"}},{"base_weights":[8.8944975E-3,-3.2705262E-1,3.5775796E-2,4.4688646E-2,-9.5573616E-1,2.676988E-1,-4.5336764E-2,3.33065E-1,-3.65976E-1,-1.7951113E-1,-1.073079E0,-1.9240478E-2,4.479496E-1,-6.8401563E-1,1.045659E-2,-3.2203995E-2,4.876134E-1,-3.03359E-2,-4.3980205E-1,-3.8667923E-1,2.8772852E-1,-2.0062132E-2,5.8019537E-1,-8.675818E-1,1.5254346E-1,-2.3964739E-1,9.143829E-2,6.087804E-1,-0E0,-8.030758E-1,-1.8094562E-1,-5.537381E-2,4.6745142E-1,4.47708E-2,-2.4194634E-1,9.6844757E-1,3.399327E-1,-4.4017252E-1,-1.3961525E0,-1.0135741E-1,-1.2489828E0,8.68551E-1,2.6965432E-2],"categories":[],"categories_nodes":[],"categories_segments":[],"categories_sizes":[],"default_left":[0,0,0,0,0,0,0,0,0,0,0,0,0,0,0,0,0,0,0,0,0,0,0,0,0,0,0,0,0,0,0,0,0,0,0,0,0,0,0,0,0,0,0],"id":12,"left_children":[1,3,5,7,9,11,13,15,17,-1,-1,19,21,23,25,-1,27,-1,-1,29,31,33,35,37,-1,39,41,-1,-1,-1,-1,-1,-1,-1,-1,-1,-1,-1,-1,-1,-1,-1,-1],"loss_changes":[1.9503871E0,3.7911425E0,3.7767339E0,1.4242505E0,3.413515E-1,2.7024E0,5.32336E0,4.1541934E-1,1.0585177E-1,0E0,0E0,2.4808867E0,1.9978032E0,1.9822612E0,2.8154614E0,0E0,2.936201E-1,0E0,0E0,7.0151436E-1,7.6996547E-1,1.2788711E-1,1.9897718E0,1.6262493E0,0E0,4.6056557E0,5.228405E0,0E0,0E0,0E0,0E0,0E0,0E0,0E0,0E0,0E0,0E0,0E0,0E0,0E0,0E0,0E0,0E0],"parents":[2147483647,0,0,1,1,2,2,3,3,4,4,5,5,6,6,7,7,8,8,11,11,12,12,13,13,14,14,16,16,19,19,20,20,21,21,22,22,23,23,25,25,26,26],"right_children":[2,4,6,8,10,12,14,16,18,-1,-1,20,22,24,26,-1,28,-1,-1,30,32,34,36,38,-1,40,42,-1,-1,-1,-1,-1,-1,-1,-1,-1,-1,-1,-1,-1,-1,-1,-1],"split_conditions":[9.0282696E-1,8.9868563E-1,1.1619661E0,2.993E0,8.6350477E-1,-2E-2,1.1910319E0,8.9077294E-1,8.8587546E-1,-1.7951113E-1,-1.073079E0,1.0522742E0,1.8E0,4.2E0,-3.3E-1,-3.2203995E-2,2E-2,-3.03359E-2,-4.3980205E-1,9.5139474E-1,-1.5E0,1.1322893E0,3.336E0,3.9E0,1.5254346E-1,-4.1E-1,-2.1E-1,6.087804E-1,-0E0,-8.030758E-1,-1.8094562E-1,-5.537381E-2,4.6745142E-1,4.47708E-2,-2.4194634E-1,9.6844757E-1,3.399327E-1,-4.4017252E-1,-1.3961525E0,-1.0135741E-1,-1.2489828E0,8.68551E-1,2.6965432E-2],"split_indices":[11,10,0,13,0,3,0,0,0,0,0,0,6,5,2,0,1,0,0,10,4,0,8,6,0,2,2,0,0,0,0,0,0,0,0,0,0,0,0,0,0,0,0],"split_type":[0,0,0,0,0,0,0,0,0,0,0,0,0,0,0,0,0,0,0,0,0,0,0,0,0,0,0,0,0,0,0,0,0,0,0,0,0,0,0,0,0,0,0],"sum_hessian":[2.14E2,1.5E1,1.99E2,1E1,5E0,5.1E1,1.48E2,6E0,4E0,1E0,4E0,2E1,3.1E1,1.1E1,1.37E2,2E0,4E0,1E0,3E0,9E0,1.1E1,7E0,2.4E1,9E0,2E0,3.3E1,1.04E2,3E0,1E0,2E0,7E0,4E0,7E0,6E0,1E0,8E0,1.6E1,6E0,3E0,3E1,3E0,7E0,9.7E1],"tree_param":{"num_deleted":"0","num_feature":"14","num_nodes":"43","size_leaf_vector":"1"}},{"base_weights":[-1.2942246E-2,-7.042196E-2,1.3655405E-1,1.1558582E-2,-3.8877025E-1,-9.170516E-2,4.0105402E-1,1.299599E-1,-7.442536E-2,-5.341737E-1,-6.171152E-2,4.309078E-1,-1.5866338E-1,8.4962547E-1,1.0898876E-2,1.1762315E-2,4.9197072E-1,-3.8159022E-1,1.1420552E-2,-3.3404592E-1,-9.1386956E-1,-4.1153458E-1,2.9673013E-1,5.2812215E-2,5.360022E-1,-5.1198885E-2,-4.02614E-1,1.6021521E0,1.7777732E-1,-8.314906E-1,1.23157546E-1,2.3673259E-1,-8.91472E-2,3.651817E-2,5.7055134E-1,-5.374249E-1,2.1777016E-1,-1.684848E-1,8.420557E-2,-4.737379E-1,-2.0602979E-2,-2.3652388E-1,-1.135503E0,-5.8284265E-1,-4.261231E-2,-1.7830087E-3,3.5878935E-1,-3.554036E-1,1.5012577E-2,-2.4873236E-1,-8.118335E-1,-6.9608994E-2,9.5974076E-1,3.3289286E-1,-5.2542984E-2],"categories":[],"categories_nodes":[],"categories_segments":[],"categories_sizes":[],"default_left":[0,0,0,0,0,0,0,0,0,0,0,0,0,0,0,0,0,0,0,0,0,0,0,0,0,0,0,0,0,0,0,0,0,0,0,0,0,0,0,0,0,0,0,0,0,0,0,0,0,0,0,0,0,0,0],"id":13,"left_children":[1,3,5,7,9,11,13,15,17,19,21,23,25,27,29,31,33,35,37,39,41,43,45,-1,-1,47,49,-1,51,-1,53,-1,-1,-1,-1,-1,-1,-1,-1,-1,-1,-1,-1,-1,-1,-1,-1,-1,-1,-1,-1,-1,-1,-1,-1],"loss_changes":[1.8564509E0,4.079611E0,3.6623456E0,1.2828041E0,1.482852E0,1.2204236E0,4.882484E0,2.2569823E0,1.9329854E0,1.3539758E0,1.5025655E0,1.24747336E-1,7.6132935E-1,6.2699614E0,1.6083692E0,9.533472E-1,4.3836045E-1,1.6146502E0,7.728206E-1,6.858634E-1,7.685633E-1,3.481053E-1,1.1536276E-1,0E0,0E0,4.518599E-1,3.542074E-1,0E0,1.6232843E0,0E0,5.730538E-1,0E0,0E0,0E0,0E0,0E0,0E0,0E0,0E0,0E0,0E0,0E0,0E0,0E0,0E0,0E0,0E0,0E0,0E0,0E0,0E0,0E0,0E0,0E0,0E0],"parents":[2147483647,0,0,1,1,2,2,3,3,4,4,5,5,6,6,7,7,8,8,9,9,10,10,11,11,12,12,13,13,14,14,15,15,16,16,17,17,18,18,19,19,20,20,21,21,22,22,25,25,26,26,28,28,30,30],"right_children":[2,4,6,8,10,12,14,16,18,20,22,24,26,28,30,32,34,36,38,40,42,44,46,-1,-1,48,50,-1,52,-1,54,-1,-1,-1,-1,-1,-1,-1,-1,-1,-1,-1,-1,-1,-1,-1,-1,-1,-1,-1,-1,-1,-1,-1,-1],"split_conditions":[2.1242E1,1.3312E1,1.3031337E0,0E0,1.9E-1,1.1152195E0,1.6998154E0,1.3321E1,1.1E-1,1E-2,1.4362367E0,9.881007E-1,4.4665E1,3.278E1,1.4295535E0,-7.3E-1,-7.1E-1,1.7633E1,3E-2,3.9E0,1.435592E0,4.7E-1,-2.1E0,5.2812215E-2,5.360022E-1,-3.8561E1,1.2806218E0,1.6021521E0,1.61923E0,-8.314906E-1,2E0,2.3673259E-1,-8.91472E-2,3.651817E-2,5.7055134E-1,-5.374249E-1,2.1777016E-1,-1.684848E-1,8.420557E-2,-4.737379E-1,-2.0602979E-2,-2.3652388E-1,-1.135503E0,-5.8284265E-1,-4.261231E-2,-1.7830087E-3,3.5878935E-1,-3.554036E-1,1.5012577E-2,-2.4873236E-1,-8.118335E-1,-6.9608994E-2,9.5974076E-1,3.3289286E-1,-5.2542984E-2],"split_indices":[13,13,0,2,3,0,0,8,2,3,10,0,8,13,10,2,3,8,3,4,0,2,5,0,0,9,10,0,0,0,4,0,0,0,0,0,0,0,0,0,0,0,0,0,0,0,0,0,0,0,0,0,0,0,0],"split_type":[0,0,0,0,0,0,0,0,0,0,0,0,0,0,0,0,0,0,0,0,0,0,0,0,0,0,0,0,0,0,0,0,0,0,0,0,0,0,0,0,0,0,0,0,0,0,0,0,0,0,0,0,0,0,0],"sum_hessian":[2.14E2,1.55E2,5.9E1,1.24E2,3.1E1,3.2E1,2.7E1,5.2E1,7.2E1,2.1E1,1E1,3E0,2.9E1,1.2E1,1.5E1,4E1,1.2E1,1.5E1,5.7E1,1.5E1,6E0,5E0,5E0,1E0,2E0,2.1E1,8E0,5E0,7E0,1E0,1.4E1,1.2E1,2.8E1,2E0,1E1,1.2E1,3E0,1.6E1,4.1E1,1E1,5E0,2E0,4E0,3E0,2E0,1E0,4E0,3E0,1.8E1,7E0,1E0,6E0,1E0,6E0,8E0],"tree_param":{"num_deleted":"0","num_feature":"14","num_nodes":"55","size_leaf_vector":"1"}},{"base_weights":[-3.1864867E-3,-5.3917408E-2,6.258329E-2,4.369052E-2,-9.871255E-2,3.1310195E-1,2.1981753E-2,-9.038089E-2,1.6338892E-1,-1.4193618E-1,6.71039E-2,1.0685064E-1,6.197339E-1,4.3881926E-1,-4.892212E-3,2.763256E-2,-2.2568835E-1,3.702056E-1,6.870519E-3,-9.775816E-2,-3.570463E-1,4.035988E-1,-1.3394344E-1,-5.2440325E-3,2.5078E-1,1.683265E-1,6.8800414E-1,2.9324659E-3,7.250996E-1,-5.4614574E-2,1.08842045E-1,1.447144E-1,-9.2388034E-2,2.8426763E-2,-2.622561E-1,6.782444E-2,4.4548246E-1,8.971155E-2,-1.4161743E-1,-2.344569E-2,-2.1446228E-1,7.908165E-2,-4.0956727E-1,-4.227654E-2,5.9240425E-1,-2.5093707E-1,2.320639E-2,5.5522516E-2,-5.2007936E-2,2.947371E-1,5.4454323E-2,1.3044465E-1,-1.2104594E-1,-1.22605234E-1,8.0136426E-2,3.0751845E-1,-9.091063E-3],"categories":[],"categories_nodes":[],"categories_segments":[],"categories_sizes":[],"default_left":[0,0,0,0,0,0,0,0,0,0,0,0,0,0,0,0,0,0,0,0,0,0,0,0,0,0,0,0,0,0,0,0,0,0,0,0,0,0,0,0,0,0,0,0,0,0,0,0,0,0,0,0,0,0,0,0,0],"id":14,"left_children":[1,3,5,7,9,11,13,15,17,19,21,23,25,27,29,31,33,35,37,39,41,43,45,47,49,-1,-1,51,-1,53,55,-1,-1,-1,-1,-1,-1,-1,-1,-1,-1,-1,-1,-1,-1,-1,-1,-1,-1,-1,-1,-1,-1,-1,-1,-1,-1],"loss_changes":[7.2064835E-1,5.382911E-1,9.458822E-1,6.413745E-1,6.123167E-1,7.486774E-1,9.250564E-1,3.1161082E-1,6.734687E-1,5.972582E-1,1.2744813E0,1.4897385E-1,2.9715776E-2,6.145225E-1,4.4650272E-1,1.6846769E-1,9.3425125E-2,1.695131E-1,1.720973E-1,4.869293E-1,2.8765845E-1,6.198318E-1,2.2872704E-1,1.9902553E-2,1.4978021E-2,0E0,0E0,6.331005E-2,0E0,5.1414937E-1,5.681126E-1,0E0,0E0,0E0,0E0,0E0,0E0,0E0,0E0,0E0,0E0,0E0,0E0,0E0,0E0,0E0,0E0,0E0,0E0,0E0,0E0,0E0,0E0,0E0,0E0,0E0,0E0],"parents":[2147483647,0,0,1,1,2,2,3,3,4,4,5,5,6,6,7,7,8,8,9,9,10,10,11,11,12,12,13,13,14,14,15,15,16,16,17,17,18,18,19,19,20,20,21,21,22,22,23,23,24,24,27,27,29,29,30,30],"right_children":[2,4,6,8,10,12,14,16,18,20,22,24,26,28,30,32,34,36,38,40,42,44,46,48,50,-1,-1,52,-1,54,56,-1,-1,-1,-1,-1,-1,-1,-1,-1,-1,-1,-1,-1,-1,-1,-1,-1,-1,-1,-1,-1,-1,-1,-1,-1,-1],"split_conditions":[3.6E0,-5.69E-1,9.7723305E-1,-1.978E0,2.6398E1,9.13578E-1,3.7E0,-1.8688E1,7E-1,1.517E1,3.3205E1,3.154E0,-8E-2,-1.8E-1,2.1062796E0,2.2796E1,-2.36E0,-3.7E0,2.1737E1,2E-1,1.1287782E0,1.8E0,2E-2,-4E-2,0E0,1.683265E-1,6.8800414E-1,1.1442207E0,7.250996E-1,1.7633E1,4.855E0,1.447144E-1,-9.2388034E-2,2.8426763E-2,-2.622561E-1,6.782444E-2,4.4548246E-1,8.971155E-2,-1.4161743E-1,-2.344569E-2,-2.1446228E-1,7.908165E-2,-4.0956727E-1,-4.227654E-2,5.9240425E-1,-2.5093707E-1,2.320639E-2,5.5522516E-2,-5.2007936E-2,2.947371E-1,5.4454323E-2,1.3044465E-1,-1.2104594E-1,-1.22605234E-1,8.0136426E-2,3.0751845E-1,-9.091063E-3],"split_indices":[5,9,0,8,7,12,5,8,5,7,7,7,2,3,0,13,2,5,8,2,0,5,2,2,2,0,0,0,0,13,13,0,0,0,0,0,0,0,0,0,0,0,0,0,0,0,0,0,0,0,0,0,0,0,0,0,0],"split_type":[0,0,0,0,0,0,0,0,0,0,0,0,0,0,0,0,0,0,0,0,0,0,0,0,0,0,0,0,0,0,0,0,0,0,0,0,0,0,0,0,0,0,0,0,0,0,0,0,0,0,0,0,0,0,0,0,0],"sum_hessian":[2.14E2,1.21E2,9.3E1,3.8E1,8.3E1,1.2E1,8.1E1,1.8E1,2E1,6.6E1,1.7E1,8E0,4E0,4E0,7.7E1,1E1,8E0,8E0,1.2E1,5.6E1,1E1,6E0,1.1E1,5E0,3E0,1E0,3E0,2E0,2E0,5.4E1,2.3E1,5E0,5E0,1E0,7E0,2E0,6E0,8E0,4E0,3.5E1,2.1E1,1E0,9E0,2E0,4E0,6E0,5E0,2E0,3E0,2E0,1E0,1E0,1E0,3.6E1,1.8E1,8E0,1.5E1],"tree_param":{"num_deleted":"0","num_feature":"14","num_nodes":"57","size_leaf_vector":"1"}},{"base_weights":[1.0573886E-2,2.1844592E-2,-1.1343576E-1,3.0425789E-2,-1.6063009E-1,-1.1868286E-3,-3.3606914E-1,4.526609E-2,-5.3179547E-2,-3.319096E-1,1.3394672E-1,1.5703303E-1,-6.535608E-2,-5.153803E-1,-1.15068495E-1,3.1645667E-2,1.6694961E-1,8.190238E-2,-1.5393752E-1,3.0956384E-2,1.546247E-1,5.4965414E-2,2.2661793E-1,-1.1677991E-1,3.8474616E-2,-1.3284373E-1,-2.5871392E-2,-2.9497745E-3,8.649724E-2,2.8009725E-1,7.0051305E-2,-6.601121E-5,2.6884776E-1,-3.4012568E-1,-4.718197E-2,-1.7179996E-1,-3.0064879E-2],"categories":[],"categories_nodes":[],"categories_segments":[],"categories_sizes":[],"default_left":[0,0,0,0,0,0,0,0,0,0,0,0,0,0,0,0,0,0,0,0,0,0,0,0,0,0,0,0,0,0,0,0,0,0,0,0,0],"id":15,"left_children":[1,3,5,7,9,11,13,15,17,-1,19,21,23,-1,25,27,29,31,33,-1,-1,-1,-1,35,-1,-1,-1,-1,-1,-1,-1,-1,-1,-1,-1,-1,-1],"loss_changes":[3.0206242E-1,3.136238E-1,4.46055E-1,2.3806652E-1,5.005326E-1,1.4133336E-1,1.7215872E-1,2.6122656E-1,4.0803504E-1,0E0,1.8760934E-3,1.3137482E-2,5.8669824E-2,0E0,1.3179928E-3,2.8003994E-1,1.5229836E-1,2.019125E-1,3.179816E-1,0E0,0E0,0E0,0E0,2.6213668E-2,0E0,0E0,0E0,0E0,0E0,0E0,0E0,0E0,0E0,0E0,0E0,0E0,0E0],"parents":[2147483647,0,0,1,1,2,2,3,3,4,4,5,5,6,6,7,7,8,8,10,10,11,11,12,12,14,14,15,15,16,16,17,17,18,18,23,23],"right_children":[2,4,6,8,10,12,14,16,18,-1,20,22,24,-1,26,28,30,32,34,-1,-1,-1,-1,36,-1,-1,-1,-1,-1,-1,-1,-1,-1,-1,-1,-1,-1],"split_conditions":[4.8004E1,2.5083401E0,1.2076195E0,6.5E-1,9E-2,1.1745726E0,-1E-2,7E0,1.5723665E0,-3.319096E-1,-2.6E-1,1.1326535E0,1.2227589E0,-5.153803E-1,1.3081095E0,1.6465229E0,2.109E0,1.078548E0,1.9295284E0,3.0956384E-2,1.546247E-1,5.4965414E-2,2.2661793E-1,3.2E0,3.8474616E-2,-1.3284373E-1,-2.5871392E-2,-2.9497745E-3,8.649724E-2,2.8009725E-1,7.0051305E-2,-6.601121E-5,2.6884776E-1,-3.4012568E-1,-4.718197E-2,-1.7179996E-1,-3.0064879E-2],"split_indices":[8,0,12,1,2,0,1,5,10,0,1,0,10,0,0,12,13,10,11,0,0,0,0,4,0,0,0,0,0,0,0,0,0,0,0,0,0],"split_type":[0,0,0,0,0,0,0,0,0,0,0,0,0,0,0,0,0,0,0,0,0,0,0,0,0,0,0,0,0,0,0,0,0,0,0,0,0],"sum_hessian":[2.14E2,1.97E2,1.7E1,1.89E2,8E0,1.2E1,5E0,1.61E2,2.8E1,5E0,3E0,3E0,9E0,2E0,3E0,1.46E2,1.5E1,1.2E1,1.6E1,1E0,2E0,2E0,1E0,6E0,3E0,2E0,1E0,9E1,5.6E1,6E0,9E0,9E0,3E0,5E0,1.1E1,3E0,3E0],"tree_param":{"num_deleted":"0","num_feature":"14","num_nodes":"37","size_leaf_vector":"1"}},{"base_weights":[-1.8001684E-3,3.5710305E-3,-2.3010473E-1,-2.056069E-3,1.6928308E-1,-2.7616417E-1,-1.7933484E-2,3.0014785E-2,-2.3328278E-2,-7.5766675E-2,2.2441916E-1,6.973574E-3,1.9421415E-1,9.734086E-3,-9.589328E-2,1.9569794E-2,-1.6624896E-1,-2.8928576E-2,2.9540798E-1,8.687362E-2,-1.9648183E-2,-3.0760854E-1,-3.9655298E-2],"categories":[],"categories_nodes":[],"categories_segments":[],"categories_sizes":[],"default_left":[0,0,0,0,0,0,0,0,0,0,0,0,0,0,0,0,0,0,0,0,0,0,0],"id":16,"left_children":[1,3,5,7,9,-1,-1,11,13,-1,-1,15,17,19,21,-1,-1,-1,-1,-1,-1,-1,-1],"loss_changes":[2.6673496E-1,1.9877322E-1,4.0968865E-2,1.40488E-1,1.1306758E-1,0E0,0E0,3.0686864E-1,2.992922E-1,0E0,0E0,1.6106893E-1,2.3701721E-1,1.9730112E-1,4.486801E-1,0E0,0E0,0E0,0E0,0E0,0E0,0E0,0E0],"parents":[2147483647,0,0,1,1,2,2,3,3,4,4,7,7,8,8,11,11,12,12,13,13,14,14],"right_children":[2,4,6,8,10,-1,-1,12,14,-1,-1,16,18,20,22,-1,-1,-1,-1,-1,-1,-1,-1],"split_conditions":[2.5592296E0,1.48E0,-3.3E-1,1.1910319E0,-5.1E-1,-2.7616417E-1,-1.7933484E-2,1.1664811E0,2.1E-1,-7.5766675E-2,2.2441916E-1,7.3E-1,1.2139E1,1.3E0,2.8E-1,1.9569794E-2,-1.6624896E-1,-2.8928576E-2,2.9540798E-1,8.687362E-2,-1.9648183E-2,-3.0760854E-1,-3.9655298E-2],"split_indices":[12,3,1,11,2,0,0,11,2,0,0,3,8,6,2,0,0,0,0,0,0,0,0],"split_type":[0,0,0,0,0,0,0,0,0,0,0,0,0,0,0,0,0,0,0,0,0,0,0],"sum_hessian":[2.14E2,2.1E2,4E0,2.04E2,6E0,3E0,1E0,8.1E1,1.23E2,1E0,5E0,7.2E1,9E0,8.5E1,3.8E1,6.8E1,4E0,3E0,6E0,2.3E1,6.2E1,7E0,3.1E1],"tree_param":{"num_deleted":"0","num_feature":"14","num_nodes":"23","size_leaf_vector":"1"}},{"base_weights":[-1.5612458E-3,-9.5251806E-2,9.560226E-3,2.0755393E-2,-1.4792717E-1,-2.8365513E-3,6.046383E-2,6.4859465E-2,-3.089208E-3,-2.0243073E-1,-2.1682777E-2,-6.3085794E-2,1.13391485E-2,-9.4268456E-2,9.273452E-2,-2.0574717E-2,1.7921206E-2,-1.7748948E-2,-2.18124E-1,-7.644755E-2,5.523117E-2,2.8328896E-2,-1.3524579E-1,9.474495E-2,-3.211764E-3,-2.1616586E-1,-2.7632527E-4,1.7798266E-1,1.5986938E-2,-2.5600629E-2,-0E0,-2.3283046E-1,-3.788292E-2,-7.2116084E-2,1.7594154E-1,-4.3955628E-2,-1.8013535E-1,1.7689209E-1,-6.9920436E-2,1.04917474E-1,-1.29142525E-2,5.904972E-2,-3.2370266E-2,1.9320564E-1,-1.2569542E-2,-5.9933E-2,9.967721E-2],"categories":[],"categories_nodes":[],"categories_segments":[],"categories_sizes":[],"default_left":[0,0,0,0,0,0,0,0,0,0,0,0,0,0,0,0,0,0,0,0,0,0,0,0,0,0,0,0,0,0,0,0,0,0,0,0,0,0,0,0,0,0,0,0,0,0,0],"id":17,"left_children":[1,3,5,7,9,11,13,-1,15,17,19,21,23,25,27,29,-1,-1,31,-1,-1,33,35,37,39,-1,41,43,45,-1,-1,-1,-1,-1,-1,-1,-1,-1,-1,-1,-1,-1,-1,-1,-1,-1,-1],"loss_changes":[2.2579257E-1,1.448886E-1,1.2253864E-1,9.23122E-3,1.0346189E-1,1.3446853E-1,1.9847268E-1,0E0,2.5995255E-3,2.565068E-2,2.9707499E-2,2.0279503E-1,1.5535071E-1,7.797763E-2,2.0457771E-1,2.7290068E-4,0E0,0E0,1.49796605E-2,0E0,0E0,2.2130375E-1,5.9506714E-2,2.7044708E-1,1.1478928E-1,0E0,1.1164694E-2,4.774648E-2,1.2073909E-1,0E0,0E0,0E0,0E0,0E0,0E0,0E0,0E0,0E0,0E0,0E0,0E0,0E0,0E0,0E0,0E0,0E0,0E0],"parents":[2147483647,0,0,1,1,2,2,3,3,4,4,5,5,6,6,8,8,9,9,10,10,11,11,12,12,13,13,14,14,15,15,18,18,21,21,22,22,23,23,24,24,26,26,27,27,28,28],"right_children":[2,4,6,8,10,12,14,-1,16,18,20,22,24,26,28,30,-1,-1,32,-1,-1,34,36,38,40,-1,42,44,46,-1,-1,-1,-1,-1,-1,-1,-1,-1,-1,-1,-1,-1,-1,-1,-1,-1,-1],"split_conditions":[-9E-1,-4.2E0,5.2E-1,-6E-1,1.9675E1,1.4E0,1.0039371E0,6.4859465E-2,2.9E-1,-2.9729E1,1.2283461E0,3E-1,1.3E0,-1.547E0,1.8670453E0,1.2902924E0,1.7921206E-2,-1.7748948E-2,1.28E0,-7.644755E-2,5.523117E-2,-9E-1,1.1619661E0,1.4006E1,-7.4E-1,-2.1616586E-1,-3.6E-1,3.9334E1,2.1112485E0,-2.5600629E-2,-0E0,-2.3283046E-1,-3.788292E-2,-7.2116084E-2,1.7594154E-1,-4.3955628E-2,-1.8013535E-1,1.7689209E-1,-6.9920436E-2,1.04917474E-1,-1.29142525E-2,5.904972E-2,-3.2370266E-2,1.9320564E-1,-1.2569542E-2,-5.9933E-2,9.967721E-2],"split_indices":[6,6,3,4,13,4,12,0,1,7,0,4,6,7,10,0,0,0,3,0,0,4,10,7,1,0,1,7,11,0,0,0,0,0,0,0,0,0,0,0,0,0,0,0,0,0,0],"split_type":[0,0,0,0,0,0,0,0,0,0,0,0,0,0,0,0,0,0,0,0,0,0,0,0,0,0,0,0,0,0,0,0,0,0,0,0,0,0,0,0,0,0,0,0,0,0,0],"sum_hessian":[2.14E2,2.2E1,1.92E2,7E0,1.5E1,1.55E2,3.7E1,2E0,5E0,1E1,5E0,2.9E1,1.26E2,6E0,3.1E1,3E0,2E0,1E0,9E0,3E0,2E0,1.3E1,1.6E1,1.8E1,1.08E2,2E0,4E0,1.4E1,1.7E1,2E0,1E0,8E0,1E0,8E0,5E0,6E0,1E1,1.2E1,6E0,8E0,1E2,1E0,3E0,1.3E1,1E0,9E0,8E0],"tree_param":{"num_deleted":"0","num_feature":"14","num_nodes":"47","size_leaf_vector":"1"}},{"base_weights":[-8.7634654E-4,-2.8333468E-2,1.2505254E-2,-7.321652E-2,3.1619385E-2,1.1787382E-1,4.5920853E-3,-4.4416413E-2,-2.0532896E-1,1.9320747E-3,1.3169986E-1,2.4837029E-1,2.5036717E-2,-3.336835E-2,3.3375077E-2,-1.3899957E-1,-1.0873273E-2,-3.111148E-2,9.277429E-2,4.2097386E-2,1.8587738E-1,1.000718E-1,-2.299168E-2,-4.8026554E-2,1.0245025E-1,1.6296321E-1,1.8162683E-2,-2.3401614E-2,-1.672559E-1,2.5427943E-2,-6.689577E-2,1.6320249E-2,-8.673788E-2,-0E0,1.3090767E-1,4.0849415E-3,-4.573774E-2,5.6363735E-2,-6.762408E-2,1.45588E-1,4.1984376E-2,-1.813642E-2,2.2801916E-1,-2.1277606E-1,2.4644323E-2],"categories":[],"categories_nodes":[],"categories_segments":[],"categories_sizes":[],"default_left":[0,0,0,0,0,0,0,0,0,0,0,0,0,0,0,0,0,0,0,0,0,0,0,0,0,0,0,0,0,0,0,0,0,0,0,0,0,0,0,0,0,0,0,0,0],"id":18,"left_children":[1,3,5,7,9,11,13,15,-1,17,19,-1,21,23,25,27,29,31,33,-1,-1,-1,35,37,39,41,43,-1,-1,-1,-1,-1,-1,-1,-1,-1,-1,-1,-1,-1,-1,-1,-1,-1,-1],"loss_changes":[7.950794E-2,1.9378258E-1,1.19134925E-1,1.4438148E-1,9.051397E-2,1.1219671E-1,1.4970936E-1,1.08031444E-1,0E0,7.854671E-2,2.3876384E-2,0E0,2.8298326E-2,1.2183669E-1,1.4899388E-1,2.3576751E-2,5.7025187E-2,5.2250437E-2,2.543462E-2,0E0,0E0,0E0,3.6827968E-3,1.1439687E-1,7.662028E-3,1.0048713E-1,1.096396E-1,0E0,0E0,0E0,0E0,0E0,0E0,0E0,0E0,0E0,0E0,0E0,0E0,0E0,0E0,0E0,0E0,0E0,0E0],"parents":[2147483647,0,0,1,1,2,2,3,3,4,4,5,5,6,6,7,7,9,9,10,10,12,12,13,13,14,14,15,15,16,16,17,17,18,18,22,22,23,23,24,24,25,25,26,26],"right_children":[2,4,6,8,10,12,14,16,-1,18,20,-1,22,24,26,28,30,32,34,-1,-1,-1,36,38,40,42,44,-1,-1,-1,-1,-1,-1,-1,-1,-1,-1,-1,-1,-1,-1,-1,-1,-1,-1],"split_conditions":[-8E-2,1.8271326E0,9.0282696E-1,1.2684269E0,1.6939E1,2.66E-1,1.085E1,1.0039371E0,-2.0532896E-1,2.447168E0,3.1E0,2.4837029E-1,8.821451E-1,9.3E0,1.2793E1,8.516654E-1,1.214529E0,2.3371093E0,2.2E0,4.2097386E-2,1.8587738E-1,1.000718E-1,9.0282696E-1,-3.67E0,3.9E0,-2.992E0,1.2979E1,-2.3401614E-2,-1.672559E-1,2.5427943E-2,-6.689577E-2,1.6320249E-2,-8.673788E-2,-0E0,1.3090767E-1,4.0849415E-3,-4.573774E-2,5.6363735E-2,-6.762408E-2,1.45588E-1,4.1984376E-2,-1.813642E-2,2.2801916E-1,-2.1277606E-1,2.4644323E-2],"split_indices":[1,10,10,12,7,7,7,0,0,0,6,0,10,5,7,10,10,12,4,0,0,0,0,9,4,9,7,0,0,0,0,0,0,0,0,0,0,0,0,0,0,0,0,0,0],"split_type":[0,0,0,0,0,0,0,0,0,0,0,0,0,0,0,0,0,0,0,0,0,0,0,0,0,0,0,0,0,0,0,0,0,0,0,0,0,0,0,0,0,0,0,0,0],"sum_hessian":[2.14E2,7E1,1.44E2,4E1,3E1,9E0,1.35E2,3.4E1,6E0,2.4E1,6E0,3E0,6E0,5.8E1,7.7E1,8E0,2.6E1,1.8E1,6E0,3E0,3E0,2E0,4E0,5.3E1,5E0,7E0,7E1,2E0,6E0,1.6E1,1E1,1E1,8E0,2E0,4E0,2E0,2E0,8E0,4.5E1,2E0,3E0,2E0,5E0,1E0,6.9E1],"tree_param":{"num_deleted":"0","num_feature":"14","num_nodes":"45","size_leaf_vector":"1"}},{"base_weights":[1.770837E-3,-2.0556245E-3,6.750645E-2,1.6251313E-2,-1.8571526E-2,6.187395E-3,1.261276E-1,-6.7237914E-3,4.4305954E-2,-3.5963167E-2,2.9700981E-2,2.647594E-2,-2.6355978E-2,1.5238762E-1,-0E0,2.2549739E-3,-6.87605E-2,-5.8748826E-2,6.911671E-2,6.232469E-2,-4.4909813E-2,8.83059E-2,-3.0217333E-2,3.726582E-2,-3.3417894E-3,-7.229112E-3,4.5267023E-2,-7.887781E-2,-0E0,-2.4381692E-3,-1.6722408E-1,1.4876285E-1,4.4417195E-2,-0E0,8.807073E-2,2.9257497E-2,-6.1359525E-2,4.443608E-2,1.6515832E-1,-7.5994805E-2,4.9448013E-2],"categories":[],"categories_nodes":[],"categories_segments":[],"categories_sizes":[],"default_left":[0,0,0,0,0,0,0,0,0,0,0,0,0,0,0,0,0,0,0,0,0,0,0,0,0,0,0,0,0,0,0,0,0,0,0,0,0,0,0,0,0],"id":19,"left_children":[1,3,5,7,9,11,13,15,17,19,21,23,-1,-1,-1,25,27,29,31,33,35,37,39,-1,-1,-1,-1,-1,-1,-1,-1,-1,-1,-1,-1,-1,-1,-1,-1,-1,-1],"loss_changes":[5.4873254E-2,6.2005546E-2,4.1031577E-2,6.3195884E-2,9.180087E-2,5.320803E-3,2.06609E-2,3.0898813E-2,1.1666635E-1,7.2972566E-2,1.0508299E-1,2.072423E-3,0E0,0E0,0E0,2.0288259E-2,4.2342097E-3,5.2870482E-2,6.2280506E-2,1.159169E-2,9.2398554E-2,4.113759E-2,5.8726434E-2,0E0,0E0,0E0,0E0,0E0,0E0,0E0,0E0,0E0,0E0,0E0,0E0,0E0,0E0,0E0,0E0,0E0,0E0],"parents":[2147483647,0,0,1,1,2,2,3,3,4,4,5,5,6,6,7,7,8,8,9,9,10,10,11,11,15,15,16,16,17,17,18,18,19,19,20,20,21,21,22,22],"right_children":[2,4,6,8,10,12,14,16,18,20,22,24,-1,-1,-1,26,28,30,32,34,36,38,40,-1,-1,-1,-1,-1,-1,-1,-1,-1,-1,-1,-1,-1,-1,-1,-1,-1,-1],"split_conditions":[1.19E0,3.1E0,4.2E-1,1.3767663E0,5.6E0,6.6E-1,1.76E0,1.3767663E0,-5.6E-1,-1.0841E1,1.9E-1,2.63E0,-2.6355978E-2,1.5238762E-1,-0E0,4.2072E1,2.1062796E0,1.6514E1,1.6998154E0,-2.85E0,9.910079E-1,1.4362367E0,2.147E1,3.726582E-2,-3.3417894E-3,-7.229112E-3,4.5267023E-2,-7.887781E-2,-0E0,-2.4381692E-3,-1.6722408E-1,1.4876285E-1,4.4417195E-2,-0E0,8.807073E-2,2.9257497E-2,-6.1359525E-2,4.443608E-2,1.6515832E-1,-7.5994805E-2,4.9448013E-2],"split_indices":[1,4,3,10,6,2,1,0,3,8,2,1,0,0,0,8,0,9,0,3,10,10,9,0,0,0,0,0,0,0,0,0,0,0,0,0,0,0,0,0,0],"split_type":[0,0,0,0,0,0,0,0,0,0,0,0,0,0,0,0,0,0,0,0,0,0,0,0,0,0,0,0,0,0,0,0,0,0,0,0,0,0,0,0,0],"sum_hessian":[2.14E2,2.03E2,1.1E1,9.6E1,1.07E2,6E0,5E0,5.3E1,4.3E1,7.9E1,2.8E1,4E0,2E0,4E0,1E0,4.7E1,6E0,8E0,3.5E1,6E0,7.3E1,1.4E1,1.4E1,3E0,1E0,3.9E1,8E0,5E0,1E0,6E0,2E0,7E0,2.8E1,2E0,4E0,1.3E1,6E1,1E1,4E0,9E0,5E0],"tree_param":{"num_deleted":"0","num_feature":"14","num_nodes":"41","size_leaf_vector":"1"}},{"base_weights":[1.7412759E-3,-2.1484515E-3,3.6416996E-2,7.8356976E-4,-1.1513557E-1,3.804549E-3,1.0432874E-1,-1.39151355E-2,1.015896E-2,1.011395E-2,-1.5147644E-1,4.589942E-2,-3.292473E-2,1.2358987E-1,-6.190492E-4,-3.2110692E-3,-5.884606E-2,3.563743E-2,-6.1211595E-3,-8.418477E-3,6.707513E-2,-5.148549E-2,-5.779026E-3,-1.803284E-2,2.9975625E-2,-0E0,-1.3829556E-1,5.1215917E-2,-1.7677382E-2,1.17532365E-1,-9.658989E-3,2.9770909E-2,9.112239E-2,-1.2601611E-2,-0E0],"categories":[],"categories_nodes":[],"categories_segments":[],"categories_sizes":[],"default_left":[0,0,0,0,0,0,0,0,0,0,0,0,0,0,0,0,0,0,0,0,0,0,0,0,0,0,0,0,0,0,0,0,0,0,0],"id":20,"left_children":[1,3,5,7,9,11,13,15,17,-1,-1,19,21,-1,-1,23,25,27,29,-1,31,-1,33,-1,-1,-1,-1,-1,-1,-1,-1,-1,-1,-1,-1],"loss_changes":[2.9419933E-2,6.550219E-2,4.7246635E-2,2.6286962E-2,2.5704026E-2,2.63788E-2,1.5456118E-2,3.47803E-2,4.9044035E-2,0E0,0E0,1.0352997E-2,3.6644237E-3,0E0,0E0,3.0426135E-2,6.627394E-2,3.9446697E-2,3.1553995E-2,0E0,1.4606565E-3,0E0,3.094161E-4,0E0,0E0,0E0,0E0,0E0,0E0,0E0,0E0,0E0,0E0,0E0,0E0],"parents":[2147483647,0,0,1,1,2,2,3,3,4,4,5,5,6,6,7,7,8,8,11,11,12,12,15,15,16,16,17,17,18,18,20,20,22,22],"right_children":[2,4,6,8,10,12,14,16,18,-1,-1,20,22,-1,-1,24,26,28,30,-1,32,-1,34,-1,-1,-1,-1,-1,-1,-1,-1,-1,-1,-1,-1],"split_conditions":[4.4635E1,3.994E1,1.2637594E0,-2E-2,9.9794817E-1,-2.2E-1,1.5399107E0,-7E-2,3E-2,1.011395E-2,-1.5147644E-1,-9.1E-1,0E0,1.2358987E-1,-6.190492E-4,2.3165143E0,1.1857E1,6.8E0,8.821451E-1,-8.418477E-3,2.8546E1,-5.148549E-2,2.85E1,-1.803284E-2,2.9975625E-2,-0E0,-1.3829556E-1,5.1215917E-2,-1.7677382E-2,1.17532365E-1,-9.658989E-3,2.9770909E-2,9.112239E-2,-1.2601611E-2,-0E0],"split_indices":[13,13,10,2,0,2,0,2,3,0,0,2,2,0,0,10,8,4,12,0,8,0,9,0,0,0,0,0,0,0,0,0,0,0,0],"split_type":[0,0,0,0,0,0,0,0,0,0,0,0,0,0,0,0,0,0,0,0,0,0,0,0,0,0,0,0,0,0,0,0,0,0,0],"sum_hessian":[2.14E2,1.93E2,2.1E1,1.89E2,4E0,1.5E1,6E0,7.3E1,1.16E2,1E0,3E0,7E0,8E0,5E0,1E0,6E1,1.3E1,4.5E1,7.1E1,2E0,5E0,4E0,4E0,4.2E1,1.8E1,8E0,5E0,3.5E1,1E1,1E0,7E1,3E0,2E0,2E0,2E0],"tree_param":{"num_deleted":"0","num_feature":"14","num_nodes":"35","size_leaf_vector":"1"}},{"base_weights":[1.3897158E-4,-8.0412645E-3,1.3365868E-2,5.809596E-3,-1.863743E-2,2.301852E-2,-1.9833516E-2,-1.3321434E-2,2.100951E-2,-2.2081602E-2,4.6378072E-2,1.1314665E-2,5.7529412E-2,-8.30618E-2,1.4968904E-2,-1.2282043E-3,-5.176083E-2,3.2480806E-2,-2.48097E-2,-3.0388031E-2,1.1395788E-2,6.148028E-2,-0E0,1.6166119E-2,-1.08203284E-1,7.9855E-2,1.5988655E-2,-0E0,-1.14426084E-1,-1.9945798E-2,2.8437894E-2,-2.1948867E-2,1.2442116E-2,5.2091304E-2,6.5855514E-3,1.5759526E-2,-6.16765E-2,2.0665435E-2,-3.785033E-2,7.440448E-2,-3.252047E-3,-1.892183E-2,2.9640151E-2,8.8206545E-2,-0E0,2.9398965E-2,-8.358078E-3,1.2246723E-2,-1.6897794E-2,4.058802E-2,6.170164E-3],"categories":[],"categories_nodes":[],"categories_segments":[],"categories_sizes":[],"default_left":[0,0,0,0,0,0,0,0,0,0,0,0,0,0,0,0,0,0,0,0,0,0,0,0,0,0,0,0,0,0,0,0,0,0,0,0,0,0,0,0,0,0,0,0,0,0,0,0,0,0,0],"id":21,"left_children":[1,3,5,7,9,11,13,15,17,19,21,23,25,27,29,31,-1,33,35,37,39,-1,-1,41,-1,43,45,47,-1,-1,49,-1,-1,-1,-1,-1,-1,-1,-1,-1,-1,-1,-1,-1,-1,-1,-1,-1,-1,-1,-1],"loss_changes":[2.342354E-2,1.9756436E-2,2.7086742E-2,1.722258E-2,1.7799405E-2,2.4914816E-2,4.3733723E-2,1.1492806E-2,1.822754E-2,2.0835876E-2,2.7357712E-3,2.9820645E-2,1.260354E-2,1.7171815E-2,6.7655924E-3,6.316578E-3,0E0,1.2781294E-2,1.1900764E-2,2.3431651E-2,1.4797604E-2,0E0,0E0,2.383406E-2,0E0,6.255336E-3,2.741608E-3,8.7103527E-4,0E0,0E0,1.987541E-3,0E0,0E0,0E0,0E0,0E0,0E0,0E0,0E0,0E0,0E0,0E0,0E0,0E0,0E0,0E0,0E0,0E0,0E0,0E0,0E0],"parents":[2147483647,0,0,1,1,2,2,3,3,4,4,5,5,6,6,7,7,8,8,9,9,10,10,11,11,12,12,13,13,14,14,15,15,17,17,18,18,19,19,20,20,23,23,25,25,26,26,27,27,30,30],"right_children":[2,4,6,8,10,12,14,16,18,20,22,24,26,28,30,32,-1,34,36,38,40,-1,-1,42,-1,44,46,48,-1,-1,50,-1,-1,-1,-1,-1,-1,-1,-1,-1,-1,-1,-1,-1,-1,-1,-1,-1,-1,-1,-1],"split_conditions":[3.9E0,3.469E0,2.2621973E0,2.135E0,2.4761214E0,1.6465229E0,5.617E0,-1.054E0,2.2225456E0,3.1294E1,2.3512948E0,1.9295284E0,2.1887407E0,-6.039E0,2.3225513E0,-5.8E-1,-5.176083E-2,4.855E0,-8.07E-1,6E-1,1.1287782E0,6.148028E-2,-0E0,2.7E0,-1.08203284E-1,2.408993E0,2.8E-1,2.3165143E0,-1.14426084E-1,-1.9945798E-2,4E0,-2.1948867E-2,1.2442116E-2,5.2091304E-2,6.5855514E-3,1.5759526E-2,-6.16765E-2,2.0665435E-2,-3.785033E-2,7.440448E-2,-3.252047E-3,-1.892183E-2,2.9640151E-2,8.8206545E-2,-0E0,2.9398965E-2,-8.358078E-3,1.2246723E-2,-1.6897794E-2,4.058802E-2,6.170164E-3],"split_indices":[4,8,12,9,10,12,9,9,10,7,0,0,12,13,10,2,0,13,7,5,11,0,0,6,0,0,1,0,0,0,6,0,0,0,0,0,0,0,0,0,0,0,0,0,0,0,0,0,0,0,0],"split_type":[0,0,0,0,0,0,0,0,0,0,0,0,0,0,0,0,0,0,0,0,0,0,0,0,0,0,0,0,0,0,0,0,0,0,0,0,0,0,0,0,0,0,0,0,0,0,0,0,0,0,0],"sum_hessian":[2.14E2,1.32E2,8.2E1,5.7E1,7.5E1,6.4E1,1.8E1,2.5E1,3.2E1,7.2E1,3E0,4.9E1,1.5E1,6E0,1.2E1,2E1,5E0,2.6E1,6E0,5.8E1,1.4E1,2E0,1E0,4.8E1,1E0,9E0,6E0,2E0,4E0,3E0,9E0,8E0,1.2E1,1.4E1,1.2E1,3E0,3E0,7E0,5.1E1,2E0,1.2E1,1.3E1,3.5E1,8E0,1E0,4E0,2E0,1E0,1E0,5E0,4E0],"tree_param":{"num_deleted":"0","num_feature":"14","num_nodes":"51","size_leaf_vector":"1"}},{"base_weights":[1.01667765E-5,-1.1746273E-3,6.530172E-2,-1.6748756E-2,2.3753135E-3,7.543285E-2,1.2454147E-2,7.2422237E-3,-2.5320489E-2,4.3648176E-2,4.906459E-5,3.4483947E-2,-1.953987E-2,-3.7147384E-2,1.0480394E-3,1.9897511E-2,8.118367E-2,-8.335148E-3,7.0684804E-3,3.914914E-2,5.7899486E-4,-3.781835E-2,-0E0,-2.8682763E-3,-5.0001144E-2,9.578555E-3,-1.8716015E-2,2.4636148E-2,2.0339459E-3,-3.2576006E-2,-1.5653331E-3,2.0104965E-2,-8.381345E-3],"categories":[],"categories_nodes":[],"categories_segments":[],"categories_sizes":[],"default_left":[0,0,0,0,0,0,0,0,0,0,0,0,0,0,0,0,0,0,0,0,0,0,0,0,0,0,0,0,0,0,0,0,0],"id":22,"left_children":[1,3,5,7,9,-1,-1,11,13,15,17,19,21,23,25,27,-1,29,31,-1,-1,-1,-1,-1,-1,-1,-1,-1,-1,-1,-1,-1,-1],"loss_changes":[1.7349739E-2,1.1904412E-2,3.233049E-4,8.589933E-3,1.6170781E-2,0E0,0E0,8.848748E-3,9.75566E-3,5.3972695E-3,9.756874E-3,5.290895E-4,1.9998432E-3,8.580811E-3,1.7738735E-3,2.7573318E-4,0E0,1.1915553E-2,1.8614182E-2,0E0,0E0,0E0,0E0,0E0,0E0,0E0,0E0,0E0,0E0,0E0,0E0,0E0,0E0],"parents":[2147483647,0,0,1,1,2,2,3,3,4,4,7,7,8,8,9,9,10,10,11,11,12,12,13,13,14,14,15,15,17,17,18,18],"right_children":[2,4,6,8,10,-1,-1,12,14,16,18,20,22,24,26,28,-1,30,32,-1,-1,-1,-1,-1,-1,-1,-1,-1,-1,-1,-1,-1,-1],"split_conditions":[1.03E1,-3.001E0,1.1619661E0,-2.2951E1,-1.204E0,7.543285E-2,1.2454147E-2,2.4E0,4.5E-1,3.9E0,-1E-2,1.76E0,1.2004002E0,6.65E-1,9.1E-1,3.4E-1,8.118367E-2,1.122363E0,6E-2,3.914914E-2,5.7899486E-4,-3.781835E-2,-0E0,-2.8682763E-3,-5.0001144E-2,9.578555E-3,-1.8716015E-2,2.4636148E-2,2.0339459E-3,-3.2576006E-2,-1.5653331E-3,2.0104965E-2,-8.381345E-3],"split_indices":[4,13,0,13,13,0,0,4,1,5,3,3,0,9,2,2,0,12,1,0,0,0,0,0,0,0,0,0,0,0,0,0,0],"split_type":[0,0,0,0,0,0,0,0,0,0,0,0,0,0,0,0,0,0,0,0,0,0,0,0,0,0,0,0,0,0,0,0,0],"sum_hessian":[2.14E2,2.11E2,3E0,3.9E1,1.72E2,2E0,1E0,1E1,2.9E1,8E0,1.64E2,5E0,5E0,2E1,9E0,6E0,2E0,7.4E1,9E1,4E0,1E0,2E0,3E0,6E0,1.4E1,7E0,2E0,4E0,2E0,1.5E1,5.9E1,4.9E1,4.1E1],"tree_param":{"num_deleted":"0","num_feature":"14","num_nodes":"33","size_leaf_vector":"1"}},{"base_weights":[5.5560755E-4,-3.1940427E-2,2.0141036E-3,-5.3470686E-2,-1.672168E-2,7.1269544E-3,-6.761033E-3,-0E0,-1.8505998E-2,-1.6385932E-3,9.932604E-3,-4.1098714E-2,-2.5369395E-3,-1.1681112E-2,1.7686317E-2,3.479334E-2,6.077298E-3,-3.5669785E-3,-7.5238705E-2,2.8652292E-2,-6.120871E-3,2.4349522E-4,-2.072457E-2,3.9225534E-2,-1.400585E-2,6.9450918E-3,5.008036E-2,1.8137597E-2,-5.090266E-4,-8.019206E-3,-0E0,3.9504725E-2,-1.3231154E-2,-1.9777924E-2,3.740246E-3],"categories":[],"categories_nodes":[],"categories_segments":[],"categories_sizes":[],"default_left":[0,0,0,0,0,0,0,0,0,0,0,0,0,0,0,0,0,0,0,0,0,0,0,0,0,0,0,0,0,0,0,0,0,0,0],"id":23,"left_children":[1,3,5,-1,7,9,11,-1,-1,13,15,17,19,21,23,25,27,29,-1,31,33,-1,-1,-1,-1,-1,-1,-1,-1,-1,-1,-1,-1,-1,-1],"loss_changes":[9.955065E-3,1.3529286E-3,9.339101E-3,0E0,9.75295E-5,3.345497E-3,1.0482842E-2,0E0,0E0,6.356809E-3,9.060264E-3,9.1942325E-3,7.6628877E-3,2.5823305E-3,8.310452E-3,4.6162494E-3,7.2550587E-3,1.2930631E-4,0E0,3.9671897E-3,8.718802E-3,0E0,0E0,0E0,0E0,0E0,0E0,0E0,0E0,0E0,0E0,0E0,0E0,0E0,0E0],"parents":[2147483647,0,0,1,1,2,2,4,4,5,5,6,6,9,9,10,10,11,11,12,12,13,13,14,14,15,15,16,16,17,17,19,19,20,20],"right_children":[2,4,6,-1,8,10,12,-1,-1,14,16,18,20,22,24,26,28,30,-1,32,34,-1,-1,-1,-1,-1,-1,-1,-1,-1,-1,-1,-1,-1,-1],"split_conditions":[-1.71E0,-4.5E0,1.5441E1,-5.3470686E-2,-5E0,9.8553723E-1,1.7633E1,-0E0,-1.8505998E-2,4.7E0,1.0165124E0,-4E-2,1.1337645E0,2.993E0,6.6E0,3.4E0,1.9E0,2.3914106E0,-7.5238705E-2,6.6E-1,1.2637594E0,2.4349522E-4,-2.072457E-2,3.9225534E-2,-1.400585E-2,6.9450918E-3,5.008036E-2,1.8137597E-2,-5.090266E-4,-8.019206E-3,-0E0,3.9504725E-2,-1.3231154E-2,-1.9777924E-2,3.740246E-3],"split_indices":[1,4,9,0,6,11,9,0,0,6,12,1,11,13,4,5,6,0,0,2,0,0,0,0,0,0,0,0,0,0,0,0,0,0,0],"split_type":[0,0,0,0,0,0,0,0,0,0,0,0,0,0,0,0,0,0,0,0,0,0,0,0,0,0,0,0,0,0,0,0,0,0,0],"sum_hessian":[2.14E2,8E0,2.06E2,2E0,6E0,1.31E2,7.5E1,1E0,5E0,3.1E1,1E2,7E0,6.8E1,2.1E1,1E1,1.2E1,8.8E1,4E0,3E0,6E0,6.2E1,9E0,1.2E1,6E0,4E0,5E0,7E0,3.1E1,5.7E1,2E0,2E0,5E0,1E0,2.6E1,3.6E1],"tree_param":{"num_deleted":"0","num_feature":"14","num_nodes":"35","size_leaf_vector":"1"}},{"base_weights":[-3.5058678E-4,-1.8711552E-2,1.0700433E-3,-0E0,-2.201678E-2,-9.6184964E-4,1.0317622E-2,-0E0,-2.5193293E-2,9.163069E-3,-3.8574713E-3,5.5418728E-5,3.3659607E-2,-2.7458146E-2,-0E0,1.8577134E-2,3.2653208E-3,-9.972226E-3,2.7161263E-4,1.0498594E-2,-1.3040099E-2,2.5235987E-3,4.3770164E-2,-0E0,-2.9845E-2,1.9810486E-3,3.5942394E-2,-1.6517635E-3,1.9958533E-2,8.51714E-3,-2.0010103E-2,-8.820357E-3,8.713839E-3,-4.388873E-4,1.6419167E-2,-1.8682497E-2,6.781257E-3,5.0316773E-2,-0E0],"categories":[],"categories_nodes":[],"categories_segments":[],"categories_sizes":[],"default_left":[0,0,0,0,0,0,0,0,0,0,0,0,0,0,0,0,0,0,0,0,0,0,0,0,0,0,0,0,0,0,0,0,0,0,0,0,0,0,0],"id":24,"left_children":[1,3,5,-1,7,9,11,-1,13,15,17,19,21,23,-1,25,27,29,31,33,35,-1,37,-1,-1,-1,-1,-1,-1,-1,-1,-1,-1,-1,-1,-1,-1,-1,-1],"loss_changes":[5.8045276E-3,1.1843857E-3,3.8614997E-3,0E0,8.300841E-4,4.790431E-3,8.523972E-3,0E0,6.7702355E-4,1.7196999E-3,3.3567501E-3,3.803975E-3,2.8894302E-3,6.1379094E-4,0E0,3.2961005E-3,2.1860008E-3,1.0121839E-2,5.986041E-3,1.2031073E-3,1.5877828E-3,0E0,2.3958273E-3,0E0,0E0,0E0,0E0,0E0,0E0,0E0,0E0,0E0,0E0,0E0,0E0,0E0,0E0,0E0,0E0],"parents":[2147483647,0,0,1,1,2,2,4,4,5,5,6,6,8,8,9,9,10,10,11,11,12,12,13,13,15,15,16,16,17,17,18,18,19,19,20,20,22,22],"right_children":[2,4,6,-1,8,10,12,-1,14,16,18,20,22,24,-1,26,28,30,32,34,36,-1,38,-1,-1,-1,-1,-1,-1,-1,-1,-1,-1,-1,-1,-1,-1,-1,-1],"split_conditions":[-1.9E0,-8.2388E1,5.1E-1,-0E0,9.147257E-1,-2.6E-1,2.0533E1,-0E0,2.3983195E0,5.913E0,2E-2,5.287E0,1.2139E1,-3.5E0,-0E0,-3.271E0,4.1E0,2E0,1.0321E1,-5.359E0,5E-1,2.5235987E-3,6.5E-1,-0E0,-2.9845E-2,1.9810486E-3,3.5942394E-2,-1.6517635E-3,1.9958533E-2,8.51714E-3,-2.0010103E-2,-8.820357E-3,8.713839E-3,-4.388873E-4,1.6419167E-2,-1.8682497E-2,6.781257E-3,5.0316773E-2,-0E0],"split_indices":[4,7,3,0,0,1,8,0,12,13,1,8,9,1,0,13,4,6,8,8,1,0,1,0,0,0,0,0,0,0,0,0,0,0,0,0,0,0,0],"split_type":[0,0,0,0,0,0,0,0,0,0,0,0,0,0,0,0,0,0,0,0,0,0,0,0,0,0,0,0,0,0,0,0,0,0,0,0,0,0,0],"sum_hessian":[2.14E2,1.5E1,1.99E2,2E0,1.3E1,1.63E2,3.6E1,2E0,1.1E1,3.5E1,1.28E2,2.6E1,1E1,1E1,1E0,1.2E1,2.3E1,5.2E1,7.6E1,1.5E1,1.1E1,3E0,7E0,1E0,9E0,7E0,5E0,1.8E1,5E0,1.8E1,3.4E1,3.6E1,4E1,5E0,1E1,9E0,2E0,6E0,1E0],"tree_param":{"num_deleted":"0","num_feature":"14","num_nodes":"39","size_leaf_vector":"1"}},{"base_weights":[4.127457E-4,3.19088E-3,-4.788711E-3,-6.1125173E-3,5.8267233E-3,-9.504166E-3,2.1107611E-3,-8.740216E-3,1.7992731E-2,3.5072835E-3,2.402978E-2,-1.3777825E-2,8.010227E-3,-6.249839E-3,7.103553E-3,-1.2449912E-2,3.2688195E-3,4.755497E-3,-1.53820105E-2,3.7960544E-2,-1.0653954E-3,-1.7327998E-2,1.7343102E-2,1.4155114E-2,-5.6645838E-3,8.857918E-4,-1.6989755E-2,2.0891178E-2,4.4826604E-4,-0E0,-2.114508E-2,9.701667E-3,-1.4812327E-3,-1.0156416E-2,6.5297913E-3,-1.7502258E-2,-0E0,-0E0,4.2280484E-2,-0E0,-3.8859814E-3,-2.2683756E-2,-1.205801E-3,-2.3242189E-3,2.8006949E-2,-5.970712E-3,4.6903277E-3,2.9596074E-2,-0E0,-3.6579304E-4,1.09225465E-2],"categories":[],"categories_nodes":[],"categories_segments":[],"categories_sizes":[],"default_left":[0,0,0,0,0,0,0,0,0,0,0,0,0,0,0,0,0,0,0,0,0,0,0,0,0,0,0,0,0,0,0,0,0,0,0,0,0,0,0,0,0,0,0,0,0,0,0,0,0,0,0],"id":25,"left_children":[1,3,5,7,9,11,13,15,-1,17,19,21,23,25,27,29,31,33,35,37,39,41,43,-1,-1,45,-1,47,49,-1,-1,-1,-1,-1,-1,-1,-1,-1,-1,-1,-1,-1,-1,-1,-1,-1,-1,-1,-1,-1,-1],"loss_changes":[3.106126E-3,3.5149243E-3,2.5015222E-3,2.0283158E-3,4.369091E-3,3.5363133E-3,1.3052153E-3,1.4244542E-3,0E0,2.3482486E-3,4.604534E-3,4.388303E-3,9.213596E-4,1.0190858E-3,1.6124528E-3,2.6945937E-3,3.104693E-4,2.5700333E-3,1.1200784E-4,9.854529E-4,3.9627215E-5,2.6695374E-3,1.1608388E-3,0E0,0E0,1.9780145E-4,0E0,8.850624E-4,2.3746317E-4,0E0,0E0,0E0,0E0,0E0,0E0,0E0,0E0,0E0,0E0,0E0,0E0,0E0,0E0,0E0,0E0,0E0,0E0,0E0,0E0,0E0,0E0],"parents":[2147483647,0,0,1,1,2,2,3,3,4,4,5,5,6,6,7,7,9,9,10,10,11,11,12,12,13,13,14,14,15,15,16,16,17,17,18,18,19,19,20,20,21,21,22,22,25,25,27,27,28,28],"right_children":[2,4,6,8,10,12,14,16,-1,18,20,22,24,26,28,30,32,34,36,38,40,42,44,-1,-1,46,-1,48,50,-1,-1,-1,-1,-1,-1,-1,-1,-1,-1,-1,-1,-1,-1,-1,-1,-1,-1,-1,-1,-1,-1],"split_conditions":[2.2E-1,-2.992E0,5.2E-1,3.9334E1,4E-1,8.2E0,1.1619661E0,6E-2,1.7992731E-2,6.0456E1,6.8E-1,4.812E1,6.8E-1,1.0686582E0,1.8670453E0,-8.2E-1,-5.361E0,-7.9E-1,3.2E0,3.9E0,1.001517E0,1.2578E1,1.2004002E0,1.4155114E-2,-5.6645838E-3,9.7723305E-1,-1.6989755E-2,2.8684E1,2.5945E1,-0E0,-2.114508E-2,9.701667E-3,-1.4812327E-3,-1.0156416E-2,6.5297913E-3,-1.7502258E-2,-0E0,-0E0,4.2280484E-2,-0E0,-3.8859814E-3,-2.2683756E-2,-1.205801E-3,-2.3242189E-3,2.8006949E-2,-5.970712E-3,4.6903277E-3,2.9596074E-2,-0E0,-3.6579304E-4,1.09225465E-2],"split_indices":[2,9,3,8,1,5,12,3,0,9,1,8,2,10,10,3,9,3,5,4,0,13,0,0,0,0,0,8,8,0,0,0,0,0,0,0,0,0,0,0,0,0,0,0,0,0,0,0,0,0,0],"split_type":[0,0,0,0,0,0,0,0,0,0,0,0,0,0,0,0,0,0,0,0,0,0,0,0,0,0,0,0,0,0,0,0,0,0,0,0,0,0,0,0,0,0,0,0,0,0,0,0,0,0,0],"sum_hessian":[2.14E2,1.41E2,7.3E1,3E1,1.11E2,4.4E1,2.9E1,2.8E1,2E0,1E2,1.1E1,3.6E1,8E0,1E1,1.9E1,2.2E1,6E0,9.5E1,5E0,7E0,4E0,3.3E1,3E0,6E0,2E0,6E0,4E0,5E0,1.4E1,9E0,1.3E1,3E0,3E0,9E0,8.6E1,4E0,1E0,1E0,6E0,2E0,2E0,2.4E1,9E0,1E0,2E0,1E0,5E0,3E0,2E0,1.3E1,1E0],"tree_param":{"num_deleted":"0","num_feature":"14","num_nodes":"51","size_leaf_vector":"1"}}]},"name":"gbtree"},"learner_model_param":{"base_score":"1.16966915E1","boost_from_average":"1","num_class":"0","num_feature":"14","num_target":"1"},"objective":{"name":"reg:squarederror","reg_loss_param":{"scale_pos_weight":"1"}}},"version":[2,1,4]}