{"learner":{"attributes":{"best_iteration":"0","best_score":"113.51242490915008","scikit_learn":"{\"_estimator_type\": \"regressor\"}"},"feature_names":["fedfunds_lag_9","fedfunds_lag_10","fedfunds_lag_11","fedfunds_lag_12","gdp_lag_9","gdp_lag_10","gdp_lag_11","gdp_lag_12","imports_lag_9","imports_lag_10","imports_lag_11","imports_lag_12","watr_lag_9","watr_lag_10","watr_lag_11","watr_lag_12","imports_lag_1"],"feature_types":["float","float","float","float","float","float","float","float","float","float","float","float","float","float","float","float","float"],"gradient_booster":{"model":{"gbtree_model_param":{"num_parallel_tree":"1","num_trees":"26"},"iteration_indptr":[0,1,2,3,4,5,6,7,8,9,10,11,12,13,14,15,16,17,18,19,20,21,22,23,24,25,26],"tree_info":[0,0,0,0,0,0,0,0,0,0,0,0,0,0,0,0,0,0,0,0,0,0,0,0,0,0],"trees":[{"base_weights":[-0E0,-1.0640333E2,1.5273207E0,-4.8856335E0,2.256749E1,-2.4908667E1,-3.2511532E0,1.908778E0,2.6551659E1,2.4917332E1,-3.73666E1,-5.0870376E0,9.674001E0,-1.2488999E1,7.808E0,4.0431927E1,1.8662893E1,3.4212997E1,3.1579995E0,-4.118667E1,-1.488E0,-1.4229999E0,-1.0190637E1,1.4790126E1,-1.32065E1,1.337675E1,2.8475004E-1,4.3873334E0,4.6072914E1,2.1213232E1,-9.657666E0],"categories":[],"categories_nodes":[],"categories_segments":[],"categories_sizes":[],"default_left":[0,0,0,0,0,0,0,0,0,0,0,0,0,0,0,0,0,0,0,0,0,0,0,0,0,0,0,0,0,0,0],"id":0,"left_children":[1,-1,3,5,7,9,11,13,15,17,19,21,23,-1,25,27,29,-1,-1,-1,-1,-1,-1,-1,-1,-1,-1,-1,-1,-1,-1],"loss_changes":[3.4452543E4,0E0,2.831073E4,5.187824E3,3.9821152E3,8.379947E3,3.6085298E3,8.618885E2,3.7342578E3,4.9838416E2,1.308875E3,2.4537534E3,2.4194724E3,0E0,2.8932004E2,2.6439375E3,2.2273418E3,0E0,0E0,0E0,0E0,0E0,0E0,0E0,0E0,0E0,0E0,0E0,0E0,0E0,0E0],"parents":[2147483647,0,0,2,2,3,3,4,4,5,5,6,6,7,7,8,8,9,9,10,10,11,11,12,12,14,14,15,15,16,16],"right_children":[2,-1,4,6,8,10,12,14,16,18,20,22,24,-1,26,28,30,-1,-1,-1,-1,-1,-1,-1,-1,-1,-1,-1,-1,-1,-1],"split_conditions":[-8.2388E1,-1.0640333E2,2.6147E1,-2.1961E1,1.1613433E0,7E-1,3.1294E1,-3.6E-1,1.2637594E0,0E0,4.9E-1,1E-1,5.6663E1,-1.2488999E1,2.4E0,-1.31E0,4.8119E1,3.4212997E1,3.1579995E0,-4.118667E1,-1.488E0,-1.4229999E0,-1.0190637E1,1.4790126E1,-1.32065E1,1.337675E1,2.8475004E-1,4.3873334E0,4.6072914E1,2.1213232E1,-9.657666E0],"split_indices":[16,0,16,16,14,7,10,0,14,0,1,0,9,0,4,2,10,0,0,0,0,0,0,0,0,0,0,0,0,0,0],"split_type":[0,0,0,0,0,0,0,0,0,0,0,0,0,0,0,0,0,0,0,0,0,0,0,0,0,0,0,0,0,0,0],"sum_hessian":[2.1E2,2E0,2.08E2,1.6E2,4.8E1,1.1E1,1.49E2,8E0,4E1,2E0,9E0,1.31E2,1.8E1,2E0,6E0,1.3E1,2.7E1,1E0,1E0,8E0,1E0,7.7E1,5.4E1,1.5E1,3E0,3E0,3E0,2E0,1.1E1,2.5E1,2E0],"tree_param":{"num_deleted":"0","num_feature":"17","num_nodes":"31","size_leaf_vector":"1"}},{"base_weights":[-2.7743477E-1,-3.546778E1,2.2896941E-1,-5.9274334E1,6.0676622E0,9.123777E-1,-1.50581455E1,-4.5814667E0,2.7619386E0,4.480937E0,-1.80619E1,-2.9591074E0,-1.8913353E1,5.796354E0,-1.3418472E0,-3.2066944E0,-2.2477518E1,-5.0718956E0,7.973473E0,-2.1881601E1,-3.5151815E0,2.6382093E0,1.1708555E1,-5.4183154E0,1.8892183E0,-5.0216665E0,2.066251E-1,-2.4288996E1,-6.705063E0],"categories":[],"categories_nodes":[],"categories_segments":[],"categories_sizes":[],"default_left":[0,0,0,0,0,0,0,0,0,0,0,0,0,0,0,0,0,0,0,0,0,0,0,0,0,0,0,0,0],"id":1,"left_children":[1,3,5,-1,-1,7,9,11,13,-1,15,17,19,21,23,25,27,-1,-1,-1,-1,-1,-1,-1,-1,-1,-1,-1,-1],"loss_changes":[3.7686072E3,3.3266357E3,2.1970916E3,0E0,0E0,2.0550369E3,6.092853E2,1.1296395E3,1.8881636E3,0E0,4.5242383E2,1.1260283E3,1.513562E2,1.5933948E3,8.664085E2,1.9670996E1,8.259766E0,0E0,0E0,0E0,0E0,0E0,0E0,0E0,0E0,0E0,0E0,0E0,0E0],"parents":[2147483647,0,0,1,1,2,2,5,5,6,6,7,7,8,8,10,10,11,11,12,12,13,13,14,14,15,15,16,16],"right_children":[2,4,6,-1,-1,8,10,12,14,-1,16,18,20,22,24,26,28,-1,-1,-1,-1,-1,-1,-1,-1,-1,-1,-1,-1],"split_conditions":[-8.2388E1,1E-2,6.0456E1,-5.9274334E1,6.0676622E0,1.0539463E0,-7E-1,1.0522742E0,3E-2,4.480937E0,1.1848879E0,7.944E0,4.5E-1,2.2796E1,3.1E0,-4E-2,3.2E0,-5.0718956E0,7.973473E0,-2.1881601E1,-3.5151815E0,2.6382093E0,1.1708555E1,-5.4183154E0,1.8892183E0,-5.0216665E0,2.066251E-1,-2.4288996E1,-6.705063E0],"split_indices":[16,0,11,0,0,12,4,15,2,0,12,10,0,9,5,0,4,0,0,0,0,0,0,0,0,0,0,0,0],"split_type":[0,0,0,0,0,0,0,0,0,0,0,0,0,0,0,0,0,0,0,0,0,0,0,0,0,0,0,0,0],"sum_hessian":[2.1E2,2E0,2.08E2,1E0,1E0,2E2,8E0,5E1,1.5E2,1E0,7E0,4.6E1,4E0,8.6E1,6.4E1,2E0,5E0,3.9E1,7E0,3E0,1E0,5.7E1,2.9E1,2.8E1,3.6E1,1E0,1E0,4E0,1E0],"tree_param":{"num_deleted":"0","num_feature":"17","num_nodes":"29","size_leaf_vector":"1"}},{"base_weights":[-4.5598269E-1,8.215836E-1,-5.0566354E0,4.8339105E-1,1.903225E1,1.6529367E0,-1.1276365E1,-9.664897E0,9.300026E-1,-1.2306461E1,6.214795E0,-2.1866377E1,-3.4639337E0,7.7924734E-1,-1.4000404E1,6.512816E0,2.6631096E-2,-1.3904285E1,-2.1536713E0,-5.0530972E0,1.3845553E1,-2.9530754E1,-8.293848E0,-1.2710136E1,-9.237176E-2,-8.4134257E-1,2.0152135E0,-2.67754E0,1.0980819E1,4.148644E0,-1.3742143E0,3.1902218E0,-6.6878886E0,2.4667362E1,6.702706E0,-2.7595818E-1,-1.0226831E1,-3.8854105E0,2.288574E0],"categories":[],"categories_nodes":[],"categories_segments":[],"categories_sizes":[],"default_left":[0,0,0,0,0,0,0,0,0,0,0,0,0,0,0,0,0,0,0,0,0,0,0,0,0,0,0,0,0,0,0,0,0,0,0,0,0,0,0],"id":2,"left_children":[1,3,5,7,-1,9,11,13,15,17,19,21,23,25,-1,27,29,-1,-1,31,33,-1,35,-1,37,-1,-1,-1,-1,-1,-1,-1,-1,-1,-1,-1,-1,-1,-1],"loss_changes":[1.2443787E3,1.01295105E3,1.9383948E3,7.522053E2,0E0,1.5410797E3,1.9096125E3,3.280066E2,7.966112E2,6.722839E1,1.617737E3,7.9494824E2,4.6631012E2,7.7162066E0,0E0,9.328603E2,7.968083E2,0E0,0E0,1.291797E2,6.8463184E2,0E0,7.4565E1,0E0,1.1728025E2,0E0,0E0,0E0,0E0,0E0,0E0,0E0,0E0,0E0,0E0,0E0,0E0,0E0,0E0],"parents":[2147483647,0,0,1,1,2,2,3,3,5,5,6,6,7,7,8,8,9,9,10,10,11,11,12,12,13,13,15,15,16,16,19,19,20,20,22,22,24,24],"right_children":[2,4,6,8,-1,10,12,14,16,18,20,22,24,26,-1,28,30,-1,-1,32,34,-1,36,-1,38,-1,-1,-1,-1,-1,-1,-1,-1,-1,-1,-1,-1,-1,-1],"split_conditions":[2.5945E1,8.0306E1,3E-2,-2.12E0,1.903225E1,3.1294E1,2.3369E1,-3.6E0,-7.3E-1,5E-2,1.1910319E0,4.9E-1,2.0049E1,-2.85E0,-1.4000404E1,-5.6E-1,1.5E0,-1.3904285E1,-2.1536713E0,1.8E0,2.7E0,-2.9530754E1,2.2E-1,-1.2710136E1,3.9E0,-8.4134257E-1,2.0152135E0,-2.67754E0,1.0980819E1,4.148644E0,-1.3742143E0,3.1902218E0,-6.6878886E0,2.4667362E1,6.702706E0,-2.7595818E-1,-1.0226831E1,-3.8854105E0,2.288574E0],"split_indices":[11,16,1,1,0,11,9,6,0,0,14,2,10,0,0,2,7,0,0,6,7,0,1,0,5,0,0,0,0,0,0,0,0,0,0,0,0,0,0],"split_type":[0,0,0,0,0,0,0,0,0,0,0,0,0,0,0,0,0,0,0,0,0,0,0,0,0,0,0,0,0,0,0,0,0,0,0,0,0,0,0],"sum_hessian":[2.1E2,1.65E2,4.5E1,1.63E2,2E0,2.2E1,2.3E1,6E0,1.57E2,5E0,1.7E1,9E0,1.4E1,2E0,4E0,2.1E1,1.36E2,4E0,1E0,7E0,1E1,5E0,4E0,3E0,1.1E1,1E0,1E0,7E0,1.4E1,3.4E1,1.02E2,1E0,6E0,3E0,7E0,1E0,3E0,4E0,7E0],"tree_param":{"num_deleted":"0","num_feature":"17","num_nodes":"39","size_leaf_vector":"1"}},{"base_weights":[-1.1977575E-1,-2.2259789E0,8.972717E-1,7.484949E-1,-6.608547E0,-7.082114E-1,3.479103E0,-1.4218919E0,4.0244694E0,-8.7206E0,2.5874147E0,4.8638546E-1,-5.79688E0,5.207722E0,-3.1482582E0,5.457408E-1,-6.8420005E0,1.4594402E1,1.641518E0,-1.0869556E1,-8.186322E-1,4.577073E0,1.2720684E0,7.4269404E0,-2.4585739E-1,-1.7671591E-1,-1.3799011E1,2.2268229E0,7.18539E0,-7.403087E0,-9.420779E-2,-2.4710474E0,4.5085983E0,-1.6404616E0,-7.433847E0,3.390906E-2,6.0514655E0,-8.145305E0,-1.6321552E1,6.180489E-1,-4.0060186E0,2.2250235E-1,1.4763342E0,4.0274823E-1,8.528848E0,-1.2862368E1,7.591967E-1,-7.0783105E0,4.776811E0,-1.7847065E1,-2.4492517E0,4.3512278E0,-3.0995922E0,8.8445015E0,-1.549778E0,-8.384466E0,-1.7337867E0,1.8322769E0,-2.4812617E0],"categories":[],"categories_nodes":[],"categories_segments":[],"categories_sizes":[],"default_left":[0,0,0,0,0,0,0,0,0,0,0,0,0,0,0,0,0,0,0,0,0,0,0,0,0,0,0,0,0,0,0,0,0,0,0,0,0,0,0,0,0,0,0,0,0,0,0,0,0,0,0,0,0,0,0,0,0,0,0],"id":3,"left_children":[1,3,5,7,9,11,13,15,17,19,21,23,25,27,29,31,33,-1,35,37,39,-1,41,43,45,47,49,51,53,55,57,-1,-1,-1,-1,-1,-1,-1,-1,-1,-1,-1,-1,-1,-1,-1,-1,-1,-1,-1,-1,-1,-1,-1,-1,-1,-1,-1,-1],"loss_changes":[4.5399548E2,9.044776E2,5.952391E2,3.0437393E2,5.664514E2,5.438953E2,6.465059E2,2.810813E2,4.0407043E2,3.8154773E2,9.821697E0,3.728963E2,7.619676E2,2.4329541E2,1.5516116E2,2.5026337E2,9.2638855E0,0E0,1.06076004E2,1.341582E2,2.9985342E1,0E0,7.264757E-1,5.065576E1,8.5946454E2,4.0989435E2,2.7769617E2,2.2849332E2,3.90588E2,1.31805725E1,4.1341835E1,0E0,0E0,0E0,0E0,0E0,0E0,0E0,0E0,0E0,0E0,0E0,0E0,0E0,0E0,0E0,0E0,0E0,0E0,0E0,0E0,0E0,0E0,0E0,0E0,0E0,0E0,0E0,0E0],"parents":[2147483647,0,0,1,1,2,2,3,3,4,4,5,5,6,6,7,7,8,8,9,9,10,10,11,11,12,12,13,13,14,14,15,15,16,16,18,18,19,19,20,20,22,22,23,23,24,24,25,25,26,26,27,27,28,28,29,29,30,30],"right_children":[2,4,6,8,10,12,14,16,18,20,22,24,26,28,30,32,34,-1,36,38,40,-1,42,44,46,48,50,52,54,56,58,-1,-1,-1,-1,-1,-1,-1,-1,-1,-1,-1,-1,-1,-1,-1,-1,-1,-1,-1,-1,-1,-1,-1,-1,-1,-1,-1,-1],"split_conditions":[-1.2E-1,2.6E0,4E0,-5.8E-1,2.4180648E0,7E0,3.1294E1,-8E-1,-5.6E-1,5.1E-1,-4.7E-1,-5.359E0,1.3778216E0,1.0022845E0,2.8684E1,-1.0234E1,-1.14E0,1.4594402E1,9E-2,2.6147E1,4E0,4.577073E0,9E-1,-2.12E0,-2.992E0,2.233E0,7.2E-1,4.401E0,3.3947E1,3.0507E1,4.1602E1,-2.4710474E0,4.5085983E0,-1.6404616E0,-7.433847E0,3.390906E-2,6.0514655E0,-8.145305E0,-1.6321552E1,6.180489E-1,-4.0060186E0,2.2250235E-1,1.4763342E0,4.0274823E-1,8.528848E0,-1.2862368E1,7.591967E-1,-7.0783105E0,4.776811E0,-1.7847065E1,-2.4492517E0,4.3512278E0,-3.0995922E0,8.8445015E0,-1.549778E0,-8.384466E0,-1.7337867E0,1.8322769E0,-2.4812617E0],"split_indices":[1,6,4,1,15,7,9,1,1,3,0,8,12,14,11,8,0,0,2,9,7,0,5,0,8,8,2,16,8,10,11,0,0,0,0,0,0,0,0,0,0,0,0,0,0,0,0,0,0,0,0,0,0,0,0,0,0,0,0],"split_type":[0,0,0,0,0,0,0,0,0,0,0,0,0,0,0,0,0,0,0,0,0,0,0,0,0,0,0,0,0,0,0,0,0,0,0,0,0,0,0,0,0,0,0,0,0,0,0,0,0,0,0,0,0,0,0,0,0,0,0],"sum_hessian":[2.1E2,6.8E1,1.42E2,4.1E1,2.7E1,8.8E1,5.4E1,2.5E1,1.6E1,2.2E1,5E0,7.2E1,1.6E1,4.3E1,1.1E1,1.9E1,6E0,2E0,1.4E1,1.7E1,5E0,1E0,4E0,6E0,6.6E1,1E1,6E0,1.8E1,2.5E1,4E0,7E0,1.1E1,8E0,1E0,5E0,1.1E1,3E0,1.3E1,4E0,4E0,1E0,1E0,3E0,1E0,5E0,4E0,6.2E1,4E0,6E0,4E0,2E0,1.3E1,5E0,2.1E1,4E0,3E0,1E0,4E0,3E0],"tree_param":{"num_deleted":"0","num_feature":"17","num_nodes":"59","size_leaf_vector":"1"}},{"base_weights":[-1.7021878E-1,3.114007E-1,-3.6094885E0,6.1467814E-1,-3.7710352E0,-1.5336924E0,-6.2997837E0,7.7281675E0,4.017833E-1,-4.8681517E0,-1.0400183E0,2.1243346E0,-2.542032E0,-7.949075E0,7.446859E-1,2.2714148E0,8.522002E0,-2.3504803E0,8.925907E-1,-5.5596533E0,-1.6285983E0,-3.4494048E-1,-1.9051648E0,6.1185074E-1,2.4212122E0,-3.1938334E0,-2.745204E-1,-8.753978E0,-3.417944E0,-6.4586365E-1,1.7678925E0,-1.5999731E-1,-4.527887E0,-1.1852285E0,1.5398076E0,-5.1954883E-1,8.444225E-2,-4.231989E0,-1.7947317E0,-4.5154953E-1,1.232835E-1,-9.344288E0,-2.601059E0],"categories":[],"categories_nodes":[],"categories_segments":[],"categories_sizes":[],"default_left":[0,0,0,0,0,0,0,0,0,0,0,0,0,0,0,0,0,0,0,0,0,0,0,0,0,0,0,0,0,0,0,0,0,0,0,0,0,0,0,0,0,0,0],"id":4,"left_children":[1,3,5,7,9,11,13,15,17,19,21,23,25,27,29,-1,-1,31,33,-1,-1,35,-1,-1,-1,37,39,41,-1,-1,-1,-1,-1,-1,-1,-1,-1,-1,-1,-1,-1,-1,-1],"loss_changes":[3.5066147E2,2.3257498E2,1.3545685E2,2.6032364E2,3.38291E1,6.442085E1,1.3379385E2,2.1938477E0,2.3172478E2,1.103508E1,2.3270512E0,2.84338E-1,1.8302116E1,2.7817383E0,5.421496E0,0E0,0E0,1.2323758E2,1.9682451E2,0E0,0E0,3.481182E-1,0E0,0E0,0E0,6.869293E0,3.406428E-1,1.0004272E0,0E0,0E0,0E0,0E0,0E0,0E0,0E0,0E0,0E0,0E0,0E0,0E0,0E0,0E0,0E0],"parents":[2147483647,0,0,1,1,2,2,3,3,4,4,5,5,6,6,7,7,8,8,9,9,10,10,11,11,12,12,13,13,14,14,17,17,18,18,21,21,25,25,26,26,27,27],"right_children":[2,4,6,8,10,12,14,16,18,20,22,24,26,28,30,-1,-1,32,34,-1,-1,36,-1,-1,-1,38,40,42,-1,-1,-1,-1,-1,-1,-1,-1,-1,-1,-1,-1,-1,-1,-1],"split_conditions":[7.4E0,5.3446E1,6.8E-1,-2.6313E1,1.2076195E0,8.9077294E-1,1.28E0,-7.4E-1,5E-1,3.5E0,2.6E-1,-2E-2,8.4E0,7.9E0,1.76E0,2.2714148E0,8.522002E0,1.3081095E0,-2.1E-1,-5.5596533E0,-1.6285983E0,7E-2,-1.9051648E0,6.1185074E-1,2.4212122E0,4.981E0,1E-1,5E0,-3.417944E0,-6.4586365E-1,1.7678925E0,-1.5999731E-1,-4.527887E0,-1.1852285E0,1.5398076E0,-5.1954883E-1,8.444225E-2,-4.231989E0,-1.7947317E0,-4.5154953E-1,1.232835E-1,-9.344288E0,-2.601059E0],"split_indices":[6,8,1,11,12,14,0,0,7,7,0,0,5,7,0,0,0,14,3,0,0,0,0,0,0,16,1,4,0,0,0,0,0,0,0,0,0,0,0,0,0,0,0],"split_type":[0,0,0,0,0,0,0,0,0,0,0,0,0,0,0,0,0,0,0,0,0,0,0,0,0,0,0,0,0,0,0,0,0,0,0,0,0,0,0,0,0,0,0],"sum_hessian":[2.1E2,1.85E2,2.5E1,1.73E2,1.2E1,1.5E1,1E1,4E0,1.69E2,8E0,4E0,3E0,1.2E1,8E0,2E0,1E0,3E0,2.5E1,1.44E2,6E0,2E0,3E0,1E0,1E0,2E0,9E0,3E0,6E0,2E0,1E0,1E0,1.3E1,1.2E1,3.4E1,1.1E2,2E0,1E0,4E0,5E0,2E0,1E0,5E0,1E0],"tree_param":{"num_deleted":"0","num_feature":"17","num_nodes":"43","size_leaf_vector":"1"}},{"base_weights":[-9.8017015E-2,-9.841652E-1,7.244842E-1,4.1372534E-2,-2.0944686E0,1.1276766E0,-2.661394E0,1.3095167E0,-2.1794484E0,1.2277627E0,-2.8729148E0,4.5568258E-1,3.9326155E0,-4.2901363E0,-3.1596187E-1,6.860498E-1,7.7278132E0,-3.992047E0,-6.375453E-1,3.95382E0,-2.2870586E0,-6.9150996E0,-1.9559087E0,3.9256516E0,-3.9227483E-1,6.5845346E0,-1.5527502E0,-1.4858385E0,-6.0194E0,-3.9804274E-1,4.2221185E-2,-6.7247175E-2,4.9199624E0,-6.486527E-1,-4.32764E0,8.173169E-1,-2.8398159E0,-3.9398766E-1,4.904179E0,-5.5853E-1,-2.5770583E0,-2.3450112E0,-9.753913E0,1.5178881E0,-2.754861E0,1.2076848E0,5.9043274E0,-1.7596552E0,8.6882365E-1,-1.5701166E0,8.210845E0,-1.7081999E0,-3.0502617E-1,-1.9442108E0,-5.0361034E-2],"categories":[],"categories_nodes":[],"categories_segments":[],"categories_sizes":[],"default_left":[0,0,0,0,0,0,0,0,0,0,0,0,0,0,0,0,0,0,0,0,0,0,0,0,0,0,0,0,0,0,0,0,0,0,0,0,0,0,0,0,0,0,0,0,0,0,0,0,0,0,0,0,0,0,0],"id":5,"left_children":[1,3,5,7,9,11,13,15,17,19,21,23,25,27,29,31,-1,33,35,37,39,41,43,45,47,49,51,53,-1,-1,-1,-1,-1,-1,-1,-1,-1,-1,-1,-1,-1,-1,-1,-1,-1,-1,-1,-1,-1,-1,-1,-1,-1,-1,-1],"loss_changes":[1.5450464E2,1.16250336E2,1.531535E2,1.5492667E2,1.302664E2,1.8476941E2,4.4439674E1,1.3467004E2,5.330562E1,1.0487533E2,1.3465436E2,2.3990852E2,2.866627E2,2.4926697E1,1.9676387E-1,1.0562937E2,0E0,7.241272E0,4.0789257E1,2.6769165E1,1.0356426E0,6.782135E1,9.855748E1,7.884593E1,1.1534822E2,1.8536432E2,8.165302E-1,2.5140743E0,0E0,0E0,0E0,0E0,0E0,0E0,0E0,0E0,0E0,0E0,0E0,0E0,0E0,0E0,0E0,0E0,0E0,0E0,0E0,0E0,0E0,0E0,0E0,0E0,0E0,0E0,0E0],"parents":[2147483647,0,0,1,1,2,2,3,3,4,4,5,5,6,6,7,7,8,8,9,9,10,10,11,11,12,12,13,13,14,14,15,15,17,17,18,18,19,19,20,20,21,21,22,22,23,23,24,24,25,25,26,26,27,27],"right_children":[2,4,6,8,10,12,14,16,18,20,22,24,26,28,30,32,-1,34,36,38,40,42,44,46,48,50,52,54,-1,-1,-1,-1,-1,-1,-1,-1,-1,-1,-1,-1,-1,-1,-1,-1,-1,-1,-1,-1,-1,-1,-1,-1,-1,-1,-1],"split_conditions":[1.0743E1,7E-2,4.8004E1,1.2763E1,-3.078E0,2.6398E1,4.4665E1,1.2166E1,1.7116E1,5E-1,1.2E0,1.324E1,5.6E0,2E-2,2.4E-1,1.5438908E0,7.7278132E0,-3.3E-1,3.9E0,-2.5E-1,-2.12E0,2.6E-1,9.910079E-1,-4.2E-1,1.0321E1,1.2134E1,7E-2,2.5E-1,-6.0194E0,-3.9804274E-1,4.2221185E-2,-6.7247175E-2,4.9199624E0,-6.486527E-1,-4.32764E0,8.173169E-1,-2.8398159E0,-3.9398766E-1,4.904179E0,-5.5853E-1,-2.5770583E0,-2.3450112E0,-9.753913E0,1.5178881E0,-2.754861E0,1.2076848E0,5.9043274E0,-1.7596552E0,8.6882365E-1,-1.5701166E0,8.210845E0,-1.7081999E0,-3.0502617E-1,-1.9442108E0,-5.0361034E-2],"split_indices":[16,2,10,8,8,10,8,8,9,2,6,16,6,0,1,13,0,0,7,1,0,1,12,3,11,9,3,1,0,0,0,0,0,0,0,0,0,0,0,0,0,0,0,0,0,0,0,0,0,0,0,0,0,0,0],"split_type":[0,0,0,0,0,0,0,0,0,0,0,0,0,0,0,0,0,0,0,0,0,0,0,0,0,0,0,0,0,0,0,0,0,0,0,0,0,0,0,0,0,0,0,0,0,0,0,0,0,0,0,0,0,0,0],"sum_hessian":[2.1E2,1.01E2,1.09E2,5.3E1,4.8E1,9.8E1,1.1E1,3.4E1,1.9E1,9E0,3.9E1,8E1,1.8E1,6E0,5E0,3.2E1,2E0,8E0,1.1E1,5E0,4E0,6E0,3.3E1,1.5E1,6.5E1,1.2E1,6E0,3E0,3E0,4E0,1E0,2.8E1,4E0,1E0,7E0,7E0,4E0,1E0,4E0,1E0,3E0,3E0,3E0,6E0,2.7E1,7E0,8E0,3.1E1,3.4E1,2E0,1E1,5E0,1E0,2E0,1E0],"tree_param":{"num_deleted":"0","num_feature":"17","num_nodes":"55","size_leaf_vector":"1"}},{"base_weights":[-1.8818356E-2,2.9893702E-1,-1.682102E0,4.6937126E-1,-1.7303902E0,1.2864609E0,-2.0112035E0,1.0623203E-1,1.3786094E0,-5.4359503E0,-2.2469655E-1,2.1336288E0,-6.225215E-1,-4.6060605E0,-1.2037954E0,-1.0970727E0,5.6155187E-1,2.257449E0,-1.0927747E0,-3.1874573E-1,-7.032103E0,-1.267196E0,1.277742E0,-1.2283051E0,-6.8298006E0,-2.1875896E0,-1.2663232E-1,3.6942173E-2,-2.46102E0,9.7837114E-1,-1.885602E0,1.2469997E0,4.089393E0,-1.4089644E0,-3.030785E-1,1.8229276E-1,-2.4023857E0,2.0802128E-1,1.4906669E0,-3.02415E-1,-1.4327968E0,-1.3170391E-1,-2.790185E0,9.2799765E-1,-4.0365574E-1],"categories":[],"categories_nodes":[],"categories_segments":[],"categories_sizes":[],"default_left":[0,0,0,0,0,0,0,0,0,0,0,0,0,0,0,0,0,0,0,0,0,0,0,0,0,0,0,0,0,0,0,0,0,0,0,0,0,0,0,0,0,0,0,0,0],"id":6,"left_children":[1,3,5,7,9,11,13,15,17,19,21,-1,-1,23,25,27,29,31,33,-1,-1,35,37,39,-1,41,43,-1,-1,-1,-1,-1,-1,-1,-1,-1,-1,-1,-1,-1,-1,-1,-1,-1,-1],"loss_changes":[1.1203383E2,6.236387E1,3.5811188E1,5.4318405E1,7.68341E1,7.8122563E0,5.9345505E1,6.580945E1,1.04560196E2,3.03564E1,1.884825E1,0E0,0E0,4.4109085E1,2.6192513E1,5.115746E1,9.057757E1,5.9635193E1,2.8018723E0,0E0,0E0,1.1978251E1,8.117733E-1,3.0669594E-1,0E0,1.570858E1,4.167392E0,0E0,0E0,0E0,0E0,0E0,0E0,0E0,0E0,0E0,0E0,0E0,0E0,0E0,0E0,0E0,0E0,0E0,0E0],"parents":[2147483647,0,0,1,1,2,2,3,3,4,4,5,5,6,6,7,7,8,8,9,9,10,10,13,13,14,14,15,15,16,16,17,17,18,18,21,21,22,22,23,23,25,25,26,26],"right_children":[2,4,6,8,10,12,14,16,18,20,22,-1,-1,24,26,28,30,32,34,-1,-1,36,38,40,-1,42,44,-1,-1,-1,-1,-1,-1,-1,-1,-1,-1,-1,-1,-1,-1,-1,-1,-1,-1],"split_conditions":[3.278E1,2.4734585E0,2.847E0,1.5879E1,2.4E0,2.6E-1,1.1806042E0,1.3E0,3.2875E1,-6E-2,3.4E-1,2.1336288E0,-6.225215E-1,3E-2,3.6517E1,0E0,1.6514E1,1.8372E1,4.1602E1,-3.1874573E-1,-7.032103E0,-3.3E-1,-6.4E-1,-2.7E-1,-6.8298006E0,1.1E0,-1.2E-1,3.6942173E-2,-2.46102E0,9.7837114E-1,-1.885602E0,1.2469997E0,4.089393E0,-1.4089644E0,-3.030785E-1,1.8229276E-1,-2.4023857E0,2.0802128E-1,1.4906669E0,-3.02415E-1,-1.4327968E0,-1.3170391E-1,-2.790185E0,9.2799765E-1,-4.0365574E-1],"split_indices":[11,14,10,9,7,3,12,7,10,0,3,0,0,2,9,7,11,11,9,0,0,1,1,0,0,5,3,0,0,0,0,0,0,0,0,0,0,0,0,0,0,0,0,0,0],"split_type":[0,0,0,0,0,0,0,0,0,0,0,0,0,0,0,0,0,0,0,0,0,0,0,0,0,0,0,0,0,0,0,0,0,0,0,0,0,0,0,0,0,0,0,0,0],"sum_hessian":[2.1E2,1.77E2,3.3E1,1.64E2,1.3E1,3E0,3E1,1.18E2,4.6E1,3E0,1E1,2E0,1E0,6E0,2.4E1,3.2E1,8.6E1,3.4E1,1.2E1,1E0,2E0,6E0,4E0,3E0,3E0,1.2E1,1.2E1,1.8E1,1.4E1,7.4E1,1.2E1,2.3E1,1.1E1,8E0,4E0,3E0,3E0,1E0,3E0,1E0,2E0,3E0,9E0,2E0,1E1],"tree_param":{"num_deleted":"0","num_feature":"17","num_nodes":"45","size_leaf_vector":"1"}},{"base_weights":[-8.090356E-2,4.843407E-1,-5.2205324E-1,7.72265E-1,-1.1948224E0,1.7449135E0,-6.7940754E-1,-3.8450533E-1,1.5121504E0,-6.293783E-2,-2.6918454E0,3.8943655E0,-3.216309E-1,-7.534329E-1,3.7637033E0,-2.5346286E0,1.07170425E-1,2.4869711E0,3.9267164E-1,-7.321229E-1,9.540742E-1,-3.1875317E0,-1.1303152E0,-1.7455236E0,4.6822315E-1,-1.0750349E0,3.8990937E-2,-6.118856E-1,-4.250077E0,1.7711614E0,-3.5106215E-1,1.2514857E0,4.3375993E0,2.7545793E0,-2.1693888E-1,-1.2216108E0,1.6123524E-1,2.7431163E-1,1.0858911E0,6.473984E-1,-2.965128E-2,-6.9953746E-1,-2.6298547E0,-1.704823E0,5.7443404E-1],"categories":[],"categories_nodes":[],"categories_segments":[],"categories_sizes":[],"default_left":[0,0,0,0,0,0,0,0,0,0,0,0,0,0,0,0,0,0,0,0,0,0,0,0,0,0,0,0,0,0,0,0,0,0,0,0,0,0,0,0,0,0,0,0,0],"id":7,"left_children":[1,3,5,7,9,11,13,15,17,19,21,-1,23,25,-1,27,29,31,33,35,37,-1,-1,-1,39,41,43,-1,-1,-1,-1,-1,-1,-1,-1,-1,-1,-1,-1,-1,-1,-1,-1,-1,-1],"loss_changes":[5.2867626E1,4.588137E1,4.362417E1,6.906291E1,2.3525438E1,3.6823784E1,3.964272E1,3.4125145E1,5.246788E1,6.821403E0,9.980812E-1,0E0,6.4534044E0,2.8340076E1,0E0,1.7141014E1,2.122335E1,5.3962708E1,3.5179203E1,2.8312984E0,4.6942234E-2,0E0,0E0,0E0,3.8220084E-1,4.4249664E1,3.178054E1,0E0,0E0,0E0,0E0,0E0,0E0,0E0,0E0,0E0,0E0,0E0,0E0,0E0,0E0,0E0,0E0,0E0,0E0],"parents":[2147483647,0,0,1,1,2,2,3,3,4,4,5,5,6,6,7,7,8,8,9,9,10,10,12,12,13,13,15,15,16,16,17,17,18,18,19,19,20,20,24,24,25,25,26,26],"right_children":[2,4,6,8,10,12,14,16,18,20,22,-1,24,26,-1,28,30,32,34,36,38,-1,-1,-1,40,42,44,-1,-1,-1,-1,-1,-1,-1,-1,-1,-1,-1,-1,-1,-1,-1,-1,-1,-1],"split_conditions":[2.9E0,5.4E0,-5.361E0,5.51E-1,-4.59E-1,1.0647079E0,7.0033E1,-1.3E0,1.0743E1,6.8E-1,1.085E1,3.8943655E0,-5.1E-1,4.4E-1,3.7637033E0,1.3237E1,-1.32E0,1.0069E1,-6E-2,3.829E0,-4E-2,-3.1875317E0,-1.1303152E0,-1.7455236E0,8.3E-1,6.8E0,-2.992E0,-6.118856E-1,-4.250077E0,1.7711614E0,-3.5106215E-1,1.2514857E0,4.3375993E0,2.7545793E0,-2.1693888E-1,-1.2216108E0,1.6123524E-1,2.7431163E-1,1.0858911E0,6.473984E-1,-2.965128E-2,-6.9953746E-1,-2.6298547E0,-1.704823E0,5.7443404E-1],"split_indices":[7,5,9,11,11,13,16,4,9,0,10,0,0,2,0,16,1,10,3,16,1,0,0,0,0,4,8,0,0,0,0,0,0,0,0,0,0,0,0,0,0,0,0,0,0],"split_type":[0,0,0,0,0,0,0,0,0,0,0,0,0,0,0,0,0,0,0,0,0,0,0,0,0,0,0,0,0,0,0,0,0,0,0,0,0,0,0,0,0,0,0,0,0],"sum_hessian":[2.1E2,9.2E1,1.18E2,7.9E1,1.3E1,7E0,1.11E2,3.1E1,4.8E1,8E0,5E0,3E0,4E0,1.1E2,1E0,5E0,2.6E1,2.5E1,2.3E1,5E0,3E0,3E0,2E0,1E0,3E0,7.8E1,3.2E1,3E0,2E0,5E0,2.1E1,1.6E1,9E0,4E0,1.9E1,3E0,2E0,1E0,2E0,2E0,1E0,6.4E1,1.4E1,7E0,2.5E1],"tree_param":{"num_deleted":"0","num_feature":"17","num_nodes":"45","size_leaf_vector":"1"}},{"base_weights":[1.2878516E-2,-6.338988E-2,9.469865E-1,-2.6666366E-2,-3.6072378E0,2.603602E0,-4.1802514E-2,-5.282985E-1,1.6421251E-1,-7.784616E-2,3.157461E0,-8.642754E-1,7.859708E-1,-3.6506405E-1,-4.5848618E0,1.1494044E0,4.7399305E-2,5.2451547E-2,-1.8018196E0,1.4345384E-1,1.0688658E0,-9.8792106E-1,2.7094346E-1,1.6668737E0,-6.878548E-1,-2.898666E-1,4.2275473E-1,1.0719371E-1,-5.088746E-2],"categories":[],"categories_nodes":[],"categories_segments":[],"categories_sizes":[],"default_left":[0,0,0,0,0,0,0,0,0,0,0,0,0,0,0,0,0,0,0,0,0,0,0,0,0,0,0,0,0],"id":8,"left_children":[1,3,5,7,-1,9,11,13,15,-1,-1,17,19,21,-1,23,25,27,-1,-1,-1,-1,-1,-1,-1,-1,-1,-1,-1],"loss_changes":[1.5101122E1,2.5375412E1,2.6343145E1,1.8761833E1,0E0,9.187454E0,8.16911E0,3.403396E1,1.6275396E1,0E0,0E0,5.2688336E0,9.25133E-1,2.1270353E1,0E0,1.541724E1,1.6327978E1,2.8645877E-2,0E0,0E0,0E0,0E0,0E0,0E0,0E0,0E0,0E0,0E0,0E0],"parents":[2147483647,0,0,1,1,2,2,3,3,5,5,6,6,7,7,8,8,11,11,12,12,13,13,15,15,16,16,17,17],"right_children":[2,4,6,8,-1,10,12,14,16,-1,-1,18,20,22,-1,24,26,28,-1,-1,-1,-1,-1,-1,-1,-1,-1,-1,-1],"split_conditions":[5.2941E1,4.812E1,2.4E0,1.5E0,-3.6072378E0,-1.9E0,2.8244E1,9.4E0,2.2E0,-7.784616E-2,3.157461E0,1.3E0,-1E-2,2.4E0,-4.5848618E0,2.408993E0,1E-1,-5.6E-1,-1.8018196E0,1.4345384E-1,1.0688658E0,-9.8792106E-1,2.7094346E-1,1.6668737E0,-6.878548E-1,-2.898666E-1,4.2275473E-1,1.0719371E-1,-5.088746E-2],"split_indices":[16,16,6,6,0,4,9,7,6,0,0,7,1,5,0,14,1,0,0,0,0,0,0,0,0,0,0,0,0],"split_type":[0,0,0,0,0,0,0,0,0,0,0,0,0,0,0,0,0,0,0,0,0,0,0,0,0,0,0,0,0],"sum_hessian":[2.1E2,1.95E2,1.5E1,1.94E2,1E0,5E0,1E1,5.3E1,1.41E2,1E0,4E0,5E0,5E0,5.2E1,1E0,1.4E1,1.27E2,3E0,2E0,2E0,3E0,2.6E1,2.6E1,1.1E1,3E0,6.7E1,6E1,2E0,1E0],"tree_param":{"num_deleted":"0","num_feature":"17","num_nodes":"29","size_leaf_vector":"1"}},{"base_weights":[-2.488501E-2,6.4466494E-1,-1.4383341E-1,-1.002432E0,9.8718035E-1,-6.1566937E-1,4.2300943E-2,7.249967E-2,-1.5605228E0,3.073305E-1,1.2567314E0,-1.2542231E-1,-1.1615547E0,9.749697E-1,-1.8895322E-1,-2.5726235E-1,3.7101185E-1,6.0050696E-1,-2.067669E-1,4.6307075E-1,1.4368361E0,-6.36331E-1,6.079835E-1,4.9388427E-1,-1.5178367E0,1.7946663E0,2.5354767E-1,-3.7876546E-1,8.899251E-1,1.4571483E-1,7.8897434E-1,-5.558836E-2,-2.3529696E-1,-8.736908E-2,6.2502295E-1,1.5578306E0,-1.2354302E-1,-1.1022967E0,1.8537661E-1,5.872301E-2,1.1457902E0,7.7844936E-1,4.1357752E-2,-1.9925916E0,-7.631004E-2,2.4389179E0,-1.0106593E-1,-1.6021495E-1,9.025608E-1,-1.6267505E0,-2.0230795E-1,2.5664554E0,-1.0453907E-1],"categories":[],"categories_nodes":[],"categories_segments":[],"categories_sizes":[],"default_left":[0,0,0,0,0,0,0,0,0,0,0,0,0,0,0,0,0,0,0,0,0,0,0,0,0,0,0,0,0,0,0,0,0,0,0,0,0,0,0,0,0,0,0,0,0,0,0,0,0,0,0,0,0],"id":9,"left_children":[1,3,5,7,9,11,13,15,-1,17,19,21,23,25,27,-1,-1,29,31,33,35,37,39,41,43,45,47,49,51,-1,-1,-1,-1,-1,-1,-1,-1,-1,-1,-1,-1,-1,-1,-1,-1,-1,-1,-1,-1,-1,-1,-1,-1],"loss_changes":[1.6892157E1,1.9042423E1,1.5840257E1,3.7274747E0,4.545994E0,1.3489996E1,2.8230942E1,3.9189878E-1,0E0,1.4845937E0,2.03154E0,1.0878858E1,1.491515E1,1.4899511E1,2.1834314E1,0E0,0E0,3.8996887E-1,1.2639165E-3,5.0570905E-1,3.0387592E0,6.7225966E0,3.4654222E0,6.034732E-1,1.3514694E1,1.4925804E1,4.180087E0,1.9472073E1,2.6968906E1,0E0,0E0,0E0,0E0,0E0,0E0,0E0,0E0,0E0,0E0,0E0,0E0,0E0,0E0,0E0,0E0,0E0,0E0,0E0,0E0,0E0,0E0,0E0,0E0],"parents":[2147483647,0,0,1,1,2,2,3,3,4,4,5,5,6,6,7,7,9,9,10,10,11,11,12,12,13,13,14,14,17,17,18,18,19,19,20,20,21,21,22,22,23,23,24,24,25,25,26,26,27,27,28,28],"right_children":[2,4,6,8,10,12,14,16,-1,18,20,22,24,26,28,-1,-1,30,32,34,36,38,40,42,44,46,48,50,52,-1,-1,-1,-1,-1,-1,-1,-1,-1,-1,-1,-1,-1,-1,-1,-1,-1,-1,-1,-1,-1,-1,-1,-1],"split_conditions":[-6.8E-1,-3.4E0,-3E-2,-6.7E-1,-3.6E-1,1.0069E1,1.399E0,-2.36E0,-1.5605228E0,1.5E0,1.0253248E0,3.3E0,-5.6E-1,3.154E0,2.3282926E0,-2.5726235E-1,3.7101185E-1,-1.32E0,-1.14E0,-7.3E-1,4E0,1.9327828E0,3.327E0,-7.4E-1,2.2218E1,3.9E-1,1.3321E1,3.419E0,2.3918078E0,1.4571483E-1,7.8897434E-1,-5.558836E-2,-2.3529696E-1,-8.736908E-2,6.2502295E-1,1.5578306E0,-1.2354302E-1,-1.1022967E0,1.8537661E-1,5.872301E-2,1.1457902E0,7.7844936E-1,4.1357752E-2,-1.9925916E0,-7.631004E-2,2.4389179E0,-1.0106593E-1,-1.6021495E-1,9.025608E-1,-1.6267505E0,-2.0230795E-1,2.5664554E0,-1.0453907E-1],"split_indices":[0,5,0,3,2,10,8,0,0,4,15,4,0,10,15,0,0,0,0,1,6,12,11,1,10,1,9,8,15,0,0,0,0,0,0,0,0,0,0,0,0,0,0,0,0,0,0,0,0,0,0,0,0],"split_type":[0,0,0,0,0,0,0,0,0,0,0,0,0,0,0,0,0,0,0,0,0,0,0,0,0,0,0,0,0,0,0,0,0,0,0,0,0,0,0,0,0,0,0,0,0,0,0,0,0,0,0,0,0],"sum_hessian":[2.1E2,3.1E1,1.79E2,5E0,2.6E1,5E1,1.29E2,2E0,3E0,8E0,1.8E1,2.7E1,2.3E1,2.5E1,1.04E2,1E0,1E0,5E0,3E0,4E0,1.4E1,1.6E1,1.1E1,4E0,1.9E1,1.1E1,1.4E1,8.9E1,1.5E1,2E0,3E0,1E0,2E0,1E0,3E0,1.3E1,1E0,1E1,6E0,6E0,5E0,2E0,2E0,1.4E1,5E0,8E0,3E0,9E0,5E0,1E1,7.9E1,5E0,1E1],"tree_param":{"num_deleted":"0","num_feature":"17","num_nodes":"53","size_leaf_vector":"1"}},{"base_weights":[1.8486056E-2,6.4349455E-1,-7.277727E-2,-6.636783E-2,1.8578974E0,1.3073646E0,-1.263986E-1,2.7307925E-1,-1.857963E0,2.1058395E0,-1.8179119E-1,2.4489841E0,3.5891995E-1,-8.404533E-1,-5.5903018E-2,-4.2909938E-1,4.6889734E-1,-5.5138755E-1,-2.2305567E0,2.6017635E0,2.4340382E-1,-5.778707E-3,6.0731196E-1,-8.12176E-2,-1.4208347E0,5.452455E-1,-1.2920077E-1,-1.5156212E-1,-6.2585557E-1,-2.2549947E-1,6.1656034E-1,-2.3572084E-2,9.904022E-3,-6.0035795E-1,5.855122E-1,-4.690621E-1,-2.0864403E0,1.546164E-1,1.012955E0,-1.0124176E0,1.8094557E-3],"categories":[],"categories_nodes":[],"categories_segments":[],"categories_sizes":[],"default_left":[0,0,0,0,0,0,0,0,0,0,0,0,0,0,0,0,0,0,0,0,0,0,0,0,0,0,0,0,0,0,0,0,0,0,0,0,0,0,0,0,0],"id":10,"left_children":[1,3,5,7,9,11,13,15,17,19,-1,-1,21,23,25,27,29,-1,-1,-1,-1,31,-1,33,35,37,39,-1,-1,-1,-1,-1,-1,-1,-1,-1,-1,-1,-1,-1,-1],"loss_changes":[1.2088054E1,2.3416813E1,1.384437E1,1.146995E1,5.4593124E0,6.6722717E0,8.954501E0,2.4015899E0,2.0274544E-1,7.6509056E0,0E0,0E0,4.6246594E-1,6.919922E0,7.2925925E0,1.1579847E-1,1.4759226E0,0E0,0E0,0E0,0E0,1.207285E-3,0E0,3.1206763E0,4.697323E0,3.1203213E0,1.7021372E1,0E0,0E0,0E0,0E0,0E0,0E0,0E0,0E0,0E0,0E0,0E0,0E0,0E0,0E0],"parents":[2147483647,0,0,1,1,2,2,3,3,4,4,5,5,6,6,7,7,8,8,9,9,12,12,13,13,14,14,15,15,16,16,21,21,23,23,24,24,25,25,26,26],"right_children":[2,4,6,8,10,12,14,16,18,20,-1,-1,22,24,26,28,30,-1,-1,-1,-1,32,-1,34,36,38,40,-1,-1,-1,-1,-1,-1,-1,-1,-1,-1,-1,-1,-1,-1],"split_conditions":[9.7944814E-1,8E-2,-2.9729E1,6E-2,8.6E0,5.963E0,1.0119288E0,-3.605E0,7E-2,3.14E0,-1.8179119E-1,2.4489841E0,2E-2,3.4E0,1.1326535E0,-4E-2,-7.3E-1,-5.5138755E-1,-2.2305567E0,2.6017635E0,2.4340382E-1,1E-2,6.0731196E-1,1.3E0,9.910079E-1,7.684E0,1.1806042E0,-1.5156212E-1,-6.2585557E-1,-2.2549947E-1,6.1656034E-1,-2.3572084E-2,9.904022E-3,-6.0035795E-1,5.855122E-1,-4.690621E-1,-2.0864403E0,1.546164E-1,1.012955E0,-1.0124176E0,1.8094557E-3],"split_indices":[12,0,16,0,4,10,12,11,0,11,0,0,0,5,12,0,2,0,0,0,0,0,0,5,13,10,12,0,0,0,0,0,0,0,0,0,0,0,0,0,0],"split_type":[0,0,0,0,0,0,0,0,0,0,0,0,0,0,0,0,0,0,0,0,0,0,0,0,0,0,0,0,0,0,0,0,0,0,0,0,0,0,0,0,0],"sum_hessian":[2.1E2,2.6E1,1.84E2,1.7E1,9E0,6E0,1.78E2,1.5E1,2E0,8E0,1E0,2E0,4E0,1.5E1,1.63E2,3E0,1.2E1,1E0,1E0,6E0,2E0,2E0,2E0,7E0,8E0,1.7E1,1.46E2,2E0,1E0,2E0,1E1,1E0,1E0,4E0,3E0,4E0,4E0,1E1,7E0,1.8E1,1.28E2],"tree_param":{"num_deleted":"0","num_feature":"17","num_nodes":"41","size_leaf_vector":"1"}},{"base_weights":[4.945064E-4,-8.322664E-2,4.3907893E-1,8.872168E-2,-4.406839E-1,7.1824646E-1,7.950006E-2,1.4117603E-1,-9.38516E-1,-2.0569433E-1,-1.0440506E0,4.3877712E-1,1.2489672E0,-2.778423E-1,5.800606E-1,9.4924964E-2,1.1469647E0,-3.296567E-1,-1.1580315E0,-3.3050603E-1,8.069757E-1,-1.3264028E0,6.182764E-1,6.5231156E-1,4.3679316E-2,2.7639306E-1,1.3862033E0,2.3264146E-1,-4.3579343E-1,1.2421743E0,6.478028E-2,2.7186824E-2,9.708724E-1,2.3060532E0,-3.911121E-1,-2.806359E-2,-5.8792984E-1,1.0214049E0,-2.0370599E-2,-1.5107415E0,5.2999985E-1,7.5349593E-1,1.6891873E-1,7.5139475E-1,3.3810884E-1,1.8745501E-1,-7.257229E-2,1.3129349E-2,-5.0322944E-1,2.5156385E-1,-3.36177E-1],"categories":[],"categories_nodes":[],"categories_segments":[],"categories_sizes":[],"default_left":[0,0,0,0,0,0,0,0,0,0,0,0,0,0,0,0,0,0,0,0,0,0,0,0,0,0,0,0,0,0,0,0,0,0,0,0,0,0,0,0,0,0,0,0,0,0,0,0,0,0,0],"id":11,"left_children":[1,3,5,7,9,11,13,15,17,19,21,23,25,27,29,31,33,-1,-1,35,37,39,41,43,45,-1,-1,-1,47,-1,49,-1,-1,-1,-1,-1,-1,-1,-1,-1,-1,-1,-1,-1,-1,-1,-1,-1,-1,-1,-1],"loss_changes":[7.7877665E0,1.098324E1,3.3479352E0,6.644376E0,7.996269E0,2.2531872E0,3.0261314E0,5.2748857E0,4.052949E-1,5.696847E0,8.33695E0,1.1456854E0,4.0107155E-1,9.0973E-1,2.294681E0,6.6091504E0,9.83491E0,0E0,0E0,3.01372E0,9.1785264E-1,5.6013947E0,4.578197E-2,1.5241623E-2,1.150378E-1,0E0,0E0,0E0,2.5369656E-1,0E0,4.58185E-1,0E0,0E0,0E0,0E0,0E0,0E0,0E0,0E0,0E0,0E0,0E0,0E0,0E0,0E0,0E0,0E0,0E0,0E0,0E0,0E0],"parents":[2147483647,0,0,1,1,2,2,3,3,4,4,5,5,6,6,7,7,8,8,9,9,10,10,11,11,12,12,13,13,14,14,15,15,16,16,19,19,20,20,21,21,22,22,23,23,24,24,28,28,30,30],"right_children":[2,4,6,8,10,12,14,16,18,20,22,24,26,28,30,32,34,-1,-1,36,38,40,42,44,46,-1,-1,-1,48,-1,50,-1,-1,-1,-1,-1,-1,-1,-1,-1,-1,-1,-1,-1,-1,-1,-1,-1,-1,-1,-1],"split_conditions":[3.278E1,4.4E0,1E-2,4.6716E1,1.8196E1,2E-2,3.5E-1,4.1E0,2.2E0,7.1E-1,8.4E0,1.1910319E0,-2E-2,-4E-2,2.5E0,3.3205E1,3.2E0,-3.296567E-1,-1.1580315E0,2.109E0,7.7E-1,9.1E-1,-2E-2,4.812E1,-1E-2,2.7639306E-1,1.3862033E0,2.3264146E-1,-1.2E-1,1.2421743E0,4.8E-1,2.7186824E-2,9.708724E-1,2.3060532E0,-3.911121E-1,-2.806359E-2,-5.8792984E-1,1.0214049E0,-2.0370599E-2,-1.5107415E0,5.2999985E-1,7.5349593E-1,1.6891873E-1,7.5139475E-1,3.3810884E-1,1.8745501E-1,-7.257229E-2,1.3129349E-2,-5.0322944E-1,2.5156385E-1,-3.36177E-1],"split_indices":[10,5,3,11,8,2,0,5,6,3,4,13,1,0,5,9,4,0,0,11,0,0,0,8,1,0,0,0,1,0,0,0,0,0,0,0,0,0,0,0,0,0,0,0,0,0,0,0,0,0,0],"split_type":[0,0,0,0,0,0,0,0,0,0,0,0,0,0,0,0,0,0,0,0,0,0,0,0,0,0,0,0,0,0,0,0,0,0,0,0,0,0,0,0,0,0,0,0,0,0,0,0,0,0,0],"sum_hessian":[2.1E2,1.77E2,3.3E1,1.2E2,5.7E1,1.8E1,1.5E1,1.15E2,5E0,4.2E1,1.5E1,1.3E1,5E0,9E0,6E0,1.11E2,4E0,2E0,3E0,3.8E1,4E0,1.3E1,2E0,8E0,5E0,1E0,4E0,2E0,7E0,2E0,4E0,1.04E2,7E0,2E0,2E0,1.8E1,2E1,3E0,1E0,1.2E1,1E0,1E0,1E0,5E0,3E0,2E0,3E0,1E0,6E0,3E0,1E0],"tree_param":{"num_deleted":"0","num_feature":"17","num_nodes":"51","size_leaf_vector":"1"}},{"base_weights":[2.6393952E-2,4.1641936E-2,-7.7059966E-1,3.236747E-1,-5.802896E-3,-2.7277734E-2,7.8548E-1,-1.9246748E-1,1.129455E-1,3.954757E-1,-2.724441E-1,9.919307E-1,7.048327E-2,2.2857405E-2,-5.3660923E-1,-8.123474E-2,2.9509968E-1,7.1959823E-1,-2.7322045E-1,-5.17451E-1,5.7137966E-2,5.386689E-1,1.2026604E0,1.6253579E-1,-1.1046168E-2,-1.2257072E-1,3.128565E-1,-2.407981E-1,-1.2078109E0,-1.9573164E-1,4.4112477E-1,8.808088E-1,1.667207E-1],"categories":[],"categories_nodes":[],"categories_segments":[],"categories_sizes":[],"default_left":[0,0,0,0,0,0,0,0,0,0,0,0,0,0,0,0,0,0,0,0,0,0,0,0,0,0,0,0,0,0,0,0,0],"id":12,"left_children":[1,3,-1,5,7,9,11,13,15,17,19,21,23,25,27,29,31,-1,-1,-1,-1,-1,-1,-1,-1,-1,-1,-1,-1,-1,-1,-1,-1],"loss_changes":[2.5889866E0,2.7883043E0,0E0,4.891159E0,3.9902692E0,1.9721231E0,1.8384123E0,5.204563E0,3.916892E0,1.7182491E0,1.0031676E0,2.899084E-1,3.3330254E-2,1.8959072E0,5.0554967E0,3.3135495E0,4.1286616E0,0E0,0E0,0E0,0E0,0E0,0E0,0E0,0E0,0E0,0E0,0E0,0E0,0E0,0E0,0E0,0E0],"parents":[2147483647,0,0,1,1,3,3,4,4,5,5,6,6,7,7,8,8,9,9,10,10,11,11,12,12,13,13,14,14,15,15,16,16],"right_children":[2,4,-1,6,8,10,12,14,16,18,20,22,24,26,28,30,32,-1,-1,-1,-1,-1,-1,-1,-1,-1,-1,-1,-1,-1,-1,-1,-1],"split_conditions":[2.63E0,3E-1,-7.7059966E-1,-2.895E0,-1E-2,-2.8632E1,5E0,-2.1E-1,1.2139E1,-3E-1,-2.738E0,-6.7E-1,-3.5E0,3.4E-1,1.8138525E0,8.6E0,1.7116E1,7.1959823E-1,-2.7322045E-1,-5.17451E-1,5.7137966E-2,5.386689E-1,1.2026604E0,1.6253579E-1,-1.1046168E-2,-1.2257072E-1,3.128565E-1,-2.407981E-1,-1.2078109E0,-1.9573164E-1,4.4112477E-1,8.808088E-1,1.667207E-1],"split_indices":[0,6,0,10,1,10,7,1,11,1,11,1,0,3,12,5,11,0,0,0,0,0,0,0,0,0,0,0,0,0,0,0,0],"split_type":[0,0,0,0,0,0,0,0,0,0,0,0,0,0,0,0,0,0,0,0,0,0,0,0,0,0,0,0,0,0,0,0,0],"sum_hessian":[2.1E2,2.07E2,3E0,2.9E1,1.78E2,1.7E1,1.2E1,6.9E1,1.09E2,6E0,1.1E1,9E0,3E0,4.3E1,2.6E1,5.3E1,5.6E1,4E0,2E0,6E0,5E0,4E0,5E0,1E0,2E0,2.9E1,1.4E1,1.9E1,7E0,4.4E1,9E0,9E0,4.7E1],"tree_param":{"num_deleted":"0","num_feature":"17","num_nodes":"33","size_leaf_vector":"1"}},{"base_weights":[5.416626E-3,3.4394586E-1,-1.3087047E-2,1.396119E-1,8.3896583E-1,-7.3436834E-2,1.264606E-1,3.1771645E-1,-6.441502E-2,-1.4558424E-1,6.479064E-2,3.262896E-1,-1.3689035E-1,3.7730628E-1,3.4678575E-2,4.6204563E-2,-1.5689626E-1,1.3380693E-1,-2.1926314E-1,2.2617324E-1,-2.5170445E-1,8.79362E-2,5.7290286E-1,-5.449217E-2,-4.8654395E-1,8.126747E-2,-6.9606258E-3,8.305261E-1,9.697787E-3,-2.9028115E-1,2.6328024E-1,2.7258298E-1,-3.2545194E-1,-6.268451E-1,8.994557E-3,2.5117052E-1,-5.844851E-1,-1.1312276E-1,7.2870284E-1,-1.5442812E-1,1.5094125E-1,-5.675944E-1,-7.617103E-2],"categories":[],"categories_nodes":[],"categories_segments":[],"categories_sizes":[],"default_left":[0,0,0,0,0,0,0,0,0,0,0,0,0,0,0,0,0,0,0,0,0,0,0,0,0,0,0,0,0,0,0,0,0,0,0,0,0,0,0,0,0,0,0],"id":13,"left_children":[1,3,5,7,-1,9,11,13,15,17,19,21,23,-1,-1,25,-1,27,29,31,33,35,37,39,41,-1,-1,-1,-1,-1,-1,-1,-1,-1,-1,-1,-1,-1,-1,-1,-1,-1,-1],"loss_changes":[1.3295211E0,9.857279E-1,1.7015125E0,3.5004184E-1,0E0,1.4163986E0,3.2566948E0,6.712663E-2,5.950743E-2,1.9446204E0,2.5594368E0,2.0003514E0,7.459689E-1,0E0,0E0,6.9011194E-3,0E0,1.7129278E0,2.6126213E0,9.3300974E-1,1.6743964E0,2.2289546E0,1.9055958E0,4.9553865E-1,1.166327E-1,0E0,0E0,0E0,0E0,0E0,0E0,0E0,0E0,0E0,0E0,0E0,0E0,0E0,0E0,0E0,0E0,0E0,0E0],"parents":[2147483647,0,0,1,1,2,2,3,3,5,5,6,6,7,7,8,8,9,9,10,10,11,11,12,12,15,15,17,17,18,18,19,19,20,20,21,21,22,22,23,23,24,24],"right_children":[2,4,6,8,-1,10,12,14,16,18,20,22,24,-1,-1,26,-1,28,30,32,34,36,38,40,42,-1,-1,-1,-1,-1,-1,-1,-1,-1,-1,-1,-1,-1,-1,-1,-1,-1,-1],"split_conditions":[-3.4E0,2.3983195E0,4.6E0,-3.6E-1,8.3896583E-1,2.0533E1,2.8E-1,-3E-1,7.3E-1,-7.492E0,2.5945E1,-2E-2,7.1E0,3.7730628E-1,3.4678575E-2,-3.5E0,-1.5689626E-1,-2.992E0,7E0,4.4E0,-2.1E-1,3.1684E1,1E0,1.2139E1,5.5E-1,8.126747E-2,-6.9606258E-3,8.305261E-1,9.697787E-3,-2.9028115E-1,2.6328024E-1,2.7258298E-1,-3.2545194E-1,-6.268451E-1,8.994557E-3,2.5117052E-1,-5.844851E-1,-1.1312276E-1,7.2870284E-1,-1.5442812E-1,1.5094125E-1,-5.675944E-1,-7.617103E-2],"split_indices":[4,13,4,3,0,16,0,0,3,16,8,3,6,0,0,0,0,10,5,4,2,9,5,10,2,0,0,0,0,0,0,0,0,0,0,0,0,0,0,0,0,0,0],"split_type":[0,0,0,0,0,0,0,0,0,0,0,0,0,0,0,0,0,0,0,0,0,0,0,0,0,0,0,0,0,0,0,0,0,0,0,0,0,0,0,0,0,0,0],"sum_hessian":[2.1E2,1E1,2E2,8E0,2E0,1.4E2,6E1,4E0,4E0,9.2E1,4.8E1,3.4E1,2.6E1,3E0,1E0,2E0,2E0,1.9E1,7.3E1,3.2E1,1.6E1,1.8E1,1.6E1,2.2E1,4E0,1E0,1E0,2E0,1.7E1,6.4E1,9E0,3E1,2E0,6E0,1E1,1.5E1,3E0,3E0,1.3E1,1.5E1,7E0,3E0,1E0],"tree_param":{"num_deleted":"0","num_feature":"17","num_nodes":"43","size_leaf_vector":"1"}},{"base_weights":[4.530225E-3,-3.929035E-2,1.5436448E-1,-2.6354255E-2,-5.476456E-1,2.2479054E-1,-5.1766485E-2,1.0334052E-1,-6.596754E-2,2.01894E-2,-7.469871E-1,3.0731973E-1,-5.5832572E-2,-2.7032158E-1,1.17370635E-1,-1.2272194E-1,2.4074037E-1,5.9031054E-2,-1.2413196E-1,-1.6585547E-2,3.7888983E-1,-3.4975392E-1,1.4775376E-1,-5.9470292E-2,-2.9859775E-1,-1.7182484E-1,2.4407327E-1,-1.5893294E-2,-5.4140544E-1,3.577955E-1,-1.6839096E-1,-2.1999205E-2,3.87152E-1,-2.4984762E-1,3.0297972E-2,2.5254765E-1,-2.1678907E-1,5.2589166E-1,1.6980672E-1,-8.684646E-2,-4.051076E-1,-2.2039052E-2,1.8812013E-1],"categories":[],"categories_nodes":[],"categories_segments":[],"categories_sizes":[],"default_left":[0,0,0,0,0,0,0,0,0,0,0,0,0,0,0,0,0,0,0,0,0,0,0,0,0,0,0,0,0,0,0,0,0,0,0,0,0,0,0,0,0,0,0],"id":14,"left_children":[1,3,5,7,9,11,13,15,17,-1,-1,19,21,23,25,27,29,31,33,35,37,39,41,-1,-1,-1,-1,-1,-1,-1,-1,-1,-1,-1,-1,-1,-1,-1,-1,-1,-1,-1,-1],"loss_changes":[1.3926046E0,1.0583129E0,7.101824E-1,8.336028E-1,4.751215E-1,8.5341895E-1,5.138124E-1,1.2110403E0,9.095171E-1,0E0,0E0,6.590011E-1,5.922427E-1,1.443404E-2,3.35795E-1,6.5673316E-1,1.2115256E0,1.0756774E0,1.6599776E0,3.7768048E-1,6.10662E-1,1.8109828E-2,4.6930313E-2,0E0,0E0,0E0,0E0,0E0,0E0,0E0,0E0,0E0,0E0,0E0,0E0,0E0,0E0,0E0,0E0,0E0,0E0,0E0,0E0],"parents":[2147483647,0,0,1,1,2,2,3,3,4,4,5,5,6,6,7,7,8,8,11,11,12,12,13,13,14,14,15,15,16,16,17,17,18,18,19,19,20,20,21,21,22,22],"right_children":[2,4,6,8,10,12,14,16,18,-1,-1,20,22,24,26,28,30,32,34,36,38,40,42,-1,-1,-1,-1,-1,-1,-1,-1,-1,-1,-1,-1,-1,-1,-1,-1,-1,-1,-1,-1],"split_conditions":[2.5661E1,2.3369E1,4.5E0,1E0,-8.8E-1,8E-2,2E-2,-1.978E0,-2.5E-1,2.01894E-2,-7.469871E-1,8.41E0,2.1E0,-2.2E-1,2E0,2.4604125E0,1.2E-1,2.437237E0,1.1E-1,-1E-2,3.994E1,1.3E0,-1.18E0,-5.9470292E-2,-2.9859775E-1,-1.7182484E-1,2.4407327E-1,-1.5893294E-2,-5.4140544E-1,3.577955E-1,-1.6839096E-1,-2.1999205E-2,3.87152E-1,-2.4984762E-1,3.0297972E-2,2.5254765E-1,-2.1678907E-1,5.2589166E-1,1.6980672E-1,-8.684646E-2,-4.051076E-1,-2.2039052E-2,1.8812013E-1],"split_indices":[8,8,6,4,0,3,0,10,2,0,0,9,7,3,7,15,0,12,0,0,9,4,0,0,0,0,0,0,0,0,0,0,0,0,0,0,0,0,0,0,0,0,0],"split_type":[0,0,0,0,0,0,0,0,0,0,0,0,0,0,0,0,0,0,0,0,0,0,0,0,0,0,0,0,0,0,0,0,0,0,0,0,0,0,0,0,0,0,0],"sum_hessian":[2.1E2,1.63E2,4.7E1,1.6E2,3E0,3.5E1,1.2E1,3.7E1,1.23E2,1E0,2E0,2.7E1,8E0,5E0,7E0,1.4E1,2.3E1,3.9E1,8.4E1,5E0,2.2E1,3E0,5E0,1E0,4E0,2E0,5E0,1.2E1,2E0,1.8E1,5E0,3.2E1,7E0,4.6E1,3.8E1,2E0,3E0,1.2E1,1E1,1E0,2E0,1E0,4E0],"tree_param":{"num_deleted":"0","num_feature":"17","num_nodes":"43","size_leaf_vector":"1"}},{"base_weights":[-4.072658E-3,1.1601782E-2,-1.6360393E-1,4.311124E-2,-8.4272854E-2,-4.5751557E-1,9.083321E-2,2.2077506E-2,2.55835E-1,-2.0702273E-1,1.735408E-1,-1.5611847E-1,-6.6540956E-1,-2.0221524E-1,2.8860593E-1,6.1624806E-2,-1.0052558E-1,4.2124566E-1,9.854764E-2,-5.4888195E-1,-1.1035468E-1,3.2593447E-1,-2.2491212E-1,-2.2661754E-1,5.793893E-2,-3.7005737E-2,-2.9668632E-1,-5.6696333E-2,4.400661E-1,9.674814E-2,-1.1909474E-1,-1.394293E-1,2.1388376E-1,1.5368882E-1,5.1410186E-1,-4.5530237E-2,1.5582864E-1,-6.6459906E-1,-1.6972613E-1,1.2824368E-1,-1.5786064E-1,5.1000357E-1,1.6889945E-1,7.521255E-2,-4.5339942E-1,-1.2826455E-1,3.8220044E-2,5.0411814E-1,8.6928956E-2],"categories":[],"categories_nodes":[],"categories_segments":[],"categories_sizes":[],"default_left":[0,0,0,0,0,0,0,0,0,0,0,0,0,0,0,0,0,0,0,0,0,0,0,0,0,0,0,0,0,0,0,0,0,0,0,0,0,0,0,0,0,0,0,0,0,0,0,0,0],"id":15,"left_children":[1,3,5,7,9,11,13,15,17,19,21,23,-1,25,27,29,31,33,35,37,39,41,43,-1,-1,-1,-1,45,47,-1,-1,-1,-1,-1,-1,-1,-1,-1,-1,-1,-1,-1,-1,-1,-1,-1,-1,-1,-1],"loss_changes":[5.310371E-1,5.862663E-1,1.466083E0,6.448314E-1,1.5552983E0,4.518299E-1,6.967513E-1,6.555211E-1,2.915104E-1,1.0233823E0,1.0458639E0,9.027101E-2,0E0,6.37216E-2,3.948806E-1,6.587411E-1,4.3272308E-1,6.337631E-2,7.42213E-2,1.8598056E-1,3.2658166E-1,2.5393522E-1,3.8075662E-1,0E0,0E0,0E0,0E0,2.6181707E-2,6.336284E-2,0E0,0E0,0E0,0E0,0E0,0E0,0E0,0E0,0E0,0E0,0E0,0E0,0E0,0E0,0E0,0E0,0E0,0E0,0E0,0E0],"parents":[2147483647,0,0,1,1,2,2,3,3,4,4,5,5,6,6,7,7,8,8,9,9,10,10,11,11,13,13,14,14,15,15,16,16,17,17,18,18,19,19,20,20,21,21,22,22,27,27,28,28],"right_children":[2,4,6,8,10,12,14,16,18,20,22,24,-1,26,28,30,32,34,36,38,40,42,44,-1,-1,-1,-1,46,48,-1,-1,-1,-1,-1,-1,-1,-1,-1,-1,-1,-1,-1,-1,-1,-1,-1,-1,-1,-1],"split_conditions":[2.4476464E0,4.2E-1,-2.1E-1,2.8E-1,1.8903478E0,1.526E1,-8.07E-1,4.5E0,3.5E0,1.8E0,2.3465936E0,5E-1,-6.6540956E-1,2.2E0,2.4631703E0,5.5E0,4.2E-1,9E-2,5.4E0,7.944E0,-1.9148E1,6.8E-1,4E0,-2.2661754E-1,5.793893E-2,-3.7005737E-2,-2.9668632E-1,-3.5E0,8.3E-1,9.674814E-2,-1.1909474E-1,-1.394293E-1,2.1388376E-1,1.5368882E-1,5.1410186E-1,-4.5530237E-2,1.5582864E-1,-6.6459906E-1,-1.6972613E-1,1.2824368E-1,-1.5786064E-1,5.1000357E-1,1.6889945E-1,7.521255E-2,-4.5339942E-1,-1.2826455E-1,3.8220044E-2,5.0411814E-1,8.6928956E-2],"split_indices":[12,1,3,1,15,9,8,5,4,7,14,0,0,4,12,4,2,0,4,16,16,1,5,0,0,0,0,0,0,0,0,0,0,0,0,0,0,0,0,0,0,0,0,0,0,0,0,0,0],"split_type":[0,0,0,0,0,0,0,0,0,0,0,0,0,0,0,0,0,0,0,0,0,0,0,0,0,0,0,0,0,0,0,0,0,0,0,0,0,0,0,0,0,0,0,0,0,0,0,0,0],"sum_hessian":[2.1E2,1.92E2,1.8E1,1.45E2,4.7E1,8E0,1E1,1.33E2,1.2E1,3.2E1,1.5E1,4E0,4E0,4E0,6E0,1.01E2,3.2E1,5E0,7E0,6E0,2.6E1,1.1E1,4E0,3E0,1E0,2E0,2E0,2E0,4E0,8.5E1,1.6E1,2.9E1,3E0,2E0,3E0,2E0,5E0,4E0,2E0,4E0,2.2E1,4E0,7E0,2E0,2E0,1E0,1E0,3E0,1E0],"tree_param":{"num_deleted":"0","num_feature":"17","num_nodes":"49","size_leaf_vector":"1"}},{"base_weights":[-1.8000702E-3,-4.8154593E-2,4.8109706E-2,-2.682262E-1,-2.5789533E-2,1.7613232E-1,8.481198E-3,-6.5145895E-2,-3.9108878E-1,-1.24110445E-1,2.3603123E-2,2.808618E-1,-1.16905265E-1,-6.8583995E-2,6.262312E-2,-1.7756062E-2,-8.74871E-2,-7.0360245E-4,-2.2097355E-1,1.2148116E-1,-8.3585136E-2,9.034652E-2,4.2323938E-1,-3.3851185E-1,3.743975E-2,2.418128E-3,-2.920179E-1,-1.770884E-2,1.1343981E-1,1.13244295E-1,-4.895659E-2,1.1900083E-1,-2.6855883E-1,-3.6928006E-2,1.8421268E-1,5.080623E-2,-2.4890852E-1,1.538655E-1,-8.464662E-2,1.1595827E-1,5.3693724E-1,-3.59441E-2,1.01677015E-1,1.19746365E-1,-1.9628169E-1,-4.774101E-2,-3.6382005E-1,-7.152001E-2,1.9946304E-1,1.4162913E-1,-9.565067E-2],"categories":[],"categories_nodes":[],"categories_segments":[],"categories_sizes":[],"default_left":[0,0,0,0,0,0,0,0,0,0,0,0,0,0,0,0,0,0,0,0,0,0,0,0,0,0,0,0,0,0,0,0,0,0,0,0,0,0,0,0,0,0,0,0,0,0,0,0,0,0,0],"id":16,"left_children":[1,3,5,7,9,11,13,15,-1,17,19,21,23,25,27,-1,-1,29,31,33,35,37,39,-1,41,43,45,47,49,-1,-1,-1,-1,-1,-1,-1,-1,-1,-1,-1,-1,-1,-1,-1,-1,-1,-1,-1,-1,-1,-1],"loss_changes":[4.9047488E-1,5.3155303E-1,5.141412E-1,2.1946949E-1,4.9442387E-1,7.710261E-1,3.3385947E-1,2.6878696E-3,0E0,4.0404922E-1,7.239466E-1,4.4487774E-1,2.5511163E-1,5.2712345E-1,1.9482985E-1,0E0,0E0,9.287441E-2,3.4083194E-1,3.660164E-1,7.478223E-1,1.1375486E-1,2.8058088E-1,0E0,2.7881911E-2,6.288792E-1,1.1883205E-1,2.3502535E-1,1.8493605E-1,0E0,0E0,0E0,0E0,0E0,0E0,0E0,0E0,0E0,0E0,0E0,0E0,0E0,0E0,0E0,0E0,0E0,0E0,0E0,0E0,0E0,0E0],"parents":[2147483647,0,0,1,1,2,2,3,3,4,4,5,5,6,6,7,7,9,9,10,10,11,11,12,12,13,13,14,14,17,17,18,18,19,19,20,20,21,21,22,22,24,24,25,25,26,26,27,27,28,28],"right_children":[2,4,6,8,10,12,14,16,-1,18,20,22,24,26,28,-1,-1,30,32,34,36,38,40,-1,42,44,46,48,50,-1,-1,-1,-1,-1,-1,-1,-1,-1,-1,-1,-1,-1,-1,-1,-1,-1,-1,-1,-1,-1,-1],"split_conditions":[3.4E0,9.7074187E-1,-2E-1,9.0282696E-1,-2.7E-1,2.3301737E0,3.7E0,0E0,-3.9108878E-1,1.6458E1,1.6514E1,-5.69E-1,-7.9E-1,2.3805E1,1.1E-1,-1.7756062E-2,-8.74871E-2,-9.1E-1,-3.4E0,-4.274E0,3.9E0,-1.8E-1,-1.0841E1,-3.3851185E-1,-4.7E-1,1.8271326E0,2E0,1.6465229E0,8.7E0,1.13244295E-1,-4.895659E-2,1.1900083E-1,-2.6855883E-1,-3.6928006E-2,1.8421268E-1,5.080623E-2,-2.4890852E-1,1.538655E-1,-8.464662E-2,1.1595827E-1,5.3693724E-1,-3.59441E-2,1.01677015E-1,1.19746365E-1,-1.9628169E-1,-4.774101E-2,-3.6382005E-1,-7.152001E-2,1.9946304E-1,1.4162913E-1,-9.565067E-2],"split_indices":[4,14,0,15,0,14,5,2,0,16,10,10,1,10,0,0,0,3,4,9,7,2,9,0,1,14,5,14,6,0,0,0,0,0,0,0,0,0,0,0,0,0,0,0,0,0,0,0,0,0,0],"split_type":[0,0,0,0,0,0,0,0,0,0,0,0,0,0,0,0,0,0,0,0,0,0,0,0,0,0,0,0,0,0,0,0,0,0,0,0,0,0,0,0,0,0,0,0,0,0,0,0,0,0,0],"sum_hessian":[2.1E2,1.09E2,1.01E2,9E0,1E2,2.3E1,7.8E1,4E0,5E0,3.3E1,6.7E1,1.7E1,6E0,3.2E1,4.6E1,2E0,2E0,1.5E1,1.8E1,3.5E1,3.2E1,8E0,9E0,2E0,4E0,2.5E1,7E0,1.8E1,2.8E1,4E0,1.1E1,2E0,1.6E1,1E1,2.5E1,1.8E1,1.4E1,6E0,2E0,3E0,6E0,2E0,2E0,1.6E1,9E0,2E0,5E0,1.5E1,3E0,2.5E1,3E0],"tree_param":{"num_deleted":"0","num_feature":"17","num_nodes":"51","size_leaf_vector":"1"}},{"base_weights":[-2.4987357E-3,-2.810998E-2,2.957175E-2,-1.219701E-2,-1.668248E-1,-1.0350957E-1,4.499812E-2,4.7385395E-2,-4.19577E-2,-6.1831683E-2,-2.9944885E-1,-4.375716E-2,-1.5251054E-1,1.1666341E-1,7.57195E-3,-4.69226E-2,1.0998696E-1,1.1335842E-1,-5.7946414E-2,4.5670744E-2,-1.0694428E-1,-1.3450063E-2,-5.304819E-2,-2.2798654E-2,-1.7673886E-1,2.1454118E-1,2.3103908E-2,-5.0447248E-2,4.0567387E-2,9.324073E-3,-2.0643198E-1,-4.099594E-2,1.9990548E-1,4.8010197E-2,1.8115266E-1,1.2593824E-2,-9.879307E-2,7.756721E-2,-4.061098E-3,-1.1987672E-1,-1.6141053E-2,2.7512658E-1,-3.2039261E-3,-1.5260655E-1,7.616067E-2,-1.987092E-2,-2.2394824E-1,1.1079382E-1,-3.1267855E-2],"categories":[],"categories_nodes":[],"categories_segments":[],"categories_sizes":[],"default_left":[0,0,0,0,0,0,0,0,0,0,0,0,0,0,0,0,0,0,0,0,0,0,0,0,0,0,0,0,0,0,0,0,0,0,0,0,0,0,0,0,0,0,0,0,0,0,0,0,0],"id":17,"left_children":[1,3,5,7,9,11,13,15,17,19,-1,21,23,25,27,29,31,33,35,37,39,-1,-1,-1,-1,41,43,45,47,-1,-1,-1,-1,-1,-1,-1,-1,-1,-1,-1,-1,-1,-1,-1,-1,-1,-1,-1,-1],"loss_changes":[1.7412467E-1,2.5664407E-1,1.9705102E-1,1.9166774E-1,1.4496708E-1,2.0643152E-2,2.2585768E-1,2.1832934E-1,1.8481258E-1,4.4294674E-2,0E0,3.110217E-4,9.688713E-3,2.5823128E-1,1.11066744E-1,1.3847394E-1,3.0845985E-1,2.0022824E-2,1.9227414E-1,5.80888E-3,3.7507191E-3,0E0,0E0,0E0,0E0,1.8829107E-1,1.600202E-1,1.0451724E-1,1.9091466E-1,0E0,0E0,0E0,0E0,0E0,0E0,0E0,0E0,0E0,0E0,0E0,0E0,0E0,0E0,0E0,0E0,0E0,0E0,0E0,0E0],"parents":[2147483647,0,0,1,1,2,2,3,3,4,4,5,5,6,6,7,7,8,8,9,9,11,11,12,12,13,13,14,14,15,15,16,16,17,17,18,18,19,19,20,20,25,25,26,26,27,27,28,28],"right_children":[2,4,6,8,10,12,14,16,18,20,-1,22,24,26,28,30,32,34,36,38,40,-1,-1,-1,-1,42,44,46,48,-1,-1,-1,-1,-1,-1,-1,-1,-1,-1,-1,-1,-1,-1,-1,-1,-1,-1,-1,-1],"split_conditions":[1.2369E1,1.0567E1,1.1E0,-4.59E-1,4E0,5.913E0,2.9E0,5E-1,8.8587546E-1,-8E-1,-2.9944885E-1,-7.1E-1,-1.37E0,1E-2,1.2793E1,-9E-1,1E0,-4E-2,2.7E0,-4.7E-1,0E0,-1.3450063E-2,-5.304819E-2,-2.2798654E-2,-1.7673886E-1,2.85E1,1.1652285E0,3.1684E1,2.85E1,9.324073E-3,-2.0643198E-1,-4.099594E-2,1.9990548E-1,4.8010197E-2,1.8115266E-1,1.2593824E-2,-9.879307E-2,7.756721E-2,-4.061098E-3,-1.1987672E-1,-1.6141053E-2,2.7512658E-1,-3.2039261E-3,-1.5260655E-1,7.616067E-2,-1.987092E-2,-2.2394824E-1,1.1079382E-1,-3.1267855E-2],"split_indices":[8,8,5,9,7,16,4,6,12,3,0,1,3,2,11,6,7,1,6,0,2,0,0,0,0,16,13,9,10,0,0,0,0,0,0,0,0,0,0,0,0,0,0,0,0,0,0,0,0],"split_type":[0,0,0,0,0,0,0,0,0,0,0,0,0,0,0,0,0,0,0,0,0,0,0,0,0,0,0,0,0,0,0,0,0,0,0,0,0,0,0,0,0,0,0,0,0,0,0,0,0],"sum_hessian":[2.1E2,1.17E2,9.3E1,1.06E2,1.1E1,9E0,8.4E1,3.5E1,7.1E1,7E0,4E0,5E0,4E0,2.8E1,5.6E1,1.4E1,2.1E1,6E0,6.5E1,2E0,5E0,2E0,3E0,1E0,3E0,1.3E1,1.5E1,2E1,3.6E1,1.1E1,3E0,8E0,1.3E1,4E0,2E0,2.4E1,4.1E1,1E0,1E0,4E0,1E0,1E1,3E0,3E0,1.2E1,1.8E1,2E0,1.8E1,1.8E1],"tree_param":{"num_deleted":"0","num_feature":"17","num_nodes":"49","size_leaf_vector":"1"}},{"base_weights":[-2.616329E-3,2.5855485E-4,-2.0536113E-1,-6.891659E-2,6.7944615E-3,-1.13457896E-1,1.5856588E-2,1.1001698E-1,-3.1576818E-3,-1.4071402E-1,8.81797E-2,4.634595E-2,-3.6911204E-2,2.8103374E-2,1.9740686E-1,4.6779777E-4,-1.6167025E-1,5.5018617E-3,-1.5688579E-1,5.2526053E-2,5.8127595E-3,7.158664E-2,-5.2518185E-2,8.099455E-2,2.4905534E-1,-7.5449506E-3,6.2642574E-2,-2.0338893E-1,-1.3257111E-2],"categories":[],"categories_nodes":[],"categories_segments":[],"categories_sizes":[],"default_left":[0,0,0,0,0,0,0,0,0,0,0,0,0,0,0,0,0,0,0,0,0,0,0,0,0,0,0,0,0],"id":18,"left_children":[1,3,-1,5,7,9,11,13,15,17,-1,19,-1,21,23,25,27,-1,-1,-1,-1,-1,-1,-1,-1,-1,-1,-1,-1],"loss_changes":[1.2508921E-1,9.434059E-2,0E0,7.0741415E-2,1.9865476E-1,7.888375E-2,1.3067027E-2,1.1389026E-1,1.0283205E-1,2.8387278E-2,0E0,3.6378764E-4,0E0,3.9007172E-2,2.4627537E-2,8.721063E-2,1.9903585E-2,0E0,0E0,0E0,0E0,0E0,0E0,0E0,0E0,0E0,0E0,0E0,0E0],"parents":[2147483647,0,0,1,1,3,3,4,4,5,5,6,6,7,7,8,8,9,9,11,11,13,13,14,14,15,15,16,16],"right_children":[2,4,-1,6,8,10,12,14,16,18,-1,20,-1,22,24,26,28,-1,-1,-1,-1,-1,-1,-1,-1,-1,-1,-1,-1],"split_conditions":[1.13E1,-1.7E0,-2.0536113E-1,-5.416E0,-7.492E0,1.5729E1,-2.1E0,-7.6E-1,1.01E1,-8E0,8.81797E-2,7.3E-1,-3.6911204E-2,2.847E0,-2E-2,7.4E0,1.9E-1,5.5018617E-3,-1.5688579E-1,5.2526053E-2,5.8127595E-3,7.158664E-2,-5.2518185E-2,8.099455E-2,2.4905534E-1,-7.5449506E-3,6.2642574E-2,-2.0338893E-1,-1.3257111E-2],"split_indices":[5,4,0,8,8,11,4,0,7,5,0,1,0,9,2,7,0,0,0,0,0,0,0,0,0,0,0,0,0],"split_type":[0,0,0,0,0,0,0,0,0,0,0,0,0,0,0,0,0,0,0,0,0,0,0,0,0,0,0,0,0],"sum_hessian":[2.1E2,2.08E2,2E0,1.7E1,1.91E2,1.1E1,6E0,1.6E1,1.75E2,1E1,1E0,4E0,2E0,9E0,7E0,1.72E2,3E0,1E0,9E0,3E0,1E0,6E0,3E0,3E0,4E0,1.53E2,1.9E1,2E0,1E0],"tree_param":{"num_deleted":"0","num_feature":"17","num_nodes":"29","size_leaf_vector":"1"}},{"base_weights":[-1.8745642E-4,5.365668E-3,-6.882651E-2,1.3806673E-3,7.135153E-2,5.512288E-2,-1.0243967E-1,2.1044213E-2,-1.7981997E-2,1.2159039E-2,1.379507E-1,1.8501831E-3,6.893039E-2,-3.6145754E-2,-1.5267079E-1,4.104113E-2,-1.1479825E-2,-3.2759033E-2,4.1546255E-2,4.210154E-2,-6.2382678E-3,1.9273789E-1,3.3846613E-2,-5.4571982E-2,-6.1830855E-3,-1.6342011E-1,-3.908741E-2,1.0414825E-2,9.402963E-2,-3.357449E-2,5.7423566E-2,-5.7570785E-2,3.0304851E-2,7.901523E-2,-1.8600492E-2,2.7061272E-3,-1.6436573E-2,-1.0612405E-2,-0E0],"categories":[],"categories_nodes":[],"categories_segments":[],"categories_sizes":[],"default_left":[0,0,0,0,0,0,0,0,0,0,0,0,0,0,0,0,0,0,0,0,0,0,0,0,0,0,0,0,0,0,0,0,0,0,0,0,0,0,0],"id":19,"left_children":[1,3,5,7,9,11,13,15,17,19,21,-1,-1,23,25,27,29,31,33,-1,35,-1,-1,-1,37,-1,-1,-1,-1,-1,-1,-1,-1,-1,-1,-1,-1,-1,-1],"loss_changes":[8.142892E-2,5.0713092E-2,7.278123E-2,7.1226425E-2,4.018543E-2,2.1069124E-3,3.588365E-2,6.1252132E-2,8.3960354E-2,4.4773035E-3,1.972849E-2,0E0,0E0,2.9197186E-3,1.3387203E-4,9.2101075E-2,5.6495782E-2,1.2093648E-1,4.489297E-2,0E0,6.3787226E-4,0E0,0E0,0E0,1.8494723E-4,0E0,0E0,0E0,0E0,0E0,0E0,0E0,0E0,0E0,0E0,0E0,0E0,0E0,0E0],"parents":[2147483647,0,0,1,1,2,2,3,3,4,4,5,5,6,6,7,7,8,8,9,9,10,10,13,13,14,14,15,15,16,16,17,17,18,18,20,20,24,24],"right_children":[2,4,6,8,10,12,14,16,18,20,22,-1,-1,24,26,28,30,32,34,-1,36,-1,-1,-1,38,-1,-1,-1,-1,-1,-1,-1,-1,-1,-1,-1,-1,-1,-1],"split_conditions":[8.4E0,9.1E0,1.18E0,3.1E0,4.981E0,-2.2E-1,8.41E0,0E0,3.1294E1,2.66E-1,5.2E-1,1.8501831E-3,6.893039E-2,1E-1,9.5E0,1.0069E1,5.5E-1,2.3282926E0,4.0255E1,4.210154E-2,9E-2,1.9273789E-1,3.3846613E-2,-5.4571982E-2,-2E-2,-1.6342011E-1,-3.908741E-2,1.0414825E-2,9.402963E-2,-3.357449E-2,5.7423566E-2,-5.7570785E-2,3.0304851E-2,7.901523E-2,-1.8600492E-2,2.7061272E-3,-1.6436573E-2,-1.0612405E-2,-0E0],"split_indices":[5,6,8,7,16,0,10,0,8,8,0,0,0,1,5,10,1,13,11,0,0,0,0,0,3,0,0,0,0,0,0,0,0,0,0,0,0,0,0],"split_type":[0,0,0,0,0,0,0,0,0,0,0,0,0,0,0,0,0,0,0,0,0,0,0,0,0,0,0,0,0,0,0,0,0,0,0,0,0,0,0],"sum_hessian":[2.1E2,1.95E2,1.5E1,1.85E2,1E1,3E0,1.2E1,9.2E1,9.3E1,6E0,4E0,1E0,2E0,6E0,6E0,5.7E1,3.5E1,7.5E1,1.8E1,2E0,4E0,2E0,2E0,3E0,3E0,5E0,1E0,3.7E1,2E1,2.7E1,8E0,5.4E1,2.1E1,1.1E1,7E0,2E0,2E0,2E0,1E0],"tree_param":{"num_deleted":"0","num_feature":"17","num_nodes":"39","size_leaf_vector":"1"}},{"base_weights":[1.1688535E-3,2.6241418E-2,-1.3359721E-2,-1.1925328E-2,3.978039E-2,-2.3428686E-2,7.390489E-2,3.5961416E-2,-4.4929586E-2,3.2802492E-3,6.013776E-2,-7.880423E-2,-1.708382E-2,3.978791E-2,1.2535787E-1,5.9173223E-2,1.282664E-2,-1.0369539E-1,3.5109657E-3,6.5916546E-2,-3.650596E-2,1.331761E-1,2.77837E-2,-2.411315E-2,-1.7965811E-1,-2.6055694E-2,4.0808424E-2,5.7761867E-2,8.261584E-3,1.043808E-2,1.489783E-1,-0E0,1.4361427E-2,-3.420579E-2,-1.5844972E-1,-3.214371E-2,1.462502E-2,1.4772591E-1,2.0010164E-2,-2.153498E-2,-1.1056434E-1,1.5900496E-1,7.964211E-3,-7.600283E-3,1.3139512E-1,8.974121E-3,-5.4377794E-2,-3.2420777E-2,1.6307587E-2,6.755664E-2,-0E0,1.5189009E-2,-0E0],"categories":[],"categories_nodes":[],"categories_segments":[],"categories_sizes":[],"default_left":[0,0,0,0,0,0,0,0,0,0,0,0,0,0,0,0,0,0,0,0,0,0,0,0,0,0,0,0,0,0,0,0,0,0,0,0,0,0,0,0,0,0,0,0,0,0,0,0,0,0,0,0,0],"id":20,"left_children":[1,3,5,7,9,11,13,15,17,19,21,23,25,27,29,-1,31,33,35,37,39,41,43,45,-1,47,49,-1,51,-1,-1,-1,-1,-1,-1,-1,-1,-1,-1,-1,-1,-1,-1,-1,-1,-1,-1,-1,-1,-1,-1,-1,-1],"loss_changes":[7.7340074E-2,4.105855E-2,1.1896774E-1,3.4895208E-2,4.2265266E-2,4.020825E-2,1.79367E-2,3.3540074E-3,3.8372338E-2,5.7525788E-2,8.212449E-2,5.9819847E-2,5.804997E-2,4.529087E-3,1.0423057E-2,0E0,4.4116867E-5,1.5482686E-2,3.4650592E-3,2.9166773E-2,1.18201785E-2,3.2638833E-2,1.01223566E-1,9.954399E-3,0E0,2.6575834E-2,1.6095191E-2,0E0,3.5084918E-4,0E0,0E0,0E0,0E0,0E0,0E0,0E0,0E0,0E0,0E0,0E0,0E0,0E0,0E0,0E0,0E0,0E0,0E0,0E0,0E0,0E0,0E0,0E0,0E0],"parents":[2147483647,0,0,1,1,2,2,3,3,4,4,5,5,6,6,7,7,8,8,9,9,10,10,11,11,12,12,13,13,14,14,16,16,17,17,18,18,19,19,20,20,21,21,22,22,23,23,25,25,26,26,28,28],"right_children":[2,4,6,8,10,12,14,16,18,20,22,24,26,28,30,-1,32,34,36,38,40,42,44,46,-1,48,50,-1,52,-1,-1,-1,-1,-1,-1,-1,-1,-1,-1,-1,-1,-1,-1,-1,-1,-1,-1,-1,-1,-1,-1,-1,-1],"split_conditions":[1.1745726E0,1.5E0,8.2E-1,1E-2,3.4E0,1.2004002E0,-6.4E-1,-2.2E-1,1.9E-1,9.7541183E-1,4.2E0,4.7E-1,3.6517E1,7.684E0,-1.9E-1,5.9173223E-2,-2.36E0,5E-2,-6.7E-1,-7.3E-1,6.6E0,5.5E-1,7.7E0,1.2E0,-1.7965811E-1,6.9E0,2.2796E1,5.7761867E-2,2.1253397E0,1.043808E-2,1.489783E-1,-0E0,1.4361427E-2,-3.420579E-2,-1.5844972E-1,-3.214371E-2,1.462502E-2,1.4772591E-1,2.0010164E-2,-2.153498E-2,-1.1056434E-1,1.5900496E-1,7.964211E-3,-7.600283E-3,1.3139512E-1,8.974121E-3,-5.4377794E-2,-3.2420777E-2,1.6307587E-2,6.755664E-2,-0E0,1.5189009E-2,-0E0],"split_indices":[14,4,3,3,6,12,1,2,2,12,6,2,10,11,0,0,0,2,0,3,7,0,7,5,0,4,16,0,12,0,0,0,0,0,0,0,0,0,0,0,0,0,0,0,0,0,0,0,0,0,0,0,0],"split_type":[0,0,0,0,0,0,0,0,0,0,0,0,0,0,0,0,0,0,0,0,0,0,0,0,0,0,0,0,0,0,0,0,0,0,0,0,0,0,0,0,0,0,0,0,0,0,0,0,0,0,0,0,0],"sum_hessian":[2.1E2,7.7E1,1.33E2,2E1,5.7E1,1.2E2,1.3E1,8E0,1.2E1,2.1E1,3.6E1,1.1E1,1.09E2,9E0,4E0,3E0,5E0,5E0,7E0,8E0,1.3E1,1E1,2.6E1,8E0,3E0,9.5E1,1.4E1,5E0,4E0,1E0,3E0,1E0,4E0,3E0,2E0,1E0,6E0,2E0,6E0,1.2E1,1E0,8E0,2E0,2E1,6E0,4E0,4E0,8.3E1,1.2E1,8E0,6E0,2E0,2E0],"tree_param":{"num_deleted":"0","num_feature":"17","num_nodes":"53","size_leaf_vector":"1"}},{"base_weights":[1.4385172E-3,-3.824526E-2,3.8623512E-3,-5.761437E-3,-9.927255E-2,6.0038297E-3,-4.7033608E-2,-1.9660072E-2,-0E0,-1.2144891E-1,-1.1371727E-2,-2.7155697E-3,2.1165552E-2,1.46077825E-2,-5.9354916E-2,6.817576E-3,-2.6650887E-3,1.7456888E-3,-6.052992E-2,1.5015299E-2,9.734583E-2,-0E0,-7.078934E-2,-0E0,-3.1358576E-3,4.2924196E-2,-1.2281421E-3,-7.8023635E-2,-0E0,2.8254231E-2,-1.1105016E-2,1.6462756E-3,1.1835915E-1],"categories":[],"categories_nodes":[],"categories_segments":[],"categories_sizes":[],"default_left":[0,0,0,0,0,0,0,0,0,0,0,0,0,0,0,0,0,0,0,0,0,0,0,0,0,0,0,0,0,0,0,0,0],"id":21,"left_children":[1,3,5,7,9,11,13,-1,15,-1,-1,17,19,-1,21,-1,23,25,27,29,31,-1,-1,-1,-1,-1,-1,-1,-1,-1,-1,-1,-1],"loss_changes":[2.0099323E-2,2.21665E-2,2.1670602E-2,8.6080795E-4,5.087994E-3,2.5756791E-2,7.3905364E-3,0E0,1.7495154E-4,0E0,0E0,3.241825E-2,3.0680198E-2,0E0,5.405737E-3,0E0,3.820922E-6,1.4552336E-2,9.638976E-3,2.3654195E-2,8.659918E-3,0E0,0E0,0E0,0E0,0E0,0E0,0E0,0E0,0E0,0E0,0E0,0E0],"parents":[2147483647,0,0,1,1,2,2,3,3,4,4,5,5,6,6,8,8,11,11,12,12,14,14,16,16,17,17,18,18,19,19,20,20],"right_children":[2,4,6,8,10,12,14,-1,16,-1,-1,18,20,-1,22,-1,24,26,28,30,32,-1,-1,-1,-1,-1,-1,-1,-1,-1,-1,-1,-1],"split_conditions":[-1.32E0,2.0559E1,2.5108168E0,1.9E0,0E0,1.5723665E0,-7.4E-1,-1.9660072E-2,-7.1E-1,-1.2144891E-1,-1.1371727E-2,1.4376957E0,3.2875E1,1.46077825E-2,-3.3E-1,6.817576E-3,1.9E-1,-2.2501E1,2E-2,2.0533E1,-1.72E0,-0E0,-7.078934E-2,-0E0,-3.1358576E-3,4.2924196E-2,-1.2281421E-3,-7.8023635E-2,-0E0,2.8254231E-2,-1.1105016E-2,1.6462756E-3,1.1835915E-1],"split_indices":[3,9,15,5,0,12,3,0,0,0,0,13,11,0,0,0,0,9,3,16,0,0,0,0,0,0,0,0,0,0,0,0,0],"split_type":[0,0,0,0,0,0,0,0,0,0,0,0,0,0,0,0,0,0,0,0,0,0,0,0,0,0,0,0,0,0,0,0,0],"sum_hessian":[2.1E2,1.1E1,1.99E2,8E0,3E0,1.92E2,7E0,2E0,6E0,2E0,1E0,1.22E2,7E1,1E0,6E0,2E0,4E0,1.14E2,8E0,6.6E1,4E0,1E0,5E0,1E0,3E0,7E0,1.07E2,6E0,2E0,4.4E1,2.2E1,1E0,3E0],"tree_param":{"num_deleted":"0","num_feature":"17","num_nodes":"33","size_leaf_vector":"1"}},{"base_weights":[-4.942619E-4,-1.3579563E-2,5.3559034E-3,-7.0320508E-3,-4.854243E-2,5.3446125E-2,1.7335814E-3,-2.0187883E-2,6.0214386E-3,-1.9081868E-2,-7.218661E-2,2.0239018E-2,9.569703E-2,-2.868939E-3,2.6377162E-2,5.8750752E-3,-2.7677137E-2,1.8434538E-2,-3.419609E-2,3.1418998E-2,-1.8072892E-3,1.0436201E-2,-1.3258229E-2,-3.112731E-4,5.9434414E-2,-0E0,1.3793862E-2,-6.290503E-2,-1.384133E-2,4.2409874E-2,4.6697105E-3,3.302412E-3,-5.1855974E-2,-6.145234E-3,-0E0,1.6760072E-2,-3.8119514E-2,-7.107586E-2,-6.1252024E-3,1.4031159E-2,-3.8589533E-2,-9.378827E-3,7.906008E-2],"categories":[],"categories_nodes":[],"categories_segments":[],"categories_sizes":[],"default_left":[0,0,0,0,0,0,0,0,0,0,0,0,0,0,0,0,0,0,0,0,0,0,0,0,0,0,0,0,0,0,0,0,0,0,0,0,0,0,0,0,0,0,0],"id":22,"left_children":[1,3,5,7,9,11,13,15,17,-1,-1,19,-1,21,23,25,27,29,31,-1,33,35,37,39,41,-1,-1,-1,-1,-1,-1,-1,-1,-1,-1,-1,-1,-1,-1,-1,-1,-1,-1],"loss_changes":[1.6307265E-2,1.4211607E-2,2.4788495E-2,1.0051807E-2,4.675569E-3,1.0934129E-2,1.5849652E-2,6.041197E-3,1.4950274E-2,0E0,0E0,2.0782412E-3,0E0,1.6201377E-2,2.0019148E-2,3.291964E-4,9.572191E-3,6.921539E-3,5.2923197E-3,0E0,6.572893E-5,1.6085356E-2,2.6012003E-2,7.924084E-3,1.4943361E-2,0E0,0E0,0E0,0E0,0E0,0E0,0E0,0E0,0E0,0E0,0E0,0E0,0E0,0E0,0E0,0E0,0E0,0E0],"parents":[2147483647,0,0,1,1,2,2,3,3,4,4,5,5,6,6,7,7,8,8,11,11,13,13,14,14,15,15,16,16,17,17,18,18,20,20,21,21,22,22,23,23,24,24],"right_children":[2,4,6,8,10,12,14,16,18,-1,-1,20,-1,22,24,26,28,30,32,-1,34,36,38,40,42,-1,-1,-1,-1,-1,-1,-1,-1,-1,-1,-1,-1,-1,-1,-1,-1,-1,-1],"split_conditions":[2.109E0,1.6939E1,9.358342E-1,2.941E0,-5.359E0,1.691E0,2.3512948E0,-3.6E0,5E0,-1.9081868E-2,-7.218661E-2,9.147257E-1,9.569703E-2,3.1E0,1.2209E1,-1.9E-1,-7.841E0,0E0,1.8E0,3.1418998E-2,-2E-2,5.5E-1,1.0039371E0,3.327E0,1.5E0,-0E0,1.3793862E-2,-6.290503E-2,-1.384133E-2,4.2409874E-2,4.6697105E-3,3.302412E-3,-5.1855974E-2,-6.145234E-3,-0E0,1.6760072E-2,-3.8119514E-2,-7.107586E-2,-6.1252024E-3,1.4031159E-2,-3.8589533E-2,-9.378827E-3,7.906008E-2],"split_indices":[9,10,13,11,16,11,13,5,5,0,0,12,0,7,11,3,8,3,6,0,0,2,13,11,6,0,0,0,0,0,0,0,0,0,0,0,0,0,0,0,0,0,0],"split_type":[0,0,0,0,0,0,0,0,0,0,0,0,0,0,0,0,0,0,0,0,0,0,0,0,0,0,0,0,0,0,0,0,0,0,0,0,0,0,0,0,0,0,0],"sum_hessian":[2.1E2,6.5E1,1.45E2,5.6E1,9E0,9E0,1.36E2,2.8E1,2.8E1,5E0,4E0,6E0,3E0,1.15E2,2.1E1,6E0,2.2E1,2.2E1,6E0,4E0,2E0,5E1,6.5E1,1.2E1,9E0,4E0,2E0,5E0,1.7E1,7E0,1.5E1,2E0,4E0,1E0,1E0,4.5E1,5E0,6E0,5.9E1,9E0,3E0,2E0,7E0],"tree_param":{"num_deleted":"0","num_feature":"17","num_nodes":"43","size_leaf_vector":"1"}},{"base_weights":[-4.3402656E-4,1.0154919E-2,-5.5007925E-3,2.7836752E-3,2.9920392E-2,-3.0498493E-3,-5.1604986E-2,2.325432E-2,-3.1771099E-3,3.889302E-2,3.8262988E-3,7.8332005E-3,-1.0476367E-2,-1.6202496E-2,-9.007414E-2,-3.6390412E-3,6.363283E-2,1.1057741E-2,-1.0029823E-2,4.7458258E-2,-2.1438568E-3,2.2347923E-2,-2.3476104E-3,-6.8058595E-3,2.0181019E-2,-4.105691E-2,-4.5887134E-3,2.4024202E-3,-2.395433E-2,7.0462683E-3,-1.8585918E-2,-1.1984822E-2,1.7245919E-2,-1.9049961E-2,-0E0,1.02317305E-2,5.348285E-2,-4.489956E-3,-0E0,-1.9363695E-4,-4.0624674E-2,1.5765763E-3,3.297442E-2,-1.5308528E-2,-6.6878594E-2,1.6944852E-2,-1.1866777E-2],"categories":[],"categories_nodes":[],"categories_segments":[],"categories_sizes":[],"default_left":[0,0,0,0,0,0,0,0,0,0,0,0,0,0,0,0,0,0,0,0,0,0,0,0,0,0,0,0,0,0,0,0,0,0,0,0,0,0,0,0,0,0,0,0,0,0,0],"id":23,"left_children":[1,3,5,7,9,11,13,15,17,19,21,23,25,27,-1,29,-1,31,33,35,-1,-1,37,39,41,43,45,-1,-1,-1,-1,-1,-1,-1,-1,-1,-1,-1,-1,-1,-1,-1,-1,-1,-1,-1,-1],"loss_changes":[1.1329829E-2,9.497008E-3,1.5567883E-2,6.4977296E-3,3.6383774E-3,1.1262093E-2,7.011134E-3,1.3862468E-2,4.0025217E-3,5.1242653E-3,9.385722E-4,1.0393687E-2,1.42990975E-2,9.941785E-4,0E0,1.524054E-3,0E0,2.112989E-3,2.6267904E-3,1.2826528E-3,0E0,0E0,5.3082444E-5,5.3980066E-3,6.980939E-3,6.797582E-3,1.1277609E-2,0E0,0E0,0E0,0E0,0E0,0E0,0E0,0E0,0E0,0E0,0E0,0E0,0E0,0E0,0E0,0E0,0E0,0E0,0E0,0E0],"parents":[2147483647,0,0,1,1,2,2,3,3,4,4,5,5,6,6,7,7,8,8,9,9,10,10,11,11,12,12,13,13,15,15,17,17,18,18,19,19,22,22,23,23,24,24,25,25,26,26],"right_children":[2,4,6,8,10,12,14,16,18,20,22,24,26,28,-1,30,-1,32,34,36,-1,-1,38,40,42,44,46,-1,-1,-1,-1,-1,-1,-1,-1,-1,-1,-1,-1,-1,-1,-1,-1,-1,-1,-1,-1],"split_conditions":[1.144153E0,1.0567E1,5.8707E1,-2.109E0,4.3E-1,2.4E0,1.2806218E0,2.941E0,9.0282696E-1,7E0,-2E-2,2.1E0,-3.001E0,-1.2E0,-9.007414E-2,-3E-2,6.363283E-2,-3.103E0,4.5E0,-3.7E-1,-2.1438568E-3,2.2347923E-2,6.6E-1,1.8212E1,-1.054E0,2.2383583E0,-2.5E-1,2.4024202E-3,-2.395433E-2,7.0462683E-3,-1.8585918E-2,-1.1984822E-2,1.7245919E-2,-1.9049961E-2,-0E0,1.02317305E-2,5.348285E-2,-4.489956E-3,-0E0,-1.9363695E-4,-4.0624674E-2,1.5765763E-3,3.297442E-2,-1.5308528E-2,-6.6878594E-2,1.6944852E-2,-1.1866777E-2],"split_indices":[14,9,11,16,2,6,14,11,13,6,0,7,8,0,0,0,0,10,7,3,0,0,0,9,8,15,3,0,0,0,0,0,0,0,0,0,0,0,0,0,0,0,0,0,0,0,0],"split_type":[0,0,0,0,0,0,0,0,0,0,0,0,0,0,0,0,0,0,0,0,0,0,0,0,0,0,0,0,0,0,0,0,0,0,0,0,0,0,0,0,0,0,0,0,0,0,0],"sum_hessian":[2.1E2,6.7E1,1.43E2,5E1,1.7E1,1.37E2,6E0,1.1E1,3.9E1,1.2E1,5E0,5.5E1,8.2E1,4E0,2E0,7E0,4E0,1.2E1,2.7E1,1E1,2E0,1E0,4E0,2.5E1,3E1,1.2E1,7E1,1E0,3E0,4E0,3E0,2E0,1E1,1.4E1,1.3E1,2E0,8E0,3E0,1E0,2.2E1,3E0,1.3E1,1.7E1,7E0,5E0,1.7E1,5.3E1],"tree_param":{"num_deleted":"0","num_feature":"17","num_nodes":"47","size_leaf_vector":"1"}},{"base_weights":[-3.6063997E-4,-1.6536128E-2,1.2741017E-3,-3.2093178E-3,-3.939887E-2,2.4263633E-3,-1.6997326E-2,-7.620984E-3,7.225094E-3,1.572797E-2,-2.9305493E-5,-3.2078527E-2,-2.3682786E-3,2.3002736E-5,-9.387683E-3,5.814595E-4,3.1200558E-2,-2.245326E-3,1.3636221E-2,-1.0768459E-2,9.088116E-3,-1.0190857E-2,-0E0,1.2057148E-2,-1.1151372E-2,9.395971E-3,5.023429E-2,-4.609515E-3,7.846918E-3,-8.615195E-3,2.6091585E-2,-0E0,-1.5408275E-2],"categories":[],"categories_nodes":[],"categories_segments":[],"categories_sizes":[],"default_left":[0,0,0,0,0,0,0,0,0,0,0,0,0,0,0,0,0,0,0,0,0,0,0,0,0,0,0,0,0,0,0,0,0],"id":24,"left_children":[1,3,5,7,-1,9,11,13,-1,15,17,-1,19,-1,21,23,25,27,29,31,-1,-1,-1,-1,-1,-1,-1,-1,-1,-1,-1,-1,-1],"loss_changes":[5.753108E-3,5.541223E-3,3.937797E-3,7.034852E-4,0E0,6.102358E-3,2.006421E-3,2.4241355E-4,0E0,6.460353E-3,4.5803045E-3,0E0,7.883189E-4,0E0,5.3396216E-5,2.2977884E-3,4.742015E-3,3.2010325E-3,6.219687E-3,1.3244618E-4,0E0,0E0,0E0,0E0,0E0,0E0,0E0,0E0,0E0,0E0,0E0,0E0,0E0],"parents":[2147483647,0,0,1,1,2,2,3,3,5,5,6,6,7,7,9,9,10,10,12,12,14,14,15,15,16,16,17,17,18,18,19,19],"right_children":[2,4,6,8,-1,10,12,14,-1,16,18,-1,20,-1,22,24,26,28,30,32,-1,-1,-1,-1,-1,-1,-1,-1,-1,-1,-1,-1,-1],"split_conditions":[-8.8E-1,2.1112485E0,2.4761214E0,3.962E0,-3.939887E-2,-3.3E-1,7E-2,-2.85E0,7.225094E-3,1.2047E1,6.8E-1,-3.2078527E-2,3.4E-1,2.3002736E-5,2.7103E1,4.958E0,1.4604473E0,3.4612E1,1.4E0,5E-1,9.088116E-3,-1.0190857E-2,-0E0,1.2057148E-2,-1.1151372E-2,9.395971E-3,5.023429E-2,-4.609515E-3,7.846918E-3,-8.615195E-3,2.6091585E-2,-0E0,-1.5408275E-2],"split_indices":[3,13,12,10,0,3,2,2,0,9,2,0,0,0,16,10,12,10,6,3,0,0,0,0,0,0,0,0,0,0,0,0,0],"split_type":[0,0,0,0,0,0,0,0,0,0,0,0,0,0,0,0,0,0,0,0,0,0,0,0,0,0,0,0,0,0,0,0,0],"sum_hessian":[2.1E2,1.9E1,1.91E2,1.3E1,6E0,1.81E2,1E1,1E1,3E0,2.8E1,1.53E2,4E0,6E0,1E0,9E0,1.5E1,1.3E1,1.33E2,2E1,4E0,2E0,8E0,1E0,8E0,7E0,7E0,6E0,1.09E2,2.4E1,7E0,1.3E1,2E0,2E0],"tree_param":{"num_deleted":"0","num_feature":"17","num_nodes":"33","size_leaf_vector":"1"}},{"base_weights":[-0E0,3.1651633E-3,-3.1585472E-3,-4.3669315E-3,5.0838706E-3,-7.1966243E-3,9.158483E-3,-1.3045429E-2,5.483959E-3,2.453416E-2,2.0702253E-3,-5.788611E-4,-1.5592002E-2,-2.0401675E-2,1.7644314E-2,2.3594268E-3,-1.7362343E-2,-5.8077527E-3,8.49501E-3,2.778722E-4,2.5932001E-2,6.37295E-5,1.588928E-2,2.8078023E-3,-1.1523946E-2,-1.0019302E-2,-3.5022903E-2,-3.8468894E-2,7.1551767E-3,3.0709963E-2,-2.077658E-3,-0E0,-1.911554E-2,-0E0,1.0264957E-2,-2.094658E-3,1.0125728E-2,-3.9893365E-3,2.8160144E-2,-5.8117034E-3,5.835222E-3,1.9055348E-3,-1.9726878E-2,2.5490213E-3,-1.4588724E-2,-4.36295E-2,-5.670942E-3,-0E0,1.5030975E-2,7.873541E-5,3.8891457E-2,2.3448525E-2,-2.0415504E-2],"categories":[],"categories_nodes":[],"categories_segments":[],"categories_sizes":[],"default_left":[0,0,0,0,0,0,0,0,0,0,0,0,0,0,0,0,0,0,0,0,0,0,0,0,0,0,0,0,0,0,0,0,0,0,0,0,0,0,0,0,0,0,0,0,0,0,0,0,0,0,0,0,0],"id":25,"left_children":[1,3,5,7,9,11,13,15,17,19,21,23,25,27,29,-1,31,-1,33,-1,-1,35,37,39,41,43,45,-1,47,49,51,-1,-1,-1,-1,-1,-1,-1,-1,-1,-1,-1,-1,-1,-1,-1,-1,-1,-1,-1,-1,-1,-1],"loss_changes":[2.119436E-3,1.5612701E-3,5.318426E-3,1.9424648E-3,4.7241645E-3,4.3295138E-3,6.854305E-3,9.890117E-4,4.1620876E-4,1.0366645E-4,1.9467757E-3,1.8616823E-3,2.9885639E-3,3.5756428E-3,5.761415E-3,0E0,2.7412502E-4,0E0,8.809869E-5,0E0,0E0,1.5783238E-3,2.5493985E-3,9.7356277E-4,1.5377371E-3,1.8230532E-3,1.0279184E-3,0E0,2.9827078E-4,2.865157E-3,4.6612397E-3,0E0,0E0,0E0,0E0,0E0,0E0,0E0,0E0,0E0,0E0,0E0,0E0,0E0,0E0,0E0,0E0,0E0,0E0,0E0,0E0,0E0,0E0],"parents":[2147483647,0,0,1,1,2,2,3,3,4,4,5,5,6,6,7,7,8,8,9,9,10,10,11,11,12,12,13,13,14,14,16,16,18,18,21,21,22,22,23,23,24,24,25,25,26,26,28,28,29,29,30,30],"right_children":[2,4,6,8,10,12,14,16,18,20,22,24,26,28,30,-1,32,-1,34,-1,-1,36,38,40,42,44,46,-1,48,50,52,-1,-1,-1,-1,-1,-1,-1,-1,-1,-1,-1,-1,-1,-1,-1,-1,-1,-1,-1,-1,-1,-1],"split_conditions":[9.362E0,9.299616E-1,3.3205E1,2.941E0,9.947257E-1,1.8196E1,8.884E0,-1.9E0,-5E-2,-8.2E-1,5.617E0,4.9E0,2.234954E0,1E-2,5E-2,2.3594268E-3,-2.7E-1,-5.8077527E-3,-4E-2,2.778722E-4,2.5932001E-2,2.3983195E0,1.5E0,-3.271E0,1.4954324E0,2.3369E1,2.3465936E0,-3.8468894E-2,-8.2E-1,1.214529E0,3.994E1,-0E0,-1.911554E-2,-0E0,1.0264957E-2,-2.094658E-3,1.0125728E-2,-3.9893365E-3,2.8160144E-2,-5.8117034E-3,5.835222E-3,1.9055348E-3,-1.9726878E-2,2.5490213E-3,-1.4588724E-2,-4.36295E-2,-5.670942E-3,-0E0,1.5030975E-2,7.873541E-5,3.8891457E-2,2.3448525E-2,-2.0415504E-2],"split_indices":[11,14,16,8,13,9,10,4,0,3,11,5,15,2,0,0,0,0,1,0,0,15,5,9,12,11,13,0,0,13,16,0,0,0,0,0,0,0,0,0,0,0,0,0,0,0,0,0,0,0,0,0,0],"split_type":[0,0,0,0,0,0,0,0,0,0,0,0,0,0,0,0,0,0,0,0,0,0,0,0,0,0,0,0,0,0,0,0,0,0,0,0,0,0,0,0,0,0,0,0,0,0,0,0,0,0,0,0,0],"sum_hessian":[2.1E2,1.05E2,1.05E2,2E1,8.5E1,8E1,2.5E1,1.1E1,9E0,1E1,7.5E1,4.6E1,3.4E1,5E0,2E1,2E0,9E0,1E0,8E0,1E0,9E0,6.7E1,8E0,3.5E1,1.1E1,2.8E1,6E0,3E0,2E0,1.2E1,8E0,1E0,8E0,2E0,6E0,5.5E1,1.2E1,3E0,5E0,8E0,2.7E1,4E0,7E0,7E0,2.1E1,4E0,2E0,1E0,1E0,3E0,9E0,3E0,5E0],"tree_param":{"num_deleted":"0","num_feature":"17","num_nodes":"53","size_leaf_vector":"1"}}]},"name":"gbtree"},"learner_model_param":{"base_score":"1.187E1","boost_from_average":"1","num_class":"0","num_feature":"17","num_target":"1"},"objective":{"name":"reg:squarederror","reg_loss_param":{"scale_pos_weight":"1"}}},"version":[2,1,4]}