{"learner":{"attributes":{"best_iteration":"0","best_score":"111.04783925101574","scikit_learn":"{\"_estimator_type\": \"regressor\"}"},"feature_names":["fedfunds_lag_5","fedfunds_lag_6","fedfunds_lag_7","fedfunds_lag_8","gdp_lag_5","gdp_lag_6","gdp_lag_7","gdp_lag_8","imports_lag_5","imports_lag_6","imports_lag_7","imports_lag_8","watr_lag_5","watr_lag_6","watr_lag_7","watr_lag_8","imports_lag_1"],"feature_types":["float","float","float","float","float","float","float","float","float","float","float","float","float","float","float","float","float"],"gradient_booster":{"model":{"gbtree_model_param":{"num_parallel_tree":"1","num_trees":"26"},"iteration_indptr":[0,1,2,3,4,5,6,7,8,9,10,11,12,13,14,15,16,17,18,19,20,21,22,23,24,25,26],"tree_info":[0,0,0,0,0,0,0,0,0,0,0,0,0,0,0,0,0,0,0,0,0,0,0,0,0,0],"trees":[{"base_weights":[-0E0,-1.0632615E2,1.504615E0,-4.84365E0,2.3295637E1,-2.4802536E1,-3.2568948E0,-4.6657605E0,2.7401451E1,1.1650023E1,-4.448632E1,-7.9815907E0,2.6789126E0,9.1302323E-1,-1.2411814E1,1.5124685E1,3.5978413E1,3.427089E1,-2.570416E0,-9.296292E0,1.1095483E1,5.471213E-1,1.8864182E1,3.2238894E0,-4.681657E-1,-9.79261E0,1.705357E1,5.4514305E1,2.5138674E1],"categories":[],"categories_nodes":[],"categories_segments":[],"categories_sizes":[],"default_left":[0,0,0,0,0,0,0,0,0,0,0,0,0,0,0,0,0,0,0,0,0,0,0,0,0,0,0,0,0],"id":0,"left_children":[1,-1,3,5,7,9,11,13,15,17,-1,19,21,23,-1,25,27,-1,-1,-1,-1,-1,-1,-1,-1,-1,-1,-1,-1],"loss_changes":[3.439569E4,0E0,2.944008E4,5.1444673E3,5.6386816E3,9.128885E3,4.340347E3,3.139422E2,3.8778145E3,1.6968008E3,0E0,2.2600654E3,2.3702344E3,1.7495586E1,0E0,1.0802607E3,3.4509668E3,0E0,0E0,0E0,0E0,0E0,0E0,0E0,0E0,0E0,0E0,0E0,0E0],"parents":[2147483647,0,0,2,2,3,3,4,4,5,5,6,6,7,7,8,8,9,9,11,11,12,12,13,13,15,15,16,16],"right_children":[2,-1,4,6,8,10,12,14,16,18,-1,20,22,24,-1,26,28,-1,-1,-1,-1,-1,-1,-1,-1,-1,-1,-1,-1],"split_conditions":[-8.2388E1,-1.0632615E2,2.6147E1,-2.1961E1,1.1337645E0,7E-1,9.135E0,5.6E0,3.7562E1,-9.1E-1,-4.448632E1,1.9675E1,4.6716E1,-2.2E-1,-1.2411814E1,-1.4898E1,2.2E0,3.427089E1,-2.570416E0,-9.296292E0,1.1095483E1,5.471213E-1,1.8864182E1,3.2238894E0,-4.681657E-1,-9.79261E0,1.705357E1,5.4514305E1,2.5138674E1],"split_indices":[16,0,16,16,12,5,9,4,16,0,0,16,10,1,0,8,4,0,0,0,0,0,0,0,0,0,0,0,0],"split_type":[0,0,0,0,0,0,0,0,0,0,0,0,0,0,0,0,0,0,0,0,0,0,0,0,0,0,0,0,0],"sum_hessian":[2.13E2,2E0,2.11E2,1.64E2,4.7E1,1.1E1,1.53E2,6E0,4.1E1,4E0,7E0,8.5E1,6.8E1,4E0,2E0,1.8E1,2.3E1,1E0,3E0,8E1,5E0,6.1E1,7E0,1E0,3E0,1E0,1.7E1,7E0,1.6E1],"tree_param":{"num_deleted":"0","num_feature":"17","num_nodes":"29","size_leaf_vector":"1"}},{"base_weights":[-9.63719E-2,-3.5442047E1,4.0421015E-1,6.0869646E0,-5.925503E1,1.1034744E1,-6.3895667E-1,1.7454975E1,-1.0430894E1,7.294208E-2,-1.2489903E1,5.841304E0,1.9870783E1,-1.8015059E0,2.1383798E0,-2.5500498E0,-1.5897343E1,6.6367145E0,1.7225357E0,2.6425E1,1.1412773E1,2.2373343E0,-9.702509E0,1.4251702E1,4.0254736E-1,-4.0559525E0,9.78829E-1,-1.7895973E1,-9.4846433E-1],"categories":[],"categories_nodes":[],"categories_segments":[],"categories_sizes":[],"default_left":[0,0,0,0,0,0,0,0,0,0,0,0,0,0,0,0,0,0,0,0,0,0,0,0,0,0,0,0,0],"id":1,"left_children":[1,3,5,-1,-1,7,9,11,-1,13,15,17,19,21,23,25,27,-1,-1,-1,-1,-1,-1,-1,-1,-1,-1,-1,-1],"loss_changes":[3.801066E3,3.3280042E3,2.358112E3,0E0,0E0,2.800613E3,1.6377501E3,3.0451807E2,0E0,7.162218E2,3.3184033E2,1.5888824E0,3.632666E2,3.1171387E3,1.8444656E3,2.5257446E1,2.2185596E2,0E0,0E0,0E0,0E0,0E0,0E0,0E0,0E0,0E0,0E0,0E0,0E0],"parents":[2147483647,0,0,1,1,2,2,5,5,6,6,7,7,9,9,10,10,11,11,12,12,13,13,14,14,15,15,16,16],"right_children":[2,4,6,-1,-1,8,10,12,-1,14,16,18,20,22,24,26,28,-1,-1,-1,-1,-1,-1,-1,-1,-1,-1,-1,-1],"split_conditions":[-8.2388E1,-1.31E0,-9.1E-1,6.0869646E0,-5.925503E1,4E0,1.21E0,-3.4E0,-1.0430894E1,1.3625481E0,-1.9E0,-5.6E-1,-1.5E-1,1.1708165E0,1.4595758E0,1.48E0,1.39E0,6.6367145E0,1.7225357E0,2.6425E1,1.1412773E1,2.2373343E0,-9.702509E0,1.4251702E1,4.0254736E-1,-4.0559525E0,9.78829E-1,-1.7895973E1,-9.4846433E-1],"split_indices":[16,0,1,0,0,4,1,6,0,14,4,0,3,12,15,1,0,0,0,0,0,0,0,0,0,0,0,0,0],"split_type":[0,0,0,0,0,0,0,0,0,0,0,0,0,0,0,0,0,0,0,0,0,0,0,0,0,0,0,0,0],"sum_hessian":[2.13E2,2E0,2.11E2,1E0,1E0,1.8E1,1.93E2,1.4E1,4E0,1.83E2,1E1,3E0,1.1E1,9.6E1,8.7E1,3E0,7E0,2E0,1E0,5E0,6E0,6.4E1,3.2E1,1E1,7.7E1,2E0,1E0,6E0,1E0],"tree_param":{"num_deleted":"0","num_feature":"17","num_nodes":"29","size_leaf_vector":"1"}},{"base_weights":[-1.4997412E-1,-7.598501E-1,7.4441066E0,-1.2995966E1,-3.774452E-1,1.2059416E1,-5.119458E0,5.735906E0,-3.3643143E1,9.645371E-1,-3.7867193E0,-1.2914485E0,1.889753E1,-1.18644815E-2,-1.2769917E1,2.1998196E0,-3.6378264E0,4.1349497E0,-5.0283155E0,6.9986615E0,-5.1161413E0,2.2173069E1,6.0439415E0,-1.3070219E0,1.9318038E0,1.5309931E0,1.0618339E1,-4.993711E0,1.5291822E0,-7.5369805E-1,7.2208776E0,2.9745784E0,-6.4674582E0,-6.89695E-1,-6.358392E0],"categories":[],"categories_nodes":[],"categories_segments":[],"categories_sizes":[],"default_left":[0,0,0,0,0,0,0,0,0,0,0,0,0,0,0,0,0,0,0,0,0,0,0,0,0,0,0,0,0,0,0,0,0,0,0],"id":2,"left_children":[1,3,5,7,9,11,13,-1,-1,15,17,19,21,23,-1,25,27,29,31,-1,33,-1,-1,-1,-1,-1,-1,-1,-1,-1,-1,-1,-1,-1,-1],"loss_changes":[9.9671924E2,9.26112E2,9.8956305E2,2.5138145E3,8.9126666E2,1.1201179E3,1.9509782E2,0E0,0E0,8.0391895E2,5.617541E2,1.9432294E2,2.0252441E2,1.2588087E1,0E0,6.0861066E2,2.1784695E2,1.2619516E2,5.721035E2,0E0,1.7539192E1,0E0,0E0,0E0,0E0,0E0,0E0,0E0,0E0,0E0,0E0,0E0,0E0,0E0,0E0],"parents":[2147483647,0,0,1,1,2,2,3,3,4,4,5,5,6,6,9,9,10,10,11,11,12,12,13,13,15,15,16,16,17,17,18,18,20,20],"right_children":[2,4,6,8,10,12,14,-1,-1,16,18,20,22,24,-1,26,28,30,32,-1,34,-1,-1,-1,-1,-1,-1,-1,-1,-1,-1,-1,-1,-1,-1],"split_conditions":[4.812E1,-2.8632E1,4E0,-6.7E-1,4.7E0,1E-2,2.3E0,5.735906E0,-3.3643143E1,5.2E0,-4.901E0,-2.2E-1,7.0033E1,4.9E-1,-1.2769917E1,4.2E0,9.2E0,1.1152195E0,-3.67E0,6.9986615E0,-2.2E-1,2.2173069E1,6.0439415E0,-1.3070219E0,1.9318038E0,1.5309931E0,1.0618339E1,-4.993711E0,1.5291822E0,-7.5369805E-1,7.2208776E0,2.9745784E0,-6.4674582E0,-6.89695E-1,-6.358392E0],"split_indices":[9,16,4,0,7,1,5,0,0,5,16,2,8,0,0,7,5,12,8,0,3,0,0,0,0,0,0,0,0,0,0,0,0,0,0],"split_type":[0,0,0,0,0,0,0,0,0,0,0,0,0,0,0,0,0,0,0,0,0,0,0,0,0,0,0,0,0,0,0,0,0,0,0],"sum_hessian":[2.13E2,1.98E2,1.5E1,5E0,1.93E2,1.1E1,4E0,3E0,2E0,1.39E2,5.4E1,4E0,7E0,3E0,1E0,1.1E2,2.9E1,7E0,4.7E1,1E0,3E0,5E0,2E0,2E0,1E0,1.03E2,7E0,2.3E1,6E0,3E0,4E0,7E0,4E1,1E0,2E0],"tree_param":{"num_deleted":"0","num_feature":"17","num_nodes":"35","size_leaf_vector":"1"}},{"base_weights":[-9.144335E-4,7.742916E-1,-2.559276E0,-1.9560587E-1,4.255469E0,4.923621E0,-4.102057E0,1.9539174E-1,-8.310455E0,5.841905E0,-1.1518302E0,4.624824E-1,1.3688404E1,1.3016013E0,-5.615527E0,-1.671113E0,1.8362632E0,-1.4445226E1,-1.6292639E0,-2.2165155E0,6.8979764E0,-2.7197673E0,1.485533E0,-4.1340547E0,3.129908E0,2.6518238E0,-2.729526E0,-6.962448E0,-5.3484327E-1,-3.469397E0,3.3779876E0,2.9440415E0,-8.078128E0,2.2255814E-1,-2.3240573E0,7.780614E0,-2.1649022E0,-4.812728E0,-4.6760494E-1,2.8477714E0,-1.295591E0,1.0271254E0,4.1860547E0,1.7131937E0,3.6418095E0,-7.554431E0,3.9135585E0,1.9751687E0,-9.057464E0],"categories":[],"categories_nodes":[],"categories_segments":[],"categories_sizes":[],"default_left":[0,0,0,0,0,0,0,0,0,0,0,0,0,0,0,0,0,0,0,0,0,0,0,0,0,0,0,0,0,0,0,0,0,0,0,0,0,0,0,0,0,0,0,0,0,0,0,0,0],"id":3,"left_children":[1,3,5,7,9,11,13,15,17,19,21,23,-1,25,27,29,31,-1,33,-1,35,37,39,-1,41,43,-1,45,47,-1,-1,-1,-1,-1,-1,-1,-1,-1,-1,-1,-1,-1,-1,-1,-1,-1,-1,-1,-1],"loss_changes":[4.2641653E2,5.579765E2,5.974123E2,4.141802E2,3.155959E2,3.454361E2,3.5084003E2,3.8590704E2,2.2222958E2,2.5362372E2,4.1269623E1,9.875561E1,0E0,6.166664E1,2.220293E2,5.474238E2,7.595885E2,0E0,5.6847878E0,0E0,2.1688135E2,2.597887E1,1.8859285E1,0E0,6.7525024E0,1.1411667E0,0E0,1.9699963E2,1.8909589E2,0E0,0E0,0E0,0E0,0E0,0E0,0E0,0E0,0E0,0E0,0E0,0E0,0E0,0E0,0E0,0E0,0E0,0E0,0E0,0E0],"parents":[2147483647,0,0,1,1,2,2,3,3,4,4,5,5,6,6,7,7,8,8,9,9,10,10,11,11,13,13,14,14,15,15,16,16,18,18,20,20,21,21,22,22,24,24,25,25,27,27,28,28],"right_children":[2,4,6,8,10,12,14,16,18,20,22,24,-1,26,28,30,32,-1,34,-1,36,38,40,-1,42,44,-1,46,48,-1,-1,-1,-1,-1,-1,-1,-1,-1,-1,-1,-1,-1,-1,-1,-1,-1,-1,-1,-1],"split_conditions":[5.4E0,2.5661E1,6E-1,2.2218E1,5.4477E1,-2.7E-1,1.18E0,0E0,7E-1,-7E-1,2.4E-1,-5.8E-1,1.3688404E1,7.7E-1,3.1294E1,2.3710485E0,2.408993E0,-1.4445226E1,-6.8E-1,-2.2165155E0,3.9E-1,2E0,3.9E-1,-4.1340547E0,1.9E-1,7E0,-2.729526E0,2.4761214E0,4.2E0,-3.469397E0,3.3779876E0,2.9440415E0,-8.078128E0,2.2255814E-1,-2.3240573E0,7.780614E0,-2.1649022E0,-4.812728E0,-4.6760494E-1,2.8477714E0,-1.295591E0,1.0271254E0,4.1860547E0,1.7131937E0,3.6418095E0,-7.554431E0,3.9135585E0,1.9751687E0,-9.057464E0],"split_indices":[4,9,7,9,10,2,16,2,4,7,1,1,0,3,16,13,14,0,0,0,3,4,2,0,1,5,0,15,7,0,0,0,0,0,0,0,0,0,0,0,0,0,0,0,0,0,0,0,0],"split_type":[0,0,0,0,0,0,0,0,0,0,0,0,0,0,0,0,0,0,0,0,0,0,0,0,0,0,0,0,0,0,0,0,0,0,0,0,0,0,0,0,0,0,0,0,0,0,0,0,0],"sum_hessian":[2.13E2,1.64E2,4.9E1,1.29E2,3.5E1,8E0,4.1E1,1.24E2,5E0,2.7E1,8E0,6E0,2E0,9E0,3.2E1,5.8E1,6.6E1,2E0,3E0,3E0,2.4E1,5E0,3E0,2E0,4E0,7E0,2E0,2.5E1,7E0,4.3E1,1.5E1,6E1,6E0,1E0,2E0,2.2E1,2E0,2E0,3E0,2E0,1E0,2E0,2E0,5E0,2E0,2.4E1,1E0,6E0,1E0],"tree_param":{"num_deleted":"0","num_feature":"17","num_nodes":"49","size_leaf_vector":"1"}},{"base_weights":[-7.210905E-2,3.294544E0,-7.0417583E-1,1.0120136E1,1.7684026E0,-2.6214558E-1,-5.9575267E0,4.253508E-1,1.1972023E1,2.6084608E-1,5.6918826E0,1.0745505E0,-1.4051143E0,-2.5109346E0,-7.592196E0,-3.1242913E-1,6.154813E0,6.4139094E0,3.1384814E-1,2.5878884E-2,5.1359105E0,-1.909326E0,7.6471925E0,-4.004113E0,3.136146E-1,3.9369402E0,-7.222446E-1,6.8440995E0,1.9113833E0,-2.3050818E0,1.8384073E0,-7.8635216E-2,7.5142164E0,-7.7688084E0,-1.3792555E0,1.0903634E1,-2.684287E0,-2.9033864E-1,7.6576054E-1],"categories":[],"categories_nodes":[],"categories_segments":[],"categories_sizes":[],"default_left":[0,0,0,0,0,0,0,0,0,0,0,0,0,0,0,0,0,0,0,0,0,0,0,0,0,0,0,0,0,0,0,0,0,0,0,0,0,0,0],"id":4,"left_children":[1,3,5,7,9,11,13,-1,-1,15,17,19,21,23,-1,25,-1,27,-1,29,31,33,35,-1,37,-1,-1,-1,-1,-1,-1,-1,-1,-1,-1,-1,-1,-1,-1],"loss_changes":[4.5767526E2,3.361565E2,4.186834E2,1.02505554E2,1.6998694E2,2.5818387E2,5.9711975E1,0E0,0E0,7.63164E1,2.8984375E1,3.3202008E2,4.2989297E2,2.6597984E1,0E0,3.9381893E1,0E0,3.8934326E-1,0E0,2.7040375E2,1.9909381E2,2.5941E2,1.9757E2,0E0,1.046309E0,0E0,0E0,0E0,0E0,0E0,0E0,0E0,0E0,0E0,0E0,0E0,0E0,0E0,0E0],"parents":[2147483647,0,0,1,1,2,2,3,3,4,4,5,5,6,6,9,9,10,10,11,11,12,12,13,13,15,15,17,17,19,19,20,20,21,21,22,22,24,24],"right_children":[2,4,6,8,10,12,14,-1,-1,16,18,20,22,24,-1,26,-1,28,-1,30,32,34,36,-1,38,-1,-1,-1,-1,-1,-1,-1,-1,-1,-1,-1,-1,-1,-1],"split_conditions":[-4.901E0,-2.9E0,7.7E-1,-2.85E0,2.2299378E0,1.0069E1,5E-1,4.253508E-1,1.1972023E1,9.5E0,2.4180648E0,3.876E0,6.8E-1,-3.67E0,-7.592196E0,-2.8632E1,6.154813E0,7.3E-1,3.1384814E-1,-5E-2,3.876E0,1.3E0,9.7E-1,-4.004113E0,-2.85E0,3.9369402E0,-7.222446E-1,6.8440995E0,1.9113833E0,-2.3050818E0,1.8384073E0,-7.8635216E-2,7.5142164E0,-7.7688084E0,-1.3792555E0,1.0903634E1,-2.684287E0,-2.9033864E-1,7.6576054E-1],"split_indices":[11,5,2,1,12,10,4,0,0,7,14,10,2,9,0,8,0,1,0,1,8,7,1,0,0,0,0,0,0,0,0,0,0,0,0,0,0,0,0],"split_type":[0,0,0,0,0,0,0,0,0,0,0,0,0,0,0,0,0,0,0,0,0,0,0,0,0,0,0,0,0,0,0,0,0,0,0,0,0,0,0],"sum_hessian":[2.13E2,3.3E1,1.8E2,5E0,2.8E1,1.67E2,1.3E1,1E0,4E0,2.1E1,7E0,7.7E1,9E1,5E0,8E0,2E1,1E0,6E0,1E0,6.2E1,1.5E1,8.6E1,4E0,3E0,2E0,1E0,1.9E1,5E0,1E0,2.7E1,3.5E1,5E0,1E1,6E0,8E1,3E0,1E0,1E0,1E0],"tree_param":{"num_deleted":"0","num_feature":"17","num_nodes":"39","size_leaf_vector":"1"}},{"base_weights":[1.2039975E-1,1.8860434E0,-2.235332E-1,-2.4993525E0,2.3755915E0,-2.586031E0,1.04696244E-1,1.8858534E-1,3.51171E0,1.7100679E0,-5.692566E0,-8.03431E0,2.0712231E-1,1.2348579E0,-2.2101743E0,-9.066367E-2,4.95937E0,3.6084933E0,7.831498E-1,-1.3847518E1,-2.950073E0,-7.186841E0,3.0005735E-1,1.9970047E0,-2.1457678E-1,-7.635972E-1,1.9684688E0,9.5776474E-1,6.8633966E0,-1.4516938E-1,9.3793386E-1,-4.060018E-1,-7.2981973E0,-5.589048E-1,1.2711759E0],"categories":[],"categories_nodes":[],"categories_segments":[],"categories_sizes":[],"default_left":[0,0,0,0,0,0,0,0,0,0,0,0,0,0,0,0,0,0,0,0,0,0,0,0,0,0,0,0,0,0,0,0,0,0,0],"id":5,"left_children":[1,3,5,-1,7,9,11,13,15,17,19,-1,21,23,-1,25,27,-1,29,-1,31,-1,33,-1,-1,-1,-1,-1,-1,-1,-1,-1,-1,-1,-1],"loss_changes":[1.3039252E2,8.107638E1,1.3987498E2,0E0,7.88111E1,3.033861E2,1.341356E2,3.283658E1,1.1001358E2,1.472694E1,2.4972446E2,0E0,1.1065863E2,1.0388475E1,0E0,1.1190684E1,1.0763568E2,0E0,1.2935987E0,0E0,1.1864118E2,0E0,1.3167978E2,0E0,0E0,0E0,0E0,0E0,0E0,0E0,0E0,0E0,0E0,0E0,0E0],"parents":[2147483647,0,0,1,1,2,2,4,4,5,5,6,6,7,7,8,8,9,9,10,10,12,12,13,13,15,15,16,16,18,18,20,20,22,22],"right_children":[2,4,6,-1,8,10,12,14,16,18,20,-1,22,24,-1,26,28,-1,30,-1,32,-1,34,-1,-1,-1,-1,-1,-1,-1,-1,-1,-1,-1,-1],"split_conditions":[-4.901E0,-5E0,7E-1,-2.4993525E0,-8.507E0,-1.978E0,-4.274E0,-1.3E-1,-7.1E-1,9.7074187E-1,-5.75E-1,-8.03431E0,-8.2388E1,-2.336E1,-2.2101743E0,-5.1E-1,1.0647079E0,3.6084933E0,-2.85E0,-1.3847518E1,2.993E0,-7.186841E0,1.3065E1,1.9970047E0,-2.1457678E-1,-7.635972E-1,1.9684688E0,9.5776474E-1,6.8633966E0,-1.4516938E-1,9.3793386E-1,-4.060018E-1,-7.2981973E0,-5.589048E-1,1.2711759E0],"split_indices":[9,5,6,0,10,10,9,1,1,12,10,0,16,9,0,0,12,0,0,0,16,0,11,0,0,0,0,0,0,0,0,0,0,0,0],"split_type":[0,0,0,0,0,0,0,0,0,0,0,0,0,0,0,0,0,0,0,0,0,0,0,0,0,0,0,0,0,0,0,0,0,0,0],"sum_hessian":[2.13E2,3.4E1,1.79E2,3E0,3.1E1,2.1E1,1.58E2,1.1E1,2E1,9E0,1.2E1,1E0,1.57E2,8E0,3E0,6E0,1.4E1,2E0,7E0,2E0,1E1,1E0,1.56E2,5E0,3E0,5E0,1E0,5E0,9E0,1E0,6E0,7E0,3E0,8.3E1,7.3E1],"tree_param":{"num_deleted":"0","num_feature":"17","num_nodes":"35","size_leaf_vector":"1"}},{"base_weights":[-1.1958124E-1,1.4352764E-1,-2.2089233E0,-2.0008758E-1,1.6288178E0,-5.613918E-1,-7.0562863E0,1.100244E0,-6.1372215E-1,6.984678E-1,7.2552943E0,-1.6436157E0,8.2259214E-1,-4.362079E-1,-8.29106E0,1.3650298E0,-1.4891928E0,-2.905351E0,-6.391611E-2,-1.03803E0,3.005967E0,-5.2625626E-1,-3.4649305E0,3.6608305E0,8.958488E-3,5.316379E-1,2.2155838E0,-6.4660454E-1,-2.0034788E0,-3.13097E-2,-3.7014008E0,-4.561102E0,2.2996467E-1,-0E0,-1.9716529E0,-5.7140976E-1,4.0344706E0,-9.0664715E-1,-1.1469235E-1,2.9152855E-1,-3.4399372E-1],"categories":[],"categories_nodes":[],"categories_segments":[],"categories_sizes":[],"default_left":[0,0,0,0,0,0,0,0,0,0,0,0,0,0,0,0,0,0,0,0,0,0,0,0,0,0,0,0,0,0,0,0,0,0,0,0,0,0,0,0,0],"id":6,"left_children":[1,3,5,7,9,11,13,15,17,19,-1,21,23,-1,-1,25,27,29,31,33,35,37,-1,-1,39,-1,-1,-1,-1,-1,-1,-1,-1,-1,-1,-1,-1,-1,-1,-1,-1],"loss_changes":[1.1797873E2,9.782054E1,1.8763092E2,8.457686E1,1.8329819E2,2.9818064E1,4.534192E1,2.8086102E1,1.4971881E2,1.3136292E2,0E0,2.0522343E1,2.0714085E1,0E0,0E0,2.360421E1,4.1136646E-1,5.2468018E1,1.2929094E2,1.840153E1,5.38508E1,1.1382422E0,0E0,0E0,8.9762914E-1,0E0,0E0,0E0,0E0,0E0,0E0,0E0,0E0,0E0,0E0,0E0,0E0,0E0,0E0,0E0,0E0],"parents":[2147483647,0,0,1,1,2,2,3,3,4,4,5,5,6,6,7,7,8,8,9,9,11,11,12,12,15,15,16,16,17,17,18,18,19,19,20,20,21,21,24,24],"right_children":[2,4,6,8,10,12,14,16,18,20,-1,22,24,-1,-1,26,28,30,32,34,36,38,-1,-1,40,-1,-1,-1,-1,-1,-1,-1,-1,-1,-1,-1,-1,-1,-1,-1,-1],"split_conditions":[4.1602E1,2.6147E1,3.4612E1,-1.547E0,3.1294E1,5.3413E1,-1.2E-1,7.5E0,1.4E0,-1E-2,7.2552943E0,1.2016163E0,5.3446E1,-4.362079E-1,-8.29106E0,1.8E0,4.1E-1,-3.078E0,-8.2E-1,4.958E0,-1.8E-1,4.6716E1,-3.4649305E0,3.6608305E0,1.2763E1,5.316379E-1,2.2155838E0,-6.4660454E-1,-2.0034788E0,-3.13097E-2,-3.7014008E0,-4.561102E0,2.2996467E-1,-0E0,-1.9716529E0,-5.7140976E-1,4.0344706E0,-9.0664715E-1,-1.1469235E-1,2.9152855E-1,-3.4399372E-1],"split_indices":[9,16,16,10,9,10,0,6,5,3,0,13,10,0,0,6,2,9,2,11,1,8,0,0,16,0,0,0,0,0,0,0,0,0,0,0,0,0,0,0,0],"split_type":[0,0,0,0,0,0,0,0,0,0,0,0,0,0,0,0,0,0,0,0,0,0,0,0,0,0,0,0,0,0,0,0,0,0,0,0,0,0,0,0,0],"sum_hessian":[2.13E2,1.9E2,2.3E1,1.55E2,3.5E1,1.8E1,5E0,3.7E1,1.18E2,3.1E1,4E0,1E1,8E0,1E0,4E0,3.4E1,3E0,2.2E1,9.6E1,1.8E1,1.3E1,7E0,3E0,1E0,7E0,1.8E1,1.6E1,2E0,1E0,5E0,1.7E1,5E0,9.1E1,9E0,9E0,3E0,1E1,3E0,4E0,4E0,3E0],"tree_param":{"num_deleted":"0","num_feature":"17","num_nodes":"41","size_leaf_vector":"1"}},{"base_weights":[-4.1501082E-2,-9.7013585E-2,5.8863306E0,2.2900252E-1,-1.0613759E0,9.697421E-2,4.300485E0,-7.417835E-1,-4.8683343E0,8.9377356E-1,-2.653419E-1,7.328873E0,-1.580646E-1,2.0110674E0,-1.1537429E0,2.2146618E-1,2.7377427E0,-4.463681E0,-1.8105239E-2,5.1325047E-1,-7.553474E-1,3.2424467E0,2.7442127E-1,-4.566149E0,-8.010436E-1],"categories":[],"categories_nodes":[],"categories_segments":[],"categories_sizes":[],"default_left":[0,0,0,0,0,0,0,0,0,0,0,0,0,0,0,0,0,0,0,0,0,0,0,0,0],"id":7,"left_children":[1,3,-1,5,7,9,11,13,-1,15,17,-1,19,21,23,-1,-1,-1,-1,-1,-1,-1,-1,-1,-1],"loss_changes":[7.093387E1,6.721808E1,0E0,8.554715E1,6.203309E1,4.527959E1,6.874124E1,6.0148888E1,0E0,6.011008E1,1.1197658E2,0E0,1.5929981E0,1.4044327E1,5.044854E1,0E0,0E0,0E0,0E0,0E0,0E0,0E0,0E0,0E0,0E0],"parents":[2147483647,0,0,1,1,3,3,4,4,5,5,6,6,7,7,9,9,10,10,12,12,13,13,14,14],"right_children":[2,4,-1,6,8,10,12,14,-1,16,18,-1,20,22,24,-1,-1,-1,-1,-1,-1,-1,-1,-1,-1],"split_conditions":[9.9384E1,2.2072E1,5.8863306E0,2.1165E1,2.3512948E0,-2.2E-1,2.7E0,7E-1,-4.8683343E0,3.4E0,-1.5E-1,7.328873E0,-6.8E-1,5.8707E1,1.3E0,2.2146618E-1,2.7377427E0,-4.463681E0,-1.8105239E-2,5.1325047E-1,-7.553474E-1,3.2424467E0,2.7442127E-1,-4.566149E0,-8.010436E-1],"split_indices":[11,11,0,11,12,0,6,5,0,5,0,0,0,11,5,0,0,0,0,0,0,0,0,0,0],"split_type":[0,0,0,0,0,0,0,0,0,0,0,0,0,0,0,0,0,0,0,0,0,0,0,0,0],"sum_hessian":[2.13E2,2.12E2,1E0,1.59E2,5.3E1,1.55E2,4E0,5E1,3E0,4.8E1,1.07E2,2E0,2E0,6E0,4.4E1,3.6E1,1.2E1,5E0,1.02E2,1E0,1E0,3E0,3E0,3E0,4.1E1],"tree_param":{"num_deleted":"0","num_feature":"17","num_nodes":"25","size_leaf_vector":"1"}},{"base_weights":[2.2111522E-2,4.2620623E-1,-5.0812143E-1,-2.2464375E0,5.597076E-1,-6.135592E-1,4.591077E0,2.0881205E0,-3.5329733E0,-3.0345863E-1,1.0294875E0,-8.3025825E-1,1.476027E0,-1.0475589E0,-3.8899372E0,-3.2645635E-2,-3.8098123E0,1.6751848E0,1.3705799E-1,-4.2433828E-1,-2.404511E0,2.6626806E0,-1.7815069E0,-4.183485E-1,1.8440033E0,1.4109567E-1,2.546411E0,-2.8507118E0,3.1982306E-1,-1.641542E0,2.3404449E-1,-6.3118434E-1,-3.5817213E0,1.1333807E0,3.5238104E0],"categories":[],"categories_nodes":[],"categories_segments":[],"categories_sizes":[],"default_left":[0,0,0,0,0,0,0,0,0,0,0,0,0,0,0,0,0,0,0,0,0,0,0,0,0,0,0,0,0,0,0,0,0,0,0],"id":8,"left_children":[1,3,5,7,9,11,-1,-1,13,15,17,19,21,-1,-1,23,-1,25,27,29,31,33,-1,-1,-1,-1,-1,-1,-1,-1,-1,-1,-1,-1,-1],"loss_changes":[4.606831E1,4.4770264E1,5.2778397E1,4.0851097E1,4.776295E1,4.287766E1,0E0,0E0,3.1170654E-1,3.971898E1,4.354648E1,5.262912E1,3.9542477E1,0E0,0E0,2.9710335E1,0E0,5.842153E1,1.8906393E1,5.4892513E1,3.3185966E1,5.1780853E0,0E0,0E0,0E0,0E0,0E0,0E0,0E0,0E0,0E0,0E0,0E0,0E0,0E0],"parents":[2147483647,0,0,1,1,2,2,3,3,4,4,5,5,8,8,9,9,10,10,11,11,12,12,15,15,17,17,18,18,19,19,20,20,21,21],"right_children":[2,4,6,8,10,12,-1,-1,14,16,18,20,22,-1,-1,24,-1,26,28,30,32,34,-1,-1,-1,-1,-1,-1,-1,-1,-1,-1,-1,-1,-1],"split_conditions":[6E-2,-2.2951E1,1.13E1,-1.31E0,-5.1E-1,9.4E0,4.591077E0,2.0881205E0,-1.31E0,2.003E1,1.8372E1,5.6E0,9.7E-1,-1.0475589E0,-3.8899372E0,4E0,-3.8098123E0,-6E-2,0E0,1.1755475E0,3.336E0,5.963E0,-1.7815069E0,-4.183485E-1,1.8440033E0,1.4109567E-1,2.546411E0,-2.8507118E0,3.1982306E-1,-1.641542E0,2.3404449E-1,-6.3118434E-1,-3.5817213E0,1.1333807E0,3.5238104E0],"split_indices":[2,16,5,1,2,7,0,0,0,11,8,5,1,0,0,6,0,0,4,13,8,10,0,0,0,0,0,0,0,0,0,0,0,0,0],"split_type":[0,0,0,0,0,0,0,0,0,0,0,0,0,0,0,0,0,0,0,0,0,0,0,0,0,0,0,0,0,0,0,0,0,0,0],"sum_hessian":[2.13E2,1.21E2,9.2E1,5E0,1.16E2,9.1E1,1E0,1E0,4E0,4.1E1,7.5E1,8.3E1,8E0,1E0,3E0,3.9E1,2E0,4.3E1,3.2E1,6.7E1,1.6E1,6E0,2E0,3.3E1,6E0,1.6E1,2.7E1,1E0,3.1E1,2.3E1,4.4E1,7E0,9E0,3E0,3E0],"tree_param":{"num_deleted":"0","num_feature":"17","num_nodes":"35","size_leaf_vector":"1"}},{"base_weights":[-1.5049344E-2,6.442576E-1,-1.7508312E-1,-2.7783763E-1,2.0172117E0,1.7244633E-1,-6.316209E-1,7.5372994E-1,-6.980851E-1,3.104035E0,7.051426E-1,3.3367503E-1,-1.2948567E0,-1.0796884E0,2.0456171E-1,1.0138513E0,-1.4422652E-2,-1.6117495E0,1.12011604E-1,-1.9616203E-2,4.0007377E0,8.898119E-2,1.4505991E0,4.155844E-1,-2.1768913E0,2.7593432E-2,-1.8669915E0,-1.5749333E0,4.1213855E-1,1.7325826E0,-3.1404343E-1,1.1937032E0,5.22958E-2,-9.272873E-2,6.609475E-2,-5.463569E-1,-1.8366679E0,-2.4702062E-1,1.1551044E0,2.1206971E-2,-5.5631276E-2,4.3180287E-1,4.5219264E0,-3.0430523E-1,3.642007E-1,-2.054783E-1,6.940134E-1,-6.243478E-1,-2.6359892E0,-5.661589E-1,4.1756383E-1,-1.9441156E0,6.5486103E-1,1.8635767E0,-4.38898E-1,-4.4771278E-1,2.1722505E0,-7.1982616E-1,5.989257E-1],"categories":[],"categories_nodes":[],"categories_segments":[],"categories_sizes":[],"default_left":[0,0,0,0,0,0,0,0,0,0,0,0,0,0,0,0,0,0,0,0,0,0,0,0,0,0,0,0,0,0,0,0,0,0,0,0,0,0,0,0,0,0,0,0,0,0,0,0,0,0,0,0,0,0,0,0,0,0,0],"id":9,"left_children":[1,3,5,7,9,11,13,15,17,19,21,23,25,27,29,31,33,35,37,39,41,43,-1,45,47,49,-1,51,53,55,57,-1,-1,-1,-1,-1,-1,-1,-1,-1,-1,-1,-1,-1,-1,-1,-1,-1,-1,-1,-1,-1,-1,-1,-1,-1,-1,-1,-1],"loss_changes":[2.2687544E1,5.374961E1,2.7561749E1,1.1796969E1,2.2014908E1,2.3843012E1,2.8329584E1,1.6231198E0,1.4258506E1,2.5327156E1,3.9894228E0,1.939457E1,7.6361103E0,3.686288E1,2.1954157E1,9.6273994E-1,2.531023E-2,1.1293278E0,4.413959E0,5.9347623E-3,1.1018501E1,7.608677E-1,0E0,1.5364617E1,4.5993137E-1,1.1611049E0,0E0,3.1744438E1,1.6890116E1,7.700033E0,8.21214E0,0E0,0E0,0E0,0E0,0E0,0E0,0E0,0E0,0E0,0E0,0E0,0E0,0E0,0E0,0E0,0E0,0E0,0E0,0E0,0E0,0E0,0E0,0E0,0E0,0E0,0E0,0E0,0E0],"parents":[2147483647,0,0,1,1,2,2,3,3,4,4,5,5,6,6,7,7,8,8,9,9,10,10,11,11,12,12,13,13,14,14,15,15,16,16,17,17,18,18,19,19,20,20,21,21,23,23,24,24,25,25,27,27,28,28,29,29,30,30],"right_children":[2,4,6,8,10,12,14,16,18,20,22,24,26,28,30,32,34,36,38,40,42,44,-1,46,48,50,-1,52,54,56,58,-1,-1,-1,-1,-1,-1,-1,-1,-1,-1,-1,-1,-1,-1,-1,-1,-1,-1,-1,-1,-1,-1,-1,-1,-1,-1,-1,-1],"split_conditions":[-2.988E0,2.6E-1,3E-2,-5.6E-1,5.6E0,8.4E-1,5.2E0,-7.841E0,-4E-2,-1.0234E1,1.8212E1,7.1E0,2.3E0,5.2E-1,9.19E-1,7.2E-1,-3.7E-1,-1.5E-1,3.9E-1,7.3E-1,1E-2,7E-2,1.4505991E0,2.66E-1,-2.2E-1,-2.85E0,-1.8669915E0,2.5945E1,3.3E0,-2.1494E1,3.5E-1,1.1937032E0,5.22958E-2,-9.272873E-2,6.609475E-2,-5.463569E-1,-1.8366679E0,-2.4702062E-1,1.1551044E0,2.1206971E-2,-5.5631276E-2,4.3180287E-1,4.5219264E0,-3.0430523E-1,3.642007E-1,-2.054783E-1,6.940134E-1,-6.243478E-1,-2.6359892E0,-5.661589E-1,4.1756383E-1,-1.9441156E0,6.5486103E-1,1.8635767E0,-4.38898E-1,-4.4771278E-1,2.1722505E0,-7.1982616E-1,5.989257E-1],"split_indices":[16,1,0,2,6,2,4,16,1,11,10,5,7,2,9,0,0,2,3,0,0,0,0,10,0,0,0,8,7,8,1,0,0,0,0,0,0,0,0,0,0,0,0,0,0,0,0,0,0,0,0,0,0,0,0,0,0,0,0],"split_type":[0,0,0,0,0,0,0,0,0,0,0,0,0,0,0,0,0,0,0,0,0,0,0,0,0,0,0,0,0,0,0,0,0,0,0,0,0,0,0,0,0,0,0,0,0,0,0,0,0,0,0,0,0,0,0,0,0,0,0],"sum_hessian":[2.13E2,4.1E1,1.72E2,2.5E1,1.6E1,9.8E1,7.4E1,7E0,1.8E1,8E0,8E0,8.9E1,9E0,4.8E1,2.6E1,5E0,2E0,8E0,1E1,2E0,6E0,5E0,3E0,8.7E1,2E0,3E0,6E0,3.6E1,1.2E1,6E0,2E1,4E0,1E0,1E0,1E0,2E0,6E0,8E0,2E0,1E0,1E0,1E0,5E0,2E0,3E0,2.7E1,6E1,1E0,1E0,1E0,2E0,3.1E1,5E0,4E0,8E0,1E0,5E0,1.4E1,6E0],"tree_param":{"num_deleted":"0","num_feature":"17","num_nodes":"59","size_leaf_vector":"1"}},{"base_weights":[1.4560311E-2,2.5282514E-1,-2.9219082E-1,6.360409E-2,9.4137883E-1,-3.5309322E0,-1.4650777E-1,2.6068208E-1,-6.521832E-1,1.9586204E-1,1.474367E0,-5.3725524E0,-1.1228746E0,-1.1258358E0,9.355185E-2,9.4233535E-2,1.0592993E0,-1.2560779E-1,-1.2178553E0,7.3185056E-1,-2.9010844E-1,1.8810846E0,-1.1187726E-1,-2.4697623E0,-6.91733E-1,3.152412E-1,-8.7834823E-1,3.1089273E-1,-1.2632275E0,1.4147834E0,-5.9390837E-1,6.3060045E-1,-5.8378696E-1,-1.8123968E-1,-2.216223E0,9.6302646E-1,1.7633255E-1,-4.2562452E-1,2.9121157E-2,1.0016404E0,2.1943517E0,3.31092E-1,-3.7323102E-1,-3.3183813E0,3.3047315E-2,7.679898E-3,-1.0432074E0,8.657209E-1,4.536414E-2,-1.0936124E0,9.5504296E-1],"categories":[],"categories_nodes":[],"categories_segments":[],"categories_sizes":[],"default_left":[0,0,0,0,0,0,0,0,0,0,0,0,0,0,0,0,0,0,0,0,0,0,0,0,0,0,0,0,0,0,0,0,0,0,0,0,0,0,0,0,0,0,0,0,0,0,0,0,0,0,0],"id":10,"left_children":[1,3,5,7,9,11,13,15,17,19,21,-1,-1,23,25,27,29,31,33,35,37,39,41,43,45,47,49,-1,-1,-1,-1,-1,-1,-1,-1,-1,-1,-1,-1,-1,-1,-1,-1,-1,-1,-1,-1,-1,-1,-1,-1],"loss_changes":[1.57143135E1,1.5695028E1,4.379791E1,1.3708426E1,1.0025667E1,1.1641254E1,2.1509485E1,9.991224E0,6.0888433E0,3.3424287E0,9.905445E0,0E0,0E0,8.7612095E0,1.6215292E1,1.9206013E1,8.488417E0,4.525415E0,9.923593E0,5.893278E-1,3.1918484E-1,1.0760994E0,5.870819E-1,8.638247E0,3.7057538E0,9.013889E0,6.5711203E0,0E0,0E0,0E0,0E0,0E0,0E0,0E0,0E0,0E0,0E0,0E0,0E0,0E0,0E0,0E0,0E0,0E0,0E0,0E0,0E0,0E0,0E0,0E0,0E0],"parents":[2147483647,0,0,1,1,2,2,3,3,4,4,5,5,6,6,7,7,8,8,9,9,10,10,13,13,14,14,15,15,16,16,17,17,18,18,19,19,20,20,21,21,22,22,23,23,24,24,25,25,26,26],"right_children":[2,4,6,8,10,12,14,16,18,20,22,-1,-1,24,26,28,30,32,34,36,38,40,42,44,46,48,50,-1,-1,-1,-1,-1,-1,-1,-1,-1,-1,-1,-1,-1,-1,-1,-1,-1,-1,-1,-1,-1,-1,-1,-1],"split_conditions":[1.2578E1,1.8372E1,1.2979E1,1.2047E1,1.2116834E0,-4E-1,-2.1E-1,7.684E0,2.5E0,1.1745726E0,2.3983195E0,-5.3725524E0,-1.1228746E0,4.855E0,4.0255E1,3.876E0,5.2E-1,1.5438908E0,3.829E0,6.9E0,-2.995E1,-7.9E-1,-3.05E0,0E0,1.2979E1,1E-2,5.2E0,3.1089273E-1,-1.2632275E0,1.4147834E0,-5.9390837E-1,6.3060045E-1,-5.8378696E-1,-1.8123968E-1,-2.216223E0,9.6302646E-1,1.7633255E-1,-4.2562452E-1,2.9121157E-2,1.0016404E0,2.1943517E0,3.31092E-1,-3.7323102E-1,-3.3183813E0,3.3047315E-2,7.679898E-3,-1.0432074E0,8.657209E-1,4.536414E-2,-1.0936124E0,9.5504296E-1],"split_indices":[10,16,10,16,12,1,2,16,5,15,15,0,0,8,16,16,1,13,11,4,8,3,0,1,8,2,6,0,0,0,0,0,0,0,0,0,0,0,0,0,0,0,0,0,0,0,0,0,0,0,0],"split_type":[0,0,0,0,0,0,0,0,0,0,0,0,0,0,0,0,0,0,0,0,0,0,0,0,0,0,0,0,0,0,0,0,0,0,0,0,0,0,0,0,0,0,0,0,0,0,0,0,0,0,0],"sum_hessian":[2.13E2,1.2E2,9.3E1,9.5E1,2.5E1,3E0,9E1,7.5E1,2E1,1.1E1,1.4E1,1E0,2E0,1.7E1,7.3E1,6.3E1,1.2E1,1.1E1,9E0,5E0,6E0,1.1E1,3E0,3E0,1.4E1,6E1,1.3E1,5.5E1,8E0,1E1,2E0,4E0,7E0,5E0,4E0,3E0,2E0,4E0,2E0,4E0,7E0,1E0,2E0,2E0,1E0,5E0,9E0,1.9E1,4.1E1,1.2E1,1E0],"tree_param":{"num_deleted":"0","num_feature":"17","num_nodes":"51","size_leaf_vector":"1"}},{"base_weights":[-4.018309E-2,2.3103541E-1,-1.6543938E-1,-2.0289195E-1,6.9771266E-1,-4.4510412E-1,1.6516114E-2,9.138066E-1,-3.713482E-1,1.2195709E0,1.3422431E-1,-7.0837446E-2,-1.053866E0,1.8223539E-1,-6.118157E-1,1.0670272E-1,1.412975E0,-7.8465974E-1,2.1538518E-1,2.2166927E-1,1.7428199E0,9.063159E-1,-9.524645E-2,1.5879789E-1,-8.040138E-1,-1.5405203E0,2.076103E-1,2.7404386E-1,-7.079923E-1,-1.1184304E0,-4.3019447E-2,1.3130581E-1,2.3748275E-2,-4.2936704E-1,-1.691606E0,-4.7195882E-1,7.9113805E-1,4.6462053E-1,-6.130191E-1,4.0962952E-1,1.992459E0,-3.9353856E-1,1.7641497E-1,5.745847E-1,-3.2701546E-1,-2.2448511E-1,-1.4698033E0,-9.6278334E-1,-2.144356E0,-5.061593E-2,5.7211727E-1,-6.5818414E-2,5.593685E-1,6.552917E-2,-1.3070157E0,-1.20719075E-1,-1.5273467E0,4.805782E-1,-2.3524114E-1],"categories":[],"categories_nodes":[],"categories_segments":[],"categories_sizes":[],"default_left":[0,0,0,0,0,0,0,0,0,0,0,0,0,0,0,0,0,0,0,0,0,0,0,0,0,0,0,0,0,0,0,0,0,0,0,0,0,0,0,0,0,0,0,0,0,0,0,0,0,0,0,0,0,0,0,0,0,0,0],"id":11,"left_children":[1,3,5,7,9,11,13,15,17,19,21,23,25,27,29,31,-1,33,35,37,39,-1,41,43,45,47,49,51,53,55,57,-1,-1,-1,-1,-1,-1,-1,-1,-1,-1,-1,-1,-1,-1,-1,-1,-1,-1,-1,-1,-1,-1,-1,-1,-1,-1,-1,-1],"loss_changes":[7.3075366E0,1.3916781E1,7.4919586E0,7.1060524E0,9.526779E0,1.3128778E1,9.4786005E0,1.8484383E0,7.934815E0,8.470594E0,3.1063657E0,6.363567E0,1.3839024E1,6.074273E0,5.4153204E0,1.4539808E-3,0E0,5.3748684E0,5.91694E0,1.7028574E0,2.8207855E0,0E0,1.2060797E0,6.0482225E0,3.1257052E0,3.4861069E0,6.9305E-1,6.441842E0,3.3415647E0,3.8789444E0,1.1170666E0,0E0,0E0,0E0,0E0,0E0,0E0,0E0,0E0,0E0,0E0,0E0,0E0,0E0,0E0,0E0,0E0,0E0,0E0,0E0,0E0,0E0,0E0,0E0,0E0,0E0,0E0,0E0,0E0],"parents":[2147483647,0,0,1,1,2,2,3,3,4,4,5,5,6,6,7,7,8,8,9,9,10,10,11,11,12,12,13,13,14,14,15,15,17,17,18,18,19,19,20,20,22,22,23,23,24,24,25,25,26,26,27,27,28,28,29,29,30,30],"right_children":[2,4,6,8,10,12,14,16,18,20,22,24,26,28,30,32,-1,34,36,38,40,-1,42,44,46,48,50,52,54,56,58,-1,-1,-1,-1,-1,-1,-1,-1,-1,-1,-1,-1,-1,-1,-1,-1,-1,-1,-1,-1,-1,-1,-1,-1,-1,-1,-1,-1],"split_conditions":[1.1437931E0,3.336E0,2.4E0,-7.5E-1,4E-1,1.2215E1,5.5E0,-1.14E0,1.5E-1,-2E-2,9.8553723E-1,2.003E1,7E-2,4.616E1,1.2979E1,-7.1E-1,1.412975E0,2E-2,1.65E0,-2E-2,9.0907043E-1,9.063159E-1,1.0647079E0,1.9E0,1.1755475E0,5.913E0,4.4E-1,1.469E1,2.4E0,-8.3E-1,1.8921E1,1.3130581E-1,2.3748275E-2,-4.2936704E-1,-1.691606E0,-4.7195882E-1,7.9113805E-1,4.6462053E-1,-6.130191E-1,4.0962952E-1,1.992459E0,-3.9353856E-1,1.7641497E-1,5.745847E-1,-3.2701546E-1,-2.2448511E-1,-1.4698033E0,-9.6278334E-1,-2.144356E0,-5.061593E-2,5.7211727E-1,-6.5818414E-2,5.593685E-1,6.552917E-2,-1.3070157E0,-1.20719075E-1,-1.5273467E0,4.805782E-1,-2.3524114E-1],"split_indices":[15,11,6,3,2,11,4,3,3,2,12,8,0,9,11,0,0,3,16,3,12,0,13,7,12,9,0,10,4,3,9,0,0,0,0,0,0,0,0,0,0,0,0,0,0,0,0,0,0,0,0,0,0,0,0,0,0,0,0],"split_type":[0,0,0,0,0,0,0,0,0,0,0,0,0,0,0,0,0,0,0,0,0,0,0,0,0,0,0,0,0,0,0,0,0,0,0,0,0,0,0,0,0,0,0,0,0,0,0,0,0,0,0,0,0,0,0,0,0,0,0],"sum_hessian":[2.13E2,6.7E1,1.46E2,3.5E1,3.2E1,5.7E1,8.9E1,4E0,3.1E1,1.6E1,1.6E1,3.6E1,2.1E1,7.1E1,1.8E1,2E0,2E0,1.8E1,1.3E1,6E0,1E1,3E0,1.3E1,2.8E1,8E0,1.5E1,6E0,6.5E1,6E0,9E0,9E0,1E0,1E0,1.4E1,4E0,6E0,7E0,5E0,1E0,2E0,8E0,6E0,7E0,1.5E1,1.3E1,5E0,3E0,9E0,6E0,4E0,2E0,3E1,3.5E1,3E0,3E0,3E0,6E0,2E0,7E0],"tree_param":{"num_deleted":"0","num_feature":"17","num_nodes":"59","size_leaf_vector":"1"}},{"base_weights":[-1.627992E-2,-2.8876666E-2,1.3284136E0,1.7580165E-2,-3.499341E-1,1.0891903E-1,-1.4748824E-1,-4.3236297E-1,8.9160836E-1,-1.0423625E-1,2.506408E-1,-9.3714607E-1,-5.4289997E-2,-3.5411526E-2,-7.2043324E-1,-2.822495E-1,1.9116622E-1,1.4953395E0,2.1244584E-1,-1.4924929E0,-1.4501262E-1,8.137562E-1,-1.8206926E-1,-4.9335197E-1,1.0451176E-1,2.1562692E-2,-7.7568746E-1],"categories":[],"categories_nodes":[],"categories_segments":[],"categories_sizes":[],"default_left":[0,0,0,0,0,0,0,0,0,0,0,0,0,0,0,0,0,0,0,0,0,0,0,0,0,0,0],"id":12,"left_children":[1,3,-1,5,7,9,11,13,-1,15,17,19,21,23,25,-1,-1,-1,-1,-1,-1,-1,-1,-1,-1,-1,-1],"loss_changes":[3.6502602E0,3.1864364E0,0E0,2.8351078E0,3.1440578E0,3.6828477E0,4.870054E0,2.9400277E0,0E0,2.6315594E0,3.135754E0,2.8465571E0,6.9078603E0,8.243679E-1,6.392422E-1,0E0,0E0,0E0,0E0,0E0,0E0,0E0,0E0,0E0,0E0,0E0,0E0],"parents":[2147483647,0,0,1,1,3,3,4,4,5,5,6,6,7,7,9,9,10,10,11,11,12,12,13,13,14,14],"right_children":[2,4,-1,6,8,10,12,14,-1,16,18,20,22,24,26,-1,-1,-1,-1,-1,-1,-1,-1,-1,-1,-1,-1],"split_conditions":[6.01E0,6.8E-1,1.3284136E0,1.7116E1,2.5328617E0,2.66E-1,-1.054E0,1.5491352E0,8.9160836E-1,3.419E0,-2.2951E1,2.6147E1,1.2139E1,9.5139474E-1,-2.6313E1,-2.822495E-1,1.9116622E-1,1.4953395E0,2.1244584E-1,-1.4924929E0,-1.4501262E-1,8.137562E-1,-1.8206926E-1,-4.9335197E-1,1.0451176E-1,2.1562692E-2,-7.7568746E-1],"split_indices":[3,3,0,10,12,10,9,14,0,11,9,10,9,12,16,0,0,0,0,0,0,0,0,0,0,0,0],"split_type":[0,0,0,0,0,0,0,0,0,0,0,0,0,0,0,0,0,0,0,0,0,0,0,0,0,0,0],"sum_hessian":[2.13E2,2.12E2,1E0,1.86E2,2.6E1,1.2E2,6.6E1,2.5E1,1E0,4.8E1,7.2E1,6E0,6E1,1.1E1,1.4E1,3E1,1.8E1,1E0,7.1E1,3E0,3E0,7E0,5.3E1,2E0,9E0,1E0,1.3E1],"tree_param":{"num_deleted":"0","num_feature":"17","num_nodes":"27","size_leaf_vector":"1"}},{"base_weights":[7.934202E-3,-3.3452526E-2,2.9618496E-1,-8.854377E-2,2.2768949E-1,6.8898314E-1,-1.6300246E-2,-3.2488693E-2,-6.1262894E-1,-1.0626358E-2,4.5320007E-1,1.2945577E0,2.2312617E-1,-3.9784485E-1,1.432017E-1,3.9374676E-1,-6.7837946E-2,-1.355076E-1,-9.1454226E-1,2.7660668E-1,-2.977898E-1,7.678785E-1,2.1084112E-1,1.6019717E0,5.5229115E-1,-4.913592E-2,3.237362E-1,-1.1363808E-1,3.4432125E-1,1.5596463E-1,9.725109E-1,-1.4450634E-1,1.6624317E-1,-2.96159E-1,1.7408061E-1,-1.1875572E0,2.4006601E-2,-5.546037E-2,3.808345E-1,1.8582088E-1,-5.7223195E-1,2.5004502E-2,8.858567E-1,3.3204973E-1,5.282565E-2,-7.117386E-3,-6.1586495E-2,1.0408981E-1,4.0503693E-1,-2.775117E-1,3.517663E-2,4.7930282E-1,1.2448598E-3],"categories":[],"categories_nodes":[],"categories_segments":[],"categories_sizes":[],"default_left":[0,0,0,0,0,0,0,0,0,0,0,0,0,0,0,0,0,0,0,0,0,0,0,0,0,0,0,0,0,0,0,0,0,0,0,0,0,0,0,0,0,0,0,0,0,0,0,0,0,0,0,0,0],"id":13,"left_children":[1,3,5,7,9,11,13,15,17,19,21,23,25,-1,27,29,31,33,35,37,39,41,43,-1,-1,45,47,49,51,-1,-1,-1,-1,-1,-1,-1,-1,-1,-1,-1,-1,-1,-1,-1,-1,-1,-1,-1,-1,-1,-1,-1,-1],"loss_changes":[2.5655031E0,2.7234573E0,3.332035E0,4.5565567E0,1.7827524E0,3.081307E0,1.0332321E0,2.1629806E0,2.026311E0,1.4847907E0,1.1248193E0,2.3461819E-1,2.3779145E-1,0E0,6.6130084E-1,1.3508556E0,2.3927598E0,4.0092677E-1,2.3462858E0,3.3587044E-1,1.3047053E0,5.82242E-1,1.8929169E-1,0E0,0E0,4.4409093E-4,5.9893012E-2,1.585061E-1,3.187608E-1,0E0,0E0,0E0,0E0,0E0,0E0,0E0,0E0,0E0,0E0,0E0,0E0,0E0,0E0,0E0,0E0,0E0,0E0,0E0,0E0,0E0,0E0,0E0,0E0],"parents":[2147483647,0,0,1,1,2,2,3,3,4,4,5,5,6,6,7,7,8,8,9,9,10,10,11,11,12,12,14,14,15,15,16,16,17,17,18,18,19,19,20,20,21,21,22,22,25,25,26,26,27,27,28,28],"right_children":[2,4,6,8,10,12,14,16,18,20,22,24,26,-1,28,30,32,34,36,38,40,42,44,-1,-1,46,48,50,52,-1,-1,-1,-1,-1,-1,-1,-1,-1,-1,-1,-1,-1,-1,-1,-1,-1,-1,-1,-1,-1,-1,-1,-1],"split_conditions":[2.408993E0,3.278E1,-2.1E-1,2.5661E1,2E-2,-2.3E-1,1E-2,8.9077294E-1,0E0,3.6E0,2E-2,-4.7E-1,2.3165143E0,-3.9784485E-1,3.1E0,2.5E-1,1.8196E1,0E0,5.5E0,1.1152195E0,2.85E1,-3.7E-1,2.5E0,1.6019717E0,5.5229115E-1,-5.6E-1,9E-1,-6.4E-1,2.5E0,1.5596463E-1,9.725109E-1,-1.4450634E-1,1.6624317E-1,-2.96159E-1,1.7408061E-1,-1.1875572E0,2.4006601E-2,-5.546037E-2,3.808345E-1,1.8582088E-1,-5.7223195E-1,2.5004502E-2,8.858567E-1,3.3204973E-1,5.282565E-2,-7.117386E-3,-6.1586495E-2,1.0408981E-1,4.0503693E-1,-2.775117E-1,3.517663E-2,4.7930282E-1,1.2448598E-3],"split_indices":[14,9,1,9,1,3,1,12,2,4,2,2,12,0,4,0,11,0,7,14,8,2,4,0,0,0,5,0,7,0,0,0,0,0,0,0,0,0,0,0,0,0,0,0,0,0,0,0,0,0,0,0,0],"split_type":[0,0,0,0,0,0,0,0,0,0,0,0,0,0,0,0,0,0,0,0,0,0,0,0,0,0,0,0,0,0,0,0,0,0,0,0,0,0,0,0,0,0,0,0,0,0,0,0,0,0,0,0,0],"sum_hessian":[2.13E2,1.87E2,2.6E1,1.55E2,3.2E1,1.1E1,1.5E1,1.41E2,1.4E1,1.6E1,1.6E1,4E0,7E0,4E0,1.1E1,1E1,1.31E2,6E0,8E0,8E0,8E0,6E0,1E1,2E0,2E0,2E0,5E0,5E0,6E0,8E0,2E0,9.9E1,3.2E1,4E0,2E0,6E0,2E0,2E0,6E0,3E0,5E0,1E0,5E0,5E0,5E0,1E0,1E0,2E0,3E0,2E0,3E0,4E0,2E0],"tree_param":{"num_deleted":"0","num_feature":"17","num_nodes":"53","size_leaf_vector":"1"}},{"base_weights":[1.6889412E-2,3.9646745E-1,-3.6118024E-3,5.1631402E-2,5.8471215E-1,-2.698502E-1,1.4381484E-2,-2.4091797E-2,1.1347747E-1,6.6101897E-1,5.8435556E-2,-1.4122654E-1,-9.01667E-1,6.569684E-1,-9.825452E-3,-4.276001E-2,1.6223146E-3,-2.47201E-1,4.2814002E-3,1.1231236E-1,1.3424057E0,-5.712813E-2,1.3107243E-1,-6.24756E-2,5.5778798E-2,-1.341776E-1,3.246982E-1,-3.5690612E-1,4.767593E-3,1.0204107E0,6.864828E-2],"categories":[],"categories_nodes":[],"categories_segments":[],"categories_sizes":[],"default_left":[0,0,0,0,0,0,0,0,0,0,0,0,0,0,0,0,0,0,0,0,0,0,0,0,0,0,0,0,0,0,0],"id":14,"left_children":[1,3,5,7,9,11,13,15,-1,-1,-1,17,-1,19,21,-1,-1,-1,23,25,-1,27,29,-1,-1,-1,-1,-1,-1,-1,-1],"loss_changes":[1.670668E0,6.774961E-1,9.8369825E-1,2.7043642E-2,2.3528814E-1,9.186973E-1,2.999498E0,1.9208568E-3,0E0,0E0,0E0,1.8852903E-1,0E0,2.4479768E0,1.24641E0,0E0,0E0,0E0,2.4044719E-2,3.0722734E-1,0E0,2.6029193E0,2.5283208E0,0E0,0E0,0E0,0E0,0E0,0E0,0E0,0E0],"parents":[2147483647,0,0,1,1,2,2,3,3,4,4,5,5,6,6,7,7,11,11,13,13,14,14,18,18,19,19,21,21,22,22],"right_children":[2,4,6,8,10,12,14,16,-1,-1,-1,18,-1,20,22,-1,-1,-1,24,26,-1,28,30,-1,-1,-1,-1,-1,-1,-1,-1],"split_conditions":[-2.2951E1,-4.3E0,-1.18E0,-1.37E0,-1E-2,3.8E0,-8.2E-1,-8.3E-1,1.1347747E-1,6.6101897E-1,5.8435556E-2,-5.6E-1,-9.01667E-1,2.6E0,2.2299378E0,-4.276001E-2,1.6223146E-3,-2.47201E-1,-3.05E0,-9E-1,1.3424057E0,-2E-1,2.0416095E0,-6.24756E-2,5.5778798E-2,-1.341776E-1,3.246982E-1,-3.5690612E-1,4.767593E-3,1.0204107E0,6.864828E-2],"split_indices":[9,5,0,2,0,6,0,0,0,0,0,1,0,6,14,0,0,0,0,4,0,0,13,0,0,0,0,0,0,0,0],"split_type":[0,0,0,0,0,0,0,0,0,0,0,0,0,0,0,0,0,0,0,0,0,0,0,0,0,0,0,0,0,0,0],"sum_hessian":[2.13E2,1E1,2.03E2,4E0,6E0,1.2E1,1.91E2,2E0,2E0,5E0,1E0,1.1E1,1E0,6E0,1.85E2,1E0,1E0,6E0,5E0,4E0,2E0,1.39E2,4.6E1,2E0,3E0,2E0,2E0,2.3E1,1.16E2,2E0,4.4E1],"tree_param":{"num_deleted":"0","num_feature":"17","num_nodes":"31","size_leaf_vector":"1"}},{"base_weights":[9.046979E-3,-9.145994E-3,3.8209823E-1,2.319554E-1,-3.083688E-2,6.2245034E-2,5.8329284E-1,3.650477E-1,-2.8935653E-1,-6.309076E-1,-1.1047418E-2,1.426971E-1,5.655844E-1,-0E0,-3.8521546E-1,-1.0327237E0,-1.6931862E-1,3.8804084E-1,-3.6271114E-2,-3.014E-2,2.0699947E-1,1.079502E-1,6.221984E-1,-2.5154933E-1,3.3686753E-2,7.6300937E-1,6.33432E-2,1.8458242E-2,-1.764676E-1],"categories":[],"categories_nodes":[],"categories_segments":[],"categories_sizes":[],"default_left":[0,0,0,0,0,0,0,0,0,0,0,0,0,0,0,0,0,0,0,0,0,0,0,0,0,0,0,0,0],"id":15,"left_children":[1,3,5,7,9,-1,-1,11,13,15,17,19,21,-1,-1,-1,23,25,27,-1,-1,-1,-1,-1,-1,-1,-1,-1,-1],"loss_changes":[1.4596232E0,1.0772306E0,6.00765E-1,1.2858901E0,2.2310002E0,0E0,0E0,5.364623E-1,1.1026406E-1,9.259634E-1,1.8627894E0,9.691824E-2,1.0689187E-1,0E0,0E0,0E0,7.742561E-2,1.2826703E0,1.3399156E0,0E0,0E0,0E0,0E0,0E0,0E0,0E0,0E0,0E0,0E0],"parents":[2147483647,0,0,1,1,2,2,3,3,4,4,7,7,8,8,9,9,10,10,11,11,12,12,16,16,17,17,18,18],"right_children":[2,4,6,8,10,-1,-1,12,14,16,18,20,22,-1,-1,-1,24,26,28,-1,-1,-1,-1,-1,-1,-1,-1,-1,-1],"split_conditions":[1.28E0,9.13578E-1,-6.7E-1,1.5E-1,9.358342E-1,6.2245034E-2,5.8329284E-1,2.993E0,8E-2,3.7E0,9.910079E-1,4E-1,-5.8E-1,-0E0,-3.8521546E-1,-1.0327237E0,7E-2,4.401E0,4.5E0,-3.014E-2,2.0699947E-1,1.079502E-1,6.221984E-1,-2.5154933E-1,3.3686753E-2,7.6300937E-1,6.33432E-2,1.8458242E-2,-1.764676E-1],"split_indices":[3,12,1,1,13,0,0,16,0,7,13,7,1,0,0,0,0,16,7,0,0,0,0,0,0,0,0,0,0],"split_type":[0,0,0,0,0,0,0,0,0,0,0,0,0,0,0,0,0,0,0,0,0,0,0,0,0,0,0,0,0],"sum_hessian":[2.13E2,2.04E2,9E0,1.6E1,1.88E2,4E0,5E0,1.3E1,3E0,5E0,1.83E2,7E0,6E0,1E0,2E0,2E0,3E0,1E1,1.73E2,2E0,5E0,1E0,5E0,2E0,1E0,4E0,6E0,1.25E2,4.8E1],"tree_param":{"num_deleted":"0","num_feature":"17","num_nodes":"29","size_leaf_vector":"1"}},{"base_weights":[2.8660703E-3,-3.148832E-1,1.35938525E-2,-2.453907E-2,-4.2411304E-1,1.1290565E-1,-1.8485233E-2,-4.656517E-2,4.756565E-3,4.38423E-2,2.6061657E-1,-1.5779239E-1,3.1594988E-2,7.8615464E-2,-2.5149685E-1,5.8180675E-2,4.545299E-1,-4.2974055E-2,-4.7655553E-1,-2.6036553E-2,2.0771955E-1,1.0999948E-2,2.3203115E-1,-2.686381E-2,-4.57698E-1,-3.3205867E-2,1.8321532E-1,6.306387E-1,1.182614E-1,-2.189234E-1,7.304172E-2,-1.4788443E0,-2.2744222E-1,-8.1396714E-2,1.8167967E-1,1.3999715E-1,1.0469733E0],"categories":[],"categories_nodes":[],"categories_segments":[],"categories_sizes":[],"default_left":[0,0,0,0,0,0,0,0,0,0,0,0,0,0,0,0,0,0,0,0,0,0,0,0,0,0,0,0,0,0,0,0,0,0,0,0,0],"id":16,"left_children":[1,3,5,7,-1,9,11,-1,-1,13,15,17,19,21,23,25,27,29,31,33,35,-1,-1,-1,-1,-1,-1,-1,-1,-1,-1,-1,-1,-1,-1,-1,-1],"loss_changes":[7.30739E-1,2.0710588E-1,6.6568434E-1,2.5753817E-3,0E0,5.058014E-1,1.1085397E0,0E0,0E0,3.8775826E-1,5.9650826E-1,1.511519E0,1.1948137E0,3.3733565E-1,1.681372E-1,1.1042227E-1,3.9168966E-1,6.7066216E-1,2.3931038E0,1.0372145E0,1.4898089E0,0E0,0E0,0E0,0E0,0E0,0E0,0E0,0E0,0E0,0E0,0E0,0E0,0E0,0E0,0E0,0E0],"parents":[2147483647,0,0,1,1,2,2,3,3,5,5,6,6,9,9,10,10,11,11,12,12,13,13,14,14,15,15,16,16,17,17,18,18,19,19,20,20],"right_children":[2,4,6,8,-1,10,12,-1,-1,14,16,18,20,22,24,26,28,30,32,34,36,-1,-1,-1,-1,-1,-1,-1,-1,-1,-1,-1,-1,-1,-1,-1,-1],"split_conditions":[-2.12E0,-3.05E0,1.4E0,-3.05E0,-4.2411304E-1,2.847E0,3E0,-4.656517E-2,4.756565E-3,1.5729E1,8.884E0,2.6E-1,2.3369E1,3.3E0,1E-2,1.1910319E0,1.0069E1,2.3E0,9E-2,8.1E0,6.4E-1,1.0999948E-2,2.3203115E-1,-2.686381E-2,-4.57698E-1,-3.3205867E-2,1.8321532E-1,6.306387E-1,1.182614E-1,-2.189234E-1,7.304172E-2,-1.4788443E0,-2.2744222E-1,-8.1396714E-2,1.8167967E-1,1.3999715E-1,1.0469733E0],"split_indices":[3,3,6,0,0,9,6,0,0,11,16,3,16,4,0,13,10,4,2,6,1,0,0,0,0,0,0,0,0,0,0,0,0,0,0,0,0],"split_type":[0,0,0,0,0,0,0,0,0,0,0,0,0,0,0,0,0,0,0,0,0,0,0,0,0,0,0,0,0,0,0,0,0,0,0,0,0],"sum_hessian":[2.13E2,6E0,2.07E2,2E0,4E0,5E1,1.57E2,1E0,1E0,3.5E1,1.5E1,4.1E1,1.16E2,3.2E1,3E0,8E0,7E0,3.1E1,1E1,8.8E1,2.8E1,2.3E1,9E0,2E0,1E0,5E0,3E0,4E0,3E0,1.2E1,1.9E1,1E0,9E0,7E1,1.8E1,2.7E1,1E0],"tree_param":{"num_deleted":"0","num_feature":"17","num_nodes":"37","size_leaf_vector":"1"}},{"base_weights":[-1.6516269E-3,-1.1375733E-1,2.3142543E-2,-2.2233684E-2,-3.7595254E-1,1.3230272E-1,-1.0915749E-2,2.5145005E-2,-1.3668896E-1,-5.61677E-1,-7.589269E-2,-9.076896E-2,1.7979616E-1,-6.248909E-2,1.0064789E-1,-3.0417744E-2,1.2743203E-1,-2.3192562E-1,-1.2114499E-2,-1.3560493E-1,5.783793E-3,3.1204842E-2,-2.2304398E-1,8.074697E-2,2.5842986E-1,1.1680225E-2,-3.9534485E-1,-4.3019983E-3,2.339689E-1,-1.2423742E-1,2.7915835E-2,2.7704248E-1,2.9721476E-2,-3.6615964E-2,1.30918E-2,-2.0650206E-2,1.2431251E-1,1.4664236E-1,-3.290963E-2,5.299661E-1,1.5002243E-1,-2.7511856E-2,3.1196615E-1,-8.8099015E-1,-1.1874347E-1,2.0028397E-1,-1.5471159E-1,2.9200235E-1,-1.6954365E-1],"categories":[],"categories_nodes":[],"categories_segments":[],"categories_sizes":[],"default_left":[0,0,0,0,0,0,0,0,0,0,0,0,0,0,0,0,0,0,0,0,0,0,0,0,0,0,0,0,0,0,0,0,0,0,0,0,0,0,0,0,0,0,0,0,0,0,0,0,0],"id":17,"left_children":[1,3,5,7,9,11,13,15,17,-1,19,21,23,25,27,29,31,-1,33,-1,-1,35,-1,37,39,41,43,45,47,-1,-1,-1,-1,-1,-1,-1,-1,-1,-1,-1,-1,-1,-1,-1,-1,-1,-1,-1,-1],"loss_changes":[5.9836626E-1,9.235447E-1,6.5699244E-1,1.6723472E-1,5.082816E-1,4.6217674E-1,7.826585E-1,1.2988E-1,1.01526424E-1,0E0,2.6467955E-2,1.3795114E-1,2.4834192E-1,2.304409E0,6.0496026E-1,8.6523965E-2,1.056464E-1,0E0,3.8025668E-3,0E0,0E0,2.7744217E-2,0E0,1.3328385E-1,4.7298777E-1,9.176273E-1,2.1690032E0,7.9982287E-1,4.956591E-1,0E0,0E0,0E0,0E0,0E0,0E0,0E0,0E0,0E0,0E0,0E0,0E0,0E0,0E0,0E0,0E0,0E0,0E0,0E0,0E0],"parents":[2147483647,0,0,1,1,2,2,3,3,4,4,5,5,6,6,7,7,8,8,10,10,11,11,12,12,13,13,14,14,15,15,16,16,18,18,21,21,23,23,24,24,25,25,26,26,27,27,28,28],"right_children":[2,4,6,8,10,12,14,16,18,-1,20,22,24,26,28,30,32,-1,34,-1,-1,36,-1,38,40,42,44,46,48,-1,-1,-1,-1,-1,-1,-1,-1,-1,-1,-1,-1,-1,-1,-1,-1,-1,-1,-1,-1],"split_conditions":[-5.7E-1,1.0743E1,-5.75E-1,6.4E0,1.517E1,1.1E0,1.8903478E0,3.2E0,-8.3E-1,-5.61677E-1,3.9E0,-1.71E0,5.963E0,1.3794272E0,4E0,-1.31E0,3.5E0,-2.3192562E-1,8.2E0,-1.3560493E-1,5.783793E-3,-2.36E0,-2.2304398E-1,2.1E0,1.2134E1,1.3009657E0,1.5399107E0,2.9E0,3.2875E1,-1.2423742E-1,2.7915835E-2,2.7704248E-1,2.9721476E-2,-3.6615964E-2,1.30918E-2,-2.0650206E-2,1.2431251E-1,1.4664236E-1,-3.290963E-2,5.299661E-1,1.5002243E-1,-2.7511856E-2,3.1196615E-1,-8.8099015E-1,-1.1874347E-1,2.0028397E-1,-1.5471159E-1,2.9200235E-1,-1.6954365E-1],"split_indices":[2,10,8,4,16,7,14,4,1,0,5,0,11,12,5,2,4,0,4,0,0,0,0,4,11,15,14,4,9,0,0,0,0,0,0,0,0,0,0,0,0,0,0,0,0,0,0,0,0],"split_type":[0,0,0,0,0,0,0,0,0,0,0,0,0,0,0,0,0,0,0,0,0,0,0,0,0,0,0,0,0,0,0,0,0,0,0,0,0,0,0,0,0,0,0,0,0,0,0,0,0],"sum_hessian":[2.13E2,3.8E1,1.75E2,2.9E1,9E0,4.1E1,1.34E2,2.1E1,8E0,5E0,4E0,7E0,3.4E1,9.2E1,4.2E1,1.4E1,7E0,4E0,4E0,2E0,2E0,4E0,3E0,1.6E1,1.8E1,7.6E1,1.6E1,2.4E1,1.8E1,5E0,9E0,2E0,5E0,2E0,2E0,3E0,1E0,1E1,6E0,4E0,1.4E1,6.8E1,8E0,5E0,1.1E1,1E1,1.4E1,1.6E1,2E0],"tree_param":{"num_deleted":"0","num_feature":"17","num_nodes":"49","size_leaf_vector":"1"}},{"base_weights":[-2.8477695E-3,-1.8317416E-2,1.6606158E-1,1.002967E-2,-8.337709E-2,3.2015803E-1,-2.2496885E-2,-6.4202324E-3,2.0144401E-1,-3.325973E-2,-2.8024155E-1,-2.1736594E-1,2.7293092E-1,3.34269E-2,-6.549348E-2,-0E0,2.2248551E-1,-2.9755333E-1,3.308936E-3,-4.7134567E-2,-5.038261E-1,-3.174738E-1,-8.544356E-2,-1.4586791E-2,1.6263421E-1,2.338259E-2,-1.2208423E-1,1.0582751E-1,2.55935E-1,-3.3117098E-1,-5.9732553E-2,-1.6072007E-2,4.2334473E-1,-3.021289E-1,4.4052638E-2,-1.5889283E-2,-9.999855E-2],"categories":[],"categories_nodes":[],"categories_segments":[],"categories_sizes":[],"default_left":[0,0,0,0,0,0,0,0,0,0,0,0,0,0,0,0,0,0,0,0,0,0,0,0,0,0,0,0,0,0,0,0,0,0,0,0,0],"id":18,"left_children":[1,3,5,7,9,-1,11,13,15,17,19,21,-1,23,25,-1,27,29,31,33,-1,-1,35,-1,-1,-1,-1,-1,-1,-1,-1,-1,-1,-1,-1,-1,-1],"loss_changes":[5.607395E-1,3.6488742E-1,5.331906E-1,4.377707E-1,5.795238E-1,0E0,5.7689786E-1,3.0380905E-1,4.8621446E-2,4.7750545E-1,5.961723E-1,4.8083544E-2,0E0,4.8153922E-1,2.6537895E-1,0E0,8.318931E-3,2.4279118E-2,3.6906704E-1,1.786559E-1,0E0,0E0,1.3016649E-3,0E0,0E0,0E0,0E0,0E0,0E0,0E0,0E0,0E0,0E0,0E0,0E0,0E0,0E0],"parents":[2147483647,0,0,1,1,2,2,3,3,4,4,6,6,7,7,8,8,9,9,10,10,11,11,13,13,14,14,16,16,17,17,18,18,19,19,22,22],"right_children":[2,4,6,8,10,-1,12,14,16,18,20,22,-1,24,26,-1,28,30,32,34,-1,-1,36,-1,-1,-1,-1,-1,-1,-1,-1,-1,-1,-1,-1,-1,-1],"split_conditions":[4.8004E1,2.9E-1,2E-2,2E-1,2.5945E1,3.2015803E-1,3.9E-1,3.8E0,9.0282696E-1,3.9E-1,3.9E0,7E-2,2.7293092E-1,3.8E0,-4E-2,-0E0,2.598E0,3.4E0,2.4232E1,2.6479E1,-5.038261E-1,-3.174738E-1,-8.3E-1,-1.4586791E-2,1.6263421E-1,2.338259E-2,-1.2208423E-1,1.0582751E-1,2.55935E-1,-3.3117098E-1,-5.9732553E-2,-1.6072007E-2,4.2334473E-1,-3.021289E-1,4.4052638E-2,-1.5889283E-2,-9.999855E-2],"split_indices":[10,2,2,2,11,0,2,5,12,2,6,2,0,6,1,0,11,4,11,11,0,0,0,0,0,0,0,0,0,0,0,0,0,0,0,0,0],"split_type":[0,0,0,0,0,0,0,0,0,0,0,0,0,0,0,0,0,0,0,0,0,0,0,0,0,0,0,0,0,0,0,0,0,0,0,0,0],"sum_hessian":[2.13E2,1.96E2,1.7E1,1.37E2,5.9E1,9E0,8E0,1.27E2,1E1,4.8E1,1.1E1,5E0,3E0,7.6E1,5.1E1,1E0,9E0,5E0,4.3E1,6E0,5E0,2E0,3E0,5.6E1,2E1,2E1,3.1E1,3E0,6E0,4E0,1E0,4.2E1,1E0,1E0,5E0,1E0,2E0],"tree_param":{"num_deleted":"0","num_feature":"17","num_nodes":"37","size_leaf_vector":"1"}},{"base_weights":[-9.049936E-4,-1.2079605E-2,1.0189403E-1,3.481246E-3,-8.3155505E-2,-4.9359176E-2,1.9953902E-1,-1.0004984E-2,1.87977E-1,-2.3054224E-2,-1.8232273E-1,-1.3781711E-1,1.6172646E-2,5.7674367E-2,2.7974513E-1,-7.956821E-2,1.17713725E-2,1.091057E-1,2.9622537E-1,6.2963036E-3,-1.665433E-1,-2.7591297E-1,2.0604251E-2,-2.9866334E-2,-1.6051193E-1,5.592799E-2,-1.5187023E-2,-8.957355E-4,8.9683354E-2,1.1348146E-1,3.5480705E-1,-3.405325E-2,-2.1121828E-1,7.8670815E-2,-2.3462167E-2,1.2306576E-1,6.926311E-4,-1.7573487E-2,5.4564986E-2,-4.042442E-2,-3.3599192E-1,-5.409157E-2,5.5301096E-2,1.0158653E-2,6.873333E-2,-4.6485616E-3,-0E0],"categories":[],"categories_nodes":[],"categories_segments":[],"categories_sizes":[],"default_left":[0,0,0,0,0,0,0,0,0,0,0,0,0,0,0,0,0,0,0,0,0,0,0,0,0,0,0,0,0,0,0,0,0,0,0,0,0,0,0,0,0,0,0,0,0,0,0],"id":19,"left_children":[1,3,5,7,9,11,13,15,17,19,21,23,25,27,29,31,33,35,-1,37,-1,39,41,-1,-1,43,-1,45,-1,-1,-1,-1,-1,-1,-1,-1,-1,-1,-1,-1,-1,-1,-1,-1,-1,-1,-1],"loss_changes":[2.4616288E-1,2.1565051E-1,3.2150233E-1,4.017648E-1,2.0234564E-1,5.5616595E-2,1.2841105E-1,2.2883965E-1,5.754137E-2,9.951512E-2,2.5513393E-1,3.102012E-3,8.737076E-3,1.2216827E-2,5.4893672E-2,2.0606834E-1,2.7346486E-1,1.0784805E-2,0E0,2.437208E-2,0E0,1.09984696E-1,1.5961966E-2,0E0,0E0,2.7111825E-4,0E0,4.0811225E-5,0E0,0E0,0E0,0E0,0E0,0E0,0E0,0E0,0E0,0E0,0E0,0E0,0E0,0E0,0E0,0E0,0E0,0E0,0E0],"parents":[2147483647,0,0,1,1,2,2,3,3,4,4,5,5,6,6,7,7,8,8,9,9,10,10,11,11,12,12,13,13,14,14,15,15,16,16,17,17,19,19,21,21,22,22,25,25,27,27],"right_children":[2,4,6,8,10,12,14,16,18,20,22,24,26,28,30,32,34,36,-1,38,-1,40,42,-1,-1,44,-1,46,-1,-1,-1,-1,-1,-1,-1,-1,-1,-1,-1,-1,-1,-1,-1,-1,-1,-1,-1],"split_conditions":[8E0,5.2E-1,1.9E-1,4.2E-1,4.3E-1,9.19E-1,3.419E0,-3.3E-1,4E0,2.3914106E0,4.9E0,0E0,5.4E0,-5.361E0,8.4E0,2.4347103E0,1.9E0,5E-1,2.9622537E-1,1.8689739E0,-1.665433E-1,1.1326535E0,1.2E-1,-2.9866334E-2,-1.6051193E-1,-1.43E0,-1.5187023E-2,4.1E-1,8.9683354E-2,1.1348146E-1,3.5480705E-1,-3.405325E-2,-2.1121828E-1,7.8670815E-2,-2.3462167E-2,1.2306576E-1,6.926311E-4,-1.7573487E-2,5.4564986E-2,-4.042442E-2,-3.3599192E-1,-5.409157E-2,5.5301096E-2,1.0158653E-2,6.873333E-2,-4.6485616E-3,-0E0],"split_indices":[4,0,0,0,2,9,8,3,7,12,7,3,5,8,4,12,5,0,0,13,0,12,1,0,0,0,0,0,0,0,0,0,0,0,0,0,0,0,0,0,0,0,0,0,0,0,0],"split_type":[0,0,0,0,0,0,0,0,0,0,0,0,0,0,0,0,0,0,0,0,0,0,0,0,0,0,0,0,0,0,0,0,0,0,0,0,0,0,0,0,0,0,0,0,0,0,0],"sum_hessian":[2.13E2,1.93E2,2E1,1.59E2,3.4E1,8E0,1.2E1,1.49E2,1E1,2.2E1,1.2E1,3E0,5E0,5E0,7E0,3.5E1,1.14E2,7E0,3E0,1.9E1,3E0,8E0,4E0,1E0,2E0,2E0,3E0,2E0,3E0,3E0,4E0,2.7E1,8E0,3.9E1,7.5E1,6E0,1E0,1.3E1,6E0,2E0,6E0,1E0,3E0,1E0,1E0,1E0,1E0],"tree_param":{"num_deleted":"0","num_feature":"17","num_nodes":"47","size_leaf_vector":"1"}},{"base_weights":[6.467113E-4,-1.2524354E-1,7.480761E-3,-3.767382E-2,-4.954704E-1,2.2610797E-2,-3.3737168E-2,2.0073174E-2,-6.67187E-2,1.5475221E-2,1.0254698E-1,-6.361093E-2,1.4847258E-1,-0E0,3.976273E-2,-2.836704E-2,-8.589068E-2,-6.224491E-3,4.792702E-2,1.5647273E-1,-2.2436124E-3,-8.984092E-2,1.0142766E-1,-2.8515435E-3,2.4183735E-1,1.0771703E-2,-6.546261E-2,2.901672E-1,1.8292349E-2,-3.9963294E-3,2.1229513E-1,1.4198897E-2,-3.9006826E-2,-3.9276585E-2,-1.9884777E-1,-0E0,2.3575282E-1,-2.7992167E-2,3.1285163E-2],"categories":[],"categories_nodes":[],"categories_segments":[],"categories_sizes":[],"default_left":[0,0,0,0,0,0,0,0,0,0,0,0,0,0,0,0,0,0,0,0,0,0,0,0,0,0,0,0,0,0,0,0,0,0,0,0,0,0,0],"id":20,"left_children":[1,3,5,7,-1,9,11,13,15,17,19,21,23,-1,-1,-1,-1,25,27,29,31,33,35,37,-1,-1,-1,-1,-1,-1,-1,-1,-1,-1,-1,-1,-1,-1,-1],"loss_changes":[1.838721E-1,3.326296E-1,1.2787184E-1,1.8578254E-2,0E0,8.2791425E-2,3.0797687E-1,1.5504204E-3,1.567902E-3,9.8598406E-2,6.9704294E-2,2.1678652E-1,1.161062E-1,0E0,0E0,0E0,0E0,8.582515E-2,3.9361525E-1,7.4593544E-2,3.8243306E-3,2.2130674E-1,9.4725184E-2,4.275682E-3,0E0,0E0,0E0,0E0,0E0,0E0,0E0,0E0,0E0,0E0,0E0,0E0,0E0,0E0,0E0],"parents":[2147483647,0,0,1,1,2,2,3,3,5,5,6,6,7,7,8,8,9,9,10,10,11,11,12,12,17,17,18,18,19,19,20,20,21,21,22,22,23,23],"right_children":[2,4,6,8,-1,10,12,14,16,18,20,22,24,-1,-1,-1,-1,26,28,30,32,34,36,38,-1,-1,-1,-1,-1,-1,-1,-1,-1,-1,-1,-1,-1,-1,-1],"split_conditions":[8.9077294E-1,9.147257E-1,2.2796E1,8.579666E-1,-4.954704E-1,1.9819E1,4.8E0,7E-2,-1.31E-1,3.8E0,9E-2,4.6E0,2.8244E1,-0E0,3.976273E-2,-2.836704E-2,-8.589068E-2,3E0,-6.8E-1,-1.71E0,5.5E0,2E-2,3E-2,9.1E-1,2.4183735E-1,1.0771703E-2,-6.546261E-2,2.901672E-1,1.8292349E-2,-3.9963294E-3,2.1229513E-1,1.4198897E-2,-3.9006826E-2,-3.9276585E-2,-1.9884777E-1,-0E0,2.3575282E-1,-2.7992167E-2,3.1285163E-2],"split_indices":[14,12,16,15,0,16,5,0,9,4,0,6,8,0,0,0,0,4,0,0,5,2,0,0,0,0,0,0,0,0,0,0,0,0,0,0,0,0,0],"split_type":[0,0,0,0,0,0,0,0,0,0,0,0,0,0,0,0,0,0,0,0,0,0,0,0,0,0,0,0,0,0,0,0,0,0,0,0,0,0,0],"sum_hessian":[2.13E2,1E1,2.03E2,9E0,1E0,1.49E2,5.4E1,3E0,6E0,1.38E2,1.1E1,4.7E1,7E0,2E0,1E0,3E0,3E0,8.3E1,5.5E1,7E0,4E0,4.1E1,6E0,3E0,4E0,6.5E1,1.8E1,5E0,5E1,2E0,5E0,3E0,1E0,2.9E1,1.2E1,4E0,2E0,2E0,1E0],"tree_param":{"num_deleted":"0","num_feature":"17","num_nodes":"39","size_leaf_vector":"1"}},{"base_weights":[4.8392813E-4,-7.953029E-3,3.546273E-2,3.9732698E-4,-6.0228046E-2,-3.3680476E-2,6.1406463E-2,3.8173787E-2,-1.5549258E-2,-1.0176027E-1,1.9187912E-2,1.4375446E-2,-6.0755372E-2,1.04343124E-1,2.4044259E-2,1.7898232E-2,3.1273213E-1,-1.0453416E-1,1.574192E-4,-1.6987602E-1,-4.2903207E-2,8.076389E-2,-8.514352E-3,3.0782815E-2,7.790094E-5,-8.284716E-2,-1.5451787E-2,1.16999604E-1,1.5602819E-2,-7.975899E-3,9.1080554E-2,-6.2227533E-3,8.954317E-2,-5.8199037E-2,-1.928316E-1,-6.007124E-2,1.7024305E-2,-5.0983027E-2,-2.0523663E-1,-1.3293724E-3,-6.873087E-2,-3.2664727E-2,3.1241056E-2,1.1197282E-3,-0E0,4.169726E-2,1.2689035E-1,-4.4104397E-2,1.8867461E-2,2.1159586E-2,1.18251145E-1],"categories":[],"categories_nodes":[],"categories_segments":[],"categories_sizes":[],"default_left":[0,0,0,0,0,0,0,0,0,0,0,0,0,0,0,0,0,0,0,0,0,0,0,0,0,0,0,0,0,0,0,0,0,0,0,0,0,0,0,0,0,0,0,0,0,0,0,0,0,0,0],"id":21,"left_children":[1,3,5,7,9,11,13,15,17,19,21,23,25,27,29,31,-1,33,35,37,39,-1,41,-1,43,-1,-1,45,-1,47,49,-1,-1,-1,-1,-1,-1,-1,-1,-1,-1,-1,-1,-1,-1,-1,-1,-1,-1,-1,-1],"loss_changes":[6.371167E-2,7.613933E-2,7.7686444E-2,9.118065E-2,8.1938006E-2,1.6950492E-2,4.593773E-2,2.4160334E-1,1.4921185E-1,5.4729477E-2,1.6762294E-2,8.619204E-4,5.7435706E-3,1.2572423E-2,4.0194727E-2,7.570071E-2,0E0,5.172746E-2,9.303636E-2,1.6403109E-2,9.945579E-3,0E0,7.755473E-3,0E0,2.4833082E-6,0E0,0E0,1.9606948E-3,0E0,1.3692041E-2,7.5025074E-3,0E0,0E0,0E0,0E0,0E0,0E0,0E0,0E0,0E0,0E0,0E0,0E0,0E0,0E0,0E0,0E0,0E0,0E0,0E0,0E0],"parents":[2147483647,0,0,1,1,2,2,3,3,4,4,5,5,6,6,7,7,8,8,9,9,10,10,11,11,12,12,13,13,14,14,15,15,17,17,18,18,19,19,20,20,22,22,24,24,27,27,29,29,30,30],"right_children":[2,4,6,8,10,12,14,16,18,20,22,24,26,28,30,32,-1,34,36,38,40,-1,42,-1,44,-1,-1,46,-1,48,50,-1,-1,-1,-1,-1,-1,-1,-1,-1,-1,-1,-1,-1,-1,-1,-1,-1,-1,-1,-1],"split_conditions":[5.2E-1,5E-1,2.1E0,-2.1E-1,3.4E0,-1.9E-1,3.2E0,2.2796E1,-3.7E-1,1.1806042E0,4E0,6.5E-1,5.5E-1,1.28E0,1.5729E1,3.7E0,3.1273213E-1,8.889E0,-1E-2,2.9E0,6.8E-1,8.076389E-2,2.1112485E0,3.0782815E-2,-2.36E0,-8.284716E-2,-1.5451787E-2,-1.9148E1,1.5602819E-2,6.3E0,2.8E-1,-6.2227533E-3,8.954317E-2,-5.8199037E-2,-1.928316E-1,-6.007124E-2,1.7024305E-2,-5.0983027E-2,-2.0523663E-1,-1.3293724E-3,-6.873087E-2,-3.2664727E-2,3.1241056E-2,1.1197282E-3,-0E0,4.169726E-2,1.2689035E-1,-4.4104397E-2,1.8867461E-2,2.1159586E-2,1.18251145E-1],"split_indices":[1,2,6,0,5,3,7,9,1,12,5,1,0,0,16,7,0,10,0,6,3,0,15,0,0,0,0,10,0,7,3,0,0,0,0,0,0,0,0,0,0,0,0,0,0,0,0,0,0,0,0],"split_type":[0,0,0,0,0,0,0,0,0,0,0,0,0,0,0,0,0,0,0,0,0,0,0,0,0,0,0,0,0,0,0,0,0,0,0,0,0,0,0,0,0,0,0,0,0,0,0,0,0,0,0],"sum_hessian":[2.13E2,1.72E2,4.1E1,1.49E2,2.3E1,1.1E1,3E1,4.4E1,1.05E2,1.5E1,8E0,4E0,7E0,1.3E1,1.7E1,4.2E1,2E0,1.5E1,9E1,6E0,9E0,2E0,6E0,1E0,3E0,4E0,3E0,1.1E1,2E0,1.2E1,5E0,3.2E1,1E1,1.1E1,4E0,1.9E1,7.1E1,2E0,4E0,4E0,5E0,4E0,2E0,1E0,2E0,2E0,9E0,5E0,7E0,2E0,3E0],"tree_param":{"num_deleted":"0","num_feature":"17","num_nodes":"51","size_leaf_vector":"1"}},{"base_weights":[3.9753682E-4,5.7658693E-3,-3.6626317E-2,1.1988692E-3,5.416119E-2,-1.1759366E-1,-7.4169007E-3,1.1267652E-2,-2.3595689E-2,1.273542E-1,2.6704788E-2,3.4992334E-2,-1.5052338E-1,-3.6669083E-2,2.742741E-2,-4.2437144E-2,1.9139294E-2,-5.658377E-2,1.1255746E-2,1.854479E-2,1.5410908E-1,6.2619686E-2,-2.3194838E-3,-1.6325565E-1,-3.8431045E-2,-6.727989E-2,-2.2818934E-2,5.2573718E-2,-6.233643E-3,2.482394E-2,-1.3389052E-1,9.725251E-2,8.370107E-3,-1.0322655E-1,-1.231257E-3,6.608457E-2,-1.8585349E-3,7.836872E-2,1.7414408E-2,2.8016485E-2,-1.8767554E-2,-2.6327224E-2,-0E0,1.3631897E-2,6.613666E-2,-1.741258E-2,3.6898423E-3],"categories":[],"categories_nodes":[],"categories_segments":[],"categories_sizes":[],"default_left":[0,0,0,0,0,0,0,0,0,0,0,0,0,0,0,0,0,0,0,0,0,0,0,0,0,0,0,0,0,0,0,0,0,0,0,0,0,0,0,0,0,0,0,0,0,0,0],"id":22,"left_children":[1,3,5,7,9,11,13,15,17,19,21,-1,23,25,27,29,31,33,35,-1,-1,37,39,-1,-1,-1,41,43,45,-1,-1,-1,-1,-1,-1,-1,-1,-1,-1,-1,-1,-1,-1,-1,-1,-1,-1],"loss_changes":[4.243644E-2,4.0933497E-2,6.173295E-2,4.3332208E-2,2.721231E-2,4.1594774E-2,2.2502871E-2,5.299962E-2,5.857427E-2,7.060267E-3,1.4299495E-2,0E0,2.721846E-4,2.6513264E-3,9.255637E-3,1.0283441E-1,8.982228E-2,6.5955E-2,1.8741095E-2,0E0,0E0,1.9490626E-3,4.4250563E-3,0E0,0E0,0E0,1.0310672E-3,1.4697388E-3,7.561472E-4,0E0,0E0,0E0,0E0,0E0,0E0,0E0,0E0,0E0,0E0,0E0,0E0,0E0,0E0,0E0,0E0,0E0,0E0],"parents":[2147483647,0,0,1,1,2,2,3,3,4,4,5,5,6,6,7,7,8,8,9,9,10,10,12,12,13,13,14,14,15,15,16,16,17,17,18,18,21,21,22,22,26,26,27,27,28,28],"right_children":[2,4,6,8,10,12,14,16,18,20,22,-1,24,26,28,30,32,34,36,-1,-1,38,40,-1,-1,-1,42,44,46,-1,-1,-1,-1,-1,-1,-1,-1,-1,-1,-1,-1,-1,-1,-1,-1,-1,-1],"split_conditions":[2.408993E0,2.3114276E0,2.4448693E0,1.4595758E0,-5.57E-1,-4.7E-1,3.1E0,9.0282696E-1,7E-2,-1.26E0,2.3397024E0,3.4992334E-2,-4E-2,2.3397024E0,4.5E0,8.9077294E-1,9.8181164E-1,9E-2,2.1E-1,1.854479E-2,1.5410908E-1,1E-2,-2.1E0,-1.6325565E-1,-3.8431045E-2,-6.727989E-2,4.4E0,-4.7E-1,2.5E0,2.482394E-2,-1.3389052E-1,9.725251E-2,8.370107E-3,-1.0322655E-1,-1.231257E-3,6.608457E-2,-1.8585349E-3,7.836872E-2,1.7414408E-2,2.8016485E-2,-1.8767554E-2,-2.6327224E-2,-0E0,1.3631897E-2,6.613666E-2,-1.741258E-2,3.6898423E-3],"split_indices":[12,12,12,14,10,1,5,14,0,1,12,0,2,13,7,15,12,2,0,0,0,3,5,0,0,0,7,0,4,0,0,0,0,0,0,0,0,0,0,0,0,0,0,0,0,0,0],"split_type":[0,0,0,0,0,0,0,0,0,0,0,0,0,0,0,0,0,0,0,0,0,0,0,0,0,0,0,0,0,0,0,0,0,0,0,0,0,0,0,0,0,0,0,0,0,0,0],"sum_hessian":[2.13E2,1.87E2,2.6E1,1.72E2,1.5E1,6E0,2E1,1.23E2,4.9E1,3E0,1.2E1,1E0,5E0,1.1E1,9E0,1.5E1,1.08E2,2.5E1,2.4E1,1E0,2E0,5E0,7E0,4E0,1E0,2E0,9E0,5E0,4E0,9E0,6E0,1.2E1,9.6E1,1.3E1,1.2E1,4E0,2E1,3E0,2E0,2E0,5E0,8E0,1E0,2E0,3E0,2E0,2E0],"tree_param":{"num_deleted":"0","num_feature":"17","num_nodes":"47","size_leaf_vector":"1"}},{"base_weights":[3.2018477E-4,9.881212E-3,-2.0206159E-2,-4.4459286E-3,3.0316953E-2,-1.2606845E-2,-1.1143613E-1,8.457841E-3,-5.8664855E-2,5.01961E-2,-1.574201E-2,-2.5057934E-2,1.5538445E-2,-1.5136917E-1,-3.1024374E-2,-2.955025E-3,3.82084E-2,2.0425318E-2,-1.3234782E-1,7.3608525E-2,-2.8445374E-3,-6.5504275E-3,-8.559524E-2,4.7626616E-3,-4.5485094E-2,2.0858504E-2,-3.777134E-2,6.350417E-2,-1.0024628E-2,6.470945E-2,-2.6059046E-4,-3.606548E-2,7.483105E-2,-1.5784455E-3,-1.4724669E-1,2.06514E-2,1.0265469E-1,-9.970343E-2,3.1726383E-2,-1.1776232E-2,1.21839475E-2,-8.504208E-3,8.168737E-2,-5.2029237E-2,2.6510335E-3,2.9586526E-2,2.4096321E-4],"categories":[],"categories_nodes":[],"categories_segments":[],"categories_sizes":[],"default_left":[0,0,0,0,0,0,0,0,0,0,0,0,0,0,0,0,0,0,0,0,0,0,0,0,0,0,0,0,0,0,0,0,0,0,0,0,0,0,0,0,0,0,0,0,0,0,0],"id":23,"left_children":[1,3,5,7,9,11,13,15,17,19,21,23,25,-1,-1,27,29,31,33,35,37,39,-1,41,43,45,-1,-1,-1,-1,-1,-1,-1,-1,-1,-1,-1,-1,-1,-1,-1,-1,-1,-1,-1,-1,-1],"loss_changes":[4.2094544E-2,4.3433E-2,4.4498093E-2,6.1865933E-2,5.698711E-2,2.2912683E-2,9.535361E-3,2.4572723E-2,1.02891654E-1,5.431486E-2,1.0717032E-2,2.8035609E-2,6.2909494E-3,0E0,0E0,2.4533495E-2,2.1050716E-2,3.0747283E-2,1.5814155E-2,4.2793006E-2,5.0722014E-2,1.9016431E-3,0E0,2.081697E-2,9.136971E-3,3.1136516E-3,0E0,0E0,0E0,0E0,0E0,0E0,0E0,0E0,0E0,0E0,0E0,0E0,0E0,0E0,0E0,0E0,0E0,0E0,0E0,0E0,0E0],"parents":[2147483647,0,0,1,1,2,2,3,3,4,4,5,5,6,6,7,7,8,8,9,9,10,10,11,11,12,12,15,15,16,16,17,17,18,18,19,19,20,20,21,21,23,23,24,24,25,25],"right_children":[2,4,6,8,10,12,14,16,18,20,22,24,26,-1,-1,28,30,32,34,36,38,40,-1,42,44,46,-1,-1,-1,-1,-1,-1,-1,-1,-1,-1,-1,-1,-1,-1,-1,-1,-1,-1,-1,-1,-1],"split_conditions":[2.8E-1,0E0,9.5E0,2.6398E1,1.7873766E0,3.8E0,5.2E-1,2.2796E1,-7E-2,5.2E0,3.7562E1,-4E-2,1.39E0,-1.5136917E-1,-3.1024374E-2,-1.8688E1,4.4665E1,-6.5E-1,-2.2E-1,-2E-2,1E-1,2.147E1,-8.559524E-2,-2.2E-1,2.0073638E0,5.6E0,-3.777134E-2,6.350417E-2,-1.0024628E-2,6.470945E-2,-2.6059046E-4,-3.606548E-2,7.483105E-2,-1.5784455E-3,-1.4724669E-1,2.06514E-2,1.0265469E-1,-9.970343E-2,3.1726383E-2,-1.1776232E-2,1.21839475E-2,-8.504208E-3,8.168737E-2,-5.2029237E-2,2.6510335E-3,2.9586526E-2,2.4096321E-4],"split_indices":[3,2,7,9,15,5,1,16,2,6,8,1,1,0,0,11,16,3,3,3,2,11,0,1,12,7,0,0,0,0,0,0,0,0,0,0,0,0,0,0,0,0,0,0,0,0,0],"split_type":[0,0,0,0,0,0,0,0,0,0,0,0,0,0,0,0,0,0,0,0,0,0,0,0,0,0,0,0,0,0,0,0,0,0,0,0,0,0,0,0,0,0,0,0,0,0,0],"sum_hessian":[2.13E2,1.46E2,6.7E1,8.6E1,6E1,6.3E1,4E0,7E1,1.6E1,4.2E1,1.8E1,4.4E1,1.9E1,2E0,2E0,5.1E1,1.9E1,8E0,8E0,2.9E1,1.3E1,1.7E1,1E0,1.8E1,2.6E1,1.8E1,1E0,4E0,4.7E1,1.1E1,8E0,4E0,4E0,1E0,7E0,1.1E1,1.8E1,3E0,1E1,1.4E1,3E0,1.6E1,2E0,2.3E1,3E0,1.2E1,6E0],"tree_param":{"num_deleted":"0","num_feature":"17","num_nodes":"47","size_leaf_vector":"1"}},{"base_weights":[-9.276679E-4,3.6281575E-3,-1.2848089E-2,-1.1624348E-4,4.9091958E-2,-2.7084896E-2,1.958214E-3,3.93722E-3,-1.5983978E-2,9.39203E-2,2.2602478E-2,-4.435864E-2,-7.4933465E-3,-3.849357E-2,8.248915E-3,-2.1113157E-2,9.53849E-3,4.3392226E-2,-2.7172327E-2,7.4860035E-3,1.1690307E-1,3.20969E-2,2.1022325E-4,-6.753227E-2,-1.1493473E-2,-2.200455E-2,8.518427E-3,1.767348E-2,-8.540192E-3,-3.12699E-2,1.5642403E-2,4.7832597E-2,3.3052147E-3,4.112358E-3,4.9684104E-2,-5.6843303E-2,-7.5322036E-3,6.757546E-4,-0E0,-7.6095074E-2,-0E0,1.5466182E-3,-1.7764606E-2,-5.1052556E-3,-3.9352354E-2,-1.6345565E-3,2.931825E-2,3.0260442E-2,8.02496E-3,-2.319176E-2,3.4261479E-3],"categories":[],"categories_nodes":[],"categories_segments":[],"categories_sizes":[],"default_left":[0,0,0,0,0,0,0,0,0,0,0,0,0,0,0,0,0,0,0,0,0,0,0,0,0,0,0,0,0,0,0,0,0,0,0,0,0,0,0,0,0,0,0,0,0,0,0,0,0,0,0],"id":24,"left_children":[1,3,5,7,9,11,13,15,17,19,21,23,25,-1,27,29,31,33,35,-1,-1,-1,37,39,41,43,45,47,49,-1,-1,-1,-1,-1,-1,-1,-1,-1,-1,-1,-1,-1,-1,-1,-1,-1,-1,-1,-1,-1,-1],"loss_changes":[1.176059E-2,2.6881842E-2,1.2951975E-2,9.445378E-3,1.0961695E-2,9.640086E-3,7.6491865E-3,1.6221745E-2,2.0946518E-2,5.826965E-3,1.5835948E-3,1.06192455E-2,4.039907E-3,0E0,4.514477E-3,8.485064E-3,2.2006808E-2,4.9343705E-4,1.407937E-2,0E0,0E0,0E0,1.1931576E-6,5.278211E-3,8.4386405E-4,1.9930112E-3,2.0142011E-3,1.5603276E-3,2.030371E-3,0E0,0E0,0E0,0E0,0E0,0E0,0E0,0E0,0E0,0E0,0E0,0E0,0E0,0E0,0E0,0E0,0E0,0E0,0E0,0E0,0E0,0E0],"parents":[2147483647,0,0,1,1,2,2,3,3,4,4,5,5,6,6,7,7,8,8,9,9,10,10,11,11,12,12,14,14,15,15,16,16,17,17,18,18,22,22,23,23,24,24,25,25,26,26,27,27,28,28],"right_children":[2,4,6,8,10,12,14,16,18,20,22,24,26,-1,28,30,32,34,36,-1,-1,-1,38,40,42,44,46,48,50,-1,-1,-1,-1,-1,-1,-1,-1,-1,-1,-1,-1,-1,-1,-1,-1,-1,-1,-1,-1,-1,-1],"split_conditions":[3.7E-1,2.4E-1,1.2908025E0,3.278E1,1.0013033E0,4.3E-1,-8.3E-1,-7.3E-1,0E0,8E-2,1.8689739E0,6.2E-1,1.3237E1,-3.849357E-2,3.6E0,3.7E0,-3.103E0,-1.37E0,2.2E0,7.4860035E-3,1.1690307E-1,3.20969E-2,2.9E-1,1.01E1,2.3E0,5.2E-1,3.2E0,1.8879521E0,5.9E-1,-3.12699E-2,1.5642403E-2,4.7832597E-2,3.3052147E-3,4.112358E-3,4.9684104E-2,-5.6843303E-2,-7.5322036E-3,6.757546E-4,-0E0,-7.6095074E-2,-0E0,1.5466182E-3,-1.7764606E-2,-5.1052556E-3,-3.9352354E-2,-1.6345565E-3,2.931825E-2,3.0260442E-2,8.02496E-3,-2.319176E-2,3.4261479E-3],"split_indices":[1,1,12,16,12,2,2,0,7,0,12,1,8,0,4,4,9,3,5,0,0,0,1,5,5,3,4,12,1,0,0,0,0,0,0,0,0,0,0,0,0,0,0,0,0,0,0,0,0,0,0],"split_type":[0,0,0,0,0,0,0,0,0,0,0,0,0,0,0,0,0,0,0,0,0,0,0,0,0,0,0,0,0,0,0,0,0,0,0,0,0,0,0,0,0,0,0,0,0,0,0,0,0,0,0],"sum_hessian":[2.13E2,1.54E2,5.9E1,1.43E2,1.1E1,3E1,2.9E1,1.14E2,2.9E1,3E0,8E0,1.5E1,1.5E1,3E0,2.6E1,2E1,9.4E1,4E0,2.5E1,1E0,2E0,5E0,3E0,8E0,7E0,8E0,7E0,1.7E1,9E0,1.6E1,4E0,1.2E1,8.2E1,1E0,3E0,9E0,1.6E1,2E0,1E0,7E0,1E0,2E0,5E0,5E0,3E0,5E0,2E0,6E0,1.1E1,4E0,5E0],"tree_param":{"num_deleted":"0","num_feature":"17","num_nodes":"51","size_leaf_vector":"1"}},{"base_weights":[3.871657E-4,-2.0475727E-2,2.8151264E-3,-5.965495E-2,1.1182422E-3,9.487725E-3,-4.6584206E-3,-1.2056063E-2,-1.01739824E-1,1.6434878E-2,-3.0802004E-2,1.5365529E-2,-5.695827E-3,8.78708E-3,-1.2632362E-2,-2.8326627E-2,4.899856E-3,-6.2695486E-3,3.1733055E-2,-4.2160977E-2,2.316947E-3,2.161282E-2,-1.2519242E-3,-1.9070067E-2,-1.6982738E-3,2.6049187E-2,-2.6632345E-3,-6.6404E-2,-3.7538232E-3,-0E0,-7.4357367E-3,3.9097976E-2,5.547173E-3,6.260809E-3,2.9920803E-2,-3.0593313E-2,2.9205016E-3,-3.187203E-2,1.0225741E-3,-5.1877103E-3,7.967987E-3,-5.6485715E-3,4.5397785E-2,-3.9786734E-2,2.8122251E-3,-7.783197E-2,1.7958833E-3,-1.3722124E-2,1.0663849E-2],"categories":[],"categories_nodes":[],"categories_segments":[],"categories_sizes":[],"default_left":[0,0,0,0,0,0,0,0,0,0,0,0,0,0,0,0,0,0,0,0,0,0,0,0,0,0,0,0,0,0,0,0,0,0,0,0,0,0,0,0,0,0,0,0,0,0,0,0,0],"id":25,"left_children":[1,3,5,7,9,11,13,15,-1,17,19,21,23,25,27,-1,-1,29,31,-1,-1,33,35,37,39,41,43,45,47,-1,-1,-1,-1,-1,-1,-1,-1,-1,-1,-1,-1,-1,-1,-1,-1,-1,-1,-1,-1],"loss_changes":[1.0721052E-2,1.9264843E-2,9.717011E-3,1.3661005E-2,7.696218E-3,9.376549E-3,9.905893E-3,1.7524759E-3,0E0,4.2742873E-3,2.3771115E-3,8.01672E-3,1.3103931E-3,7.0235576E-3,2.673914E-2,0E0,0E0,2.4624533E-5,6.8666274E-4,0E0,0E0,6.465787E-3,2.9369958E-3,1.8844379E-3,8.230481E-4,9.240227E-3,4.7502667E-3,7.1352273E-3,7.5066183E-3,0E0,0E0,0E0,0E0,0E0,0E0,0E0,0E0,0E0,0E0,0E0,0E0,0E0,0E0,0E0,0E0,0E0,0E0,0E0,0E0],"parents":[2147483647,0,0,1,1,2,2,3,3,4,4,5,5,6,6,7,7,9,9,10,10,11,11,12,12,13,13,14,14,17,17,18,18,21,21,22,22,23,23,24,24,25,25,26,26,27,27,28,28],"right_children":[2,4,6,8,10,12,14,16,-1,18,20,22,24,26,28,-1,-1,30,32,-1,-1,34,36,38,40,42,44,46,48,-1,-1,-1,-1,-1,-1,-1,-1,-1,-1,-1,-1,-1,-1,-1,-1,-1,-1,-1,-1],"split_conditions":[9.446713E-1,2.66E-1,1.2979E1,1.65E0,1.5E-1,4.4E-1,1.2108734E0,-2.6E-1,-1.01739824E-1,0E0,4.1E-1,2.2225456E0,5.2E-1,1E-2,1.3031337E0,-2.8326627E-2,4.899856E-3,-7.5E-1,8.988697E-1,-4.2160977E-2,2.316947E-3,4.401E0,-1.1908E1,5.5E-1,6.6E0,1.1610953E0,7E-1,2.4E-1,2.2072E1,-0E0,-7.4357367E-3,3.9097976E-2,5.547173E-3,6.260809E-3,2.9920803E-2,-3.0593313E-2,2.9205016E-3,-3.187203E-2,1.0225741E-3,-5.1877103E-3,7.967987E-3,-5.6485715E-3,4.5397785E-2,-3.9786734E-2,2.8122251E-3,-7.783197E-2,1.7958833E-3,-1.3722124E-2,1.0663849E-2],"split_indices":[13,10,8,9,0,1,14,0,0,2,0,13,1,0,15,0,0,1,15,0,0,11,9,2,7,14,6,1,9,0,0,0,0,0,0,0,0,0,0,0,0,0,0,0,0,0,0,0,0],"split_type":[0,0,0,0,0,0,0,0,0,0,0,0,0,0,0,0,0,0,0,0,0,0,0,0,0,0,0,0,0,0,0,0,0,0,0,0,0,0,0,0,0,0,0,0,0,0,0,0,0],"sum_hessian":[2.13E2,2.1E1,1.92E2,7E0,1.4E1,1.02E2,9E1,4E0,3E0,1E1,4E0,7.4E1,2.8E1,3.3E1,5.7E1,2E0,2E0,4E0,6E0,3E0,1E0,5.4E1,2E1,5E0,2.3E1,1.3E1,2E1,7E0,5E1,1E0,3E0,4E0,2E0,2E1,3.4E1,2E0,1.8E1,3E0,2E0,1.8E1,5E0,5E0,8E0,2E0,1.8E1,6E0,1E0,3E1,2E1],"tree_param":{"num_deleted":"0","num_feature":"17","num_nodes":"49","size_leaf_vector":"1"}}]},"name":"gbtree"},"learner_model_param":{"base_score":"1.1754221E1","boost_from_average":"1","num_class":"0","num_feature":"17","num_target":"1"},"objective":{"name":"reg:squarederror","reg_loss_param":{"scale_pos_weight":"1"}}},"version":[2,1,4]}