{"learner":{"attributes":{"best_iteration":"0","best_score":"111.71955423498481","scikit_learn":"{\"_estimator_type\": \"regressor\"}"},"feature_names":["fedfunds_lag_5","fedfunds_lag_6","gdp_lag_5","gdp_lag_6","imports_lag_5","imports_lag_6","watr_lag_5","watr_lag_6","imports_lag_1"],"feature_types":["float","float","float","float","float","float","float","float","float"],"gradient_booster":{"model":{"gbtree_model_param":{"num_parallel_tree":"1","num_trees":"26"},"iteration_indptr":[0,1,2,3,4,5,6,7,8,9,10,11,12,13,14,15,16,17,18,19,20,21,22,23,24,25,26],"tree_info":[0,0,0,0,0,0,0,0,0,0,0,0,0,0,0,0,0,0,0,0,0,0,0,0,0,0],"trees":[{"base_weights":[-0E0,-8.991058E0,1.7735786E1,-1.0623384E2,-6.8732457E0,9.346266E0,3.1682514E1,-2.4675625E1,-5.1899495E0,1.128306E1,-9.177418E0,-2.807079E0,3.611109E1,1.1760782E1,-4.4365177E1,-9.498824E0,1.7551252E0,1.3340411E1,-1.2019477E0,-1.1877079E1,8.056141E-1,3.2931137E0,-5.9415145E0,5.463545E1,2.526898E1,3.4340115E1,-2.4665794E0,4.3195876E-1,-1.106569E1,6.294948E0,-6.221679E0,3.6492047E0,1.6324755E1,-9.142181E0,3.8005822E0,-1.468886E0,-7.438386E0,2.7411901E1,-4.503886E0],"categories":[],"categories_nodes":[],"categories_segments":[],"categories_sizes":[],"default_left":[0,0,0,0,0,0,0,0,0,0,0,0,0,0,0,0,0,0,0,0,0,0,0,0,0,0,0,0,0,0,0,0,0,0,0,0,0,0,0],"id":0,"left_children":[1,3,5,-1,7,9,11,13,15,17,19,21,23,25,-1,27,29,31,33,-1,-1,-1,35,-1,37,-1,-1,-1,-1,-1,-1,-1,-1,-1,-1,-1,-1,-1,-1],"loss_changes":[3.460358E4,2.8924344E4,8.244941E3,0E0,4.1269053E3,1.789769E3,4.225676E3,9.131092E3,3.9369844E3,1.1206558E3,1.444331E2,9.6075226E1,3.4388535E3,1.6912429E3,0E0,1.2652617E3,1.8860431E3,1.0103384E3,3.1284784E2,0E0,0E0,0E0,9.0696335E0,0E0,1.2083057E3,0E0,0E0,0E0,0E0,0E0,0E0,0E0,0E0,0E0,0E0,0E0,0E0,0E0,0E0],"parents":[2147483647,0,0,1,1,2,2,4,4,5,5,6,6,7,7,8,8,9,9,10,10,11,11,12,12,13,13,15,15,16,16,17,17,18,18,22,22,24,24],"right_children":[2,4,6,-1,8,10,12,14,16,18,20,22,24,26,-1,28,30,32,34,-1,-1,-1,36,-1,38,-1,-1,-1,-1,-1,-1,-1,-1,-1,-1,-1,-1,-1,-1],"split_conditions":[1.7887E1,-8.2388E1,3.9334E1,-1.0623384E2,-2.1961E1,6.9E0,1.1287782E0,7E-1,9.135E0,4.8E-1,2.1165E1,-2.2E-1,2.2E0,-9.1E-1,-4.4365177E1,-5.361E0,4.7E0,-5.1E-1,5E-1,-1.1877079E1,8.056141E-1,3.2931137E0,-1E-2,5.463545E1,5.2941E1,3.4340115E1,-2.4665794E0,4.3195876E-1,-1.106569E1,6.294948E0,-6.221679E0,3.6492047E0,1.6324755E1,-9.142181E0,3.8005822E0,-1.468886E0,-7.438386E0,2.7411901E1,-4.503886E0],"split_indices":[8,8,8,0,8,2,6,3,5,0,4,1,2,0,0,8,3,0,1,0,0,0,0,0,4,0,0,0,0,0,0,0,0,0,0,0,0,0,0],"split_type":[0,0,0,0,0,0,0,0,0,0,0,0,0,0,0,0,0,0,0,0,0,0,0,0,0,0,0,0,0,0,0,0,0,0,0,0,0,0,0],"sum_hessian":[2.15E2,1.43E2,7.2E1,2E0,1.41E2,4.6E1,2.6E1,1.1E1,1.3E2,4.2E1,4E0,3E0,2.3E1,4E0,7E0,8E1,5E1,3.6E1,6E0,3E0,1E0,1E0,2E0,7E0,1.6E1,1E0,3E0,1.1E1,6.9E1,3.2E1,1.8E1,9E0,2.7E1,2E0,4E0,1E0,1E0,1.5E1,1E0],"tree_param":{"num_deleted":"0","num_feature":"9","num_nodes":"39","size_leaf_vector":"1"}},{"base_weights":[-2.4900787E-1,-3.5411285E1,2.4503809E-1,6.110036E0,-5.923196E1,1.0736311E1,-7.7317226E-1,1.4967924E1,-8.8717165E0,-1.6494626E-1,-1.0986524E1,8.0205145E0,2.0911518E1,-2.1706188E0,1.6581129E0,-1.5058878E1,-3.0859222E0,9.78992E0,-3.0623655E0,2.3647661E1,8.465395E0,-5.0995913E0,1.2282215E0,1.371076E1,2.851401E-1,-2.407041E0,-1.6764677E1,-4.7610583E0,-3.788121E-1],"categories":[],"categories_nodes":[],"categories_segments":[],"categories_sizes":[],"default_left":[0,0,0,0,0,0,0,0,0,0,0,0,0,0,0,0,0,0,0,0,0,0,0,0,0,0,0,0,0],"id":1,"left_children":[1,3,5,-1,-1,7,9,11,-1,13,15,17,19,21,23,25,27,-1,-1,-1,-1,-1,-1,-1,-1,-1,-1,-1,-1],"loss_changes":[3.7613333E3,3.3296387E3,2.2944177E3,0E0,0E0,1.7093501E3,1.2156334E3,4.926709E2,0E0,6.837058E2,3.0726257E2,2.0653864E2,7.1927E1,8.923069E2,1.6176503E3,1.1052551E2,2.0818947E1,0E0,0E0,0E0,0E0,0E0,0E0,0E0,0E0,0E0,0E0,0E0,0E0],"parents":[2147483647,0,0,1,1,2,2,5,5,6,6,7,7,9,9,10,10,11,11,12,12,13,13,14,14,15,15,16,16],"right_children":[2,4,6,-1,-1,8,10,12,-1,14,16,18,20,22,24,26,28,-1,-1,-1,-1,-1,-1,-1,-1,-1,-1,-1,-1],"split_conditions":[-8.2388E1,-1.31E0,-9.1E-1,6.110036E0,-5.923196E1,5.5E0,1.21E0,-1.43E0,-8.8717165E0,1E-2,7.3E-1,6.5E-1,2.5E0,3.2E0,3E-2,-2.12E0,1.47E0,9.78992E0,-3.0623655E0,2.3647661E1,8.465395E0,-5.0995913E0,1.2282215E0,1.371076E1,2.851401E-1,-2.407041E0,-1.6764677E1,-4.7610583E0,-3.788121E-1],"split_indices":[8,0,1,0,0,2,1,1,0,1,0,0,2,3,1,0,1,0,0,0,0,0,0,0,0,0,0,0,0],"split_type":[0,0,0,0,0,0,0,0,0,0,0,0,0,0,0,0,0,0,0,0,0,0,0,0,0,0,0,0,0],"sum_hessian":[2.15E2,2E0,2.13E2,1E0,1E0,1.8E1,1.95E2,1.5E1,3E0,1.85E2,1E1,8E0,7E0,8.8E1,9.7E1,6E0,4E0,7E0,1E0,5E0,2E0,4.7E1,4.1E1,9E0,8.8E1,1E0,5E0,2E0,2E0],"tree_param":{"num_deleted":"0","num_feature":"9","num_nodes":"29","size_leaf_vector":"1"}},{"base_weights":[-1.7287096E-1,-1.7703976E1,7.365326E-2,3.0550165E0,-2.961598E1,5.35487E0,-6.2157863E-1,3.556289E0,1.3905847E1,-1.512962E0,1.904354E0,3.1711888E-1,6.228338E0,-5.914987E-1,-9.828987E0,-2.9613261E0,5.530237E0,4.569162E0,-3.9861107E0,9.6041405E-1,9.8525095E0,-2.1780019E0,2.0105782E0,-1.0647165E0,-1.8439726E1,2.2416258E0,-5.539479E0,8.262305E0,-2.6729808E0],"categories":[],"categories_nodes":[],"categories_segments":[],"categories_sizes":[],"default_left":[0,0,0,0,0,0,0,0,0,0,0,0,0,0,0,0,0,0,0,0,0,0,0,0,0,0,0,0,0],"id":2,"left_children":[1,3,5,-1,-1,7,9,11,-1,13,15,17,19,21,23,25,27,-1,-1,-1,-1,-1,-1,-1,-1,-1,-1,-1,-1],"loss_changes":[9.349981E2,8.325864E2,7.891133E2,0E0,0E0,3.3486273E2,4.3067642E2,1.8837424E2,0E0,1.0745526E3,8.985218E2,2.1949173E2,2.1953171E2,5.327908E2,1.0367076E3,3.0755847E2,6.720817E2,0E0,0E0,0E0,0E0,0E0,0E0,0E0,0E0,0E0,0E0,0E0,0E0],"parents":[2147483647,0,0,1,1,2,2,5,5,6,6,7,7,9,9,10,10,11,11,12,12,13,13,14,14,15,15,16,16],"right_children":[2,4,6,-1,-1,8,10,12,-1,14,16,18,20,22,24,26,28,-1,-1,-1,-1,-1,-1,-1,-1,-1,-1,-1,-1],"split_conditions":[-8.2388E1,-1.31E0,-5E-1,3.0550165E0,-2.961598E1,-9E-1,4.2E-1,1.2621561E0,1.3905847E1,2.8E-1,8.668E0,2.993E0,-4.2E0,1.6514E1,4.499E0,-3.163E0,1.324E1,4.569162E0,-3.9861107E0,9.6041405E-1,9.8525095E0,-2.1780019E0,2.0105782E0,-1.0647165E0,-1.8439726E1,2.2416258E0,-5.539479E0,8.262305E0,-2.6729808E0],"split_indices":[8,0,2,0,0,2,0,7,0,0,4,8,2,5,4,4,8,0,0,0,0,0,0,0,0,0,0,0,0],"split_type":[0,0,0,0,0,0,0,0,0,0,0,0,0,0,0,0,0,0,0,0,0,0,0,0,0,0,0,0,0],"sum_hessian":[2.15E2,2E0,2.13E2,1E0,1E0,2.4E1,1.89E2,2.1E1,3E0,1.4E2,4.9E1,1E1,1.1E1,1.27E2,1.3E1,2.1E1,2.8E1,5E0,5E0,5E0,6E0,7.9E1,4.8E1,7E0,6E0,7E0,1.4E1,2.1E1,7E0],"tree_param":{"num_deleted":"0","num_feature":"9","num_nodes":"29","size_leaf_vector":"1"}},{"base_weights":[-8.620159E-2,2.8035588E0,-7.998998E-1,1.9506508E0,1.3522116E1,-9.365805E0,-3.306044E-1,3.2609837E0,-1.4869024E0,3.2911432E0,-2.0151592E1,3.2033908E0,-9.799893E-1,4.6610465E0,-1.1705701E0,-6.2062545E0,4.265159E0,5.439931E0,-2.6470041E0,-2.4565994E1,-9.016659E0,4.4745193E0,-3.0282538E0,1.5268023E0,-1.9535351E0,5.640194E0,6.0768584E-3,-7.267496E0,3.9390845E0,-7.503276E0,7.829362E-1,1.3522477E0,9.409858E0,1.5275089E0,6.231569E0,3.4209685E0,8.357757E0,1.0993028E-1,-5.160353E0,-2.0325918E0,5.568374E0,-4.0471225E0,5.8217727E-2],"categories":[],"categories_nodes":[],"categories_segments":[],"categories_sizes":[],"default_left":[0,0,0,0,0,0,0,0,0,0,0,0,0,0,0,0,0,0,0,0,0,0,0,0,0,0,0,0,0,0,0,0,0,0,0,0,0,0,0,0,0,0,0],"id":3,"left_children":[1,3,5,7,-1,9,11,13,15,17,19,21,23,25,27,29,31,33,-1,-1,-1,35,37,39,41,-1,-1,-1,-1,-1,-1,-1,-1,-1,-1,-1,-1,-1,-1,-1,-1,-1,-1],"loss_changes":[4.477046E2,3.6657193E2,6.9627625E2,1.8954442E2,0E0,1.2951267E3,3.8407428E2,1.916246E2,3.522421E2,7.822655E1,2.3931519E1,2.1951624E2,3.4709412E2,1.0474103E2,2.7788605E2,6.9397705E1,7.7084236E1,2.792511E0,0E0,0E0,0E0,6.1296722E1,3.4072388E1,5.867755E2,4.2987708E2,0E0,0E0,0E0,0E0,0E0,0E0,0E0,0E0,0E0,0E0,0E0,0E0,0E0,0E0,0E0,0E0,0E0,0E0],"parents":[2147483647,0,0,1,1,2,2,3,3,5,5,6,6,7,7,8,8,9,9,10,10,11,11,12,12,13,13,14,14,15,15,16,16,17,17,21,21,22,22,23,23,24,24],"right_children":[2,4,6,8,-1,10,12,14,16,18,20,22,24,26,28,30,32,34,-1,-1,-1,36,38,40,42,-1,-1,-1,-1,-1,-1,-1,-1,-1,-1,-1,-1,-1,-1,-1,-1,-1,-1],"split_conditions":[9E-1,2.7103E1,-2.1961E1,3.3E0,1.3522116E1,1.6E0,9.851294E-1,3.0507E1,1.0743E1,2.6E-1,-1.5E-1,8.2E0,-7E-2,2.9E-1,-1.2E0,7E-1,-8E-2,-1.31E0,-2.6470041E0,-2.4565994E1,-9.016659E0,9.7723305E-1,4E-1,3.3E0,2.5E-1,5.640194E0,6.0768584E-3,-7.267496E0,3.9390845E0,-7.503276E0,7.829362E-1,1.3522477E0,9.409858E0,1.5275089E0,6.231569E0,3.4209685E0,8.357757E0,1.0993028E-1,-5.160353E0,-2.0325918E0,5.568374E0,-4.0471225E0,5.8217727E-2],"split_indices":[3,5,8,2,0,2,6,8,8,0,0,3,0,0,0,3,0,0,0,0,0,6,2,3,0,0,0,0,0,0,0,0,0,0,0,0,0,0,0,0,0,0,0],"split_type":[0,0,0,0,0,0,0,0,0,0,0,0,0,0,0,0,0,0,0,0,0,0,0,0,0,0,0,0,0,0,0,0,0,0,0,0,0,0,0,0,0,0,0],"sum_hessian":[2.15E2,4.2E1,1.73E2,4E1,2E0,8E0,1.65E2,2.9E1,1.1E1,4E0,4E0,2.5E1,1.4E2,2.2E1,7E0,6E0,5E0,3E0,1E0,2E0,2E0,2.1E1,4E0,3.9E1,1.01E2,1.8E1,4E0,3E0,4E0,5E0,1E0,4E0,1E0,1E0,2E0,1.8E1,3E0,2E0,2E0,2.1E1,1.8E1,4.9E1,5.2E1],"tree_param":{"num_deleted":"0","num_feature":"9","num_nodes":"43","size_leaf_vector":"1"}},{"base_weights":[-1.03871785E-2,-3.8320002E-1,3.1342251E0,-6.723901E-1,1.0680662E1,1.3877441E1,8.2837045E-1,-5.3524035E-1,-1.3291844E1,-4.373695E0,1.5540175E1,2.89343E0,-2.0159724E0,-5.038857E0,-3.3428335E-1,4.581985E0,-1.6266761E0,1.9192717E0,-4.3051395E0,-1.5591044E0,-1.031541E1,2.3163119E-1,-2.0625484E0,5.1351256E0,7.343053E-2,-3.453118E0,1.9213248E0,7.274034E-1,2.7424383E0,-5.064421E0,-2.4936545E-1],"categories":[],"categories_nodes":[],"categories_segments":[],"categories_sizes":[],"default_left":[0,0,0,0,0,0,0,0,0,0,0,0,0,0,0,0,0,0,0,0,0,0,0,0,0,0,0,0,0,0,0],"id":4,"left_children":[1,3,5,7,9,-1,11,13,-1,-1,-1,15,17,19,21,23,25,27,29,-1,-1,-1,-1,-1,-1,-1,-1,-1,-1,-1,-1],"loss_changes":[2.5440154E2,6.277959E2,5.5812E2,3.215908E2,4.338639E2,0E0,1.2331659E2,1.6931317E2,0E0,0E0,0E0,9.9072334E1,8.936247E1,1.3068724E2,1.7850119E2,2.201561E1,3.257075E1,1.8948679E0,1.716082E1,0E0,0E0,0E0,0E0,0E0,0E0,0E0,0E0,0E0,0E0,0E0,0E0],"parents":[2147483647,0,0,1,1,2,2,3,3,4,4,6,6,7,7,11,11,12,12,13,13,14,14,15,15,16,16,17,17,18,18],"right_children":[2,4,6,8,10,-1,12,14,-1,-1,-1,16,18,20,22,24,26,28,30,-1,-1,-1,-1,-1,-1,-1,-1,-1,-1,-1,-1],"split_conditions":[4.2072E1,5.6663E1,4.616E1,5.2941E1,1E-2,1.3877441E1,5.3413E1,-1.72E0,-1.3291844E1,-4.373695E0,1.5540175E1,1.2807505E0,1E-2,1.9E0,1.7633E1,4.8E0,2.7E0,-1E-2,3.9E-1,-1.5591044E0,-1.031541E1,2.3163119E-1,-2.0625484E0,5.1351256E0,7.343053E-2,-3.453118E0,1.9213248E0,7.274034E-1,2.7424383E0,-5.064421E0,-2.4936545E-1],"split_indices":[4,5,4,5,1,0,5,0,0,0,0,7,0,3,4,2,2,1,1,0,0,0,0,0,0,0,0,0,0,0,0],"split_type":[0,0,0,0,0,0,0,0,0,0,0,0,0,0,0,0,0,0,0,0,0,0,0,0,0,0,0,0,0,0,0],"sum_hessian":[2.15E2,1.93E2,2.2E1,1.89E2,4E0,3E0,1.9E1,1.88E2,1E0,1E0,3E0,1.1E1,8E0,7E0,1.81E2,8E0,3E0,3E0,5E0,5E0,2E0,1.37E2,4.4E1,7E0,1E0,2E0,1E0,2E0,1E0,4E0,1E0],"tree_param":{"num_deleted":"0","num_feature":"9","num_nodes":"31","size_leaf_vector":"1"}},{"base_weights":[-5.116363E-4,8.7408E-2,-9.456616E0,-1.0547749E0,9.3420976E-1,-2.7315757E0,4.081694E-1,-7.32941E-1,2.2309108E0,2.8866947E0,-3.5470507E0,1.410106E0,-3.2714334E0,9.040699E-1,-2.1275856E0,6.9226213E0,1.1406842E0,1.9590104E-1,3.3836732E0,-5.6306486E0,-1.1665765E0,-9.7214E-2,4.9361205E0,3.3267534E0,-5.1084476E0,-1.7589854E-1,2.1795247E0,-7.1212845E0,-5.820242E-1,-1.4062995E0,8.565725E0,3.7058825E0,-1.7397383E0],"categories":[],"categories_nodes":[],"categories_segments":[],"categories_sizes":[],"default_left":[0,0,0,0,0,0,0,0,0,0,0,0,0,0,0,0,0,0,0,0,0,0,0,0,0,0,0,0,0,0,0,0,0],"id":5,"left_children":[1,3,-1,5,7,9,11,13,15,17,19,21,23,25,27,29,31,-1,-1,-1,-1,-1,-1,-1,-1,-1,-1,-1,-1,-1,-1,-1,-1],"loss_changes":[1.8049777E2,2.089327E2,0E0,2.2682027E2,2.6971286E2,2.072529E2,1.8893088E2,1.2750339E2,3.500747E2,7.3249435E0,1.8184161E2,2.1312152E2,1.5034296E2,3.6217133E1,2.2732027E2,1.9002625E2,4.3502054E2,0E0,0E0,0E0,0E0,0E0,0E0,0E0,0E0,0E0,0E0,0E0,0E0,0E0,0E0,0E0,0E0],"parents":[2147483647,0,0,1,1,3,3,4,4,5,5,6,6,7,7,8,8,9,9,10,10,11,11,12,12,13,13,14,14,15,15,16,16],"right_children":[2,4,-1,6,8,10,12,14,16,18,20,22,24,26,28,30,32,-1,-1,-1,-1,-1,-1,-1,-1,-1,-1,-1,-1,-1,-1,-1,-1],"split_conditions":[1.64E1,2.7E0,-9.456616E0,1.2401968E0,1.0567E1,-1.7E0,2.1E0,2.9E0,1.324E1,-8.4109E1,3.6E0,1.2134E1,8.889E0,-4E-2,-8.07E-1,2.1E0,3.9E0,1.9590104E-1,3.3836732E0,-5.6306486E0,-1.1665765E0,-9.7214E-2,4.9361205E0,3.3267534E0,-5.1084476E0,-1.7589854E-1,2.1795247E0,-7.1212845E0,-5.820242E-1,-1.4062995E0,8.565725E0,3.7058825E0,-1.7397383E0],"split_indices":[2,2,0,6,4,3,2,3,4,5,3,5,5,0,4,3,3,0,0,0,0,0,0,0,0,0,0,0,0,0,0,0,0],"split_type":[0,0,0,0,0,0,0,0,0,0,0,0,0,0,0,0,0,0,0,0,0,0,0,0,0,0,0,0,0,0,0,0,0],"sum_hessian":[2.15E2,2.14E2,1E0,9.1E1,1.23E2,4.2E1,4.9E1,5.4E1,6.9E1,5E0,3.7E1,3.9E1,1E1,2.5E1,2.9E1,1.2E1,5.7E1,1E0,4E0,1.9E1,1.8E1,2.8E1,1.1E1,2E0,8E0,1.4E1,1.1E1,6E0,2.3E1,2E0,1E1,3E1,2.7E1],"tree_param":{"num_deleted":"0","num_feature":"9","num_nodes":"33","size_leaf_vector":"1"}},{"base_weights":[-2.8755432E-2,4.757358E-1,-2.011897E0,2.371818E-1,5.365015E0,-1.5892737E0,-7.254659E0,9.401256E-1,-1.0877846E0,1.765686E-2,8.567898E0,-1.9942495E0,2.7540584E0,-1.234439E0,-9.6425495E0,3.049076E-1,3.5869956E0,-4.6113863E0,-4.3158063E-1,7.0241904E-1,-1.0133148E0,9.41524E0,2.5842657E0,6.978432E-1,-2.6052647E0,1.8335736E-1,3.5465062E0,1.5895244E0,-2.1495214E0,5.843926E0,-8.09757E-1,-6.3600554E0,1.002638E0,-2.7439387E0,5.436124E-1,1.0319824E-2,1.0383087E0,-2.237543E0,2.9085836E0,-3.6358304E0,-1.1942351E0],"categories":[],"categories_nodes":[],"categories_segments":[],"categories_sizes":[],"default_left":[0,0,0,0,0,0,0,0,0,0,0,0,0,0,0,0,0,0,0,0,0,0,0,0,0,0,0,0,0,0,0,0,0,0,0,0,0,0,0,0,0],"id":6,"left_children":[1,3,5,7,9,11,13,15,17,19,21,23,25,-1,-1,27,29,31,33,35,-1,-1,-1,37,39,-1,-1,-1,-1,-1,-1,-1,-1,-1,-1,-1,-1,-1,-1,-1,-1],"loss_changes":[2.1707567E2,2.004513E2,8.587334E1,1.5562975E2,1.3677858E2,7.936033E1,3.111496E1,1.8213336E2,1.3206708E2,3.5325444E0,8.994446E-1,6.598862E1,7.461014E0,0E0,0E0,2.840282E2,2.1316898E2,9.478406E1,1.14263405E2,6.762055E-1,0E0,0E0,0E0,5.842981E1,4.2142746E1,0E0,0E0,0E0,0E0,0E0,0E0,0E0,0E0,0E0,0E0,0E0,0E0,0E0,0E0,0E0,0E0],"parents":[2147483647,0,0,1,1,2,2,3,3,4,4,5,5,6,6,7,7,8,8,9,9,10,10,11,11,12,12,15,15,16,16,17,17,18,18,19,19,23,23,24,24],"right_children":[2,4,6,8,10,12,14,16,18,20,22,24,26,-1,-1,28,30,32,34,36,-1,-1,-1,38,40,-1,-1,-1,-1,-1,-1,-1,-1,-1,-1,-1,-1,-1,-1,-1,-1],"split_conditions":[2.288027E0,2.2304456E0,2.6479E1,2.2E-1,3.4E0,2.2218E1,-6E-2,3.1684E1,3.5E-1,-3.67E0,6.5E-1,-7.4E-1,-5.1E-1,-1.234439E0,-9.6425495E0,8.889E0,4.4665E1,4.7E-1,1.0253248E0,-7.6E-1,-1.0133148E0,9.41524E0,2.5842657E0,-1.72E0,-4E-2,1.8335736E-1,3.5465062E0,1.5895244E0,-2.1495214E0,5.843926E0,-8.09757E-1,-6.3600554E0,1.002638E0,-2.7439387E0,5.436124E-1,1.0319824E-2,1.0383087E0,-2.237543E0,2.9085836E0,-3.6358304E0,-1.1942351E0],"split_indices":[7,7,4,0,3,4,0,5,0,4,0,0,0,0,0,5,4,1,7,0,0,0,0,0,1,0,0,0,0,0,0,0,0,0,0,0,0,0,0,0,0],"split_type":[0,0,0,0,0,0,0,0,0,0,0,0,0,0,0,0,0,0,0,0,0,0,0,0,0,0,0,0,0,0,0,0,0,0,0,0,0,0,0,0,0],"sum_hessian":[2.15E2,1.72E2,4.3E1,1.65E2,7E0,4.1E1,2E0,1.08E2,5.7E1,3E0,4E0,3.8E1,3E0,1E0,1E0,8.8E1,2E1,8E0,4.9E1,2E0,1E0,3E0,1E0,7E0,3.1E1,1E0,2E0,5.8E1,3E1,1.3E1,7E0,6E0,2E0,1.4E1,3.5E1,1E0,1E0,3E0,4E0,1.7E1,1.4E1],"tree_param":{"num_deleted":"0","num_feature":"9","num_nodes":"41","size_leaf_vector":"1"}},{"base_weights":[-1.0809772E-2,-3.9060467E-1,1.081115E0,-2.7280638E-1,-9.614166E0,-1.8527201E0,2.1999016E0,-1.4541868E0,1.0700218E-1,2.0762947E-1,-3.9402735E0,1.4628884E0,6.253664E0,-2.6014636E0,1.829633E-1,2.3247617E-1,-4.9442916E0,2.5210989E0,-2.1453657E0,-1.9766009E0,-4.7211566E0,2.2864914E0,-1.7042836E0,8.302278E0,1.4342914E0,-1.2274725E0,-5.0230126E0,-2.6503508E0,1.2593945E0,3.4954479E0,6.0125675E-2,2.8892963E0,5.191542E-1,-4.414947E-1,-3.1307817E0,1.11868784E-1,3.8143504E0,9.3286043E-1,-6.4138103E0],"categories":[],"categories_nodes":[],"categories_segments":[],"categories_sizes":[],"default_left":[0,0,0,0,0,0,0,0,0,0,0,0,0,0,0,0,0,0,0,0,0,0,0,0,0,0,0,0,0,0,0,0,0,0,0,0,0,0,0],"id":7,"left_children":[1,3,5,7,-1,9,11,13,15,17,19,21,23,25,27,29,-1,31,33,-1,-1,35,37,-1,-1,-1,-1,-1,-1,-1,-1,-1,-1,-1,-1,-1,-1,-1,-1],"loss_changes":[8.99922E1,1.7220804E2,1.8789008E2,7.196082E1,0E0,6.967288E1,1.1326915E2,7.3752464E1,7.842665E1,5.4404682E1,2.8683777E0,9.780839E1,4.7232925E1,7.0297195E1,5.5171684E1,6.723925E1,0E0,2.1514816E0,6.9771614E0,0E0,0E0,9.588701E1,1.053956E2,0E0,0E0,0E0,0E0,0E0,0E0,0E0,0E0,0E0,0E0,0E0,0E0,0E0,0E0,0E0,0E0],"parents":[2147483647,0,0,1,1,2,2,3,3,5,5,6,6,7,7,8,8,9,9,10,10,11,11,12,12,13,13,14,14,15,15,17,17,18,18,21,21,22,22],"right_children":[2,4,6,8,-1,10,12,14,16,18,20,22,24,26,28,30,-1,32,34,-1,-1,36,38,-1,-1,-1,-1,-1,-1,-1,-1,-1,-1,-1,-1,-1,-1,-1,-1],"split_conditions":[4.9E0,4.8E0,2.5E0,1.1152195E0,-9.614166E0,6.6E0,8.6E0,2.598E0,2.5592296E0,5.913E0,1.0253248E0,2.1062796E0,2.8E-1,1.001517E0,1.5E0,1.1380324E0,-4.9442916E0,-2E-2,-6E-2,-1.9766009E0,-4.7211566E0,2.847E0,2.1165E1,8.302278E0,1.4342914E0,-1.2274725E0,-5.0230126E0,-2.6503508E0,1.2593945E0,3.4954479E0,6.0125675E-2,2.8892963E0,5.191542E-1,-4.414947E-1,-3.1307817E0,1.11868784E-1,3.8143504E0,9.3286043E-1,-6.4138103E0],"split_indices":[2,2,3,7,0,2,3,5,7,4,6,7,0,6,3,7,0,1,0,0,0,8,4,0,0,0,0,0,0,0,0,0,0,0,0,0,0,0,0],"split_type":[0,0,0,0,0,0,0,0,0,0,0,0,0,0,0,0,0,0,0,0,0,0,0,0,0,0,0,0,0,0,0,0,0,0,0,0,0,0,0],"sum_hessian":[2.15E2,1.6E2,5.5E1,1.59E2,1E0,1.5E1,4E1,3.8E1,1.21E2,8E0,7E0,3.5E1,5E0,2.2E1,1.6E1,1.19E2,2E0,4E0,4E0,3E0,4E0,2.8E1,7E0,3E0,2E0,1.5E1,7E0,4E0,1.2E1,5E0,1.14E2,3E0,1E0,2E0,2E0,1.2E1,1.6E1,5E0,2E0],"tree_param":{"num_deleted":"0","num_feature":"9","num_nodes":"39","size_leaf_vector":"1"}},{"base_weights":[-8.015782E-2,8.560454E-2,-1.475277E0,8.734338E-1,-1.2463315E-1,-4.6989884E0,-6.0497086E-2,8.29462E-2,2.5688727E0,-1.3307437E0,1.421836E-1,-1.1153669E0,-7.105363E0,-8.960462E-1,2.12203E0,-1.4919937E0,5.5910414E-1,3.1006815E0,5.946328E-1,-2.1624703E0,-5.711693E-1,1.2360966E0,-1.9403653E-1,-7.3321454E-2,-1.4349416E0,-1.8644581E0,1.0243043E0,-4.7251105E-1,4.0125613E0,-1.9533556E0,-6.551333E-1,-3.8315952E-1,1.0878555E0,6.5087044E-1,3.2994528E0,9.463344E-1,-2.2523606E-1,4.4750226E-1,-2.4180932E0,-1.913042E-1,-3.1295729E0,5.7616806E-1,3.778116E0,-3.2762704E0,4.248167E-2,-2.4605036E0,-5.017751E-1,1.6628852E0,-7.600099E-1,-9.2382066E-2,-6.113845E-1],"categories":[],"categories_nodes":[],"categories_segments":[],"categories_sizes":[],"default_left":[0,0,0,0,0,0,0,0,0,0,0,0,0,0,0,0,0,0,0,0,0,0,0,0,0,0,0,0,0,0,0,0,0,0,0,0,0,0,0,0,0,0,0,0,0,0,0,0,0,0,0],"id":8,"left_children":[1,3,5,7,9,11,13,15,17,19,21,23,-1,25,27,29,31,33,35,37,39,41,43,-1,-1,45,47,49,-1,-1,-1,-1,-1,-1,-1,-1,-1,-1,-1,-1,-1,-1,-1,-1,-1,-1,-1,-1,-1,-1,-1],"loss_changes":[5.009196E1,3.224884E1,1.04567505E2,5.470957E1,4.975991E1,5.2357452E1,3.2890526E1,2.2572535E1,1.1768211E1,1.6426758E1,4.6960308E1,1.211751E0,0E0,2.6094145E1,2.6456682E1,1.3968754E0,1.1882999E1,2.6825027E0,1.3737564E0,9.775009E0,1.4917663E1,4.810615E1,7.1613945E1,0E0,0E0,6.0457497E0,6.9699826E0,9.48509E-2,0E0,0E0,0E0,0E0,0E0,0E0,0E0,0E0,0E0,0E0,0E0,0E0,0E0,0E0,0E0,0E0,0E0,0E0,0E0,0E0,0E0,0E0,0E0],"parents":[2147483647,0,0,1,1,2,2,3,3,4,4,5,5,6,6,7,7,8,8,9,9,10,10,11,11,13,13,14,14,15,15,16,16,17,17,18,18,19,19,20,20,21,21,22,22,25,25,26,26,27,27],"right_children":[2,4,6,8,10,12,14,16,18,20,22,24,-1,26,28,30,32,34,36,38,40,42,44,-1,-1,46,48,50,-1,-1,-1,-1,-1,-1,-1,-1,-1,-1,-1,-1,-1,-1,-1,-1,-1,-1,-1,-1,-1,-1,-1],"split_conditions":[4.2072E1,-3.103E0,2.8244E1,-6.039E0,2.109E0,2.8546E1,7.7229E1,-3.4E0,2.2192752E0,1.4E0,-2.2E-1,3E-2,-7.105363E0,1.2637594E0,-1E-2,-8.3E-1,1.2108734E0,-2.36E0,-3.05E0,-2.6313E1,1.6939E1,1.8196E1,-1.5E-1,-7.3321454E-2,-1.4349416E0,5.6663E1,3.9E0,-3E-2,4.0125613E0,-1.9533556E0,-6.551333E-1,-3.8315952E-1,1.0878555E0,6.5087044E-1,3.2994528E0,9.463344E-1,-2.2523606E-1,4.4750226E-1,-2.4180932E0,-1.913042E-1,-3.1295729E0,5.7616806E-1,3.778116E0,-3.2762704E0,4.248167E-2,-2.4605036E0,-5.017751E-1,1.6628852E0,-7.600099E-1,-9.2382066E-2,-6.113845E-1],"split_indices":[5,5,4,5,5,8,5,3,7,2,0,1,0,7,1,0,7,0,0,8,8,4,0,0,0,5,2,0,0,0,0,0,0,0,0,0,0,0,0,0,0,0,0,0,0,0,0,0,0,0,0],"split_type":[0,0,0,0,0,0,0,0,0,0,0,0,0,0,0,0,0,0,0,0,0,0,0,0,0,0,0,0,0,0,0,0,0,0,0,0,0,0,0,0,0,0,0,0,0,0,0,0,0,0,0],"sum_hessian":[2.15E2,1.93E2,2.2E1,4E1,1.53E2,6E0,1.6E1,2.8E1,1.2E1,2.7E1,1.26E2,3E0,3E0,1.2E1,4E0,6E0,2.2E1,9E0,3E0,1.2E1,1.5E1,2.9E1,9.7E1,1E0,2E0,8E0,4E0,2E0,2E0,3E0,3E0,8E0,1.4E1,1E0,8E0,2E0,1E0,1E0,1.1E1,1.4E1,1E0,2.4E1,5E0,6E0,9.1E1,5E0,3E0,3E0,1E0,1E0,1E0],"tree_param":{"num_deleted":"0","num_feature":"9","num_nodes":"51","size_leaf_vector":"1"}},{"base_weights":[-4.0822145E-2,1.8600324E-1,-7.2492796E-1,-1.4532524E-1,8.39436E-1,-2.0491055E-1,-1.9465375E0,3.4612903E-1,-1.1112938E0,2.5365095E0,1.3205498E-2,5.092062E-2,-3.2951915E0,1.5030638E0,-3.2224932E0,-5.094031E-1,6.7877144E-1,-2.098719E0,-6.485319E-2,9.249606E-1,4.9353776E0,-1.0983506E0,1.1830958E0,-6.6095597E-1,7.606435E-1,-3.6879885E-1,2.0657291E0,-4.114573E0,8.219375E-1,-1.4280161E0,-4.6090204E-2,8.394471E-1,-2.2756386E0,-4.1252136E0,-2.4897596E-1,-6.9998175E-1,1.851503E0,3.1363828E0,-1.1012528E0,-3.670692E-2,6.9335527E0,-1.3962382E-1,-3.3104424E0,1.7329875E0,-5.7166545E-3,1.5342141E0,-1.0100473E0,-1.6714996E0,1.1456897E0,-2.3736918E-1,1.4752754E0],"categories":[],"categories_nodes":[],"categories_segments":[],"categories_sizes":[],"default_left":[0,0,0,0,0,0,0,0,0,0,0,0,0,0,0,0,0,0,0,0,0,0,0,0,0,0,0,0,0,0,0,0,0,0,0,0,0,0,0,0,0,0,0,0,0,0,0,0,0,0,0],"id":9,"left_children":[1,3,5,7,9,11,13,15,17,19,21,23,-1,25,27,29,31,33,35,37,39,41,43,45,47,-1,-1,-1,49,-1,-1,-1,-1,-1,-1,-1,-1,-1,-1,-1,-1,-1,-1,-1,-1,-1,-1,-1,-1,-1,-1],"loss_changes":[3.3657505E1,3.541858E1,3.3883568E1,5.2137802E1,7.706057E1,3.103325E1,7.528543E1,2.1122257E1,3.807368E1,6.496245E1,5.0715454E1,1.9197447E1,0E0,6.0449705E0,4.671031E1,8.857151E0,2.7055109E1,7.015059E1,2.441002E1,5.7244057E1,6.9869156E1,4.1919113E1,1.24478245E1,1.6104374E1,1.9703026E1,0E0,0E0,0E0,2.4388192E0,0E0,0E0,0E0,0E0,0E0,0E0,0E0,0E0,0E0,0E0,0E0,0E0,0E0,0E0,0E0,0E0,0E0,0E0,0E0,0E0,0E0,0E0],"parents":[2147483647,0,0,1,1,2,2,3,3,4,4,5,5,6,6,7,7,8,8,9,9,10,10,11,11,13,13,14,14,15,15,16,16,17,17,18,18,19,19,20,20,21,21,22,22,23,23,24,24,28,28],"right_children":[2,4,6,8,10,12,14,16,18,20,22,24,-1,26,28,30,32,34,36,38,40,42,44,46,48,-1,-1,-1,50,-1,-1,-1,-1,-1,-1,-1,-1,-1,-1,-1,-1,-1,-1,-1,-1,-1,-1,-1,-1,-1,-1],"split_conditions":[5.1E0,3.2E0,1.324E1,1.2578E1,3.7E0,1.21E0,-2.2E-1,-6.4E-1,1.3778216E0,5E-2,4.2E0,3.9E-1,-3.2951915E0,-5.7E-1,2.3465936E0,1.2004002E0,9.4E0,2.7103E1,3.1294E1,-7E-2,9.947257E-1,2.2707646E0,5E-2,-1.0841E1,2E-1,-3.6879885E-1,2.0657291E0,-4.114573E0,9.1E-1,-1.4280161E0,-4.6090204E-2,8.394471E-1,-2.2756386E0,-4.1252136E0,-2.4897596E-1,-6.9998175E-1,1.851503E0,3.1363828E0,-1.1012528E0,-3.670692E-2,6.9335527E0,-1.3962382E-1,-3.3104424E0,1.7329875E0,-5.7166545E-3,1.5342141E0,-1.0100473E0,-1.6714996E0,1.1456897E0,-2.3736918E-1,1.4752754E0],"split_indices":[3,3,8,4,3,1,1,0,7,1,3,1,0,0,6,7,2,4,8,0,6,6,1,8,2,0,0,0,0,0,0,0,0,0,0,0,0,0,0,0,0,0,0,0,0,0,0,0,0,0,0],"split_type":[0,0,0,0,0,0,0,0,0,0,0,0,0,0,0,0,0,0,0,0,0,0,0,0,0,0,0,0,0,0,0,0,0,0,0,0,0,0,0,0,0,0,0,0,0,0,0,0,0,0,0],"sum_hessian":[2.15E2,1.62E2,5.3E1,1.08E2,5.4E1,3.8E1,1.5E1,7.2E1,3.6E1,1.7E1,3.7E1,3.6E1,2E0,4E0,1.1E1,2E1,5.2E1,1.8E1,1.8E1,1.1E1,6E0,1.9E1,1.8E1,1.8E1,1.8E1,1E0,3E0,9E0,2E0,6E0,1.4E1,5E1,2E0,8E0,1E1,1.4E1,4E0,5E0,6E0,2E0,4E0,1.4E1,5E0,1.2E1,6E0,2E0,1.6E1,2E0,1.6E1,1E0,1E0],"tree_param":{"num_deleted":"0","num_feature":"9","num_nodes":"51","size_leaf_vector":"1"}},{"base_weights":[-1.606641E-2,-8.802658E-2,1.4741158E0,5.4324525E-3,-8.363699E-1,2.1012707E0,5.5660284E-3,-1.0171324E-1,1.0057126E0,-2.2465324E-2,-1.3572752E0,3.058884E0,6.1583966E-1,3.847741E-1,-5.610291E-1,-3.3282134E-1,2.8859106E-1,1.1498467E0,-7.172829E-1,5.901154E-1,-7.5506914E-1,-2.7032716E0,-7.4352425E-1,4.9580556E-1,7.635557E-2,2.0249678E-2,-6.14594E-1,5.5792385E-1,-1.1936653E0,1.3281497E0,-1.21617235E-1,9.629223E-1,-1.0033218E-1,-5.4494496E-2,-9.140892E-1,-1.1281934E0,2.0919508E-1],"categories":[],"categories_nodes":[],"categories_segments":[],"categories_sizes":[],"default_left":[0,0,0,0,0,0,0,0,0,0,0,0,0,0,0,0,0,0,0,0,0,0,0,0,0,0,0,0,0,0,0,0,0,0,0,0,0],"id":10,"left_children":[1,3,5,7,9,11,13,15,17,19,21,-1,-1,23,-1,25,27,29,-1,31,33,-1,35,-1,-1,-1,-1,-1,-1,-1,-1,-1,-1,-1,-1,-1,-1],"loss_changes":[2.3278397E1,1.4490317E1,9.177317E0,1.9938845E1,9.706957E0,8.036751E0,1.0735366E0,1.5250509E1,5.2992516E0,4.9350176E0,9.521076E0,0E0,0E0,5.915332E-2,0E0,1.0563877E1,2.5810493E1,4.02759E0,0E0,1.6496596E0,4.975283E-1,0E0,4.276502E0,0E0,0E0,0E0,0E0,0E0,0E0,0E0,0E0,0E0,0E0,0E0,0E0,0E0,0E0],"parents":[2147483647,0,0,1,1,2,2,3,3,4,4,5,5,6,6,7,7,8,8,9,9,10,10,13,13,15,15,16,16,17,17,19,19,20,20,22,22],"right_children":[2,4,6,8,10,12,14,16,18,20,22,-1,-1,24,-1,26,28,30,-1,32,34,-1,36,-1,-1,-1,-1,-1,-1,-1,-1,-1,-1,-1,-1,-1,-1],"split_conditions":[1.28E0,6.8E-1,1.8670453E0,6.4E-1,5.287E0,4.5E0,2.74E0,1.8372E1,2.4734585E0,3.2E0,8E-1,3.058884E0,6.1583966E-1,1.76E0,-5.610291E-1,1.1664811E0,2.2E-1,3.0507E1,-7.172829E-1,3.327E0,-2.1E0,-2.7032716E0,9.1E-1,4.9580556E-1,7.635557E-2,2.0249678E-2,-6.14594E-1,5.5792385E-1,-1.1936653E0,1.3281497E0,-1.21617235E-1,9.629223E-1,-1.0033218E-1,-5.4494496E-2,-9.140892E-1,-1.1281934E0,2.0919508E-1],"split_indices":[0,1,6,0,5,3,0,8,7,2,2,0,0,0,0,6,0,5,0,4,3,0,1,0,0,0,0,0,0,0,0,0,0,0,0,0,0],"split_type":[0,0,0,0,0,0,0,0,0,0,0,0,0,0,0,0,0,0,0,0,0,0,0,0,0,0,0,0,0,0,0,0,0,0,0,0,0],"sum_hessian":[2.15E2,2.06E2,9E0,1.84E2,2.2E1,6E0,3E0,1.67E2,1.7E1,9E0,1.3E1,3E0,3E0,2E0,1E0,1.05E2,6.2E1,1.6E1,1E0,5E0,4E0,3E0,1E1,1E0,1E0,4.7E1,5.8E1,5.3E1,9E0,1.4E1,2E0,3E0,2E0,1E0,3E0,7E0,3E0],"tree_param":{"num_deleted":"0","num_feature":"9","num_nodes":"37","size_leaf_vector":"1"}},{"base_weights":[-3.6260989E-3,7.515861E-1,-6.3774206E-2,1.8929117E0,5.9809793E-2,-4.3996194E-1,1.0320733E-1,5.476047E-1,2.050452E0,-1.558419E0,5.93685E-1,-9.945279E-1,-1.3141532E-1,-9.0219164E-1,1.8756257E-1,-3.3186448E-1,-2.000764E0,9.0631396E-1,-2.1179734E-2,1.3146389E-3,-1.4600086E0,-7.290928E-1,3.6759716E-1,1.5454528E-1,-2.2031848E0,4.623227E-1,-4.0054243E-2,3.329783E-1,1.3653234E0,1.9342339E-1,-1.605219E-1,-3.671775E-1,2.9784542E-1,-1.6781621E0,-4.3804628E-1,8.427567E-1,-9.6417844E-1,-4.89934E-1,7.740129E-1,8.6762136E-1,-5.9466714E-1,-1.1158888E-1,9.5036024E-1,2.2526844E-1,-1.1560531E0],"categories":[],"categories_nodes":[],"categories_segments":[],"categories_sizes":[],"default_left":[0,0,0,0,0,0,0,0,0,0,0,0,0,0,0,0,0,0,0,0,0,0,0,0,0,0,0,0,0,0,0,0,0,0,0,0,0,0,0,0,0,0,0,0,0],"id":11,"left_children":[1,3,5,7,9,11,13,-1,-1,15,17,19,21,23,25,-1,-1,27,29,31,33,35,37,39,-1,41,43,-1,-1,-1,-1,-1,-1,-1,-1,-1,-1,-1,-1,-1,-1,-1,-1,-1,-1],"loss_changes":[9.852764E0,1.2499929E1,1.2674872E1,1.2282181E-1,1.0418817E1,1.046683E1,1.2035564E1,0E0,0E0,9.40372E-1,1.7580676E0,1.0214506E1,1.2499817E1,1.5483863E1,8.152944E0,0E0,0E0,1.1073933E0,1.5033273E-1,9.8282284E-1,2.5878963E0,7.834647E0,8.3978815E0,4.258394E0,0E0,1.6639772E1,2.1588917E1,0E0,0E0,0E0,0E0,0E0,0E0,0E0,0E0,0E0,0E0,0E0,0E0,0E0,0E0,0E0,0E0,0E0,0E0],"parents":[2147483647,0,0,1,1,2,2,3,3,4,4,5,5,6,6,9,9,10,10,11,11,12,12,13,13,14,14,17,17,18,18,19,19,20,20,21,21,22,22,23,23,25,25,26,26],"right_children":[2,4,6,8,10,12,14,-1,-1,16,18,20,22,24,26,-1,-1,28,30,32,34,36,38,40,-1,42,44,-1,-1,-1,-1,-1,-1,-1,-1,-1,-1,-1,-1,-1,-1,-1,-1,-1,-1],"split_conditions":[-1.9148E1,-2.992E0,1.65E0,-2.2501E1,-1.5E-1,2.941E0,7E-1,5.476047E-1,2.050452E0,-1.31E0,1.6E0,4E-1,-3E-1,1.3312E1,3.8E0,-3.3186448E-1,-2.000764E0,1.2E-1,2.4E-1,-3.67E0,5.5E-1,-4.8E0,4E-1,2.2E0,-2.2031848E0,1.2139E1,3.2875E1,3.329783E-1,1.3653234E0,1.9342339E-1,-1.605219E-1,-3.671775E-1,2.9784542E-1,-1.6781621E0,-4.3804628E-1,8.427567E-1,-9.6417844E-1,-4.89934E-1,7.740129E-1,8.6762136E-1,-5.9466714E-1,-1.1158888E-1,9.5036024E-1,2.2526844E-1,-1.1560531E0],"split_indices":[8,4,4,4,0,8,2,0,0,0,3,2,1,4,3,0,0,0,1,8,0,2,2,3,0,5,5,0,0,0,0,0,0,0,0,0,0,0,0,0,0,0,0,0,0],"split_type":[0,0,0,0,0,0,0,0,0,0,0,0,0,0,0,0,0,0,0,0,0,0,0,0,0,0,0,0,0,0,0,0,0,0,0,0,0,0,0,0,0,0,0,0,0],"sum_hessian":[2.15E2,1.5E1,2E2,5E0,1E1,6.1E1,1.39E2,1E0,4E0,2E0,8E0,2.1E1,4E1,1E1,1.29E2,1E0,1E0,5E0,3E0,7E0,1.4E1,1.8E1,2.2E1,6E0,4E0,5.8E1,7.1E1,3E0,2E0,1E0,2E0,3E0,4E0,1.1E1,3E0,2E0,1.6E1,7E0,1.5E1,3E0,3E0,2.7E1,3.1E1,5.8E1,1.3E1],"tree_param":{"num_deleted":"0","num_feature":"9","num_nodes":"45","size_leaf_vector":"1"}},{"base_weights":[-9.483823E-3,4.6102953E-1,-5.2045412E-2,8.3453244E-1,-1.0891563E-1,-2.463985E-1,1.277617E-1,5.059306E-1,1.5388271E0,4.7462082E-1,-5.5596167E-1,-1.1890913E-1,-1.050453E0,8.228637E-1,-7.9648286E-2,-1.1117427E-3,6.5238726E-1,-6.2692267E-1,-1.3105881E-1,-5.0702E-1,5.3968713E-2,-2.6451154E0,-5.1914024E-1,1.9721071E-1,1.8425953E0,-2.5021288E-1,2.5178516E-1,-1.18653886E-1,1.1198627E-1,7.7894866E-1,-4.849064E-2,2.3810987E-1,-9.882331E-1,-3.4948525E-1,5.7987124E-1,-2.0583472E0,5.0499834E-2,6.875129E-1,-2.5941464E-1,2.3665323E0,2.5438436E-3,-1.2411122E-1,-9.585335E-1,-1.5625966E-1,8.096999E-1],"categories":[],"categories_nodes":[],"categories_segments":[],"categories_sizes":[],"default_left":[0,0,0,0,0,0,0,0,0,0,0,0,0,0,0,0,0,0,0,0,0,0,0,0,0,0,0,0,0,0,0,0,0,0,0,0,0,0,0,0,0,0,0,0,0],"id":12,"left_children":[1,3,5,7,9,11,13,15,-1,-1,17,19,21,23,25,27,29,-1,-1,31,33,-1,35,37,39,41,43,-1,-1,-1,-1,-1,-1,-1,-1,-1,-1,-1,-1,-1,-1,-1,-1,-1,-1],"loss_changes":[4.3454766E0,3.9299214E0,6.986934E0,1.7467694E0,2.3516257E0,9.704204E0,1.5066767E1,6.755755E-1,0E0,0E0,6.1014056E-2,5.6679387E0,9.609609E0,1.4928177E1,4.64198E0,5.3235635E-2,6.660049E-1,0E0,0E0,9.565531E0,1.272343E1,0E0,9.768759E0,3.7647824E0,8.646929E0,4.693511E0,6.5073757E0,0E0,0E0,0E0,0E0,0E0,0E0,0E0,0E0,0E0,0E0,0E0,0E0,0E0,0E0,0E0,0E0,0E0,0E0],"parents":[2147483647,0,0,1,1,2,2,3,3,4,4,5,5,6,6,7,7,10,10,11,11,12,12,13,13,14,14,15,15,16,16,19,19,20,20,22,22,23,23,24,24,25,25,26,26],"right_children":[2,4,6,8,10,12,14,16,-1,-1,18,20,22,24,26,28,30,-1,-1,32,34,-1,36,38,40,42,44,-1,-1,-1,-1,-1,-1,-1,-1,-1,-1,-1,-1,-1,-1,-1,-1,-1,-1],"split_conditions":[-1.7E0,-3.6E-1,1E-2,2.1887407E0,8.41E0,3.278E1,1E-1,-2.36E0,1.5388271E0,4.7462082E-1,1E-2,-6.7E-1,3.3947E1,3.4612E1,5.5E0,-2.74E0,-3E-2,-6.2692267E-1,-1.3105881E-1,1.2116834E0,1.4954324E0,-2.6451154E0,2.4E0,-1E-2,4E0,2.85E1,1.469E1,-1.18653886E-1,1.1198627E-1,7.7894866E-1,-4.849064E-2,2.3810987E-1,-9.882331E-1,-3.4948525E-1,5.7987124E-1,-2.0583472E0,5.0499834E-2,6.875129E-1,-2.5941464E-1,2.3665323E0,2.5438436E-3,-1.2411122E-1,-9.585335E-1,-1.5625966E-1,8.096999E-1],"split_indices":[3,0,1,6,8,5,1,0,0,0,0,1,5,5,3,0,1,0,0,6,6,0,3,0,3,5,4,0,0,0,0,0,0,0,0,0,0,0,0,0,0,0,0,0,0],"split_type":[0,0,0,0,0,0,0,0,0,0,0,0,0,0,0,0,0,0,0,0,0,0,0,0,0,0,0,0,0,0,0,0,0,0,0,0,0,0,0,0,0,0,0,0,0],"sum_hessian":[2.15E2,1.7E1,1.98E2,1E1,7E0,9.5E1,1.03E2,8E0,2E0,3E0,4E0,8.3E1,1.2E1,2.3E1,8E1,2E0,6E0,3E0,1E0,2.5E1,5.8E1,2E0,1E1,1.5E1,8E0,5.3E1,2.7E1,1E0,1E0,5E0,1E0,1E1,1.5E1,3.3E1,2.5E1,2E0,8E0,7E0,8E0,6E0,2E0,4.6E1,7E0,1.6E1,1.1E1],"tree_param":{"num_deleted":"0","num_feature":"9","num_nodes":"45","size_leaf_vector":"1"}},{"base_weights":[-3.8216223E-3,5.2484576E-2,-4.5687473E-1,2.9771727E-1,-6.302234E-2,-7.9012096E-1,1.8521579E-1,8.9146465E-2,6.470701E-1,-2.8109726E-2,-1.1706984E0,3.5418138E-1,-9.796057E-1,1.0282434E0,-4.0600526E-1,-1.7450583E-1,3.132486E-1,1.7786302E-1,1.238253E0,1.8087427E-1,-1.3482119E-1,-1.9476521E-1,-1.4277545E0,-2.8533083E-1,-1.2277825E0,9.699165E-2,1.3029968E0,-5.8587786E-2,-5.6256706E-1,2.190231E-1,-4.8152897E-1,-1.5707951E-2,7.1056724E-1,8.401804E-1,-2.8233334E-1,4.552338E-1,1.6827269E0,-3.2938132E-1,3.6124375E-1,-3.9928642E-1,6.3379504E-2,-4.0302034E-2,-4.31916E-1,-1.4520371E-1,-1.3308243E0,-1.1586582E-1,2.2984143E-2],"categories":[],"categories_nodes":[],"categories_segments":[],"categories_sizes":[],"default_left":[0,0,0,0,0,0,0,0,0,0,0,0,0,0,0,0,0,0,0,0,0,0,0,0,0,0,0,0,0,0,0,0,0,0,0,0,0,0,0,0,0,0,0,0,0,0,0],"id":13,"left_children":[1,3,5,7,9,11,13,15,17,19,21,-1,23,25,27,29,31,33,35,37,39,-1,-1,41,43,-1,-1,45,-1,-1,-1,-1,-1,-1,-1,-1,-1,-1,-1,-1,-1,-1,-1,-1,-1,-1,-1],"loss_changes":[5.5381174E0,5.4880414E0,5.287774E0,4.4525714E0,5.05979E0,3.8224573E0,4.9094357E0,2.419453E0,6.145506E0,2.9007528E0,7.0917606E-1,0E0,2.0467854E0,8.830786E-1,2.8718263E-1,2.4037182E0,2.8935225E0,4.5099344E0,2.6929026E0,4.168825E0,4.536544E0,0E0,0E0,1.5745863E-1,9.075079E-1,0E0,0E0,1.7608732E-2,0E0,0E0,0E0,0E0,0E0,0E0,0E0,0E0,0E0,0E0,0E0,0E0,0E0,0E0,0E0,0E0,0E0,0E0,0E0],"parents":[2147483647,0,0,1,1,2,2,3,3,4,4,5,5,6,6,7,7,8,8,9,9,10,10,12,12,13,13,14,14,15,15,16,16,17,17,18,18,19,19,20,20,23,23,24,24,27,27],"right_children":[2,4,6,8,10,12,14,16,18,20,22,-1,24,26,28,30,32,34,36,38,40,-1,-1,42,44,-1,-1,46,-1,-1,-1,-1,-1,-1,-1,-1,-1,-1,-1,-1,-1,-1,-1,-1,-1,-1,-1],"split_conditions":[2.4347103E0,1.9E0,3.6E0,5.287E0,7.7229E1,-3.271E0,4.5E0,7.684E0,1.5295E1,3.14E0,1E-2,3.5418138E-1,9E-1,-3.3E-1,3.23E0,1.4E0,-2.895E0,-2.1961E1,1.3767663E0,1.65E0,1.5879E1,-1.9476521E-1,-1.4277545E0,-3.4E0,2.3114276E0,9.699165E-2,1.3029968E0,-2.5E-1,-5.6256706E-1,2.190231E-1,-4.8152897E-1,-1.5707951E-2,7.1056724E-1,8.401804E-1,-2.8233334E-1,4.552338E-1,1.6827269E0,-3.2938132E-1,3.6124375E-1,-3.9928642E-1,6.3379504E-2,-4.0302034E-2,-4.31916E-1,-1.4520371E-1,-1.3308243E0,-1.1586582E-1,2.2984143E-2],"split_indices":[6,3,3,5,4,5,3,8,8,8,0,0,2,1,4,2,4,8,6,5,4,0,0,2,7,0,0,0,0,0,0,0,0,0,0,0,0,0,0,0,0,0,0,0,0,0,0],"split_type":[0,0,0,0,0,0,0,0,0,0,0,0,0,0,0,0,0,0,0,0,0,0,0,0,0,0,0,0,0,0,0,0,0,0,0,0,0,0,0,0,0,0,0,0,0,0,0],"sum_hessian":[2.15E2,1.92E2,2.3E1,6.1E1,1.31E2,1.5E1,8E0,3.9E1,2.2E1,1.28E2,3E0,2E0,1.3E1,3E0,5E0,1.8E1,2.1E1,1.3E1,9E0,4.3E1,8.5E1,1E0,2E0,4E0,9E0,1E0,2E0,2E0,3E0,8E0,1E1,1.2E1,9E0,5E0,8E0,4E0,5E0,1.1E1,3.2E1,3.6E1,4.9E1,2E0,2E0,1E0,8E0,1E0,1E0],"tree_param":{"num_deleted":"0","num_feature":"9","num_nodes":"47","size_leaf_vector":"1"}},{"base_weights":[1.4909744E-3,8.539636E-2,-1.5725642E-1,1.306114E-1,-6.870323E-1,-3.9245954E-1,9.464028E-2,-4.0645707E-2,2.9035938E-1,-1.0378405E0,2.4026147E-1,4.8241138E-1,-4.7904354E-1,1.006324E0,-4.605848E-2,9.71982E-3,-6.5904915E-1,7.7887154E-1,1.0608842E-1,-6.340515E-2,-1.2180464E0,-1.062138E-1,7.173577E-1,2.8835317E-2,-6.7587525E-1,1.1570883E0,1.9663346E-1,-3.4568018E-1,4.4071952E-1,1.690852E-1,-2.0275697E-1,7.3492445E-2,-1.175241E0,-2.9777965E-1,1.2994629E0,5.1178038E-2,9.8256534E-1,2.8480425E-1,-7.4534994E-1,-8.5475004E-1,2.4434896E-1,6.069034E-1,-4.7842073E-1,1.6586422E0,6.7584276E-2],"categories":[],"categories_nodes":[],"categories_segments":[],"categories_sizes":[],"default_left":[0,0,0,0,0,0,0,0,0,0,0,0,0,0,0,0,0,0,0,0,0,0,0,0,0,0,0,0,0,0,0,0,0,0,0,0,0,0,0,0,0,0,0,0,0],"id":14,"left_children":[1,3,5,7,9,11,13,15,17,19,-1,21,23,25,27,29,31,33,35,-1,-1,-1,-1,37,39,-1,-1,41,43,-1,-1,-1,-1,-1,-1,-1,-1,-1,-1,-1,-1,-1,-1,-1,-1],"loss_changes":[2.889779E0,5.043577E0,4.4836373E0,3.707626E0,2.859747E0,3.1853065E0,4.8020453E0,2.0685492E0,6.209823E0,9.635496E-1,0E0,6.3548595E-1,3.6247587E0,3.6930323E-1,4.9644227E0,2.133356E0,1.988049E0,1.1046379E1,2.4420161E0,0E0,0E0,0E0,0E0,2.3875146E0,4.494691E0,0E0,0E0,2.944446E0,5.778488E0,0E0,0E0,0E0,0E0,0E0,0E0,0E0,0E0,0E0,0E0,0E0,0E0,0E0,0E0,0E0,0E0],"parents":[2147483647,0,0,1,1,2,2,3,3,4,4,5,5,6,6,7,7,8,8,9,9,11,11,12,12,13,13,14,14,15,15,16,16,17,17,18,18,23,23,24,24,27,27,28,28],"right_children":[2,4,6,8,10,12,14,16,18,20,-1,22,24,26,28,30,32,34,36,-1,-1,-1,-1,38,40,-1,-1,42,44,-1,-1,-1,-1,-1,-1,-1,-1,-1,-1,-1,-1,-1,-1,-1,-1],"split_conditions":[1.6458E1,3.3205E1,3.1294E1,4.356E0,4.8004E1,-1.0841E1,3.2875E1,3.829E0,1.2134E1,-1.18E0,2.4026147E-1,0E0,2.1E0,3.5E0,4E0,3.853E0,8.8451546E-1,7E-1,2.7103E1,-6.340515E-2,-1.2180464E0,-1.062138E-1,7.173577E-1,2.2796E1,4.616E1,1.1570883E0,1.9663346E-1,1.122363E0,4.5E0,1.690852E-1,-2.0275697E-1,7.3492445E-2,-1.175241E0,-2.9777965E-1,1.2994629E0,5.1178038E-2,9.8256534E-1,2.8480425E-1,-7.4534994E-1,-8.5475004E-1,2.4434896E-1,6.069034E-1,-4.7842073E-1,1.6586422E0,6.7584276E-2],"split_indices":[5,4,5,8,4,8,5,8,8,0,0,0,2,2,2,4,7,3,4,0,0,0,0,5,4,0,0,7,2,0,0,0,0,0,0,0,0,0,0,0,0,0,0,0,0],"split_type":[0,0,0,0,0,0,0,0,0,0,0,0,0,0,0,0,0,0,0,0,0,0,0,0,0,0,0,0,0,0,0,0,0,0,0,0,0,0,0,0,0,0,0,0,0],"sum_hessian":[2.15E2,1.41E2,7.4E1,1.34E2,7E0,3.8E1,3.6E1,6.5E1,6.9E1,5E0,2E0,3E0,3.5E1,4E0,3.2E1,6.1E1,4E0,1.8E1,5.1E1,1E0,4E0,1E0,2E0,1E1,2.5E1,3E0,1E0,2E1,1.2E1,3.5E1,2.6E1,2E0,2E0,6E0,1.2E1,4.9E1,2E0,8E0,2E0,2.1E1,4E0,2E0,1.8E1,2E0,1E1],"tree_param":{"num_deleted":"0","num_feature":"9","num_nodes":"45","size_leaf_vector":"1"}},{"base_weights":[1.225675E-2,-3.803442E-3,5.7666403E-1,4.3654922E-1,-1.8870102E-2,1.4795597E-1,7.515291E-1,-1.6163689E-1,9.28098E-1,-1.1746613E-1,6.077643E-2,6.2035676E-2,-2.602063E-1,2.8496312E-2,-3.1681243E-1,-8.2431994E-2,2.2160861E-1,-7.513534E-2,-3.101741E-1,2.0822592E-1,-3.130175E-1,-5.234883E-1,1.909989E-1,9.9800535E-2,-1.6748482E-1,2.7738396E-2,5.0188625E-1],"categories":[],"categories_nodes":[],"categories_segments":[],"categories_sizes":[],"default_left":[0,0,0,0,0,0,0,0,0,0,0,0,0,0,0,0,0,0,0,0,0,0,0,0,0,0,0],"id":15,"left_children":[1,3,5,7,9,-1,-1,11,-1,13,15,-1,17,19,21,23,25,-1,-1,-1,-1,-1,-1,-1,-1,-1,-1],"loss_changes":[1.9658515E0,1.4039707E0,3.2960832E-1,2.215943E0,1.6175367E0,0E0,0E0,1.0631288E-1,0E0,2.688842E0,2.6453671E0,0E0,5.8463216E-4,3.378658E0,4.196451E0,9.628546E-1,2.9150066E0,0E0,0E0,0E0,0E0,0E0,0E0,0E0,0E0,0E0,0E0],"parents":[2147483647,0,0,1,1,2,2,3,3,4,4,7,7,9,9,10,10,12,12,13,13,14,14,15,15,16,16],"right_children":[2,4,6,8,10,-1,-1,12,-1,14,16,-1,18,20,22,24,26,-1,-1,-1,-1,-1,-1,-1,-1,-1,-1],"split_conditions":[2.5328617E0,-2.9729E1,3.1E0,-1.9E0,0E0,1.4795597E-1,7.515291E-1,-1.37E0,9.28098E-1,1.4269E1,3.7E0,6.2035676E-2,-1.37E0,-1.5E-1,4.4665E1,1.5E0,2.0049E1,-7.513534E-2,-3.101741E-1,2.0822592E-1,-3.130175E-1,-5.234883E-1,1.909989E-1,9.9800535E-2,-1.6748482E-1,2.7738396E-2,5.0188625E-1],"split_indices":[7,4,2,3,1,0,0,1,0,8,2,0,0,1,8,3,5,0,0,0,0,0,0,0,0,0,0],"split_type":[0,0,0,0,0,0,0,0,0,0,0,0,0,0,0,0,0,0,0,0,0,0,0,0,0,0,0],"sum_hessian":[2.15E2,2.1E2,5E0,6E0,2.04E2,2E0,3E0,3E0,3E0,9.1E1,1.13E2,1E0,2E0,5.3E1,3.8E1,6E1,5.3E1,1E0,1E0,3.5E1,1.8E1,2.7E1,1.1E1,1.9E1,4.1E1,3.2E1,2.1E1],"tree_param":{"num_deleted":"0","num_feature":"9","num_nodes":"27","size_leaf_vector":"1"}},{"base_weights":[7.217532E-3,6.144064E-2,-1.2829536E-1,-3.2897258E-1,1.0881894E-1,2.0178887E-1,-3.0252847E-1,-7.789399E-1,-1.7619815E-1,-2.4520007E-1,1.4737011E-1,-2.68659E-1,3.218139E-1,3.2241502E-1,-3.7907413E-1,-4.219336E-2,-3.461723E-1,1.1306091E-1,-4.5790738E-1,1.6232558E-1,-5.165794E-1,4.1962996E-1,-5.481387E-1,4.7364357E-1,-5.911938E-2,5.843716E-1,-4.367995E-2,-5.267891E-1,1.7051283E-2,1.1595422E-1,-1.4225952E-1,-5.716692E-1,-8.8006556E-2,3.3490235E-1,-2.1708131E-1,-6.3401705E-1,-7.676607E-2,2.5678042E-1,3.075814E-2,-6.147815E-1,-1.5508759E-1,-6.328484E-1,-1.4200485E-1,7.402066E-1,2.1326588E-1,3.4512397E-2,-1.6758862E-1,-1.3581574E-1,6.529581E-2,4.3198216E-1,-5.806643E-1,1.9479851E-1,-1.6187115E-1],"categories":[],"categories_nodes":[],"categories_segments":[],"categories_sizes":[],"default_left":[0,0,0,0,0,0,0,0,0,0,0,0,0,0,0,0,0,0,0,0,0,0,0,0,0,0,0,0,0,0,0,0,0,0,0,0,0,0,0,0,0,0,0,0,0,0,0,0,0,0,0,0,0],"id":16,"left_children":[1,3,5,7,9,11,13,-1,15,17,19,21,23,25,27,29,31,33,35,37,39,-1,41,43,45,-1,47,49,51,-1,-1,-1,-1,-1,-1,-1,-1,-1,-1,-1,-1,-1,-1,-1,-1,-1,-1,-1,-1,-1,-1,-1,-1],"loss_changes":[1.5943669E0,2.9006498E0,3.627774E0,1.0218405E0,1.9322075E0,1.3292313E0,2.0840905E0,0E0,3.0039307E-1,1.122086E0,1.3314509E0,1.1931145E0,1.0732123E0,5.104373E-1,2.1790862E0,1.5918563E-1,2.923861E-1,5.1331455E-1,5.483252E-1,1.5301971E0,3.4540892E-3,0E0,3.9997816E-2,7.348962E-1,6.805166E-2,0E0,3.96951E-2,1.6469798E0,3.8169417E-1,0E0,0E0,0E0,0E0,0E0,0E0,0E0,0E0,0E0,0E0,0E0,0E0,0E0,0E0,0E0,0E0,0E0,0E0,0E0,0E0,0E0,0E0,0E0,0E0],"parents":[2147483647,0,0,1,1,2,2,3,3,4,4,5,5,6,6,8,8,9,9,10,10,11,11,12,12,13,13,14,14,15,15,16,16,17,17,18,18,19,19,20,20,22,22,23,23,24,24,26,26,27,27,28,28],"right_children":[2,4,6,8,10,12,14,-1,16,18,20,22,24,26,28,30,32,34,36,38,40,-1,42,44,46,-1,48,50,52,-1,-1,-1,-1,-1,-1,-1,-1,-1,-1,-1,-1,-1,-1,-1,-1,-1,-1,-1,-1,-1,-1,-1,-1],"split_conditions":[4.5E0,-9.1E-1,3.14E0,1.2004002E0,-1.0234E1,8.8587546E-1,-7.4E-1,-7.789399E-1,-1.3E0,-1.5E-1,8.0306E1,-2.6E-1,2.147E1,-8E-1,5.4E0,-4.1E-1,-1.72E0,-1.9148E1,2.5E0,5E-2,-1.3E-1,4.1962996E-1,7E-2,4.499E0,5.5E-1,5.843716E-1,-1.18E0,8.821451E-1,1.469E1,1.1595422E-1,-1.4225952E-1,-5.716692E-1,-8.8006556E-2,3.3490235E-1,-2.1708131E-1,-6.3401705E-1,-7.676607E-2,2.5678042E-1,3.075814E-2,-6.147815E-1,-1.5508759E-1,-6.328484E-1,-1.4200485E-1,7.402066E-1,2.1326588E-1,3.4512397E-2,-1.6758862E-1,-1.3581574E-1,6.529581E-2,4.3198216E-1,-5.806643E-1,1.9479851E-1,-1.6187115E-1],"split_indices":[2,0,8,7,8,7,0,0,2,1,8,0,5,1,3,1,0,8,2,0,0,0,0,4,0,0,0,6,5,0,0,0,0,0,0,0,0,0,0,0,0,0,0,0,0,0,0,0,0,0,0,0,0],"split_type":[0,0,0,0,0,0,0,0,0,0,0,0,0,0,0,0,0,0,0,0,0,0,0,0,0,0,0,0,0,0,0,0,0,0,0,0,0,0,0,0,0,0,0,0,0,0,0,0,0,0,0,0,0],"sum_hessian":[2.15E2,1.54E2,6.1E1,1.6E1,1.38E2,2.1E1,4E1,3E0,1.3E1,1.3E1,1.25E2,4E0,1.7E1,4E0,3.6E1,8E0,5E0,5E0,8E0,1.23E2,2E0,1E0,3E0,1.2E1,5E0,2E0,2E0,2.6E1,1E1,3E0,5E0,2E0,3E0,3E0,2E0,5E0,3E0,7.1E1,5.2E1,1E0,1E0,2E0,1E0,5E0,7E0,3E0,2E0,1E0,1E0,1E0,2.5E1,5E0,5E0],"tree_param":{"num_deleted":"0","num_feature":"9","num_nodes":"53","size_leaf_vector":"1"}},{"base_weights":[-7.856053E-3,-6.028633E-2,7.676459E-2,-1.00206986E-1,8.736455E-2,-1.7725512E-1,1.1412694E-1,-6.5958634E-2,-5.102544E-1,2.7104393E-1,-1.9460155E-1,-1.949481E-2,-3.0380625E-1,2.2903351E-1,-3.593865E-3,-1.1753172E-1,2.0829745E-1,-1.2559132E-1,-8.610197E-1,4.2714602E-1,-1.1068459E-1,-5.996328E-1,5.9236144E-3,4.9347475E-2,-6.8752825E-2,-3.6468583E-1,-1.1803138E-1,3.538096E-1,-2.7769199E-2,-6.648583E-2,1.7186303E-1,1.154356E-2,-3.0798194E-1,-3.9138228E-1,3.7756065E-1,-1.7769662E-1,-2.8288918E-2,5.662381E-1,8.9351036E-2,-1.6969323E-1,8.7179296E-2,-1.7331994E-1,-6.8063045E-1,1.4366834E-1,-3.1412196E-1,5.8216564E-3,5.4856396E-1,-3.5625497E-1,1.5669724E-1,2.437682E-3,-3.2127833E-1,-0E0,2.4518906E-1],"categories":[],"categories_nodes":[],"categories_segments":[],"categories_sizes":[],"default_left":[0,0,0,0,0,0,0,0,0,0,0,0,0,0,0,0,0,0,0,0,0,0,0,0,0,0,0,0,0,0,0,0,0,0,0,0,0,0,0,0,0,0,0,0,0,0,0,0,0,0,0,0,0],"id":17,"left_children":[1,3,5,7,9,11,13,15,17,19,21,23,25,27,29,31,33,35,-1,37,39,41,43,-1,-1,-1,-1,45,47,49,51,-1,-1,-1,-1,-1,-1,-1,-1,-1,-1,-1,-1,-1,-1,-1,-1,-1,-1,-1,-1,-1,-1],"loss_changes":[9.6278673E-1,7.987218E-1,8.0733263E-1,1.4491875E0,1.5554593E0,2.1045658E-1,9.905408E-1,1.4238527E0,9.614091E-1,1.1230385E0,9.841167E-1,2.3933036E-2,1.9987822E-2,1.1986705E0,4.1866136E-1,2.0714421E0,1.7716913E0,1.8263154E-2,0E0,5.536499E-1,8.567296E-2,1.1614919E-2,4.401861E-1,0E0,0E0,0E0,0E0,1.6855667E0,8.455495E-1,4.9568504E-1,1.2545472E-1,0E0,0E0,0E0,0E0,0E0,0E0,0E0,0E0,0E0,0E0,0E0,0E0,0E0,0E0,0E0,0E0,0E0,0E0,0E0,0E0,0E0,0E0],"parents":[2147483647,0,0,1,1,2,2,3,3,4,4,5,5,6,6,7,7,8,8,9,9,10,10,11,11,12,12,13,13,14,14,15,15,16,16,17,17,19,19,20,20,21,21,22,22,27,27,28,28,29,29,30,30],"right_children":[2,4,6,8,10,12,14,16,18,20,22,24,26,28,30,32,34,36,-1,38,40,42,44,-1,-1,-1,-1,46,48,50,52,-1,-1,-1,-1,-1,-1,-1,-1,-1,-1,-1,-1,-1,-1,-1,-1,-1,-1,-1,-1,-1,-1],"split_conditions":[1.1E-1,2.3805E1,-5.359E0,3.3947E1,2.8546E1,-7.918E0,4.6E0,1.6458E1,-1E-2,5.8707E1,3.1E0,-1.9E0,3.1E0,2.1242E1,2.1737E1,3.962E0,6E-1,-7.1E-1,-8.610197E-1,1.5772157E0,9.9384E1,-3.3E-1,5.3413E1,4.9347475E-2,-6.8752825E-2,-3.6468583E-1,-1.1803138E-1,-9.31E-1,3.9E0,1.5295E1,2.6E-1,1.154356E-2,-3.0798194E-1,-3.9138228E-1,3.7756065E-1,-1.7769662E-1,-2.8288918E-2,5.662381E-1,8.9351036E-2,-1.6969323E-1,8.7179296E-2,-1.7331994E-1,-6.8063045E-1,1.4366834E-1,-3.1412196E-1,5.8216564E-3,5.4856396E-1,-3.5625497E-1,1.5669724E-1,2.437682E-3,-3.2127833E-1,-0E0,2.4518906E-1],"split_indices":[0,5,4,4,8,4,3,4,0,5,3,2,2,5,4,5,2,1,0,6,5,1,8,0,0,0,0,8,2,4,0,0,0,0,0,0,0,0,0,0,0,0,0,0,0,0,0,0,0,0,0,0,0],"split_type":[0,0,0,0,0,0,0,0,0,0,0,0,0,0,0,0,0,0,0,0,0,0,0,0,0,0,0,0,0,0,0,0,0,0,0,0,0,0,0,0,0,0,0,0,0,0,0,0,0,0,0,0,0],"sum_hessian":[2.15E2,1.33E2,8.2E1,1.05E2,2.8E1,1E1,7.2E1,9.8E1,7E0,1.7E1,1.1E1,5E0,5E0,3.6E1,3.6E1,8.3E1,1.5E1,4E0,3E0,1.2E1,5E0,3E0,8E0,2E0,3E0,3E0,2E0,2.4E1,1.2E1,2.7E1,9E0,5E1,3.3E1,3E0,1.2E1,2E0,2E0,8E0,4E0,4E0,1E0,1E0,2E0,6E0,2E0,9E0,1.5E1,4E0,8E0,2.2E1,5E0,3E0,6E0],"tree_param":{"num_deleted":"0","num_feature":"9","num_nodes":"53","size_leaf_vector":"1"}},{"base_weights":[-9.524188E-3,-6.1192166E-2,3.9812118E-2,6.5297135E-3,-1.3183661E-1,6.5907073E-1,2.231131E-2,1.2554973E-1,-4.526183E-2,-5.0552744E-1,-1.0657843E-1,3.0982235E-1,-3.592748E-4,3.0498786E-2,2.5555128E-1,-1.8805902E-1,2.4798367E-2,-2.2256123E-1,-3.978241E-2,1.3686661E-1,5.491264E-1,-4.4704628E-1,1.2944928E-2,1.7919737E-1,-4.6412855E-2,3.6443245E-1,-7.7677537E-3,1.2496954E-1,-2.9546455E-1,-2.5679314E-1,1.009234E-1,2.0404321E-1,-2.602464E-1,2.5566693E-3,-3.498799E-1,2.1864301E-1,-1.4457461E-2,-9.797585E-2,6.434377E-2],"categories":[],"categories_nodes":[],"categories_segments":[],"categories_sizes":[],"default_left":[0,0,0,0,0,0,0,0,0,0,0,0,0,0,0,0,0,0,0,0,0,0,0,0,0,0,0,0,0,0,0,0,0,0,0,0,0,0,0],"id":18,"left_children":[1,3,5,7,9,-1,11,13,15,-1,17,19,21,23,25,27,29,31,33,35,-1,-1,37,-1,-1,-1,-1,-1,-1,-1,-1,-1,-1,-1,-1,-1,-1,-1,-1],"loss_changes":[5.532571E-1,5.092364E-1,1.1814468E0,3.4551814E-1,4.3081552E-1,0E0,7.136727E-1,1.9941062E-1,3.9646772E-1,0E0,3.758821E-1,2.4909514E-1,6.162951E-1,1.3544807E-1,2.0709082E-1,4.757019E-1,6.0313416E-1,3.4304327E-1,4.376327E-1,7.945131E-2,0E0,0E0,5.760878E-1,0E0,0E0,0E0,0E0,0E0,0E0,0E0,0E0,0E0,0E0,0E0,0E0,0E0,0E0,0E0,0E0],"parents":[2147483647,0,0,1,1,2,2,3,3,4,4,6,6,7,7,8,8,10,10,11,11,12,12,13,13,14,14,15,15,16,16,17,17,18,18,19,19,22,22],"right_children":[2,4,6,8,10,-1,12,14,16,-1,18,20,22,24,26,28,30,32,34,36,-1,-1,38,-1,-1,-1,-1,-1,-1,-1,-1,-1,-1,-1,-1,-1,-1,-1,-1],"split_conditions":[1.0321E1,-5.69E-1,9.358342E-1,-5.57E-1,-1.0841E1,6.5907073E-1,1.2134E1,1.2E-1,2.6E0,-5.0552744E-1,1.691E0,1.1857E1,9.910079E-1,-2.9729E1,3.1E0,1.1E0,9.7944814E-1,8.4066296E-1,7.3E-1,1.469E1,5.491264E-1,-4.4704628E-1,-2.2E-1,1.7919737E-1,-4.6412855E-2,3.6443245E-1,-7.7677537E-3,1.2496954E-1,-2.9546455E-1,-2.5679314E-1,1.009234E-1,2.0404321E-1,-2.602464E-1,2.5566693E-3,-3.498799E-1,2.1864301E-1,-1.4457461E-2,-9.797585E-2,6.434377E-2],"split_indices":[8,8,6,4,4,0,8,1,3,0,5,8,6,8,3,2,6,6,0,4,0,0,1,0,0,0,0,0,0,0,0,0,0,0,0,0,0,0,0],"split_type":[0,0,0,0,0,0,0,0,0,0,0,0,0,0,0,0,0,0,0,0,0,0,0,0,0,0,0,0,0,0,0,0,0,0,0,0,0,0,0],"sum_hessian":[2.15E2,1.05E2,1.1E2,5.4E1,5.1E1,2E0,1.08E2,1.6E1,3.8E1,2E0,4.9E1,7E0,1.01E2,1E1,6E0,1.2E1,2.6E1,1.7E1,3.2E1,5E0,2E0,2E0,9.9E1,3E0,7E0,4E0,2E0,3E0,9E0,5E0,2.1E1,1E0,1.6E1,2.9E1,3E0,3E0,2E0,3.1E1,6.8E1],"tree_param":{"num_deleted":"0","num_feature":"9","num_nodes":"39","size_leaf_vector":"1"}},{"base_weights":[8.1373955E-4,4.392953E-2,-5.8784097E-2,-3.914833E-3,1.3341027E-1,6.747216E-3,-1.4658861E-1,6.684227E-2,-8.1899785E-2,-1.12460986E-1,1.754547E-1,6.999466E-2,-7.835791E-2,-2.2400036E-1,-2.068416E-2,9.1987565E-2,-1.4568849E-1,-4.4029084E-1,-5.1187336E-2,9.021668E-2,-4.1610345E-1,2.8617284E-1,2.126331E-2,2.9708468E-3,2.0944758E-1,-2.7396142E-1,-8.247971E-3,-3.4832263E-1,-1.0960429E-1,-1.2459976E-1,1.2929301E-1,3.931667E-2,2.679299E-1,-2.6417267E-1,-4.752427E-2,5.128906E-2,-1.008414E-1,-4.4054326E-2,3.1865036E-1,1.00893915E-1,3.8412553E-1,-1.6529743E-1,2.0657258E-1,-1.0806758E-1,8.892573E-2,3.045438E-1,5.1442623E-2,-4.9569245E-2,-3.06926E-1,2.1868618E-1,-5.0907627E-2,-3.987268E-1,-7.766922E-2,1.7743997E-2,-2.8402603E-1,-2.205729E-1,-2.218886E-2,2.784985E-1,-4.973572E-2],"categories":[],"categories_nodes":[],"categories_segments":[],"categories_sizes":[],"default_left":[0,0,0,0,0,0,0,0,0,0,0,0,0,0,0,0,0,0,0,0,0,0,0,0,0,0,0,0,0,0,0,0,0,0,0,0,0,0,0,0,0,0,0,0,0,0,0,0,0,0,0,0,0,0,0,0,0,0,0],"id":19,"left_children":[1,3,5,7,9,11,13,15,17,19,21,23,25,27,29,31,33,-1,35,37,-1,39,41,43,45,47,49,51,53,55,57,-1,-1,-1,-1,-1,-1,-1,-1,-1,-1,-1,-1,-1,-1,-1,-1,-1,-1,-1,-1,-1,-1,-1,-1,-1,-1,-1,-1],"loss_changes":[5.574691E-1,5.4124194E-1,5.259963E-1,4.6361807E-1,4.7521257E-1,2.9068312E-1,3.7303293E-1,2.4800703E-1,4.1283053E-1,4.7158915E-1,6.3956845E-1,2.8700024E-1,3.1033456E-1,2.985705E-1,2.6542243E-1,3.5707498E-1,4.248295E-2,0E0,1.9902563E-1,1.7014399E-1,0E0,3.556621E-1,6.22273E-1,2.1939306E-1,1.3103035E-1,2.5602937E-2,1.837118E-1,1.14329934E-1,3.186749E-1,9.096508E-2,2.0312345E-1,0E0,0E0,0E0,0E0,0E0,0E0,0E0,0E0,0E0,0E0,0E0,0E0,0E0,0E0,0E0,0E0,0E0,0E0,0E0,0E0,0E0,0E0,0E0,0E0,0E0,0E0,0E0,0E0],"parents":[2147483647,0,0,1,1,2,2,3,3,4,4,5,5,6,6,7,7,8,8,9,9,10,10,11,11,12,12,13,13,14,14,15,15,16,16,18,18,19,19,21,21,22,22,23,23,24,24,25,25,26,26,27,27,28,28,29,29,30,30],"right_children":[2,4,6,8,10,12,14,16,18,20,22,24,26,28,30,32,34,-1,36,38,-1,40,42,44,46,48,50,52,54,56,58,-1,-1,-1,-1,-1,-1,-1,-1,-1,-1,-1,-1,-1,-1,-1,-1,-1,-1,-1,-1,-1,-1,-1,-1,-1,-1,-1,-1],"split_conditions":[3.7E0,1.7873766E0,1.5011843E0,8.889E0,-1.71E0,4.5E0,2.3371093E0,7.963E1,0E0,-2.12E0,2.3983195E0,3.2E0,5.2E0,8E-2,1.526E1,1.9675E1,-9.1E-1,-4.4029084E-1,9.135E0,1.0743E1,-4.1610345E-1,3.469E0,2.4631703E0,1.0190697E0,5E-2,3.8E0,4.5E0,3.6517E1,7.3E-1,1.0743E1,1.7116E1,3.931667E-2,2.679299E-1,-2.6417267E-1,-4.752427E-2,5.128906E-2,-1.008414E-1,-4.4054326E-2,3.1865036E-1,1.00893915E-1,3.8412553E-1,-1.6529743E-1,2.0657258E-1,-1.0806758E-1,8.892573E-2,3.045438E-1,5.1442623E-2,-4.9569245E-2,-3.06926E-1,2.1868618E-1,-5.0907627E-2,-3.987268E-1,-7.766922E-2,1.7743997E-2,-2.8402603E-1,-2.205729E-1,-2.218886E-2,2.784985E-1,-4.973572E-2],"split_indices":[3,7,7,5,1,2,6,8,2,1,6,2,2,0,8,8,1,0,4,5,0,4,6,6,0,3,3,4,0,4,4,0,0,0,0,0,0,0,0,0,0,0,0,0,0,0,0,0,0,0,0,0,0,0,0,0,0,0,0],"split_type":[0,0,0,0,0,0,0,0,0,0,0,0,0,0,0,0,0,0,0,0,0,0,0,0,0,0,0,0,0,0,0,0,0,0,0,0,0,0,0,0,0,0,0,0,0,0,0,0,0,0,0,0,0,0,0,0,0,0,0],"sum_hessian":[2.15E2,1.25E2,9E1,8.2E1,4.3E1,5.2E1,3.8E1,4.3E1,3.9E1,6E0,3.7E1,3E1,2.2E1,2.3E1,1.5E1,3.9E1,4E0,2E0,3.7E1,4E0,2E0,2.1E1,1.6E1,2.1E1,9E0,5E0,1.7E1,1E1,1.3E1,9E0,6E0,3.1E1,8E0,1E0,3E0,1.2E1,2.5E1,3E0,1E0,8E0,1.3E1,8E0,8E0,9E0,1.2E1,5E0,4E0,1E0,4E0,2E0,1.5E1,8E0,2E0,8E0,5E0,4E0,5E0,3E0,3E0],"tree_param":{"num_deleted":"0","num_feature":"9","num_nodes":"59","size_leaf_vector":"1"}},{"base_weights":[-3.463116E-3,1.4330051E-2,-5.7293173E-2,-8.966186E-4,3.5522392E-1,-2.333075E-1,-1.1760202E-2,7.3796757E-3,-9.390939E-2,5.590529E-1,1.5988179E-1,-3.2256153E-1,-1.03502214E-1,1.0358064E-1,-5.8562413E-2,-1.9421676E-3,1.4956999E-1,-2.8627085E-2,-2.3113781E-1,1.973998E-1,-0E0,7.712002E-3,-1.2928745E-1,1.5133463E-1,-2.2973359E-1,-2.5036967E-1,-2.974202E-2,1.3745046E-2,-7.679217E-2,8.164367E-2,2.1156698E-1,-1.535337E-1,2.0541279E-2,-3.700411E-2,-2.8018102E-1,-1.6031423E-1,-0E0,2.2012632E-1,4.4188537E-2,-7.7603176E-2,-3.7933457E-1,1.17606975E-1,-5.8422137E-2],"categories":[],"categories_nodes":[],"categories_segments":[],"categories_sizes":[],"default_left":[0,0,0,0,0,0,0,0,0,0,0,0,0,0,0,0,0,0,0,0,0,0,0,0,0,0,0,0,0,0,0,0,0,0,0,0,0,0,0,0,0,0,0],"id":20,"left_children":[1,3,5,7,9,11,13,15,17,-1,19,-1,21,23,25,27,29,31,33,-1,-1,-1,35,37,-1,39,41,-1,-1,-1,-1,-1,-1,-1,-1,-1,-1,-1,-1,-1,-1,-1,-1],"loss_changes":[2.08137E-1,8.499424E-1,4.2758617E-1,1.2241709E-1,1.8214297E-1,8.979559E-2,2.4313682E-1,1.9396077E-1,1.0724719E-1,0E0,2.8055787E-2,0E0,1.9418932E-2,2.4090472E-1,1.666471E-1,1.6254975E-1,1.7695844E-2,6.589824E-2,2.454406E-2,0E0,0E0,0E0,1.922638E-2,7.607895E-2,0E0,5.5116326E-2,1.2883261E-1,0E0,0E0,0E0,0E0,0E0,0E0,0E0,0E0,0E0,0E0,0E0,0E0,0E0,0E0,0E0,0E0],"parents":[2147483647,0,0,1,1,2,2,3,3,4,4,5,5,6,6,7,7,8,8,10,10,12,12,13,13,14,14,15,15,16,16,17,17,18,18,22,22,23,23,25,25,26,26],"right_children":[2,4,6,8,10,12,14,16,18,-1,20,-1,22,24,26,28,30,32,34,-1,-1,-1,36,38,-1,40,42,-1,-1,-1,-1,-1,-1,-1,-1,-1,-1,-1,-1,-1,-1,-1,-1],"split_conditions":[2.31E1,2.1242E1,-4E-1,1.8196E1,3.469E0,3.7E0,-3E-2,1.5879E1,2.3465936E0,5.590529E-1,4.8E-1,-3.2256153E-1,-1.43E0,4.8E0,1.1322893E0,1.2139E1,2.2383583E0,1.829E1,4E-1,1.973998E-1,-0E0,7.712002E-3,2.0451431E0,1.2108734E0,-2.2973359E-1,1.2166E1,1.1613433E0,1.3745046E-2,-7.679217E-2,8.164367E-2,2.1156698E-1,-1.535337E-1,2.0541279E-2,-3.700411E-2,-2.8018102E-1,-1.6031423E-1,-0E0,2.2012632E-1,4.4188537E-2,-7.7603176E-2,-3.7933457E-1,1.17606975E-1,-5.8422137E-2],"split_indices":[8,8,1,8,5,2,1,8,6,0,0,0,0,2,6,8,7,8,2,0,0,0,6,7,0,5,6,0,0,0,0,0,0,0,0,0,0,0,0,0,0,0,0],"split_type":[0,0,0,0,0,0,0,0,0,0,0,0,0,0,0,0,0,0,0,0,0,0,0,0,0,0,0,0,0,0,0,0,0,0,0,0,0,0,0,0,0,0,0],"sum_hessian":[2.15E2,1.62E2,5.3E1,1.56E2,6E0,1E1,4.3E1,1.44E2,1.2E1,2E0,4E0,5E0,5E0,1.2E1,3.1E1,1.36E2,8E0,9E0,3E0,3E0,1E0,1E0,4E0,1.1E1,1E0,3E0,2.8E1,1.13E2,2.3E1,5E0,3E0,2E0,7E0,1E0,2E0,3E0,1E0,6E0,5E0,2E0,1E0,4E0,2.4E1],"tree_param":{"num_deleted":"0","num_feature":"9","num_nodes":"43","size_leaf_vector":"1"}},{"base_weights":[-1.3299589E-3,1.074699E-3,-1.7575224E-1,-4.899045E-3,5.9764966E-2,4.9186807E-2,-1.1418495E-2,-5.477186E-2,1.5936527E-1,4.9283155E-3,1.1924082E-1,-1.327763E-1,-7.009288E-3,-1.6857195E-1,-4.0003425E-3,2.888782E-1,7.343814E-2,5.919009E-2,-1.4342177E-2,-1.777903E-2,1.6954394E-1,-1.6382088E-1,6.2233163E-3,3.1823363E-2,-1.9279514E-2,-3.7099212E-2,6.019751E-2,1.1192937E-1,-2.4690386E-2],"categories":[],"categories_nodes":[],"categories_segments":[],"categories_sizes":[],"default_left":[0,0,0,0,0,0,0,0,0,0,0,0,0,0,0,0,0,0,0,0,0,0,0,0,0,0,0,0,0],"id":21,"left_children":[1,3,-1,5,7,9,11,13,15,17,19,21,23,-1,25,-1,27,-1,-1,-1,-1,-1,-1,-1,-1,-1,-1,-1,-1],"loss_changes":[9.253165E-2,7.5869985E-2,0E0,6.894291E-2,2.3793268E-1,6.3280836E-2,9.1312535E-2,5.5377968E-2,9.757757E-2,1.5936509E-2,5.9672177E-2,2.8486602E-2,8.149062E-2,0E0,1.9001307E-2,0E0,3.385267E-2,0E0,0E0,0E0,0E0,0E0,0E0,0E0,0E0,0E0,0E0,0E0,0E0],"parents":[2147483647,0,0,1,1,3,3,4,4,5,5,6,6,7,7,8,8,9,9,10,10,11,11,12,12,14,14,16,16],"right_children":[2,4,-1,6,8,10,12,14,16,18,20,22,24,-1,26,-1,28,-1,-1,-1,-1,-1,-1,-1,-1,-1,-1,-1,-1],"split_conditions":[1.13E1,8E0,-1.7575224E-1,-9E-1,1.0165124E0,-1.9E0,-2.6313E1,1E-2,8.358E0,1.0686582E0,3.962E0,-3E-1,2.109E0,-1.6857195E-1,6.4E-1,2.888782E-1,9.4E0,5.919009E-2,-1.4342177E-2,-1.777903E-2,1.6954394E-1,-1.6382088E-1,6.2233163E-3,3.1823363E-2,-1.9279514E-2,-3.7099212E-2,6.019751E-2,1.1192937E-1,-2.4690386E-2],"split_indices":[3,3,0,2,6,2,5,1,5,7,8,1,5,0,1,0,3,0,0,0,0,0,0,0,0,0,0,0,0],"split_type":[0,0,0,0,0,0,0,0,0,0,0,0,0,0,0,0,0,0,0,0,0,0,0,0,0,0,0,0,0],"sum_hessian":[2.15E2,2.13E2,2E0,1.94E2,1.9E1,2E1,1.74E2,9E0,1E1,1.3E1,7E0,5E0,1.69E2,2E0,7E0,3E0,7E0,3E0,1E1,2E0,5E0,4E0,1E0,4E1,1.29E2,5E0,2E0,5E0,2E0],"tree_param":{"num_deleted":"0","num_feature":"9","num_nodes":"29","size_leaf_vector":"1"}},{"base_weights":[4.0021824E-4,-3.494529E-3,9.1478795E-2,-2.3812061E-2,1.2118946E-2,1.4868264E-1,1.3979195E-2,-9.883928E-3,-9.305568E-2,-1.3748786E-2,4.0218603E-2,4.8752543E-2,-2.2120552E-2,7.832819E-2,-2.2858005E-2,-2.4332693E-2,-1.3505626E-1,8.635004E-3,-1.47635E-1,2.6639962E-1,2.696839E-2,6.2323686E-2,5.80513E-3,2.7217902E-2,1.219949E-1,-3.4178782E-2,7.92486E-2,-4.962516E-2,2.2598978E-2,-0E0,-1.5160617E-1,-7.276649E-3,1.1793848E-1,-4.8757818E-2,-1.8728061E-1,4.2602655E-2,3.5199678E-1,3.1342795E-3,1.21110804E-1],"categories":[],"categories_nodes":[],"categories_segments":[],"categories_sizes":[],"default_left":[0,0,0,0,0,0,0,0,0,0,0,0,0,0,0,0,0,0,0,0,0,0,0,0,0,0,0,0,0,0,0,0,0,0,0,0,0,0,0],"id":22,"left_children":[1,3,5,7,9,-1,11,13,15,17,19,21,-1,23,25,27,29,31,33,35,37,-1,-1,-1,-1,-1,-1,-1,-1,-1,-1,-1,-1,-1,-1,-1,-1,-1,-1],"loss_changes":[7.782076E-2,6.6388786E-2,3.6194406E-2,8.581437E-2,8.658883E-2,0E0,7.6212985E-3,8.9359984E-2,3.8415924E-2,1.8847142E-1,1.6070788E-1,7.0545124E-4,0E0,1.7505601E-2,8.08609E-2,9.700864E-3,1.9713715E-2,9.588156E-2,2.3788646E-2,3.8527176E-2,1.2178699E-1,0E0,0E0,0E0,0E0,0E0,0E0,0E0,0E0,0E0,0E0,0E0,0E0,0E0,0E0,0E0,0E0,0E0,0E0],"parents":[2147483647,0,0,1,1,2,2,3,3,4,4,6,6,7,7,8,8,9,9,10,10,11,11,13,13,14,14,15,15,16,16,17,17,18,18,19,19,20,20],"right_children":[2,4,6,8,10,-1,12,14,16,18,20,22,-1,24,26,28,30,32,34,36,38,-1,-1,-1,-1,-1,-1,-1,-1,-1,-1,-1,-1,-1,-1,-1,-1,-1,-1],"split_conditions":[6.0456E1,1.2401968E0,2.3E0,1.1755475E0,1.2793E1,1.4868264E-1,1E-2,-7.1E-1,-1.2E-1,2.4665399E0,1.3065E1,1E-2,-2.2120552E-2,-1.09E0,1.1664811E0,6E-1,1.1E0,2.4209454E0,-1.054E0,-4E-1,2.3914106E0,6.2323686E-2,5.80513E-3,2.7217902E-2,1.219949E-1,-3.4178782E-2,7.92486E-2,-4.962516E-2,2.2598978E-2,-0E0,-1.5160617E-1,-7.276649E-3,1.1793848E-1,-4.8757818E-2,-1.8728061E-1,4.2602655E-2,3.5199678E-1,3.1342795E-3,1.21110804E-1],"split_indices":[5,6,3,6,5,0,0,1,1,7,5,1,0,1,7,3,3,7,5,0,7,0,0,0,0,0,0,0,0,0,0,0,0,0,0,0,0,0,0],"split_type":[0,0,0,0,0,0,0,0,0,0,0,0,0,0,0,0,0,0,0,0,0,0,0,0,0,0,0,0,0,0,0,0,0,0,0,0,0,0,0],"sum_hessian":[2.15E2,2.07E2,8E0,9E1,1.17E2,4E0,4E0,7.6E1,1.4E1,6.1E1,5.6E1,2E0,2E0,9E0,6.7E1,6E0,8E0,5.3E1,8E0,2E0,5.4E1,1E0,1E0,5E0,4E0,6.1E1,6E0,4E0,2E0,1E0,7E0,4.7E1,6E0,3E0,5E0,1E0,1E0,4.4E1,1E1],"tree_param":{"num_deleted":"0","num_feature":"9","num_nodes":"39","size_leaf_vector":"1"}},{"base_weights":[2.9683053E-3,9.68981E-3,-2.4870543E-2,4.689893E-2,3.1385897E-4,-6.664581E-2,4.3593036E-4,9.562827E-3,1.0857828E-1,4.606514E-2,-6.249342E-3,-1.5927036E-1,-4.1322988E-2,-3.0337997E-2,3.1893007E-2,3.6568284E-2,-2.8201096E-2,3.1349216E-2,1.6886759E-1,1.6744433E-1,9.959681E-3,-9.077307E-2,3.5279593E-3,-2.5564838E-2,-8.724792E-2,6.4106276E-3,-6.9431E-2,9.362254E-2,-1.1610618E-3,-1.1292385E-2,1.2697597E-1,1.724095E-2,-6.303595E-2,-1.3107414E-2,4.260989E-2,1.8472278E-1,3.1868216E-2,-0E0,2.2001526E-1,-3.999772E-2,9.3228735E-2,3.966608E-3,-1.517312E-1,5.644742E-2,-3.8902266E-3,-2.9912991E-2,6.132419E-3,-2.0363089E-2,2.0395715E-2,-2.1453667E-3,-9.391618E-2,2.0635651E-2,-2.0798145E-2],"categories":[],"categories_nodes":[],"categories_segments":[],"categories_sizes":[],"default_left":[0,0,0,0,0,0,0,0,0,0,0,0,0,0,0,0,0,0,0,0,0,0,0,0,0,0,0,0,0,0,0,0,0,0,0,0,0,0,0,0,0,0,0,0,0,0,0,0,0,0,0,0,0],"id":23,"left_children":[1,3,5,7,9,11,13,15,17,19,21,-1,23,25,27,29,31,33,35,37,39,41,43,45,-1,47,49,-1,51,-1,-1,-1,-1,-1,-1,-1,-1,-1,-1,-1,-1,-1,-1,-1,-1,-1,-1,-1,-1,-1,-1,-1,-1],"loss_changes":[4.0506877E-2,6.0565565E-2,4.509291E-2,7.838059E-2,4.3024793E-2,2.8940782E-2,2.712068E-2,2.4571076E-2,5.3233102E-2,7.544239E-2,1.0366803E-1,0E0,6.7730825E-3,2.1187894E-2,2.959909E-2,6.316831E-2,1.7374422E-2,4.357812E-3,7.1523786E-3,3.306973E-2,6.665983E-2,7.71565E-2,4.4712603E-2,2.0751385E-3,0E0,3.411108E-3,1.0370407E-2,0E0,4.711047E-3,0E0,0E0,0E0,0E0,0E0,0E0,0E0,0E0,0E0,0E0,0E0,0E0,0E0,0E0,0E0,0E0,0E0,0E0,0E0,0E0,0E0,0E0,0E0,0E0],"parents":[2147483647,0,0,1,1,2,2,3,3,4,4,5,5,6,6,7,7,8,8,9,9,10,10,12,12,13,13,14,14,15,15,16,16,17,17,18,18,19,19,20,20,21,21,22,22,23,23,25,25,26,26,28,28],"right_children":[2,4,6,8,10,12,14,16,18,20,22,-1,24,26,28,30,32,34,36,38,40,42,44,46,-1,48,50,-1,52,-1,-1,-1,-1,-1,-1,-1,-1,-1,-1,-1,-1,-1,-1,-1,-1,-1,-1,-1,-1,-1,-1,-1,-1],"split_conditions":[5.2E-1,-1.978E0,3.1E0,3.2E0,9.446713E-1,5.5E-1,3.469E0,3.1E0,-7.492E0,1.18E0,1.0022845E0,-1.5927036E-1,2.2765155E0,1.1326535E0,4.981E0,-5.416E0,-1.7207E1,-3.7E-1,4.7E0,1.4E0,3.876E0,3.4E0,1.1380324E0,2.63E0,-8.724792E-2,9.7944814E-1,-5.977E0,9.362254E-2,4.8E0,-1.1292385E-2,1.2697597E-1,1.724095E-2,-6.303595E-2,-1.3107414E-2,4.260989E-2,1.8472278E-1,3.1868216E-2,-0E0,2.2001526E-1,-3.999772E-2,9.3228735E-2,3.966608E-3,-1.517312E-1,5.644742E-2,-3.8902266E-3,-2.9912991E-2,6.132419E-3,-2.0363089E-2,2.0395715E-2,-2.1453667E-3,-9.391618E-2,2.0635651E-2,-2.0798145E-2],"split_indices":[0,8,3,2,6,0,8,3,8,8,7,0,6,6,5,8,8,0,3,3,8,2,7,1,0,6,8,0,3,0,0,0,0,0,0,0,0,0,0,0,0,0,0,0,0,0,0,0,0,0,0,0,0],"split_type":[0,0,0,0,0,0,0,0,0,0,0,0,0,0,0,0,0,0,0,0,0,0,0,0,0,0,0,0,0,0,0,0,0,0,0,0,0,0,0,0,0,0,0,0,0,0,0,0,0,0,0,0,0],"sum_hessian":[2.15E2,1.74E2,4.1E1,3.4E1,1.4E2,1.5E1,2.6E1,2.2E1,1.2E1,1.7E1,1.23E2,2E0,1.3E1,1.3E1,1.3E1,1.3E1,9E0,6E0,6E0,3E0,1.4E1,1.2E1,1.11E2,1.1E1,2E0,7E0,6E0,4E0,9E0,9E0,4E0,4E0,5E0,1E0,5E0,5E0,1E0,1E0,2E0,9E0,5E0,5E0,7E0,1.3E1,9.8E1,1E1,1E0,2E0,5E0,2E0,4E0,4E0,5E0],"tree_param":{"num_deleted":"0","num_feature":"9","num_nodes":"53","size_leaf_vector":"1"}},{"base_weights":[1.0227534E-3,-5.1210453E-3,2.119624E-2,3.6112154E-3,-2.2058371E-2,7.5612694E-2,7.497174E-3,-1.7927669E-2,3.914864E-2,7.249842E-3,-4.901076E-2,-1.992724E-2,1.0323858E-1,1.6876653E-2,-6.3286304E-2,-1.9057832E-3,-5.6585997E-2,2.0155845E-2,1.7366414E-1,3.8927432E-2,-1.4949037E-2,-8.9678235E-2,-2.9691758E-2,1.2544401E-1,2.108153E-2,2.5311442E-2,-4.185524E-2,-8.422017E-2,5.224581E-3,1.077442E-2,-7.107365E-2,-1.3477148E-2,-1.8121712E-1,-4.1176707E-2,3.5655994E-2,1.4755672E-2,8.108204E-2,-4.095224E-2,1.8173596E-2,-1.3366961E-1,-2.5751207E-2,4.8784823E-3,-5.9740163E-2,6.5814983E-4,2.5964145E-2,6.1183203E-2,5.06046E-3,-8.545788E-2,1.2365815E-2],"categories":[],"categories_nodes":[],"categories_segments":[],"categories_sizes":[],"default_left":[0,0,0,0,0,0,0,0,0,0,0,0,0,0,0,0,0,0,0,0,0,0,0,0,0,0,0,0,0,0,0,0,0,0,0,0,0,0,0,0,0,0,0,0,0,0,0,0,0],"id":24,"left_children":[1,3,5,7,9,11,13,15,17,19,21,-1,23,25,27,29,31,33,-1,35,37,39,41,-1,43,45,47,-1,-1,-1,-1,-1,-1,-1,-1,-1,-1,-1,-1,-1,-1,-1,-1,-1,-1,-1,-1,-1,-1],"loss_changes":[2.7040737E-2,2.481572E-2,3.6620203E-2,8.511206E-2,4.5798726E-2,2.9284138E-2,2.8488275E-2,4.2044416E-2,1.0186411E-1,2.051151E-2,1.9713245E-2,0E0,1.0484852E-2,1.9718839E-2,8.40096E-3,4.52219E-2,1.0306486E-1,3.7538208E-2,0E0,1.0072617E-2,1.5614044E-2,2.0273775E-2,2.3693234E-2,0E0,1.5847269E-5,2.3726854E-2,1.3608582E-2,0E0,0E0,0E0,0E0,0E0,0E0,0E0,0E0,0E0,0E0,0E0,0E0,0E0,0E0,0E0,0E0,0E0,0E0,0E0,0E0,0E0,0E0],"parents":[2147483647,0,0,1,1,2,2,3,3,4,4,5,5,6,6,7,7,8,8,9,9,10,10,12,12,13,13,14,14,15,15,16,16,17,17,19,19,20,20,21,21,22,22,24,24,25,25,26,26],"right_children":[2,4,6,8,10,12,14,16,18,20,22,-1,24,26,28,30,32,34,-1,36,38,40,42,-1,44,46,48,-1,-1,-1,-1,-1,-1,-1,-1,-1,-1,-1,-1,-1,-1,-1,-1,-1,-1,-1,-1,-1,-1],"split_conditions":[5.2E0,3.9E0,5.6E0,1.4574336E0,1.3081095E0,-2.5E-1,2.2545025E0,2.6E0,3.4E0,-1.31E-1,4.981E0,-1.992724E-2,5E-1,3.1294E1,7.5E-1,2.6398E1,1.2902924E0,-1.26E0,1.7366414E-1,-3.163E0,6.6E0,2.3114276E0,3.4E0,1.2544401E-1,7.4E-1,7.6E0,-3.3E-1,-8.422017E-2,5.224581E-3,1.077442E-2,-7.107365E-2,-1.3477148E-2,-1.8121712E-1,-4.1176707E-2,3.5655994E-2,1.4755672E-2,8.108204E-2,-4.095224E-2,1.8173596E-2,-1.3366961E-1,-2.5751207E-2,4.8784823E-3,-5.9740163E-2,6.5814983E-4,2.5964145E-2,6.1183203E-2,5.06046E-3,-8.545788E-2,1.2365815E-2],"split_indices":[2,3,2,6,6,1,6,3,3,8,4,0,0,8,0,4,6,1,0,8,3,6,2,0,0,2,1,0,0,0,0,0,0,0,0,0,0,0,0,0,0,0,0,0,0,0,0,0,0],"split_type":[0,0,0,0,0,0,0,0,0,0,0,0,0,0,0,0,0,0,0,0,0,0,0,0,0,0,0,0,0,0,0,0,0,0,0,0,0,0,0,0,0,0,0,0,0,0,0,0,0],"sum_hessian":[2.15E2,1.65E2,5E1,1.09E2,5.6E1,9E0,4.1E1,6.8E1,4.1E1,2.7E1,2.9E1,2E0,7E0,3.7E1,4E0,4.9E1,1.9E1,3.7E1,4E0,1.1E1,1.6E1,8E0,2.1E1,5E0,2E0,3.3E1,4E0,3E0,1E0,4.2E1,7E0,1.5E1,4E0,7E0,3E1,8E0,3E0,9E0,7E0,4E0,4E0,1E1,1.1E1,1E0,1E0,1.1E1,2.2E1,2E0,2E0],"tree_param":{"num_deleted":"0","num_feature":"9","num_nodes":"49","size_leaf_vector":"1"}},{"base_weights":[-6.562751E-4,-1.3690228E-2,1.1256888E-2,7.1830824E-2,-1.6169375E-2,-1.3842831E-2,1.9032009E-2,9.123146E-2,1.1514778E-2,4.7221567E-2,-1.8668307E-2,-3.5078485E-2,1.932525E-2,6.5560035E-2,6.6529154E-3,3.5953475E-3,5.723186E-2,-2.9738344E-2,4.14954E-4,5.56492E-2,-5.155212E-2,3.8811564E-2,-1.7152712E-3,9.588379E-2,2.7821732E-3,-4.909866E-2,1.5847387E-2,-5.914075E-3,-5.0914526E-2,8.261075E-3,-4.9452435E-2,-2.8341347E-2,-1.3161476E-1,-4.564879E-3,-0E0,5.532659E-3,1.1240075E-1,-2.6100693E-2,3.3469494E-2,-2.039414E-4,-7.999448E-2,4.135448E-2,1.4199025E-4],"categories":[],"categories_nodes":[],"categories_segments":[],"categories_sizes":[],"default_left":[0,0,0,0,0,0,0,0,0,0,0,0,0,0,0,0,0,0,0,0,0,0,0,0,0,0,0,0,0,0,0,0,0,0,0,0,0,0,0,0,0,0,0],"id":25,"left_children":[1,3,5,7,9,11,13,-1,-1,15,17,19,21,23,25,-1,-1,27,29,-1,31,-1,33,35,37,39,41,-1,-1,-1,-1,-1,-1,-1,-1,-1,-1,-1,-1,-1,-1,-1,-1],"loss_changes":[3.371797E-2,2.2654843E-2,2.2367677E-2,1.432538E-3,1.6753811E-2,1.985277E-2,4.8951507E-2,0E0,0E0,9.328043E-4,2.1219563E-2,2.8236318E-2,4.94756E-3,3.3012457E-2,3.6328014E-2,0E0,0E0,3.0914549E-2,1.4473441E-2,0E0,2.254504E-2,0E0,6.5699554E-5,1.6106717E-2,7.15163E-3,1.4288127E-2,2.4015702E-2,0E0,0E0,0E0,0E0,0E0,0E0,0E0,0E0,0E0,0E0,0E0,0E0,0E0,0E0,0E0,0E0],"parents":[2147483647,0,0,1,1,2,2,3,3,4,4,5,5,6,6,9,9,10,10,11,11,12,12,13,13,14,14,17,17,18,18,20,20,22,22,23,23,24,24,25,25,26,26],"right_children":[2,4,6,8,10,12,14,-1,-1,16,18,20,22,24,26,-1,-1,28,30,-1,32,-1,34,36,38,40,42,-1,-1,-1,-1,-1,-1,-1,-1,-1,-1,-1,-1,-1,-1,-1,-1],"split_conditions":[8.668E0,-3.05E0,2E0,-1.71E0,8.579666E-1,5E-2,3E0,9.123146E-2,1.1514778E-2,-5.8E-1,1.2E-1,-2.2501E1,2.31E1,3.6E0,3.3E0,3.5953475E-3,5.723186E-2,2.2E0,1.47E0,5.56492E-2,2.8546E1,3.8811564E-2,3.5E-1,-2.1961E1,-1E-2,1E-2,1.3081095E0,-5.914075E-3,-5.0914526E-2,8.261075E-3,-4.9452435E-2,-2.8341347E-2,-1.3161476E-1,-4.564879E-3,-0E0,5.532659E-3,1.1240075E-1,-2.6100693E-2,3.3469494E-2,-2.039414E-4,-7.999448E-2,4.135448E-2,1.4199025E-4],"split_indices":[4,1,2,0,6,1,2,0,0,1,0,5,4,3,2,0,0,2,1,0,8,0,0,8,1,0,6,0,0,0,0,0,0,0,0,0,0,0,0,0,0,0,0],"split_type":[0,0,0,0,0,0,0,0,0,0,0,0,0,0,0,0,0,0,0,0,0,0,0,0,0,0,0,0,0,0,0,0,0,0,0,0,0,0,0,0,0,0,0],"sum_hessian":[2.15E2,1.03E2,1.12E2,2E0,1.01E2,2.6E1,8.6E1,1E0,1E0,3E0,9.8E1,1.6E1,1E1,1.7E1,6.9E1,1E0,2E0,6.2E1,3.6E1,2E0,1.4E1,5E0,5E0,1.1E1,6E0,9E0,6E1,3E1,3.2E1,3.2E1,4E0,1.2E1,2E0,3E0,2E0,2E0,9E0,3E0,3E0,4E0,5E0,2.2E1,3.8E1],"tree_param":{"num_deleted":"0","num_feature":"9","num_nodes":"43","size_leaf_vector":"1"}}]},"name":"gbtree"},"learner_model_param":{"base_score":"1.1615772E1","boost_from_average":"1","num_class":"0","num_feature":"9","num_target":"1"},"objective":{"name":"reg:squarederror","reg_loss_param":{"scale_pos_weight":"1"}}},"version":[2,1,4]}