{"learner":{"attributes":{"best_iteration":"0","best_score":"115.58160929100917","scikit_learn":"{\"_estimator_type\": \"regressor\"}"},"feature_names":["watr","fedfunds_lag_9","fedfunds_lag_10","fedfunds_lag_11","fedfunds_lag_12","gdp_lag_9","gdp_lag_10","gdp_lag_11","gdp_lag_12","imports_lag_9","imports_lag_10","imports_lag_11","imports_lag_12","watr_lag_9","watr_lag_10","watr_lag_11","watr_lag_12","imports_lag_1"],"feature_types":["float","float","float","float","float","float","float","float","float","float","float","float","float","float","float","float","float","float"],"gradient_booster":{"model":{"gbtree_model_param":{"num_parallel_tree":"1","num_trees":"26"},"iteration_indptr":[0,1,2,3,4,5,6,7,8,9,10,11,12,13,14,15,16,17,18,19,20,21,22,23,24,25,26],"tree_info":[0,0,0,0,0,0,0,0,0,0,0,0,0,0,0,0,0,0,0,0,0,0,0,0,0,0],"trees":[{"base_weights":[-0E0,-1.0640333E2,1.5273207E0,-4.8856335E0,2.256749E1,-2.4908667E1,-3.2511532E0,1.908778E0,2.6551659E1,2.4917332E1,-3.73666E1,-5.0870376E0,9.674001E0,-1.2488999E1,7.808E0,3.6737144E1,1.5101334E1,3.4212997E1,3.1579995E0,-4.118667E1,-1.488E0,-1.4229999E0,-1.0190637E1,1.4790126E1,-1.32065E1,1.337675E1,2.8475004E-1,4.2456276E1,1.8142502E0,1.7224842E1,-3.3779998E0],"categories":[],"categories_nodes":[],"categories_segments":[],"categories_sizes":[],"default_left":[0,0,0,0,0,0,0,0,0,0,0,0,0,0,0,0,0,0,0,0,0,0,0,0,0,0,0,0,0,0,0],"id":0,"left_children":[1,-1,3,5,7,9,11,13,15,17,19,21,23,-1,25,27,29,-1,-1,-1,-1,-1,-1,-1,-1,-1,-1,-1,-1,-1,-1],"loss_changes":[3.4452543E4,0E0,2.831073E4,5.187824E3,3.9821152E3,8.379947E3,3.6085298E3,8.618885E2,4.226414E3,4.9838416E2,1.308875E3,2.4537534E3,2.4194724E3,0E0,2.8932004E2,4.116834E3,8.8238525E2,0E0,0E0,0E0,0E0,0E0,0E0,0E0,0E0,0E0,0E0,0E0,0E0,0E0,0E0],"parents":[2147483647,0,0,2,2,3,3,4,4,5,5,6,6,7,7,8,8,9,9,10,10,11,11,12,12,14,14,15,15,16,16],"right_children":[2,-1,4,6,8,10,12,14,16,18,20,22,24,-1,26,28,30,-1,-1,-1,-1,-1,-1,-1,-1,-1,-1,-1,-1,-1,-1],"split_conditions":[-8.2388E1,-1.0640333E2,2.6147E1,-2.1961E1,1.1613433E0,7E-1,3.1294E1,9.9794817E-1,1.2807505E0,1.0539463E0,4.9E-1,1E-1,5.6663E1,-1.2488999E1,1.1755475E0,2.5E-1,5.6663E1,3.4212997E1,3.1579995E0,-4.118667E1,-1.488E0,-1.4229999E0,-1.0190637E1,1.4790126E1,-1.32065E1,1.337675E1,2.8475004E-1,4.2456276E1,1.8142502E0,1.7224842E1,-3.3779998E0],"split_indices":[17,0,17,17,15,8,11,0,0,0,2,1,10,0,0,4,17,0,0,0,0,0,0,0,0,0,0,0,0,0,0],"split_type":[0,0,0,0,0,0,0,0,0,0,0,0,0,0,0,0,0,0,0,0,0,0,0,0,0,0,0,0,0,0,0],"sum_hessian":[2.1E2,2E0,2.08E2,1.6E2,4.8E1,1.1E1,1.49E2,8E0,4E1,2E0,9E0,1.31E2,1.8E1,2E0,6E0,2E1,2E1,1E0,1E0,8E0,1E0,7.7E1,5.4E1,1.5E1,3E0,3E0,3E0,1.7E1,3E0,1.8E1,2E0],"tree_param":{"num_deleted":"0","num_feature":"18","num_nodes":"31","size_leaf_vector":"1"}},{"base_weights":[-2.9591042E-1,-3.546778E1,2.1031697E-1,6.0676622E0,-5.9274334E1,3.2488773E0,-3.5415268E0,-3.5747752E0,5.5646324E0,-5.6337256E0,7.0094266E0,1.0408636E1,-5.514363E0,2.3715464E1,3.4262512E0,-7.5723567E0,3.1419241E0,8.93833E0,-1.0957063E1,1.4015625E1,-2.0116532E-1,8.615818E0,-6.3895936E0,3.1621997E0,2.9134653E1,6.7323647E0,-1.9097427E0,-4.879479E0,-1.4332122E1,6.61537E0,-5.126041E0,-4.155755E-1,1.0410129E1],"categories":[],"categories_nodes":[],"categories_segments":[],"categories_sizes":[],"default_left":[0,0,0,0,0,0,0,0,0,0,0,0,0,0,0,0,0,0,0,0,0,0,0,0,0,0,0,0,0,0,0,0,0],"id":1,"left_children":[1,3,5,-1,-1,7,9,11,13,15,17,19,21,23,25,27,29,31,-1,-1,-1,-1,-1,-1,-1,-1,-1,-1,-1,-1,-1,-1,-1],"loss_changes":[3.7646594E3,3.3266357E3,2.3941455E3,0E0,0E0,1.8529336E3,2.1144966E3,8.710097E2,3.295239E3,1.367843E3,6.524077E2,1.5603534E2,3.889428E2,9.0998584E2,1.4065762E3,1.113084E3,4.6470044E2,2.1093213E2,0E0,0E0,0E0,0E0,0E0,0E0,0E0,0E0,0E0,0E0,0E0,0E0,0E0,0E0,0E0],"parents":[2147483647,0,0,1,1,2,2,5,5,6,6,7,7,8,8,9,9,10,10,11,11,12,12,13,13,14,14,15,15,16,16,17,17],"right_children":[2,4,6,-1,-1,8,10,12,14,16,18,20,22,24,26,28,30,32,-1,-1,-1,-1,-1,-1,-1,-1,-1,-1,-1,-1,-1,-1,-1],"split_conditions":[-8.2388E1,1.1610953E0,3.6E0,6.0676622E0,-5.9274334E1,1.1337645E0,6.6E-1,-1.7207E1,1.1442207E0,2.3282926E0,3.3947E1,1.0702932E0,-2.1494E1,5E-1,1E-2,4E-1,1.517E1,1.0686582E0,-1.0957063E1,1.4015625E1,-2.0116532E-1,8.615818E0,-6.3895936E0,3.1621997E0,2.9134653E1,6.7323647E0,-1.9097427E0,-4.879479E0,-1.4332122E1,6.61537E0,-5.126041E0,-4.155755E-1,1.0410129E1],"split_indices":[17,0,7,0,0,14,1,17,0,16,11,0,9,5,3,2,9,0,0,0,0,0,0,0,0,0,0,0,0,0,0,0,0],"split_type":[0,0,0,0,0,0,0,0,0,0,0,0,0,0,0,0,0,0,0,0,0,0,0,0,0,0,0,0,0,0,0,0,0],"sum_hessian":[2.1E2,2E0,2.08E2,1E0,1E0,1.15E2,9.3E1,2.9E1,8.6E1,7.8E1,1.5E1,3E0,2.6E1,8E0,7.8E1,6.4E1,1.4E1,1.4E1,1E0,2E0,1E0,1E0,2.5E1,2E0,6E0,4.8E1,3E1,4.7E1,1.7E1,1E1,4E0,2E0,1.2E1],"tree_param":{"num_deleted":"0","num_feature":"18","num_nodes":"33","size_leaf_vector":"1"}},{"base_weights":[-8.8774115E-2,-1.7732224E1,1.6485806E-1,3.0338297E0,-2.9637167E1,-1.0694604E1,5.3855944E-1,-1.4230428E1,-1.2333635E0,9.638456E-1,-8.734703E0,-2.595629E0,-1.648772E1,-2.1864053E-2,-1.8231813E0,-1.8585082E0,2.3250334E0,7.609586E0,-1.4493011E1,1.593219E-1,-7.922581E0,1.2075588E1,1.598501E0,-1.902999E1,-2.097046E0],"categories":[],"categories_nodes":[],"categories_segments":[],"categories_sizes":[],"default_left":[0,0,0,0,0,0,0,0,0,0,0,0,0,0,0,0,0,0,0,0,0,0,0,0,0],"id":2,"left_children":[1,3,5,-1,-1,7,9,11,13,15,17,-1,-1,-1,-1,19,21,-1,23,-1,-1,-1,-1,-1,-1],"loss_changes":[9.4731274E2,8.318361E2,8.538211E2,0E0,0E0,2.1646698E2,8.0893054E2,8.832886E1,2.0853786E0,7.534678E2,9.573939E2,0E0,0E0,0E0,0E0,7.844611E2,9.156608E2,0E0,3.5356335E2,0E0,0E0,0E0,0E0,0E0,0E0],"parents":[2147483647,0,0,1,1,2,2,5,5,6,6,7,7,8,8,9,9,10,10,15,15,16,16,18,18],"right_children":[2,4,6,-1,-1,8,10,12,14,16,18,-1,-1,-1,-1,20,22,-1,24,-1,-1,-1,-1,-1,-1],"split_conditions":[-8.2388E1,1.1610953E0,-2.12E0,3.0338297E0,-2.9637167E1,-8.3E-1,6.0456E1,1.5011843E0,2.0451431E0,-2E-1,1.1910319E0,-2.595629E0,-1.648772E1,-2.1864053E-2,-1.8231813E0,2.5945E1,-9.1E-1,7.609586E0,5.4477E1,1.593219E-1,-7.922581E0,1.2075588E1,1.598501E0,-1.902999E1,-2.097046E0],"split_indices":[17,0,2,0,0,1,12,0,0,4,0,0,0,0,0,17,1,0,11,0,0,0,0,0,0],"split_type":[0,0,0,0,0,0,0,0,0,0,0,0,0,0,0,0,0,0,0,0,0,0,0,0,0],"sum_hessian":[2.1E2,2E0,2.08E2,1E0,1E0,6E0,2.02E2,4E0,2E0,1.94E2,8E0,1E0,3E0,1E0,1E0,6.3E1,1.31E2,2E0,6E0,4.8E1,1.5E1,8E0,1.23E2,4E0,2E0],"tree_param":{"num_deleted":"0","num_feature":"18","num_nodes":"25","size_leaf_vector":"1"}},{"base_weights":[-2.6141393E-1,-2.385361E0,1.7103498E0,1.8181308E-1,-7.3051457E0,-5.253349E-1,4.124866E0,-4.890172E0,1.7097367E0,-9.715264E0,5.961305E0,9.0271467E-1,-9.5647335E0,1.0287731E1,3.1190166E0,-1.6663947E0,-9.983735E0,-2.325455E0,3.0795603E0,-4.451011E0,-1.4682117E1,-5.7473284E-1,1.2692254E1,2.4236982E0,-4.2416234E0,-2.110138E1,-2.2006218E0,4.360495E0,1.6733881E1,5.3275948E0,7.8006256E-1,-3.6457481E0,4.8237967E0,-1.8889228E0,-1.1222913E1,-3.729812E0,4.0637913E0,3.641838E0,-9.419636E0,-7.27536E0,5.8383756E0,-1.5646071E1,-5.883795E-1,1.3748901E0,-3.2168007E0,3.794057E0,1.5239325E1,-1.5766145E0,4.6387362E0,4.27859E0,-6.374525E0,-4.4333773E0,4.4765778E0,4.8808813E0,1.1344754E0,1.0317161E1,3.090675E0,2.1090963E0,-4.6900845E0],"categories":[],"categories_nodes":[],"categories_segments":[],"categories_sizes":[],"default_left":[0,0,0,0,0,0,0,0,0,0,0,0,0,0,0,0,0,0,0,0,0,0,0,0,0,0,0,0,0,0,0,0,0,0,0,0,0,0,0,0,0,0,0,0,0,0,0,0,0,0,0,0,0,0,0,0,0,0,0],"id":3,"left_children":[1,3,5,7,9,11,13,15,17,19,21,23,25,27,29,31,33,35,37,39,41,43,45,47,49,-1,51,53,-1,55,57,-1,-1,-1,-1,-1,-1,-1,-1,-1,-1,-1,-1,-1,-1,-1,-1,-1,-1,-1,-1,-1,-1,-1,-1,-1,-1,-1,-1],"loss_changes":[8.877379E2,1.2896537E3,5.959936E2,5.353023E2,1.1770333E3,7.5742596E2,2.963208E2,2.4597488E2,3.0012646E2,7.188618E2,2.713783E2,4.0930936E2,6.3298804E2,1.9427606E2,2.3857394E2,1.5888477E2,3.8855164E1,1.407728E2,3.153678E2,5.0746375E2,1.9441748E2,2.5045313E1,9.983765E0,3.6177792E2,2.4536829E2,0E0,1.0929725E2,2.7964783E0,0E0,2.3584912E2,1.8434627E2,0E0,0E0,0E0,0E0,0E0,0E0,0E0,0E0,0E0,0E0,0E0,0E0,0E0,0E0,0E0,0E0,0E0,0E0,0E0,0E0,0E0,0E0,0E0,0E0,0E0,0E0,0E0,0E0],"parents":[2147483647,0,0,1,1,2,2,3,3,4,4,5,5,6,6,7,7,8,8,9,9,10,10,11,11,12,12,13,13,14,14,15,15,16,16,17,17,18,18,19,19,20,20,21,21,22,22,23,23,24,24,26,26,27,27,29,29,30,30],"right_children":[2,4,6,8,10,12,14,16,18,20,22,24,26,28,30,32,34,36,38,40,42,44,46,48,50,-1,52,54,-1,56,58,-1,-1,-1,-1,-1,-1,-1,-1,-1,-1,-1,-1,-1,-1,-1,-1,-1,-1,-1,-1,-1,-1,-1,-1,-1,-1,-1,-1],"split_conditions":[1.0743E1,1.2139E1,-1E-2,1.4E0,4.6716E1,5E0,-1.547E0,6.6E-1,-2.2E-1,3E-2,2.5E0,2.3397024E0,1.1848879E0,1.5E0,4E0,1.3009657E0,-2.12E0,4.736E0,1.01E1,-2E-2,4.6716E1,-2E-2,1.2033085E0,1.2076195E0,2.2707646E0,-2.110138E1,2.2192752E0,6.6E-1,1.6733881E1,2.9E0,2.3356183E0,-3.6457481E0,4.8237967E0,-1.8889228E0,-1.1222913E1,-3.729812E0,4.0637913E0,3.641838E0,-9.419636E0,-7.27536E0,5.8383756E0,-1.5646071E1,-5.883795E-1,1.3748901E0,-3.2168007E0,3.794057E0,1.5239325E1,-1.5766145E0,4.6387362E0,4.27859E0,-6.374525E0,-4.4333773E0,4.4765778E0,4.8808813E0,1.1344754E0,1.0317161E1,3.090675E0,2.1090963E0,-4.6900845E0],"split_indices":[17,12,2,5,11,5,11,2,2,2,6,0,0,5,8,0,1,11,8,2,9,1,0,0,14,0,0,2,0,7,14,0,0,0,0,0,0,0,0,0,0,0,0,0,0,0,0,0,0,0,0,0,0,0,0,0,0,0,0],"split_type":[0,0,0,0,0,0,0,0,0,0,0,0,0,0,0,0,0,0,0,0,0,0,0,0,0,0,0,0,0,0,0,0,0,0,0,0,0,0,0,0,0,0,0,0,0,0,0,0,0,0,0,0,0,0,0,0,0,0,0],"sum_hessian":[2.1E2,1.01E2,1.09E2,6.7E1,3.4E1,5.7E1,5.2E1,1.5E1,5.2E1,2.9E1,5E0,5E1,7E0,6E0,4.6E1,1E1,5E0,1.3E1,3.9E1,1.5E1,1.4E1,3E0,2E0,3.9E1,1.1E1,2E0,5E0,4E0,2E0,2.3E1,2.3E1,8E0,2E0,1E0,4E0,1.1E1,2E0,3.8E1,1E0,1.2E1,3E0,1.3E1,1E0,2E0,1E0,1E0,1E0,1.4E1,2.5E1,2E0,9E0,4E0,1E0,3E0,1E0,6E0,1.7E1,1.9E1,4E0],"tree_param":{"num_deleted":"0","num_feature":"18","num_nodes":"59","size_leaf_vector":"1"}},{"base_weights":[-2.0585245E-2,2.2174992E-1,-5.4854136E0,-8.221566E0,3.4671608E-1,-1.6899028E0,-1.2509801E1,2.830273E0,-2.208617E-2,4.5922953E-1,-3.4190593E0,1.172291E0,8.159831E0,-2.2485175E0,5.4645014E-1,1.7031461E0,-1.63126E0,-4.135842E0,1.949244E0,9.562902E0,5.672375E-1,-9.7944367E-1,-6.5665956E0,5.4657373E0,4.639441E-2],"categories":[],"categories_nodes":[],"categories_segments":[],"categories_sizes":[],"default_left":[0,0,0,0,0,0,0,0,0,0,0,0,0,0,0,0,0,0,0,0,0,0,0,0,0],"id":4,"left_children":[1,3,5,-1,7,9,-1,11,13,15,-1,17,19,21,23,-1,-1,-1,-1,-1,-1,-1,-1,-1,-1],"loss_changes":[2.8070056E2,2.1696294E2,2.1866788E2,0E0,1.8419481E2,2.7613035E1,0E0,2.2008508E2,2.2402777E2,1.3180571E1,0E0,9.464747E1,5.8391968E1,1.9077147E2,3.465397E2,0E0,0E0,0E0,0E0,0E0,0E0,0E0,0E0,0E0,0E0],"parents":[2147483647,0,0,1,1,2,2,4,4,5,5,7,7,8,8,9,9,11,11,12,12,13,13,14,14],"right_children":[2,4,6,-1,8,10,-1,12,14,16,-1,18,20,22,24,-1,-1,-1,-1,-1,-1,-1,-1,-1,-1],"split_conditions":[6.0456E1,-6.1E0,2E-2,-8.221566E0,0E0,2.5E0,-1.2509801E1,9.362E0,-1.31E-1,1.2806218E0,-3.4190593E0,-4.5E0,7.3E-1,7.5E-1,-6.8E-1,1.7031461E0,-1.63126E0,-4.135842E0,1.949244E0,9.562902E0,5.672375E-1,-9.7944367E-1,-6.5665956E0,5.4657373E0,4.639441E-2],"split_indices":[17,6,1,0,7,5,0,10,12,0,0,5,1,2,1,0,0,0,0,0,0,0,0,0,0],"split_type":[0,0,0,0,0,0,0,0,0,0,0,0,0,0,0,0,0,0,0,0,0,0,0,0,0],"sum_hessian":[2.1E2,2.02E2,8E0,2E0,2E2,6E0,2E0,2.5E1,1.75E2,3E0,3E0,2E1,5E0,3.5E1,1.4E2,2E0,1E0,2E0,1.8E1,4E0,1E0,2.8E1,7E0,1.2E1,1.28E2],"tree_param":{"num_deleted":"0","num_feature":"18","num_nodes":"25","size_leaf_vector":"1"}},{"base_weights":[-8.610856E-2,-6.9127834E-1,1.0434798E0,-1.20662585E-1,-3.8642013E0,2.5032191E0,-1.7473165E0,7.5440776E-1,-2.496302E0,-8.107453E0,-6.2854964E-1,4.7003803E0,1.1887778E0,-3.320416E0,2.2059596E0,-1.0047156E0,2.0160382E0,-1.402424E0,-8.120757E0,-1.1655084E1,-2.9363337E0,9.5422053E-1,-3.353826E0,6.034239E0,2.3501633E-2,-5.263706E-1,3.4322808E0,9.803944E-1,-5.3815894E0,4.707494E-1,4.9377265E0,2.5749925E-1,-2.5054095E0,6.3477864E0,8.044463E-1,-1.9378079E0,1.4459037E0,1.5260664E-1,-5.049829E0,3.30954E0,-1.9009076E-1,-3.801017E0,-7.775308E-1,3.132198E0,7.817994E0,1.2295321E0,-1.1870295E0,-2.468504E0,2.451376E0,4.3819213E0,-1.5070423E0,-1.1463678E0,2.062373E0,-2.308234E0,-7.0126576E0,-6.1553043E-1,1.1702719E0],"categories":[],"categories_nodes":[],"categories_segments":[],"categories_sizes":[],"default_left":[0,0,0,0,0,0,0,0,0,0,0,0,0,0,0,0,0,0,0,0,0,0,0,0,0,0,0,0,0,0,0,0,0,0,0,0,0,0,0,0,0,0,0,0,0,0,0,0,0,0,0,0,0,0,0,0,0],"id":5,"left_children":[1,3,5,7,9,11,13,15,17,19,21,23,25,27,29,31,33,35,-1,-1,37,39,41,43,45,47,49,51,53,55,-1,-1,-1,-1,-1,-1,-1,-1,-1,-1,-1,-1,-1,-1,-1,-1,-1,-1,-1,-1,-1,-1,-1,-1,-1,-1,-1],"loss_changes":[1.4495589E2,2.4934564E2,3.0584528E2,2.4720512E2,2.8314017E2,1.3586734E2,1.6902715E2,1.951203E2,1.8539497E2,1.3073785E2,5.9299606E1,1.1208685E2,1.249698E2,1.7374971E2,3.5542995E1,7.0752945E1,2.624859E2,4.5505367E1,0E0,0E0,3.346192E1,2.4917274E1,2.759285E0,4.787445E1,8.7596035E0,1.1593185E2,7.230061E1,1.8481173E1,4.8887024E1,5.2851486E0,0E0,0E0,0E0,0E0,0E0,0E0,0E0,0E0,0E0,0E0,0E0,0E0,0E0,0E0,0E0,0E0,0E0,0E0,0E0,0E0,0E0,0E0,0E0,0E0,0E0,0E0,0E0],"parents":[2147483647,0,0,1,1,2,2,3,3,4,4,5,5,6,6,7,7,8,8,9,9,10,10,11,11,12,12,13,13,14,14,15,15,16,16,17,17,20,20,21,21,22,22,23,23,24,24,25,25,26,26,27,27,28,28,29,29],"right_children":[2,4,6,8,10,12,14,16,18,20,22,24,26,28,30,32,34,36,-1,-1,38,40,42,44,46,48,50,52,54,56,-1,-1,-1,-1,-1,-1,-1,-1,-1,-1,-1,-1,-1,-1,-1,-1,-1,-1,-1,-1,-1,-1,-1,-1,-1,-1,-1],"split_conditions":[1.8689739E0,1.4362367E0,2.408993E0,3.9E-1,1.5491352E0,5.913E0,2.9E-1,3.853E0,4.2072E1,2E-2,1.7873766E0,1.5376E1,2.1165E1,-4.2E-1,3.6E0,2.6E0,8.889E0,7E0,-8.120757E0,-1.1655084E1,3E-2,3.6E0,1E-2,1.4E0,3.9E0,4E0,3.2875E1,2.1E0,-7E-2,-2.5E-1,4.9377265E0,2.5749925E-1,-2.5054095E0,6.3477864E0,8.044463E-1,-1.9378079E0,1.4459037E0,1.5260664E-1,-5.049829E0,3.30954E0,-1.9009076E-1,-3.801017E0,-7.775308E-1,3.132198E0,7.817994E0,1.2295321E0,-1.1870295E0,-2.468504E0,2.451376E0,4.3819213E0,-1.5070423E0,-1.1463678E0,2.062373E0,-2.308234E0,-7.0126576E0,-6.1553043E-1,1.1702719E0],"split_indices":[15,16,16,4,16,10,3,9,12,4,15,9,10,3,6,8,9,6,0,0,1,5,1,6,6,5,10,6,4,4,0,0,0,0,0,0,0,0,0,0,0,0,0,0,0,0,0,0,0,0,0,0,0,0,0,0,0],"split_type":[0,0,0,0,0,0,0,0,0,0,0,0,0,0,0,0,0,0,0,0,0,0,0,0,0,0,0,0,0,0,0,0,0,0,0,0,0,0,0,0,0,0,0,0,0,0,0,0,0,0,0,0,0,0,0,0,0],"sum_hessian":[2.1E2,1.37E2,7.3E1,1.17E2,2E1,4.8E1,2.5E1,8.6E1,3.1E1,8E0,1.2E1,1.7E1,3.1E1,1.8E1,7E0,3.6E1,5E1,2.7E1,4E0,4E0,4E0,8E0,4E0,1.3E1,4E0,1.8E1,1.3E1,6E0,1.2E1,5E0,2E0,2E1,1.6E1,1E1,4E1,2.3E1,4E0,2E0,2E0,2E0,6E0,3E0,1E0,6E0,7E0,2E0,2E0,1.1E1,7E0,1.1E1,2E0,2E0,4E0,5E0,7E0,2E0,3E0],"tree_param":{"num_deleted":"0","num_feature":"18","num_nodes":"57","size_leaf_vector":"1"}},{"base_weights":[-5.1098257E-2,-1.4317036E-1,3.7689066E0,-1.077559E0,2.5453693E-1,-5.2666664E-1,-2.927999E0,7.3645678E0,5.3805023E-2,-3.4542787E-1,-4.608064E0,7.7507025E-1,-4.0092974E0,1.1805733E0,-6.637271E-1,-6.592896E-1,1.5856608E0,1.4478513E0,-6.166364E-1,-4.8830194E0,-4.8364952E-2,5.4973376E-1,3.7103958E0,-1.4988075E0,1.673232E-1],"categories":[],"categories_nodes":[],"categories_segments":[],"categories_sizes":[],"default_left":[0,0,0,0,0,0,0,0,0,0,0,0,0,0,0,0,0,0,0,0,0,0,0,0,0],"id":6,"left_children":[1,3,-1,5,7,9,11,-1,13,15,-1,17,19,21,23,-1,-1,-1,-1,-1,-1,-1,-1,-1,-1],"loss_changes":[7.471539E1,7.720643E1,0E0,6.1625748E1,2.0790222E2,3.460438E1,5.9197548E1,0E0,1.16403175E2,3.0128698E1,0E0,4.646365E0,3.778282E1,8.728874E1,6.1335552E1,0E0,0E0,0E0,0E0,0E0,0E0,0E0,0E0,0E0,0E0],"parents":[2147483647,0,0,1,1,3,3,4,4,5,5,6,6,8,8,9,9,11,11,12,12,13,13,14,14],"right_children":[2,4,-1,6,8,10,12,-1,14,16,-1,18,20,22,24,-1,-1,-1,-1,-1,-1,-1,-1,-1,-1],"split_conditions":[1.93E0,-2E-1,3.7689066E0,-3.3E-1,-1.5E-1,9.4E0,-5.8E-1,7.3645678E0,3.853E0,3E-2,-4.608064E0,2.3356183E0,4.9E0,3.1294E1,1.3081095E0,-6.592896E-1,1.5856608E0,1.4478513E0,-6.166364E-1,-4.8830194E0,-4.8364952E-2,5.4973376E-1,3.7103958E0,-1.4988075E0,1.673232E-1],"split_indices":[2,3,0,3,3,7,1,0,17,2,0,0,7,11,15,0,0,0,0,0,0,0,0,0,0],"split_type":[0,0,0,0,0,0,0,0,0,0,0,0,0,0,0,0,0,0,0,0,0,0,0,0,0],"sum_hessian":[2.1E2,2.06E2,4E0,6.1E1,1.45E2,4.8E1,1.3E1,3E0,1.42E2,4.7E1,1E0,3E0,1E1,5.5E1,8.7E1,4.1E1,6E0,2E0,1E0,8E0,2E0,4.5E1,1E1,4.3E1,4.4E1],"tree_param":{"num_deleted":"0","num_feature":"18","num_nodes":"25","size_leaf_vector":"1"}},{"base_weights":[2.9764157E-2,8.373345E-1,-3.4352535E-1,-6.7668015E-1,1.6983353E0,-5.497447E-1,1.2409348E0,-9.311688E-2,-3.7146082E0,-8.383064E-1,2.4927208E0,-9.643025E-1,4.681253E-1,2.0245821E0,4.889235E-1,9.191289E-1,-1.1898289E0,2.985913E0,-2.0210123E0,1.9095255E0,5.374709E0,-1.3794034E0,4.1871852E-1,1.7759719E0,-1.3010743E-1,2.3278713E0,-4.422104E-2,7.401223E-1,-8.809329E-1,-5.7153726E-1,2.0669672E0,-1.8608949E0,1.2166452E0,-2.3245835E0,1.9877923E-1,3.0273745E0,6.6370815E-1,4.0230143E-1,6.5147357E0,-3.873109E0,-1.1316512E0,3.3343146E0,-2.1660268E-1,2.3711307E0,-4.6287156E-3,2.1519706E-1,-1.6944866E0,4.8787034E-1,2.5515597E0,2.3739952E-1,9.5025045E-1],"categories":[],"categories_nodes":[],"categories_segments":[],"categories_sizes":[],"default_left":[0,0,0,0,0,0,0,0,0,0,0,0,0,0,0,0,0,0,0,0,0,0,0,0,0,0,0,0,0,0,0,0,0,0,0,0,0,0,0,0,0,0,0,0,0,0,0,0,0,0,0],"id":7,"left_children":[1,3,5,7,9,11,13,15,-1,17,19,21,23,25,27,29,31,-1,33,35,37,39,41,43,45,47,-1,49,-1,-1,-1,-1,-1,-1,-1,-1,-1,-1,-1,-1,-1,-1,-1,-1,-1,-1,-1,-1,-1,-1,-1],"loss_changes":[6.3900124E1,8.849849E1,4.805351E1,4.3936615E1,8.875427E1,5.4889977E1,9.003296E0,2.5519442E1,0E0,5.577711E1,4.5129166E1,5.3403748E1,2.9978596E1,5.145344E0,4.091653E0,2.1728828E1,2.0034422E1,0E0,6.5481224E0,3.8340218E1,2.5653336E1,3.9432236E1,4.150488E1,1.2751526E1,1.4964496E1,1.6058846E0,0E0,7.132602E-1,0E0,0E0,0E0,0E0,0E0,0E0,0E0,0E0,0E0,0E0,0E0,0E0,0E0,0E0,0E0,0E0,0E0,0E0,0E0,0E0,0E0,0E0,0E0],"parents":[2147483647,0,0,1,1,2,2,3,3,4,4,5,5,6,6,7,7,9,9,10,10,11,11,12,12,13,13,14,14,15,15,16,16,18,18,19,19,20,20,21,21,22,22,23,23,24,24,25,25,27,27],"right_children":[2,4,6,8,10,12,14,16,-1,18,20,22,24,26,28,30,32,-1,34,36,38,40,42,44,46,48,-1,50,-1,-1,-1,-1,-1,-1,-1,-1,-1,-1,-1,-1,-1,-1,-1,-1,-1,-1,-1,-1,-1,-1,-1],"split_conditions":[1.1745726E0,9.9679774E-1,7.7E-1,4.1E-1,-7.492E0,2.3114276E0,2.135E0,9.7074187E-1,-3.7146082E0,1.0346864E0,1.1613433E0,3.6517E1,2.395229E0,6.01E0,1.48E0,8.9868563E-1,5.4E0,2.985913E0,3.9334E1,1.3237E1,-7.1E-1,1.200589E0,-2.2951E1,2.1242E1,2.2218E1,-6.1E0,-4.422104E-2,-1.72E0,-8.809329E-1,-5.7153726E-1,2.0669672E0,-1.8608949E0,1.2166452E0,-2.3245835E0,1.9877923E-1,3.0273745E0,6.6370815E-1,4.0230143E-1,6.5147357E0,-3.873109E0,-1.1316512E0,3.3343146E0,-2.1660268E-1,2.3711307E0,-4.6287156E-3,2.1519706E-1,-1.6944866E0,4.8787034E-1,2.5515597E0,2.3739952E-1,9.5025045E-1],"split_indices":[0,0,3,2,17,15,12,0,0,0,0,10,15,3,3,0,6,0,9,17,1,0,17,9,17,5,0,2,0,0,0,0,0,0,0,0,0,0,0,0,0,0,0,0,0,0,0,0,0,0,0],"split_type":[0,0,0,0,0,0,0,0,0,0,0,0,0,0,0,0,0,0,0,0,0,0,0,0,0,0,0,0,0,0,0,0,0,0,0,0,0,0,0,0,0,0,0,0,0,0,0,0,0,0,0],"sum_hessian":[2.1E2,6.6E1,1.44E2,2.4E1,4.2E1,1.28E2,1.6E1,2.1E1,3E0,1E1,3.2E1,9.1E1,3.7E1,7E0,9E0,1.1E1,1E1,2E0,8E0,2.8E1,4E0,7E1,2.1E1,1.1E1,2.6E1,6E0,1E0,8E0,1E0,5E0,6E0,8E0,2E0,7E0,1E0,1.4E1,1.4E1,1E0,3E0,5E0,6.5E1,3E0,1.8E1,8E0,3E0,2.2E1,4E0,1E0,5E0,3E0,5E0],"tree_param":{"num_deleted":"0","num_feature":"18","num_nodes":"51","size_leaf_vector":"1"}},{"base_weights":[5.1833645E-2,-2.8520446E0,9.3315944E-2,-4.9665052E-2,8.310024E-1,7.534438E-2,-1.0871296E0,-2.159315E0,9.8735493E-1,3.4424528E-1,-2.7634293E-1,8.235855E-1,-1.4974878E0,5.031194E-1,1.7920071E0,2.4004784E-1,2.521978E0,-2.0264645E0,-1.07794926E-1,-2.03114E0,6.0875463E-1,1.378753E-1,1.2646604E0,3.8938017E0,1.2460438E0],"categories":[],"categories_nodes":[],"categories_segments":[],"categories_sizes":[],"default_left":[0,0,0,0,0,0,0,0,0,0,0,0,0,0,0,0,0,0,0,0,0,0,0,0,0],"id":8,"left_children":[1,-1,3,5,7,9,11,-1,13,15,17,-1,19,21,23,-1,-1,-1,-1,-1,-1,-1,-1,-1,-1],"loss_changes":[2.5655518E1,0E0,2.209339E1,2.291797E1,1.8016777E1,1.5037715E1,1.6137522E1,0E0,1.1933609E1,1.9789259E1,2.01138E1,0E0,1.9234715E1,5.930872E0,8.866787E0,0E0,0E0,0E0,0E0,0E0,0E0,0E0,0E0,0E0,0E0],"parents":[2147483647,0,0,2,2,3,3,4,4,5,5,6,6,8,8,9,9,10,10,12,12,13,13,14,14],"right_children":[2,-1,4,6,8,10,12,-1,14,16,18,-1,20,22,24,-1,-1,-1,-1,-1,-1,-1,-1,-1,-1],"split_conditions":[-8.2388E1,-2.8520446E0,6.4E-1,8E0,-2.9729E1,1.4362367E0,9.7541183E-1,-2.159315E0,3.4E0,1.3721255E0,1.4574336E0,8.235855E-1,8.7E0,1.2E-1,6.5E-1,2.4004784E-1,2.521978E0,-2.0264645E0,-1.07794926E-1,-2.03114E0,6.0875463E-1,1.378753E-1,1.2646604E0,3.8938017E0,1.2460438E0],"split_indices":[9,0,4,7,17,16,0,0,6,16,15,0,8,1,4,0,0,0,0,0,0,0,0,0,0],"split_type":[0,0,0,0,0,0,0,0,0,0,0,0,0,0,0,0,0,0,0,0,0,0,0,0,0],"sum_hessian":[2.1E2,2E0,2.08E2,1.75E2,3.3E1,1.57E2,1.8E1,1E0,3.2E1,8.9E1,6.8E1,3E0,1.5E1,2.1E1,1.1E1,8.6E1,3E0,5E0,6.3E1,1.2E1,3E0,1.5E1,6E0,1E0,1E1],"tree_param":{"num_deleted":"0","num_feature":"18","num_nodes":"25","size_leaf_vector":"1"}},{"base_weights":[7.4881525E-3,-3.2449716E-1,2.5718382E-1,7.1734345E-1,-6.095293E-1,3.33395E-1,-1.5755948E0,1.2043978E0,-3.5781422E-1,-7.701102E-1,4.6208286E-1,2.2128636E-1,1.8319649E0,-1.7925019E0,-3.4898293E-1,-5.4487526E-1,1.38164E0,-8.5649174E-1,2.2781685E-1,-1.2402856E0,-4.059251E-1,-1.6929243E-2,7.8591245E-1,4.4814178E-1,-4.2745268E-1,3.0967987E0,4.5170483E-1,1.7807724E0,6.1752325E-1,-1.0560166E-1,-1.0682546E0,-5.2976507E-1,-1.9639413E0,4.7793765E-2,-1.2480056E0,1.0506069E-1,-7.61919E-2,1.134568E-1,1.091276E0,1.0731849E-2,9.298827E-1,-8.4939885E-1,1.018578E0,6.96776E-1,-2.5928986E-1],"categories":[],"categories_nodes":[],"categories_segments":[],"categories_sizes":[],"default_left":[0,0,0,0,0,0,0,0,0,0,0,0,0,0,0,0,0,0,0,0,0,0,0,0,0,0,0,0,0,0,0,0,0,0,0,0,0,0,0,0,0,0,0,0,0],"id":9,"left_children":[1,3,5,7,9,11,13,15,17,19,21,23,25,-1,-1,-1,27,29,-1,31,33,35,37,39,41,-1,43,-1,-1,-1,-1,-1,-1,-1,-1,-1,-1,-1,-1,-1,-1,-1,-1,-1,-1],"loss_changes":[1.757369E1,2.7459347E1,1.7413939E1,1.091262E1,1.274872E1,1.923039E1,6.8333817E-1,5.101818E0,2.2456973E0,1.0267624E1,1.5721776E0,1.6380463E1,1.2532072E1,0E0,0E0,0E0,2.8411407E0,5.1149416E-1,0E0,1.2817287E1,1.4208157E1,4.3863323E-2,1.0962007E0,1.725951E1,1.8557756E1,0E0,1.0562631E0,0E0,0E0,0E0,0E0,0E0,0E0,0E0,0E0,0E0,0E0,0E0,0E0,0E0,0E0,0E0,0E0,0E0,0E0],"parents":[2147483647,0,0,1,1,2,2,3,3,4,4,5,5,6,6,7,7,8,8,9,9,10,10,11,11,12,12,16,16,17,17,19,19,20,20,21,21,22,22,23,23,24,24,26,26],"right_children":[2,4,6,8,10,12,14,16,18,20,22,24,26,-1,-1,-1,28,30,-1,32,34,36,38,40,42,-1,44,-1,-1,-1,-1,-1,-1,-1,-1,-1,-1,-1,-1,-1,-1,-1,-1,-1,-1],"split_conditions":[4.855E0,-3.078E0,7.963E1,6E-2,7.3E-1,5.3446E1,1E-2,8.4066296E-1,-6.7E-1,2.5E0,-4.2E-1,2.6398E1,4.0255E1,-1.7925019E0,-3.4898293E-1,-5.4487526E-1,1.200589E0,-2.36E0,2.2781685E-1,-1.204E0,1.0567E1,1.4362367E0,1.28E0,1.1553E1,5.2E0,3.0967987E0,2.6E-1,1.7807724E0,6.1752325E-1,-1.0560166E-1,-1.0682546E0,-5.2976507E-1,-1.9639413E0,4.7793765E-2,-1.2480056E0,1.0506069E-1,-7.61919E-2,1.134568E-1,1.091276E0,1.0731849E-2,9.298827E-1,-8.4939885E-1,1.018578E0,6.96776E-1,-2.5928986E-1],"split_indices":[11,12,12,4,4,12,4,14,2,7,1,12,11,0,0,0,14,3,0,11,10,0,4,12,7,0,2,0,0,0,0,0,0,0,0,0,0,0,0,0,0,0,0,0,0],"split_type":[0,0,0,0,0,0,0,0,0,0,0,0,0,0,0,0,0,0,0,0,0,0,0,0,0,0,0,0,0,0,0,0,0,0,0,0,0,0,0,0,0,0,0,0,0],"sum_hessian":[2.1E2,9E1,1.2E2,1.9E1,7.1E1,1.16E2,4E0,1.3E1,6E0,6.2E1,9E0,1.09E2,7E0,3E0,1E0,1E0,1.2E1,3E0,3E0,2.6E1,3.6E1,4E0,5E0,8.1E1,2.8E1,3E0,4E0,7E0,5E0,1E0,2E0,1.4E1,1.2E1,2.4E1,1.2E1,1E0,3E0,2E0,3E0,4.3E1,3.8E1,2.2E1,6E0,3E0,1E0],"tree_param":{"num_deleted":"0","num_feature":"18","num_nodes":"45","size_leaf_vector":"1"}},{"base_weights":[4.50082E-3,2.304043E-1,-1.4665112E-1,5.448067E-1,9.9241305E-3,-6.334985E-1,1.0124404E-1,1.1330249E-1,1.1119255E0,4.364459E-1,-3.0285597E-1,6.199371E-1,-8.1500155E-1,4.5377702E-1,-3.9091966E-1,-2.2470813E-2,9.3876594E-1,1.490785E0,5.404973E-2,2.427194E0,1.1551139E-1,-5.169816E-1,8.691685E-1,1.3591875E0,-8.698493E-2,-1.055453E0,2.1737258E-1,-9.427461E-2,8.542377E-1,6.459447E-1,-6.6381603E-1,-2.4829288E-1,3.1782115E-1,1.7161049E0,3.145635E-1,2.0270672E-1,-1.0929052E-1,-1.3387875E-1,1.1490417E0,-6.827684E-1,9.7830653E-1,-1.256597E-1,1.1517905E0,2.7909476E-1,-1.2087649E0,-8.728038E-1,4.992269E-1,-8.611118E-1,4.0471178E-1,-1.23090506E-1,1.0159338E0,1.099597E0,-8.010689E-2,1.3888217E0,-7.8708243E-1],"categories":[],"categories_nodes":[],"categories_segments":[],"categories_sizes":[],"default_left":[0,0,0,0,0,0,0,0,0,0,0,0,0,0,0,0,0,0,0,0,0,0,0,0,0,0,0,0,0,0,0,0,0,0,0,0,0,0,0,0,0,0,0,0,0,0,0,0,0,0,0,0,0,0,0],"id":10,"left_children":[1,3,5,7,9,11,13,15,17,19,21,23,25,27,29,31,-1,33,35,-1,37,39,41,-1,-1,43,45,47,49,51,53,-1,-1,-1,-1,-1,-1,-1,-1,-1,-1,-1,-1,-1,-1,-1,-1,-1,-1,-1,-1,-1,-1,-1,-1],"loss_changes":[7.23938E0,5.8812037E0,1.5396726E1,8.426761E0,6.9372997E0,1.0289803E1,1.4925854E1,2.3838515E0,5.9157677E0,1.375E1,7.9746375E0,3.266505E0,9.670765E0,1.1061789E1,1.0615401E1,1.5382806E0,0E0,2.355156E0,1.4449644E-1,0E0,5.3190293E0,7.110376E0,1.5607963E0,0E0,0E0,6.6893272E0,2.8901587E0,8.771175E0,4.716856E0,2.7332802E0,8.424717E0,0E0,0E0,0E0,0E0,0E0,0E0,0E0,0E0,0E0,0E0,0E0,0E0,0E0,0E0,0E0,0E0,0E0,0E0,0E0,0E0,0E0,0E0,0E0,0E0],"parents":[2147483647,0,0,1,1,2,2,3,3,4,4,5,5,6,6,7,7,8,8,9,9,10,10,11,11,12,12,13,13,14,14,15,15,17,17,18,18,20,20,21,21,22,22,25,25,26,26,27,27,28,28,29,29,30,30],"right_children":[2,4,6,8,10,12,14,16,18,20,22,24,26,28,30,32,-1,34,36,-1,38,40,42,-1,-1,44,46,48,50,52,54,-1,-1,-1,-1,-1,-1,-1,-1,-1,-1,-1,-1,-1,-1,-1,-1,-1,-1,-1,-1,-1,-1,-1,-1],"split_conditions":[3.962E0,1.3E0,-2E-2,-9E-1,1.0346864E0,6E-1,4.1E0,4E0,1.5729E1,-5.361E0,2.454996E0,1.2806218E0,2.395229E0,2.6E0,-2.2E-1,-7.5E-1,9.3876594E-1,6.5E-1,-3E-2,2.427194E0,8.2E0,3.1684E1,-5.1E-1,1.3591875E0,-8.698493E-2,-8.8E-1,-7.9E-1,1.1610953E0,1.9E0,3.9E-1,-1E-2,-2.4829288E-1,3.1782115E-1,1.7161049E0,3.145635E-1,2.0270672E-1,-1.0929052E-1,-1.3387875E-1,1.1490417E0,-6.827684E-1,9.7830653E-1,-1.256597E-1,1.1517905E0,2.7909476E-1,-1.2087649E0,-8.728038E-1,4.992269E-1,-8.611118E-1,4.0471178E-1,-1.23090506E-1,1.0159338E0,1.099597E0,-8.010689E-2,1.3888217E0,-7.8708243E-1],"split_indices":[10,7,2,7,0,6,8,6,11,17,0,0,14,6,4,2,0,4,1,0,6,17,3,0,0,2,1,15,5,2,2,0,0,0,0,0,0,0,0,0,0,0,0,0,0,0,0,0,0,0,0,0,0,0,0],"split_type":[0,0,0,0,0,0,0,0,0,0,0,0,0,0,0,0,0,0,0,0,0,0,0,0,0,0,0,0,0,0,0,0,0,0,0,0,0,0,0,0,0,0,0,0,0,0,0,0,0,0,0,0,0,0,0],"sum_hessian":[2.1E2,8.4E1,1.26E2,3.4E1,5E1,4.2E1,8.4E1,2E1,1.4E1,2.1E1,2.9E1,5E0,3.7E1,4.9E1,3.5E1,1.8E1,2E0,1E1,4E0,2E0,1.9E1,2.5E1,4E0,2E0,3E0,3E1,7E0,2.1E1,2.8E1,7E0,2.8E1,1.1E1,7E0,8E0,2E0,2E0,2E0,1.6E1,3E0,2.3E1,2E0,1E0,3E0,3E0,2.7E1,1E0,6E0,8E0,1.3E1,4E0,2.4E1,4E0,3E0,1E0,2.7E1],"tree_param":{"num_deleted":"0","num_feature":"18","num_nodes":"55","size_leaf_vector":"1"}},{"base_weights":[4.7170687E-2,2.21941E-2,7.7046067E-1,4.9905572E-2,-7.673455E-1,2.4269061E-2,1.0620835E0,9.003598E-2,-3.1326336E-1,-3.6663983E-2,-1.7260329E0,-3.0553456E-2,7.1957044E-2,-3.8389128E-1,1.2623252E-1,2.9096368E-1,-6.617674E-1,1.1266058E-1,-1.0466027E-1,-9.73799E-2,-1.0016968E0,-3.0220175E-1,1.765344E-1,-8.0559075E-2,5.3198916E-1,-3.1679362E-1,-1.3562602E0,-2.9832078E-3,-1.3422489E-1],"categories":[],"categories_nodes":[],"categories_segments":[],"categories_sizes":[],"default_left":[0,0,0,0,0,0,0,0,0,0,0,0,0,0,0,0,0,0,0,0,0,0,0,0,0,0,0,0,0],"id":11,"left_children":[1,3,5,7,9,11,-1,13,15,17,-1,-1,-1,19,21,23,25,-1,27,-1,-1,-1,-1,-1,-1,-1,-1,-1,-1],"loss_changes":[3.786755E0,4.5163784E0,1.4866066E0,2.9262218E0,4.822556E0,1.0455699E-2,0E0,3.1336975E0,4.40777E0,6.2478665E-2,0E0,0E0,0E0,2.1925726E0,3.6726685E0,7.637423E-1,2.6681786E0,0E0,1.0251671E-2,0E0,0E0,0E0,0E0,0E0,0E0,0E0,0E0,0E0,0E0],"parents":[2147483647,0,0,1,1,2,2,3,3,4,4,5,5,7,7,8,8,9,9,13,13,14,14,15,15,16,16,18,18],"right_children":[2,4,6,8,10,12,-1,14,16,18,-1,-1,-1,20,22,24,26,-1,28,-1,-1,-1,-1,-1,-1,-1,-1,-1,-1],"split_conditions":[9.5E0,9.1E0,9.9679774E-1,7.3E-1,8.7E0,9.7541183E-1,1.0620835E0,-1.9148E1,3.23E0,8.9868563E-1,-1.7260329E0,-3.0553456E-2,7.1957044E-2,-2.2501E1,9.851294E-1,3.4E0,2.6E-1,1.1266058E-1,1.5438908E0,-9.73799E-2,-1.0016968E0,-3.0220175E-1,1.765344E-1,-8.0559075E-2,5.3198916E-1,-3.1679362E-1,-1.3562602E0,-2.9832078E-3,-1.3422489E-1],"split_indices":[7,7,0,1,5,0,0,11,9,0,0,0,0,11,0,8,3,0,0,0,0,0,0,0,0,0,0,0,0],"split_type":[0,0,0,0,0,0,0,0,0,0,0,0,0,0,0,0,0,0,0,0,0,0,0,0,0,0,0,0,0],"sum_hessian":[2.1E2,2.04E2,6E0,1.98E2,6E0,2E0,4E0,1.79E2,1.9E1,4E0,2E0,1E0,1E0,1.2E1,1.67E2,7E0,1.2E1,1E0,3E0,9E0,3E0,1.7E1,1.5E2,3E0,4E0,9E0,3E0,1E0,2E0],"tree_param":{"num_deleted":"0","num_feature":"18","num_nodes":"29","size_leaf_vector":"1"}},{"base_weights":[-1.48503715E-2,3.548646E-1,-5.3337082E-2,5.7506716E-1,-1.0813059E0,-1.3699926E0,-3.2214433E-2,1.1598548E-1,8.557569E-1,-8.501785E-2,2.635224E-1,-3.2546527E-3,4.803332E-1,1.1417568E0,6.731781E-2,-5.722899E-2,-5.499586E-1,1.0212758E0,1.0103083E-1,-9.744038E-2,8.924473E-2,1.2564746E0,1.6436589E-1,5.1491987E-4,8.608047E-2,2.6255903E-1,-9.115464E-2,-7.5022495E-1,-1.0956943E-1,1.1799359E0,1.8831742E-1,3.4985155E-1,-1.5479228E-1],"categories":[],"categories_nodes":[],"categories_segments":[],"categories_sizes":[],"default_left":[0,0,0,0,0,0,0,0,0,0,0,0,0,0,0,0,0,0,0,0,0,0,0,0,0,0,0,0,0,0,0,0,0],"id":12,"left_children":[1,3,5,7,-1,-1,9,11,13,15,17,19,-1,21,23,25,27,29,31,-1,-1,-1,-1,-1,-1,-1,-1,-1,-1,-1,-1,-1,-1],"loss_changes":[3.0182548E0,6.9417305E0,5.281605E0,2.2104983E0,0E0,0E0,2.987643E0,3.5389307E-1,2.3914766E0,2.055523E0,3.456324E0,6.976285E-2,0E0,6.762638E-1,4.1033234E-3,1.6929681E0,7.0295644E-1,4.2490196E-1,1.6474572E0,0E0,0E0,0E0,0E0,0E0,0E0,0E0,0E0,0E0,0E0,0E0,0E0,0E0,0E0],"parents":[2147483647,0,0,1,1,2,2,3,3,6,6,7,7,8,8,9,9,10,10,11,11,13,13,14,14,15,15,16,16,17,17,18,18],"right_children":[2,4,6,8,-1,-1,10,12,14,16,18,20,-1,22,24,26,28,30,32,-1,-1,-1,-1,-1,-1,-1,-1,-1,-1,-1,-1,-1,-1],"split_conditions":[9.13578E-1,1.0293639E0,9.299616E-1,2.66E-1,-1.0813059E0,-1.3699926E0,6.7E0,9.947257E-1,7.4E0,5.5E0,6.9E0,4.5E0,4.803332E-1,5.2E-1,8.821451E-1,-1.14E0,3.9E0,2.4E-1,5.963E0,-9.744038E-2,8.924473E-2,1.2564746E0,1.6436589E-1,5.1491987E-4,8.608047E-2,2.6255903E-1,-9.115464E-2,-7.5022495E-1,-1.0956943E-1,1.1799359E0,1.8831742E-1,3.4985155E-1,-1.5479228E-1],"split_indices":[16,0,16,12,0,0,6,0,6,6,6,7,0,4,0,3,8,2,12,0,0,0,0,0,0,0,0,0,0,0,0,0,0],"split_type":[0,0,0,0,0,0,0,0,0,0,0,0,0,0,0,0,0,0,0,0,0,0,0,0,0,0,0,0,0,0,0,0,0],"sum_hessian":[2.1E2,1.9E1,1.91E2,1.7E1,2E0,2E0,1.89E2,7E0,1E1,1.61E2,2.8E1,6E0,1E0,7E0,3E0,1.53E2,8E0,4E0,2.4E1,3E0,3E0,6E0,1E0,1E0,2E0,1.4E1,1.39E2,5E0,3E0,3E0,1E0,1.2E1,1.2E1],"tree_param":{"num_deleted":"0","num_feature":"18","num_nodes":"33","size_leaf_vector":"1"}},{"base_weights":[2.0058625E-3,-8.7223224E-2,1.0202239E-1,-2.10251E-2,-3.9018336E-1,1.5741552E-1,-4.1125748E-1,1.7430339E-2,-2.8288516E-1,-1.3190652E-1,-9.691782E-1,-1.721176E-2,3.5298115E-1,-1.1218703E-1,-5.9027326E-1,-1.02432586E-1,1.7371164E-1,-7.866488E-2,-8.659911E-1,-4.524503E-1,7.26104E-2,-1.4306858E0,-3.7825298E-1,8.472747E-2,-7.6356417E-1,6.1665004E-1,-1.2003258E-2,1.849289E-3,-1.4365843E-1,-7.781554E-1,-1.3967267E-1,5.199633E-3,-5.021918E-1,3.555429E-1,4.1385267E-2,-2.341013E-1,2.1051508E-1,-5.7033354E-1,-1.4112258E-1,1.4737432E-1,-7.387906E-2,-4.954199E-1,-8.376117E-3,-4.6910533E-1,2.0245545E-1,-4.3660372E-2,8.764186E-1,2.5503132E-1,-5.076384E-1,-1.9248593E-1,-1.2023087E-2],"categories":[],"categories_nodes":[],"categories_segments":[],"categories_sizes":[],"default_left":[0,0,0,0,0,0,0,0,0,0,0,0,0,0,0,0,0,0,0,0,0,0,0,0,0,0,0,0,0,0,0,0,0,0,0,0,0,0,0,0,0,0,0,0,0,0,0,0,0,0,0],"id":13,"left_children":[1,3,5,7,9,11,13,15,17,19,21,23,25,27,29,31,33,35,-1,37,39,-1,41,43,-1,45,47,-1,-1,-1,49,-1,-1,-1,-1,-1,-1,-1,-1,-1,-1,-1,-1,-1,-1,-1,-1,-1,-1,-1,-1],"loss_changes":[1.8920915E0,2.2338881E0,2.9054184E0,9.440901E-1,2.851967E0,3.1171823E0,4.621377E-1,1.5545579E0,1.3514152E0,1.0200005E0,1.0770483E0,3.7995303E0,4.151554E0,1.9628167E-2,3.9009333E-1,2.0298483E0,8.475151E-1,4.990087E-1,0E0,1.3260031E-1,1.21144086E-1,0E0,1.6416168E-1,2.9611773E0,0E0,4.3347893E0,2.6466722E0,0E0,0E0,0E0,1.5865408E-2,0E0,0E0,0E0,0E0,0E0,0E0,0E0,0E0,0E0,0E0,0E0,0E0,0E0,0E0,0E0,0E0,0E0,0E0,0E0,0E0],"parents":[2147483647,0,0,1,1,2,2,3,3,4,4,5,5,6,6,7,7,8,8,9,9,10,10,11,11,12,12,13,13,14,14,15,15,16,16,17,17,19,19,20,20,22,22,23,23,25,25,26,26,30,30],"right_children":[2,4,6,8,10,12,14,16,18,20,22,24,26,28,30,32,34,36,-1,38,40,-1,42,44,-1,46,48,-1,-1,-1,50,-1,-1,-1,-1,-1,-1,-1,-1,-1,-1,-1,-1,-1,-1,-1,-1,-1,-1,-1,-1],"split_conditions":[1.1553E1,2.003E1,5.6663E1,2.395229E0,3.419E0,1.5879E1,-2.992E0,3.154E0,1.3237E1,2.2796E1,2.9E0,2.2796E1,3.2875E1,1.1734021E0,2E-2,1.65E0,1.4E0,2.4761214E0,-8.659911E-1,2.6E0,5.8707E1,-1.4306858E0,1.8138525E0,-5.7E-1,-7.6356417E-1,1.085E1,4.4635E1,1.849289E-3,-1.4365843E-1,-7.781554E-1,1.1437931E0,5.199633E-3,-5.021918E-1,3.555429E-1,4.1385267E-2,-2.341013E-1,2.1051508E-1,-5.7033354E-1,-1.4112258E-1,1.4737432E-1,-7.387906E-2,-4.954199E-1,-8.376117E-3,-4.6910533E-1,2.0245545E-1,-4.3660372E-2,8.764186E-1,2.5503132E-1,-5.076384E-1,-1.9248593E-1,-1.2023087E-2],"split_indices":[12,9,11,0,12,9,17,9,11,9,7,11,10,0,1,9,8,0,0,6,9,0,0,2,0,10,17,0,0,0,0,0,0,0,0,0,0,0,0,0,0,0,0,0,0,0,0,0,0,0,0],"split_type":[0,0,0,0,0,0,0,0,0,0,0,0,0,0,0,0,0,0,0,0,0,0,0,0,0,0,0,0,0,0,0,0,0,0,0,0,0,0,0,0,0,0,0,0,0,0,0,0,0,0,0],"sum_hessian":[2.1E2,1.11E2,9.9E1,9.2E1,1.9E1,9E1,9E0,8.1E1,1.1E1,1.4E1,5E0,4.8E1,4.2E1,4E0,5E0,4.6E1,3.5E1,9E0,2E0,5E0,9E0,2E0,3E0,4.3E1,5E0,2.4E1,1.8E1,1E0,3E0,3E0,2E0,3.7E1,9E0,1.4E1,2.1E1,6E0,3E0,3E0,2E0,6E0,3E0,2E0,1E0,7E0,3.6E1,7E0,1.7E1,1.2E1,6E0,1E0,1E0],"tree_param":{"num_deleted":"0","num_feature":"18","num_nodes":"51","size_leaf_vector":"1"}},{"base_weights":[-2.4675941E-2,2.0820001E-2,-1.6438122E-1,1.6819724E-1,-3.644548E-2,-3.7035954E-1,-3.4261607E-2,-3.25883E-1,2.6805106E-1,-6.5716654E-2,3.1774697E-1,-1.0520589E-1,-5.7683015E-1,-8.581954E-2,5.065909E-1,-3.5407525E-3,-6.4484006E-1,-8.094033E-2,3.794946E-1,-1.2365247E-1,7.5432554E-2,-0E0,4.7749636E-1,9.104488E-3,-2.2333717E-1,-6.4705217E-1,-1.7055407E-1,-2.28449E-1,8.088182E-2,1.9931757E-1,-1.0658473E-1,-1.7609333E-1,4.7431324E-2,4.656858E-1,-1.2536034E-1,-1.5176332E-2,-3.4827578E-1,3.1997603E-1,-6.742241E-2,-4.1827835E-2,6.0114022E-2,6.2157756E-1,1.2288928E-1,8.365833E-2,-2.0537946E-2,-2.520318E-1,-4.927933E-2,-1.7941773E-1,-6.818292E-1,-3.211211E-1,1.5051562E-1,2.0165372E-1,-2.9915434E-1],"categories":[],"categories_nodes":[],"categories_segments":[],"categories_sizes":[],"default_left":[0,0,0,0,0,0,0,0,0,0,0,0,0,0,0,0,0,0,0,0,0,0,0,0,0,0,0,0,0,0,0,0,0,0,0,0,0,0,0,0,0,0,0,0,0,0,0,0,0,0,0,0,0],"id":14,"left_children":[1,3,5,7,9,11,13,15,17,19,21,23,25,27,-1,29,-1,31,33,35,37,39,41,43,45,47,-1,49,51,-1,-1,-1,-1,-1,-1,-1,-1,-1,-1,-1,-1,-1,-1,-1,-1,-1,-1,-1,-1,-1,-1,-1,-1],"loss_changes":[1.345979E0,1.3577882E0,1.3769592E0,2.3068857E0,1.2210058E0,1.0274224E0,9.5948064E-1,8.1373966E-1,1.5116296E0,8.929899E-1,4.5934838E-1,1.3921203E-1,1.9529104E-1,7.570253E-1,0E0,1.2483352E-1,0E0,1.3178843E-1,1.323689E0,1.8672827E0,1.141995E0,1.2476094E-2,2.2272336E-1,1.5609119E-2,9.5395595E-3,1.5421867E-2,0E0,6.4707047E-1,7.478159E-1,0E0,0E0,0E0,0E0,0E0,0E0,0E0,0E0,0E0,0E0,0E0,0E0,0E0,0E0,0E0,0E0,0E0,0E0,0E0,0E0,0E0,0E0,0E0,0E0],"parents":[2147483647,0,0,1,1,2,2,3,3,4,4,5,5,6,6,7,7,8,8,9,9,10,10,11,11,12,12,13,13,15,15,17,17,18,18,19,19,20,20,21,21,22,22,23,23,24,24,25,25,27,27,28,28],"right_children":[2,4,6,8,10,12,14,16,18,20,22,24,26,28,-1,30,-1,32,34,36,38,40,42,44,46,48,-1,50,52,-1,-1,-1,-1,-1,-1,-1,-1,-1,-1,-1,-1,-1,-1,-1,-1,-1,-1,-1,-1,-1,-1,-1,-1],"split_conditions":[2.2299378E0,-1.5E-1,2.3512948E0,-9E-1,2.0073638E0,1.2209E1,2.2218E1,-1.9E0,-3.078E0,2.7103E1,1.469E1,-2E-2,6.3E0,2.4604125E0,5.065909E-1,8.988697E-1,-6.4484006E-1,-5.8E-1,2.8546E1,1.0321E1,2.2072E1,2.1E-1,4E0,-1.7E0,7.4E-1,2E0,-1.7055407E-1,4.5E0,6.5E-1,1.9931757E-1,-1.0658473E-1,-1.7609333E-1,4.7431324E-2,4.656858E-1,-1.2536034E-1,-1.5176332E-2,-3.4827578E-1,3.1997603E-1,-6.742241E-2,-4.1827835E-2,6.0114022E-2,6.2157756E-1,1.2288928E-1,8.365833E-2,-2.0537946E-2,-2.520318E-1,-4.927933E-2,-1.7941773E-1,-6.818292E-1,-3.211211E-1,1.5051562E-1,2.0165372E-1,-2.9915434E-1],"split_indices":[13,1,13,8,16,12,10,8,12,9,12,1,6,14,0,0,0,1,9,17,12,1,7,6,1,6,0,7,2,0,0,0,0,0,0,0,0,0,0,0,0,0,0,0,0,0,0,0,0,0,0,0,0],"split_type":[0,0,0,0,0,0,0,0,0,0,0,0,0,0,0,0,0,0,0,0,0,0,0,0,0,0,0,0,0,0,0,0,0,0,0,0,0,0,0,0,0,0,0,0,0,0,0,0,0,0,0,0,0],"sum_hessian":[2.1E2,1.59E2,5.1E1,4.4E1,1.15E2,1.9E1,3.2E1,7E0,3.7E1,1.07E2,8E0,9E0,1E1,3E1,2E0,4E0,3E0,9E0,2.8E1,7.6E1,3.1E1,3E0,5E0,5E0,4E0,8E0,2E0,1.6E1,1.4E1,1E0,3E0,5E0,4E0,2.4E1,4E0,5.2E1,2.4E1,1.1E1,2E1,2E0,1E0,3E0,2E0,1E0,4E0,3E0,1E0,1E0,7E0,1.3E1,3E0,1.1E1,3E0],"tree_param":{"num_deleted":"0","num_feature":"18","num_nodes":"53","size_leaf_vector":"1"}},{"base_weights":[-3.602347E-3,-2.7466992E-2,1.3553001E-1,-8.416865E-2,4.3450717E-2,2.809842E-1,5.2409712E-2,3.1206938E-2,-1.9368039E-1,-8.063878E-2,1.2633853E-1,7.001573E-2,4.434553E-1,1.8408632E-1,-4.2013306E-2,-8.677642E-2,1.2736444E-1,-5.898886E-2,-3.742148E-1,-2.2673966E-1,5.3153038E-2,-1.2176171E-3,2.596769E-1,-1.0350225E-2,1.1528626E-1,4.2865574E-2,3.4739587E-1,-7.911951E-2,1.966306E-1,2.4774915E-1,-1.4984271E-1,3.6173382E-1,1.5030008E-2,-1.44849E-1,1.0937948E-1,-5.5672425E-1,-1.4018494E-1,8.773309E-2,-3.0682823E-1,-8.484664E-2,2.0169123E-1,7.824057E-2,-4.6029782E-1,3.258494E-1,5.18449E-3,-0E0,-1.3991232E-2,1.311595E-1,2.8833266E-2,7.299924E-2,-8.267837E-3,-1.2521638E-1,-1.0486581E-2],"categories":[],"categories_nodes":[],"categories_segments":[],"categories_sizes":[],"default_left":[0,0,0,0,0,0,0,0,0,0,0,0,0,0,0,0,0,0,0,0,0,0,0,0,0,0,0,0,0,0,0,0,0,0,0,0,0,0,0,0,0,0,0,0,0,0,0,0,0,0,0,0,0],"id":15,"left_children":[1,3,5,7,9,11,13,15,17,19,21,23,-1,25,27,29,31,33,35,37,39,41,43,45,47,49,-1,51,-1,-1,-1,-1,-1,-1,-1,-1,-1,-1,-1,-1,-1,-1,-1,-1,-1,-1,-1,-1,-1,-1,-1,-1,-1],"loss_changes":[7.032346E-1,7.3189276E-1,3.567359E-1,1.283802E0,8.437709E-1,3.408556E-1,2.7025416E-1,5.7870734E-1,1.2380491E0,6.5884215E-1,8.362991E-1,2.4071852E-2,0E0,1.8877035E-1,1.294994E-1,5.21382E-1,7.279726E-1,4.6433818E-1,8.546653E-1,4.320807E-1,3.8724926E-1,9.8825425E-1,3.991698E-1,7.012772E-5,1.07474625E-4,1.0495882E-2,0E0,3.5295032E-2,0E0,0E0,0E0,0E0,0E0,0E0,0E0,0E0,0E0,0E0,0E0,0E0,0E0,0E0,0E0,0E0,0E0,0E0,0E0,0E0,0E0,0E0,0E0,0E0,0E0],"parents":[2147483647,0,0,1,1,2,2,3,3,4,4,5,5,6,6,7,7,8,8,9,9,10,10,11,11,13,13,14,14,15,15,16,16,17,17,18,18,19,19,20,20,21,21,22,22,23,23,24,24,25,25,27,27],"right_children":[2,4,6,8,10,12,14,16,18,20,22,24,-1,26,28,30,32,34,36,38,40,42,44,46,48,50,-1,52,-1,-1,-1,-1,-1,-1,-1,-1,-1,-1,-1,-1,-1,-1,-1,-1,-1,-1,-1,-1,-1,-1,-1,-1,-1],"split_conditions":[7E0,1.4006E1,1.0119288E0,3.853E0,-3E-2,7E-2,4.9E0,2E-2,1.9E-1,1.3081095E0,1.2763E1,3.829E0,4.434553E-1,1.2369E1,3.1684E1,-3.7E0,9.7944814E-1,1E-2,1.2139E1,1.1287782E0,2.1E0,1.0069E1,4.812E1,9.947257E-1,-2E-2,4.1E-1,3.4739587E-1,9.3E0,1.966306E-1,2.4774915E-1,-1.4984271E-1,3.6173382E-1,1.5030008E-2,-1.44849E-1,1.0937948E-1,-5.5672425E-1,-1.4018494E-1,8.773309E-2,-3.0682823E-1,-8.484664E-2,2.0169123E-1,7.824057E-2,-4.6029782E-1,3.258494E-1,5.18449E-3,-0E0,-1.3991232E-2,1.311595E-1,2.8833266E-2,7.299924E-2,-8.267837E-3,-1.2521638E-1,-1.0486581E-2],"split_indices":[7,17,13,12,4,1,8,1,2,0,11,11,0,12,10,5,13,2,9,15,7,11,10,0,1,3,0,7,0,0,0,0,0,0,0,0,0,0,0,0,0,0,0,0,0,0,0,0,0,0,0,0,0],"split_type":[0,0,0,0,0,0,0,0,0,0,0,0,0,0,0,0,0,0,0,0,0,0,0,0,0,0,0,0,0,0,0,0,0,0,0,0,0,0,0,0,0,0,0,0,0,0,0,0,0,0,0,0,0],"sum_hessian":[2.1E2,1.8E2,3E1,1E2,8E1,1E1,2E1,4.9E1,5.1E1,3.2E1,4.8E1,5E0,5E0,8E0,1.2E1,2.2E1,2.7E1,3E1,2.1E1,1.5E1,1.7E1,2.5E1,2.3E1,2E0,3E0,5E0,3E0,1.1E1,1E0,3E0,1.9E1,8E0,1.9E1,2E1,1E1,1.1E1,1E1,3E0,1.2E1,9E0,8E0,2.2E1,3E0,1.8E1,5E0,1E0,1E0,2E0,1E0,3E0,2E0,6E0,5E0],"tree_param":{"num_deleted":"0","num_feature":"18","num_nodes":"53","size_leaf_vector":"1"}},{"base_weights":[3.2154694E-3,2.7252734E-2,-6.6990145E-2,2.2039175E-2,4.1789067E-1,1.0696626E-1,-1.0918402E-1,8.091823E-2,-1.4132075E-2,-1.5632663E-2,2.5921148E-1,-2.5214395E-1,-4.0776823E-2,-1.1554913E-1,9.719356E-2,-5.7492334E-2,1.2154091E-1,6.910777E-2,-6.535039E-2,3.4286257E-2,-3.0357283E-1,-9.1923736E-2,1.4628741E-1,-1.738196E-1,5.3766366E-2,1.5427856E-1,4.224395E-2,-1.02924965E-1,9.154016E-2,3.1921265E-1,2.0781208E-2,-4.189606E-3,-7.7093184E-2,-2.903183E-2,-3.5457784E-1,-1.948126E-1,1.7266952E-2,-2.0345815E-3,2.0802312E-1],"categories":[],"categories_nodes":[],"categories_segments":[],"categories_sizes":[],"default_left":[0,0,0,0,0,0,0,0,0,0,0,0,0,0,0,0,0,0,0,0,0,0,0,0,0,0,0,0,0,0,0,0,0,0,0,0,0,0,0],"id":16,"left_children":[1,3,5,7,-1,9,11,13,15,17,-1,19,21,23,25,27,29,-1,31,-1,33,35,37,-1,-1,-1,-1,-1,-1,-1,-1,-1,-1,-1,-1,-1,-1,-1,-1],"loss_changes":[3.5750154E-1,3.0817568E-1,4.0805542E-1,3.3617887E-1,0E0,2.1180405E-1,4.1708654E-1,2.029014E-1,5.828631E-1,3.3970356E-2,0E0,2.1933228E-1,3.0950412E-1,5.9876643E-2,1.6717815E-1,5.17356E-1,4.6798277E-1,0E0,2.455175E-3,0E0,1.5390551E-1,2.8600192E-1,6.658046E-2,0E0,0E0,0E0,0E0,0E0,0E0,0E0,0E0,0E0,0E0,0E0,0E0,0E0,0E0,0E0,0E0],"parents":[2147483647,0,0,1,1,2,2,3,3,5,5,6,6,7,7,8,8,9,9,11,11,12,12,13,13,14,14,15,15,16,16,18,18,20,20,21,21,22,22],"right_children":[2,4,6,8,-1,10,12,14,16,18,-1,20,22,24,26,28,30,-1,32,-1,34,36,38,-1,-1,-1,-1,-1,-1,-1,-1,-1,-1,-1,-1,-1,-1,-1,-1],"split_conditions":[2.2072E1,1.64E1,1.1475828E0,1.691E0,4.1789067E-1,4.2072E1,1.2076195E0,-2.995E1,1.3065E1,-1E-2,2.5921148E-1,2.3369E1,5.6E0,1.3625481E0,0E0,2.0049E1,3E0,6.910777E-2,3.5E-1,3.4286257E-2,1.6E0,5E-2,2.7E0,-1.738196E-1,5.3766366E-2,1.5427856E-1,4.224395E-2,-1.02924965E-1,9.154016E-2,3.1921265E-1,2.0781208E-2,-4.189606E-3,-7.7093184E-2,-2.903183E-2,-3.5457784E-1,-1.948126E-1,1.7266952E-2,-2.0345815E-3,2.0802312E-1],"split_indices":[12,5,14,10,0,12,15,9,12,3,0,12,5,0,4,10,5,0,3,0,7,3,6,0,0,0,0,0,0,0,0,0,0,0,0,0,0,0,0],"split_type":[0,0,0,0,0,0,0,0,0,0,0,0,0,0,0,0,0,0,0,0,0,0,0,0,0,0,0,0,0,0,0,0,0,0,0,0,0,0,0],"sum_hessian":[2.1E2,1.57E2,5.3E1,1.56E2,1E0,1E1,4.3E1,5.9E1,9.7E1,6E0,4E0,1.3E1,3E1,4E0,5.5E1,7.4E1,2.3E1,2E0,4E0,2E0,1.1E1,2.4E1,6E0,3E0,1E0,2.6E1,2.9E1,5.7E1,1.7E1,7E0,1.6E1,1E0,3E0,2E0,9E0,1.2E1,1.2E1,2E0,4E0],"tree_param":{"num_deleted":"0","num_feature":"18","num_nodes":"39","size_leaf_vector":"1"}},{"base_weights":[3.6925226E-3,-2.6246377E-3,1.8959615E-1,-1.3844074E-2,7.1482904E-2,3.195129E-1,9.7803455E-3,1.1017593E-2,-7.8407526E-2,1.8800624E-3,1.8861973E-1,-5.875664E-3,3.3374187E-2,7.080573E-2,-2.1350311E-2,-9.859571E-2,1.210053E-1,-1.847341E-1,5.218517E-2,1.4645653E-2,2.2903255E-1,-1.1055107E-2,-0E0,-1.1882869E-1,9.707404E-2,-5.3716514E-2,1.2096122E-1,-5.5800874E-2,-2.2877921E-1,3.0269064E-2,1.6807309E-1,1.1064026E-1,-1.1543064E-2,2.637997E-1,7.982071E-2],"categories":[],"categories_nodes":[],"categories_segments":[],"categories_sizes":[],"default_left":[0,0,0,0,0,0,0,0,0,0,0,0,0,0,0,0,0,0,0,0,0,0,0,0,0,0,0,0,0,0,0,0,0,0,0],"id":17,"left_children":[1,3,5,7,9,-1,11,13,15,17,19,21,-1,23,25,27,29,-1,31,-1,33,-1,-1,-1,-1,-1,-1,-1,-1,-1,-1,-1,-1,-1,-1],"loss_changes":[2.5016212E-1,1.7085943E-1,1.5710974E-1,2.888605E-1,2.1787289E-1,0E0,1.9486223E-3,2.5358444E-1,2.1299565E-1,1.772925E-1,6.451672E-2,1.408605E-4,0E0,2.4046092E-1,3.9734226E-1,2.4066243E-1,1.4282934E-2,0E0,5.8146693E-2,0E0,1.7008513E-2,0E0,0E0,0E0,0E0,0E0,0E0,0E0,0E0,0E0,0E0,0E0,0E0,0E0,0E0],"parents":[2147483647,0,0,1,1,2,2,3,3,4,4,6,6,7,7,8,8,9,9,10,10,11,11,13,13,14,14,15,15,16,16,18,18,20,20],"right_children":[2,4,6,8,10,-1,12,14,16,18,20,22,-1,24,26,28,30,-1,32,-1,34,-1,-1,-1,-1,-1,-1,-1,-1,-1,-1,-1,-1,-1,-1],"split_conditions":[2.5303907E0,3.9334E1,3.9E0,1.5729E1,4.2E0,3.195129E-1,2.5960653E0,-1.3E-1,2.4761214E0,-1E-2,1.1848879E0,2.5592296E0,3.3374187E-2,-4.3E0,1.3321E1,2.3225513E0,1E-2,-1.847341E-1,3.5E0,1.4645653E-2,2.4E-1,-1.1055107E-2,-0E0,-1.1882869E-1,9.707404E-2,-5.3716514E-2,1.2096122E-1,-5.5800874E-2,-2.2877921E-1,3.0269064E-2,1.6807309E-1,1.1064026E-1,-1.1543064E-2,2.637997E-1,7.982071E-2],"split_indices":[0,11,8,11,7,0,0,4,14,2,13,0,0,8,10,16,3,0,6,0,2,0,0,0,0,0,0,0,0,0,0,0,0,0,0],"split_type":[0,0,0,0,0,0,0,0,0,0,0,0,0,0,0,0,0,0,0,0,0,0,0,0,0,0,0,0,0,0,0,0,0,0,0],"sum_hessian":[2.1E2,2.04E2,6E0,1.78E2,2.6E1,3E0,3E0,1.29E2,4.9E1,1.7E1,9E0,2E0,1E0,4.5E1,8.4E1,4.5E1,4E0,3E0,1.4E1,2E0,7E0,1E0,1E0,5E0,4E1,6.9E1,1.5E1,3.5E1,1E1,2E0,2E0,7E0,7E0,5E0,2E0],"tree_param":{"num_deleted":"0","num_feature":"18","num_nodes":"35","size_leaf_vector":"1"}},{"base_weights":[2.8349396E-3,-8.867594E-3,7.406915E-2,4.7192895E-3,-5.9063587E-2,-3.459022E-2,1.15608476E-1,-1.5096938E-2,5.344196E-2,-1.4611696E-1,1.4392061E-2,1.4846432E-1,-7.7280074E-2,-2.7291153E-2,1.4943568E-1,-1.423527E-1,1.5570413E-3,1.1577412E-1,-3.5543922E-2,2.6977776E-2,-1.9821386E-1,1.00094475E-1,3.1709624E-4,-0E0,-1.2497888E-1,-1.8053628E-3,-5.9617158E-2,1.845264E-1,4.6833158E-2,-5.2313186E-2,-2.5594538E-1,1.5591301E-1,-7.1172416E-3,6.8964325E-2,2.8722042E-1,7.767741E-2,-6.403335E-2,-4.1419145E-2,5.693179E-2,-2.529064E-1,-8.1472754E-2,4.427048E-2,-2.096796E-2,2.3975965E-2,-1.3766048E-2,-1.2287216E-2,9.820099E-3,3.2290097E-2,1.9368859E-1,6.041083E-2,-5.527611E-3],"categories":[],"categories_nodes":[],"categories_segments":[],"categories_sizes":[],"default_left":[0,0,0,0,0,0,0,0,0,0,0,0,0,0,0,0,0,0,0,0,0,0,0,0,0,0,0,0,0,0,0,0,0,0,0,0,0,0,0,0,0,0,0,0,0,0,0,0,0,0,0],"id":18,"left_children":[1,3,5,7,9,11,13,15,17,19,21,-1,23,25,27,29,31,33,35,37,39,-1,41,43,-1,45,-1,47,49,-1,-1,-1,-1,-1,-1,-1,-1,-1,-1,-1,-1,-1,-1,-1,-1,-1,-1,-1,-1,-1,-1],"loss_changes":[1.7720282E-1,1.2494747E-1,1.4021823E-1,1.402222E-1,2.528081E-1,8.109264E-2,1.1164537E-1,2.1991904E-1,2.3787802E-1,1.6937834E-1,2.5501834E-2,0E0,3.0320916E-2,3.3974126E-3,5.3851604E-2,1.0626206E-1,1.2577896E-1,1.7726433E-1,6.2898494E-2,1.2757005E-2,6.543934E-2,0E0,1.9872291E-2,1.7182059E-3,0E0,6.3275837E-4,0E0,9.61864E-3,5.148384E-3,0E0,0E0,0E0,0E0,0E0,0E0,0E0,0E0,0E0,0E0,0E0,0E0,0E0,0E0,0E0,0E0,0E0,0E0,0E0,0E0,0E0,0E0],"parents":[2147483647,0,0,1,1,2,2,3,3,4,4,5,5,6,6,7,7,8,8,9,9,10,10,12,12,13,13,14,14,15,15,16,16,17,17,18,18,19,19,20,20,22,22,23,23,25,25,27,27,28,28],"right_children":[2,4,6,8,10,12,14,16,18,20,22,-1,24,26,28,30,32,34,36,38,40,-1,42,44,-1,46,-1,48,50,-1,-1,-1,-1,-1,-1,-1,-1,-1,-1,-1,-1,-1,-1,-1,-1,-1,-1,-1,-1,-1,-1],"split_conditions":[6.6E-1,2.85E1,6.65E-1,4.5E0,2.8244E1,6.8E-1,-1.7E0,9.446713E-1,4.5E0,1.8E0,1.1322893E0,1.4846432E-1,1.6861933E0,-3.6E-1,1.9675E1,1.155E0,9.7074187E-1,4E0,8.927004E-1,1.1388621E0,1.5772157E0,1.00094475E-1,4.4635E1,1.4604473E0,-1.2497888E-1,1.4362367E0,-5.9617158E-2,-1.72E0,2.3710485E0,-5.2313186E-2,-2.5594538E-1,1.5591301E-1,-7.1172416E-3,6.8964325E-2,2.8722042E-1,7.767741E-2,-6.403335E-2,-4.1419145E-2,5.693179E-2,-2.529064E-1,-8.1472754E-2,4.427048E-2,-2.096796E-2,2.3975965E-2,-1.3766048E-2,-1.2287216E-2,9.820099E-3,3.2290097E-2,1.9368859E-1,6.041083E-2,-5.527611E-3],"split_indices":[4,10,12,7,11,4,6,13,5,7,14,0,0,1,12,11,15,5,16,0,13,0,11,0,0,0,0,3,0,0,0,0,0,0,0,0,0,0,0,0,0,0,0,0,0,0,0,0,0,0,0],"split_type":[0,0,0,0,0,0,0,0,0,0,0,0,0,0,0,0,0,0,0,0,0,0,0,0,0,0,0,0,0,0,0,0,0,0,0,0,0,0,0,0,0,0,0,0,0,0,0,0,0,0,0],"sum_hessian":[2.1E2,1.81E2,2.9E1,1.43E2,3.8E1,8E0,2.1E1,1.02E2,4.1E1,1.7E1,2.1E1,1E0,7E0,4E0,1.7E1,1.1E1,9.1E1,2.4E1,1.7E1,4E0,1.3E1,2E0,1.9E1,3E0,4E0,3E0,1E0,1.2E1,5E0,7E0,4E0,4E0,8.7E1,2E1,4E0,3E0,1.4E1,1E0,3E0,8E0,5E0,6E0,1.3E1,1E0,2E0,2E0,1E0,1E0,1.1E1,4E0,1E0],"tree_param":{"num_deleted":"0","num_feature":"18","num_nodes":"51","size_leaf_vector":"1"}},{"base_weights":[1.2198025E-3,6.2904996E-3,-6.9867186E-2,-7.386116E-2,1.1453759E-2,-1.8953328E-1,-2.0474186E-3,-1.2304024E-1,-1.9727502E-2,-2.9457547E-2,2.0476684E-2,3.981219E-2,-7.728988E-2,-3.3365533E-2,6.245054E-3,-6.471402E-4,-8.138937E-2,9.038946E-2,1.3861595E-2,5.7320237E-2,-2.7618047E-2,-7.2704507E-3,-9.487287E-2,-1.2623435E-2,8.00693E-2,-1.0084222E-1,7.249948E-3,1.5113322E-1,1.5304336E-2,-5.694787E-2,2.6018456E-2,1.0139382E-2,7.587582E-2],"categories":[],"categories_nodes":[],"categories_segments":[],"categories_sizes":[],"default_left":[0,0,0,0,0,0,0,0,0,0,0,0,0,0,0,0,0,0,0,0,0,0,0,0,0,0,0,0,0,0,0,0,0],"id":19,"left_children":[1,3,5,7,9,-1,11,-1,13,15,17,19,21,-1,-1,23,25,27,29,31,-1,-1,-1,-1,-1,-1,-1,-1,-1,-1,-1,-1,-1],"loss_changes":[7.586091E-2,8.216298E-2,1.1131631E-1,2.8091967E-2,6.9542505E-2,0E0,3.494805E-2,0E0,2.959076E-3,4.9996976E-2,6.892636E-2,1.0144097E-2,3.2134E-3,0E0,0E0,2.257002E-2,2.235847E-2,5.5315033E-2,1.23408966E-1,3.6233217E-3,0E0,0E0,0E0,0E0,0E0,0E0,0E0,0E0,0E0,0E0,0E0,0E0,0E0],"parents":[2147483647,0,0,1,1,2,2,3,3,4,4,6,6,8,8,9,9,10,10,11,11,12,12,15,15,16,16,17,17,18,18,19,19],"right_children":[2,4,6,8,10,-1,12,-1,14,16,18,20,22,-1,-1,24,26,28,30,32,-1,-1,-1,-1,-1,-1,-1,-1,-1,-1,-1,-1,-1],"split_conditions":[2.4734585E0,-2.2501E1,2.2E0,1.2902924E0,-5.8E-1,-1.8953328E-1,3.327E0,-1.2304024E-1,1.5011843E0,-7.9E-1,8.988697E-1,5E-1,1.9295284E0,-3.3365533E-2,6.245054E-3,2.408993E0,1.469E1,4.5E0,9.9794817E-1,-4.2E-1,-2.7618047E-2,-7.2704507E-3,-9.487287E-2,-1.2623435E-2,8.00693E-2,-1.0084222E-1,7.249948E-3,1.5113322E-1,1.5304336E-2,-5.694787E-2,2.6018456E-2,1.0139382E-2,7.587582E-2],"split_indices":[15,9,7,0,4,0,12,0,0,4,15,2,0,0,0,14,12,5,16,1,0,0,0,0,0,0,0,0,0,0,0,0,0],"split_type":[0,0,0,0,0,0,0,0,0,0,0,0,0,0,0,0,0,0,0,0,0,0,0,0,0,0,0,0,0,0,0,0,0],"sum_hessian":[2.1E2,1.97E2,1.3E1,1.1E1,1.86E2,4E0,9E0,5E0,6E0,3.3E1,1.53E2,6E0,3E0,4E0,2E0,2.2E1,1.1E1,1.2E1,1.41E2,5E0,1E0,1E0,2E0,2E1,2E0,9E0,2E0,6E0,6E0,2E1,1.21E2,2E0,3E0],"tree_param":{"num_deleted":"0","num_feature":"18","num_nodes":"33","size_leaf_vector":"1"}},{"base_weights":[-1.2989866E-3,1.3400425E-2,-1.8164992E-2,9.266549E-3,2.3319733E-1,2.0869313E-2,-3.7268978E-2,-1.2397927E-2,3.7577976E-2,1.061377E-1,5.103407E-3,-5.067883E-2,5.366993E-2,7.219926E-3,-5.9767578E-2,-4.126915E-2,5.910978E-2,1.3363296E-1,-0E0,-1.0584267E-2,4.8856586E-2,-1.00831404E-1,-3.1062465E-2,1.1396808E-1,-1.5362213E-2,2.440482E-2,-3.751133E-2,-1.571792E-1,-2.264586E-2,-5.629471E-2,-0E0,1.1914309E-1,2.4126083E-2,9.022851E-3,-3.1920735E-2,8.409161E-2,-4.901347E-3,-1.6354176E-1,-3.2774262E-2,-2.1370335E-2,-1.530648E-1],"categories":[],"categories_nodes":[],"categories_segments":[],"categories_sizes":[],"default_left":[0,0,0,0,0,0,0,0,0,0,0,0,0,0,0,0,0,0,0,0,0,0,0,0,0,0,0,0,0,0,0,0,0,0,0,0,0,0,0,0,0],"id":20,"left_children":[1,3,5,7,-1,9,11,13,15,17,19,21,23,25,27,29,31,-1,-1,33,35,37,39,-1,-1,-1,-1,-1,-1,-1,-1,-1,-1,-1,-1,-1,-1,-1,-1,-1,-1],"loss_changes":[5.260226E-2,9.808774E-2,7.476715E-2,6.941314E-2,0E0,4.270893E-2,8.439499E-2,6.0431607E-2,8.5806146E-2,1.5105009E-2,2.0805016E-2,5.359383E-2,4.019946E-2,3.6144678E-2,6.334796E-2,6.618183E-3,7.7600166E-2,0E0,0E0,9.720622E-3,1.6357366E-2,6.096308E-2,4.701296E-2,0E0,0E0,0E0,0E0,0E0,0E0,0E0,0E0,0E0,0E0,0E0,0E0,0E0,0E0,0E0,0E0,0E0,0E0],"parents":[2147483647,0,0,1,1,2,2,3,3,5,5,6,6,7,7,8,8,9,9,10,10,11,11,12,12,13,13,14,14,15,15,16,16,19,19,20,20,21,21,22,22],"right_children":[2,4,6,8,-1,10,12,14,16,18,20,22,24,26,28,30,32,-1,-1,34,36,38,40,-1,-1,-1,-1,-1,-1,-1,-1,-1,-1,-1,-1,-1,-1,-1,-1,-1,-1],"split_conditions":[1.1857E1,1.1553E1,2.7E0,5E-2,2.3319733E-1,1.4006E1,4.812E1,2.537E0,-5.701E0,1.8903478E0,3.278E1,1.5295E1,1E-2,1.5729E1,-7E-1,5E-1,2.135E0,1.3363296E-1,-0E0,2.4232E1,3.994E1,1.2979E1,4.6716E1,1.1396808E-1,-1.5362213E-2,2.440482E-2,-3.751133E-2,-1.571792E-1,-2.264586E-2,-5.629471E-2,-0E0,1.1914309E-1,2.4126083E-2,9.022851E-3,-3.1920735E-2,8.409161E-2,-4.901347E-3,-1.6354176E-1,-3.2774262E-2,-2.1370335E-2,-1.530648E-1],"split_indices":[12,12,8,4,0,12,12,12,9,0,10,12,3,10,7,3,9,0,0,12,11,11,12,0,0,0,0,0,0,0,0,0,0,0,0,0,0,0,0,0,0],"split_type":[0,0,0,0,0,0,0,0,0,0,0,0,0,0,0,0,0,0,0,0,0,0,0,0,0,0,0,0,0,0,0,0,0,0,0,0,0,0,0,0,0],"sum_hessian":[2.1E2,1.12E2,9.8E1,1.11E2,1E0,3.2E1,6.6E1,6.3E1,4.8E1,4E0,2.8E1,5.8E1,8E0,4.5E1,1.8E1,1E1,3.8E1,3E0,1E0,2.1E1,7E0,1.5E1,4.3E1,4E0,4E0,3.3E1,1.2E1,4E0,1.4E1,7E0,3E0,1.3E1,2.5E1,1.1E1,1E1,4E0,3E0,7E0,8E0,4.1E1,2E0],"tree_param":{"num_deleted":"0","num_feature":"18","num_nodes":"41","size_leaf_vector":"1"}},{"base_weights":[-0E0,-2.8278919E-2,6.8245465E-3,-9.746728E-3,-1.1547145E-1,1.0341114E-1,4.4247196E-3,-1.7474735E-2,1.2150275E-1,-3.3700284E-2,-1.6587476E-1,2.8458016E-2,-2.9842462E-3,-7.321713E-2,8.38531E-3,-7.839653E-4,5.8239195E-2,-2.206254E-2,7.0334882E-3,-2.0060895E-2,-8.939311E-2,-3.900454E-2,2.69044E-2,1.0486576E-2,-5.3805407E-2,2.270351E-2,1.0745479E-1,-8.819121E-3,-9.126694E-2,3.871401E-2,-1.362365E-2],"categories":[],"categories_nodes":[],"categories_segments":[],"categories_sizes":[],"default_left":[0,0,0,0,0,0,0,0,0,0,0,0,0,0,0,0,0,0,0,0,0,0,0,0,0,0,0,0,0,0,0],"id":21,"left_children":[1,3,5,7,9,-1,11,13,-1,-1,-1,15,17,19,21,23,25,27,29,-1,-1,-1,-1,-1,-1,-1,-1,-1,-1,-1,-1],"loss_changes":[4.0751815E-2,6.387298E-2,3.8100354E-2,3.6583338E-2,2.1264978E-2,0E0,3.025406E-2,5.02733E-2,0E0,0E0,0E0,3.545464E-2,2.4960112E-2,6.570548E-3,2.1991197E-2,1.354661E-2,3.1237014E-2,3.9436873E-2,5.6404784E-2,0E0,0E0,0E0,0E0,0E0,0E0,0E0,0E0,0E0,0E0,0E0,0E0],"parents":[2147483647,0,0,1,1,2,2,3,3,4,4,6,6,7,7,11,11,12,12,13,13,14,14,15,15,16,16,17,17,18,18],"right_children":[2,4,6,8,10,-1,12,14,-1,-1,-1,16,18,20,22,24,26,28,30,-1,-1,-1,-1,-1,-1,-1,-1,-1,-1,-1,-1],"split_conditions":[1.0067886E0,4.2E-1,1.0190697E0,3.9334E1,2.993E0,1.0341114E-1,-4E-1,2.7E0,1.2150275E-1,-3.3700284E-2,-1.6587476E-1,-8.07E-1,1.1857E1,-1.978E0,1.5E0,2.4631703E0,-2.1E-1,8.884E0,3.3E0,-2.0060895E-2,-8.939311E-2,-3.900454E-2,2.69044E-2,1.0486576E-2,-5.3805407E-2,2.270351E-2,1.0745479E-1,-8.819121E-3,-9.126694E-2,3.871401E-2,-1.362365E-2],"split_indices":[13,2,13,17,10,0,1,5,0,0,0,9,10,10,8,16,2,10,7,0,0,0,0,0,0,0,0,0,0,0,0],"split_type":[0,0,0,0,0,0,0,0,0,0,0,0,0,0,0,0,0,0,0,0,0,0,0,0,0,0,0,0,0,0,0],"sum_hessian":[2.1E2,4E1,1.7E2,3.4E1,6E0,3E0,1.67E2,3.3E1,1E0,3E0,3E0,3.9E1,1.28E2,1E1,2.3E1,2E1,1.9E1,4.4E1,8.4E1,3E0,7E0,6E0,1.7E1,1.7E1,3E0,1.2E1,7E0,3.8E1,6E0,3.3E1,5.1E1],"tree_param":{"num_deleted":"0","num_feature":"18","num_nodes":"31","size_leaf_vector":"1"}},{"base_weights":[-4.472475E-4,1.1476631E-2,-8.661584E-3,1.7839182E-2,-1.6849473E-2,-2.5610795E-2,-6.543417E-4,3.015998E-2,-1.2456053E-2,-6.9946446E-2,1.2735193E-2,2.351905E-3,-3.9531797E-2,-2.5169227E-2,5.5159763E-3,1.5996357E-2,5.9518136E-2,-5.4502435E-4,-4.8462342E-2,-7.6122664E-2,-1.4532681E-2,3.6846556E-2,-1.1832037E-2,2.0606145E-2,-2.3754774E-2,-1.3690503E-1,-2.5865735E-2,3.383511E-2,-3.9892435E-2,6.982784E-2,4.0877482E-4,7.145948E-2,6.517857E-3,3.566397E-2,1.02864504E-1,-2.0943776E-2,1.1576457E-2,-0E0,-5.8956202E-2,1.6506203E-4,5.2646037E-2,4.5923362E-3,-2.3692308E-2,-1.1758563E-2,3.296157E-2,-3.126681E-2,1.9026948E-3,-5.7462305E-2,-9.830276E-3,-5.3664833E-2,-0E0,6.100769E-3,8.173442E-2,-3.1656556E-2,8.305822E-3],"categories":[],"categories_nodes":[],"categories_segments":[],"categories_sizes":[],"default_left":[0,0,0,0,0,0,0,0,0,0,0,0,0,0,0,0,0,0,0,0,0,0,0,0,0,0,0,0,0,0,0,0,0,0,0,0,0,0,0,0,0,0,0,0,0,0,0,0,0,0,0,0,0,0,0],"id":22,"left_children":[1,3,5,7,9,11,13,15,17,19,21,23,25,27,29,31,33,35,37,-1,-1,39,41,43,45,-1,47,-1,49,51,53,-1,-1,-1,-1,-1,-1,-1,-1,-1,-1,-1,-1,-1,-1,-1,-1,-1,-1,-1,-1,-1,-1,-1,-1],"loss_changes":[2.073802E-2,1.5809935E-2,1.6820863E-2,2.705428E-2,2.6596593E-2,1.6035525E-2,1.3495388E-2,1.9499488E-2,8.489823E-3,4.066527E-5,7.201958E-3,7.1298145E-3,3.0760273E-2,1.7047534E-2,2.2260847E-2,1.7679922E-2,1.1490025E-2,4.5396E-3,2.1603433E-3,0E0,0E0,2.9404908E-3,1.4685879E-3,4.198528E-3,1.509571E-3,0E0,1.1428842E-2,0E0,7.8079663E-3,2.4168603E-3,1.674204E-2,0E0,0E0,0E0,0E0,0E0,0E0,0E0,0E0,0E0,0E0,0E0,0E0,0E0,0E0,0E0,0E0,0E0,0E0,0E0,0E0,0E0,0E0,0E0,0E0],"parents":[2147483647,0,0,1,1,2,2,3,3,4,4,5,5,6,6,7,7,8,8,9,9,10,10,11,11,12,12,13,13,14,14,15,15,16,16,17,17,18,18,21,21,22,22,23,23,24,24,26,26,28,28,29,29,30,30],"right_children":[2,4,6,8,10,12,14,16,18,20,22,24,26,28,30,32,34,36,38,-1,-1,40,42,44,46,-1,48,-1,50,52,54,-1,-1,-1,-1,-1,-1,-1,-1,-1,-1,-1,-1,-1,-1,-1,-1,-1,-1,-1,-1,-1,-1,-1,-1],"split_conditions":[2.6E0,2.3225513E0,2.4E0,5.2E-1,2.3397024E0,-4.59E-1,3.6E0,1.3721255E0,1.4E0,2.4734585E0,2.454996E0,4E0,3E0,1.3E0,3.8E0,-5.361E0,4E0,-8.3E-1,-8.3E-1,-7.6122664E-2,-1.4532681E-2,8E-1,-3.3E-1,-1.09E0,5.2E-1,-1.3690503E-1,1.1437931E0,3.383511E-2,2E-2,3.1E0,1.0067886E0,7.145948E-2,6.517857E-3,3.566397E-2,1.02864504E-1,-2.0943776E-2,1.1576457E-2,-0E0,-5.8956202E-2,1.6506203E-4,5.2646037E-2,4.5923362E-3,-2.3692308E-2,-1.1758563E-2,3.296157E-2,-3.126681E-2,1.9026948E-3,-5.7462305E-2,-9.830276E-3,-5.3664833E-2,-0E0,6.100769E-3,8.173442E-2,-3.1656556E-2,8.305822E-3],"split_indices":[6,13,7,4,14,10,6,0,6,0,15,8,6,8,6,17,5,1,1,0,0,7,4,3,2,0,0,0,1,8,0,0,0,0,0,0,0,0,0,0,0,0,0,0,0,0,0,0,0,0,0,0,0,0,0],"split_type":[0,0,0,0,0,0,0,0,0,0,0,0,0,0,0,0,0,0,0,0,0,0,0,0,0,0,0,0,0,0,0,0,0,0,0,0,0,0,0,0,0,0,0,0,0,0,0,0,0,0,0,0,0,0,0],"sum_hessian":[2.1E2,8.5E1,1.25E2,7E1,1.5E1,3.9E1,8.6E1,5E1,2E1,5E0,1E1,1.3E1,2.6E1,1.7E1,6.9E1,3.5E1,1.5E1,1.6E1,4E0,4E0,1E0,5E0,5E0,8E0,5E0,2E0,2.4E1,3E0,1.4E1,4E0,6.5E1,4E0,3.1E1,1.1E1,4E0,6E0,1E1,1E0,3E0,2E0,3E0,2E0,3E0,2E0,6E0,4E0,1E0,7E0,1.7E1,1E1,4E0,1E0,3E0,1.2E1,5.3E1],"tree_param":{"num_deleted":"0","num_feature":"18","num_nodes":"55","size_leaf_vector":"1"}},{"base_weights":[-2.8903692E-4,2.2998934E-3,-1.6960941E-2,1.1814515E-4,3.005213E-2,-5.890436E-3,-6.692128E-2,-3.2532588E-2,1.5632178E-3,4.5740023E-2,8.642502E-3,-1.9336805E-2,1.5212798E-2,-4.069443E-3,-7.911688E-2,-2.7422078E-3,-4.19003E-2,9.789237E-3,-4.347038E-3,1.5334748E-2,-2.0587414E-3,-6.498981E-4,-3.2687742E-2,-0E0,2.194241E-2,3.3006053E-3,4.3382753E-2,-9.976405E-4,-4.5361143E-2,3.2625657E-3,-7.878004E-3,-1.5246837E-3,-3.994509E-2,2.6875306E-3,-4.7657443E-3],"categories":[],"categories_nodes":[],"categories_segments":[],"categories_sizes":[],"default_left":[0,0,0,0,0,0,0,0,0,0,0,0,0,0,0,0,0,0,0,0,0,0,0,0,0,0,0,0,0,0,0,0,0,0,0],"id":23,"left_children":[1,3,5,7,9,11,13,15,17,-1,19,21,23,-1,-1,-1,-1,25,27,-1,-1,29,31,33,-1,-1,-1,-1,-1,-1,-1,-1,-1,-1,-1],"loss_changes":[9.292886E-3,1.0775102E-2,1.49171855E-2,7.8094006E-3,3.4272028E-3,7.4294526E-3,2.6787557E-3,1.3921494E-3,8.118927E-3,0E0,6.656377E-4,3.6371835E-3,1.0559936E-3,0E0,0E0,0E0,0E0,1.4648294E-2,1.2678921E-2,0E0,0E0,2.9809447E-4,1.5598489E-3,6.70931E-5,0E0,0E0,0E0,0E0,0E0,0E0,0E0,0E0,0E0,0E0,0E0],"parents":[2147483647,0,0,1,1,2,2,3,3,4,4,5,5,6,6,7,7,8,8,10,10,11,11,12,12,17,17,18,18,21,21,22,22,23,23],"right_children":[2,4,6,8,10,12,14,16,18,-1,20,22,24,-1,-1,-1,-1,26,28,-1,-1,30,32,34,-1,-1,-1,-1,-1,-1,-1,-1,-1,-1,-1],"split_conditions":[3.6517E1,2.8244E1,4.8004E1,-2.336E1,3.9E0,1.2227589E0,1.1652285E0,1.1610953E0,1.2116834E0,4.5740023E-2,2.8E-1,1.1337645E0,4.616E1,-4.069443E-3,-7.911688E-2,-2.7422078E-3,-4.19003E-2,1.1613433E0,3.2875E1,1.5334748E-2,-2.0587414E-3,3.5E-1,-7.492E0,1.2401968E0,2.194241E-2,3.3006053E-3,4.3382753E-2,-9.976405E-4,-4.5361143E-2,3.2625657E-3,-7.878004E-3,-1.5246837E-3,-3.994509E-2,2.6875306E-3,-4.7657443E-3],"split_indices":[12,12,17,17,5,15,0,0,14,0,1,16,12,0,0,0,0,15,11,0,0,1,17,0,0,0,0,0,0,0,0,0,0,0,0],"split_type":[0,0,0,0,0,0,0,0,0,0,0,0,0,0,0,0,0,0,0,0,0,0,0,0,0,0,0,0,0,0,0,0,0,0,0],"sum_hessian":[2.1E2,1.82E2,2.8E1,1.7E2,1.2E1,2.4E1,4E0,6E0,1.64E2,6E0,6E0,1.5E1,9E0,1E0,3E0,2E0,4E0,6.9E1,9.5E1,4E0,2E0,7E0,8E0,3E0,6E0,5.9E1,1E1,8.9E1,6E0,4E0,3E0,2E0,6E0,2E0,1E0],"tree_param":{"num_deleted":"0","num_feature":"18","num_nodes":"35","size_leaf_vector":"1"}},{"base_weights":[-5.9099105E-4,-1.96242E-2,1.90324E-3,-2.7843457E-2,9.3773585E-3,3.5663764E-3,-1.1662268E-2,-3.3822376E-2,2.0278073E-3,2.6373621E-2,-3.2141781E-3,1.3957362E-3,1.6755382E-2,4.4166795E-3,-2.6128378E-2,-0E0,-3.796238E-2,-1.0682221E-2,1.3158557E-2,-5.749779E-3,-0E0,6.500924E-3,-4.4087577E-3,2.0161422E-2,-1.9636727E-3,-2.0116551E-3,1.3247345E-2,-3.2317955E-2,-0E0,1.3419266E-2,-1.6191598E-2,-5.52292E-4,-3.9880794E-2,1.1051814E-3,3.304045E-2,-2.0281952E-3,-3.1998202E-2,2.9028084E-2,7.3919524E-3,-7.131653E-3,-0E0,-3.4264863E-2,-3.3713533E-3],"categories":[],"categories_nodes":[],"categories_segments":[],"categories_sizes":[],"default_left":[0,0,0,0,0,0,0,0,0,0,0,0,0,0,0,0,0,0,0,0,0,0,0,0,0,0,0,0,0,0,0,0,0,0,0,0,0,0,0,0,0,0,0],"id":24,"left_children":[1,3,5,7,9,11,13,15,17,-1,19,21,23,25,27,29,31,-1,-1,-1,-1,33,35,37,-1,39,-1,41,-1,-1,-1,-1,-1,-1,-1,-1,-1,-1,-1,-1,-1,-1,-1],"loss_changes":[1.0231408E-2,6.4050397E-3,4.1795946E-3,3.958487E-3,1.6004185E-3,4.6047047E-3,4.984514E-3,2.1699332E-3,7.312145E-4,0E0,5.78561E-5,4.3760054E-3,1.6879989E-3,7.0667075E-4,1.8904386E-3,8.8448904E-4,6.5016374E-4,0E0,0E0,0E0,0E0,1.0934863E-2,4.0609688E-3,1.6856771E-3,0E0,1.2830088E-4,0E0,1.5325844E-5,0E0,0E0,0E0,0E0,0E0,0E0,0E0,0E0,0E0,0E0,0E0,0E0,0E0,0E0,0E0],"parents":[2147483647,0,0,1,1,2,2,3,3,4,4,5,5,6,6,7,7,8,8,10,10,11,11,12,12,13,13,14,14,15,15,16,16,21,21,22,22,23,23,25,25,27,27],"right_children":[2,4,6,8,10,12,14,16,18,-1,20,22,24,26,28,30,32,-1,-1,-1,-1,34,36,38,-1,40,-1,42,-1,-1,-1,-1,-1,-1,-1,-1,-1,-1,-1,-1,-1,-1,-1],"split_conditions":[-7.918E0,2.2225456E0,2.437237E0,3.9334E1,1.5295E1,2.2707646E0,-7E-2,-1.32E0,-3.7E-1,2.6373621E-2,-7.4E-1,1.2979E1,2.447168E0,1.6825E1,2.5328617E0,1.1475828E0,-8E0,-1.0682221E-2,1.3158557E-2,-5.749779E-3,-0E0,1.8921E1,2.4448693E0,1.5441E1,-1.9636727E-3,-5.6E-1,1.3247345E-2,8.3E-1,-0E0,1.3419266E-2,-1.6191598E-2,-5.52292E-4,-3.9880794E-2,1.1051814E-3,3.304045E-2,-2.0281952E-3,-3.1998202E-2,2.9028084E-2,7.3919524E-3,-7.131653E-3,-0E0,-3.4264863E-2,-3.3713533E-3],"split_indices":[12,13,16,11,10,16,1,1,3,0,1,12,15,17,15,0,8,0,0,0,0,17,0,10,0,1,0,2,0,0,0,0,0,0,0,0,0,0,0,0,0,0,0],"split_type":[0,0,0,0,0,0,0,0,0,0,0,0,0,0,0,0,0,0,0,0,0,0,0,0,0,0,0,0,0,0,0,0,0,0,0,0,0,0,0,0,0,0,0],"sum_hessian":[2.1E2,2.4E1,1.86E2,1.9E1,5E0,1.67E2,1.9E1,1.6E1,3E0,2E0,3E0,1.45E2,2.2E1,9E0,1E1,2E0,1.4E1,1E0,2E0,2E0,1E0,7.8E1,6.7E1,1.9E1,3E0,5E0,4E0,8E0,2E0,1E0,1E0,1E0,1.3E1,6.6E1,1.2E1,6.3E1,4E0,1E1,9E0,2E0,3E0,7E0,1E0],"tree_param":{"num_deleted":"0","num_feature":"18","num_nodes":"43","size_leaf_vector":"1"}},{"base_weights":[-9.415983E-5,-2.1073667E-3,9.473023E-3,-2.5106085E-2,-1.2295907E-3,1.5039937E-2,-3.6372317E-3,1.3318015E-3,-3.2660022E-2,2.7705608E-2,-1.9707289E-3,2.6837124E-2,4.0912555E-4,-1.445627E-2,6.121346E-3,-1.2577884E-2,-7.056476E-4,3.5564743E-2,-1.3731099E-3,7.3015946E-3,-1.0079144E-2,-0E0,-1.842985E-2,9.652657E-3,-0E0,-2.7824761E-3,-1.9864637E-2,1.3856518E-2,-1.8991559E-3,1.01199765E-2,3.8983583E-2,2.9581739E-3,-7.1362625E-3,3.3316427E-4,1.0809706E-2,-0E0,-1.1862634E-2],"categories":[],"categories_nodes":[],"categories_segments":[],"categories_sizes":[],"default_left":[0,0,0,0,0,0,0,0,0,0,0,0,0,0,0,0,0,0,0,0,0,0,0,0,0,0,0,0,0,0,0,0,0,0,0,0,0],"id":25,"left_children":[1,3,5,7,9,11,13,-1,-1,-1,15,17,19,21,23,25,27,29,31,33,35,-1,-1,-1,-1,-1,-1,-1,-1,-1,-1,-1,-1,-1,-1,-1,-1],"loss_changes":[4.0103183E-3,3.258812E-3,2.7961428E-3,1.5550395E-3,3.4643426E-3,4.2042197E-3,1.3332037E-3,0E0,0E0,0E0,2.1126666E-3,3.8376655E-3,9.855891E-4,4.443942E-4,1.4786991E-4,9.3165995E-4,2.548512E-3,7.1357936E-5,1.627386E-4,1.0498418E-4,5.494262E-5,0E0,0E0,0E0,0E0,0E0,0E0,0E0,0E0,0E0,0E0,0E0,0E0,0E0,0E0,0E0,0E0],"parents":[2147483647,0,0,1,1,2,2,3,3,4,4,5,5,6,6,10,10,11,11,12,12,13,13,14,14,15,15,16,16,17,17,18,18,19,19,20,20],"right_children":[2,4,6,8,10,12,14,-1,-1,-1,16,18,20,22,24,26,28,30,32,34,36,-1,-1,-1,-1,-1,-1,-1,-1,-1,-1,-1,-1,-1,-1,-1,-1],"split_conditions":[6.8E0,8.821451E-1,6.6E0,-7.5E-1,8.9868563E-1,1.3237E1,8.358E0,1.3318015E-3,-3.2660022E-2,2.7705608E-2,-1.7207E1,6.4E-1,2.234954E0,8.9077294E-1,2.2621973E0,-8.3E-1,-6.039E0,-2E-1,-2E-2,2.5E0,-2.5E-1,-0E0,-1.842985E-2,9.652657E-3,-0E0,-2.7824761E-3,-1.9864637E-2,1.3856518E-2,-1.8991559E-3,1.01199765E-2,3.8983583E-2,2.9581739E-3,-7.1362625E-3,3.3316427E-4,1.0809706E-2,-0E0,-1.1862634E-2],"split_indices":[7,14,5,3,14,11,10,0,0,0,11,3,0,0,0,4,11,4,1,5,2,0,0,0,0,0,0,0,0,0,0,0,0,0,0,0,0],"split_type":[0,0,0,0,0,0,0,0,0,0,0,0,0,0,0,0,0,0,0,0,0,0,0,0,0,0,0,0,0,0,0,0,0,0,0,0,0],"sum_hessian":[2.1E2,1.75E2,3.5E1,5E0,1.7E2,2.5E1,1E1,1E0,4E0,3E0,1.67E2,1.3E1,1.2E1,5E0,5E0,1.6E1,1.51E2,1E1,3E0,8E0,4E0,1E0,4E0,3E0,2E0,8E0,8E0,1E1,1.41E2,2E0,8E0,1E0,2E0,4E0,4E0,1E0,3E0],"tree_param":{"num_deleted":"0","num_feature":"18","num_nodes":"37","size_leaf_vector":"1"}}]},"name":"gbtree"},"learner_model_param":{"base_score":"1.187E1","boost_from_average":"1","num_class":"0","num_feature":"18","num_target":"1"},"objective":{"name":"reg:squarederror","reg_loss_param":{"scale_pos_weight":"1"}}},"version":[2,1,4]}