{"learner":{"attributes":{"best_iteration":"0","best_score":"111.71955423498481","scikit_learn":"{\"_estimator_type\": \"regressor\"}"},"feature_names":["watr","fedfunds_lag_5","fedfunds_lag_6","gdp_lag_5","gdp_lag_6","imports_lag_5","imports_lag_6","watr_lag_5","watr_lag_6","imports_lag_1"],"feature_types":["float","float","float","float","float","float","float","float","float","float"],"gradient_booster":{"model":{"gbtree_model_param":{"num_parallel_tree":"1","num_trees":"26"},"iteration_indptr":[0,1,2,3,4,5,6,7,8,9,10,11,12,13,14,15,16,17,18,19,20,21,22,23,24,25,26],"tree_info":[0,0,0,0,0,0,0,0,0,0,0,0,0,0,0,0,0,0,0,0,0,0,0,0,0,0],"trees":[{"base_weights":[-0E0,-8.991058E0,1.7735786E1,-1.0623384E2,-6.8732457E0,9.346266E0,3.1682514E1,-2.4675625E1,-5.1899495E0,1.128306E1,-9.177418E0,-2.807079E0,3.611109E1,1.1760782E1,-4.4365177E1,-9.498824E0,1.7551252E0,1.3340411E1,-1.2019477E0,-1.1877079E1,8.056141E-1,3.2931137E0,-5.9415145E0,5.463545E1,2.526898E1,3.4340115E1,-2.4665794E0,4.3195876E-1,-1.106569E1,6.294948E0,-6.221679E0,3.6492047E0,1.6324755E1,-9.142181E0,3.8005822E0,-7.438386E0,-1.468886E0,2.7411901E1,-4.503886E0],"categories":[],"categories_nodes":[],"categories_segments":[],"categories_sizes":[],"default_left":[0,0,0,0,0,0,0,0,0,0,0,0,0,0,0,0,0,0,0,0,0,0,0,0,0,0,0,0,0,0,0,0,0,0,0,0,0,0,0],"id":0,"left_children":[1,3,5,-1,7,9,11,13,15,17,19,21,23,25,-1,27,29,31,33,-1,-1,-1,35,-1,37,-1,-1,-1,-1,-1,-1,-1,-1,-1,-1,-1,-1,-1,-1],"loss_changes":[3.460358E4,2.8924344E4,8.244941E3,0E0,4.1269053E3,1.789769E3,4.225676E3,9.131092E3,3.9369844E3,1.1206558E3,1.444331E2,9.6075226E1,3.4388535E3,1.6912429E3,0E0,1.2652617E3,1.8860431E3,1.0103384E3,3.1284784E2,0E0,0E0,0E0,9.0696335E0,0E0,1.2083057E3,0E0,0E0,0E0,0E0,0E0,0E0,0E0,0E0,0E0,0E0,0E0,0E0,0E0,0E0],"parents":[2147483647,0,0,1,1,2,2,4,4,5,5,6,6,7,7,8,8,9,9,10,10,11,11,12,12,13,13,15,15,16,16,17,17,18,18,22,22,24,24],"right_children":[2,4,6,-1,8,10,12,14,16,18,20,22,24,26,-1,28,30,32,34,-1,-1,-1,36,-1,38,-1,-1,-1,-1,-1,-1,-1,-1,-1,-1,-1,-1,-1,-1],"split_conditions":[1.7887E1,-8.2388E1,3.9334E1,-1.0623384E2,-2.1961E1,6.9E0,1.1287782E0,7E-1,9.135E0,4.8E-1,2.1165E1,-2.2E-1,2.2E0,1.0539463E0,-4.4365177E1,-5.361E0,4.7E0,-5.1E-1,5E-1,-1.1877079E1,8.056141E-1,3.2931137E0,9.9794817E-1,5.463545E1,5.2941E1,3.4340115E1,-2.4665794E0,4.3195876E-1,-1.106569E1,6.294948E0,-6.221679E0,3.6492047E0,1.6324755E1,-9.142181E0,3.8005822E0,-7.438386E0,-1.468886E0,2.7411901E1,-4.503886E0],"split_indices":[9,9,9,0,9,3,7,4,6,1,5,2,3,0,0,9,4,1,2,0,0,0,0,0,5,0,0,0,0,0,0,0,0,0,0,0,0,0,0],"split_type":[0,0,0,0,0,0,0,0,0,0,0,0,0,0,0,0,0,0,0,0,0,0,0,0,0,0,0,0,0,0,0,0,0,0,0,0,0,0,0],"sum_hessian":[2.15E2,1.43E2,7.2E1,2E0,1.41E2,4.6E1,2.6E1,1.1E1,1.3E2,4.2E1,4E0,3E0,2.3E1,4E0,7E0,8E1,5E1,3.6E1,6E0,3E0,1E0,1E0,2E0,7E0,1.6E1,1E0,3E0,1.1E1,6.9E1,3.2E1,1.8E1,9E0,2.7E1,2E0,4E0,1E0,1E0,1.5E1,1E0],"tree_param":{"num_deleted":"0","num_feature":"10","num_nodes":"39","size_leaf_vector":"1"}},{"base_weights":[-2.4900787E-1,-3.5411285E1,2.4503809E-1,6.110036E0,-5.923196E1,1.0736311E1,-7.7317226E-1,1.4967924E1,-8.8717165E0,-1.6494626E-1,-1.0986524E1,8.0205145E0,2.0911518E1,-2.1706188E0,1.6581129E0,-1.5058878E1,-3.0859222E0,-3.0623655E0,9.78992E0,2.3647661E1,8.465395E0,-5.0995913E0,1.2282215E0,1.371076E1,2.851401E-1,-2.407041E0,-1.6764677E1,-4.7610583E0,-3.788121E-1],"categories":[],"categories_nodes":[],"categories_segments":[],"categories_sizes":[],"default_left":[0,0,0,0,0,0,0,0,0,0,0,0,0,0,0,0,0,0,0,0,0,0,0,0,0,0,0,0,0],"id":1,"left_children":[1,3,5,-1,-1,7,9,11,-1,13,15,17,19,21,23,25,27,-1,-1,-1,-1,-1,-1,-1,-1,-1,-1,-1,-1],"loss_changes":[3.7613333E3,3.3296387E3,2.2944177E3,0E0,0E0,1.7093501E3,1.2156334E3,4.926709E2,0E0,6.837058E2,3.0726257E2,2.0653864E2,7.1927E1,8.923069E2,1.6176503E3,1.1052551E2,2.0818947E1,0E0,0E0,0E0,0E0,0E0,0E0,0E0,0E0,0E0,0E0,0E0,0E0],"parents":[2147483647,0,0,1,1,2,2,5,5,6,6,7,7,9,9,10,10,11,11,12,12,13,13,14,14,15,15,16,16],"right_children":[2,4,6,-1,-1,8,10,12,-1,14,16,18,20,22,24,26,28,-1,-1,-1,-1,-1,-1,-1,-1,-1,-1,-1,-1],"split_conditions":[-8.2388E1,1.1610953E0,-9.1E-1,6.110036E0,-5.923196E1,5.5E0,1.21E0,-1.43E0,-8.8717165E0,1E-2,7.3E-1,1.001517E0,2.5E0,3.2E0,3E-2,-2.12E0,1.2908025E0,-3.0623655E0,9.78992E0,2.3647661E1,8.465395E0,-5.0995913E0,1.2282215E0,1.371076E1,2.851401E-1,-2.407041E0,-1.6764677E1,-4.7610583E0,-3.788121E-1],"split_indices":[9,0,2,0,0,3,2,2,0,2,1,0,3,4,2,1,0,0,0,0,0,0,0,0,0,0,0,0,0],"split_type":[0,0,0,0,0,0,0,0,0,0,0,0,0,0,0,0,0,0,0,0,0,0,0,0,0,0,0,0,0],"sum_hessian":[2.15E2,2E0,2.13E2,1E0,1E0,1.8E1,1.95E2,1.5E1,3E0,1.85E2,1E1,8E0,7E0,8.8E1,9.7E1,6E0,4E0,1E0,7E0,5E0,2E0,4.7E1,4.1E1,9E0,8.8E1,1E0,5E0,2E0,2E0],"tree_param":{"num_deleted":"0","num_feature":"10","num_nodes":"29","size_leaf_vector":"1"}},{"base_weights":[-1.7287096E-1,-1.7703976E1,7.365326E-2,3.0550165E0,-2.961598E1,5.35487E0,-6.2157863E-1,3.556289E0,1.3905847E1,2.163444E0,-1.8617663E0,3.1711888E-1,6.228338E0,7.7956855E-1,2.099434E1,-8.299927E0,-2.0419939E-1,4.569162E0,-3.9861107E0,9.6041405E-1,9.8525095E0,6.1832113E0,-8.3445245E-1,-2.4644608E0,-1.7972773E1,-8.961335E-1,5.852153E0],"categories":[],"categories_nodes":[],"categories_segments":[],"categories_sizes":[],"default_left":[0,0,0,0,0,0,0,0,0,0,0,0,0,0,0,0,0,0,0,0,0,0,0,0,0,0,0],"id":2,"left_children":[1,3,5,-1,-1,7,9,11,-1,13,15,17,19,21,-1,23,25,-1,-1,-1,-1,-1,-1,-1,-1,-1,-1],"loss_changes":[9.349981E2,8.325864E2,7.891133E2,0E0,0E0,3.3486273E2,6.602755E2,1.8837424E2,0E0,1.5209332E3,1.4068821E3,2.1949173E2,2.1953171E2,4.936223E2,0E0,1.4795325E3,4.4939798E2,0E0,0E0,0E0,0E0,0E0,0E0,0E0,0E0,0E0,0E0],"parents":[2147483647,0,0,1,1,2,2,5,5,6,6,7,7,9,9,10,10,11,11,12,12,13,13,15,15,16,16],"right_children":[2,4,6,-1,-1,8,10,12,-1,14,16,18,20,22,-1,24,26,-1,-1,-1,-1,-1,-1,-1,-1,-1,-1],"split_conditions":[-8.2388E1,1.1610953E0,-5E-1,3.0550165E0,-2.961598E1,-9E-1,1.1619661E0,1.2621561E0,1.3905847E1,4.8004E1,1.2076195E0,2.993E0,-4.2E0,-1.8E-1,2.099434E1,1.1755475E0,4.0255E1,4.569162E0,-3.9861107E0,9.6041405E-1,9.8525095E0,6.1832113E0,-8.3445245E-1,-2.4644608E0,-1.7972773E1,-8.961335E-1,5.852153E0],"split_indices":[9,0,3,0,0,3,0,8,0,6,8,9,3,1,0,7,5,0,0,0,0,0,0,0,0,0,0],"split_type":[0,0,0,0,0,0,0,0,0,0,0,0,0,0,0,0,0,0,0,0,0,0,0,0,0,0,0],"sum_hessian":[2.15E2,2E0,2.13E2,1E0,1E0,2.4E1,1.89E2,2.1E1,3E0,5.8E1,1.31E2,1E1,1.1E1,5.5E1,3E0,2.6E1,1.05E2,5E0,5E0,5E0,6E0,1.2E1,4.3E1,1.7E1,9E0,9.5E1,1E1],"tree_param":{"num_deleted":"0","num_feature":"10","num_nodes":"27","size_leaf_vector":"1"}},{"base_weights":[4.450349E-2,-7.034321E-1,3.6821764E0,1.9456123E0,-1.4261032E0,9.654114E-2,7.461095E0,-2.8753288E0,3.4880724E0,-3.7046971E0,7.782486E-1,3.9953637E0,-1.8590517E0,1.2317238E1,4.0057535E0,3.531928E-1,-7.8089094E0,4.269141E0,-1.2690998E0,-7.8731494E0,-2.1101725E0,8.614419E0,1.9898626E-1,1.6141567E0,6.6289206E0,-3.7661457E0,4.0787023E-2,1.3332157E1,3.1088588E0,9.096291E0,-9.2838585E-1,3.0962439E0,-4.3329563E0,5.2215204E0,-7.731569E-1,-2.9507442E0,8.3224434E-1,-1.04241495E1,9.203568E0,9.071236E-1,-4.1837316E0,-1.0414039E-1,1.0822594E1,-5.4903567E-1,6.904186E0,6.4717485E-3,2.01196E0,2.21039E0,-1.0491457E0,-3.7990572E0,8.142821E0],"categories":[],"categories_nodes":[],"categories_segments":[],"categories_sizes":[],"default_left":[0,0,0,0,0,0,0,0,0,0,0,0,0,0,0,0,0,0,0,0,0,0,0,0,0,0,0,0,0,0,0,0,0,0,0,0,0,0,0,0,0,0,0,0,0,0,0,0,0,0,0],"id":3,"left_children":[1,3,5,7,9,11,13,15,17,19,21,23,25,27,29,31,-1,33,35,37,39,41,43,45,-1,-1,47,-1,-1,-1,49,-1,-1,-1,-1,-1,-1,-1,-1,-1,-1,-1,-1,-1,-1,-1,-1,-1,-1,-1,-1],"loss_changes":[5.903009E2,3.4735925E2,5.005475E2,3.0004373E2,7.161533E2,1.5993913E2,2.5253033E2,1.6211432E2,1.16918335E2,4.4855548E2,3.295592E2,3.311477E1,5.0915257E1,2.3808105E1,3.099356E2,1.0338394E2,0E0,1.289382E2,2.0145493E1,9.2364307E2,3.291681E2,9.749475E1,3.4993314E2,3.164507E0,0E0,0E0,2.1248402E1,0E0,0E0,0E0,2.131748E2,0E0,0E0,0E0,0E0,0E0,0E0,0E0,0E0,0E0,0E0,0E0,0E0,0E0,0E0,0E0,0E0,0E0,0E0,0E0,0E0],"parents":[2147483647,0,0,1,1,2,2,3,3,4,4,5,5,6,6,7,7,8,8,9,9,10,10,11,11,12,12,13,13,14,14,15,15,17,17,18,18,19,19,20,20,21,21,22,22,23,23,26,26,30,30],"right_children":[2,4,6,8,10,12,14,16,18,20,22,24,26,28,30,32,-1,34,36,38,40,42,44,46,-1,-1,48,-1,-1,-1,50,-1,-1,-1,-1,-1,-1,-1,-1,-1,-1,-1,-1,-1,-1,-1,-1,-1,-1,-1,-1],"split_conditions":[5.5E-1,9E-1,8.668E0,1.0647079E0,3.4E0,1.8E0,1.5729E1,1.155E0,4.1E0,-1.547E0,3.5E0,2.9E0,1.2908025E0,9.1E-1,6.9E-1,1.0050694E0,-7.8089094E0,5.4477E1,2.0451431E0,6.1699E1,-2E-2,-3.7E-1,2.4347103E0,6.5E-1,6.6289206E0,-3.7661457E0,6.65E-1,1.3332157E1,3.1088588E0,9.096291E0,2.3914106E0,3.0962439E0,-4.3329563E0,5.2215204E0,-7.731569E-1,-2.9507442E0,8.3224434E-1,-1.04241495E1,9.203568E0,9.071236E-1,-4.1837316E0,-1.0414039E-1,1.0822594E1,-5.4903567E-1,6.904186E0,6.4717485E-3,2.01196E0,2.21039E0,-1.0491457E0,-3.7990572E0,8.142821E0],"split_indices":[1,4,5,8,3,4,5,6,3,9,3,3,0,2,1,0,0,9,7,5,1,1,7,1,0,0,5,0,0,0,7,0,0,0,0,0,0,0,0,0,0,0,0,0,0,0,0,0,0,0,0],"split_type":[0,0,0,0,0,0,0,0,0,0,0,0,0,0,0,0,0,0,0,0,0,0,0,0,0,0,0,0,0,0,0,0,0,0,0,0,0,0,0,0,0,0,0,0,0,0,0,0,0,0,0],"sum_hessian":[2.15E2,1.79E2,3.6E1,3.8E1,1.41E2,1.9E1,1.7E1,9E0,2.9E1,6.9E1,7.2E1,6E0,1.3E1,6E0,1.1E1,6E0,3E0,2.5E1,4E0,1.8E1,5.1E1,4E0,6.8E1,4E0,2E0,6E0,7E0,5E0,1E0,5E0,6E0,4E0,2E0,2.1E1,4E0,2E0,2E0,1.6E1,2E0,2.1E1,3E1,1E0,3E0,6.2E1,6E0,1E0,3E0,2E0,5E0,5E0,1E0],"tree_param":{"num_deleted":"0","num_feature":"10","num_nodes":"51","size_leaf_vector":"1"}},{"base_weights":[1.93584E-1,1.986646E0,-6.436111E-1,9.545278E-1,6.3584995E0,-3.859451E-1,-7.9336677E0,1.6148881E0,-1.6555642E0,1.2265687E0,8.501962E0,-2.8060873E0,3.8751775E-1,-2.6619473E-1,-1.2953252E1,2.4453723E0,-2.6343331E0,2.6816468E0,-3.4003732E0,-9.1720976E-2,2.1393354E0,-1.0563995E0,9.830056E0,-1.2924489E0,-1.4211172E1,-2.3844811E-1,6.043797E0,-9.1557276E-1,5.1128066E-1,1.1162728E0,5.016935E0,-5.173969E-1,-4.61942E0,3.4355426E0,2.0498002E-1,-5.5130434E0,-6.0562813E-1,-2.6013243E-1,1.1755096E-1,1.200698E1,4.6488876E0,-3.9307997E0,1.9590688E0,-7.884545E-1,4.7894545E0,9.236268E0,3.635775E-1],"categories":[],"categories_nodes":[],"categories_segments":[],"categories_sizes":[],"default_left":[0,0,0,0,0,0,0,0,0,0,0,0,0,0,0,0,0,0,0,0,0,0,0,0,0,0,0,0,0,0,0,0,0,0,0,0,0,0,0,0,0,0,0,0,0,0,0],"id":4,"left_children":[1,3,5,7,9,11,13,15,17,19,21,23,25,27,-1,29,31,33,35,37,-1,-1,39,41,-1,43,45,-1,-1,-1,-1,-1,-1,-1,-1,-1,-1,-1,-1,-1,-1,-1,-1,-1,-1,-1,-1],"loss_changes":[3.2553888E2,3.0520413E2,2.7485794E2,1.0091841E2,1.3247571E2,2.7066376E2,1.8885736E2,1.6876993E2,9.993704E1,6.2331524E0,1.24721924E2,5.856888E2,3.9096933E2,1.9867839E0,0E0,1.27635025E2,3.117698E1,6.72797E0,4.973932E1,1.37736E-1,0E0,0E0,3.4246338E1,2.8223706E2,0E0,2.8027408E2,1.9601926E2,0E0,0E0,0E0,0E0,0E0,0E0,0E0,0E0,0E0,0E0,0E0,0E0,0E0,0E0,0E0,0E0,0E0,0E0,0E0,0E0],"parents":[2147483647,0,0,1,1,2,2,3,3,4,4,5,5,6,6,7,7,8,8,9,9,10,10,11,11,12,12,13,13,15,15,16,16,17,17,18,18,19,19,22,22,23,23,25,25,26,26],"right_children":[2,4,6,8,10,12,14,16,18,20,22,24,26,28,-1,30,32,34,36,38,-1,-1,40,42,-1,44,46,-1,-1,-1,-1,-1,-1,-1,-1,-1,-1,-1,-1,-1,-1,-1,-1,-1,-1,-1,-1],"split_conditions":[1.144153E0,1.1337645E0,8.4E0,1.0522742E0,2.6E0,1.2585014E0,-5.8E-1,8.358E0,7E-1,1.1287782E0,-2.992E0,1.2434927E0,3.3947E1,1.5011843E0,-1.2953252E1,9.910079E-1,9.9679774E-1,1.1708165E0,4.5E-1,1.0516934E0,2.1393354E0,-1.0563995E0,1.2763E1,2.5E0,-1.4211172E1,6.4E0,2.8244E1,-9.1557276E-1,5.1128066E-1,1.1162728E0,5.016935E0,-5.173969E-1,-4.61942E0,3.4355426E0,2.0498002E-1,-5.5130434E0,-6.0562813E-1,-2.6013243E-1,1.1755096E-1,1.200698E1,4.6488876E0,-3.9307997E0,1.9590688E0,-7.884545E-1,4.7894545E0,9.236268E0,3.635775E-1],"split_indices":[8,7,3,0,4,0,2,9,3,0,6,0,6,0,0,0,0,0,1,0,0,0,9,4,0,3,9,0,0,0,0,0,0,0,0,0,0,0,0,0,0,0,0,0,0,0,0],"split_type":[0,0,0,0,0,0,0,0,0,0,0,0,0,0,0,0,0,0,0,0,0,0,0,0,0,0,0,0,0,0,0,0,0,0,0,0,0,0,0,0,0,0,0,0,0,0,0],"sum_hessian":[2.15E2,6.8E1,1.47E2,5.6E1,1.2E1,1.43E2,4E0,4.5E1,1.1E1,4E0,8E0,3.4E1,1.09E2,2E0,2E0,3.8E1,7E0,3E0,8E0,2E0,2E0,1E0,7E0,3.1E1,3E0,9.9E1,1E1,1E0,1E0,2.6E1,1.2E1,4E0,3E0,2E0,1E0,4E0,4E0,1E0,1E0,4E0,3E0,1.7E1,1.4E1,9E1,9E0,6E0,4E0],"tree_param":{"num_deleted":"0","num_feature":"10","num_nodes":"47","size_leaf_vector":"1"}},{"base_weights":[8.558142E-4,5.704484E-1,-1.0997198E0,-3.941293E-3,2.343249E0,-1.0179006E1,-7.060034E-1,5.437564E-1,-2.8036218E0,5.0869474E0,4.9029353E-1,7.060625E-1,-1.6749796E0,-3.376396E-1,3.364E0,-4.576885E0,4.5445213E0,1.8230247E0,6.696568E0,1.655349E0,-2.241304E0,-1.3276191E0,2.5691352E0,-6.8187255E-1,-5.9333386E0,1.1276207E0,-2.1589763E0,-7.0777416E-1,7.5010266E0,5.853607E-1,-7.217544E0,6.2983174E0,-3.5343373E-1,2.2077134E0,-4.5209046E-2,7.137026E0,1.5814544E0,-2.096039E0,3.081315E0,-3.1620908E-1,-4.6993604E0,-3.3757944E0,8.852585E-1,4.450328E-1,3.7980933E0,7.9841995E0,-1.1578803E0,8.166098E-1,-8.32109E0],"categories":[],"categories_nodes":[],"categories_segments":[],"categories_sizes":[],"default_left":[0,0,0,0,0,0,0,0,0,0,0,0,0,0,0,0,0,0,0,0,0,0,0,0,0,0,0,0,0,0,0,0,0,0,0,0,0,0,0,0,0,0,0,0,0,0,0,0,0],"id":5,"left_children":[1,3,5,7,9,-1,11,13,15,17,19,21,23,25,27,29,31,33,35,37,39,41,43,45,47,-1,-1,-1,-1,-1,-1,-1,-1,-1,-1,-1,-1,-1,-1,-1,-1,-1,-1,-1,-1,-1,-1,-1,-1],"loss_changes":[1.3602806E2,1.4564645E2,2.572298E2,1.6868535E2,1.7538843E2,0E0,9.9706924E1,2.2985524E2,2.5534355E2,6.12583E1,7.371846E1,1.1709014E2,1.7773537E2,1.9192482E2,3.7596777E2,2.0876718E2,3.6645554E1,4.433563E0,8.9028015E0,9.205804E1,3.1587807E1,7.099877E1,4.0034225E1,1.5768073E2,1.3580771E2,0E0,0E0,0E0,0E0,0E0,0E0,0E0,0E0,0E0,0E0,0E0,0E0,0E0,0E0,0E0,0E0,0E0,0E0,0E0,0E0,0E0,0E0,0E0,0E0],"parents":[2147483647,0,0,1,1,2,2,3,3,4,4,6,6,7,7,8,8,9,9,10,10,11,11,12,12,13,13,14,14,15,15,16,16,17,17,18,18,19,19,20,20,21,21,22,22,23,23,24,24],"right_children":[2,4,6,8,10,-1,12,14,16,18,20,22,24,26,28,30,32,34,36,38,40,42,44,46,48,-1,-1,-1,-1,-1,-1,-1,-1,-1,-1,-1,-1,-1,-1,-1,-1,-1,-1,-1,-1,-1,-1,-1,-1],"split_conditions":[2.2E-1,4.4E0,2.4E-1,2.3301737E0,5.2E0,-1.0179006E1,3.3E0,1.5772157E0,1.6514E1,1.2076195E0,1.4295535E0,1.5E0,3.2875E1,8.889E0,8.41E0,1.5E0,2.3356183E0,1.1745726E0,3.1776E1,9.033742E-1,1.517E1,1.9459754E0,5.2E-1,-1.0841E1,1.1337645E0,1.1276207E0,-2.1589763E0,-7.0777416E-1,7.5010266E0,5.853607E-1,-7.217544E0,6.2983174E0,-3.5343373E-1,2.2077134E0,-4.5209046E-2,7.137026E0,1.5814544E0,-2.096039E0,3.081315E0,-3.1620908E-1,-4.6993604E0,-3.3757944E0,8.852585E-1,4.450328E-1,3.7980933E0,7.9841995E0,-1.1578803E0,8.166098E-1,-8.32109E0],"split_indices":[1,4,1,8,4,0,4,8,6,7,0,4,6,6,5,4,0,0,6,7,6,0,1,9,8,0,0,0,0,0,0,0,0,0,0,0,0,0,0,0,0,0,0,0,0,0,0,0,0],"split_type":[0,0,0,0,0,0,0,0,0,0,0,0,0,0,0,0,0,0,0,0,0,0,0,0,0,0,0,0,0,0,0,0,0,0,0,0,0,0,0,0,0,0,0,0,0,0,0,0,0],"sum_hessian":[2.15E2,1.42E2,7.3E1,1.08E2,3.4E1,2E0,7.1E1,9.1E1,1.7E1,1.3E1,2.1E1,2.9E1,4.2E1,7E1,2.1E1,1.4E1,3E0,5E0,8E0,1.5E1,6E0,1.4E1,1.5E1,3.5E1,7E0,3.9E1,3.1E1,1.1E1,1E1,5E0,9E0,2E0,1E0,4E0,1E0,7E0,1E0,4E0,1.1E1,4E0,2E0,7E0,7E0,6E0,9E0,1E0,3.4E1,2E0,5E0],"tree_param":{"num_deleted":"0","num_feature":"10","num_nodes":"49","size_leaf_vector":"1"}},{"base_weights":[1.3059004E-2,-1.0685667E0,5.8431864E-1,-5.3629154E-1,-6.161198E0,6.16544E0,4.6047807E-1,1.234839E0,-1.5085576E0,-6.9684577E0,-6.538211E-1,1.3602658E-1,1.29698E0,3.8964975E0,3.7409934E-1,-2.1740026E0,1.8396266E0,-7.4528284E0,2.8505313E-1,4.5372643E0,2.2838354E-2,2.1290908E0,4.950874E0,-1.4916006E0,1.4942148E0,-7.596441E-1,-4.291376E0,3.0894325E0,-1.8003768E-1,4.646408E-1,-5.733024E0,5.912348E0,1.7026944E0,1.6006352E0,-1.5558143E0],"categories":[],"categories_nodes":[],"categories_segments":[],"categories_sizes":[],"default_left":[0,0,0,0,0,0,0,0,0,0,0,0,0,0,0,0,0,0,0,0,0,0,0,0,0,0,0,0,0,0,0,0,0,0,0],"id":6,"left_children":[1,3,5,7,9,-1,11,13,15,-1,-1,17,19,21,23,25,27,-1,29,31,33,-1,-1,-1,-1,-1,-1,-1,-1,-1,-1,-1,-1,-1,-1],"loss_changes":[1.340836E2,1.9992995E2,9.524075E1,1.2068424E2,2.64888E1,0E0,3.7805847E1,5.5774487E1,1.0426417E2,0E0,0E0,1.1740877E2,1.6086543E2,5.6941223E-1,4.4024784E1,1.1048915E2,2.0778816E1,0E0,1.1176912E2,3.273242E1,7.472373E1,0E0,0E0,0E0,0E0,0E0,0E0,0E0,0E0,0E0,0E0,0E0,0E0,0E0,0E0],"parents":[2147483647,0,0,1,1,2,2,3,3,4,4,6,6,7,7,8,8,11,11,12,12,13,13,14,14,15,15,16,16,18,18,19,19,20,20],"right_children":[2,4,6,8,10,-1,12,14,16,-1,-1,18,20,22,24,26,28,-1,30,32,34,-1,-1,-1,-1,-1,-1,-1,-1,-1,-1,-1,-1,-1,-1],"split_conditions":[-6E-2,-1.2E-1,-2.2951E1,1.9E0,4.4665E1,6.16544E0,2.4232E1,-1.7207E1,2.6147E1,-6.9684577E0,-6.538211E-1,-2.8632E1,0E0,1.1664811E0,1.2108734E0,8.889E0,3.9E0,-7.4528284E0,4.8004E1,1.2637594E0,3.9E0,2.1290908E0,4.950874E0,-1.4916006E0,1.4942148E0,-7.596441E-1,-4.291376E0,3.0894325E0,-1.8003768E-1,4.646408E-1,-5.733024E0,5.912348E0,1.7026944E0,1.6006352E0,-1.5558143E0],"split_indices":[2,2,6,3,9,0,6,9,6,0,0,9,1,7,0,6,3,0,9,0,4,0,0,0,0,0,0,0,0,0,0,0,0,0,0],"split_type":[0,0,0,0,0,0,0,0,0,0,0,0,0,0,0,0,0,0,0,0,0,0,0,0,0,0,0,0,0,0,0,0,0,0,0],"sum_hessian":[2.15E2,7.4E1,1.41E2,6.8E1,6E0,2E0,1.39E2,2.4E1,4.4E1,5E0,1E0,1.01E2,3.8E1,5E0,1.9E1,3.7E1,7E0,1E0,1E2,1E1,2.8E1,3E0,2E0,7E0,1.2E1,2.3E1,1.4E1,4E0,3E0,9.8E1,2E0,6E0,4E0,1.4E1,1.4E1],"tree_param":{"num_deleted":"0","num_feature":"10","num_nodes":"35","size_leaf_vector":"1"}},{"base_weights":[-7.2558313E-3,-2.6509864E0,9.3926474E-2,-1.732071E-1,-4.1010127E0,-2.5615937E-1,8.7359595E-1,1.127849E0,-2.0431876E0,-2.6323285E-2,-1.6908185E0,1.8475661E0,3.7409876E-2,-2.1919246E-1,2.5042198E0,-3.3794146E0,-7.250335E-1,6.0137314E-1,3.4301744E0,2.4657803E0,-7.4411666E-1,-1.03825316E-1,-4.603658E0,5.0429983E0,3.9266393E-1,-4.0050583E0,1.8222344E-1,-2.7362132E0,6.952011E-1,-4.413132E-1,4.3636036E0,3.855019E0,7.256852E-1,2.8961723E0,-4.8367798E-1,1.9713104E0,-1.4205709E0],"categories":[],"categories_nodes":[],"categories_segments":[],"categories_sizes":[],"default_left":[0,0,0,0,0,0,0,0,0,0,0,0,0,0,0,0,0,0,0,0,0,0,0,0,0,0,0,0,0,0,0,0,0,0,0,0,0],"id":7,"left_children":[1,3,5,7,-1,9,11,-1,-1,13,15,17,19,21,23,25,27,29,31,33,35,-1,-1,-1,-1,-1,-1,-1,-1,-1,-1,-1,-1,-1,-1,-1,-1],"loss_changes":[5.8054302E1,2.7989697E1,5.7276764E1,1.2045361E1,0E0,4.7750103E1,5.284935E1,0E0,0E0,6.202209E1,3.0125187E1,5.706392E1,7.017414E1,5.91621E1,4.6212395E1,1.6366257E1,4.1911488E1,7.257582E1,1.2093521E1,1.28497505E1,5.4227013E1,0E0,0E0,0E0,0E0,0E0,0E0,0E0,0E0,0E0,0E0,0E0,0E0,0E0,0E0,0E0,0E0],"parents":[2147483647,0,0,1,1,2,2,3,3,5,5,6,6,9,9,10,10,11,11,12,12,13,13,14,14,15,15,16,16,17,17,18,18,19,19,20,20],"right_children":[2,4,6,8,-1,10,12,-1,-1,14,16,18,20,22,24,26,28,30,32,34,36,-1,-1,-1,-1,-1,-1,-1,-1,-1,-1,-1,-1,-1,-1,-1,-1],"split_conditions":[-1.72E0,-5.359E0,1.936769E0,2.234954E0,-4.1010127E0,1.4954324E0,-4E-2,1.127849E0,-2.0431876E0,1.3794272E0,1.4574336E0,3.9E0,-1.054E0,1.3767663E0,1.435592E0,2E-2,1.399E0,-2.1E-1,1.6458E1,1.19E0,1.9482837E0,-1.03825316E-1,-4.603658E0,5.0429983E0,3.9266393E-1,-4.0050583E0,1.8222344E-1,-2.7362132E0,6.952011E-1,-4.413132E-1,4.3636036E0,3.855019E0,7.256852E-1,2.8961723E0,-4.8367798E-1,1.9713104E0,-1.4205709E0],"split_indices":[1,6,8,0,0,8,1,0,0,8,0,3,9,8,7,2,5,1,6,2,0,0,0,0,0,0,0,0,0,0,0,0,0,0,0,0,0],"split_type":[0,0,0,0,0,0,0,0,0,0,0,0,0,0,0,0,0,0,0,0,0,0,0,0,0,0,0,0,0,0,0,0,0,0,0,0,0],"sum_hessian":[2.15E2,7E0,2.08E2,3E0,4E0,1.44E2,6.4E1,2E0,1E0,1.25E2,1.9E1,2.9E1,3.5E1,1.17E2,8E0,6E0,1.3E1,1.7E1,1.2E1,8E0,2.7E1,1.15E2,2E0,3E0,5E0,5E0,1E0,5E0,8E0,1.4E1,3E0,1E1,2E0,7E0,1E0,5E0,2.2E1],"tree_param":{"num_deleted":"0","num_feature":"10","num_nodes":"37","size_leaf_vector":"1"}},{"base_weights":[6.084268E-3,6.4521813E-1,-2.3814577E-1,4.589546E0,4.2990428E-1,-5.026996E0,-1.438574E-1,-8.4119365E-2,1.6751449E0,-3.4292016E0,-3.405225E-2,-3.9449486E-1,2.9605715E0,-2.212415E-1,3.3865151E0,-8.24645E-1,-4.8873577E0,-3.457764E-1,6.418512E-1,3.8359442E-1,-9.528871E-1,5.1918066E-1,3.5979748E0,-1.8521338E0,9.0122694E-1,5.082578E0,1.6897205E0,-5.858374E-1,6.304571E-1,1.0382384E0,-1.8267366E0],"categories":[],"categories_nodes":[],"categories_segments":[],"categories_sizes":[],"default_left":[0,0,0,0,0,0,0,0,0,0,0,0,0,0,0,0,0,0,0,0,0,0,0,0,0,0,0,0,0,0,0],"id":8,"left_children":[1,3,5,-1,7,-1,9,11,13,15,17,19,21,23,25,-1,-1,27,29,-1,-1,-1,-1,-1,-1,-1,-1,-1,-1,-1,-1],"loss_changes":[3.3874397E1,4.8932846E1,7.0115776E1,0E0,3.7281647E1,0E0,5.5764496E1,4.0832157E1,5.5953014E1,1.4901794E1,3.203398E1,1.7315897E1,4.3154335E0,1.8154327E1,1.7244972E1,0E0,0E0,2.4741884E1,4.8857502E1,0E0,0E0,0E0,0E0,0E0,0E0,0E0,0E0,0E0,0E0,0E0,0E0],"parents":[2147483647,0,0,1,1,2,2,4,4,6,6,7,7,8,8,9,9,10,10,11,11,12,12,13,13,14,14,17,17,18,18],"right_children":[2,4,6,-1,8,-1,10,12,14,16,18,20,22,24,26,-1,-1,28,30,-1,-1,-1,-1,-1,-1,-1,-1,-1,-1,-1,-1],"split_conditions":[1.5E0,-2.995E1,-2.2501E1,4.589546E0,1.9819E1,-5.026996E0,1.8E0,8.2E0,1.2621561E0,-2E-2,2.0559E1,-3.6E-1,-2.2E-1,1.1475828E0,7E-1,-8.24645E-1,-4.8873577E0,2.3710485E0,2.2621973E0,3.8359442E-1,-9.528871E-1,5.1918066E-1,3.5979748E0,-1.8521338E0,9.0122694E-1,5.082578E0,1.6897205E0,-5.858374E-1,6.304571E-1,1.0382384E0,-1.8267366E0],"split_indices":[3,9,5,0,9,0,3,4,8,2,5,1,1,0,4,0,0,8,8,0,0,0,0,0,0,0,0,0,0,0,0],"split_type":[0,0,0,0,0,0,0,0,0,0,0,0,0,0,0,0,0,0,0,0,0,0,0,0,0,0,0,0,0,0,0],"sum_hessian":[2.15E2,5.9E1,1.56E2,2E0,5.7E1,2E0,1.54E2,4.1E1,1.6E1,4E0,1.5E2,3.8E1,3E0,8E0,8E0,2E0,2E0,1.03E2,4.7E1,1.6E1,2.2E1,1E0,2E0,3E0,5E0,3E0,5E0,8.3E1,2E1,4.1E1,6E0],"tree_param":{"num_deleted":"0","num_feature":"10","num_nodes":"31","size_leaf_vector":"1"}},{"base_weights":[1.150891E-2,-4.709529E-1,2.1781489E-1,6.1274064E-1,-6.793106E-1,1.0442041E0,-1.6194226E-1,-6.718331E-1,9.739607E-1,-1.3195796E0,-2.7545467E-1,1.3479652E0,-4.2075643E-1,1.0103936E0,-4.8497579E-1,-1.7830002E-1,-8.2444966E-1,4.3508545E-1,1.3160439E0,-3.5027695E-1,-3.206717E0,9.165507E-1,-5.050072E-1,9.629797E-1,3.3673866E0,6.701442E-1,-1.4295058E0,1.5560062E0,-7.931764E-1,-7.485297E-1,9.909703E-1,3.3968842E-1,1.4727106E0,-1.3576393E0,2.8816816E-1,-3.4624722E0,-8.3109295E-1,1.1864636E0,-2.1150696E-1,-7.0880276E-1,6.5373087E-1,1.2979178E0,-3.284263E-1,1.5995543E0,4.5987005E0,9.227922E-1,1.907815E-1,-1.613059E0,-3.4264624E-1,2.173635E0,-3.985703E-2,-1.7656183E0,-2.4356437E-1,-4.1789346E0,-5.355863E-1,1.7900969E0,4.8848048E-2],"categories":[],"categories_nodes":[],"categories_segments":[],"categories_sizes":[],"default_left":[0,0,0,0,0,0,0,0,0,0,0,0,0,0,0,0,0,0,0,0,0,0,0,0,0,0,0,0,0,0,0,0,0,0,0,0,0,0,0,0,0,0,0,0,0,0,0,0,0,0,0,0,0,0,0,0,0],"id":9,"left_children":[1,3,5,7,9,11,13,15,17,19,21,23,25,27,29,-1,-1,-1,31,33,35,37,39,41,43,45,47,49,51,53,55,-1,-1,-1,-1,-1,-1,-1,-1,-1,-1,-1,-1,-1,-1,-1,-1,-1,-1,-1,-1,-1,-1,-1,-1,-1,-1],"loss_changes":[2.1599556E1,1.5093645E1,4.787966E1,5.7615123E0,1.3842274E1,2.1936337E1,4.024866E1,6.893706E-2,1.0689583E0,3.7254547E1,1.0035727E1,2.781189E1,1.0869576E1,2.3874977E1,3.3025623E1,0E0,0E0,0E0,2.4642658E-1,1.0049106E1,1.3324738E0,2.0875592E0,7.5482855E0,1.5574905E1,5.642685E0,4.1836262E-1,4.2521763E-1,1.7849693E1,2.7566612E0,4.9578903E1,9.681542E0,0E0,0E0,0E0,0E0,0E0,0E0,0E0,0E0,0E0,0E0,0E0,0E0,0E0,0E0,0E0,0E0,0E0,0E0,0E0,0E0,0E0,0E0,0E0,0E0,0E0,0E0],"parents":[2147483647,0,0,1,1,2,2,3,3,4,4,5,5,6,6,7,7,8,8,9,9,10,10,11,11,12,12,13,13,14,14,18,18,19,19,20,20,21,21,22,22,23,23,24,24,25,25,26,26,27,27,28,28,29,29,30,30],"right_children":[2,4,6,8,10,12,14,16,18,20,22,24,26,28,30,-1,-1,-1,32,34,36,38,40,42,44,46,48,50,52,54,56,-1,-1,-1,-1,-1,-1,-1,-1,-1,-1,-1,-1,-1,-1,-1,-1,-1,-1,-1,-1,-1,-1,-1,-1,-1,-1],"split_conditions":[1.399E0,-1.9E0,1.0743E1,-1.37E0,1.1437931E0,1.9482837E0,2E0,1.2283461E0,-1.09E0,1.0067886E0,-7.492E0,1.3312E1,7E-2,2.2E-1,7.1E0,-1.7830002E-1,-8.2444966E-1,4.3508545E-1,-9.1E-1,-4.59E-1,2.2796E1,2.6E0,4E0,1.0321E1,5.51E-1,2.3371093E0,2.4476464E0,2.2218E1,2.6E-1,-2.2592E1,2.1253397E0,3.3968842E-1,1.4727106E0,-1.3576393E0,2.8816816E-1,-3.4624722E0,-8.3109295E-1,1.1864636E0,-2.1150696E-1,-7.0880276E-1,6.5373087E-1,1.2979178E0,-3.284263E-1,1.5995543E0,4.5987005E0,9.227922E-1,1.907815E-1,-1.613059E0,-3.4264624E-1,2.173635E0,-3.985703E-2,-1.7656183E0,-2.4356437E-1,-4.1789346E0,-5.355863E-1,1.7900969E0,4.8848048E-2],"split_indices":[6,3,6,2,0,7,4,0,1,0,9,9,2,1,4,0,0,0,2,5,9,4,4,5,5,0,0,5,2,9,0,0,0,0,0,0,0,0,0,0,0,0,0,0,0,0,0,0,0,0,0,0,0,0,0,0,0],"split_type":[0,0,0,0,0,0,0,0,0,0,0,0,0,0,0,0,0,0,0,0,0,0,0,0,0,0,0,0,0,0,0,0,0,0,0,0,0,0,0,0,0,0,0,0,0,0,0,0,0,0,0,0,0,0,0,0,0],"sum_hessian":[2.15E2,6.4E1,1.51E2,1E1,5.4E1,4.7E1,1.04E2,2E0,8E0,2E1,3.4E1,3.9E1,8E0,2.2E1,8.2E1,1E0,1E0,4E0,4E0,1.4E1,6E0,5E0,2.9E1,3.4E1,5E0,4E0,4E0,1.7E1,5E0,7E1,1.2E1,1E0,3E0,5E0,9E0,5E0,1E0,4E0,1E0,2.5E1,4E0,2.7E1,7E0,3E0,2E0,2E0,2E0,3E0,1E0,1.2E1,5E0,1E0,4E0,3E0,6.7E1,6E0,6E0],"tree_param":{"num_deleted":"0","num_feature":"10","num_nodes":"57","size_leaf_vector":"1"}},{"base_weights":[1.6491232E-3,-7.222961E-2,9.302726E-1,2.7587468E-2,-7.764453E-1,2.3329936E-1,2.414954E0,-1.229306E-1,7.69557E-1,-2.5244224E-1,-2.392048E0,1.7068454E0,-5.491805E-2,-9.228269E-2,-2.3090868E0,1.761054E0,-3.3867702E-1,4.8520958E-1,-5.313402E-1,-3.2629958E-1,3.339997E-1,3.8325667E-1,-1.9295269E-1,-8.226205E-1,2.4213345E0,-6.347856E-1,1.8984214E0,-5.022339E-1,1.1069897E0,3.6284074E-1,-6.9758654E-1,1.2466407E-1,-5.3361785E-1,5.2964326E-2,3.8851744E-1],"categories":[],"categories_nodes":[],"categories_segments":[],"categories_sizes":[],"default_left":[0,0,0,0,0,0,0,0,0,0,0,0,0,0,0,0,0,0,0,0,0,0,0,0,0,0,0,0,0,0,0,0,0,0,0],"id":10,"left_children":[1,3,5,7,9,11,-1,13,15,17,-1,-1,19,21,-1,23,25,27,29,31,33,-1,-1,-1,-1,-1,-1,-1,-1,-1,-1,-1,-1,-1,-1],"loss_changes":[1.4894567E1,1.4157751E1,1.5966639E1,1.9868399E1,2.0534222E1,5.2066755E0,0E0,9.679064E0,3.3574974E1,4.372864E0,0E0,0E0,1.2699028E0,7.1093135E0,0E0,2.930302E1,1.1128815E1,4.2458525E0,2.4862747E0,7.2506344E-1,5.16147E-2,0E0,0E0,0E0,0E0,0E0,0E0,0E0,0E0,0E0,0E0,0E0,0E0,0E0,0E0],"parents":[2147483647,0,0,1,1,2,2,3,3,4,4,5,5,7,7,8,8,9,9,12,12,13,13,15,15,16,16,17,17,18,18,19,19,20,20],"right_children":[2,4,6,8,10,12,-1,14,16,18,-1,-1,20,22,-1,24,26,28,30,32,34,-1,-1,-1,-1,-1,-1,-1,-1,-1,-1,-1,-1,-1,-1],"split_conditions":[4.812E1,3.0507E1,1E-2,2.6147E1,4.4665E1,-8.4109E1,2.414954E0,2.5945E1,2.8546E1,3.336E0,-2.392048E0,1.7068454E0,1.2116834E0,-4.274E0,-2.3090868E0,1.1152195E0,9.9384E1,-1.32E0,-6.5E-1,1.1610953E0,-1.37E0,3.8325667E-1,-1.9295269E-1,-8.226205E-1,2.4213345E0,-6.347856E-1,1.8984214E0,-5.022339E-1,1.1069897E0,3.6284074E-1,-6.9758654E-1,1.2466407E-1,-5.3361785E-1,5.2964326E-2,3.8851744E-1],"split_indices":[9,9,1,6,6,6,0,6,5,5,0,0,7,5,0,0,5,1,1,8,1,0,0,0,0,0,0,0,0,0,0,0,0,0,0],"split_type":[0,0,0,0,0,0,0,0,0,0,0,0,0,0,0,0,0,0,0,0,0,0,0,0,0,0,0,0,0,0,0,0,0,0,0],"sum_hessian":[2.15E2,2E2,1.5E1,1.76E2,2.4E1,1.1E1,4E0,1.47E2,2.9E1,1.9E1,5E0,1E0,1E1,1.46E2,1E0,1.5E1,1.4E1,5E0,1.4E1,6E0,4E0,2.5E1,1.21E2,3E0,1.2E1,1.3E1,1E0,2E0,3E0,2E0,1.2E1,2E0,4E0,1E0,3E0],"tree_param":{"num_deleted":"0","num_feature":"10","num_nodes":"35","size_leaf_vector":"1"}},{"base_weights":[1.2897497E-2,-1.9503827E-1,2.3061422E-1,-8.8019736E-2,-1.1590232E0,1.1003709E0,1.5433935E-2,-1.7204253E-1,1.0634353E0,-1.423935E0,1.8720385E-2,1.4472634E0,-2.971376E-1,-9.29997E-1,1.8144973E-1,-1.629373E-2,-7.196196E-1,1.7597853E0,-1.5523325E0,-9.1185965E-2,-1.7902654E0,4.336077E-1,-4.0052712E-1,5.99627E-1,2.3246508E0,1.22641504E-1,-9.93127E-1,-1.6887966E-1,-3.4074283E0,3.1263053E-1,-1.1173708E0,-1.16984434E-1,8.403639E-1,-1.2865028E0,-8.640721E-2,-8.809204E-3,-1.2296974E-1,-1.946446E0,-4.2159092E-1,2.3546662E0,-1.3221607E-1,7.8302926E-1,3.091018E0,-9.27722E-3,1.7304015E-1,-7.074476E-1,3.961682E-1,-1.6077476E-2,7.555853E-1,-2.1252164E-1,-2.2496626E0],"categories":[],"categories_nodes":[],"categories_segments":[],"categories_sizes":[],"default_left":[0,0,0,0,0,0,0,0,0,0,0,0,0,0,0,0,0,0,0,0,0,0,0,0,0,0,0,0,0,0,0,0,0,0,0,0,0,0,0,0,0,0,0,0,0,0,0,0,0,0,0],"id":11,"left_children":[1,3,5,7,9,11,13,15,17,19,21,23,25,27,29,31,33,-1,-1,35,37,-1,-1,39,41,43,-1,45,-1,47,49,-1,-1,-1,-1,-1,-1,-1,-1,-1,-1,-1,-1,-1,-1,-1,-1,-1,-1,-1,-1],"loss_changes":[9.823891E0,1.1336743E1,1.9810234E1,9.945638E0,3.4726896E0,1.0622021E1,1.3659518E1,8.082939E0,1.5484278E1,4.211975E0,6.9582385E-1,1.121983E1,1.5913124E0,2.39018E1,1.2949421E1,6.5603857E0,7.4132166E0,0E0,0E0,5.4536797E-3,6.520386E-1,0E0,0E0,1.3177681E1,6.992485E0,2.9837057E-2,0E0,3.6308641E0,0E0,9.920532E0,6.6691494E0,0E0,0E0,0E0,0E0,0E0,0E0,0E0,0E0,0E0,0E0,0E0,0E0,0E0,0E0,0E0,0E0,0E0,0E0,0E0,0E0],"parents":[2147483647,0,0,1,1,2,2,3,3,4,4,5,5,6,6,7,7,8,8,9,9,10,10,11,11,12,12,13,13,14,14,15,15,16,16,19,19,20,20,23,23,24,24,25,25,27,27,29,29,30,30],"right_children":[2,4,6,8,10,12,14,16,18,20,22,24,26,28,30,32,34,-1,-1,36,38,-1,-1,40,42,44,-1,46,-1,48,50,-1,-1,-1,-1,-1,-1,-1,-1,-1,-1,-1,-1,-1,-1,-1,-1,-1,-1,-1,-1],"split_conditions":[1.0567E1,7.944E0,1.3321E1,4.981E0,2.9E-1,2.3225513E0,1.6514E1,5.1E0,1.6458E1,-5.8E-1,9.7541183E-1,1.4362367E0,-2.3E-1,2.0533E1,6.9E-1,4.2E0,3.9E-1,1.7597853E0,-1.5523325E0,1.1610953E0,3.1776E1,4.336077E-1,-4.0052712E-1,1.0346864E0,-4.274E0,2.4180648E0,-9.93127E-1,0E0,-3.4074283E0,3E-2,-2.988E0,-1.16984434E-1,8.403639E-1,-1.2865028E0,-8.640721E-2,-8.809204E-3,-1.2296974E-1,-1.946446E0,-4.2159092E-1,2.3546662E0,-1.3221607E-1,7.8302926E-1,3.091018E0,-9.27722E-3,1.7304015E-1,-7.074476E-1,3.961682E-1,-1.6077476E-2,7.555853E-1,-2.1252164E-1,-2.2496626E0],"split_indices":[5,5,5,5,1,0,5,4,6,1,0,8,1,9,1,4,2,0,0,0,9,0,0,0,9,0,0,2,0,1,6,0,0,0,0,0,0,0,0,0,0,0,0,0,0,0,0,0,0,0,0],"split_type":[0,0,0,0,0,0,0,0,0,0,0,0,0,0,0,0,0,0,0,0,0,0,0,0,0,0,0,0,0,0,0,0,0,0,0,0,0,0,0,0,0,0,0,0,0,0,0,0,0,0,0],"sum_hessian":[2.15E2,1.1E2,1.05E2,1E2,1E1,2E1,8.5E1,9.4E1,6E0,8E0,2E0,1.6E1,4E0,1.2E1,7.3E1,7.4E1,2E1,5E0,1E0,2E0,6E0,1E0,1E0,9E0,7E0,3E0,1E0,1E1,2E0,6.7E1,6E0,6.7E1,7E0,1E1,1E1,1E0,1E0,5E0,1E0,2E0,7E0,3E0,4E0,1E0,2E0,5E0,5E0,3.9E1,2.8E1,4E0,2E0],"tree_param":{"num_deleted":"0","num_feature":"10","num_nodes":"51","size_leaf_vector":"1"}},{"base_weights":[-1.4597383E-2,1.425552E-3,-1.7347642E0,2.0251267E-1,-1.0116734E-1,3.6399152E-2,1.546385E0,-1.0002927E0,-5.4415196E-2,-1.9526267E-1,2.6047096E-1,-6.760712E-3,1.7706574E0,-1.3753953E0,-3.7261683E-1,2.1680328E-1,-1.7261063E-1,2.8857583E-2,-9.004957E-1,8.707813E-1,-6.884189E-2,-7.3432887E-1,3.3651006E-1,-2.6339665E-1,3.7723598E-1],"categories":[],"categories_nodes":[],"categories_segments":[],"categories_sizes":[],"default_left":[0,0,0,0,0,0,0,0,0,0,0,0,0,0,0,0,0,0,0,0,0,0,0,0,0],"id":12,"left_children":[1,3,-1,5,7,9,11,13,15,17,19,-1,-1,-1,-1,21,23,-1,-1,-1,-1,-1,-1,-1,-1],"loss_changes":[5.973224E0,4.456975E0,0E0,1.6224064E1,5.9461756E0,3.4774985E0,2.8162308E0,1.118125E0,4.4287596E0,5.2505836E0,6.901389E0,0E0,0E0,0E0,0E0,5.0251236E0,4.890391E0,0E0,0E0,0E0,0E0,0E0,0E0,0E0,0E0],"parents":[2147483647,0,0,1,1,3,3,4,4,5,5,6,6,7,7,8,8,9,9,10,10,15,15,16,16],"right_children":[2,4,-1,6,8,10,12,14,16,18,20,-1,-1,-1,-1,22,24,-1,-1,-1,-1,-1,-1,-1,-1],"split_conditions":[9.9384E1,1.1619661E0,-1.7347642E0,1.1652285E0,1.1746442E0,3.143E0,1.078548E0,1.829E1,-2.3E-1,1.691E0,4.958E0,-6.760712E-3,1.7706574E0,-1.3753953E0,-3.7261683E-1,-2.74E0,4.1602E1,2.8857583E-2,-9.004957E-1,8.707813E-1,-6.884189E-2,-7.3432887E-1,3.3651006E-1,-2.6339665E-1,3.7723598E-1],"split_indices":[6,7,0,8,7,6,0,5,1,6,6,0,0,0,0,1,6,0,0,0,0,0,0,0,0],"split_type":[0,0,0,0,0,0,0,0,0,0,0,0,0,0,0,0,0,0,0,0,0,0,0,0,0],"sum_hessian":[2.15E2,2.14E2,1E0,7.2E1,1.42E2,6.5E1,7E0,6E0,1.36E2,3.2E1,3.3E1,1E0,6E0,3E0,3E0,4.1E1,9.5E1,2.5E1,7E0,1.1E1,2.2E1,4E0,3.7E1,8.2E1,1.3E1],"tree_param":{"num_deleted":"0","num_feature":"10","num_nodes":"25","size_leaf_vector":"1"}},{"base_weights":[-9.687675E-3,-2.3535724E-1,5.4405976E-2,-1.5217422E-1,-1.4290446E0,-3.2989487E-1,1.0535005E-1,-3.369509E-2,-7.0948815E-1,1.21585965E-1,-7.112506E-1,-3.845927E-1,1.5081313E-1,-2.9422146E-1,1.8053989E-1,1.09619856E-1,-1.0024608E0,-1.3070445E-1,4.0201727E-1,-1.2046102E0,-2.5581512E-1,3.0598664E-1,-7.2662646E-1,1.9201972E-1,-3.4148288E-1,1.5000878E-1,-6.656065E-1,-2.9423306E-2,7.470123E-1,3.0390465E-1,-1.3447487E-1,-1.4541924E-1,-1.1427853E0,-2.200157E-1,2.8612055E-2,1.3169683E-2,6.5352577E-1,-5.0290304E-1,-1.5014473E0,-2.9127143E-2,-5.450234E-1,1.4876455E-1,4.624375E-1,-1.0245496E0,-9.558517E-2,3.587673E-2,3.574965E-1,2.3028164E-1,-1.4021412E0],"categories":[],"categories_nodes":[],"categories_segments":[],"categories_sizes":[],"default_left":[0,0,0,0,0,0,0,0,0,0,0,0,0,0,0,0,0,0,0,0,0,0,0,0,0,0,0,0,0,0,0,0,0,0,0,0,0,0,0,0,0,0,0,0,0,0,0,0,0],"id":13,"left_children":[1,3,5,7,-1,9,11,13,15,17,19,21,23,25,27,29,31,33,35,37,39,41,43,45,47,-1,-1,-1,-1,-1,-1,-1,-1,-1,-1,-1,-1,-1,-1,-1,-1,-1,-1,-1,-1,-1,-1,-1,-1],"loss_changes":[3.1388357E0,4.5328617E0,3.3411655E0,3.0060453E0,0E0,3.535871E0,3.3968105E0,2.2309961E0,2.0386276E0,7.627598E-1,2.1488671E0,3.2971635E0,2.8635223E0,3.0746512E0,2.6457992E0,1.8483353E-1,5.425186E-1,9.3581684E-2,4.7371864E-1,2.6633644E-1,4.3730372E-1,4.808134E-2,1.5828834E0,3.2905097E0,7.0055203E0,0E0,0E0,0E0,0E0,0E0,0E0,0E0,0E0,0E0,0E0,0E0,0E0,0E0,0E0,0E0,0E0,0E0,0E0,0E0,0E0,0E0,0E0,0E0,0E0],"parents":[2147483647,0,0,1,1,2,2,3,3,5,5,6,6,7,7,8,8,9,9,10,10,11,11,12,12,13,13,14,14,15,15,16,16,17,17,18,18,19,19,20,20,21,21,22,22,23,23,24,24],"right_children":[2,4,6,8,-1,10,12,14,16,18,20,22,24,26,28,30,32,34,36,38,40,42,44,46,48,-1,-1,-1,-1,-1,-1,-1,-1,-1,-1,-1,-1,-1,-1,-1,-1,-1,-1,-1,-1,-1,-1,-1,-1],"split_conditions":[-3.7E-1,-4.1E-1,4E-1,1.6458E1,-1.4290446E0,-2.2E-1,5E-1,2.3E0,-1.18E0,-1.9E0,0E0,1.5E0,8.6E0,-1.7E0,-2.3E-1,1.0647079E0,1.2807505E0,1.8970091E0,-2.895E0,2.2E0,8.7E-1,1.2902924E0,7.944E0,1.3081095E0,1.3237E1,1.5000878E-1,-6.656065E-1,-2.9423306E-2,7.470123E-1,3.0390465E-1,-1.3447487E-1,-1.4541924E-1,-1.1427853E0,-2.200157E-1,2.8612055E-2,1.3169683E-2,6.5352577E-1,-5.0290304E-1,-1.5014473E0,-2.9127143E-2,-5.450234E-1,1.4876455E-1,4.624375E-1,-1.0245496E0,-9.558517E-2,3.587673E-2,3.574965E-1,2.3028164E-1,-1.4021412E0],"split_indices":[2,2,3,6,0,1,4,3,2,3,1,3,3,3,1,0,0,7,5,4,1,0,9,0,6,0,0,0,0,0,0,0,0,0,0,0,0,0,0,0,0,0,0,0,0,0,0,0,0],"split_type":[0,0,0,0,0,0,0,0,0,0,0,0,0,0,0,0,0,0,0,0,0,0,0,0,0,0,0,0,0,0,0,0,0,0,0,0,0,0,0,0,0,0,0,0,0,0,0,0,0],"sum_hessian":[2.15E2,4.7E1,1.68E2,4.5E1,2E0,1.9E1,1.49E2,3.8E1,7E0,9E0,1E1,1.2E1,1.37E2,1.7E1,2.1E1,2E0,5E0,5E0,4E0,4E0,6E0,4E0,8E0,1.27E2,1E1,8E0,9E0,1.6E1,5E0,1E0,1E0,1E0,4E0,3E0,2E0,2E0,2E0,2E0,2E0,4E0,2E0,3E0,1E0,5E0,3E0,6.6E1,6.1E1,7E0,3E0],"tree_param":{"num_deleted":"0","num_feature":"10","num_nodes":"49","size_leaf_vector":"1"}},{"base_weights":[-2.6650256E-2,5.377274E-1,-4.262E-2,8.2221895E-1,-1.7503815E-2,8.553153E-2,-1.264646E-1,1.5014374E-1,9.9286276E-1,3.8527604E-2,-6.978332E-2,-1.2101097E-2,4.2070112E-1,-6.342725E-2,-7.297067E-1,-5.7763066E-2,5.545275E-1,7.173752E-1,-1.889366E-1,4.9924597E-2,-2.1651721E-1,-2.7095762E-1,-1.315764E0,4.4511497E-2,-2.6003775E-1,8.9868873E-1,2.2190489E-2,1.848207E-1,1.0258691E0,1.7962617E-1,-5.127652E-1,-1.7248774E-2,5.5713093E-1,3.8341305E-1,-3.2332942E-1,-4.7671476E-1,5.1478203E-2,-3.2464707E-1,-1.4798813E0],"categories":[],"categories_nodes":[],"categories_segments":[],"categories_sizes":[],"default_left":[0,0,0,0,0,0,0,0,0,0,0,0,0,0,0,0,0,0,0,0,0,0,0,0,0,0,0,0,0,0,0,0,0,0,0,0,0,0,0],"id":14,"left_children":[1,3,5,7,9,11,13,-1,-1,-1,-1,15,17,19,21,23,25,27,29,31,33,35,37,-1,-1,-1,-1,-1,-1,-1,-1,-1,-1,-1,-1,-1,-1,-1,-1],"loss_changes":[1.9647673E0,9.7019064E-1,2.2783818E0,2.9823995E-1,1.1789028E-2,2.75795E0,4.8132133E0,0E0,0E0,0E0,0E0,1.7347065E0,3.577233E0,2.0427802E0,2.8538547E0,1.2963583E0,8.868977E-1,1.9340601E0,9.308956E-1,2.3318202E0,3.3273613E0,5.5954045E-1,3.148136E-1,0E0,0E0,0E0,0E0,0E0,0E0,0E0,0E0,0E0,0E0,0E0,0E0,0E0,0E0,0E0,0E0],"parents":[2147483647,0,0,1,1,2,2,3,3,4,4,5,5,6,6,11,11,12,12,13,13,14,14,15,15,16,16,17,17,18,18,19,19,20,20,21,21,22,22],"right_children":[2,4,6,8,10,12,14,-1,-1,-1,-1,16,18,20,22,24,26,28,30,32,34,36,38,-1,-1,-1,-1,-1,-1,-1,-1,-1,-1,-1,-1,-1,-1,-1,-1],"split_conditions":[-2.995E1,2.5E0,1.1868114E0,-1.31E0,1.2004002E0,2.31E1,3.994E1,1.5014374E-1,9.9286276E-1,3.8527604E-2,-6.978332E-2,1E1,4.7E-1,1.3312E1,2E-2,1.0190697E0,1.0013033E0,3.2E0,1.1152195E0,1.2369E1,1.9E0,4.8119E1,1.122363E0,4.4511497E-2,-2.6003775E-1,8.9868873E-1,2.2190489E-2,1.848207E-1,1.0258691E0,1.7962617E-1,-5.127652E-1,-1.7248774E-2,5.5713093E-1,3.8341305E-1,-3.2332942E-1,-4.7671476E-1,5.1478203E-2,-3.2464707E-1,-1.4798813E0],"split_indices":[9,3,8,1,0,6,6,0,0,0,0,4,1,5,2,7,0,4,0,5,3,6,0,0,0,0,0,0,0,0,0,0,0,0,0,0,0,0,0],"split_type":[0,0,0,0,0,0,0,0,0,0,0,0,0,0,0,0,0,0,0,0,0,0,0,0,0,0,0,0,0,0,0,0,0,0,0,0,0,0,0],"sum_hessian":[2.15E2,5E0,2.1E2,3E0,2E0,8.3E1,1.27E2,1E0,2E0,1E0,1E0,6.5E1,1.8E1,1.16E2,1.1E1,6.1E1,4E0,1.2E1,6E0,6.7E1,4.9E1,7E0,4E0,4.1E1,2E1,2E0,2E0,5E0,7E0,3E0,3E0,6E1,7E0,7E0,4.2E1,4E0,3E0,1E0,3E0],"tree_param":{"num_deleted":"0","num_feature":"10","num_nodes":"39","size_leaf_vector":"1"}},{"base_weights":[5.068704E-3,-1.5079849E-2,3.2162535E-1,7.6769483E-3,-4.159652E-1,-8.637614E-2,5.136678E-1,1.20043084E-1,-6.4066775E-2,-1.5279518E-1,-6.992102E-1,-4.084672E-1,2.6117364E-1,4.95007E-2,6.3778687E-1,5.4356437E-2,4.6500883E-1,-4.9276718E-1,-1.1289469E-2,-2.1512039E-1,1.0557806E-1,-8.42702E-1,-5.7621595E-2,1.3959324E-1,-6.034219E-2,4.19772E-1,2.8446973E-3,1.8680623E-1,8.1513125E-1,-2.266389E-2,-6.305318E-1,2.031036E-1,-8.99744E-2,-2.7666867E-1,-5.8015898E-2],"categories":[],"categories_nodes":[],"categories_segments":[],"categories_sizes":[],"default_left":[0,0,0,0,0,0,0,0,0,0,0,0,0,0,0,0,0,0,0,0,0,0,0,0,0,0,0,0,0,0,0,0,0,0,0],"id":15,"left_children":[1,3,5,7,9,11,13,15,17,19,21,-1,-1,23,-1,25,27,29,31,33,-1,-1,-1,-1,-1,-1,-1,-1,-1,-1,-1,-1,-1,-1,-1],"loss_changes":[1.3855977E0,1.8683411E0,1.0672385E0,1.5721942E0,7.0460165E-1,6.6786724E-1,4.8006392E-1,1.691663E0,2.681849E0,1.3652958E-1,4.0275216E-1,0E0,0E0,3.8903944E-2,0E0,1.2180871E0,1.0065684E0,8.211043E-1,1.8221798E0,3.861904E-2,0E0,0E0,0E0,0E0,0E0,0E0,0E0,0E0,0E0,0E0,0E0,0E0,0E0,0E0,0E0],"parents":[2147483647,0,0,1,1,2,2,3,3,4,4,5,5,6,6,7,7,8,8,9,9,10,10,13,13,15,15,16,16,17,17,18,18,19,19],"right_children":[2,4,6,8,10,12,14,16,18,20,22,-1,-1,24,-1,26,28,30,32,34,-1,-1,-1,-1,-1,-1,-1,-1,-1,-1,-1,-1,-1,-1,-1],"split_conditions":[2.4761214E0,2.4364052E0,2.3E0,2.5E0,1.2209E1,2.5647733E0,-3.271E0,2.1E0,3E0,2.4604125E0,2.4734585E0,-4.084672E-1,2.6117364E-1,2.5303907E0,6.3778687E-1,-2.2951E1,1.200589E0,-5.6E-1,-2E-2,-1E-2,1.0557806E-1,-8.42702E-1,-5.7621595E-2,1.3959324E-1,-6.034219E-2,4.19772E-1,2.8446973E-3,1.8680623E-1,8.1513125E-1,-2.266389E-2,-6.305318E-1,2.031036E-1,-8.99744E-2,-2.7666867E-1,-5.8015898E-2],"split_indices":[0,0,3,4,9,0,5,4,4,0,0,0,0,0,0,6,0,2,1,2,0,0,0,0,0,0,0,0,0,0,0,0,0,0,0],"split_type":[0,0,0,0,0,0,0,0,0,0,0,0,0,0,0,0,0,0,0,0,0,0,0,0,0,0,0,0,0,0,0,0,0,0,0],"sum_hessian":[2.15E2,2.03E2,1.2E1,1.93E2,1E1,4E0,8E0,7.5E1,1.18E2,6E0,4E0,2E0,2E0,2E0,6E0,6.4E1,1.1E1,1.2E1,1.06E2,5E0,1E0,3E0,1E0,1E0,1E0,7E0,5.7E1,7E0,4E0,3E0,9E0,2.8E1,7.8E1,3E0,2E0],"tree_param":{"num_deleted":"0","num_feature":"10","num_nodes":"35","size_leaf_vector":"1"}},{"base_weights":[1.4574343E-3,-3.6054667E-2,1.9029723E-1,-1.5615942E-2,-2.6053548E-1,9.280543E-2,5.186678E-1,-3.691142E-2,4.7498235E-1,6.26233E-2,-4.293772E-1,2.3819065E-1,-1.6584225E-1,8.145104E-1,1.6697703E-2,-2.550137E-1,-1.5963156E-2,1.3399822E-1,5.0781333E-1,-4.5013543E-2,9.515338E-2,-4.3276303E-2,-6.778984E-1,4.4901997E-1,2.5422445E-3,-3.467277E-1,1.1856584E-1,2.4895866E-1,1.1052253E0,3.8017984E-2,-1.8631574E-2,-2.3263838E-2,-5.5846953E-1,3.1066854E-2,-1.4397085E-1,1.0731143E-1,1.8260594E-2,-1.4730845E-1,1.8142617E-1,-8.339801E-1,-2.4049003E-1,5.100072E-1,1.3338073E-1,-2.7452588E-1,1.6193227E-1,-3.9617515E-1,-1.4540608E-1,-3.6950227E-2,1.6918242E-1],"categories":[],"categories_nodes":[],"categories_segments":[],"categories_sizes":[],"default_left":[0,0,0,0,0,0,0,0,0,0,0,0,0,0,0,0,0,0,0,0,0,0,0,0,0,0,0,0,0,0,0,0,0,0,0,0,0,0,0,0,0,0,0,0,0,0,0,0,0],"id":16,"left_children":[1,3,5,7,9,11,13,15,17,19,21,23,25,27,29,31,33,-1,-1,-1,35,37,39,41,43,45,47,-1,-1,-1,-1,-1,-1,-1,-1,-1,-1,-1,-1,-1,-1,-1,-1,-1,-1,-1,-1,-1,-1],"loss_changes":[1.5384995E0,8.236164E-1,1.0982338E0,1.7578883E0,8.4899664E-1,1.1307285E0,1.1661208E0,7.2880656E-1,3.8998127E-3,2.5793198E-2,9.229939E-1,9.382931E-1,6.092899E-1,5.333741E-1,3.9151195E-3,9.657524E-1,8.9659184E-1,0E0,0E0,0E0,1.4590397E-3,1.4326584E-1,1.9831991E-1,1.1804056E-1,4.8494762E-1,6.661713E-3,4.69321E-2,0E0,0E0,0E0,0E0,0E0,0E0,0E0,0E0,0E0,0E0,0E0,0E0,0E0,0E0,0E0,0E0,0E0,0E0,0E0,0E0,0E0,0E0],"parents":[2147483647,0,0,1,1,2,2,3,3,4,4,5,5,6,6,7,7,8,8,9,9,10,10,11,11,12,12,13,13,14,14,15,15,16,16,20,20,21,21,22,22,23,23,24,24,25,25,26,26],"right_children":[2,4,6,8,10,12,14,16,18,20,22,24,26,28,30,32,34,-1,-1,-1,36,38,40,42,44,46,48,-1,-1,-1,-1,-1,-1,-1,-1,-1,-1,-1,-1,-1,-1,-1,-1,-1,-1,-1,-1,-1,-1],"split_conditions":[6.8E0,5.4E0,2.3805E1,4.9E0,1.2016163E0,4.981E0,2.6398E1,9.358342E-1,8.927004E-1,9.7074187E-1,1.085E1,3.829E0,9E-2,-5.8E-1,1.4574336E0,2.109E0,2.3805E1,1.3399822E-1,5.0781333E-1,-4.5013543E-2,3.5E-1,5.6E0,3.5E-1,6.8E-1,4.736E0,2.2299378E0,7.5E-1,2.4895866E-1,1.1052253E0,3.8017984E-2,-1.8631574E-2,-2.3263838E-2,-5.5846953E-1,3.1066854E-2,-1.4397085E-1,1.0731143E-1,1.8260594E-2,-1.4730845E-1,1.8142617E-1,-8.339801E-1,-2.4049003E-1,5.100072E-1,1.3338073E-1,-2.7452588E-1,1.6193227E-1,-3.9617515E-1,-1.4540608E-1,-3.6950227E-2,1.6918242E-1],"split_indices":[3,3,5,3,0,9,6,8,0,0,6,5,1,2,0,6,9,0,0,0,1,3,2,1,5,8,1,0,0,0,0,0,0,0,0,0,0,0,0,0,0,0,0,0,0,0,0,0,0],"split_type":[0,0,0,0,0,0,0,0,0,0,0,0,0,0,0,0,0,0,0,0,0,0,0,0,0,0,0,0,0,0,0,0,0,0,0,0,0,0,0,0,0,0,0,0,0,0,0,0,0],"sum_hessian":[2.15E2,1.8E2,3.5E1,1.66E2,1.4E1,2.8E1,7E0,1.6E2,6E0,5E0,9E0,1.8E1,1E1,4E0,3E0,1.3E1,1.47E2,1E0,5E0,1E0,4E0,4E0,5E0,9E0,9E0,6E0,4E0,2E0,2E0,2E0,1E0,8E0,5E0,1.08E2,3.9E1,3E0,1E0,3E0,1E0,3E0,2E0,7E0,2E0,3E0,6E0,4E0,2E0,1E0,3E0],"tree_param":{"num_deleted":"0","num_feature":"10","num_nodes":"49","size_leaf_vector":"1"}},{"base_weights":[2.2333206E-3,2.3861412E-2,-1.7985724E-1,8.893733E-3,3.2943106E-1,-6.72834E-1,-7.176904E-2,3.285764E-2,-2.658187E-1,6.4212E-1,-4.7144126E-2,-9.366208E-1,5.426323E-2,-1.2880842E-1,1.8609065E-1,-7.395173E-3,1.5035209E-1,-5.79504E-1,7.984397E-2,9.60682E-1,1.0618472E-1,-1.0678649E-1,9.071266E-2,-1.9916525E-1,-5.8642123E-2,3.935921E-2,2.1854806E-1,4.669527E-1,-1.8620752E-2,1.2528501E-1,6.091181E-1,-3.357972E-1,-8.7041634E-1,5.350591E-1,-6.0195208E-2,1.6871274E-1,-4.435654E-3,-6.1657663E-2,-2.3305817E-1,-9.20476E-2,4.665319E-2],"categories":[],"categories_nodes":[],"categories_segments":[],"categories_sizes":[],"default_left":[0,0,0,0,0,0,0,0,0,0,0,0,0,0,0,0,0,0,0,0,0,0,0,0,0,0,0,0,0,0,0,0,0,0,0,0,0,0,0,0,0],"id":17,"left_children":[1,3,5,7,9,11,13,15,17,19,21,-1,-1,23,25,27,29,31,33,-1,35,-1,-1,37,39,-1,-1,-1,-1,-1,-1,-1,-1,-1,-1,-1,-1,-1,-1,-1,-1],"loss_changes":[8.533983E-1,8.809785E-1,1.1698196E0,1.2308767E0,1.0959802E0,8.268423E-1,3.1756043E-1,8.160123E-1,1.6777058E0,7.409644E-1,5.0958145E-2,0E0,0E0,6.966597E-2,7.869139E-3,6.911147E-1,4.223392E-1,2.6283312E-1,5.469402E-1,0E0,2.3141738E-2,0E0,0E0,1.9967288E-2,3.9922666E-2,0E0,0E0,0E0,0E0,0E0,0E0,0E0,0E0,0E0,0E0,0E0,0E0,0E0,0E0,0E0,0E0],"parents":[2147483647,0,0,1,1,2,2,3,3,4,4,5,5,6,6,7,7,8,8,9,9,10,10,13,13,14,14,15,15,16,16,17,17,18,18,20,20,23,23,24,24],"right_children":[2,4,6,8,10,12,14,16,18,20,22,-1,-1,24,26,28,30,32,34,-1,36,-1,-1,38,40,-1,-1,-1,-1,-1,-1,-1,-1,-1,-1,-1,-1,-1,-1,-1,-1],"split_conditions":[2.4364052E0,2.4209454E0,2.447168E0,2.288027E0,2.4476464E0,2.3397024E0,1.9819E1,2.4232E1,2.3465936E0,2.3465936E0,1.8196E1,-9.366208E-1,5.426323E-2,2.2E0,-3E-2,-2.85E0,2.3371093E0,2.5945E1,1.9327828E0,9.60682E-1,2.3918078E0,-1.0678649E-1,9.071266E-2,-2.738E0,2.5015006E0,3.935921E-2,2.1854806E-1,4.669527E-1,-1.8620752E-2,1.2528501E-1,6.091181E-1,-3.357972E-1,-8.7041634E-1,5.350591E-1,-6.0195208E-2,1.6871274E-1,-4.435654E-3,-6.1657663E-2,-2.3305817E-1,-9.20476E-2,4.665319E-2],"split_indices":[7,8,7,8,8,0,9,5,8,0,5,0,0,3,1,2,0,5,0,0,0,0,0,6,0,0,0,0,0,0,0,0,0,0,0,0,0,0,0,0,0],"split_type":[0,0,0,0,0,0,0,0,0,0,0,0,0,0,0,0,0,0,0,0,0,0,0,0,0,0,0,0,0,0,0,0,0,0,0,0,0,0,0,0,0],"sum_hessian":[2.15E2,1.93E2,2.2E1,1.85E2,8E0,3E0,1.9E1,1.71E2,1.4E1,4E0,4E0,2E0,1E0,1.6E1,3E0,1.28E2,4.3E1,7E0,7E0,2E0,2E0,3E0,1E0,7E0,9E0,1E0,2E0,2E0,1.26E2,4.2E1,1E0,5E0,2E0,1E0,6E0,1E0,1E0,2E0,5E0,7E0,2E0],"tree_param":{"num_deleted":"0","num_feature":"10","num_nodes":"41","size_leaf_vector":"1"}},{"base_weights":[2.7579672E-3,8.7622255E-2,-3.2693487E-2,-5.024315E-1,1.0512202E-1,-1.1488042E-1,9.428221E-3,6.381422E-2,2.7452895E-1,-1.341425E-1,1.473003E-1,2.5834253E-1,-2.338936E-2,9.5182754E-2,-3.3390385E-1,-2.3435988E-2,3.3746555E-1,-1.6650978E-1,2.7101966E-2,4.715183E-1,-1.3240723E-1,-5.0528045E-3,-4.1844624E-1,1.2751292E-1,-6.156386E-2,-4.462761E-1,-0E0,3.6167386E-1,5.479538E-2,-1.9360018E-1,-5.8421055E-3,1.0449463E-1,-2.734347E-2,6.1927944E-1,1.5489972E-2,2.9571928E-2,-2.53584E-1,-3.0236793E-1,1.638025E-2,-5.0662285E-1,-7.195818E-2],"categories":[],"categories_nodes":[],"categories_segments":[],"categories_sizes":[],"default_left":[0,0,0,0,0,0,0,0,0,0,0,0,0,0,0,0,0,0,0,0,0,0,0,0,0,0,0,0,0,0,0,0,0,0,0,0,0,0,0,0,0],"id":18,"left_children":[1,3,5,-1,7,9,11,13,15,17,-1,19,21,23,25,-1,27,29,31,33,35,37,39,-1,-1,-1,-1,-1,-1,-1,-1,-1,-1,-1,-1,-1,-1,-1,-1,-1,-1],"loss_changes":[6.532634E-1,7.0969486E-1,5.3180134E-1,0E0,4.1996086E-1,2.8223532E-1,8.4160596E-1,6.781379E-1,2.360838E-1,2.616399E-1,0E0,1.0654042E0,6.5285313E-1,2.568242E-1,1.5151998E-1,0E0,4.4446945E-2,1.7532909E-1,4.155185E-2,5.2312577E-1,1.07879624E-1,5.685814E-1,7.996714E-2,0E0,0E0,0E0,0E0,0E0,0E0,0E0,0E0,0E0,0E0,0E0,0E0,0E0,0E0,0E0,0E0,0E0,0E0],"parents":[2147483647,0,0,1,1,2,2,4,4,5,5,6,6,7,7,8,8,9,9,11,11,12,12,13,13,14,14,16,16,17,17,18,18,19,19,20,20,21,21,22,22],"right_children":[2,4,6,-1,8,10,12,14,16,18,-1,20,22,24,26,-1,28,30,32,34,36,38,40,-1,-1,-1,-1,-1,-1,-1,-1,-1,-1,-1,-1,-1,-1,-1,-1,-1,-1],"split_conditions":[1.1442207E0,-4.8E0,1.387082E0,-5.024315E-1,1.2139E1,5.5E-1,1.4604473E0,8.358E0,-7.1E-1,1.3625481E0,1.473003E-1,3E-2,8.7E0,1.0321E1,9.7541183E-1,-2.3435988E-2,5.8707E1,6.1699E1,3.9E0,4.1E0,-7.4E-1,-1.1908E1,1.8879521E0,1.2751292E-1,-6.156386E-2,-4.462761E-1,-0E0,3.6167386E-1,5.479538E-2,-1.9360018E-1,-5.8421055E-3,1.0449463E-1,-2.734347E-2,6.1927944E-1,1.5489972E-2,2.9571928E-2,-2.53584E-1,-3.0236793E-1,1.638025E-2,-5.0662285E-1,-7.195818E-2],"split_indices":[0,4,0,0,5,2,0,5,2,8,0,2,4,6,0,0,6,5,3,3,1,5,0,0,0,0,0,0,0,0,0,0,0,0,0,0,0,0,0,0,0],"split_type":[0,0,0,0,0,0,0,0,0,0,0,0,0,0,0,0,0,0,0,0,0,0,0,0,0,0,0,0,0,0,0,0,0,0,0,0,0,0,0,0,0],"sum_hessian":[2.15E2,6.3E1,1.52E2,1E0,6.2E1,5.1E1,1.01E2,5.1E1,1.1E1,4.8E1,3E0,1.1E1,9E1,4.8E1,3E0,2E0,9E0,4E1,8E0,7E0,4E0,8.7E1,3E0,4E1,8E0,2E0,1E0,8E0,1E0,3.4E1,6E0,3E0,5E0,5E0,2E0,2E0,2E0,5E0,8.2E1,2E0,1E0],"tree_param":{"num_deleted":"0","num_feature":"10","num_nodes":"41","size_leaf_vector":"1"}},{"base_weights":[-4.283833E-3,-8.608413E-3,2.2457099E-1,5.4049075E-2,-2.3465918E-2,-2.5045153E-2,4.917097E-1,-2.5650749E-2,1.4820944E-1,-6.645585E-2,1.4121715E-2,-3.737175E-2,-0E0,-1.2036676E-1,4.3121457E-2,2.5388572E-1,6.457447E-2,-8.6485386E-2,3.4863047E-2,4.9872598E-1,-1.8995426E-3,-1.5906347E-1,-2.0055829E-2,-2.9092089E-3,1.0664721E-1,3.2882806E-2,2.7933145E-1,-6.500716E-2,1.3874118E-1,-1.4227642E-2,-1.3347884E-1,1.1524264E-1,-8.985019E-2,4.4824272E-2,-6.850971E-2],"categories":[],"categories_nodes":[],"categories_segments":[],"categories_sizes":[],"default_left":[0,0,0,0,0,0,0,0,0,0,0,0,0,0,0,0,0,0,0,0,0,0,0,0,0,0,0,0,0,0,0,0,0,0,0],"id":19,"left_children":[1,3,5,7,9,11,-1,13,15,17,19,-1,-1,21,23,25,27,29,31,-1,33,-1,-1,-1,-1,-1,-1,-1,-1,-1,-1,-1,-1,-1,-1],"loss_changes":[2.1354896E-1,1.9925144E-1,2.8371012E-1,3.127144E-1,2.8101072E-1,9.1151614E-4,0E0,1.5578091E-1,1.4834726E-1,1.679104E-1,7.2796476E-1,0E0,0E0,3.383568E-2,4.2285502E-2,3.2681346E-2,1.2508424E-1,2.2752738E-1,1.5095007E-1,0E0,2.8652534E-1,0E0,0E0,0E0,0E0,0E0,0E0,0E0,0E0,0E0,0E0,0E0,0E0,0E0,0E0],"parents":[2147483647,0,0,1,1,2,2,3,3,4,4,5,5,7,7,8,8,9,9,10,10,13,13,14,14,15,15,16,16,17,17,18,18,20,20],"right_children":[2,4,6,8,10,12,-1,14,16,18,20,-1,-1,22,24,26,28,30,32,-1,34,-1,-1,-1,-1,-1,-1,-1,-1,-1,-1,-1,-1,-1,-1],"split_conditions":[2.63E0,-3.103E0,7.3E-1,2.1E0,1.2578E1,1.5438908E0,4.917097E-1,-7.5E-1,-2.7E-1,1.8212E1,1.2793E1,-3.737175E-2,-0E0,-5.8E-1,1.4289002E0,-1.2E0,-5.75E-1,1.0050694E0,3.278E1,4.9872598E-1,2.1165E1,-1.5906347E-1,-2.0055829E-2,-2.9092089E-3,1.0664721E-1,3.2882806E-2,2.7933145E-1,-6.500716E-2,1.3874118E-1,-1.4227642E-2,-1.3347884E-1,1.1524264E-1,-8.985019E-2,4.4824272E-2,-6.850971E-2],"split_indices":[2,5,1,3,5,0,0,2,2,9,5,0,0,1,7,1,9,0,9,0,9,0,0,0,0,0,0,0,0,0,0,0,0,0,0],"split_type":[0,0,0,0,0,0,0,0,0,0,0,0,0,0,0,0,0,0,0,0,0,0,0,0,0,0,0,0,0,0,0,0,0,0,0],"sum_hessian":[2.15E2,2.12E2,3E0,4E1,1.72E2,2E0,1E0,2.2E1,1.8E1,8E1,9.2E1,1E0,1E0,9E0,1.3E1,7E0,1.1E1,6.7E1,1.3E1,2E0,9E1,6E0,3E0,8E0,5E0,1E0,6E0,4E0,7E0,2.7E1,4E1,8E0,5E0,5.3E1,3.7E1],"tree_param":{"num_deleted":"0","num_feature":"10","num_nodes":"35","size_leaf_vector":"1"}},{"base_weights":[5.0797127E-3,6.9913745E-2,-8.656449E-3,3.4335863E-2,2.522731E-1,-1.59266E-1,-1.5428854E-3,2.50461E-1,1.1990336E-2,3.6359414E-1,1.03214085E-1,-7.527779E-3,-3.0662227E-1,-2.4602468E-1,2.7217516E-3,3.1490292E-2,-7.2841205E-2,-4.728585E-2,7.0752256E-2,-2.2360321E-2,-3.9058948E-1,1.05980575E-1,-5.025592E-3,-4.138434E-2,5.128827E-2,-1.1434372E-1,-2.100402E-2,-5.223389E-3,-5.623221E-2,2.0629548E-2,1.448274E-1,-1.620804E-1,5.4115662E-3],"categories":[],"categories_nodes":[],"categories_segments":[],"categories_sizes":[],"default_left":[0,0,0,0,0,0,0,0,0,0,0,0,0,0,0,0,0,0,0,0,0,0,0,0,0,0,0,0,0,0,0,0,0],"id":20,"left_children":[1,3,5,7,9,11,13,-1,15,-1,-1,17,19,-1,21,23,25,27,-1,-1,-1,29,31,-1,-1,-1,-1,-1,-1,-1,-1,-1,-1],"loss_changes":[1.9358103E-1,2.3501436E-1,1.8992148E-1,1.537436E-1,5.7364285E-2,1.7342694E-1,1.8243434E-1,0E0,5.316084E-2,0E0,0E0,1.8672233E-2,8.261153E-2,0E0,1.3753903E-1,3.9733592E-2,9.153087E-3,5.9694424E-4,0E0,0E0,0E0,3.5145104E-2,2.6307753E-1,0E0,0E0,0E0,0E0,0E0,0E0,0E0,0E0,0E0,0E0],"parents":[2147483647,0,0,1,1,2,2,3,3,4,4,5,5,6,6,8,8,11,11,12,12,14,14,15,15,16,16,17,17,21,21,22,22],"right_children":[2,4,6,8,10,12,14,-1,16,-1,-1,18,20,-1,22,24,26,28,-1,-1,-1,30,32,-1,-1,-1,-1,-1,-1,-1,-1,-1,-1],"split_conditions":[-5.8E-1,2.3983195E0,-4.2E-1,-5.6208E1,2.4364052E0,3.1E0,8.579666E-1,2.50461E-1,1.324E1,3.6359414E-1,1.03214085E-1,2.4180648E0,1.5011843E0,-2.4602468E-1,-2.3E-1,-2.6313E1,-8E-1,1.200589E0,7.0752256E-2,-2.2360321E-2,-3.9058948E-1,-4.2E-1,-1.5E-1,-4.138434E-2,5.128827E-2,-1.1434372E-1,-2.100402E-2,-5.223389E-3,-5.623221E-2,2.0629548E-2,1.448274E-1,-1.620804E-1,5.4115662E-3],"split_indices":[1,0,1,9,0,4,7,0,6,0,0,0,0,0,1,5,1,0,0,0,0,2,1,0,0,0,0,0,0,0,0,0,0],"split_type":[0,0,0,0,0,0,0,0,0,0,0,0,0,0,0,0,0,0,0,0,0,0,0,0,0,0,0,0,0,0,0,0,0],"sum_hessian":[2.15E2,3.7E1,1.78E2,3.2E1,5E0,7E0,1.71E2,2E0,3E1,2E0,3E0,4E0,3E0,2E0,1.69E2,2.5E1,5E0,3E0,1E0,1E0,2E0,1.1E1,1.58E2,5E0,2E1,2E0,3E0,1E0,2E0,4E0,7E0,9E0,1.49E2],"tree_param":{"num_deleted":"0","num_feature":"10","num_nodes":"33","size_leaf_vector":"1"}},{"base_weights":[-2.2719796E-4,5.4975944E-3,-9.884014E-2,8.968194E-3,-1.3312002E-1,-4.3143988E-2,-1.310311E-1,2.528082E-3,1.0935595E-1,-2.5841248E-1,-3.4693774E-2,-7.017906E-2,-9.581683E-3,1.2429906E-3,-1.5495062E-1,5.456559E-3,-1.3251024E-1,-1.7923413E-2,1.54885E-1,-6.926735E-2,2.9513475E-2,-0E0,-1.3163722E-2,1.5924914E-2,-3.574633E-2,-1.642406E-1,-1.3659592E-2,-7.5154416E-2,2.2871729E-2,2.1778818E-2,1.883755E-1],"categories":[],"categories_nodes":[],"categories_segments":[],"categories_sizes":[],"default_left":[0,0,0,0,0,0,0,0,0,0,0,0,0,0,0,0,0,0,0,0,0,0,0,0,0,0,0,0,0,0,0],"id":21,"left_children":[1,3,5,7,9,11,13,15,17,-1,19,-1,21,-1,-1,23,25,27,29,-1,-1,-1,-1,-1,-1,-1,-1,-1,-1,-1,-1],"loss_changes":[1.23417154E-1,9.857499E-2,1.4119998E-2,1.2855285E-1,4.9763948E-2,3.9741155E-3,2.3877189E-2,7.4589275E-2,7.36846E-2,0E0,1.1321355E-2,0E0,1.5261618E-4,0E0,0E0,8.102909E-2,1.1062235E-2,1.1580727E-2,3.391601E-2,0E0,0E0,0E0,0E0,0E0,0E0,0E0,0E0,0E0,0E0,0E0,0E0],"parents":[2147483647,0,0,1,1,2,2,3,3,4,4,5,5,6,6,7,7,8,8,10,10,12,12,15,15,16,16,17,17,18,18],"right_children":[2,4,6,8,10,12,14,16,18,-1,20,-1,22,-1,-1,24,26,28,30,-1,-1,-1,-1,-1,-1,-1,-1,-1,-1,-1,-1],"split_conditions":[9.2E0,7.963E1,1E-2,4.812E1,1.3009657E0,-1.09E0,-5.361E0,4.6716E1,-1.4898E1,-2.5841248E-1,1.3081095E0,-7.017906E-2,9.910079E-1,1.2429906E-3,-1.5495062E-1,5.6E0,1.1755475E0,1.122363E0,1.1322893E0,-6.926735E-2,2.9513475E-2,-0E0,-1.3163722E-2,1.5924914E-2,-3.574633E-2,-1.642406E-1,-1.3659592E-2,-7.5154416E-2,2.2871729E-2,2.1778818E-2,1.883755E-1],"split_indices":[3,6,2,6,0,2,5,6,9,0,0,0,0,0,0,4,0,0,8,0,0,0,0,0,0,0,0,0,0,0,0],"split_type":[0,0,0,0,0,0,0,0,0,0,0,0,0,0,0,0,0,0,0,0,0,0,0,0,0,0,0,0,0,0,0],"sum_hessian":[2.15E2,2.04E2,1.1E1,2E2,4E0,5E0,6E0,1.89E2,1.1E1,1E0,3E0,2E0,3E0,1E0,5E0,1.86E2,3E0,3E0,8E0,2E0,1E0,1E0,2E0,1.49E2,3.7E1,2E0,1E0,1E0,2E0,2E0,6E0],"tree_param":{"num_deleted":"0","num_feature":"10","num_nodes":"31","size_leaf_vector":"1"}},{"base_weights":[-2.749547E-3,-2.392745E-2,1.6677458E-2,-8.388128E-3,-1.3128823E-1,1.0895687E-1,2.4262595E-3,-1.9385811E-2,1.08260766E-1,-2.2698931E-1,6.523137E-2,3.7816335E-2,3.7758026E-1,-1.0808695E-2,1.0011374E-1,1.7976394E-2,-3.822999E-2,-2.499852E-2,2.5026968E-1,-2.8991634E-1,-1.1632014E-3,9.58168E-3,7.424837E-2,1.3615197E-1,-1.4475107E-1,8.525639E-3,-1.061375E-1,2.5492615E-1,-7.908239E-3,-8.989942E-2,3.426589E-2,4.1981213E-2,-5.0499182E-2,2.0808615E-2,-6.580615E-2,3.1096336E-1,2.9094335E-2,-4.050934E-2,-3.2306594E-1,-4.8852516E-3,-0E0,1.8756254E-1,-2.5856681E-2,-1.7430168E-1,-8.274312E-3,-7.875454E-2,3.2219827E-2,4.0593576E-2,-1.6409367E-1,-4.5982553E-3,3.2345682E-1,3.4805056E-2,-4.249723E-2],"categories":[],"categories_nodes":[],"categories_segments":[],"categories_sizes":[],"default_left":[0,0,0,0,0,0,0,0,0,0,0,0,0,0,0,0,0,0,0,0,0,0,0,0,0,0,0,0,0,0,0,0,0,0,0,0,0,0,0,0,0,0,0,0,0,0,0,0,0,0,0,0,0],"id":22,"left_children":[1,3,5,7,9,11,13,15,17,19,21,23,-1,25,27,29,31,33,35,37,39,-1,-1,41,43,45,47,49,51,-1,-1,-1,-1,-1,-1,-1,-1,-1,-1,-1,-1,-1,-1,-1,-1,-1,-1,-1,-1,-1,-1,-1,-1],"loss_changes":[8.933897E-2,1.7100662E-1,1.4722723E-1,1.1923379E-1,2.609172E-1,2.682175E-1,1.299712E-1,6.073487E-2,1.5990114E-1,1.2464702E-1,9.5924176E-4,2.530096E-1,0E0,1.6407546E-1,2.051639E-1,5.3484187E-2,5.8300406E-2,1.1165713E-2,4.1247904E-2,4.1151285E-2,4.3672255E-5,0E0,0E0,8.142741E-2,1.6896866E-2,1.5510656E-1,1.354557E-1,9.3602836E-2,1.3375318E-2,0E0,0E0,0E0,0E0,0E0,0E0,0E0,0E0,0E0,0E0,0E0,0E0,0E0,0E0,0E0,0E0,0E0,0E0,0E0,0E0,0E0,0E0,0E0,0E0],"parents":[2147483647,0,0,1,1,2,2,3,3,4,4,5,5,6,6,7,7,8,8,9,9,10,10,11,11,13,13,14,14,15,15,16,16,17,17,18,18,19,19,20,20,23,23,24,24,25,25,26,26,27,27,28,28],"right_children":[2,4,6,8,10,12,14,16,18,20,22,24,-1,26,28,30,32,34,36,38,40,-1,-1,42,44,46,48,50,52,-1,-1,-1,-1,-1,-1,-1,-1,-1,-1,-1,-1,-1,-1,-1,-1,-1,-1,-1,-1,-1,-1,-1,-1],"split_conditions":[3.1E0,2.7E0,9.7944814E-1,6.6E-1,1.1553E1,9.676338E-1,2.4209454E0,-2.7E-1,1.0743E1,4.9E0,-3.3E-1,8.988697E-1,3.7758026E-1,2.2621973E0,-2.1E-1,9.881007E-1,9.7723305E-1,1.1708165E0,2.2383583E0,-4.2E-1,8.821451E-1,9.58168E-3,7.424837E-2,9.0282696E-1,2.9E-1,3.143E0,3.469E0,1.5011843E0,2.454996E0,-8.989942E-2,3.426589E-2,4.1981213E-2,-5.0499182E-2,2.0808615E-2,-6.580615E-2,3.1096336E-1,2.9094335E-2,-4.050934E-2,-3.2306594E-1,-4.8852516E-3,-0E0,1.8756254E-1,-2.5856681E-2,-1.7430168E-1,-8.274312E-3,-7.875454E-2,3.2219827E-2,4.0593576E-2,-1.6409367E-1,-4.5982553E-3,3.2345682E-1,3.4805056E-2,-4.249723E-2],"split_indices":[4,4,0,1,6,0,8,2,9,3,2,7,0,8,2,0,8,7,0,1,0,0,0,8,1,5,9,0,0,0,0,0,0,0,0,0,0,0,0,0,0,0,0,0,0,0,0,0,0,0,0,0,0],"split_type":[0,0,0,0,0,0,0,0,0,0,0,0,0,0,0,0,0,0,0,0,0,0,0,0,0,0,0,0,0,0,0,0,0,0,0,0,0,0,0,0,0,0,0,0,0,0,0,0,0,0,0,0,0],"sum_hessian":[2.15E2,1.03E2,1.12E2,9.1E1,1.2E1,1.4E1,9.8E1,8.4E1,7E0,8E0,4E0,1.2E1,2E0,8.7E1,1.1E1,2.8E1,5.6E1,4E0,3E0,6E0,2E0,1E0,3E0,8E0,4E0,7.3E1,1.4E1,4E0,7E0,3E0,2.5E1,7E0,4.9E1,2E0,2E0,2E0,1E0,1E0,5E0,1E0,1E0,6E0,2E0,3E0,1E0,1.5E1,5.8E1,4E0,1E1,1E0,3E0,3E0,4E0],"tree_param":{"num_deleted":"0","num_feature":"10","num_nodes":"53","size_leaf_vector":"1"}},{"base_weights":[2.0390586E-3,-6.833339E-2,5.835456E-3,2.3381261E-2,-1.0689904E-1,7.526055E-3,-1.6536868E-1,-2.4426533E-3,3.6136784E-2,-0E0,-1.4240225E-1,-1.729233E-3,3.8042918E-2,1.040112E-2,-4.1950148E-2,9.080707E-2,5.855893E-3,5.0018106E-2,1.0852026E-3,-9.58105E-2,-4.176114E-4,2.2734982E-1,4.7675207E-2,-1.1056045E-1,3.288059E-2],"categories":[],"categories_nodes":[],"categories_segments":[],"categories_sizes":[],"default_left":[0,0,0,0,0,0,0,0,0,0,0,0,0,0,0,0,0,0,0,0,0,0,0,0,0],"id":23,"left_children":[1,3,5,7,9,11,-1,-1,-1,-1,-1,13,15,17,19,21,23,-1,-1,-1,-1,-1,-1,-1,-1],"loss_changes":[5.748072E-2,4.2241998E-2,5.9290275E-2,1.7428012E-3,3.0251153E-2,5.8329605E-2,0E0,0E0,0E0,0E0,0E0,7.7839054E-2,8.002103E-2,4.4461057E-2,8.176512E-2,9.241897E-2,1.003881E-1,0E0,0E0,0E0,0E0,0E0,0E0,0E0,0E0],"parents":[2147483647,0,0,1,1,2,2,3,3,4,4,5,5,11,11,12,12,13,13,14,14,15,15,16,16],"right_children":[2,4,6,8,10,12,-1,-1,-1,-1,-1,14,16,18,20,22,24,-1,-1,-1,-1,-1,-1,-1,-1],"split_conditions":[8.888375E-1,8.579666E-1,1.64E1,8.821451E-1,-1.31E-1,4.8E-1,-1.6536868E-1,-2.4426533E-3,3.6136784E-2,-0E0,-1.4240225E-1,8E-2,6.5E-1,-1.978E0,3.6E0,2.2E-1,6.9E-1,5.0018106E-2,1.0852026E-3,-9.58105E-2,-4.176114E-4,2.2734982E-1,4.7675207E-2,-1.1056045E-1,3.288059E-2],"split_indices":[8,8,4,0,9,2,0,0,0,0,0,2,2,9,3,1,2,0,0,0,0,0,0,0,0],"split_type":[0,0,0,0,0,0,0,0,0,0,0,0,0,0,0,0,0,0,0,0,0,0,0,0,0],"sum_hessian":[2.15E2,1E1,2.05E2,3E0,7E0,2.04E2,1E0,1E0,2E0,2E0,5E0,1.57E2,4.7E1,1.21E2,3.6E1,1.7E1,3E1,2.2E1,9.9E1,1.5E1,2.1E1,3E0,1.4E1,5E0,2.5E1],"tree_param":{"num_deleted":"0","num_feature":"10","num_nodes":"25","size_leaf_vector":"1"}},{"base_weights":[-5.213621E-4,-1.458503E-2,1.3848029E-2,2.1975712E-4,-5.0991066E-2,9.408849E-4,4.8186526E-2,-3.5908572E-2,2.3276053E-2,-9.342737E-2,-1.6512156E-2,1.907042E-2,-3.636434E-2,1.0740208E-1,-6.013743E-3,-1.9901803E-2,-1.1316342E-1,-3.7639797E-2,4.659677E-2,-0E0,-1.3129206E-1,-6.836761E-2,4.7590308E-2,7.370593E-2,1.4672788E-3,-1.1625821E-1,5.0472813E-3,-2.5766768E-2,1.3257745E-1,3.379562E-2,-5.129756E-2,-6.1349913E-2,2.8684616E-2,2.6263218E-2,-9.009996E-2,6.368867E-2,-1.9935977E-2,5.6315538E-2,-2.6923424E-2,-1.6434696E-1,-0E0,-2.4241365E-2,-9.943259E-2,6.4875536E-2,-5.271988E-3,1.03710964E-1,2.9556733E-3,-3.4320895E-2,3.0155111E-2,-1.5514147E-1,-2.6368765E-2,9.5494546E-2,-3.6316633E-2,4.693901E-2,-9.058916E-2,-2.1370329E-2,1.6650404E-1,-2.6789423E-2,5.6361265E-2,-6.8985134E-2,3.1257745E-2],"categories":[],"categories_nodes":[],"categories_segments":[],"categories_sizes":[],"default_left":[0,0,0,0,0,0,0,0,0,0,0,0,0,0,0,0,0,0,0,0,0,0,0,0,0,0,0,0,0,0,0,0,0,0,0,0,0,0,0,0,0,0,0,0,0,0,0,0,0,0,0,0,0,0,0,0,0,0,0,0,0],"id":24,"left_children":[1,3,5,7,9,11,13,15,17,19,21,23,25,27,29,31,-1,33,35,37,39,41,43,45,47,49,51,53,55,57,59,-1,-1,-1,-1,-1,-1,-1,-1,-1,-1,-1,-1,-1,-1,-1,-1,-1,-1,-1,-1,-1,-1,-1,-1,-1,-1,-1,-1,-1,-1],"loss_changes":[4.3859992E-2,5.980712E-2,4.6887062E-2,6.651534E-2,4.4178955E-2,5.3950332E-2,9.473525E-2,3.4751806E-2,7.145293E-2,5.017461E-2,6.661859E-2,5.107497E-2,8.7720804E-2,5.142024E-2,3.075217E-2,5.6459457E-2,0E0,4.993776E-2,4.2645395E-2,9.242362E-3,4.3703347E-2,1.1431467E-2,9.161688E-3,2.6224032E-2,4.411407E-2,2.5550745E-2,7.140237E-2,1.8827556E-2,6.7684636E-2,1.4109869E-2,1.4215222E-2,0E0,0E0,0E0,0E0,0E0,0E0,0E0,0E0,0E0,0E0,0E0,0E0,0E0,0E0,0E0,0E0,0E0,0E0,0E0,0E0,0E0,0E0,0E0,0E0,0E0,0E0,0E0,0E0,0E0,0E0],"parents":[2147483647,0,0,1,1,2,2,3,3,4,4,5,5,6,6,7,7,8,8,9,9,10,10,11,11,12,12,13,13,14,14,15,15,17,17,18,18,19,19,20,20,21,21,22,22,23,23,24,24,25,25,26,26,27,27,28,28,29,29,30,30],"right_children":[2,4,6,8,10,12,14,16,18,20,22,24,26,28,30,32,-1,34,36,38,40,42,44,46,48,50,52,54,56,58,60,-1,-1,-1,-1,-1,-1,-1,-1,-1,-1,-1,-1,-1,-1,-1,-1,-1,-1,-1,-1,-1,-1,-1,-1,-1,-1,-1,-1,-1,-1],"split_conditions":[1.1553E1,1.2979E1,2.2545025E0,-2E-2,1.214529E0,4.1E0,2.3918078E0,9.135E0,1.399E0,-5.361E0,2.0559E1,1.5295E1,4.9E0,2.0280511E0,2.454996E0,-1.204E0,-1.1316342E-1,-3.103E0,5.2E-1,1.0013033E0,4.5E-1,5.287E0,5.3413E1,2.31E1,1.5E0,4.2E0,1.1868114E0,1.9327828E0,-1.26E0,-7.9E-1,2.5015006E0,-6.1349913E-2,2.8684616E-2,2.6263218E-2,-9.009996E-2,6.368867E-2,-1.9935977E-2,5.6315538E-2,-2.6923424E-2,-1.6434696E-1,-0E0,-2.4241365E-2,-9.943259E-2,6.4875536E-2,-5.271988E-3,1.03710964E-1,2.9556733E-3,-3.4320895E-2,3.0155111E-2,-1.5514147E-1,-2.6368765E-2,9.5494546E-2,-3.6316633E-2,4.693901E-2,-9.058916E-2,-2.1370329E-2,1.6650404E-1,-2.6789423E-2,5.6361265E-2,-6.8985134E-2,3.1257745E-2],"split_indices":[9,5,7,2,7,3,7,5,6,6,6,9,3,0,8,5,0,6,2,0,2,6,5,5,3,4,8,0,2,1,8,0,0,0,0,0,0,0,0,0,0,0,0,0,0,0,0,0,0,0,0,0,0,0,0,0,0,0,0,0,0],"split_type":[0,0,0,0,0,0,0,0,0,0,0,0,0,0,0,0,0,0,0,0,0,0,0,0,0,0,0,0,0,0,0,0,0,0,0,0,0,0,0,0,0,0,0,0,0,0,0,0,0,0,0,0,0,0,0,0,0,0,0,0,0],"sum_hessian":[2.15E2,1.09E2,1.06E2,7.8E1,3.1E1,7.8E1,2.8E1,3E1,4.8E1,1.3E1,1.8E1,5.3E1,2.5E1,1.3E1,1.5E1,2.6E1,4E0,1.3E1,3.5E1,4E0,9E0,1E1,8E0,1.2E1,4.1E1,8E0,1.7E1,2E0,1.1E1,8E0,7E0,1.4E1,1.2E1,6E0,7E0,2.8E1,7E0,1E0,3E0,7E0,2E0,5E0,5E0,6E0,2E0,8E0,4E0,1.8E1,2.3E1,5E0,3E0,5E0,1.2E1,1E0,1E0,2E0,9E0,2E0,6E0,6E0,1E0],"tree_param":{"num_deleted":"0","num_feature":"10","num_nodes":"61","size_leaf_vector":"1"}},{"base_weights":[-1.4795527E-3,3.945079E-4,-5.8918577E-2,-5.5009597E-3,1.9570025E-2,-6.9280505E-2,-0E0,7.293936E-3,-1.2873755E-2,4.3839842E-2,-2.357593E-3,2.9826043E-2,-1.3697195E-2,-2.3336293E-2,1.1856537E-2,-1.9386886E-2,6.2025134E-2,-3.8835645E-2,5.3322814E-2,1.6007625E-2,7.846204E-2,-8.670191E-2,3.292247E-3,-4.8562344E-3,-4.409706E-2,-2.8040584E-3,6.395059E-2,-4.348224E-2,1.5869217E-2,7.7168815E-2,-4.1130777E-2,-6.839885E-2,4.3795824E-2,9.2749156E-2,3.3426667E-3],"categories":[],"categories_nodes":[],"categories_segments":[],"categories_sizes":[],"default_left":[0,0,0,0,0,0,0,0,0,0,0,0,0,0,0,0,0,0,0,0,0,0,0,0,0,0,0,0,0,0,0,0,0,0,0],"id":25,"left_children":[1,3,5,7,9,-1,-1,11,13,15,17,19,21,23,25,27,29,31,33,-1,-1,-1,-1,-1,-1,-1,-1,-1,-1,-1,-1,-1,-1,-1,-1],"loss_changes":[2.3859635E-2,2.3988558E-2,4.498938E-3,1.5337497E-2,2.7127143E-2,0E0,0E0,2.847531E-2,2.7041871E-2,2.9223967E-2,5.6765996E-2,1.7289422E-2,3.956913E-2,2.7303513E-2,2.446641E-2,6.063209E-3,3.321544E-2,4.477008E-2,2.0404931E-2,0E0,0E0,0E0,0E0,0E0,0E0,0E0,0E0,0E0,0E0,0E0,0E0,0E0,0E0,0E0,0E0],"parents":[2147483647,0,0,1,1,2,2,3,3,4,4,7,7,8,8,9,9,10,10,11,11,12,12,13,13,14,14,15,15,16,16,17,17,18,18],"right_children":[2,4,6,8,10,-1,-1,12,14,16,18,20,22,24,26,28,30,32,34,-1,-1,-1,-1,-1,-1,-1,-1,-1,-1,-1,-1,-1,-1,-1,-1],"split_conditions":[7.0033E1,2.3369E1,1.3081095E0,2.66E-1,3.5E0,-6.9280505E-2,-0E0,1.5E-1,3.9E-1,-3.7E-1,5.2E0,0E0,-2.2501E1,-6E-2,6.6E0,5.4477E1,2.2E-1,3.6517E1,3.7562E1,1.6007625E-2,7.846204E-2,-8.670191E-2,3.292247E-3,-4.8562344E-3,-4.409706E-2,-2.8040584E-3,6.395059E-2,-4.348224E-2,1.5869217E-2,7.7168815E-2,-4.1130777E-2,-6.839885E-2,4.3795824E-2,9.2749156E-2,3.3426667E-3],"split_indices":[6,9,0,9,3,0,0,2,2,2,3,2,9,2,4,9,1,5,9,0,0,0,0,0,0,0,0,0,0,0,0,0,0,0,0],"split_type":[0,0,0,0,0,0,0,0,0,0,0,0,0,0,0,0,0,0,0,0,0,0,0,0,0,0,0,0,0,0,0,0,0,0,0],"sum_hessian":[2.15E2,2.09E2,6E0,1.6E2,4.9E1,5E0,1E0,5.8E1,1.02E2,2.3E1,2.6E1,2.8E1,3E1,7.2E1,3E1,5E0,1.8E1,1.6E1,1E1,2.3E1,5E0,5E0,2.5E1,3.9E1,3.3E1,2.4E1,6E0,3E0,2E0,1.6E1,2E0,1.2E1,4E0,5E0,5E0],"tree_param":{"num_deleted":"0","num_feature":"10","num_nodes":"35","size_leaf_vector":"1"}}]},"name":"gbtree"},"learner_model_param":{"base_score":"1.1615772E1","boost_from_average":"1","num_class":"0","num_feature":"10","num_target":"1"},"objective":{"name":"reg:squarederror","reg_loss_param":{"scale_pos_weight":"1"}}},"version":[2,1,4]}