{"learner":{"attributes":{"best_iteration":"0","best_score":"111.33843961090865","scikit_learn":"{\"_estimator_type\": \"regressor\"}"},"feature_names":["watr","fedfunds_lag_5","fedfunds_lag_6","fedfunds_lag_7","fedfunds_lag_8","gdp_lag_5","gdp_lag_6","gdp_lag_7","gdp_lag_8","imports_lag_5","imports_lag_6","imports_lag_7","imports_lag_8","watr_lag_5","watr_lag_6","watr_lag_7","watr_lag_8","imports_lag_1","imports_lag_2","imports_lag_3","imports_lag_4"],"feature_types":["float","float","float","float","float","float","float","float","float","float","float","float","float","float","float","float","float","float","float","float","float"],"gradient_booster":{"model":{"gbtree_model_param":{"num_parallel_tree":"1","num_trees":"26"},"iteration_indptr":[0,1,2,3,4,5,6,7,8,9,10,11,12,13,14,15,16,17,18,19,20,21,22,23,24,25,26],"tree_info":[0,0,0,0,0,0,0,0,0,0,0,0,0,0,0,0,0,0,0,0,0,0,0,0,0,0],"trees":[{"base_weights":[-0E0,-1.0632615E2,1.504615E0,-4.84365E0,2.3295637E1,-7.386106E0,9.689148E0,-4.6657605E0,2.7401451E1,3.4501186E1,-8.2370825E0,1.3774551E1,-9.405377E0,-1.2411814E1,9.1302323E-1,1.5124685E1,3.5978413E1,-3.328929E1,-6.0369167E0,-5.1311655E0,1.7211124E1,-1.7347612E1,-3.0804155E0,3.2238894E0,-4.681657E-1,-9.79261E0,1.705357E1,5.4514305E1,2.5138674E1],"categories":[],"categories_nodes":[],"categories_segments":[],"categories_sizes":[],"default_left":[0,0,0,0,0,0,0,0,0,0,0,0,0,0,0,0,0,0,0,0,0,0,0,0,0,0,0,0,0],"id":0,"left_children":[1,-1,3,5,7,9,11,13,15,-1,17,19,21,-1,23,25,27,-1,-1,-1,-1,-1,-1,-1,-1,-1,-1,-1,-1],"loss_changes":[3.439569E4,0E0,2.944008E4,6.1681265E3,5.6386816E3,5.3098867E3,2.0798196E3,3.139422E2,3.8778145E3,0E0,7.4601846E3,1.452822E3,1.9752951E2,0E0,1.7495586E1,1.0802607E3,3.4509668E3,0E0,0E0,0E0,0E0,0E0,0E0,0E0,0E0,0E0,0E0,0E0,0E0],"parents":[2147483647,0,0,2,2,3,3,4,4,5,5,6,6,7,7,8,8,10,10,11,11,12,12,14,14,15,15,16,16],"right_children":[2,-1,4,6,8,10,12,14,16,-1,18,20,22,-1,24,26,28,-1,-1,-1,-1,-1,-1,-1,-1,-1,-1,-1,-1],"split_conditions":[-8.2388E1,-1.0632615E2,2.6147E1,2.31E1,1.1337645E0,-3.8561E1,5.2E0,9.9794817E-1,3.7562E1,3.4501186E1,-2.1961E1,1.0539463E0,1.2464087E0,-1.2411814E1,1.1746442E0,-1.4898E1,2.2E0,-3.328929E1,-6.0369167E0,-5.1311655E0,1.7211124E1,-1.7347612E1,-3.0804155E0,3.2238894E0,-4.681657E-1,-9.79261E0,1.705357E1,5.4514305E1,2.5138674E1],"split_indices":[17,0,17,18,13,19,5,0,17,0,17,14,0,0,0,9,5,0,0,0,0,0,0,0,0,0,0,0,0],"split_type":[0,0,0,0,0,0,0,0,0,0,0,0,0,0,0,0,0,0,0,0,0,0,0,0,0,0,0,0,0],"sum_hessian":[2.13E2,2E0,2.11E2,1.64E2,4.7E1,1.4E2,2.4E1,6E0,4.1E1,2E0,1.38E2,2E1,4E0,2E0,4E0,1.8E1,2.3E1,1E1,1.28E2,3E0,1.7E1,1E0,3E0,1E0,3E0,1E0,1.7E1,7E0,1.6E1],"tree_param":{"num_deleted":"0","num_feature":"21","num_nodes":"29","size_leaf_vector":"1"}},{"base_weights":[-1.9748314E-1,-3.5442047E1,3.0214503E-1,6.0869646E0,-5.925503E1,1.8355988E1,-4.957801E-1,2.5145422E1,3.580339E0,-2.6952042E1,3.312946E-2,2.7211367E1,7.4028482E0,2.2529519E-1,4.620255E0,8.214361E-1,-1.1429416E1,-1.7500223E0,3.2271783E0,-5.7950487E0,-2.2655478E1],"categories":[],"categories_nodes":[],"categories_segments":[],"categories_sizes":[],"default_left":[0,0,0,0,0,0,0,0,0,0,0,0,0,0,0,0,0,0,0,0,0],"id":1,"left_children":[1,3,5,-1,-1,7,9,11,13,-1,15,-1,-1,-1,-1,17,19,-1,-1,-1,-1],"loss_changes":[3.7794236E3,3.3280042E3,3.0632695E3,0E0,0E0,8.125481E2,2.8557278E3,1.8143555E1,1.2866482E1,0E0,1.8255187E3,0E0,0E0,0E0,0E0,1.1748666E3,6.906986E2,0E0,0E0,0E0,0E0],"parents":[2147483647,0,0,1,1,2,2,5,5,6,6,7,7,8,8,10,10,15,15,16,16],"right_children":[2,4,6,-1,-1,8,10,12,14,-1,16,-1,-1,-1,-1,18,20,-1,-1,-1,-1],"split_conditions":[-8.2388E1,1.1610953E0,-2.2951E1,6.0869646E0,-5.925503E1,1.2E-1,-2.1961E1,2.093139E0,1.122363E0,-2.6952042E1,9.7E-1,2.7211367E1,7.4028482E0,2.2529519E-1,4.620255E0,1.0069E1,7E0,-1.7500223E0,3.2271783E0,-5.7950487E0,-2.2655478E1],"split_indices":[17,0,18,0,0,2,18,0,0,0,2,0,0,0,0,10,8,0,0,0,0],"split_type":[0,0,0,0,0,0,0,0,0,0,0,0,0,0,0,0,0,0,0,0,0],"sum_hessian":[2.13E2,2E0,2.11E2,1E0,1E0,8E0,2.03E2,5E0,3E0,3E0,2E2,4E0,1E0,1E0,2E0,1.88E2,1.2E1,9.1E1,9.7E1,9E0,3E0],"tree_param":{"num_deleted":"0","num_feature":"21","num_nodes":"21","size_leaf_vector":"1"}},{"base_weights":[-3.1595185E-1,4.673554E0,-1.4198426E0,-1.7971351E0,8.793033E0,-1.2970406E1,-7.1963024E-1,2.653803E0,-9.659332E0,1.6538913E0,1.3773569E1,-2.5336012E1,-5.023321E-1,5.4726257E0,-2.4030514E0,-4.220681E0,7.186463E0,-1.2484521E1,-5.1231084E0,4.903278E0,-8.642233E0,1.7492071E1,1.0179651E-1,3.0434809E0,-3.3194256E1,-4.813005E0,2.8537555E0,2.2080746E1,3.8459496E0,-1.0390149E0,-6.303832E0,-6.371697E0,-6.5943843E-1,7.678168E0,2.1131163E0,6.9650583E0,5.8228856E-1,2.0042664E1,4.0062695E0,7.55156E-1,-9.2414093E-1,-5.705554E0,-1.5089532E0,4.9580564E0,4.96303E-1,-8.871129E-1,8.102956E0,1.970903E0,-3.385575E0,-3.642275E0,-1.3291238E1],"categories":[],"categories_nodes":[],"categories_segments":[],"categories_sizes":[],"default_left":[0,0,0,0,0,0,0,0,0,0,0,0,0,0,0,0,0,0,0,0,0,0,0,0,0,0,0,0,0,0,0,0,0,0,0,0,0,0,0,0,0,0,0,0,0,0,0,0,0,0,0],"id":2,"left_children":[1,3,5,7,9,11,13,15,17,19,21,23,25,27,29,31,33,-1,-1,35,-1,37,39,-1,-1,41,43,-1,45,47,49,-1,-1,-1,-1,-1,-1,-1,-1,-1,-1,-1,-1,-1,-1,-1,-1,-1,-1,-1,-1],"loss_changes":[1.1852872E3,1.0554509E3,1.4139904E3,5.856105E2,8.3042786E2,1.5287676E3,1.7539574E3,3.731181E2,1.2758484E1,4.1035486E2,7.097827E2,1.2163921E3,1.0055671E2,8.8739624E2,6.957234E2,3.4029396E1,1.1393127E0,0E0,0E0,7.604921E1,0E0,2.9782788E2,3.3774045E0,0E0,0E0,1.6552734E-1,1.7327915E1,0E0,6.923153E2,7.059192E2,5.837312E2,0E0,0E0,0E0,0E0,0E0,0E0,0E0,0E0,0E0,0E0,0E0,0E0,0E0,0E0,0E0,0E0,0E0,0E0,0E0,0E0],"parents":[2147483647,0,0,1,1,2,2,3,3,4,4,5,5,6,6,7,7,8,8,9,9,10,10,11,11,12,12,13,13,14,14,15,15,16,16,19,19,21,21,22,22,25,25,26,26,28,28,29,29,30,30],"right_children":[2,4,6,8,10,12,14,16,18,20,22,24,26,28,30,32,34,-1,-1,36,-1,38,40,-1,-1,42,44,-1,46,48,50,-1,-1,-1,-1,-1,-1,-1,-1,-1,-1,-1,-1,-1,-1,-1,-1,-1,-1,-1,-1],"split_conditions":[7E-1,-3E-1,-2.1961E1,3.3E0,-4.1E-1,3E-2,1.5E0,-2.2E-1,-5.75E-1,2.1E0,5E0,1.1610953E0,1.3E0,-1.7207E1,4.2E-1,-1.32E0,-3E-1,-1.2484521E1,-5.1231084E0,-1.26E0,-8.642233E0,4.6716E1,-4E-2,3.0434809E0,-3.3194256E1,1.2621561E0,1.2004002E0,2.2080746E1,1.0743E1,9.135E0,2.1242E1,-6.371697E0,-6.5943843E-1,7.678168E0,2.1131163E0,6.9650583E0,5.8228856E-1,2.0042664E1,4.0062695E0,7.55156E-1,-9.2414093E-1,-5.705554E0,-1.5089532E0,4.9580564E0,4.96303E-1,-8.871129E-1,8.102956E0,1.970903E0,-3.385575E0,-3.642275E0,-1.3291238E1],"split_indices":[6,3,17,5,1,4,8,4,11,5,7,0,6,17,4,1,2,0,0,1,0,12,1,0,0,0,0,0,18,18,10,0,0,0,0,0,0,0,0,0,0,0,0,0,0,0,0,0,0,0,0],"split_type":[0,0,0,0,0,0,0,0,0,0,0,0,0,0,0,0,0,0,0,0,0,0,0,0,0,0,0,0,0,0,0,0,0,0,0,0,0,0,0,0,0,0,0,0,0,0,0,0,0,0,0],"sum_hessian":[2.13E2,3.8E1,1.75E2,1.5E1,2.3E1,9E0,1.66E2,1E1,5E0,1E1,1.3E1,4E0,5E0,3.5E1,1.31E2,4E0,6E0,2E0,3E0,8E0,2E0,1E1,3E0,1E0,3E0,2E0,3E0,2E0,3.3E1,9.8E1,3.3E1,2E0,2E0,5E0,1E0,5E0,3E0,8E0,2E0,2E0,1E0,1E0,1E0,1E0,2E0,1.6E1,1.7E1,4.3E1,5.5E1,2.5E1,8E0],"tree_param":{"num_deleted":"0","num_feature":"21","num_nodes":"51","size_leaf_vector":"1"}},{"base_weights":[-6.081765E-2,-8.0118287E-1,5.567991E0,-8.66205E-2,-6.253449E0,1.8359534E0,1.3267826E1,3.7887545E0,-8.1779885E-1,-8.761229E0,1.8925006E0,4.3486414E0,-8.043115E0,2.2475513E1,3.2461107E0,1.1995473E0,8.832775E0,-1.0416335E0,9.971693E0,-1.0285367E-1,-1.3473719E1,-2.9262505E0,7.690002E0,8.6193705E-1,9.433374E0,-2.3479261E0,-9.155536E0,3.7211995E0,6.6787755E-1,6.193021E0,-1.0254804E0,3.9923868E-1,1.1183894E1,-1.4887267E0,4.3766255E0,3.6220827E0,-2.3192449E0,1.4421858E0,-1.6949718E1,-7.353854E-2,-5.737193E0,1.6688399E0,-3.1950946E0,1.0615949E1,1.755252E0],"categories":[],"categories_nodes":[],"categories_segments":[],"categories_sizes":[],"default_left":[0,0,0,0,0,0,0,0,0,0,0,0,0,0,0,0,0,0,0,0,0,0,0,0,0,0,0,0,0,0,0,0,0,0,0,0,0,0,0,0,0,0,0,0,0],"id":3,"left_children":[1,3,5,7,9,11,13,15,17,19,21,23,25,-1,27,29,31,33,-1,35,37,39,-1,41,43,-1,-1,-1,-1,-1,-1,-1,-1,-1,-1,-1,-1,-1,-1,-1,-1,-1,-1,-1,-1],"loss_changes":[8.962313E2,7.3963196E2,6.938918E2,4.8194547E2,4.6607074E2,4.8175397E2,6.649995E2,3.419247E2,3.5565137E2,6.92121E2,1.901708E2,2.577005E2,3.7302246E0,0E0,3.5952492E0,2.1750423E2,1.7387329E2,3.4805463E2,0E0,6.617888E1,5.9492444E2,3.1595222E1,0E0,3.8053146E1,3.572229E1,0E0,0E0,0E0,0E0,0E0,0E0,0E0,0E0,0E0,0E0,0E0,0E0,0E0,0E0,0E0,0E0,0E0,0E0,0E0,0E0],"parents":[2147483647,0,0,1,1,2,2,3,3,4,4,5,5,6,6,7,7,8,8,9,9,10,10,11,11,12,12,14,14,15,15,16,16,17,17,19,19,20,20,21,21,23,23,24,24],"right_children":[2,4,6,8,10,12,14,16,18,20,22,24,26,-1,28,30,32,34,-1,36,38,40,-1,42,44,-1,-1,-1,-1,-1,-1,-1,-1,-1,-1,-1,-1,-1,-1,-1,-1,-1,-1,-1,-1],"split_conditions":[4.0255E1,3.3947E1,3.9E0,-7.3E-1,1.2806218E0,7E-2,4.3E-1,8.668E0,5.3446E1,2.5E0,-4E-2,2.8244E1,1.2116834E0,2.2475513E1,4.8E-1,-2.988E0,-9.1E-1,9.3E0,9.971693E0,1.2108734E0,1.1337645E0,1.3767663E0,7.690002E0,9.8639E1,5E-2,-2.3479261E0,-9.155536E0,3.7211995E0,6.6787755E-1,6.193021E0,-1.0254804E0,3.9923868E-1,1.1183894E1,-1.4887267E0,4.3766255E0,3.6220827E0,-2.3192449E0,1.4421858E0,-1.6949718E1,-7.353854E-2,-5.737193E0,1.6688399E0,-3.1950946E0,1.0615949E1,1.755252E0],"split_indices":[20,12,8,2,15,1,1,12,10,7,1,12,0,0,3,20,1,8,0,13,0,0,0,9,3,0,0,0,0,0,0,0,0,0,0,0,0,0,0,0,0,0,0,0,0],"split_type":[0,0,0,0,0,0,0,0,0,0,0,0,0,0,0,0,0,0,0,0,0,0,0,0,0,0,0,0,0,0,0,0,0,0,0,0,0,0,0,0,0,0,0,0,0],"sum_hessian":[2.13E2,1.89E2,2.4E1,1.68E2,2.1E1,1.7E1,7E0,2.6E1,1.42E2,1.6E1,5E0,1.4E1,3E0,3E0,4E0,1.8E1,8E0,1.4E2,2E0,6E0,1E1,3E0,2E0,9E0,5E0,1E0,2E0,3E0,1E0,5E0,1.3E1,2E0,6E0,1.3E2,1E1,2E0,4E0,2E0,8E0,2E0,1E0,8E0,1E0,4E0,1E0],"tree_param":{"num_deleted":"0","num_feature":"21","num_nodes":"45","size_leaf_vector":"1"}},{"base_weights":[2.0341562E-1,-2.4097636E0,6.261289E-1,7.0069665E-1,-3.5731442E0,9.7707605E-1,-3.1411927E0,-3.0526367E-1,2.8177052E0,-1.052199E1,-2.7407236E0,5.1195085E-1,3.2205484E0,2.4197061E-1,-1.3353675E1,-1.2693876E0,3.322634E-1,-1.0754402E0,-3.8992329E0,8.902703E-1,-5.1765776E0,6.7101824E-1,7.996554E0,-7.044826E0,2.2081904E0,-1.7095404E-2,5.7420105E-1,6.341324E-2,-2.2289762E0,-4.77497E0,-9.515159E-1,4.1153008E-1,4.660174E0,-6.9907837E0,-1.1586239E0,4.619123E0,-9.522916E-1,-6.442742E-1,1.0238545E1,4.218514E0,-2.3620038E0],"categories":[],"categories_nodes":[],"categories_segments":[],"categories_sizes":[],"default_left":[0,0,0,0,0,0,0,0,0,0,0,0,0,0,0,0,0,0,0,0,0,0,0,0,0,0,0,0,0,0,0,0,0,0,0,0,0,0,0,0,0],"id":4,"left_children":[1,3,5,7,9,11,13,15,-1,-1,17,19,21,23,-1,-1,25,27,29,31,33,35,37,-1,39,-1,-1,-1,-1,-1,-1,-1,-1,-1,-1,-1,-1,-1,-1,-1,-1],"loss_changes":[2.3788084E2,1.1109192E2,2.4764172E2,2.0051907E1,9.828549E1,1.7570818E2,5.561702E2,4.733728E0,0E0,0E0,3.6271027E1,3.1016116E2,3.47668E2,2.0176472E2,0E0,0E0,4.3800253E-1,1.3300086E1,2.6376389E1,2.3987529E2,5.742337E1,1.3261536E2,2.0041895E2,0E0,1.11045944E2,0E0,0E0,0E0,0E0,0E0,0E0,0E0,0E0,0E0,0E0,0E0,0E0,0E0,0E0,0E0,0E0],"parents":[2147483647,0,0,1,1,2,2,3,3,4,4,5,5,6,6,7,7,10,10,11,11,12,12,13,13,16,16,17,17,18,18,19,19,20,20,21,21,22,22,24,24],"right_children":[2,4,6,8,10,12,14,16,-1,-1,18,20,22,24,-1,-1,26,28,30,32,34,36,38,-1,40,-1,-1,-1,-1,-1,-1,-1,-1,-1,-1,-1,-1,-1,-1,-1,-1],"split_conditions":[9.9794817E-1,8.8451546E-1,2.4631703E0,2.941E0,-7.3E-1,2.303916E0,1.2979E1,-1.9E0,2.8177052E0,-1.052199E1,3.336E0,2.2383583E0,1.5376E1,2.408993E0,-1.3353675E1,-1.2693876E0,-3.078E0,7E0,1.0165124E0,1.9482837E0,1.517E1,1.085E1,1.5E0,-7.044826E0,3.4E-1,-1.7095404E-2,5.7420105E-1,6.341324E-2,-2.2289762E0,-4.77497E0,-9.515159E-1,4.1153008E-1,4.660174E0,-6.9907837E0,-1.1586239E0,4.619123E0,-9.522916E-1,-6.442742E-1,1.0238545E1,4.218514E0,-2.3620038E0],"split_indices":[0,13,15,10,4,16,19,7,0,0,10,15,12,14,0,0,12,8,14,16,18,19,7,0,4,0,0,0,0,0,0,0,0,0,0,0,0,0,0,0,0],"split_type":[0,0,0,0,0,0,0,0,0,0,0,0,0,0,0,0,0,0,0,0,0,0,0,0,0,0,0,0,0,0,0,0,0,0,0,0,0,0,0,0,0],"sum_hessian":[2.13E2,2.9E1,1.84E2,8E0,2.1E1,1.69E2,1.5E1,6E0,2E0,1E0,2E1,1.41E2,2.8E1,1.2E1,3E0,2E0,4E0,9E0,1.1E1,1.33E2,8E0,1.9E1,9E0,2E0,1E1,2E0,2E0,5E0,4E0,8E0,3E0,1.19E2,1.4E1,5E0,3E0,5E0,1.4E1,2E0,7E0,7E0,3E0],"tree_param":{"num_deleted":"0","num_feature":"21","num_nodes":"41","size_leaf_vector":"1"}},{"base_weights":[-1.1545414E-1,2.07599E0,-4.03247E-1,-2.3338656E0,2.783873E0,-7.09271E0,-2.2120097E-1,3.4286368E0,-2.439176E0,-8.9280405E0,1.1930477E-1,5.45474E-2,-3.8957405E0,6.471106E0,1.6617852E0,3.246569E-1,-3.3148592E0,-5.8188767E0,-6.8060243E-1,-1.1149051E0,1.961908E0,5.562344E-3,3.6968305E0,-1.5490594E0,-8.681171E0,-6.900481E0,-1.7127082E0,-2.7029707E0,2.6246542E-1],"categories":[],"categories_nodes":[],"categories_segments":[],"categories_sizes":[],"default_left":[0,0,0,0,0,0,0,0,0,0,0,0,0,0,0,0,0,0,0,0,0,0,0,0,0,0,0,0,0],"id":5,"left_children":[1,3,5,-1,7,9,11,13,-1,-1,-1,15,17,-1,19,21,23,25,27,-1,-1,-1,-1,-1,-1,-1,-1,-1,-1],"loss_changes":[1.3578635E2,8.454326E1,2.2973808E2,0E0,8.246086E1,6.733539E1,1.8871509E2,9.6676895E1,0E0,0E0,0E0,1.5940521E2,7.6355606E1,0E0,1.3862686E1,1.7426126E2,1.0963588E2,2.3625366E1,1.2177225E1,0E0,0E0,0E0,0E0,0E0,0E0,0E0,0E0,0E0,0E0],"parents":[2147483647,0,0,1,1,2,2,4,4,5,5,6,6,7,7,11,11,12,12,14,14,15,15,16,16,17,17,18,18],"right_children":[2,4,6,-1,8,10,12,14,-1,-1,-1,16,18,-1,20,22,24,26,28,-1,-1,-1,-1,-1,-1,-1,-1,-1,-1],"split_conditions":[-6E-1,-2.995E1,2E-1,-2.3338656E0,2.454996E0,1.9656403E0,7.4E-1,-1.3E-1,-2.439176E0,-8.9280405E0,1.1930477E-1,5.2941E1,4.5E0,6.471106E0,-2.1494E1,4.6716E1,1.2450047E0,8.668E0,-7.4E-1,-1.1149051E0,1.961908E0,5.562344E-3,3.6968305E0,-1.5490594E0,-8.681171E0,-6.900481E0,-1.7127082E0,-2.7029707E0,2.6246542E-1],"split_indices":[5,19,5,0,15,0,3,4,0,0,0,19,7,0,12,11,13,10,2,0,0,0,0,0,0,0,0,0,0],"split_type":[0,0,0,0,0,0,0,0,0,0,0,0,0,0,0,0,0,0,0,0,0,0,0,0,0,0,0,0,0],"sum_hessian":[2.13E2,2.4E1,1.89E2,3E0,2.1E1,4E0,1.85E2,1.9E1,2E0,3E0,1E0,1.73E2,1.2E1,6E0,1.3E1,1.61E2,1.2E1,7E0,5E0,1E0,1.2E1,1.48E2,1.3E1,1E1,2E0,5E0,2E0,1E0,4E0],"tree_param":{"num_deleted":"0","num_feature":"21","num_nodes":"29","size_leaf_vector":"1"}},{"base_weights":[-1.1151961E-1,-7.676181E-1,5.394439E-1,-1.739652E-1,-2.6099997E0,1.4737711E0,-8.0114245E-1,3.124844E-1,-3.0384614E0,-3.8354942E-1,-3.4095578E0,-4.4170532E-1,2.559324E0,1.3755866E0,-2.1722133E0,-1.715891E-1,2.4861653E0,2.019155E-1,-5.3832903E0,3.7186697E-1,-1.7698658E0,-6.1831937E0,-2.257042E0,1.4389514E0,-1.1490881E0,3.0549273E0,-4.733295E0,-1.7555299E0,3.0882723E0,-2.6728036E0,5.666865E0,1.6980687E0,-9.069983E-1,3.391363E0,-3.958698E-1,-3.7366238E-1,1.5449024E0,-7.926795E0,6.4698166E-1,9.876901E-1,4.916434E-2,-5.2643534E-2,-2.5913615E0,-1.2784758E-1,2.6485124E0,-4.0860754E-1,-2.022363E0,5.515015E0,1.2871635E0,-1.9550164E0,-2.7430546E-1,5.100916E0,-7.476122E-1,-1.4590408E0,-5.930835E0],"categories":[],"categories_nodes":[],"categories_segments":[],"categories_sizes":[],"default_left":[0,0,0,0,0,0,0,0,0,0,0,0,0,0,0,0,0,0,0,0,0,0,0,0,0,0,0,0,0,0,0,0,0,0,0,0,0,0,0,0,0,0,0,0,0,0,0,0,0,0,0,0,0,0,0],"id":6,"left_children":[1,3,5,7,9,11,13,15,17,19,21,23,25,27,29,31,33,35,37,39,-1,-1,41,43,45,47,-1,49,51,53,-1,-1,-1,-1,-1,-1,-1,-1,-1,-1,-1,-1,-1,-1,-1,-1,-1,-1,-1,-1,-1,-1,-1,-1,-1],"loss_changes":[9.181496E1,1.1654778E2,1.3646243E2,1.1523824E2,4.4938904E1,1.3423013E2,1.3729626E2,7.515746E1,9.231632E1,9.050102E0,4.669641E1,3.3578842E1,1.6262717E2,1.0196202E2,1.24993164E2,8.265508E1,3.528705E1,5.2269454E0,1.1256749E2,1.1334388E0,0E0,0E0,1.08917465E1,1.3629786E1,1.0788914E1,1.624386E2,0E0,1.5098267E0,9.650025E1,9.8043655E1,0E0,0E0,0E0,0E0,0E0,0E0,0E0,0E0,0E0,0E0,0E0,0E0,0E0,0E0,0E0,0E0,0E0,0E0,0E0,0E0,0E0,0E0,0E0,0E0,0E0],"parents":[2147483647,0,0,1,1,2,2,3,3,4,4,5,5,6,6,7,7,8,8,9,9,10,10,11,11,12,12,13,13,14,14,15,15,16,16,17,17,18,18,19,19,22,22,23,23,24,24,25,25,27,27,28,28,29,29],"right_children":[2,4,6,8,10,12,14,16,18,20,22,24,26,28,30,32,34,36,38,40,-1,-1,42,44,46,48,-1,50,52,54,-1,-1,-1,-1,-1,-1,-1,-1,-1,-1,-1,-1,-1,-1,-1,-1,-1,-1,-1,-1,-1,-1,-1,-1,-1],"split_conditions":[3.2E0,2.31E1,1.4595758E0,2.2796E1,1.1857E1,1E-2,4.855E0,1.469E1,3.419E0,3.1776E1,1.6E0,3.9E0,5.3413E1,2.2E0,8.7E0,-7.492E0,1.2979E1,1.9459754E0,1.3321E1,1.0050694E0,-1.7698658E0,-6.1831937E0,1.1475828E0,1.1734021E0,4.958E0,2E-2,-4.733295E0,7.9E0,5.6E0,5.6E0,5.666865E0,1.6980687E0,-9.069983E-1,3.391363E0,-3.958698E-1,-3.7366238E-1,1.5449024E0,-7.926795E0,6.4698166E-1,9.876901E-1,4.916434E-2,-5.2643534E-2,-2.5913615E0,-1.2784758E-1,2.6485124E0,-4.0860754E-1,-2.022363E0,5.515015E0,1.2871635E0,-1.9550164E0,-2.7430546E-1,5.100916E0,-7.476122E-1,-1.4590408E0,-5.930835E0],"split_indices":[5,12,0,9,10,2,18,12,12,18,8,5,9,6,8,19,10,0,12,0,0,0,0,0,12,3,0,5,7,6,0,0,0,0,0,0,0,0,0,0,0,0,0,0,0,0,0,0,0,0,0,0,0,0,0],"split_type":[0,0,0,0,0,0,0,0,0,0,0,0,0,0,0,0,0,0,0,0,0,0,0,0,0,0,0,0,0,0,0,0,0,0,0,0,0,0,0,0,0,0,0,0,0,0,0,0,0,0,0,0,0,0,0],"sum_hessian":[2.13E2,1.06E2,1.07E2,8.1E1,2.5E1,6.3E1,4.4E1,7E1,1.1E1,7E0,1.8E1,2.3E1,4E1,1.7E1,2.7E1,5.8E1,1.2E1,5E0,6E0,5E0,2E0,4E0,1.4E1,6E0,1.7E1,3.8E1,2E0,6E0,1.1E1,2.6E1,1E0,1.6E1,4.2E1,9E0,3E0,4E0,1E0,4E0,2E0,1E0,4E0,2E0,1.2E1,3E0,3E0,1E1,7E0,1.5E1,2.3E1,5E0,1E0,7E0,4E0,2E1,6E0],"tree_param":{"num_deleted":"0","num_feature":"21","num_nodes":"55","size_leaf_vector":"1"}},{"base_weights":[-4.3797553E-2,-4.7413012E-1,8.8697726E-1,3.0160147E-1,-1.3799301E0,3.0129364E0,5.114422E-1,4.671201E-2,2.9516327E0,1.5164109E-1,-2.2190063E0,5.612606E-1,5.35036E0,1.0030226E0,-7.6146376E-1,-4.287291E-1,1.4460799E0,-1.1803943E-1,5.285897E0,7.431165E-1,-1.8435506E0,3.2131264E-1,-2.7085614E0,2.098579E0,-7.2954327E-1,-4.8838022E-1,1.8197877E0,7.192678E-1,-2.1586993E0,1.7651923E-1,-1.2434984E0,3.698434E-1,2.8784246E0,-1.1781911E0,6.247415E-1,-1.672475E0,9.5880425E-1,-2.902312E0,-5.860918E-1,9.503544E-1,-2.4418327E-1,-1.4943807E0,-3.3035603E0,-8.037765E-2,-1.33352E0,-2.6732678E0,2.2069134E-1,2.4350874E0,-3.7255245E-1,-3.6045268E-1,2.1615314E0,-3.0321207E0,-3.0639225E-1],"categories":[],"categories_nodes":[],"categories_segments":[],"categories_sizes":[],"default_left":[0,0,0,0,0,0,0,0,0,0,0,0,0,0,0,0,0,0,0,0,0,0,0,0,0,0,0,0,0,0,0,0,0,0,0,0,0,0,0,0,0,0,0,0,0,0,0,0,0,0,0,0,0],"id":7,"left_children":[1,3,5,7,9,11,13,15,17,19,21,23,-1,25,27,29,31,33,-1,35,37,39,41,-1,43,45,47,49,51,-1,-1,-1,-1,-1,-1,-1,-1,-1,-1,-1,-1,-1,-1,-1,-1,-1,-1,-1,-1,-1,-1,-1,-1],"loss_changes":[8.613256E1,1.0371764E2,5.2713123E1,5.3869347E1,8.774429E1,5.4243996E1,3.7684586E1,4.9863605E1,5.0833603E1,3.086164E1,5.5613724E1,1.34509535E1,0E0,5.328147E1,3.67389E1,2.7845886E1,2.8192242E1,3.8914409E0,0E0,1.2016706E1,6.2521877E0,3.0848866E0,2.1745361E1,0E0,1.4469998E0,2.5402359E1,3.8698326E1,1.4812315E1,1.3598198E1,0E0,0E0,0E0,0E0,0E0,0E0,0E0,0E0,0E0,0E0,0E0,0E0,0E0,0E0,0E0,0E0,0E0,0E0,0E0,0E0,0E0,0E0,0E0,0E0],"parents":[2147483647,0,0,1,1,2,2,3,3,4,4,5,5,6,6,7,7,8,8,9,9,10,10,11,11,13,13,14,14,15,15,16,16,17,17,19,19,20,20,21,21,22,22,24,24,25,25,26,26,27,27,28,28],"right_children":[2,4,6,8,10,12,14,16,18,20,22,24,-1,26,28,30,32,34,-1,36,38,40,42,-1,44,46,48,50,52,-1,-1,-1,-1,-1,-1,-1,-1,-1,-1,-1,-1,-1,-1,-1,-1,-1,-1,-1,-1,-1,-1,-1,-1],"split_conditions":[1.829E1,3.336E0,2.1242E1,8.1E0,3E0,1.085E1,3.994E1,1.2763E1,1.18E0,2.3805E1,-7.9E-1,-1.26E0,5.35036E0,1.324E1,1.2450047E0,1.2464087E0,-2.992E0,8.6350477E-1,5.285897E0,-8.2388E1,1.2134E1,-2.3E-1,2.9E0,2.098579E0,-2.5E-1,-6E-2,4.812E1,0E0,3.9E0,1.7651923E-1,-1.2434984E0,3.698434E-1,2.8784246E0,-1.1781911E0,6.247415E-1,-1.672475E0,9.5880425E-1,-2.902312E0,-5.860918E-1,9.503544E-1,-2.4418327E-1,-1.4943807E0,-3.3035603E0,-8.037765E-2,-1.33352E0,-2.6732678E0,2.2069134E-1,2.4350874E0,-3.7255245E-1,-3.6045268E-1,2.1615314E0,-3.0321207E0,-3.0639225E-1],"split_indices":[20,20,20,5,5,10,17,10,11,17,2,2,0,18,13,13,20,0,0,17,10,1,8,0,3,2,20,3,7,0,0,0,0,0,0,0,0,0,0,0,0,0,0,0,0,0,0,0,0,0,0,0,0],"split_type":[0,0,0,0,0,0,0,0,0,0,0,0,0,0,0,0,0,0,0,0,0,0,0,0,0,0,0,0,0,0,0,0,0,0,0,0,0,0,0,0,0,0,0,0,0,0,0,0,0,0,0,0,0],"sum_hessian":[2.13E2,1.46E2,6.7E1,7.9E1,6.7E1,9E0,5.8E1,7.3E1,6E0,2.4E1,4.3E1,5E0,4E0,4.2E1,1.6E1,5.5E1,1.8E1,3E0,3E0,1.9E1,5E0,7E0,3.6E1,2E0,3E0,1.5E1,2.7E1,8E0,8E0,3.2E1,2.3E1,1.1E1,7E0,1E0,2E0,1E0,1.8E1,2E0,3E0,3E0,4E0,1.3E1,2.3E1,2E0,1E0,3E0,1.2E1,2.1E1,6E0,5E0,3E0,5E0,3E0],"tree_param":{"num_deleted":"0","num_feature":"21","num_nodes":"53","size_leaf_vector":"1"}},{"base_weights":[1.2558049E-2,-8.916507E-1,1.2616251E-1,2.1129116E-1,-1.8419316E0,1.6896493E0,-1.6632672E-2,7.750097E-1,-7.3091674E-1,1.8781424E-1,-2.7660203E0,2.3765526E0,1.4705192E-1,-2.1555874E0,4.5584805E-2,1.205926E0,-3.4182608E-1,4.6978337E-1,-4.6503115E-1,-3.622961E0,-7.8660375E-1,3.0738707E0,3.8527817E-1,-2.0335825E-1,3.7559655E-1,1.2746418E-1,-2.7607162E0,1.6257694E-1,-9.045401E-1,3.0608416E-1,1.3226775E0,-5.8909553E-1,7.135641E-2,1.4442558E-2,5.0074255E-1,4.1026184E-1,-3.0351105E-1,-2.236847E0,-1.1679494E-1],"categories":[],"categories_nodes":[],"categories_segments":[],"categories_sizes":[],"default_left":[0,0,0,0,0,0,0,0,0,0,0,0,0,0,0,0,0,0,0,0,0,0,0,0,0,0,0,0,0,0,0,0,0,0,0,0,0,0,0],"id":8,"left_children":[1,3,5,7,9,11,13,15,-1,17,19,21,23,25,27,29,31,-1,-1,-1,-1,-1,33,-1,-1,-1,-1,35,37,-1,-1,-1,-1,-1,-1,-1,-1,-1,-1],"loss_changes":[2.208738E1,2.5560003E1,4.2687187E1,6.9405894E0,2.492892E1,1.6579124E1,2.3541508E1,4.27096E0,0E0,1.1389226E0,1.2372261E1,1.4055187E1,5.586092E-1,7.285927E0,1.9258665E1,2.0920944E-1,3.5371533E-1,0E0,0E0,0E0,0E0,0E0,1.588893E-1,0E0,0E0,0E0,0E0,1.7903801E1,1.9656057E1,0E0,0E0,0E0,0E0,0E0,0E0,0E0,0E0,0E0,0E0],"parents":[2147483647,0,0,1,1,2,2,3,3,4,4,5,5,6,6,7,7,9,9,10,10,11,11,12,12,13,13,14,14,15,15,16,16,22,22,27,27,28,28],"right_children":[2,4,6,8,10,12,14,16,-1,18,20,22,24,26,28,30,32,-1,-1,-1,-1,-1,34,-1,-1,-1,-1,36,38,-1,-1,-1,-1,-1,-1,-1,-1,-1,-1],"split_conditions":[9.851294E-1,1.691E0,1.0190697E0,2.598E0,2.9E0,4.958E0,9.7074187E-1,7E-2,-7.3091674E-1,-4E-2,7.1E0,3.9E-1,-7.3E-1,1.0293639E0,6.9E0,-7.5E-1,8.6350477E-1,4.6978337E-1,-4.6503115E-1,-3.622961E0,-7.8660375E-1,3.0738707E0,-3.6E-1,-2.0335825E-1,3.7559655E-1,1.2746418E-1,-2.7607162E0,2.2072E1,1.4295535E0,3.0608416E-1,1.3226775E0,-5.8909553E-1,7.135641E-2,1.4442558E-2,5.0074255E-1,4.1026184E-1,-3.0351105E-1,-2.236847E0,-1.1679494E-1],"split_indices":[0,19,0,18,8,17,14,2,0,1,8,3,1,0,6,1,0,0,0,0,0,0,1,0,0,0,0,17,0,0,0,0,0,0,0,0,0,0,0],"split_type":[0,0,0,0,0,0,0,0,0,0,0,0,0,0,0,0,0,0,0,0,0,0,0,0,0,0,0,0,0,0,0,0,0,0,0,0,0,0,0],"sum_hessian":[2.13E2,2.3E1,1.9E2,1.1E1,1.2E1,1.5E1,1.75E2,7E0,4E0,4E0,8E0,1E1,5E0,4E0,1.71E2,5E0,2E0,3E0,1E0,5E0,3E0,7E0,3E0,2E0,3E0,1E0,3E0,1.53E2,1.8E1,1E0,4E0,1E0,1E0,1E0,2E0,1E2,5.3E1,6E0,1.2E1],"tree_param":{"num_deleted":"0","num_feature":"21","num_nodes":"39","size_leaf_vector":"1"}},{"base_weights":[-2.398849E-2,-3.3266026E-1,1.9000447E-1,1.1772549E-1,-7.466587E-1,-2.949768E-1,4.1648984E-1,2.2050448E-1,-2.0944958E0,-1.0107145E0,4.5009482E-1,1.322835E-1,-1.4731671E0,2.3195457E-2,8.1815857E-1,-4.7311977E-1,5.845709E-1,-1.3046046E0,-3.4441775E-1,-3.9937466E-2,1.0751195E0,-2.7993727E-1,1.1721495E0,-1.9599898E0,4.7502384E-1,6.852374E-1,-4.4317463E-1,5.7145023E-1,2.2426186E0,1.0426602E0,-9.3978643E-1,2.2399086E-1,1.2102158E0,-1.9187648E0,-4.273542E-1,-1.0257676E0,-3.643601E-2,1.2565988E-1,-4.389621E-1,4.3923203E-2,-1.8317552E0,1.7676343E0,-1.1615066E-2,-2.2394032E0,-6.513622E-1,4.2824384E-2,6.6471136E-1,1.3993259E-1,1.8417424E0,-5.8880687E-1,9.14819E-1,9.716321E-1,-4.9823552E-1,3.3093262E0,6.946889E-2],"categories":[],"categories_nodes":[],"categories_segments":[],"categories_sizes":[],"default_left":[0,0,0,0,0,0,0,0,0,0,0,0,0,0,0,0,0,0,0,0,0,0,0,0,0,0,0,0,0,0,0,0,0,0,0,0,0,0,0,0,0,0,0,0,0,0,0,0,0,0,0,0,0,0,0],"id":9,"left_children":[1,3,5,7,9,11,13,15,-1,17,19,21,23,25,27,29,31,33,35,37,-1,39,41,43,45,47,49,51,53,-1,-1,-1,-1,-1,-1,-1,-1,-1,-1,-1,-1,-1,-1,-1,-1,-1,-1,-1,-1,-1,-1,-1,-1,-1,-1],"loss_changes":[1.42001E1,1.6502583E1,1.4073898E1,1.022001E1,1.4996973E1,2.0847435E1,1.37163515E1,1.0883747E1,0E0,6.9752693E0,2.8098297E0,1.3625335E1,1.1378557E1,1.4200146E1,1.380164E1,1.1589311E1,6.0312424E0,1.3164619E1,2.679966E0,4.5475745E-1,0E0,1.1657501E1,6.3823166E0,1.8032608E0,2.1040732E-1,1.1704771E1,5.8751183E0,1.6755451E1,1.364501E1,0E0,0E0,0E0,0E0,0E0,0E0,0E0,0E0,0E0,0E0,0E0,0E0,0E0,0E0,0E0,0E0,0E0,0E0,0E0,0E0,0E0,0E0,0E0,0E0,0E0,0E0],"parents":[2147483647,0,0,1,1,2,2,3,3,4,4,5,5,6,6,7,7,9,9,10,10,11,11,12,12,13,13,14,14,15,15,16,16,17,17,18,18,19,19,21,21,22,22,23,23,24,24,25,25,26,26,27,27,28,28],"right_children":[2,4,6,8,10,12,14,16,-1,18,20,22,24,26,28,30,32,34,36,38,-1,40,42,44,46,48,50,52,54,-1,-1,-1,-1,-1,-1,-1,-1,-1,-1,-1,-1,-1,-1,-1,-1,-1,-1,-1,-1,-1,-1,-1,-1,-1,-1],"split_conditions":[2.6E0,4.981E0,3.336E0,1.64E1,2.7103E1,1.0743E1,-1E-2,-5.1E-1,-2.0944958E0,2.7103E1,1.1755475E0,1.8903478E0,8.2E0,-2.3E-1,4.4665E1,-2.9E0,1.5376E1,1.5723665E0,1E-2,3.5E-1,1.0751195E0,1.1085607E0,-9.31E-1,2.1165E1,9.7723305E-1,1.2047E1,2.4448693E0,2.8546E1,2.7E0,1.0426602E0,-9.3978643E-1,2.2399086E-1,1.2102158E0,-1.9187648E0,-4.273542E-1,-1.0257676E0,-3.643601E-2,1.2565988E-1,-4.389621E-1,4.3923203E-2,-1.8317552E0,1.7676343E0,-1.1615066E-2,-2.2394032E0,-6.513622E-1,4.2824384E-2,6.6471136E-1,1.3993259E-1,1.8417424E0,-5.8880687E-1,9.14819E-1,9.716321E-1,-4.9823552E-1,3.3093262E0,6.946889E-2],"split_indices":[5,12,19,8,19,18,3,2,0,12,14,13,7,2,11,6,17,0,3,1,0,13,19,12,0,10,0,10,7,0,0,0,0,0,0,0,0,0,0,0,0,0,0,0,0,0,0,0,0,0,0,0,0,0,0],"split_type":[0,0,0,0,0,0,0,0,0,0,0,0,0,0,0,0,0,0,0,0,0,0,0,0,0,0,0,0,0,0,0,0,0,0,0,0,0,0,0,0,0,0,0,0,0,0,0,0,0,0,0,0,0,0,0],"sum_hessian":[2.13E2,8.7E1,1.26E2,4.2E1,4.5E1,4E1,8.6E1,4.1E1,1E0,3.7E1,8E0,3E1,1E1,4.4E1,4.2E1,1.4E1,2.7E1,2.5E1,1.2E1,5E0,3E0,2.2E1,8E0,8E0,2E0,1.8E1,2.6E1,3.7E1,5E0,3E0,1.1E1,1.8E1,9E0,1.4E1,1.1E1,3E0,9E0,4E0,1E0,1.9E1,3E0,5E0,3E0,6E0,2E0,1E0,1E0,1.3E1,5E0,2.4E1,2E0,2.7E1,1E1,3E0,2E0],"tree_param":{"num_deleted":"0","num_feature":"21","num_nodes":"55","size_leaf_vector":"1"}},{"base_weights":[3.508864E-3,-1.0710641E0,2.9124845E-2,9.7547686E-1,-1.8052492E-2,2.0067282E-1,1.7081463E0,-7.009824E-2,4.8365408E-1,3.3670178E-1,4.5982894E-2,-1.7655481E-1,1.0017909E-1,-1.373147E-1,8.581621E-1,2.081032E-3,5.6589838E-2,3.1594568E-1,-2.6716372E-1,3.2741785E-1,-2.0327151E-1,3.0497685E-1,-3.3724138E-1,1.1209382E0,-3.004787E-1],"categories":[],"categories_nodes":[],"categories_segments":[],"categories_sizes":[],"default_left":[0,0,0,0,0,0,0,0,0,0,0,0,0,0,0,0,0,0,0,0,0,0,0,0,0],"id":10,"left_children":[1,-1,3,5,7,9,-1,11,13,-1,15,17,19,21,23,-1,-1,-1,-1,-1,-1,-1,-1,-1,-1],"loss_changes":[5.9113913E0,0E0,9.402921E0,5.314886E0,5.2782187E0,1.0694447E-1,0E0,3.335718E0,4.5436444E0,0E0,1.1581844E-3,5.1265383E0,4.963654E0,8.105805E-1,3.99858E0,0E0,0E0,0E0,0E0,0E0,0E0,0E0,0E0,0E0,0E0],"parents":[2147483647,0,0,2,2,3,3,4,4,5,5,7,7,8,8,10,10,11,11,12,12,13,13,14,14],"right_children":[2,-1,4,6,8,10,-1,12,14,-1,16,18,20,22,24,-1,-1,-1,-1,-1,-1,-1,-1,-1,-1],"split_conditions":[-3.8561E1,-1.0710641E0,-2.2501E1,1.4E0,4.2072E1,1.2076195E0,1.7081463E0,1.9E-1,1.1857E1,3.3670178E-1,1.4604473E0,-3.605E0,5.963E0,1.2004002E0,5E-2,2.081032E-3,5.6589838E-2,3.1594568E-1,-2.6716372E-1,3.2741785E-1,-2.0327151E-1,3.0497685E-1,-3.3724138E-1,1.1209382E0,-3.004787E-1],"split_indices":[11,0,10,8,20,0,0,3,17,0,0,10,18,0,4,0,0,0,0,0,0,0,0,0,0],"split_type":[0,0,0,0,0,0,0,0,0,0,0,0,0,0,0,0,0,0,0,0,0,0,0,0,0],"sum_hessian":[2.13E2,4E0,2.09E2,9E0,2E2,5E0,4E0,1.82E2,1.8E1,2E0,3E0,1.12E2,7E1,7E0,1.1E1,1E0,2E0,1.7E1,9.5E1,4E1,3E1,2E0,5E0,9E0,2E0],"tree_param":{"num_deleted":"0","num_feature":"21","num_nodes":"25","size_leaf_vector":"1"}},{"base_weights":[9.409268E-3,8.917197E-2,-2.0648994E-1,1.9471255E-1,-1.338087E-1,-5.1305276E-1,5.8312755E-2,1.7131558E-2,4.483596E-1,-2.1303229E-1,8.4782666E-1,-7.1178186E-1,4.665172E-2,1.9851041E-1,-1.359768E0,2.174484E-1,-4.339379E-1,3.585872E-2,7.901996E-1,-1.2866834E-1,-1.1063688E0,1.0431182E0,1.2597597E-1,-3.281619E-1,-1.1430773E0,-1.2139598E-1,3.705299E-1,-1.7205253E-1,5.812102E-1,3.4564516E-1,-2.0930935E-1,-5.640045E-1,4.8777398E-1,1.983032E-1,-7.016061E-1,1.0707587E0,2.8934103E-1,8.245055E-1,-1.924091E-1,-6.020282E-1,1.7365654E-1,-3.7756476E-1,-1.3064287E0,-0E0,-2.4410541E-1,-5.66463E-1,5.781252E-2,9.748095E-1,-6.447586E-3],"categories":[],"categories_nodes":[],"categories_segments":[],"categories_sizes":[],"default_left":[0,0,0,0,0,0,0,0,0,0,0,0,0,0,0,0,0,0,0,0,0,0,0,0,0,0,0,0,0,0,0,0,0,0,0,0,0,0,0,0,0,0,0,0,0,0,0,0,0],"id":11,"left_children":[1,3,5,7,9,11,13,15,17,19,21,23,25,27,-1,29,31,33,35,37,-1,-1,-1,39,41,43,-1,45,47,-1,-1,-1,-1,-1,-1,-1,-1,-1,-1,-1,-1,-1,-1,-1,-1,-1,-1,-1,-1],"loss_changes":[3.7024705E0,3.7214239E0,4.7428265E0,4.807255E0,4.1404696E0,3.0430565E0,6.6202865E0,5.87503E0,6.1678123E0,3.4628348E0,4.2078686E-1,2.9192438E0,4.8288804E-1,4.3585205E0,0E0,2.5356135E0,2.6735468E0,2.6498365E0,3.049076E0,2.886343E0,0E0,0E0,0E0,1.7580037E0,6.153259E-1,9.034045E-2,0E0,1.4884142E0,3.4854946E0,0E0,0E0,0E0,0E0,0E0,0E0,0E0,0E0,0E0,0E0,0E0,0E0,0E0,0E0,0E0,0E0,0E0,0E0,0E0,0E0],"parents":[2147483647,0,0,1,1,2,2,3,3,4,4,5,5,6,6,7,7,8,8,9,9,10,10,11,11,12,12,13,13,15,15,16,16,17,17,18,18,19,19,23,23,24,24,25,25,27,27,28,28],"right_children":[2,4,6,8,10,12,14,16,18,20,22,24,26,28,-1,30,32,34,36,38,-1,-1,-1,40,42,44,-1,46,48,-1,-1,-1,-1,-1,-1,-1,-1,-1,-1,-1,-1,-1,-1,-1,-1,-1,-1,-1,-1],"split_conditions":[4.8E0,4.4E0,7E0,1.3081095E0,4.2E0,2.1165E1,1.28E0,1.2116834E0,2.1E0,2.5303907E0,2E-2,4.855E0,1.4376957E0,1.1380324E0,-1.359768E0,4.5E0,7E-2,1.2578E1,2.3805E1,-2.1494E1,-1.1063688E0,1.0431182E0,1.2597597E-1,3.1E0,1.0013033E0,3.9E0,3.705299E-1,-1.31E-1,2.2299378E0,3.4564516E-1,-2.0930935E-1,-5.640045E-1,4.8777398E-1,1.983032E-1,-7.016061E-1,1.0707587E0,2.8934103E-1,8.245055E-1,-1.924091E-1,-6.020282E-1,1.7365654E-1,-3.7756476E-1,-1.3064287E0,-0E0,-2.4410541E-1,-5.66463E-1,5.781252E-2,9.748095E-1,-6.447586E-3],"split_indices":[8,5,8,15,8,19,2,13,5,13,1,19,0,0,0,6,2,12,19,17,0,0,0,5,0,7,0,17,16,0,0,0,0,0,0,0,0,0,0,0,0,0,0,0,0,0,0,0,0],"split_type":[0,0,0,0,0,0,0,0,0,0,0,0,0,0,0,0,0,0,0,0,0,0,0,0,0,0,0,0,0,0,0,0,0,0,0,0,0,0,0,0,0,0,0,0,0,0,0,0,0],"sum_hessian":[2.13E2,1.56E2,5.7E1,1.06E2,5E1,2.6E1,3.1E1,6.3E1,4.3E1,4.7E1,3E0,1.9E1,7E0,2.9E1,2E0,4.4E1,1.9E1,2E1,2.3E1,4.4E1,3E0,2E0,1E0,1.1E1,8E0,5E0,2E0,1.5E1,1.4E1,3.4E1,1E1,1.7E1,2E0,1.7E1,3E0,1.4E1,9E0,2E0,4.2E1,7E0,4E0,2E0,6E0,3E0,2E0,5E0,1E1,8E0,6E0],"tree_param":{"num_deleted":"0","num_feature":"21","num_nodes":"49","size_leaf_vector":"1"}},{"base_weights":[-5.8893743E-3,-5.5121854E-2,1.9680367E-1,-2.6539858E-2,-3.7712166E-1,1.0014552E-1,7.58395E-1,1.9909749E-2,-2.2881848E-1,-5.353087E-1,-1.4103334E-1,4.0026355E-1,-1.7446797E-1,-3.1463911E-3,7.552288E-1,-4.6752796E-1,8.647813E-3,1.4191094E-1,-2.8459325E-1,-2.708941E-1,6.120867E-1,2.5382477E-1,-2.6556814E-1,2.0099814E-1,-5.9808772E-2,-7.3236996E-1,-2.0848107E-1,2.1101205E-1,-1.3287194E-1,-3.8304272E-1,-8.794601E-2,-2.4831887E-2,-3.2370168E-1,2.6924136E-1,1.3993897E0,4.2568123E-1,5.1312204E-2,-6.9131434E-2,-3.951607E-1],"categories":[],"categories_nodes":[],"categories_segments":[],"categories_sizes":[],"default_left":[0,0,0,0,0,0,0,0,0,0,0,0,0,0,0,0,0,0,0,0,0,0,0,0,0,0,0,0,0,0,0,0,0,0,0,0,0,0,0],"id":12,"left_children":[1,3,5,7,9,11,-1,13,15,-1,17,19,21,23,-1,25,27,-1,29,31,33,35,37,-1,-1,-1,-1,-1,-1,-1,-1,-1,-1,-1,-1,-1,-1,-1,-1],"loss_changes":[2.1449547E0,1.5781424E0,2.195325E0,1.509967E0,4.405861E-1,3.1215E0,0E0,2.2308214E0,1.7091955E0,0E0,3.2614994E-1,2.728224E0,8.478761E-1,1.491226E0,0E0,8.670037E-1,4.8703557E-1,0E0,5.840209E-2,5.3446293E-2,3.3854647E0,1.1259982E-1,4.008037E-1,0E0,0E0,0E0,0E0,0E0,0E0,0E0,0E0,0E0,0E0,0E0,0E0,0E0,0E0,0E0,0E0],"parents":[2147483647,0,0,1,1,2,2,3,3,4,4,5,5,7,7,8,8,10,10,11,11,12,12,13,13,15,15,16,16,18,18,19,19,20,20,21,21,22,22],"right_children":[2,4,6,8,10,12,-1,14,16,-1,18,20,22,24,-1,26,28,-1,30,32,34,36,38,-1,-1,-1,-1,-1,-1,-1,-1,-1,-1,-1,-1,-1,-1,-1,-1],"split_conditions":[2.85E1,9.1E-1,5.6E0,1.8196E1,8.668E0,2.7103E1,7.58395E-1,1.7116E1,3.5E0,-5.353087E-1,-1.9E0,8E-1,1.1437931E0,-4E-1,7.552288E-1,1.1553E1,1.2139E1,1.4191094E-1,3.4E-1,-3.05E0,3.1294E1,-2.2E-1,-1.2E-1,2.0099814E-1,-5.9808772E-2,-7.3236996E-1,-2.0848107E-1,2.1101205E-1,-1.3287194E-1,-3.8304272E-1,-8.794601E-2,-2.4831887E-2,-3.2370168E-1,2.6924136E-1,1.3993897E0,4.2568123E-1,5.1312204E-2,-6.9131434E-2,-3.951607E-1],"split_indices":[18,4,6,18,20,19,0,18,7,0,7,7,16,1,0,11,9,0,3,1,20,1,4,0,0,0,0,0,0,0,0,0,0,0,0,0,0,0,0],"split_type":[0,0,0,0,0,0,0,0,0,0,0,0,0,0,0,0,0,0,0,0,0,0,0,0,0,0,0,0,0,0,0,0,0,0,0,0,0,0,0],"sum_hessian":[2.13E2,1.72E2,4.1E1,1.59E2,1.3E1,3.6E1,5E0,1.3E2,2.9E1,7E0,6E0,1.7E1,1.9E1,1.27E2,3E0,1.4E1,1.5E1,2E0,4E0,4E0,1.3E1,3E0,1.6E1,2.7E1,1E2,6E0,8E0,6E0,9E0,2E0,2E0,1E0,3E0,1E1,3E0,1E0,2E0,7E0,9E0],"tree_param":{"num_deleted":"0","num_feature":"21","num_nodes":"39","size_leaf_vector":"1"}},{"base_weights":[5.7500433E-3,3.257952E-2,-1.809052E-1,-3.403335E-3,2.3032701E-1,1.02728866E-1,-3.543799E-1,1.8163742E-1,-5.299375E-2,9.982366E-3,3.6387193E-1,3.2605052E-1,1.5762884E-2,-4.4412592E-1,4.5826193E-2,1.969909E-2,7.042246E-1,-2.3636686E-2,-3.315292E-1,1.0766043E-1,-2.0978886E-1,5.3209805E-1,8.5827075E-2,1.4003928E-1,-3.8321696E-2,-1.4103259E-1,-6.525668E-1,7.365648E-2,-1.3832326E-2,5.428164E-2,-4.3472362E-1,1.5089732E-1,1.0040416E0,-9.178029E-2,1.3640366E-1,-6.111035E-1,-1.1410412E-1,-2.0265656E-2,1.485344E-1,6.5292376E-1,1.5492207E-1,-2.7745217E-1,2.5482884E-1,2.8081097E-2,-7.249904E-2,-1.6784487E-2,-2.2752255E-1,1.2728806E-2,-7.5085604E-1],"categories":[],"categories_nodes":[],"categories_segments":[],"categories_sizes":[],"default_left":[0,0,0,0,0,0,0,0,0,0,0,0,0,0,0,0,0,0,0,0,0,0,0,0,0,0,0,0,0,0,0,0,0,0,0,0,0,0,0,0,0,0,0,0,0,0,0,0,0],"id":13,"left_children":[1,3,5,7,9,11,13,15,17,19,21,-1,23,25,27,29,31,33,35,37,-1,39,41,-1,43,45,47,-1,-1,-1,-1,-1,-1,-1,-1,-1,-1,-1,-1,-1,-1,-1,-1,-1,-1,-1,-1,-1,-1],"loss_changes":[1.0760932E0,1.3407707E0,1.3674116E0,1.4765388E0,8.459805E-1,2.0507762E-1,6.3492274E-1,2.8562028E0,1.0270889E0,2.791666E-1,7.900915E-1,0E0,6.687666E-2,7.8450966E-1,8.258336E-3,4.441007E-1,1.1641185E0,1.2771373E0,6.5245605E-1,5.1352456E-2,0E0,3.9206743E-1,5.616353E-1,0E0,1.8366322E-2,6.8961576E-2,5.400698E-1,0E0,0E0,0E0,0E0,0E0,0E0,0E0,0E0,0E0,0E0,0E0,0E0,0E0,0E0,0E0,0E0,0E0,0E0,0E0,0E0,0E0,0E0],"parents":[2147483647,0,0,1,1,2,2,3,3,4,4,5,5,6,6,7,7,8,8,9,9,10,10,12,12,13,13,14,14,15,15,16,16,17,17,18,18,19,19,21,21,22,22,24,24,25,25,26,26],"right_children":[2,4,6,8,10,12,14,16,18,20,22,-1,24,26,28,30,32,34,36,38,-1,40,42,-1,44,46,48,-1,-1,-1,-1,-1,-1,-1,-1,-1,-1,-1,-1,-1,-1,-1,-1,-1,-1,-1,-1,-1,-1],"split_conditions":[2.408993E0,2.2545025E0,3.327E0,-1.547E0,1.085E1,4E-1,4.4E-1,-3.163E0,1.9482837E0,1.9E-1,1.6825E1,3.2605052E-1,2.5E0,1.2209E1,2.5328617E0,9.5E0,4E-1,1.3031337E0,2.2299378E0,2.2192752E0,-2.0978886E-1,2.0559E1,1.5441E1,1.4003928E-1,2.454996E0,2.4761214E0,-8.8E-1,7.365648E-2,-1.3832326E-2,5.428164E-2,-4.3472362E-1,1.5089732E-1,1.0040416E0,-9.178029E-2,1.3640366E-1,-6.111035E-1,-1.1410412E-1,-2.0265656E-2,1.485344E-1,6.5292376E-1,1.5492207E-1,-2.7745217E-1,2.5482884E-1,2.8081097E-2,-7.249904E-2,-1.6784487E-2,-2.2752255E-1,1.2728806E-2,-7.5085604E-1],"split_indices":[0,15,20,11,11,5,1,11,13,1,19,0,7,9,0,7,8,15,14,13,0,12,9,0,0,0,1,0,0,0,0,0,0,0,0,0,0,0,0,0,0,0,0,0,0,0,0,0,0],"split_type":[0,0,0,0,0,0,0,0,0,0,0,0,0,0,0,0,0,0,0,0,0,0,0,0,0,0,0,0,0,0,0,0,0,0,0,0,0,0,0,0,0,0,0,0,0,0,0,0,0],"sum_hessian":[2.13E2,1.87E2,2.6E1,1.59E2,2.8E1,1E1,1.6E1,3.3E1,1.26E2,1.1E1,1.7E1,2E0,8E0,1.3E1,3E0,2.6E1,7E0,1.15E2,1.1E1,8E0,3E0,1E1,7E0,2E0,6E0,6E0,7E0,2E0,1E0,2.5E1,1E0,3E0,4E0,8.1E1,3.4E1,4E0,7E0,2E0,6E0,7E0,3E0,2E0,5E0,2E0,4E0,3E0,3E0,1E0,6E0],"tree_param":{"num_deleted":"0","num_feature":"21","num_nodes":"49","size_leaf_vector":"1"}},{"base_weights":[1.3864791E-3,5.6799006E-2,-3.92097E-2,4.5341095E-1,3.323741E-2,-2.0245303E-1,-5.773935E-3,-8.789263E-2,1.0203962E-1,-2.9490453E-1,7.615979E-2,2.4699165E-1,-4.153675E-2,-8.053222E-3,-2.61734E-1,-3.276717E-3,1.8740043E-1,-1.19664006E-1,-4.5393705E-1,1.6157818E-1,-5.9784647E-2,4.174502E-1,3.9820023E-2,-3.9208147E-1,-1.24047715E-2,1.2180408E-1,-1.0094749E-1,-3.316087E-1,-7.151979E-2,1.2906978E-1,-1.9639191E-1,2.7910796E-1,3.818172E-2,-2.1403205E-1,4.9304064E-2,-2.0186192E-1,-5.6280977E-1,-3.5639955E-3,-8.111297E-2,1.3505483E-1,5.013974E-1,-1.4020482E-1,1.4187093E-1,-3.4439143E-2,-6.492034E-1,-3.0250212E-2,1.9188666E-1],"categories":[],"categories_nodes":[],"categories_segments":[],"categories_sizes":[],"default_left":[0,0,0,0,0,0,0,0,0,0,0,0,0,0,0,0,0,0,0,0,0,0,0,0,0,0,0,0,0,0,0,0,0,0,0,0,0,0,0,0,0,0,0,0,0,0,0],"id":14,"left_children":[1,3,5,-1,7,9,11,13,15,17,19,21,23,25,27,29,31,33,35,-1,37,39,41,43,45,-1,-1,-1,-1,-1,-1,-1,-1,-1,-1,-1,-1,-1,-1,-1,-1,-1,-1,-1,-1,-1,-1],"loss_changes":[4.8380384E-1,8.30441E-1,6.7356133E-1,0E0,7.341693E-1,5.655689E-1,9.483239E-1,4.3933496E-1,5.058891E-1,3.858471E-1,8.035076E-2,4.3788862E-1,9.3060106E-1,2.8953627E-1,1.0516375E-1,6.905325E-1,4.1038918E-1,1.5570663E-1,9.8296285E-2,0E0,2.4614213E-3,9.186351E-2,1.4850955E-1,6.1450946E-1,3.1771594E-1,0E0,0E0,0E0,0E0,0E0,0E0,0E0,0E0,0E0,0E0,0E0,0E0,0E0,0E0,0E0,0E0,0E0,0E0,0E0,0E0,0E0,0E0],"parents":[2147483647,0,0,1,1,2,2,4,4,5,5,6,6,7,7,8,8,9,9,10,10,11,11,12,12,13,13,14,14,15,15,16,16,17,17,18,18,20,20,21,21,22,22,23,23,24,24],"right_children":[2,4,6,-1,8,10,12,14,16,18,20,22,24,26,28,30,32,34,36,-1,38,40,42,44,46,-1,-1,-1,-1,-1,-1,-1,-1,-1,-1,-1,-1,-1,-1,-1,-1,-1,-1,-1,-1,-1,-1],"split_conditions":[1.2076195E0,-2.2501E1,1.3009657E0,4.5341095E-1,1.691E0,5.8707E1,1.4376957E0,3.4E0,2.9E0,1.2464087E0,1.2076195E0,3E-2,1.4604473E0,1.18E0,4.7E0,1.1613433E0,9.135E0,1.2401968E0,2.847E0,1.6157818E-1,1.2806218E0,1.3625481E0,9.362E0,1.4604473E0,3.7562E1,1.2180408E-1,-1.0094749E-1,-3.316087E-1,-7.151979E-2,1.2906978E-1,-1.9639191E-1,2.7910796E-1,3.818172E-2,-2.1403205E-1,4.9304064E-2,-2.0186192E-1,-5.6280977E-1,-3.5639955E-3,-8.111297E-2,1.3505483E-1,5.013974E-1,-1.4020482E-1,1.4187093E-1,-3.4439143E-2,-6.492034E-1,-3.0250212E-2,1.9188666E-1],"split_indices":[16,19,15,0,20,17,16,5,7,16,0,1,15,18,6,0,17,13,20,0,0,15,20,16,18,0,0,0,0,0,0,0,0,0,0,0,0,0,0,0,0,0,0,0,0,0,0],"split_type":[0,0,0,0,0,0,0,0,0,0,0,0,0,0,0,0,0,0,0,0,0,0,0,0,0,0,0,0,0,0,0,0,0,0,0,0,0,0,0,0,0,0,0,0,0,0,0],"sum_hessian":[2.13E2,9E1,1.23E2,4E0,8.6E1,2E1,1.03E2,3.1E1,5.5E1,1.5E1,5E0,1.2E1,9.1E1,2.2E1,9E0,2.5E1,3E1,8E0,7E0,3E0,2E0,6E0,6E0,6E0,8.5E1,9E0,1.3E1,6E0,3E0,1.5E1,1E1,1.8E1,1.2E1,5E0,3E0,3E0,4E0,1E0,1E0,2E0,4E0,2E0,4E0,3E0,3E0,7.9E1,6E0],"tree_param":{"num_deleted":"0","num_feature":"21","num_nodes":"47","size_leaf_vector":"1"}},{"base_weights":[-1.9871015E-3,1.3515755E-2,-7.9293326E-2,-1.2383295E-2,7.719965E-2,4.7610886E-2,-1.3743562E-1,3.6110584E-2,-4.3045454E-2,1.63369E-1,1.792603E-2,2.0921469E-1,-4.6313396E-3,5.1104877E-2,-1.7625785E-1,6.657648E-2,-9.141066E-2,-1.01709E-1,1.08178845E-2,2.5288066E-1,7.432852E-2,1.0153165E-1,-2.0590295E-1,-6.0493562E-2,4.1025735E-2,6.2276628E-2,-0E0,2.9152868E-2,-2.2689289E-1,-4.967337E-3,1.4244586E-1,5.3905685E-2,-2.4950814E-1,-1.446447E-1,5.1599897E-2,1.0160661E-1,-2.435252E-2,1.3628298E-1,3.9120644E-1,-3.8100954E-2,1.0162451E-1,5.493475E-2,3.1828243E-1,-1.5797803E-2,-3.528275E-1,-6.950104E-2,-7.231827E-3,-0E0,5.9880342E-2,1.03821516E-1,-1.2976086E-1,-2.9042813E-1,-1.4322708E-2],"categories":[],"categories_nodes":[],"categories_segments":[],"categories_sizes":[],"default_left":[0,0,0,0,0,0,0,0,0,0,0,0,0,0,0,0,0,0,0,0,0,0,0,0,0,0,0,0,0,0,0,0,0,0,0,0,0,0,0,0,0,0,0,0,0,0,0,0,0,0,0,0,0],"id":15,"left_children":[1,3,5,7,9,11,13,15,17,19,21,-1,23,25,27,29,31,33,35,37,39,41,43,45,47,-1,-1,49,51,-1,-1,-1,-1,-1,-1,-1,-1,-1,-1,-1,-1,-1,-1,-1,-1,-1,-1,-1,-1,-1,-1,-1,-1],"loss_changes":[2.582015E-1,2.9683822E-1,2.7306777E-1,1.9195043E-1,2.608521E-1,1.0432528E-1,1.9324821E-1,2.0008993E-1,2.5163454E-1,1.4530504E-1,6.186895E-1,0E0,2.8181529E-2,2.454971E-3,2.2701257E-1,2.2462976E-1,2.451474E-1,2.585263E-1,1.3735612E-1,1.0269499E-1,4.133372E-2,2.2118099E-1,2.4211982E-1,1.1288207E-3,4.243955E-3,0E0,0E0,7.2541945E-2,2.2238958E-1,0E0,0E0,0E0,0E0,0E0,0E0,0E0,0E0,0E0,0E0,0E0,0E0,0E0,0E0,0E0,0E0,0E0,0E0,0E0,0E0,0E0,0E0,0E0,0E0],"parents":[2147483647,0,0,1,1,2,2,3,3,4,4,5,5,6,6,7,7,8,8,9,9,10,10,12,12,13,13,14,14,15,15,16,16,17,17,18,18,19,19,20,20,21,21,22,22,23,23,24,24,27,27,28,28],"right_children":[2,4,6,8,10,12,14,16,18,20,22,-1,24,26,28,30,32,34,36,38,40,42,44,46,48,-1,-1,50,52,-1,-1,-1,-1,-1,-1,-1,-1,-1,-1,-1,-1,-1,-1,-1,-1,-1,-1,-1,-1,-1,-1,-1,-1],"split_conditions":[6.8E0,2.0559E1,1.691E0,-5.75E-1,1.3312E1,8.9077294E-1,2.66E-1,1.517E1,3E0,2.3369E1,5E-2,2.0921469E-1,-3.163E0,1.2684269E0,-7.4E-1,1.2621561E0,1.6E0,3.7E-1,3.5E0,1E-2,1E-2,6.8E0,1.2139E1,1.2908025E0,2.1E0,6.2276628E-2,-0E0,1.5723665E0,8.2E0,-4.967337E-3,1.4244586E-1,5.3905685E-2,-2.4950814E-1,-1.446447E-1,5.1599897E-2,1.0160661E-1,-2.435252E-2,1.3628298E-1,3.9120644E-1,-3.8100954E-2,1.0162451E-1,5.493475E-2,3.1828243E-1,-1.5797803E-2,-3.528275E-1,-6.950104E-2,-7.231827E-3,-0E0,5.9880342E-2,1.03821516E-1,-1.2976086E-1,-2.9042813E-1,-1.4322708E-2],"split_indices":[7,10,19,10,18,15,9,12,7,12,4,0,17,0,4,13,7,3,7,4,1,5,9,0,5,0,0,0,8,0,0,0,0,0,0,0,0,0,0,0,0,0,0,0,0,0,0,0,0,0,0,0,0],"split_type":[0,0,0,0,0,0,0,0,0,0,0,0,0,0,0,0,0,0,0,0,0,0,0,0,0,0,0,0,0,0,0,0,0,0,0,0,0,0,0,0,0,0,0,0,0,0,0,0,0,0,0,0,0],"sum_hessian":[2.13E2,1.78E2,3.5E1,1.27E2,5.1E1,1.1E1,2.4E1,4.9E1,7.8E1,2E1,3.1E1,2E0,9E0,4E0,2E1,4E1,9E0,3.7E1,4.1E1,9E0,1.1E1,2.3E1,8E0,4E0,5E0,3E0,1E0,4E0,1.6E1,2.1E1,1.9E1,5E0,4E0,2.9E1,8E0,1.1E1,3E1,6E0,3E0,2E0,9E0,2E1,3E0,4E0,4E0,3E0,1E0,2E0,3E0,3E0,1E0,1.2E1,4E0],"tree_param":{"num_deleted":"0","num_feature":"21","num_nodes":"53","size_leaf_vector":"1"}},{"base_weights":[2.143383E-3,2.391049E-1,-2.3115433E-3,-2.5710817E-2,1.8120667E-2,-5.7756463E-3,-9.9004515E-2,-9.6033625E-2,3.402106E-2,5.1014375E-2,-3.3197217E-2,-1.484319E-1,1.9626241E-2,-1.2627694E-1,8.643923E-3,5.4878682E-2,-5.1653355E-2,8.703426E-2,-2.558255E-2,-6.6772416E-2,2.2267262E-2,-2.050693E-1,-2.7630923E-2,-3.8169917E-2,7.501584E-2,-1.4565338E-1,-2.2722002E-2,4.652635E-2,-4.750168E-2,9.252539E-2,7.338662E-3,2.7044192E-2,-8.802689E-2],"categories":[],"categories_nodes":[],"categories_segments":[],"categories_sizes":[],"default_left":[0,0,0,0,0,0,0,0,0,0,0,0,0,0,0,0,0,0,0,0,0,0,0,0,0,0,0,0,0,0,0,0,0],"id":16,"left_children":[1,-1,3,5,7,9,11,13,15,17,19,21,23,25,27,29,31,-1,-1,-1,-1,-1,-1,-1,-1,-1,-1,-1,-1,-1,-1,-1,-1],"loss_changes":[2.2882889E-1,0E0,1.0142066E-1,1.4303151E-1,2.0775315E-1,1.2453982E-1,1.27337E-1,4.6589002E-2,1.8156335E-1,7.45754E-2,1.0249238E-1,9.463453E-2,2.5640951E-2,1.7078504E-2,1.0708053E-2,1.4329012E-1,6.0240604E-2,0E0,0E0,0E0,0E0,0E0,0E0,0E0,0E0,0E0,0E0,0E0,0E0,0E0,0E0,0E0,0E0],"parents":[2147483647,0,0,2,2,3,3,4,4,5,5,6,6,7,7,8,8,9,9,10,10,11,11,12,12,13,13,14,14,15,15,16,16],"right_children":[2,-1,4,6,8,10,12,14,16,18,20,22,24,26,28,30,32,-1,-1,-1,-1,-1,-1,-1,-1,-1,-1,-1,-1,-1,-1,-1,-1],"split_conditions":[8.579666E-1,2.391049E-1,8.889E0,1.5295E1,0E0,1.6E0,3.5E0,2.2383583E0,5.6E0,8.889E0,5.337E0,3.3E0,2.847E0,8.884E0,2.3918078E0,2.6147E1,3.7E0,8.703426E-2,-2.558255E-2,-6.6772416E-2,2.2267262E-2,-2.050693E-1,-2.7630923E-2,-3.8169917E-2,7.501584E-2,-1.4565338E-1,-2.2722002E-2,4.652635E-2,-4.750168E-2,9.252539E-2,7.338662E-3,2.7044192E-2,-8.802689E-2],"split_indices":[14,0,19,9,5,5,7,13,6,12,12,8,19,12,0,19,5,0,0,0,0,0,0,0,0,0,0,0,0,0,0,0,0],"split_type":[0,0,0,0,0,0,0,0,0,0,0,0,0,0,0,0,0,0,0,0,0,0,0,0,0,0,0,0,0,0,0,0,0],"sum_hessian":[2.13E2,3E0,2.1E2,9.8E1,1.12E2,7.8E1,2E1,1.3E1,9.9E1,2.5E1,5.3E1,1.4E1,6E0,1E1,3E0,8E1,1.9E1,1.7E1,8E0,3.3E1,2E1,9E0,5E0,3E0,3E0,8E0,2E0,2E0,1E0,4.4E1,3.6E1,6E0,1.3E1],"tree_param":{"num_deleted":"0","num_feature":"21","num_nodes":"33","size_leaf_vector":"1"}},{"base_weights":[-3.2843984E-4,7.234044E-2,-7.4222167E-3,8.370563E-2,-6.1116453E-2,-1.025698E-1,-2.2409433E-3,1.1815327E-1,4.3332182E-2,4.0004697E-2,-1.7081669E-1,1.0231887E-1,-6.32756E-3,5.3010926E-2,-1.6888257E-2,-0E0,8.38493E-2,-2.3773062E-1,-5.869859E-2,-4.1741963E-2,1.3495266E-1,7.465353E-2,-1.2065475E-2,5.9482556E-2,1.6906815E-2,-1.52353635E-2,1.139545E-2,2.5648244E-3,1.9800538E-1,1.3315678E-1,-4.3758536E-3,-2.6208295E-2,2.421853E-2],"categories":[],"categories_nodes":[],"categories_segments":[],"categories_sizes":[],"default_left":[0,0,0,0,0,0,0,0,0,0,0,0,0,0,0,0,0,0,0,0,0,0,0,0,0,0,0,0,0,0,0,0,0],"id":17,"left_children":[1,3,5,7,-1,9,11,-1,13,15,17,19,21,23,-1,25,-1,-1,-1,-1,27,29,31,-1,-1,-1,-1,-1,-1,-1,-1,-1,-1],"loss_changes":[1.10204056E-1,3.4160167E-2,9.534723E-2,1.8299162E-2,0E0,1.0544425E-1,7.959185E-2,0E0,7.08507E-3,7.659909E-3,3.5597086E-2,3.9474063E-2,8.437877E-2,3.333185E-4,0E0,7.2394515E-4,0E0,0E0,0E0,0E0,4.757092E-2,5.7352185E-2,8.7891504E-2,0E0,0E0,0E0,0E0,0E0,0E0,0E0,0E0,0E0,0E0],"parents":[2147483647,0,0,1,1,2,2,3,3,5,5,6,6,8,8,9,9,10,10,11,11,12,12,13,13,15,15,20,20,21,21,22,22],"right_children":[2,4,6,8,-1,10,12,-1,14,16,18,20,22,24,-1,26,-1,-1,-1,-1,28,30,32,-1,-1,-1,-1,-1,-1,-1,-1,-1,-1],"split_conditions":[9.0907043E-1,4.2E-1,9.7944814E-1,5E-2,-6.1116453E-2,1.5E0,-4.2E0,1.1815327E-1,2.5E-1,9.147257E-1,1.9E-1,1.2902924E0,9.947257E-1,9.1E0,-1.6888257E-2,8.9077294E-1,8.38493E-2,-2.3773062E-1,-5.869859E-2,-4.1741963E-2,-2.85E0,3.336E0,2.4232E1,5.9482556E-2,1.6906815E-2,-1.52353635E-2,1.139545E-2,2.5648244E-3,1.9800538E-1,1.3315678E-1,-4.3758536E-3,-2.6208295E-2,2.421853E-2],"split_indices":[16,2,0,4,0,5,8,0,1,0,4,0,14,6,0,0,0,0,0,0,4,20,17,0,0,0,0,0,0,0,0,0,0],"split_type":[0,0,0,0,0,0,0,0,0,0,0,0,0,0,0,0,0,0,0,0,0,0,0,0,0,0,0,0,0,0,0,0,0],"sum_hessian":[2.13E2,1.8E1,1.95E2,1.7E1,1E0,9E0,1.86E2,8E0,9E0,3E0,6E0,6E0,1.8E2,8E0,1E0,2E0,1E0,3E0,3E0,1E0,5E0,1.1E1,1.69E2,6E0,2E0,1E0,1E0,2E0,3E0,6E0,5E0,1.22E2,4.7E1],"tree_param":{"num_deleted":"0","num_feature":"21","num_nodes":"33","size_leaf_vector":"1"}},{"base_weights":[8.679522E-4,-1.1095601E-1,3.0311176E-3,-2.6968595E-2,-1.2662895E-1,8.9252494E-2,-7.5717573E-4,-0E0,1.0083118E-1,-7.5261705E-3,5.4820742E-2,7.003422E-3,1.1180609E-1,-1.9405091E-4,-6.989151E-2,1.229873E-2,1.0361729E-1,-2.5126785E-2,1.1847046E-2,-1.6983311E-1,-2.1352861E-2,5.7389773E-2,-2.1806894E-2,1.63261E-1,5.3304125E-2],"categories":[],"categories_nodes":[],"categories_segments":[],"categories_sizes":[],"default_left":[0,0,0,0,0,0,0,0,0,0,0,0,0,0,0,0,0,0,0,0,0,0,0,0,0],"id":18,"left_children":[1,3,5,-1,-1,7,9,-1,11,13,15,-1,-1,17,19,21,23,-1,-1,-1,-1,-1,-1,-1,-1],"loss_changes":[5.102233E-2,3.1434E-4,6.9871865E-2,0E0,0E0,9.641342E-3,7.630959E-2,0E0,6.2668845E-3,8.250874E-2,4.3214872E-2,0E0,0E0,4.966614E-2,8.663129E-2,2.1599479E-2,1.9140497E-2,0E0,0E0,0E0,0E0,0E0,0E0,0E0,0E0],"parents":[2147483647,0,0,1,1,2,2,5,5,6,6,8,8,9,9,10,10,13,13,14,14,15,15,16,16],"right_children":[2,4,6,-1,-1,8,10,-1,12,14,16,-1,-1,18,20,22,24,-1,-1,-1,-1,-1,-1,-1,-1],"split_conditions":[-2.85E0,1.3778216E0,-1.32E0,-2.6968595E-2,-1.2662895E-1,1.0516934E0,2.4364052E0,-0E0,-8.3E-1,2.3282926E0,3.3E0,7.003422E-3,1.1180609E-1,2.3E0,-6.8E-1,1.0743E1,1.2369E1,-2.5126785E-2,1.1847046E-2,-1.6983311E-1,-2.1352861E-2,5.7389773E-2,-2.1806894E-2,1.63261E-1,5.3304125E-2],"split_indices":[3,0,3,0,0,0,15,0,1,0,5,0,0,7,4,12,9,0,0,0,0,0,0,0,0],"split_type":[0,0,0,0,0,0,0,0,0,0,0,0,0,0,0,0,0,0,0,0,0,0,0,0,0],"sum_hessian":[2.13E2,3E0,2.1E2,1E0,2E0,8E0,2.02E2,1E0,7E0,1.81E2,2.1E1,1E0,6E0,1.63E2,1.8E1,1.2E1,9E0,5.3E1,1.1E2,5E0,1.3E1,5E0,7E0,3E0,6E0],"tree_param":{"num_deleted":"0","num_feature":"21","num_nodes":"25","size_leaf_vector":"1"}},{"base_weights":[-0E0,1.4142696E-2,-1.1329535E-2,-1.7037807E-2,2.611028E-2,-2.2094445E-2,1.3825519E-2,3.4946646E-3,-4.382795E-2,3.3422344E-5,4.78057E-2,1.8545318E-2,-3.6094133E-2,7.02188E-4,1.5461476E-1,-1.701973E-2,7.179278E-2,-5.1705766E-2,-0E0,7.0852436E-2,-1.1833076E-2,6.6750176E-2,5.4701557E-3,-3.76575E-2,4.259997E-2,-1.0385368E-1,-2.116113E-2,1.3310805E-2,-9.4690144E-2,-5.1920367E-3,2.4211419E-1,1.2469738E-2,-5.5169065E-2,-5.860087E-3,-6.1184675E-2,3.206768E-2,-3.36918E-2,7.868663E-3,8.35212E-2,6.2429424E-2,-1.6860567E-2,-4.7671556E-2,-5.081571E-3,-3.108831E-2,5.6061745E-2,-1.5417616E-1,-3.455559E-2,-6.0497627E-2,-3.7783647E-3,-2.0834358E-2,3.1038709E-2],"categories":[],"categories_nodes":[],"categories_segments":[],"categories_sizes":[],"default_left":[0,0,0,0,0,0,0,0,0,0,0,0,0,0,0,0,0,0,0,0,0,0,0,0,0,0,0,0,0,0,0,0,0,0,0,0,0,0,0,0,0,0,0,0,0,0,0,0,0,0,0],"id":19,"left_children":[1,3,5,7,9,11,13,15,17,19,21,23,25,27,29,31,-1,33,-1,-1,35,37,39,41,43,45,47,49,-1,-1,-1,-1,-1,-1,-1,-1,-1,-1,-1,-1,-1,-1,-1,-1,-1,-1,-1,-1,-1,-1,-1],"loss_changes":[3.447617E-2,3.635849E-2,3.261239E-2,1.540833E-2,3.91224E-2,4.8636165E-2,6.4852715E-2,2.4187136E-2,3.684191E-3,2.9160928E-2,2.9389605E-2,3.1396292E-2,6.0298957E-2,4.1340634E-2,4.557529E-2,1.5739985E-2,0E0,3.3166725E-3,0E0,0E0,2.8925482E-2,2.4103992E-2,1.8043526E-2,1.5137438E-3,1.7864201E-2,3.1144798E-2,3.5368837E-2,1.9513704E-2,0E0,0E0,0E0,0E0,0E0,0E0,0E0,0E0,0E0,0E0,0E0,0E0,0E0,0E0,0E0,0E0,0E0,0E0,0E0,0E0,0E0,0E0,0E0],"parents":[2147483647,0,0,1,1,2,2,3,3,4,4,5,5,6,6,7,7,8,8,9,9,10,10,11,11,12,12,13,13,14,14,15,15,17,17,20,20,21,21,22,22,23,23,24,24,25,25,26,26,27,27],"right_children":[2,4,6,8,10,12,14,16,18,20,22,24,26,28,30,32,-1,34,-1,-1,36,38,40,42,44,46,48,50,-1,-1,-1,-1,-1,-1,-1,-1,-1,-1,-1,-1,-1,-1,-1,-1,-1,-1,-1,-1,-1,-1,-1],"split_conditions":[3E0,-2.2E-1,6.8E0,-3E-1,5.51E-1,-2.6E-1,3.9334E1,1.2215E1,2.437237E0,-2.1494E1,4E0,-1.204E0,-4E-2,2.4232E1,9.9794817E-1,2.1E0,7.179278E-2,-1.32E0,-0E0,7.0852436E-2,8E-1,0E0,1.399E0,1.6458E1,3E-1,1.2979E1,2.598E0,9.7074187E-1,-9.4690144E-2,-5.1920367E-3,2.4211419E-1,1.2469738E-2,-5.5169065E-2,-5.860087E-3,-6.1184675E-2,3.206768E-2,-3.36918E-2,7.868663E-3,8.35212E-2,6.2429424E-2,-1.6860567E-2,-4.7671556E-2,-5.081571E-3,-3.108831E-2,5.6061745E-2,-1.5417616E-1,-3.455559E-2,-6.0497627E-2,-3.7783647E-3,-2.0834358E-2,3.1038709E-2],"split_indices":[5,3,5,2,20,3,17,10,13,10,6,11,2,19,0,6,0,4,0,0,6,3,12,19,6,11,17,16,0,0,0,0,0,0,0,0,0,0,0,0,0,0,0,0,0,0,0,0,0,0,0],"split_type":[0,0,0,0,0,0,0,0,0,0,0,0,0,0,0,0,0,0,0,0,0,0,0,0,0,0,0,0,0,0,0,0,0,0,0,0,0,0,0,0,0,0,0,0,0,0,0,0,0,0,0],"sum_hessian":[2.13E2,9.5E1,1.18E2,2.6E1,6.9E1,8.3E1,3.5E1,1.5E1,1.1E1,3.2E1,3.7E1,2.1E1,6.2E1,3.3E1,2E0,1.2E1,3E0,9E0,2E0,4E0,2.8E1,2.5E1,1.2E1,6E0,1.5E1,1E1,5.2E1,3E1,3E0,1E0,1E0,7E0,5E0,2E0,7E0,9E0,1.9E1,6E0,1.9E1,3E0,9E0,4E0,2E0,2E0,1.3E1,5E0,5E0,1.5E1,3.7E1,1E1,2E1],"tree_param":{"num_deleted":"0","num_feature":"21","num_nodes":"51","size_leaf_vector":"1"}},{"base_weights":[-4.2165786E-5,5.058299E-3,-1.8485483E-2,-1.2716181E-2,1.3000304E-2,-2.8937053E-2,2.7747484E-2,-6.701932E-2,-6.5863505E-3,1.6191307E-2,-3.8028512E-2,4.5072855E-3,-4.6217192E-2,5.1436067E-2,-1.2222258E-2,-8.0402434E-2,-1.7434312E-3,1.1523445E-2,-1.7211832E-2,1.1994814E-2,1.0075802E-1,4.179058E-3,-7.3228955E-2,-2.7506737E-2,4.1879416E-2,-6.008017E-2,-1.2244886E-2,2.064611E-2,-3.7638582E-2,-2.1717457E-2,2.8746482E-2,3.62086E-3,3.4048177E-2,1.7722722E-2,1.14586174E-1,-5.274887E-3,1.2422002E-2,-5.2261885E-2,-2.012711E-4,2.168087E-2,7.653534E-2,-6.805403E-2,-2.3737334E-2,-2.2696529E-2,1.28905745E-2],"categories":[],"categories_nodes":[],"categories_segments":[],"categories_sizes":[],"default_left":[0,0,0,0,0,0,0,0,0,0,0,0,0,0,0,0,0,0,0,0,0,0,0,0,0,0,0,0,0,0,0,0,0,0,0,0,0,0,0,0,0,0,0,0,0],"id":20,"left_children":[1,3,5,7,9,11,13,15,17,19,21,23,25,-1,-1,-1,-1,27,29,31,33,35,-1,37,39,41,43,-1,-1,-1,-1,-1,-1,-1,-1,-1,-1,-1,-1,-1,-1,-1,-1,-1,-1],"loss_changes":[2.0358646E-2,2.3883877E-2,2.3525562E-2,1.6131721E-2,1.9448837E-2,2.3164403E-2,9.542242E-3,3.4063384E-3,9.491639E-3,3.705599E-2,1.1396603E-2,1.8045744E-2,1.0785963E-2,0E0,0E0,0E0,0E0,8.679962E-3,6.973209E-3,1.9260127E-2,2.387248E-3,4.4870918E-4,0E0,4.8724567E-3,2.2584787E-3,2.6829317E-3,2.7549923E-3,0E0,0E0,0E0,0E0,0E0,0E0,0E0,0E0,0E0,0E0,0E0,0E0,0E0,0E0,0E0,0E0,0E0,0E0],"parents":[2147483647,0,0,1,1,2,2,3,3,4,4,5,5,6,6,7,7,8,8,9,9,10,10,11,11,12,12,17,17,18,18,19,19,20,20,21,21,23,23,24,24,25,25,26,26],"right_children":[2,4,6,8,10,12,14,16,18,20,22,24,26,-1,-1,-1,-1,28,30,32,34,36,-1,38,40,42,44,-1,-1,-1,-1,-1,-1,-1,-1,-1,-1,-1,-1,-1,-1,-1,-1,-1,-1],"split_conditions":[2.5945E1,-8.07E-1,6.7E0,-2.1961E1,3.3205E1,2.7E0,3.9E-1,2.1112485E0,1.200589E0,3.1776E1,-2E-2,1.2139E1,4.2E0,5.1436067E-2,-1.2222258E-2,-8.0402434E-2,-1.7434312E-3,8.7E-1,7.5E-1,1.324E1,1.0647079E0,1.3766751E0,-7.3228955E-2,2.5E0,1.2585014E0,4.4E0,3.5E-1,2.064611E-2,-3.7638582E-2,-2.1717457E-2,2.8746482E-2,3.62086E-3,3.4048177E-2,1.7722722E-2,1.14586174E-1,-5.274887E-3,1.2422002E-2,-5.2261885E-2,-2.012711E-4,2.168087E-2,7.653534E-2,-6.805403E-2,-2.3737334E-2,-2.2696529E-2,1.28905745E-2],"split_indices":[12,12,8,18,11,8,3,0,16,10,4,18,6,0,0,0,0,2,1,11,0,0,0,5,0,7,3,0,0,0,0,0,0,0,0,0,0,0,0,0,0,0,0,0,0],"split_type":[0,0,0,0,0,0,0,0,0,0,0,0,0,0,0,0,0,0,0,0,0,0,0,0,0,0,0,0,0,0,0,0,0,0,0,0,0,0,0,0,0,0,0,0,0],"sum_hessian":[2.13E2,1.67E2,4.6E1,5.1E1,1.16E2,3.8E1,8E0,4E0,4.7E1,1.1E2,6E0,1.3E1,2.5E1,5E0,3E0,3E0,1E0,1.7E1,3E1,1.06E2,4E0,3E0,3E0,7E0,6E0,1.7E1,8E0,1.5E1,2E0,2.8E1,2E0,7.8E1,2.8E1,1E0,3E0,1E0,2E0,3E0,4E0,5E0,1E0,1.3E1,4E0,6E0,2E0],"tree_param":{"num_deleted":"0","num_feature":"21","num_nodes":"45","size_leaf_vector":"1"}},{"base_weights":[-2.258566E-5,4.563322E-2,-1.1571401E-3,-8.459641E-3,4.2013903E-3,-2.161147E-2,5.553897E-3,1.5094239E-2,-2.5474802E-3,-7.785597E-3,-4.496386E-2,-1.4254891E-2,1.6636198E-2,1.8509674E-3,2.627428E-2,1.6096562E-2,-1.12957405E-2,1.429785E-2,-2.740125E-2,-3.2333553E-2,-8.9794114E-2,-2.4533473E-2,1.126468E-2,-5.3524453E-4,4.569267E-2,2.0146942E-2,-1.0635512E-2,-3.133989E-4,3.0368663E-2,2.442548E-2,-6.191593E-3,-1.8724894E-2,1.4195183E-2],"categories":[],"categories_nodes":[],"categories_segments":[],"categories_sizes":[],"default_left":[0,0,0,0,0,0,0,0,0,0,0,0,0,0,0,0,0,0,0,0,0,0,0,0,0,0,0,0,0,0,0,0,0],"id":21,"left_children":[1,-1,3,5,7,9,11,13,15,17,19,21,23,25,27,29,31,-1,-1,-1,-1,-1,-1,-1,-1,-1,-1,-1,-1,-1,-1,-1,-1],"loss_changes":[1.0693029E-2,0E0,8.295567E-3,1.6867936E-2,9.059167E-3,1.4297193E-2,9.920147E-3,6.6289483E-3,1.2366534E-2,1.3951432E-2,5.501099E-3,4.6059294E-3,1.4945335E-2,5.5637904E-3,3.0315742E-3,4.78884E-3,1.0158653E-2,0E0,0E0,0E0,0E0,0E0,0E0,0E0,0E0,0E0,0E0,0E0,0E0,0E0,0E0,0E0,0E0],"parents":[2147483647,0,0,2,2,3,3,4,4,5,5,6,6,7,7,8,8,9,9,10,10,11,11,12,12,13,13,14,14,15,15,16,16],"right_children":[2,-1,4,6,8,10,12,14,16,18,20,22,24,26,28,30,32,-1,-1,-1,-1,-1,-1,-1,-1,-1,-1,-1,-1,-1,-1,-1,-1],"split_conditions":[8.8451546E-1,4.563322E-2,5.963E0,1.2E-1,1.1857E1,5.51E-1,3.419E0,-7E-2,2.3E0,3.419E0,1.2979E1,1.2369E1,5.337E0,-3.605E0,-4.274E0,3.2E0,4.4665E1,1.429785E-2,-2.740125E-2,-3.2333553E-2,-8.9794114E-2,-2.4533473E-2,1.126468E-2,-5.3524453E-4,4.569267E-2,2.0146942E-2,-1.0635512E-2,-3.133989E-4,3.0368663E-2,2.442548E-2,-6.191593E-3,-1.8724894E-2,1.4195183E-2],"split_indices":[0,0,18,1,20,18,10,1,6,19,9,12,19,10,20,8,18,0,0,0,0,0,0,0,0,0,0,0,0,0,0,0,0],"split_type":[0,0,0,0,0,0,0,0,0,0,0,0,0,0,0,0,0,0,0,0,0,0,0,0,0,0,0,0,0,0,0,0,0],"sum_hessian":[2.13E2,4E0,2.09E2,8.9E1,1.2E2,4.6E1,4.3E1,4.6E1,7.4E1,3E1,1.6E1,1.5E1,2.8E1,2.2E1,2.4E1,2.3E1,5.1E1,1.4E1,1.6E1,1.4E1,2E0,1.1E1,4E0,1.8E1,1E1,9E0,1.3E1,3E0,2.1E1,1.7E1,6E0,4E1,1.1E1],"tree_param":{"num_deleted":"0","num_feature":"21","num_nodes":"33","size_leaf_vector":"1"}},{"base_weights":[-2.065032E-5,1.4101334E-3,-2.1275427E-2,5.3831465E-3,-7.022459E-3,-2.8222118E-2,6.468273E-4,1.5756842E-3,2.3917167E-2,-1.8963704E-2,-0E0,-1.602326E-2,-3.76561E-2,-0E0,1.7907588E-3,4.5201033E-3,-2.3485959E-2,6.896782E-2,1.3211179E-2,-2.620777E-2,-0E0,1.0652932E-2,-1.5331281E-2,1.8437629E-3,4.670576E-2,-5.68308E-2,-1.0133909E-2,2.4300039E-2,-1.9307656E-3,-2.962791E-2,-0E0,-6.2197433E-3,9.240544E-3,3.065808E-2,6.1437103E-4,-2.1453658E-2,-0E0],"categories":[],"categories_nodes":[],"categories_segments":[],"categories_sizes":[],"default_left":[0,0,0,0,0,0,0,0,0,0,0,0,0,0,0,0,0,0,0,0,0,0,0,0,0,0,0,0,0,0,0,0,0,0,0,0,0],"id":22,"left_children":[1,3,5,7,9,11,13,15,17,19,21,-1,-1,-1,-1,23,25,-1,27,29,31,33,35,-1,-1,-1,-1,-1,-1,-1,-1,-1,-1,-1,-1,-1,-1],"loss_changes":[6.736606E-3,6.755472E-3,2.4260278E-3,9.445711E-3,5.474774E-3,1.2575462E-4,7.94691E-6,8.476371E-3,9.360234E-3,3.0454723E-3,6.832944E-3,0E0,0E0,0E0,0E0,1.1283224E-2,4.0970985E-3,0E0,3.6287485E-3,1.490795E-3,4.882742E-4,4.6890127E-3,1.527294E-3,0E0,0E0,0E0,0E0,0E0,0E0,0E0,0E0,0E0,0E0,0E0,0E0,0E0,0E0],"parents":[2147483647,0,0,1,1,2,2,3,3,4,4,5,5,6,6,7,7,8,8,9,9,10,10,15,15,16,16,18,18,19,19,20,20,21,21,22,22],"right_children":[2,4,6,8,10,12,14,16,18,20,22,-1,-1,-1,-1,24,26,-1,28,30,32,34,36,-1,-1,-1,-1,-1,-1,-1,-1,-1,-1,-1,-1,-1,-1],"split_conditions":[9.1E-1,1.9675E1,1.4269E1,1.9819E1,1.2793E1,3.336E0,1.0067886E0,2.6479E1,2.0559E1,1.5879E1,3E-2,-1.602326E-2,-3.76561E-2,-0E0,1.7907588E-3,2.5661E1,-3E-2,6.896782E-2,2E-2,2.3918078E0,3.2875E1,1.2793E1,4.9E-1,1.8437629E-3,4.670576E-2,-5.68308E-2,-1.0133909E-2,2.4300039E-2,-1.9307656E-3,-2.962791E-2,-0E0,-6.2197433E-3,9.240544E-3,3.065808E-2,6.1437103E-4,-2.1453658E-2,-0E0],"split_indices":[1,19,9,18,10,9,0,10,18,11,1,0,0,0,0,9,4,0,4,0,19,11,1,0,0,0,0,0,0,0,0,0,0,0,0,0,0],"split_type":[0,0,0,0,0,0,0,0,0,0,0,0,0,0,0,0,0,0,0,0,0,0,0,0,0,0,0,0,0,0,0,0,0,0,0,0,0],"sum_hessian":[2.13E2,2E2,1.3E1,1.37E2,6.3E1,1E1,3E0,1.15E2,2.2E1,2.3E1,4E1,6E0,4E0,1E0,2E0,1.04E2,1.1E1,3E0,1.9E1,1.6E1,7E0,2.4E1,1.6E1,9.9E1,5E0,2E0,9E0,1.1E1,8E0,1.4E1,2E0,5E0,2E0,7E0,1.7E1,1.1E1,5E0],"tree_param":{"num_deleted":"0","num_feature":"21","num_nodes":"37","size_leaf_vector":"1"}},{"base_weights":[-0E0,1.6283527E-2,-1.1484071E-3,-1.2390378E-4,3.984742E-2,-5.671306E-3,2.061805E-3,-8.690802E-3,3.9413455E-3,4.975557E-2,1.0020745E-2,-1.3257167E-2,2.1727225E-3,2.2485018E-2,5.908357E-5,-0E0,-1.0222352E-2,5.813477E-3,-0E0,-1.7690456E-2,-0E0,1.0599573E-2,-3.5815188E-3,-1.2211614E-4,3.924346E-2,4.1534305E-3,-6.489079E-3,1.3174133E-2,-2.0429272E-2,4.7991564E-3,-7.584713E-3,1.5159639E-3,2.3228679E-2,2.8550024E-3,-1.4521801E-2,-3.8510514E-3,-0E0,4.4150636E-2,2.3537828E-3,8.53065E-3,-3.3166143E-3,-2.9318629E-2,-3.6520453E-3],"categories":[],"categories_nodes":[],"categories_segments":[],"categories_sizes":[],"default_left":[0,0,0,0,0,0,0,0,0,0,0,0,0,0,0,0,0,0,0,0,0,0,0,0,0,0,0,0,0,0,0,0,0,0,0,0,0,0,0,0,0,0,0],"id":23,"left_children":[1,3,5,7,9,11,13,15,17,-1,-1,19,21,23,25,-1,-1,-1,-1,27,29,31,33,35,37,39,41,-1,-1,-1,-1,-1,-1,-1,-1,-1,-1,-1,-1,-1,-1,-1,-1],"loss_changes":[3.977232E-3,5.814893E-3,2.9662007E-3,3.951872E-4,6.768117E-4,5.197464E-3,4.5587653E-3,1.1369324E-5,4.1980842E-5,0E0,0E0,2.5943145E-3,2.1447286E-3,4.1846083E-3,2.899124E-3,0E0,0E0,0E0,0E0,3.1312602E-3,4.7189457E-4,1.7822613E-3,1.9185614E-3,2.9586632E-5,5.171802E-4,2.3038993E-3,2.2187163E-3,0E0,0E0,0E0,0E0,0E0,0E0,0E0,0E0,0E0,0E0,0E0,0E0,0E0,0E0,0E0,0E0],"parents":[2147483647,0,0,1,1,2,2,3,3,4,4,5,5,6,6,7,7,8,8,11,11,12,12,13,13,14,14,19,19,20,20,21,21,22,22,23,23,24,24,25,25,26,26],"right_children":[2,4,6,8,10,12,14,16,18,-1,-1,20,22,24,26,-1,-1,-1,-1,28,30,32,34,36,38,40,42,-1,-1,-1,-1,-1,-1,-1,-1,-1,-1,-1,-1,-1,-1,-1,-1],"split_conditions":[8.988697E-1,8.8451546E-1,8.358E0,-3.078E0,1.5E-1,9E-2,1.0567E1,8.821451E-1,-2.2E-1,4.975557E-2,1.0020745E-2,1.3312E1,7E-2,1E-2,3E-2,-0E0,-1.0222352E-2,5.813477E-3,-0E0,-8.2388E1,2.2707646E0,3.853E0,5.963E0,-6E-2,1.9327828E0,1.61923E0,3E-1,1.3174133E-2,-2.0429272E-2,4.7991564E-3,-7.584713E-3,1.5159639E-3,2.3228679E-2,2.8550024E-3,-1.4521801E-2,-3.8510514E-3,-0E0,4.4150636E-2,2.3537828E-3,8.53065E-3,-3.3166143E-3,-2.9318629E-2,-3.6520453E-3],"split_indices":[13,13,19,12,2,1,19,0,1,0,0,20,4,4,1,0,0,0,0,18,0,12,12,3,0,0,7,0,0,0,0,0,0,0,0,0,0,0,0,0,0,0,0],"split_type":[0,0,0,0,0,0,0,0,0,0,0,0,0,0,0,0,0,0,0,0,0,0,0,0,0,0,0,0,0,0,0,0,0,0,0,0,0,0,0,0,0,0,0],"sum_hessian":[2.13E2,1.3E1,2E2,8E0,5E0,8.4E1,1.16E2,3E0,5E0,3E0,2E0,4.3E1,4.1E1,9E0,1.07E2,1E0,2E0,3E0,2E0,3.2E1,1.1E1,1.7E1,2.4E1,4E0,5E0,6.7E1,4E1,2E0,3E1,7E0,4E0,1.1E1,6E0,1.5E1,9E0,1E0,3E0,4E0,1E0,4.3E1,2.4E1,3E0,3.7E1],"tree_param":{"num_deleted":"0","num_feature":"21","num_nodes":"43","size_leaf_vector":"1"}},{"base_weights":[4.5182573E-4,1.4426374E-3,-1.0526558E-2,1.0228305E-3,3.7072297E-2,-1.3063326E-2,1.0030861E-2,-5.5195467E-4,5.863738E-3,-0E0,-1.9979404E-2,3.1186617E-3,-5.440875E-3,-3.8354732E-3,1.2791061E-2,5.7291676E-4,-2.187584E-3,-2.3791755E-2,-5.8129407E-3,2.1727162E-4,1.1892247E-2,-1.0046008E-2,2.4281438E-3,-8.842853E-3,2.7124607E-3,2.8619893E-2,7.224691E-3],"categories":[],"categories_nodes":[],"categories_segments":[],"categories_sizes":[],"default_left":[0,0,0,0,0,0,0,0,0,0,0,0,0,0,0,0,0,0,0,0,0,0,0,0,0,0,0],"id":24,"left_children":[1,3,5,7,-1,9,-1,11,13,15,17,19,21,23,25,-1,-1,-1,-1,-1,-1,-1,-1,-1,-1,-1,-1],"loss_changes":[2.252134E-3,2.5427302E-3,1.0479008E-3,1.558162E-3,0E0,1.2613581E-3,0E0,2.6961025E-3,3.4980942E-3,2.4912319E-5,1.05728395E-4,2.014591E-3,2.4560334E-3,7.738377E-4,2.0780587E-3,0E0,0E0,0E0,0E0,0E0,0E0,0E0,0E0,0E0,0E0,0E0,0E0],"parents":[2147483647,0,0,1,1,2,2,3,3,5,5,7,7,8,8,9,9,10,10,11,11,12,12,13,13,14,14],"right_children":[2,4,6,8,-1,10,-1,12,14,16,18,20,22,24,26,-1,-1,-1,-1,-1,-1,-1,-1,-1,-1,-1,-1],"split_conditions":[4.8119E1,4.8004E1,5.2E0,2.234954E0,3.7072297E-2,-7.492E0,1.0030861E-2,1.0567E1,2.5E0,-4.3E0,4.6716E1,1.0321E1,3.1776E1,1.517E1,3.6E0,5.7291676E-4,-2.187584E-3,-2.3791755E-2,-5.8129407E-3,2.1727162E-4,1.1892247E-2,-1.0046008E-2,2.4281438E-3,-8.842853E-3,2.7124607E-3,2.8619893E-2,7.224691E-3],"split_indices":[18,18,6,14,0,10,0,10,5,6,17,11,11,10,5,0,0,0,0,0,0,0,0,0,0,0,0],"split_type":[0,0,0,0,0,0,0,0,0,0,0,0,0,0,0,0,0,0,0,0,0,0,0,0,0,0,0],"sum_hessian":[2.13E2,1.97E2,1.6E1,1.96E2,1E0,1.5E1,1E0,1.47E2,4.9E1,6E0,9E0,8.3E1,6.4E1,2E1,2.9E1,2E0,4E0,6E0,3E0,6.4E1,1.9E1,4.1E1,2.3E1,1.2E1,8E0,6E0,2.3E1],"tree_param":{"num_deleted":"0","num_feature":"21","num_nodes":"27","size_leaf_vector":"1"}},{"base_weights":[3.742371E-4,4.415813E-3,-8.5604616E-4,1.4966584E-2,2.2197687E-3,8.382313E-4,-6.1619016E-3,1.9983657E-2,-0E0,-1.5004299E-3,6.2782383E-3,-5.1837334E-5,1.4889448E-2,-3.6093917E-2,-2.58585E-3,2.9965592E-4,-1.2625752E-2,8.44387E-3,-3.6194748E-3,-1.6599871E-2,7.5302797E-4,-0E0,2.3767041E-2,8.906866E-3,-6.2808036E-3,-6.2374575E-3,2.9487754E-3,-0E0,1.1324836E-2,-0E0,-2.1097157E-2,3.4207576E-3,-4.851778E-3,1.6010322E-2,-1.4750338E-3,-1.0836588E-2,6.225896E-4],"categories":[],"categories_nodes":[],"categories_segments":[],"categories_sizes":[],"default_left":[0,0,0,0,0,0,0,0,0,0,0,0,0,0,0,0,0,0,0,0,0,0,0,0,0,0,0,0,0,0,0,0,0,0,0,0,0],"id":25,"left_children":[1,3,5,7,9,11,13,-1,-1,15,17,19,21,-1,23,25,-1,27,-1,29,31,-1,-1,33,35,-1,-1,-1,-1,-1,-1,-1,-1,-1,-1,-1,-1],"loss_changes":[1.1034464E-3,9.997519E-4,1.5237052E-3,6.040905E-4,7.3662226E-4,1.6874532E-3,3.9084447E-3,0E0,0E0,5.876546E-4,5.7180645E-4,1.7159655E-3,1.0507958E-3,0E0,1.6433536E-3,3.318579E-4,0E0,4.978003E-4,0E0,5.7211565E-4,1.6619706E-3,0E0,0E0,8.326949E-4,1.052398E-3,0E0,0E0,0E0,0E0,0E0,0E0,0E0,0E0,0E0,0E0,0E0,0E0],"parents":[2147483647,0,0,1,1,2,2,3,3,4,4,5,5,6,6,9,9,10,10,11,11,12,12,14,14,15,15,17,17,19,19,20,20,23,23,24,24],"right_children":[2,4,6,8,10,12,14,-1,-1,16,18,20,22,-1,24,26,-1,28,-1,30,32,-1,-1,34,36,-1,-1,-1,-1,-1,-1,-1,-1,-1,-1,-1,-1],"split_conditions":[-8.07E-1,9.8181164E-1,3.5E-1,9.9679774E-1,1.5438908E0,2.2E-1,4E-1,1.9983657E-2,-0E0,1.2737106E0,1.5441E1,1.691E0,1E-2,-3.6093917E-2,1.0647079E0,-7.1E-1,-1.2625752E-2,-8.07E-1,-3.6194748E-3,-2E-2,3.9E0,-0E0,2.3767041E-2,3.336E0,3.9E0,-6.2374575E-3,2.9487754E-3,-0E0,1.1324836E-2,-0E0,-2.1097157E-2,3.4207576E-3,-4.851778E-3,1.6010322E-2,-1.4750338E-3,-1.0836588E-2,6.225896E-4],"split_indices":[18,16,4,13,0,4,4,0,0,0,19,18,3,0,0,4,0,10,0,2,8,0,0,17,7,0,0,0,0,0,0,0,0,0,0,0,0],"split_type":[0,0,0,0,0,0,0,0,0,0,0,0,0,0,0,0,0,0,0,0,0,0,0,0,0,0,0,0,0,0,0,0,0,0,0,0,0],"sum_hessian":[2.13E2,5.1E1,1.62E2,7E0,4.4E1,1.22E2,4E1,5E0,2E0,2.2E1,2.2E1,1.15E2,7E0,3E0,3.7E1,1.9E1,3E0,1.9E1,3E0,5E0,1.1E2,3E0,4E0,8E0,2.9E1,4E0,1.5E1,5E0,1.4E1,1E0,4E0,7.6E1,3.4E1,5E0,3E0,1.8E1,1.1E1],"tree_param":{"num_deleted":"0","num_feature":"21","num_nodes":"37","size_leaf_vector":"1"}}]},"name":"gbtree"},"learner_model_param":{"base_score":"1.1754221E1","boost_from_average":"1","num_class":"0","num_feature":"21","num_target":"1"},"objective":{"name":"reg:squarederror","reg_loss_param":{"scale_pos_weight":"1"}}},"version":[2,1,4]}