{"learner":{"attributes":{"best_iteration":"5","best_score":"111.830689216781","scikit_learn":"{\"_estimator_type\": \"regressor\"}"},"feature_names":["fedfunds_lag_9","fedfunds_lag_10","gdp_lag_9","gdp_lag_10","imports_lag_9","imports_lag_10","watr_lag_9","watr_lag_10","imports_lag_1"],"feature_types":["float","float","float","float","float","float","float","float","float"],"gradient_booster":{"model":{"gbtree_model_param":{"num_parallel_tree":"1","num_trees":"31"},"iteration_indptr":[0,1,2,3,4,5,6,7,8,9,10,11,12,13,14,15,16,17,18,19,20,21,22,23,24,25,26,27,28,29,30,31],"tree_info":[0,0,0,0,0,0,0,0,0,0,0,0,0,0,0,0,0,0,0,0,0,0,0,0,0,0,0,0,0,0,0],"trees":[{"base_weights":[-0E0,-1.0637172E2,1.5195957E0,-4.8825293E0,2.3228695E1,-2.4865206E1,-3.2727618E0,1.2041666E1,3.148336E1,3.4236706E1,-3.3351444E1,-5.299851E0,6.754281E0,2.5036473E0,1.9780544E1,8.836343E0,3.6228302E1,-4.1144524E1,1.1416076E0,4.6745415E0,-7.0979805E0,1.1937666E1,-1.740147E1,-1.1139294E1,4.982871E0,2.7904924E1,7.0036764E0,-7.541794E0,1.3622329E1,5.2546925E1,2.682401E1],"categories":[],"categories_nodes":[],"categories_segments":[],"categories_sizes":[],"default_left":[0,0,0,0,0,0,0,0,0,0,0,0,0,0,0,0,0,0,0,0,0,0,0,0,0,0,0,0,0,0,0],"id":0,"left_children":[1,-1,3,5,7,9,11,13,15,-1,17,19,21,23,25,27,29,-1,-1,-1,-1,-1,-1,-1,-1,-1,-1,-1,-1,-1,-1],"loss_changes":[3.4429758E4,0E0,2.9300314E4,5.161637E3,4.0530195E3,7.1604688E3,3.12529E3,1.5741519E3,2.5808145E3,0E0,3.004249E3,2.310981E3,3.4631006E3,4.27507E2,1.0498633E3,5.7311084E2,1.965916E3,0E0,0E0,0E0,0E0,0E0,0E0,0E0,0E0,0E0,0E0,0E0,0E0,0E0,0E0],"parents":[2147483647,0,0,2,2,3,3,4,4,5,5,6,6,7,7,8,8,10,10,11,11,12,12,13,13,14,14,15,15,16,16],"right_children":[2,-1,4,6,8,10,12,14,16,-1,18,20,22,24,26,28,30,-1,-1,-1,-1,-1,-1,-1,-1,-1,-1,-1,-1,-1,-1],"split_conditions":[-8.2388E1,-1.0637172E2,2.6147E1,-2.1961E1,3.9334E1,-5.6208E1,2.4232E1,2.2E0,1.1652285E0,3.4236706E1,4.9E-1,-6E-1,5.6663E1,9.8553723E-1,3.5E0,-8.2E-1,1.2585014E0,-4.1144524E1,1.1416076E0,4.6745415E0,-7.0979805E0,1.1937666E1,-1.740147E1,-1.1139294E1,4.982871E0,2.7904924E1,7.0036764E0,-7.541794E0,1.3622329E1,5.2546925E1,2.682401E1],"split_indices":[8,0,8,8,8,8,4,3,7,0,1,2,5,6,2,0,6,0,0,0,0,0,0,0,0,0,0,0,0,0,0],"split_type":[0,0,0,0,0,0,0,0,0,0,0,0,0,0,0,0,0,0,0,0,0,0,0,0,0,0,0,0,0,0,0],"sum_hessian":[2.11E2,2E0,2.09E2,1.62E2,4.7E1,1.1E1,1.51E2,2.1E1,2.6E1,1E0,1E1,1.26E2,2.5E1,1E1,1.1E1,5E0,2.1E1,8E0,2E0,1.9E1,1.07E2,2.1E1,4E0,1E0,9E0,6E0,5E0,1E0,4E0,6E0,1.5E1],"tree_param":{"num_deleted":"0","num_feature":"9","num_nodes":"31","size_leaf_vector":"1"}},{"base_weights":[-2.7224207E-2,-3.5457245E1,4.7900093E-1,-5.926643E1,6.0755663E0,2.1171005E0,-4.413239E0,7.5937176E-1,7.236698E0,-2.919207E1,-2.342468E0,1.1080271E1,-3.2410786E-1,9.606596E0,-1.4931774E-1,-5.9550858E0,4.410246E0,1.7441494E1,-6.0000486E0,-9.071587E-1,1.6079842E1,2.2130113E0,1.1343842E1,-4.512738E0,1.7406222E0,-5.894035E-1,-8.610682E0,7.189894E0,-7.1134973E0],"categories":[],"categories_nodes":[],"categories_segments":[],"categories_sizes":[],"default_left":[0,0,0,0,0,0,0,0,0,0,0,0,0,0,0,0,0,0,0,0,0,0,0,0,0,0,0,0,0],"id":1,"left_children":[1,3,5,-1,-1,7,9,11,13,-1,15,17,19,21,23,25,27,-1,-1,-1,-1,-1,-1,-1,-1,-1,-1,-1,-1],"loss_changes":[3.8196738E3,3.3271965E3,1.6922554E3,0E0,0E0,1.0926866E3,2.6508013E3,1.4126917E3,5.791643E2,0E0,1.2460276E3,1.4085848E3,1.1143339E3,2.958723E2,8.210212E1,4.6505237E2,6.277212E2,0E0,0E0,0E0,0E0,0E0,0E0,0E0,0E0,0E0,0E0,0E0,0E0],"parents":[2147483647,0,0,1,1,2,2,5,5,6,6,7,7,8,8,10,10,11,11,12,12,13,13,14,14,15,15,16,16],"right_children":[2,4,6,-1,-1,8,10,12,14,-1,16,18,20,22,24,26,28,-1,-1,-1,-1,-1,-1,-1,-1,-1,-1,-1,-1],"split_conditions":[-8.2388E1,1E-2,4.4E-1,-5.926643E1,6.0755663E0,2.3114276E0,4.8E-1,-1.0841E1,2.4761214E0,-2.919207E1,3.9E0,4.0255E1,8.0306E1,-3.271E0,-3.001E0,8E-1,2.5945E1,1.7441494E1,-6.0000486E0,-9.071587E-1,1.6079842E1,2.2130113E0,1.1343842E1,-4.512738E0,1.7406222E0,-5.894035E-1,-8.610682E0,7.189894E0,-7.1134973E0],"split_indices":[8,0,1,0,0,6,1,8,6,0,2,4,8,4,4,2,5,0,0,0,0,0,0,0,0,0,0,0,0],"split_type":[0,0,0,0,0,0,0,0,0,0,0,0,0,0,0,0,0,0,0,0,0,0,0,0,0,0,0,0,0],"sum_hessian":[2.11E2,2E0,2.09E2,1E0,1E0,1.57E2,5.2E1,1.25E2,3.2E1,3E0,4.9E1,1.1E1,1.14E2,2.4E1,8E0,3.2E1,1.7E1,8E0,3E0,1.11E2,3E0,5E0,1.9E1,2E0,6E0,1.1E1,2.1E1,1.4E1,3E0],"tree_param":{"num_deleted":"0","num_feature":"9","num_nodes":"29","size_leaf_vector":"1"}},{"base_weights":[-2.552254E-1,-1.456281E0,3.5647006E0,-9.440381E-1,-2.828714E1,1.2786908E1,7.086709E-1,2.679521E-1,-5.280516E0,1.5261405E1,-7.211279E0,2.0352292E0,-1.173666E1,-5.8798814E0,1.1518024E0,-7.201079E0,7.681077E0,6.035296E0,1.7965534E1,6.004776E0,-2.98746E0,1.8481208E0,-1.6884295E1,-8.690608E0,2.5143087E-1,1.2951755E1,1.09459035E-1,-5.9143114E0,-2.2897049E1,9.847446E0,2.9510145E0,4.880452E0,1.9136194E1,9.053659E0,-9.213893E0,-2.6067086E-2,-1.260297E1],"categories":[],"categories_nodes":[],"categories_segments":[],"categories_sizes":[],"default_left":[0,0,0,0,0,0,0,0,0,0,0,0,0,0,0,0,0,0,0,0,0,0,0,0,0,0,0,0,0,0,0,0,0,0,0,0,0],"id":2,"left_children":[1,3,5,7,-1,9,11,13,15,17,-1,19,21,23,25,27,29,-1,31,33,35,-1,-1,-1,-1,-1,-1,-1,-1,-1,-1,-1,-1,-1,-1,-1,-1],"loss_changes":[9.7781415E2,2.199518E3,1.3340872E3,8.42388E2,0E0,7.039603E2,6.84168E2,6.913796E2,9.2658167E2,1.6576709E2,0E0,7.556677E2,3.1107245E2,2.7800458E2,1.3637075E3,4.904004E2,2.2047394E1,0E0,2.891211E1,1.0578167E3,4.836253E2,0E0,0E0,0E0,0E0,0E0,0E0,0E0,0E0,0E0,0E0,0E0,0E0,0E0,0E0,0E0,0E0],"parents":[2147483647,0,0,1,1,2,2,3,3,5,5,6,6,7,7,8,8,9,9,11,11,12,12,13,13,14,14,15,15,16,16,18,18,19,19,20,20],"right_children":[2,4,6,8,-1,10,12,14,16,18,-1,20,22,24,26,28,30,-1,32,34,36,-1,-1,-1,-1,-1,-1,-1,-1,-1,-1,-1,-1,-1,-1,-1,-1],"split_conditions":[2.3369E1,2.2796E1,2.8546E1,1.5879E1,-2.828714E1,6.9E0,5.6663E1,-1.9E0,4.616E1,2.1242E1,-7.211279E0,3E-2,3E-2,1.5438908E0,-6E-1,4.2072E1,-1E-2,6.035296E0,0E0,5.2E0,5.6663E1,1.8481208E0,-1.6884295E1,-8.690608E0,2.5143087E-1,1.2951755E1,1.09459035E-1,-5.9143114E0,-2.2897049E1,9.847446E0,2.9510145E0,4.880452E0,1.9136194E1,9.053659E0,-9.213893E0,-2.6067086E-2,-1.260297E1],"split_indices":[5,5,5,4,0,2,8,2,4,4,0,1,0,6,2,4,0,0,3,3,5,0,0,0,0,0,0,0,0,0,0,0,0,0,0,0,0],"split_type":[0,0,0,0,0,0,0,0,0,0,0,0,0,0,0,0,0,0,0,0,0,0,0,0,0,0,0,0,0,0,0,0,0,0,0,0,0],"sum_hessian":[2.11E2,1.61E2,5E1,1.59E2,2E0,1.1E1,3.9E1,1.25E2,3.4E1,1E1,1E0,3.6E1,3E0,1.5E1,1.1E2,3E1,4E0,3E0,7E0,2E1,1.6E1,1E0,2E0,1E1,5E0,8E0,1.02E2,2.9E1,1E0,2E0,2E0,1E0,6E0,1.7E1,3E0,1.3E1,3E0],"tree_param":{"num_deleted":"0","num_feature":"9","num_nodes":"37","size_leaf_vector":"1"}},{"base_weights":[-2.1057908E-1,-4.500472E-1,9.7914095E0,-7.663682E0,-1.9779228E-1,1.1131742E1,2.2100408E0,-7.54754E-1,-1.02743025E1,-1.6312498E0,9.2295784E-1,-1.7766813E0,6.395503E-1,1.2935165E-1,-3.8920043E0,1.6155092E0,-5.097521E0,4.8498282E0,-1.7875807E0,-1.5489644E1,-3.178918E0,-8.350785E-1,3.0021276E0,2.267455E0,-6.7982616E0],"categories":[],"categories_nodes":[],"categories_segments":[],"categories_sizes":[],"default_left":[0,0,0,0,0,0,0,0,0,0,0,0,0,0,0,0,0,0,0,0,0,0,0,0,0],"id":3,"left_children":[1,3,5,7,9,-1,-1,11,-1,13,15,-1,-1,17,19,21,23,-1,-1,-1,-1,-1,-1,-1,-1],"loss_changes":[5.120865E2,3.7689792E2,2.6072754E1,1.18391266E2,3.260353E2,0E0,0E0,5.4222817E0,0E0,3.5478668E2,4.8352216E2,0E0,0E0,4.701906E2,2.7310767E2,3.5252576E2,1.6577109E2,0E0,0E0,0E0,0E0,0E0,0E0,0E0,0E0],"parents":[2147483647,0,0,1,1,2,2,3,3,4,4,7,7,9,9,10,10,13,13,14,14,15,15,16,16],"right_children":[2,4,6,8,10,-1,-1,12,-1,14,16,-1,-1,18,20,22,24,-1,-1,-1,-1,-1,-1,-1,-1],"split_conditions":[2.5592296E0,-2.12E0,3.4E-1,-4.5E0,7.944E0,1.1131742E1,2.2100408E0,-2.85E0,-1.02743025E1,1.1868114E0,5.3413E1,-1.7766813E0,6.395503E-1,-5.361E0,1.1978073E0,5.287E0,2E0,4.8498282E0,-1.7875807E0,-1.5489644E1,-3.178918E0,-8.350785E-1,3.0021276E0,2.267455E0,-6.7982616E0],"split_indices":[6,1,0,2,8,0,0,0,0,7,5,0,0,8,7,4,2,0,0,0,0,0,0,0,0],"split_type":[0,0,0,0,0,0,0,0,0,0,0,0,0,0,0,0,0,0,0,0,0,0,0,0,0],"sum_hessian":[2.11E2,2.07E2,4E0,6E0,2.01E2,3E0,1E0,2E0,4E0,8.8E1,1.13E2,1E0,1E0,5E1,3.8E1,1.02E2,1.1E1,1.4E1,3.6E1,1E0,3.7E1,3.7E1,6.5E1,2E0,9E0],"tree_param":{"num_deleted":"0","num_feature":"9","num_nodes":"25","size_leaf_vector":"1"}},{"base_weights":[-7.565923E-2,-1.9748309E-1,1.2809588E1,1.3909538E-1,-7.7683663E0,4.192512E-1,-5.9452915E0,3.3519921E0,-1.3888878E1,2.1884087E-1,6.6940365E0,-9.970547E0,1.5764145E0,7.534028E0,-5.500292E-1,-5.4168324E0,-1.6768192E1,7.054214E-1,-2.74442E0,1.0620513E1,2.0731697E0,-1.8381635E0,-1.122739E1,2.5999823E0,3.6523104E-1],"categories":[],"categories_nodes":[],"categories_segments":[],"categories_sizes":[],"default_left":[0,0,0,0,0,0,0,0,0,0,0,0,0,0,0,0,0,0,0,0,0,0,0,0,0],"id":4,"left_children":[1,3,-1,5,7,9,11,13,15,17,19,21,23,-1,-1,-1,-1,-1,-1,-1,-1,-1,-1,-1,-1],"loss_changes":[3.3518646E2,5.3882635E2,0E0,3.484663E2,6.592212E2,2.4368466E2,2.8829266E2,6.948735E1,5.5309814E1,2.7586993E2,8.6717285E1,4.055841E1,3.9796667E0,0E0,0E0,0E0,0E0,0E0,0E0,0E0,0E0,0E0,0E0,0E0,0E0],"parents":[2147483647,0,0,1,1,3,3,4,4,5,5,6,6,7,7,8,8,9,9,10,10,11,11,12,12],"right_children":[2,4,-1,6,8,10,12,14,16,18,20,22,24,-1,-1,-1,-1,-1,-1,-1,-1,-1,-1,-1,-1],"split_conditions":[9.9384E1,5.8707E1,1.2809588E1,9.4E0,1.214529E0,5.2941E1,7E0,-1.5E-1,6.1699E1,2.8684E1,3.1294E1,-5.361E0,1E-1,7.534028E0,-5.500292E-1,-5.4168324E0,-1.6768192E1,7.054214E-1,-2.74442E0,1.0620513E1,2.0731697E0,-1.8381635E0,-1.122739E1,2.5999823E0,3.6523104E-1],"split_indices":[8,8,0,2,6,8,3,0,8,8,4,4,0,0,0,0,0,0,0,0,0,0,0,0,0],"split_type":[0,0,0,0,0,0,0,0,0,0,0,0,0,0,0,0,0,0,0,0,0,0,0,0,0],"sum_hessian":[2.11E2,2.1E2,1E0,2.02E2,8E0,1.94E2,8E0,3E0,5E0,1.89E2,5E0,5E0,3E0,1E0,2E0,2E0,3E0,1.63E2,2.6E1,2E0,3E0,1E0,4E0,1E0,2E0],"tree_param":{"num_deleted":"0","num_feature":"9","num_nodes":"25","size_leaf_vector":"1"}},{"base_weights":[-8.57128E-3,2.1753826E0,-3.6660433E-1,-1.2759312E0,6.787557E0,2.879208E-1,-2.6407626E0,1.9654154E0,-4.7367682E0,1.0538765E1,6.530201E-1,-1.5575708E0,8.779601E-1,-4.2285914E0,1.1036836E0,4.541032E0,2.1143235E-1,1.7071604E0,-6.8231997E0,3.6548674E-1,1.193845E1,4.5550694E0,-2.434272E0,-3.2579007E0,2.4475038E0,3.1788728E0,-1.1941756E-1,2.2805486E0,-5.0677443E0,-1.2102644E0,4.006667E0,2.1744363E0,-1.0066565E0,3.5272741E0,-9.6153367E-1,-7.3092484E0,-1.9484531E0,-4.749774E0,-7.584675E-2,-6.600589E0,-1.296013E0,3.3083494E0,-9.475343E-1,-5.986096E-1,5.3664155E0,-5.1845303E0,7.1380115E-1,2.9703608E0,1.0055577E-1,-5.8565316E0,-1.4606962E0,1.2974907E0,-2.9764159E0,6.5538664E0,-7.218209E-1],"categories":[],"categories_nodes":[],"categories_segments":[],"categories_sizes":[],"default_left":[0,0,0,0,0,0,0,0,0,0,0,0,0,0,0,0,0,0,0,0,0,0,0,0,0,0,0,0,0,0,0,0,0,0,0,0,0,0,0,0,0,0,0,0,0,0,0,0,0,0,0,0,0,0,0],"id":5,"left_children":[1,3,5,7,9,11,13,15,17,19,21,23,25,27,29,-1,31,33,35,-1,-1,-1,37,39,41,43,45,47,49,51,53,-1,-1,-1,-1,-1,-1,-1,-1,-1,-1,-1,-1,-1,-1,-1,-1,-1,-1,-1,-1,-1,-1,-1,-1],"loss_changes":[1.6654808E2,4.8625745E2,2.731782E2,2.1125735E2,2.92161E2,1.570752E2,2.484654E2,4.416823E1,1.3270277E2,1.0942865E2,8.33901E1,2.4633003E2,2.5055202E2,1.699878E2,9.2202675E1,0E0,1.8938381E1,1.7989231E1,2.2512512E0,0E0,0E0,0E0,2.1435244E1,1.5531607E2,3.530703E1,2.7595236E2,3.2871213E2,5.685749E0,6.534729E1,3.931126E1,7.705545E1,0E0,0E0,0E0,0E0,0E0,0E0,0E0,0E0,0E0,0E0,0E0,0E0,0E0,0E0,0E0,0E0,0E0,0E0,0E0,0E0,0E0,0E0,0E0,0E0],"parents":[2147483647,0,0,1,1,2,2,3,3,4,4,5,5,6,6,7,7,8,8,9,9,10,10,11,11,12,12,13,13,14,14,16,16,17,17,18,18,22,22,23,23,24,24,25,25,26,26,27,27,28,28,29,29,30,30],"right_children":[2,4,6,8,10,12,14,16,18,20,22,24,26,28,30,-1,32,34,36,-1,-1,-1,38,40,42,44,46,48,50,52,54,-1,-1,-1,-1,-1,-1,-1,-1,-1,-1,-1,-1,-1,-1,-1,-1,-1,-1,-1,-1,-1,-1,-1,-1],"split_conditions":[-5.701E0,1.2E0,4.9E-1,-1.9E0,1.8E0,2.847E0,7E0,1.2621561E0,-2.995E1,-2.85E0,-3.271E0,3.9E0,1.2134E1,1.1E0,1.5879E1,4.541032E0,-5E0,-8.2E-1,1E0,3.6548674E-1,1.193845E1,4.5550694E0,-5.6E-1,1.691E0,9.3E0,9.881007E-1,-5.8E-1,2.63E0,2.2072E1,3.2E0,7.9E0,2.1744363E0,-1.0066565E0,3.5272741E0,-9.6153367E-1,-7.3092484E0,-1.9484531E0,-4.749774E0,-7.584675E-2,-6.600589E0,-1.296013E0,3.3083494E0,-9.475343E-1,-5.986096E-1,5.3664155E0,-5.1845303E0,7.1380115E-1,2.9703608E0,1.0055577E-1,-5.8565316E0,-1.4606962E0,1.2974907E0,-2.9764159E0,6.5538664E0,-7.218209E-1],"split_indices":[4,2,0,2,3,4,2,7,4,1,8,2,4,3,5,0,2,0,2,0,0,0,0,8,2,7,1,1,8,3,3,0,0,0,0,0,0,0,0,0,0,0,0,0,0,0,0,0,0,0,0,0,0,0,0],"split_type":[0,0,0,0,0,0,0,0,0,0,0,0,0,0,0,0,0,0,0,0,0,0,0,0,0,0,0,0,0,0,0,0,0,0,0,0,0,0,0,0,0,0,0,0,0,0,0,0,0,0,0,0,0,0,0],"sum_hessian":[2.11E2,2.9E1,1.82E2,1.7E1,1.2E1,1.42E2,4E1,9E0,8E0,7E0,5E0,3.4E1,1.08E2,2.8E1,1.2E1,3E0,6E0,2E0,6E0,1E0,6E0,2E0,3E0,2.4E1,1E1,3.2E1,7.6E1,3E0,2.5E1,7E0,5E0,2E0,4E0,1E0,1E0,5E0,1E0,1E0,2E0,8E0,1.6E1,8E0,2E0,1.2E1,2E1,1E1,6.6E1,2E0,1E0,2E1,5E0,3E0,4E0,3E0,2E0],"tree_param":{"num_deleted":"0","num_feature":"9","num_nodes":"55","size_leaf_vector":"1"}},{"base_weights":[2.6831774E-2,2.944779E-1,-1.9865403E0,-3.7487827E-2,3.249725E0,-6.7283645E0,-4.641661E-1,2.4211596E-1,-4.53636E0,7.670662E0,6.184724E-1,-1.0556777E1,-2.1724637E0,4.4780397E-1,-5.784598E0,1.4708521E0,-1.3630415E-1,-2.5176132E0,-8.404231E0,8.642724E0,9.1414464E-1,-1.3026133E0,3.9547322E0,-2.522192E0,-5.566393E-1,2.4914303E0,-1.0782702E0,2.1799463E-1,4.9560537E0,-1.6784234E0,4.8889357E-1,-3.3664095E0,1.5850779E-2,-3.228319E0,1.9662607E-1,6.464594E0,1.2329292E-1,3.1923807E0,2.5571942E-1,1.48634E0,-2.2270415E0],"categories":[],"categories_nodes":[],"categories_segments":[],"categories_sizes":[],"default_left":[0,0,0,0,0,0,0,0,0,0,0,0,0,0,0,0,0,0,0,0,0,0,0,0,0,0,0,0,0,0,0,0,0,0,0,0,0,0,0,0,0],"id":6,"left_children":[1,3,5,7,9,11,13,15,17,19,21,-1,23,25,-1,27,29,31,-1,-1,-1,33,35,-1,-1,37,39,-1,-1,-1,-1,-1,-1,-1,-1,-1,-1,-1,-1,-1,-1],"loss_changes":[1.1480878E2,1.845896E2,1.7727576E2,2.1498454E2,2.1619244E2,8.158969E1,9.968522E1,7.507536E1,5.6814697E1,3.7978027E1,8.8498146E1,0E0,8.256569E-1,5.8837624E1,0E0,1.647934E2,1.2038452E2,1.7290028E1,0E0,0E0,0E0,2.6648933E1,4.7218994E1,0E0,0E0,1.1686146E1,3.5725204E1,0E0,0E0,0E0,0E0,0E0,0E0,0E0,0E0,0E0,0E0,0E0,0E0,0E0,0E0],"parents":[2147483647,0,0,1,1,2,2,3,3,4,4,5,5,6,6,7,7,8,8,9,9,10,10,12,12,13,13,15,15,16,16,17,17,21,21,22,22,25,25,26,26],"right_children":[2,4,6,8,10,12,14,16,18,20,22,-1,24,26,-1,28,30,32,-1,-1,-1,34,36,-1,-1,38,40,-1,-1,-1,-1,-1,-1,-1,-1,-1,-1,-1,-1,-1,-1],"split_conditions":[4.0255E1,2.7103E1,4.616E1,2.31E1,1.2139E1,5.2E0,9.8639E1,-5.1E-1,5.9E-1,2.8E-1,2.7103E1,-1.0556777E1,2E-2,2.2796E1,-5.784598E0,-6.8E-1,-1E-2,2.1253397E0,-8.404231E0,8.642724E0,9.1414464E-1,-7E-2,4.8119E1,-2.522192E0,-5.566393E-1,4.9E-1,2.2072E1,2.1799463E-1,4.9560537E0,-1.6784234E0,4.8889357E-1,-3.3664095E0,1.5850779E-2,-3.228319E0,1.9662607E-1,6.464594E0,1.2329292E-1,3.1923807E0,2.5571942E-1,1.48634E0,-2.2270415E0],"split_indices":[4,4,4,4,8,3,4,1,1,0,5,0,0,8,0,1,1,6,0,0,0,1,5,0,0,0,5,0,0,0,0,0,0,0,0,0,0,0,0,0,0],"split_type":[0,0,0,0,0,0,0,0,0,0,0,0,0,0,0,0,0,0,0,0,0,0,0,0,0,0,0,0,0,0,0,0,0,0,0,0,0,0,0,0,0],"sum_hessian":[2.11E2,1.87E2,2.4E1,1.69E2,1.8E1,5E0,1.9E1,1.6E2,9E0,6E0,1.2E1,2E0,3E0,1.7E1,2E0,3.7E1,1.23E2,7E0,2E0,5E0,1E0,8E0,4E0,2E0,1E0,7E0,1E1,2.8E1,9E0,3.5E1,8.8E1,5E0,2E0,3E0,5E0,2E0,2E0,5E0,2E0,3E0,7E0],"tree_param":{"num_deleted":"0","num_feature":"9","num_nodes":"41","size_leaf_vector":"1"}},{"base_weights":[-5.3443488E-2,-4.3317547E0,7.882116E-3,1.0188087E0,-2.2857955E-1,2.380112E0,-9.62373E-1,-3.648261E0,-1.0353937E-1,-2.3900816E-1,3.266986E0,-2.6184464E0,-2.506238E-1,7.7458215E-1,-6.0558286E0,4.6895245E-1,-5.1571345E-1,8.227898E-1,-1.243554E0,3.7762442E0,-5.3472084E-1,-4.131302E0,-2.2944203E-1,-5.7771677E-1,1.0289251E0,1.8492309E0,-6.8235767E-1,-5.972735E-1,1.2838037E0,-1.7857469E0,5.2032374E-2],"categories":[],"categories_nodes":[],"categories_segments":[],"categories_sizes":[],"default_left":[0,0,0,0,0,0,0,0,0,0,0,0,0,0,0,0,0,0,0,0,0,0,0,0,0,0,0,0,0,0,0],"id":7,"left_children":[1,-1,3,5,7,9,11,13,15,17,19,21,23,25,-1,27,29,-1,-1,-1,-1,-1,-1,-1,-1,-1,-1,-1,-1,-1,-1],"loss_changes":[5.569983E1,0E0,5.044031E1,1.10184296E2,7.270393E1,5.655902E1,1.9353111E1,6.86333E1,3.941272E1,8.493764E0,3.690056E1,1.707959E1,6.0308237E0,5.970601E0,0E0,6.1590744E1,7.0052704E1,0E0,0E0,0E0,0E0,0E0,0E0,0E0,0E0,0E0,0E0,0E0,0E0,0E0,0E0],"parents":[2147483647,0,0,2,2,3,3,4,4,5,5,6,6,7,7,8,8,9,9,10,10,11,11,12,12,13,13,15,15,16,16],"right_children":[2,-1,4,6,8,10,12,14,16,18,20,22,24,26,-1,28,30,-1,-1,-1,-1,-1,-1,-1,-1,-1,-1,-1,-1,-1,-1],"split_conditions":[-8.2388E1,-4.3317547E0,-2.988E0,1.2763E1,-1.547E0,1.1E0,2.0533E1,1E-2,1.2227589E0,-5.8E-1,7.7E-1,7.2E-1,4.7E-1,-2E-2,-6.0558286E0,1.0039371E0,1.5772157E0,8.227898E-1,-1.243554E0,3.7762442E0,-5.3472084E-1,-4.131302E0,-2.2944203E-1,-5.7771677E-1,1.0289251E0,1.8492309E0,-6.8235767E-1,-5.972735E-1,1.2838037E0,-1.7857469E0,5.2032374E-2],"split_indices":[8,0,8,4,8,3,4,1,6,1,1,0,1,0,0,6,7,0,0,0,0,0,0,0,0,0,0,0,0,0,0],"split_type":[0,0,0,0,0,0,0,0,0,0,0,0,0,0,0,0,0,0,0,0,0,0,0,0,0,0,0,0,0,0,0],"sum_hessian":[2.11E2,2E0,2.09E2,3.9E1,1.7E2,2.3E1,1.6E1,5E0,1.65E2,6E0,1.7E1,4E0,1.2E1,2E0,3E0,6.9E1,9.6E1,3E0,3E0,1.5E1,2E0,2E0,2E0,1E1,2E0,1E0,1E0,3E1,3.9E1,2.9E1,6.7E1],"tree_param":{"num_deleted":"0","num_feature":"9","num_nodes":"31","size_leaf_vector":"1"}},{"base_weights":[-5.3710725E-2,5.762912E-2,-2.5725572E0,-3.863733E-1,5.055176E-1,-3.45134E-1,-3.6270797E0,-6.241195E-2,-2.8370461E0,3.9583592E0,2.8662512E-1,-7.803176E-1,4.752084E-1,-4.2267976E0,-3.0924523E-1,2.1544804E-1,-2.128967E0,-4.00603E0,-3.9726225E-1,2.0257456E0,6.8057137E0,-1.5467254E0,5.6376547E-1,-1.9206032E-1,4.6104746E0,-3.5523305E0,1.2475017E0,-1.2839049E0,-4.6977544E0,-2.408031E0,1.742594E0,2.3831546E0,2.930547E-1,4.586914E-1,-2.8586972E0,1.9105915E0,-2.4460857E-1],"categories":[],"categories_nodes":[],"categories_segments":[],"categories_sizes":[],"default_left":[0,0,0,0,0,0,0,0,0,0,0,0,0,0,0,0,0,0,0,0,0,0,0,0,0,0,0,0,0,0,0,0,0,0,0,0,0],"id":8,"left_children":[1,3,5,7,9,11,13,15,17,19,21,-1,-1,-1,-1,23,25,27,29,31,-1,33,35,-1,-1,-1,-1,-1,-1,-1,-1,-1,-1,-1,-1,-1,-1],"loss_changes":[5.9628376E1,4.0764675E1,1.9848259E1,8.156804E1,7.591469E1,1.8018626E0,1.0586113E1,5.330541E1,3.2589355E1,1.914206E1,5.0147415E1,0E0,0E0,0E0,0E0,1.477925E2,5.7319958E1,8.972382E0,2.5716656E1,2.3712406E0,0E0,3.5538918E1,9.302685E1,0E0,0E0,0E0,0E0,0E0,0E0,0E0,0E0,0E0,0E0,0E0,0E0,0E0,0E0],"parents":[2147483647,0,0,1,1,2,2,3,3,4,4,5,5,6,6,7,7,8,8,9,9,10,10,15,15,16,16,17,17,18,18,19,19,21,21,22,22],"right_children":[2,4,6,8,10,12,14,16,18,20,22,-1,-1,-1,-1,24,26,28,30,32,-1,34,36,-1,-1,-1,-1,-1,-1,-1,-1,-1,-1,-1,-1,-1,-1],"split_conditions":[9.4E0,3.2E0,-2.988E0,3E0,3.4E0,4.1E-1,5.5E-1,6.6E-1,2.1E-1,2.3282926E0,-4.7E-1,-7.803176E-1,4.752084E-1,-4.2267976E0,-3.0924523E-1,5E-1,6.6E-1,1.1388621E0,8.668E0,-7.1E-1,6.8057137E0,-7.4E-1,2E-2,-1.9206032E-1,4.6104746E0,-3.5523305E0,1.2475017E0,-1.2839049E0,-4.6977544E0,-2.408031E0,1.742594E0,2.3831546E0,2.930547E-1,4.586914E-1,-2.8586972E0,1.9105915E0,-2.4460857E-1],"split_indices":[2,3,4,3,3,0,0,1,1,6,1,0,0,0,0,1,0,6,4,0,0,1,1,0,0,0,0,0,0,0,0,0,0,0,0,0,0],"split_type":[0,0,0,0,0,0,0,0,0,0,0,0,0,0,0,0,0,0,0,0,0,0,0,0,0,0,0,0,0,0,0,0,0,0,0,0,0],"sum_hessian":[2.11E2,2.03E2,8E0,1.02E2,1.01E2,3E0,5E0,9.1E1,1.1E1,5E0,9.6E1,2E0,1E0,4E0,1E0,8.1E1,1E1,7E0,4E0,4E0,1E0,1.2E1,8.4E1,7.5E1,6E0,7E0,3E0,2E0,5E0,2E0,2E0,3E0,1E0,5E0,7E0,3.1E1,5.3E1],"tree_param":{"num_deleted":"0","num_feature":"9","num_nodes":"37","size_leaf_vector":"1"}},{"base_weights":[-2.9563692E-3,1.788442E-1,-1.4349294E0,4.509202E-2,1.9854051E0,9.469725E-1,-1.9591583E0,4.9271476E-1,-5.5612653E-1,3.3926415E-1,4.549378E0,1.7264227E0,-1.4480186E-1,-2.5400507E0,-5.1606506E-1,1.0279171E-1,2.1901264E0,-1.86173E0,2.0107803E-1,1.7006435E0,-1.087968E0,3.0338824E-1,-5.25591E-1,-1.3729312E0,-3.8657217E0,-7.787602E-1,9.0448454E-2,5.973584E-1,-1.0230632E0,2.7741647E0,-6.910582E-1,-4.3789725E0,-1.1236786E0,3.4341152E0,-8.42095E-2,2.1830897E0,6.4798266E-1,9.152966E-3,-1.8257663E0,-2.2783878E0,-1.9088826E-1,-8.186008E-1,-4.309426E0,-5.854721E-3,1.4652741E-1],"categories":[],"categories_nodes":[],"categories_segments":[],"categories_sizes":[],"default_left":[0,0,0,0,0,0,0,0,0,0,0,0,0,0,0,0,0,0,0,0,0,0,0,0,0,0,0,0,0,0,0,0,0,0,0,0,0,0,0,0,0,0,0,0,0],"id":9,"left_children":[1,3,5,7,9,11,13,15,17,19,-1,-1,21,23,25,27,29,31,33,35,37,-1,-1,39,41,-1,43,-1,-1,-1,-1,-1,-1,-1,-1,-1,-1,-1,-1,-1,-1,-1,-1,-1,-1],"loss_changes":[5.5459892E1,4.5558517E1,3.1833282E1,4.7907455E1,5.327626E1,4.5207233E0,1.5424248E1,6.726165E1,7.552524E1,1.9343412E1,0E0,0E0,6.736779E-1,1.6301285E1,1.1926178E0,4.737895E1,3.3909668E1,4.7044334E1,4.5517597E1,1.0963469E0,4.0821476E0,0E0,0E0,9.172987E0,4.533142E0,0E0,1.8466348E-2,0E0,0E0,0E0,0E0,0E0,0E0,0E0,0E0,0E0,0E0,0E0,0E0,0E0,0E0,0E0,0E0,0E0,0E0],"parents":[2147483647,0,0,1,1,2,2,3,3,4,4,5,5,6,6,7,7,8,8,9,9,12,12,13,13,14,14,15,15,16,16,17,17,18,18,19,19,20,20,23,23,24,24,26,26],"right_children":[2,4,6,8,10,12,14,16,18,20,-1,-1,22,24,26,28,30,32,34,36,38,-1,-1,40,42,-1,44,-1,-1,-1,-1,-1,-1,-1,-1,-1,-1,-1,-1,-1,-1,-1,-1,-1,-1],"split_conditions":[4.1602E1,9.7E-1,1.6E0,2E-2,5.51E-1,5.3413E1,2.4E-1,-1E-2,8E-2,8E-1,4.549378E0,1.7264227E0,-3E-2,4.4E0,4.812E1,0E0,3.1776E1,1.3E0,8.9868563E-1,5E-1,1.1E0,3.0338824E-1,-5.25591E-1,1.2283461E0,-2.2E-1,-7.787602E-1,2.6E-1,5.973584E-1,-1.0230632E0,2.7741647E0,-6.910582E-1,-4.3789725E0,-1.1236786E0,3.4341152E0,-8.42095E-2,2.1830897E0,6.4798266E-1,9.152966E-3,-1.8257663E0,-2.2783878E0,-1.9088826E-1,-8.186008E-1,-4.309426E0,-5.854721E-3,1.4652741E-1],"split_indices":[4,1,3,1,4,4,1,1,0,2,0,0,0,3,4,0,4,3,7,0,3,0,0,6,1,0,0,0,0,0,0,0,0,0,0,0,0,0,0,0,0,0,0,0,0],"split_type":[0,0,0,0,0,0,0,0,0,0,0,0,0,0,0,0,0,0,0,0,0,0,0,0,0,0,0,0,0,0,0,0,0,0,0,0,0,0,0,0,0,0,0,0,0],"sum_hessian":[2.11E2,1.88E2,2.3E1,1.76E2,1.2E1,4E0,1.9E1,1.01E2,7.5E1,8E0,4E0,2E0,2E0,1.3E1,6E0,8.3E1,1.8E1,2.7E1,4.8E1,4E0,4E0,1E0,1E0,8E0,5E0,4E0,2E0,5.8E1,2.5E1,1.5E1,3E0,5E0,2.2E1,3E0,4.5E1,2E0,2E0,2E0,2E0,4E0,4E0,1E0,4E0,1E0,1E0],"tree_param":{"num_deleted":"0","num_feature":"9","num_nodes":"45","size_leaf_vector":"1"}},{"base_weights":[-7.937214E-3,-9.84229E-2,1.507526E0,-5.8494423E-2,-2.7108707E0,2.2616167E0,-0E0,-1.0453294E-1,2.2095165E0,1.2812937E0,3.465057E0,8.719722E-1,-4.3664128E-1,6.955446E-2,-7.447476E-1,3.588515E-1,1.3920119E0,2.371895E-2,-6.0133433E-1,-2.1250583E-2,1.993897E0,5.436053E-1,-1.4086956E0],"categories":[],"categories_nodes":[],"categories_segments":[],"categories_sizes":[],"default_left":[0,0,0,0,0,0,0,0,0,0,0,0,0,0,0,0,0,0,0,0,0,0,0],"id":10,"left_children":[1,3,5,7,-1,9,11,13,-1,15,-1,-1,17,19,21,-1,-1,-1,-1,-1,-1,-1,-1],"loss_changes":[2.9205364E1,2.0780262E1,1.3647661E1,2.0988674E1,0E0,4.950859E0,2.2832935E0,2.1903399E1,0E0,9.5752716E-2,0E0,0E0,3.2331175E-1,2.71468E1,3.67012E1,0E0,0E0,0E0,0E0,0E0,0E0,0E0,0E0],"parents":[2147483647,0,0,1,1,2,2,3,3,5,5,6,6,7,7,9,9,12,12,13,13,14,14],"right_children":[2,4,6,8,-1,10,12,14,-1,16,-1,-1,18,20,22,-1,-1,-1,-1,-1,-1,-1,-1],"split_conditions":[2.4846315E0,2.4734585E0,2.5108168E0,2.4604125E0,-2.7108707E0,1.517E1,-8.07E-1,2.1112485E0,2.2095165E0,-2.5E-1,3.465057E0,8.719722E-1,-7.4E-1,2.0280511E0,1.324E1,3.588515E-1,1.3920119E0,2.371895E-2,-6.0133433E-1,-2.1250583E-2,1.993897E0,5.436053E-1,-1.4086956E0],"split_indices":[6,6,7,6,0,5,4,6,0,0,0,0,0,7,8,0,0,0,0,0,0,0,0],"split_type":[0,0,0,0,0,0,0,0,0,0,0,0,0,0,0,0,0,0,0,0,0,0,0],"sum_hessian":[2.11E2,2E2,1.1E1,1.98E2,2E0,7E0,4E0,1.95E2,3E0,5E0,2E0,1E0,3E0,1.54E2,4.1E1,1E0,4E0,1E0,2E0,1.48E2,6E0,1.4E1,2.7E1],"tree_param":{"num_deleted":"0","num_feature":"9","num_nodes":"23","size_leaf_vector":"1"}},{"base_weights":[2.8992733E-2,-1.4276227E0,1.00653626E-1,-3.880171E-1,-3.720697E0,1.3291605E0,1.6458645E-2,-1.5207433E0,5.937673E-1,9.796436E-2,2.0851624E0,-3.8972758E-2,1.7337557E0,-3.9122415E-1,-1.7635083E0,1.0322374E0,-5.750567E-1,-7.7752537E-1,1.2359625E0,2.3210032E0,2.1213841E-1,5.9339523E-2,-1.3526162E0,-7.999629E-1,2.402492E0,-9.194577E-1,-1.7086422E-1,6.936718E-1,2.4749465E0,-1.3140528E-1,7.232358E-1,-2.4510918E0,3.357873E-1,2.8690717E0,2.6308644E-1],"categories":[],"categories_nodes":[],"categories_segments":[],"categories_sizes":[],"default_left":[0,0,0,0,0,0,0,0,0,0,0,0,0,0,0,0,0,0,0,0,0,0,0,0,0,0,0,0,0,0,0,0,0,0,0],"id":11,"left_children":[1,3,5,7,-1,9,11,13,15,17,19,21,23,-1,-1,-1,-1,25,-1,27,-1,29,31,-1,33,-1,-1,-1,-1,-1,-1,-1,-1,-1,-1],"loss_changes":[2.2259487E1,2.2354143E1,2.0961792E1,9.808981E0,0E0,1.1874125E1,1.8266224E1,3.8535595E-1,3.1606388E0,6.9434114E0,3.0161743E0,2.4114588E1,1.2104267E1,0E0,0E0,0E0,0E0,1.7641354E-1,0E0,5.130768E-3,0E0,2.2135405E1,2.4954908E1,0E0,4.2048817E0,0E0,0E0,0E0,0E0,0E0,0E0,0E0,0E0,0E0,0E0],"parents":[2147483647,0,0,1,1,2,2,3,3,5,5,6,6,7,7,8,8,9,9,10,10,11,11,12,12,17,17,19,19,21,21,22,22,24,24],"right_children":[2,4,6,8,-1,10,12,14,16,18,20,22,24,-1,-1,-1,-1,26,-1,28,-1,30,32,-1,34,-1,-1,-1,-1,-1,-1,-1,-1,-1,-1],"split_conditions":[8.8587546E-1,8.927004E-1,9.299616E-1,8.579666E-1,-3.720697E0,8.988697E-1,1E1,8.4066296E-1,-4E-2,2.5E-1,4.401E0,7.9E0,-1.43E0,-3.9122415E-1,-1.7635083E0,1.0322374E0,-5.750567E-1,5.1E0,1.2359625E0,-3.103E0,2.1213841E-1,4.8E0,8.358E0,-7.999629E-1,8.3E-1,-9.194577E-1,-1.7086422E-1,6.936718E-1,2.4749465E0,-1.3140528E-1,7.232358E-1,-2.4510918E0,3.357873E-1,2.8690717E0,2.6308644E-1],"split_indices":[7,6,7,7,0,6,3,6,1,0,8,3,1,0,0,0,0,2,0,4,0,2,4,0,0,0,0,0,0,0,0,0,0,0,0],"split_type":[0,0,0,0,0,0,0,0,0,0,0,0,0,0,0,0,0,0,0,0,0,0,0,0,0,0,0,0,0,0,0,0,0,0,0],"sum_hessian":[2.11E2,9E0,2.02E2,7E0,2E0,1.2E1,1.9E2,3E0,4E0,5E0,7E0,1.85E2,5E0,1E0,2E0,3E0,1E0,3E0,2E0,6E0,1E0,1.73E2,1.2E1,1E0,4E0,2E0,1E0,1E0,5E0,1.35E2,3.8E1,7E0,5E0,3E0,1E0],"tree_param":{"num_deleted":"0","num_feature":"9","num_nodes":"35","size_leaf_vector":"1"}},{"base_weights":[-5.062004E-3,1.992139E0,-3.361696E-2,-6.565942E-1,6.976942E-2,2.5691468E-1,-1.4725966E0,8.6031E-1,-5.6493532E-2,-8.566399E-1,1.0955777E0,-2.1577162E-1,-1.7452662E0,-2.4283493E-1,1.7451264E0,-1.6467359E0,-1.4756758E-2,5.758867E-1,-1.5468279E0,1.2217102E0,3.8258668E-2,-1.9940277E0,-2.4805203E-1,-8.819129E-1,3.382083E-1,3.729038E0,5.7765794E-1,1.074907E0,-7.4025825E-2],"categories":[],"categories_nodes":[],"categories_segments":[],"categories_sizes":[],"default_left":[0,0,0,0,0,0,0,0,0,0,0,0,0,0,0,0,0,0,0,0,0,0,0,0,0,0,0,0,0],"id":12,"left_children":[1,-1,3,5,7,9,11,13,15,17,19,-1,21,23,25,-1,27,-1,-1,-1,-1,-1,-1,-1,-1,-1,-1,-1,-1],"loss_changes":[1.2137742E1,0E0,1.3577226E1,2.2753254E1,1.8123333E1,1.4949363E1,5.086979E0,2.4840818E1,1.0379424E1,7.8214965E0,1.1409206E0,0E0,4.324795E0,4.7596903E0,3.0228977E1,0E0,1.0015399E1,0E0,0E0,0E0,0E0,0E0,0E0,0E0,0E0,0E0,0E0,0E0,0E0],"parents":[2147483647,0,0,2,2,3,3,4,4,5,5,6,6,7,7,8,8,9,9,10,10,12,12,13,13,14,14,16,16],"right_children":[2,-1,4,6,8,10,12,14,16,18,20,-1,22,24,26,-1,28,-1,-1,-1,-1,-1,-1,-1,-1,-1,-1,-1,-1],"split_conditions":[-6.1E0,1.992139E0,3E-1,-3.605E0,-5.6E-1,-1.2E0,9.7074187E-1,-5.69E-1,-4.7E-1,-2.36E0,2.9E-1,-2.1577162E-1,2.4232E1,1.3237E1,3.3E0,-1.6467359E0,-2.7E-1,5.758867E-1,-1.5468279E0,1.2217102E0,3.8258668E-2,-1.9940277E0,-2.4805203E-1,-8.819129E-1,3.382083E-1,3.729038E0,5.7765794E-1,1.074907E0,-7.4025825E-2],"split_indices":[2,0,3,4,1,0,6,5,1,1,0,0,4,8,3,0,1,0,0,0,0,0,0,0,0,0,0,0,0],"split_type":[0,0,0,0,0,0,0,0,0,0,0,0,0,0,0,0,0,0,0,0,0,0,0,0,0,0,0,0,0],"sum_hessian":[2.11E2,2E0,2.09E2,2.9E1,1.8E2,1.4E1,1.5E1,2.4E1,1.56E2,6E0,8E0,3E0,1.2E1,1.1E1,1.3E1,3E0,1.53E2,2E0,4E0,7E0,1E0,1E1,2E0,5E0,6E0,4E0,9E0,7E0,1.46E2],"tree_param":{"num_deleted":"0","num_feature":"9","num_nodes":"29","size_leaf_vector":"1"}},{"base_weights":[1.3869914E-2,-1.18474804E-1,2.6762867E-1,2.4512047E-1,-4.4621003E-1,2.5698974E0,9.6774004E-2,5.0299425E-2,1.9064008E0,7.610005E-1,-6.042204E-1,-6.0463727E-1,2.8649026E-1,1.0184673E0,-2.0738389E-1,3.3379898E0,-0E0,2.3012824E-1,1.3645587E0,-1.9056045E0,-2.1700923E-1,-1.0497614E0,2.363425E-1,6.0989803E-1,-3.578559E-1,-8.547916E-2,1.519719E0,-6.208872E-1,4.7766805E-1,4.1446248E-1,-6.252705E-1,-1.503424E-1,6.6404635E-1,-9.505579E-1,-2.6212006E0,9.965262E-1,-5.2991116E-1,-1.9469631E0,-1.2546639E-1,6.5509224E-1,-3.9743796E-1,9.049398E-1,-1.063641E0,-2.149674E0,1.1183964E-1],"categories":[],"categories_nodes":[],"categories_segments":[],"categories_sizes":[],"default_left":[0,0,0,0,0,0,0,0,0,0,0,0,0,0,0,0,0,0,0,0,0,0,0,0,0,0,0,0,0,0,0,0,0,0,0,0,0,0,0,0,0,0,0,0,0],"id":13,"left_children":[1,3,5,7,9,-1,11,13,15,17,19,21,23,25,27,-1,29,31,-1,33,35,37,39,41,43,-1,-1,-1,-1,-1,-1,-1,-1,-1,-1,-1,-1,-1,-1,-1,-1,-1,-1,-1,-1],"loss_changes":[7.1529284E0,1.6794203E1,2.843943E1,2.156925E1,1.4573876E1,0E0,9.351811E0,1.5437648E1,1.9128157E1,2.553741E0,3.282333E1,5.8713427E0,1.1682035E1,7.337861E0,1.4178301E1,0E0,1.2972639E0,1.09553E0,0E0,7.7240906E0,2.0268715E1,8.027788E0,1.8553076E0,1.9230206E1,1.625137E1,0E0,0E0,0E0,0E0,0E0,0E0,0E0,0E0,0E0,0E0,0E0,0E0,0E0,0E0,0E0,0E0,0E0,0E0,0E0,0E0],"parents":[2147483647,0,0,1,1,2,2,3,3,4,4,6,6,7,7,8,8,9,9,10,10,11,11,12,12,13,13,14,14,16,16,17,17,19,19,20,20,21,21,22,22,23,23,24,24],"right_children":[2,4,6,8,10,-1,12,14,16,18,20,22,24,26,28,-1,30,32,-1,34,36,38,40,42,44,-1,-1,-1,-1,-1,-1,-1,-1,-1,-1,-1,-1,-1,-1,-1,-1,-1,-1,-1,-1],"split_conditions":[1.7887E1,1.1806042E0,1.8372E1,1.1664811E0,-1.37E0,2.5698974E0,1.1652285E0,-1.547E0,1.1745726E0,2.1887407E0,-4E-1,3.5E0,4.0255E1,-5.8E-1,1.0039371E0,3.3379898E0,3.3E0,-2.36E0,1.3645587E0,-8.07E-1,-3.3E-1,3.278E1,4.8E0,5.6E0,4.4665E1,-8.547916E-2,1.519719E0,-6.208872E-1,4.7766805E-1,4.1446248E-1,-6.252705E-1,-1.503424E-1,6.6404635E-1,-9.505579E-1,-2.6212006E0,9.965262E-1,-5.2991116E-1,-1.9469631E0,-1.2546639E-1,6.5509224E-1,-3.9743796E-1,9.049398E-1,-1.063641E0,-2.149674E0,1.1183964E-1],"split_indices":[8,7,8,7,0,0,6,5,7,6,0,3,8,1,6,0,3,0,0,5,1,4,3,2,8,0,0,0,0,0,0,0,0,0,0,0,0,0,0,0,0,0,0,0,0],"split_type":[0,0,0,0,0,0,0,0,0,0,0,0,0,0,0,0,0,0,0,0,0,0,0,0,0,0,0,0,0,0,0,0,0,0,0,0,0,0,0,0,0,0,0,0,0],"sum_hessian":[2.11E2,1.39E2,7.2E1,6.6E1,7.3E1,4E0,6.8E1,6E1,6E0,8E0,6.5E1,1.4E1,5.4E1,1.2E1,4.8E1,3E0,3E0,5E0,3E0,1.4E1,5.1E1,9E0,5E0,3.6E1,1.8E1,4E0,8E0,3E1,1.8E1,2E0,1E0,3E0,2E0,7E0,7E0,1E1,4.1E1,4E0,5E0,3E0,2E0,3.1E1,5E0,3E0,1.5E1],"tree_param":{"num_deleted":"0","num_feature":"9","num_nodes":"45","size_leaf_vector":"1"}},{"base_weights":[8.159928E-3,1.7765866E-1,-1.3356023E-1,2.186769E-1,-1.8750459E0,-2.5826442E-1,4.7743312E-1,3.712855E-1,-2.2918297E-1,-5.9040897E-2,-6.8019056E-1,-1.2287163E-1,1.3944992E0,1.7937426E-1,7.4721736E-1,-8.15858E-1,3.7435234E-1,1.9524446E-1,-5.2318734E-1,-1.3243266E0,-7.123577E-2,-9.0584207E-1,3.2465324E-1,-7.2348654E-2,2.2910776E0,5.2599E-1,-5.677701E-1,2.0395346E0,2.992637E-1,-1.102872E0,1.0314137E-1,8.576791E-1,-3.3080885E-1,4.145174E-2,1.3845373E0,1.3824005E-1,-1.4640098E0,-6.7512107E-1,-2.183948E0,7.899097E-1,-1.1400131E0,-1.5218574E0,8.7872315E-3,9.856487E-1,-3.9927286E-1,-5.206999E-1,6.3135254E-1,3.4979856E-1,2.6864476E0],"categories":[],"categories_nodes":[],"categories_segments":[],"categories_sizes":[],"default_left":[0,0,0,0,0,0,0,0,0,0,0,0,0,0,0,0,0,0,0,0,0,0,0,0,0,0,0,0,0,0,0,0,0,0,0,0,0,0,0,0,0,0,0,0,0,0,0,0,0],"id":14,"left_children":[1,3,5,7,-1,9,11,13,15,17,19,21,23,25,27,29,31,33,35,37,39,41,43,45,47,-1,-1,-1,-1,-1,-1,-1,-1,-1,-1,-1,-1,-1,-1,-1,-1,-1,-1,-1,-1,-1,-1,-1,-1],"loss_changes":[5.116703E0,8.560702E0,8.95955E0,6.647852E0,0E0,8.106037E0,1.1194443E1,5.051182E0,9.161811E0,8.013148E0,1.2051447E1,4.85508E0,1.0709096E1,1.2987852E1,1.325981E1,3.552703E0,4.7197E0,7.9761505E0,1.5150499E1,6.8680477E0,1.6550344E1,2.8456316E0,4.7060127E0,1.5896599E0,2.8675404E0,0E0,0E0,0E0,0E0,0E0,0E0,0E0,0E0,0E0,0E0,0E0,0E0,0E0,0E0,0E0,0E0,0E0,0E0,0E0,0E0,0E0,0E0,0E0,0E0],"parents":[2147483647,0,0,1,1,2,2,3,3,5,5,6,6,7,7,8,8,9,9,10,10,11,11,12,12,13,13,14,14,15,15,16,16,17,17,18,18,19,19,20,20,21,21,22,22,23,23,24,24],"right_children":[2,4,6,8,-1,10,12,14,16,18,20,22,24,26,28,30,32,34,36,38,40,42,44,46,48,-1,-1,-1,-1,-1,-1,-1,-1,-1,-1,-1,-1,-1,-1,-1,-1,-1,-1,-1,-1,-1,-1,-1,-1],"split_conditions":[8.884E0,5.6663E1,5.2E0,6.6E0,-1.8750459E0,2E-2,2.3805E1,1.2369E1,8.1E0,2.0073638E0,4E0,3.7E0,2.3E0,5.913E0,1.469E1,1.5011843E0,4.736E0,1.6998154E0,2.0049E1,3.3E0,6.3E0,6.9E0,7.7E0,4.9E-1,-5.8E-1,5.2599E-1,-5.677701E-1,2.0395346E0,2.992637E-1,-1.102872E0,1.0314137E-1,8.576791E-1,-3.3080885E-1,4.145174E-2,1.3845373E0,1.3824005E-1,-1.4640098E0,-6.7512107E-1,-2.183948E0,7.899097E-1,-1.1400131E0,-1.5218574E0,8.7872315E-3,9.856487E-1,-3.9927286E-1,-5.206999E-1,6.3135254E-1,3.4979856E-1,2.6864476E0],"split_indices":[8,5,2,2,0,0,4,4,2,7,3,3,3,5,4,6,4,7,8,2,3,2,3,0,1,0,0,0,0,0,0,0,0,0,0,0,0,0,0,0,0,0,0,0,0,0,0,0,0],"split_type":[0,0,0,0,0,0,0,0,0,0,0,0,0,0,0,0,0,0,0,0,0,0,0,0,0,0,0,0,0,0,0,0,0,0,0,0,0,0,0,0,0,0,0,0,0,0,0,0,0],"sum_hessian":[2.11E2,9.6E1,1.15E2,9.5E1,1E0,9.6E1,1.9E1,7.1E1,2.4E1,6.6E1,3E1,1.2E1,7E0,4.8E1,2.3E1,1.2E1,1.2E1,4.3E1,2.3E1,1.4E1,1.6E1,4E0,8E0,3E0,4E0,3.3E1,1.5E1,5E0,1.8E1,9E0,3E0,7E0,5E0,3.9E1,4E0,1.4E1,9E0,9E0,5E0,9E0,7E0,2E0,2E0,4E0,4E0,2E0,1E0,1E0,3E0],"tree_param":{"num_deleted":"0","num_feature":"9","num_nodes":"49","size_leaf_vector":"1"}},{"base_weights":[-4.2434554E-3,-4.9785697E-1,2.519737E-2,-1.0142945E-2,-7.391961E-1,8.515539E-3,1.1200264E0,-4.3908846E-1,2.0436555E-1,4.6664093E-2,-3.3474723E-1,2.5328293E-1,2.3806687E-2,-5.281076E-2,5.086981E-1,2.1744831E-1,-7.218316E-1,3.4297758E-1,-1.0645757E-1,6.8758273E-1,-1.1265362E-1,4.3830186E-1,-3.670261E-1,-1.6395569E0,-5.6774348E-2],"categories":[],"categories_nodes":[],"categories_segments":[],"categories_sizes":[],"default_left":[0,0,0,0,0,0,0,0,0,0,0,0,0,0,0,0,0,0,0,0,0,0,0,0,0],"id":15,"left_children":[1,3,5,7,-1,9,-1,-1,11,13,15,-1,-1,17,19,21,23,-1,-1,-1,-1,-1,-1,-1,-1],"loss_changes":[3.0981376E0,1.3974631E0,3.650191E0,5.5214405E-1,0E0,2.6186407E0,0E0,0E0,2.6529148E-2,8.304362E0,4.43693E0,0E0,0E0,3.1978319E0,3.6400175E0,1.3233303E0,7.2140307E0,0E0,0E0,0E0,0E0,0E0,0E0,0E0,0E0],"parents":[2147483647,0,0,1,1,2,2,3,3,5,5,8,8,9,9,10,10,13,13,14,14,15,15,16,16],"right_children":[2,4,6,8,-1,10,-1,-1,12,14,16,-1,-1,18,20,22,24,-1,-1,-1,-1,-1,-1,-1,-1],"split_conditions":[-2.2501E1,-2.8632E1,7.963E1,-1.37E0,-7.391961E-1,4.1602E1,1.1200264E0,-4.3908846E-1,-8.2E-1,2.2072E1,2.6E0,2.5328293E-1,2.3806687E-2,-7.3E-1,4.5E0,5.3446E1,3.9E0,3.4297758E-1,-1.0645757E-1,6.8758273E-1,-1.1265362E-1,4.3830186E-1,-3.670261E-1,-1.6395569E0,-5.6774348E-2],"split_indices":[4,5,8,1,0,8,0,0,0,8,2,0,0,0,2,4,2,0,0,0,0,0,0,0,0],"split_type":[0,0,0,0,0,0,0,0,0,0,0,0,0,0,0,0,0,0,0,0,0,0,0,0,0],"sum_hessian":[2.11E2,1.1E1,2E2,4E0,7E0,1.98E2,2E0,1E0,3E0,1.79E2,1.9E1,2E0,1E0,1.48E2,3.1E1,8E0,1.1E1,1.7E1,1.31E2,2.4E1,7E0,6E0,2E0,4E0,7E0],"tree_param":{"num_deleted":"0","num_feature":"9","num_nodes":"25","size_leaf_vector":"1"}},{"base_weights":[-2.8055937E-3,-1.1181542E-1,1.3511968E-1,-1.6842227E-1,3.240518E-1,2.2379377E-1,-2.7909794E-1,-3.1210947E-1,7.6214366E-2,7.9290664E-1,-1.2545267E-1,8.54554E-2,7.9845124E-1,-3.7334783E-3,-9.3722594E-1,-1.9521636E-1,-1.1485443E0,2.4084125E-1,-2.8346005E-1,-2.803044E-1,4.7425473E-1,-9.138636E-2,4.0510318E-1,2.3754697E-1,1.1448822E0,-2.8174877E-1,4.9544075E-1,-1.8340123E-1,-1.0773318E0,-2.889249E-2,-6.9159514E-1,-1.6889288E0,3.117396E-1,5.2311957E-1,-1.7828977E-1,-1.0531652E0,5.176804E-2,1.1930763E-1,-3.6845767E-1,1.5844887E-1,-3.0509585E-1,6.033034E-1,-4.270783E-1,4.8256156E-1,-2.4665967E-1,1.458108E0,3.8632303E-1,-4.90283E-1,2.9541406E-1,6.500512E-1,-5.650055E-2],"categories":[],"categories_nodes":[],"categories_segments":[],"categories_sizes":[],"default_left":[0,0,0,0,0,0,0,0,0,0,0,0,0,0,0,0,0,0,0,0,0,0,0,0,0,0,0,0,0,0,0,0,0,0,0,0,0,0,0,0,0,0,0,0,0,0,0,0,0,0,0],"id":16,"left_children":[1,3,5,7,9,11,13,15,17,-1,19,21,23,25,27,29,31,33,35,37,-1,39,41,43,45,47,49,-1,-1,-1,-1,-1,-1,-1,-1,-1,-1,-1,-1,-1,-1,-1,-1,-1,-1,-1,-1,-1,-1,-1,-1],"loss_changes":[3.2023401E0,2.9891162E0,3.5145626E0,3.7521687E0,3.0566795E0,6.123709E0,3.0679173E0,6.313171E0,2.436326E0,0E0,8.73922E-1,3.6578908E0,2.628931E0,1.9415677E0,3.178854E-1,4.9263916E0,6.853196E0,3.4094396E0,3.4188828E0,2.930411E-1,0E0,2.2922795E0,4.053007E0,9.5185137E-1,1.5566578E0,1.2300091E0,4.693433E-1,0E0,0E0,0E0,0E0,0E0,0E0,0E0,0E0,0E0,0E0,0E0,0E0,0E0,0E0,0E0,0E0,0E0,0E0,0E0,0E0,0E0,0E0,0E0,0E0],"parents":[2147483647,0,0,1,1,2,2,3,3,4,4,5,5,6,6,7,7,8,8,10,10,11,11,12,12,13,13,14,14,15,15,16,16,17,17,18,18,19,19,21,21,22,22,23,23,24,24,25,25,26,26],"right_children":[2,4,6,8,10,12,14,16,18,-1,20,22,24,26,28,30,32,34,36,38,-1,40,42,44,46,48,50,-1,-1,-1,-1,-1,-1,-1,-1,-1,-1,-1,-1,-1,-1,-1,-1,-1,-1,-1,-1,-1,-1,-1,-1],"split_conditions":[3.6E0,3.4612E1,5.1E-1,2.5E-1,5.4477E1,2.303916E0,2.2383583E0,2E-2,2.5E0,7.9290664E-1,5.3446E1,7E-2,1.2134E1,1.9295284E0,-7.4E-1,0E0,2.0073638E0,6.9E-1,9.9794817E-1,-3.7E-1,4.7425473E-1,1.1868114E0,9.4E0,4E0,5E0,7.7E-1,1.28E0,-1.8340123E-1,-1.0773318E0,-2.889249E-2,-6.9159514E-1,-1.6889288E0,3.117396E-1,5.2311957E-1,-1.7828977E-1,-1.0531652E0,5.176804E-2,1.1930763E-1,-3.6845767E-1,1.5844887E-1,-3.0509585E-1,6.033034E-1,-4.270783E-1,4.8256156E-1,-2.4665967E-1,1.458108E0,3.8632303E-1,-4.90283E-1,2.9541406E-1,6.500512E-1,-5.650055E-2],"split_indices":[2,4,1,1,4,7,7,1,2,0,5,1,5,6,0,0,6,1,6,1,0,7,2,3,2,1,1,0,0,0,0,0,0,0,0,0,0,0,0,0,0,0,0,0,0,0,0,0,0,0,0],"split_type":[0,0,0,0,0,0,0,0,0,0,0,0,0,0,0,0,0,0,0,0,0,0,0,0,0,0,0,0,0,0,0,0,0,0,0,0,0,0,0,0,0,0,0,0,0,0,0,0,0,0,0],"sum_hessian":[2.11E2,1.18E2,9.3E1,1.05E2,1.3E1,7.7E1,1.6E1,6.6E1,3.9E1,6E0,7E0,6.3E1,1.4E1,1.2E1,4E0,5.9E1,7E0,2.7E1,1.2E1,6E0,1E0,4.1E1,2.2E1,6E0,8E0,8E0,4E0,1E0,3E0,4.5E1,1.4E1,5E0,2E0,1.6E1,1.1E1,3E0,9E0,1E0,5E0,1.9E1,2.2E1,1.8E1,4E0,4E0,2E0,5E0,3E0,6E0,2E0,3E0,1E0],"tree_param":{"num_deleted":"0","num_feature":"9","num_nodes":"51","size_leaf_vector":"1"}},{"base_weights":[-2.256474E-3,2.7495936E-1,-6.05788E-2,-2.2510928E-1,3.99479E-1,-2.6817003E-1,-1.2515677E-2,-3.4995222E-1,-1.0278283E-2,5.0603586E-1,-2.3251255E-1,2.1821019E-1,-3.8470677E-1,1.0752831E-1,-1.4109829E-1,-7.8021765E-2,9.1476075E-2,1.7735623E-2,5.9355706E-1,-5.384967E-1,-1.8892346E-2,1.1980769E-2,2.963058E-1,-1.0875225E0,-2.5112468E-1,-1.9921184E-1,1.8135738E-1,5.86041E-1,-2.0620194E-1,1.3424802E-1,-1.01355314E-1,6.639869E-1,-7.049441E-2,3.32369E-2,-9.2640035E-2,-0E0,1.86125E-2,-1.8788445E-1,-1.3214405E0,-4.200091E-1,7.590596E-2,1.3207495E-1,-5.0684714E-1,4.2335787E-1,-5.0872985E-2,7.970766E-1,-2.295686E-1,-6.457934E-1,-1.3299976E-1],"categories":[],"categories_nodes":[],"categories_segments":[],"categories_sizes":[],"default_left":[0,0,0,0,0,0,0,0,0,0,0,0,0,0,0,0,0,0,0,0,0,0,0,0,0,0,0,0,0,0,0,0,0,0,0,0,0,0,0,0,0,0,0,0,0,0,0,0,0],"id":17,"left_children":[1,3,5,7,9,11,13,-1,15,17,19,21,23,25,27,-1,-1,29,31,-1,33,35,-1,37,39,41,43,45,47,-1,-1,-1,-1,-1,-1,-1,-1,-1,-1,-1,-1,-1,-1,-1,-1,-1,-1,-1,-1],"loss_changes":[3.4421017E0,2.3956003E0,1.749874E0,2.0736185E-1,2.140686E0,1.9560897E0,2.2382298E0,0E0,3.457536E-2,1.0945115E0,3.1107458E-1,1.0610646E-1,2.2483668E0,1.7344258E0,3.4308043E0,0E0,0E0,8.3313525E-2,1.0816612E0,0E0,1.9050745E-2,2.622338E-4,0E0,5.783944E-1,1.3608513E0,1.5994222E0,3.4534538E0,1.2213948E0,1.9979603E0,0E0,0E0,0E0,0E0,0E0,0E0,0E0,0E0,0E0,0E0,0E0,0E0,0E0,0E0,0E0,0E0,0E0,0E0,0E0,0E0],"parents":[2147483647,0,0,1,1,2,2,3,3,4,4,5,5,6,6,8,8,9,9,10,10,11,11,12,12,13,13,14,14,17,17,18,18,20,20,21,21,23,23,24,24,25,25,26,26,27,27,28,28],"right_children":[2,4,6,8,10,12,14,-1,16,18,20,22,24,26,28,-1,-1,30,32,-1,34,36,-1,38,40,42,44,46,48,-1,-1,-1,-1,-1,-1,-1,-1,-1,-1,-1,-1,-1,-1,-1,-1,-1,-1,-1,-1],"split_conditions":[-3.271E0,-2.992E0,-5.6E-1,5.5E0,4.4635E1,-2.2592E1,2E-2,-3.4995222E-1,7.5E-1,7E-1,3.2E0,-1.37E0,-3.4E0,9E-1,4E-1,-7.8021765E-2,9.1476075E-2,5.51E-1,8.4E0,-5.384967E-1,2.4E-1,-2.74E0,2.963058E-1,-2.36E0,2.3301737E0,1.200589E0,3.7E0,1.28E0,-5.75E-1,1.3424802E-1,-1.01355314E-1,6.639869E-1,-7.049441E-2,3.32369E-2,-9.2640035E-2,-0E0,1.86125E-2,-1.8788445E-1,-1.3214405E0,-4.200091E-1,7.590596E-2,1.3207495E-1,-5.0684714E-1,4.2335787E-1,-5.0872985E-2,7.970766E-1,-2.295686E-1,-6.457934E-1,-1.3299976E-1],"split_indices":[8,5,0,2,5,5,1,0,0,2,3,0,3,3,2,0,0,5,2,0,0,0,0,0,7,7,3,0,8,0,0,0,0,0,0,0,0,0,0,0,0,0,0,0,0,0,0,0,0],"split_type":[0,0,0,0,0,0,0,0,0,0,0,0,0,0,0,0,0,0,0,0,0,0,0,0,0,0,0,0,0,0,0,0,0,0,0,0,0,0,0,0,0,0,0,0,0,0,0,0,0],"sum_hessian":[2.11E2,3.6E1,1.75E2,7E0,2.9E1,3.2E1,1.43E2,4E0,3E0,2.5E1,4E0,6E0,2.6E1,7.4E1,6.9E1,2E0,1E0,4E0,2.1E1,1E0,3E0,2E0,4E0,3E0,2.3E1,1.4E1,6E1,5E0,6.4E1,2E0,2E0,1.9E1,2E0,2E0,1E0,1E0,1E0,1E0,2E0,1.5E1,8E0,7E0,7E0,2.9E1,3.1E1,4E0,1E0,8E0,5.6E1],"tree_param":{"num_deleted":"0","num_feature":"9","num_nodes":"49","size_leaf_vector":"1"}},{"base_weights":[-9.86504E-3,2.8698266E-1,-2.7587963E-2,-1.9892159E-1,4.7216427E-1,-5.631447E-1,-5.3093955E-3,-2.5106248E-2,-2.4515796E-1,5.3444844E-1,1.661131E-1,-2.534327E-1,-8.0699855E-1,5.4768328E-2,-9.743747E-2,1.2245333E-2,2.8977132E-1,-1.8921992E-1,1.0063881E-1,-4.8000485E-2,2.7530625E-1,5.627489E-1,-1.20544225E-1,-4.4422734E-1,-5.6182325E-2,2.3887473E-1,-2.875214E-1],"categories":[],"categories_nodes":[],"categories_segments":[],"categories_sizes":[],"default_left":[0,0,0,0,0,0,0,0,0,0,0,0,0,0,0,0,0,0,0,0,0,0,0,0,0,0,0],"id":18,"left_children":[1,3,5,7,9,11,13,-1,-1,-1,-1,-1,-1,15,17,19,21,23,25,-1,-1,-1,-1,-1,-1,-1,-1],"loss_changes":[1.1206572E0,1.1764221E0,2.3895442E0,2.3288727E-2,7.577491E-2,3.890717E-1,1.0795231E0,0E0,0E0,0E0,0E0,0E0,0E0,1.1726092E0,1.4197829E0,1.6161684E0,2.0883827E0,1.7680937E0,1.4096373E0,0E0,0E0,0E0,0E0,0E0,0E0,0E0,0E0],"parents":[2147483647,0,0,1,1,2,2,3,3,4,4,5,5,6,6,13,13,14,14,15,15,16,16,17,17,18,18],"right_children":[2,4,6,8,10,12,14,-1,-1,-1,-1,-1,-1,16,18,20,22,24,26,-1,-1,-1,-1,-1,-1,-1,-1],"split_conditions":[8.9077294E-1,8.579666E-1,9.0907043E-1,-7.5E-1,1.5E-1,2.993E0,1.5729E1,-2.5106248E-2,-2.4515796E-1,5.3444844E-1,1.661131E-1,-2.534327E-1,-8.0699855E-1,1.2369E1,4.6E0,1.6514E1,4E0,2.6E0,4.2072E1,-4.8000485E-2,2.7530625E-1,5.627489E-1,-1.20544225E-1,-4.4422734E-1,-5.6182325E-2,2.3887473E-1,-2.875214E-1],"split_indices":[7,6,6,0,0,8,4,0,0,0,0,0,0,4,3,5,3,2,4,0,0,0,0,0,0,0,0],"split_type":[0,0,0,0,0,0,0,0,0,0,0,0,0,0,0,0,0,0,0,0,0,0,0,0,0,0,0],"sum_hessian":[2.11E2,1.1E1,2E2,3E0,8E0,7E0,1.93E2,1E0,2E0,6E0,2E0,4E0,3E0,1.17E2,7.6E1,1E2,1.7E1,5.2E1,2.4E1,8.2E1,1.8E1,1E1,7E0,1.7E1,3.5E1,1.8E1,6E0],"tree_param":{"num_deleted":"0","num_feature":"9","num_nodes":"27","size_leaf_vector":"1"}},{"base_weights":[-2.5456308E-3,2.427595E-2,-1.2626223E-1,4.5560966E-3,3.863803E-1,5.1972833E-2,-2.7349883E-1,3.7559684E-2,-1.1630584E-1,4.639621E-1,-1.1213695E-1,-7.6164925E-1,1.4522408E-1,-3.2023254E-1,1.1031413E-1,9.854933E-2,-5.7973415E-2,3.2675464E-2,-3.5346755E-1,5.5289847E-1,-7.429611E-2,2.6525946E-3,4.044964E-1,1.7374434E-2,-3.6156127E-1,-0E0,1.645652E-1,1.4324938E-1,-3.259947E-1,-1.5589474E-1,5.3617418E-2,-9.6962556E-2,2.8911707E-1,-5.8727E-1,5.448076E-2,7.2746634E-2,-3.7919092E-1,4.530669E-1,7.582199E-2,-8.468019E-2,1.1574184E-1,-2.3658635E-1,-4.4525158E-1],"categories":[],"categories_nodes":[],"categories_segments":[],"categories_sizes":[],"default_left":[0,0,0,0,0,0,0,0,0,0,0,0,0,0,0,0,0,0,0,0,0,0,0,0,0,0,0,0,0,0,0,0,0,0,0,0,0,0,0,0,0,0,0],"id":19,"left_children":[1,3,5,7,9,11,13,15,17,19,-1,-1,21,23,25,27,29,31,33,-1,-1,35,37,39,41,-1,-1,-1,-1,-1,-1,-1,-1,-1,-1,-1,-1,-1,-1,-1,-1,-1,-1],"loss_changes":[7.075592E-1,1.2439431E0,1.0136535E0,6.697235E-1,4.0362823E-1,1.4701287E0,4.1410232E-1,7.75221E-1,1.2867334E0,4.288299E-1,0E0,0E0,6.232579E-1,2.7482808E-1,1.765579E-2,1.5820189E0,5.775919E-1,7.9458046E-1,1.3726333E0,0E0,0E0,3.4569988E-1,5.6141853E-2,4.0228207E-2,6.56476E-2,0E0,0E0,0E0,0E0,0E0,0E0,0E0,0E0,0E0,0E0,0E0,0E0,0E0,0E0,0E0,0E0,0E0,0E0],"parents":[2147483647,0,0,1,1,2,2,3,3,4,4,5,5,6,6,7,7,8,8,9,9,12,12,13,13,14,14,15,15,16,16,17,17,18,18,21,21,22,22,23,23,24,24],"right_children":[2,4,6,8,10,12,14,16,18,20,-1,-1,22,24,26,28,30,32,34,-1,-1,36,38,40,42,-1,-1,-1,-1,-1,-1,-1,-1,-1,-1,-1,-1,-1,-1,-1,-1,-1,-1],"split_conditions":[2.3301737E0,2.2707646E0,1.2209E1,3.0507E1,4.8E0,-1.8688E1,2.6479E1,1.5E-1,4.4E0,4E0,-1.1213695E-1,-7.6164925E-1,4.855E0,-6.039E0,-6E-2,2.0073638E0,1.1745726E0,3E-2,2.8E-1,5.5289847E-1,-7.429611E-2,3.327E0,1.2047E1,-5.6E-1,-3E-2,-0E0,1.645652E-1,1.4324938E-1,-3.259947E-1,-1.5589474E-1,5.3617418E-2,-9.6962556E-2,2.8911707E-1,-5.8727E-1,5.448076E-2,7.2746634E-2,-3.7919092E-1,4.530669E-1,7.582199E-2,-8.468019E-2,1.1574184E-1,-2.3658635E-1,-4.4525158E-1],"split_indices":[7,7,4,5,3,5,4,0,2,2,0,0,4,5,0,7,6,1,1,0,0,4,4,0,0,0,0,0,0,0,0,0,0,0,0,0,0,0,0,0,0,0,0],"split_type":[0,0,0,0,0,0,0,0,0,0,0,0,0,0,0,0,0,0,0,0,0,0,0,0,0,0,0,0,0,0,0,0,0,0,0,0,0,0,0,0,0,0,0],"sum_hessian":[2.11E2,1.74E2,3.7E1,1.66E2,8E0,1.7E1,2E1,1.31E2,3.5E1,7E0,1E0,1E0,1.6E1,1.8E1,2E0,8E1,5.1E1,2.2E1,1.3E1,6E0,1E0,1.1E1,5E0,2E0,1.6E1,1E0,1E0,7.3E1,7E0,2.7E1,2.4E1,1.5E1,7E0,8E0,5E0,1E1,1E0,4E0,1E0,1E0,1E0,8E0,8E0],"tree_param":{"num_deleted":"0","num_feature":"9","num_nodes":"43","size_leaf_vector":"1"}},{"base_weights":[-6.0509997E-3,-1.00882284E-1,3.839437E-2,-1.4929895E-1,3.1313263E-2,7.431098E-1,2.827058E-2,1.8434304E-1,-1.747302E-1,1.02992356E-1,-3.819727E-1,-1.13267966E-1,5.4804318E-2,2.1111067E-1,4.7020074E-2,2.440387E-1,-1.8935645E-1,-1.9234635E-2,2.8177872E-1,-5.55122E-1,-1.2837048E-2,1.2123125E-1,-2.0375188E-1,1.0436503E-1,-1.6042257E-2,-2.1397693E-1,8.776305E-3,5.6841552E-2,-1.6907835E-1,1.1046424E-1,4.700433E-1,1.02670165E-2,1.6156353E-1,-1.12795636E-1,-4.6866077E-1,1.9367334E-1,-1.9677365E-2,-1.0636632E-1,1.0740157E-1],"categories":[],"categories_nodes":[],"categories_segments":[],"categories_sizes":[],"default_left":[0,0,0,0,0,0,0,0,0,0,0,0,0,0,0,0,0,0,0,0,0,0,0,0,0,0,0,0,0,0,0,0,0,0,0,0,0,0,0],"id":20,"left_children":[1,3,5,7,9,-1,11,13,15,17,19,21,23,-1,-1,-1,25,27,29,-1,-1,31,33,35,37,-1,-1,-1,-1,-1,-1,-1,-1,-1,-1,-1,-1,-1,-1],"loss_changes":[8.9803815E-1,4.4108665E-1,1.0057644E0,4.5636094E-1,5.9940577E-1,0E0,5.464216E-1,2.1954924E-3,3.3353937E-1,3.7953824E-1,1.7894101E-1,5.135497E-1,4.3092465E-1,0E0,0E0,0E0,2.283237E-1,1.3612796E-1,1.6803902E-1,0E0,0E0,2.7951002E-2,3.5093957E-1,8.0316806E-1,5.800609E-1,0E0,0E0,0E0,0E0,0E0,0E0,0E0,0E0,0E0,0E0,0E0,0E0,0E0,0E0],"parents":[2147483647,0,0,1,1,2,2,3,3,4,4,6,6,7,7,8,8,9,9,10,10,11,11,12,12,16,16,17,17,18,18,21,21,22,22,23,23,24,24],"right_children":[2,4,6,8,10,-1,12,14,16,18,20,22,24,-1,-1,-1,26,28,30,-1,-1,32,34,36,38,-1,-1,-1,-1,-1,-1,-1,-1,-1,-1,-1,-1,-1,-1],"split_conditions":[2.135E0,2.5E-1,2.233E0,-2.36E0,1.93E0,7.431098E-1,-1.204E0,-8.3E-1,-8.4109E1,4.981E0,2.74E0,-1.09E0,2.1E-1,2.1111067E-1,4.7020074E-2,2.440387E-1,5.2E-1,1.2E-1,-5.977E0,-5.55122E-1,-1.2837048E-2,-1.1908E1,-3.001E0,2.0049E1,5.5E-1,-2.1397693E-1,8.776305E-3,5.6841552E-2,-1.6907835E-1,1.1046424E-1,4.700433E-1,1.02670165E-2,1.6156353E-1,-1.12795636E-1,-4.6866077E-1,1.9367334E-1,-1.9677365E-2,-1.0636632E-1,1.0740157E-1],"split_indices":[5,1,5,1,0,0,4,0,5,4,0,1,1,0,0,0,0,0,5,0,0,4,4,8,1,0,0,0,0,0,0,0,0,0,0,0,0,0,0],"split_type":[0,0,0,0,0,0,0,0,0,0,0,0,0,0,0,0,0,0,0,0,0,0,0,0,0,0,0,0,0,0,0,0,0,0,0,0,0,0,0],"sum_hessian":[2.11E2,6.7E1,1.44E2,4.9E1,1.8E1,1E0,1.43E2,3E0,4.6E1,1.6E1,2E0,2.2E1,1.21E2,2E0,1E0,1E0,4.5E1,1E1,6E0,1E0,1E0,6E0,1.6E1,7.1E1,5E1,4E1,5E0,7E0,3E0,4E0,2E0,2E0,4E0,1.3E1,3E0,4.1E1,3E1,2.9E1,2.1E1],"tree_param":{"num_deleted":"0","num_feature":"9","num_nodes":"39","size_leaf_vector":"1"}},{"base_weights":[3.4707428E-3,2.98697E-2,-4.8136532E-2,2.262025E-3,1.7097595E-1,-2.241433E-1,1.9379364E-3,-4.760036E-2,4.3175764E-2,6.0921423E-2,4.7097686E-1,-2.8133225E-1,1.14119604E-1,-1.18432745E-1,5.6306295E-2,7.4306756E-2,-1.16187274E-1,-6.674981E-2,7.424707E-2,1.4227356E-1,-1.2382845E-1,6.440533E-1,7.9882696E-2,-2.8413849E-2,-3.2028416E-1,-1.6970529E-1,1.0094744E-1,3.8013405E-1,1.9505829E-2,1.2666573E-1,-4.5525688E-1,3.3099797E-2,-2.0636144E-1,1.3138427E-1,-2.1454856E-1,1.8598339E-1,1.4375619E-2,2.249039E-1,6.1266616E-2,-2.9107738E-1,3.0065356E-2,-1.0640736E-2,1.3546479E-1,-4.1368145E-1,-1.04791686E-1,-5.7314057E-2,-2.885361E-1,1.2950397E-1,2.6389314E-3,1.7147176E-1,-2.7983801E-2],"categories":[],"categories_nodes":[],"categories_segments":[],"categories_sizes":[],"default_left":[0,0,0,0,0,0,0,0,0,0,0,0,0,0,0,0,0,0,0,0,0,0,0,0,0,0,0,0,0,0,0,0,0,0,0,0,0,0,0,0,0,0,0,0,0,0,0,0,0,0,0],"id":21,"left_children":[1,3,5,7,9,11,13,15,17,19,21,23,-1,25,27,29,31,33,35,37,39,-1,41,-1,43,45,47,-1,49,-1,-1,-1,-1,-1,-1,-1,-1,-1,-1,-1,-1,-1,-1,-1,-1,-1,-1,-1,-1,-1,-1],"loss_changes":[2.9007936E-1,5.4716265E-1,6.3722444E-1,2.4477768E-1,7.253671E-1,3.432961E-1,3.7907562E-1,4.6055883E-1,2.30456E-1,2.883383E-1,3.4744692E-1,1.2533581E-1,0E0,2.2028607E-1,4.6526927E-1,6.089277E-1,4.7972748E-1,4.682795E-1,3.4319317E-1,7.0376396E-2,1.6579291E-1,0E0,1.7784128E-2,0E0,1.9298172E-1,1.8033743E-1,9.566218E-3,0E0,2.7325514E-1,0E0,0E0,0E0,0E0,0E0,0E0,0E0,0E0,0E0,0E0,0E0,0E0,0E0,0E0,0E0,0E0,0E0,0E0,0E0,0E0,0E0,0E0],"parents":[2147483647,0,0,1,1,2,2,3,3,4,4,5,5,6,6,7,7,8,8,9,9,10,10,11,11,13,13,14,14,15,15,16,16,17,17,18,18,19,19,20,20,22,22,24,24,25,25,26,26,28,28],"right_children":[2,4,6,8,10,12,14,16,18,20,22,24,-1,26,28,30,32,34,36,38,40,-1,42,-1,44,46,48,-1,50,-1,-1,-1,-1,-1,-1,-1,-1,-1,-1,-1,-1,-1,-1,-1,-1,-1,-1,-1,-1,-1,-1],"split_conditions":[4.2E0,5.5E0,4.9E0,1.0743E1,3.6E0,4.8119E1,2.66E-1,-5.361E0,-5E-1,1.7873766E0,1.936769E0,-1.054E0,1.14119604E-1,2.234954E0,2.598E0,4.4635E1,2.3E0,-3.4E0,1.9819E1,7.6E0,-6E-2,6.440533E-1,-1E-2,-2.8413849E-2,2.1242E1,1.1085607E0,5E-1,3.8013405E-1,-1E-1,1.2666573E-1,-4.5525688E-1,3.3099797E-2,-2.0636144E-1,1.3138427E-1,-2.1454856E-1,1.8598339E-1,1.4375619E-2,2.249039E-1,6.1266616E-2,-2.9107738E-1,3.0065356E-2,-1.0640736E-2,1.3546479E-1,-4.1368145E-1,-1.04791686E-1,-5.7314057E-2,-2.885361E-1,1.2950397E-1,2.6389314E-3,1.7147176E-1,-2.7983801E-2],"split_indices":[3,2,3,8,3,4,8,8,2,7,6,4,0,7,8,5,2,2,8,2,0,0,0,0,8,6,1,0,1,0,0,0,0,0,0,0,0,0,0,0,0,0,0,0,0,0,0,0,0,0,0],"split_type":[0,0,0,0,0,0,0,0,0,0,0,0,0,0,0,0,0,0,0,0,0,0,0,0,0,0,0,0,0,0,0,0,0,0,0,0,0,0,0,0,0,0,0,0,0,0,0,0,0,0,0],"sum_hessian":[2.11E2,1.4E2,7.1E1,1.18E2,2.2E1,1.5E1,5.6E1,5.3E1,6.5E1,1.7E1,5E0,1.3E1,2E0,1.7E1,3.9E1,1.9E1,3.4E1,1.4E1,5.1E1,1.2E1,5E0,3E0,2E0,2E0,1.1E1,1.4E1,3E0,3E0,3.6E1,1.8E1,1E0,1.3E1,2.1E1,6E0,8E0,1.7E1,3.4E1,5E0,7E0,2E0,3E0,1E0,1E0,7E0,4E0,8E0,6E0,2E0,1E0,8E0,2.8E1],"tree_param":{"num_deleted":"0","num_feature":"9","num_nodes":"51","size_leaf_vector":"1"}},{"base_weights":[1.4932754E-3,-1.0605682E-1,1.14646E-2,-1.0060244E-2,-2.23545E-1,1.167189E-1,4.484655E-5,4.641141E-2,-8.910851E-2,-2.5627673E-1,-0E0,1.6755058E-1,2.4631528E-2,-1.4840631E-1,9.882678E-3,7.4481055E-2,-1.2508469E-2,1.8291754E-1,-0E0,-1.4537055E-2,9.809152E-2,5.196696E-2,-2.3129216E-1,-4.8424173E-2,2.9319227E-2,-2.4565812E-2,8.031083E-4,1.2261448E-2,-4.875604E-2,2.3775864E-3,9.536754E-2,-5.6861162E-2,-3.8900787E-1,-8.006243E-5,-1.1892551E-1,3.5501397E-1,2.3793558E-2],"categories":[],"categories_nodes":[],"categories_segments":[],"categories_sizes":[],"default_left":[0,0,0,0,0,0,0,0,0,0,0,0,0,0,0,0,0,0,0,0,0,0,0,0,0,0,0,0,0,0,0,0,0,0,0,0,0],"id":22,"left_children":[1,3,5,7,9,11,13,15,-1,-1,-1,17,19,21,23,-1,25,-1,-1,27,-1,29,31,33,35,-1,-1,-1,-1,-1,-1,-1,-1,-1,-1,-1,-1],"loss_changes":[2.2762236E-1,1.9842735E-1,2.332129E-1,5.3666472E-2,5.9965372E-2,8.288932E-2,2.5857884E-1,1.3128388E-2,0E0,0E0,0E0,3.116867E-2,2.5280097E-2,1.9650201E-1,1.9048713E-1,0E0,7.388628E-4,0E0,0E0,6.4648706E-3,0E0,7.4046357E-3,1.9350594E-1,1.4195007E-1,2.1452478E-1,0E0,0E0,0E0,0E0,0E0,0E0,0E0,0E0,0E0,0E0,0E0,0E0],"parents":[2147483647,0,0,1,1,2,2,3,3,4,4,5,5,6,6,7,7,11,11,12,12,13,13,14,14,16,16,19,19,21,21,22,22,23,23,24,24],"right_children":[2,4,6,8,10,12,14,16,-1,-1,-1,18,20,22,24,-1,26,-1,-1,28,-1,30,32,34,36,-1,-1,-1,-1,-1,-1,-1,-1,-1,-1,-1,-1],"split_conditions":[-1.7E0,-3.4E0,-9.14E0,1.1E0,1.28E0,1.5438908E0,-4.901E0,1.5438908E0,-8.910851E-2,-2.5627673E-1,-0E0,4.8004E1,-1.1908E1,-1.204E0,-1.2E-1,7.4481055E-2,-4.1E-1,1.8291754E-1,-0E0,2.093139E0,9.809152E-2,2.9E0,-5.1E-1,-3.6E-1,-1E-1,-2.4565812E-2,8.031083E-4,1.2261448E-2,-4.875604E-2,2.3775864E-3,9.536754E-2,-5.6861162E-2,-3.8900787E-1,-8.006243E-5,-1.1892551E-1,3.5501397E-1,2.3793558E-2],"split_indices":[2,2,5,3,0,7,5,6,0,0,0,4,5,8,1,0,0,0,0,6,0,2,0,1,1,0,0,0,0,0,0,0,0,0,0,0,0],"split_type":[0,0,0,0,0,0,0,0,0,0,0,0,0,0,0,0,0,0,0,0,0,0,0,0,0,0,0,0,0,0,0,0,0,0,0,0,0],"sum_hessian":[2.11E2,1.7E1,1.94E2,1E1,7E0,1.8E1,1.76E2,6E0,4E0,6E0,1E0,1.1E1,7E0,1E1,1.66E2,4E0,2E0,1E1,1E0,5E0,2E0,3E0,7E0,4.1E1,1.25E2,1E0,1E0,3E0,2E0,2E0,1E0,4E0,3E0,2.5E1,1.6E1,1E0,1.24E2],"tree_param":{"num_deleted":"0","num_feature":"9","num_nodes":"37","size_leaf_vector":"1"}},{"base_weights":[-5.395161E-4,9.169818E-2,-8.078925E-3,2.0157602E-2,2.987805E-1,2.922578E-2,-3.5019893E-2,-3.5881214E-2,1.1899595E-1,1.2239583E-2,1.66419E-1,7.985478E-2,-4.927573E-2,1.4763016E-2,-1.0537726E-1,3.9594322E-2,1.5539892E-1,2.9632485E-1,4.261068E-3,-2.8305862E-2,3.2986006E-1,-5.647174E-3,1.8221493E-1,-1.759898E-1,-3.6647283E-2,-9.380756E-3,4.536704E-2,2.0224126E-2,-1.121637E-1,9.124195E-2,-8.3503306E-2,4.6252766E-1,8.390576E-2,2.4073267E-2,-1.1184513E-1,-3.6966335E-4,2.2080578E-1,-1.0041664E-2,-3.0474E-1,-1.2630586E-1,-1.5358798E-2],"categories":[],"categories_nodes":[],"categories_segments":[],"categories_sizes":[],"default_left":[0,0,0,0,0,0,0,0,0,0,0,0,0,0,0,0,0,0,0,0,0,0,0,0,0,0,0,0,0,0,0,0,0,0,0,0,0,0,0,0,0],"id":23,"left_children":[1,3,5,7,-1,9,11,13,15,17,19,21,23,25,-1,-1,-1,-1,27,29,31,33,35,37,39,-1,-1,-1,-1,-1,-1,-1,-1,-1,-1,-1,-1,-1,-1,-1,-1],"loss_changes":[1.4733319E-1,2.2782454E-1,1.9907132E-1,7.710505E-2,0E0,1.8959898E-1,1.9195706E-1,3.413799E-2,6.3494295E-3,1.6572487E-1,2.9878685E-1,1.1657057E-1,1.562449E-1,5.2188192E-3,0E0,0E0,0E0,0E0,1.3887767E-1,4.0535286E-2,1.1887777E-1,2.8820196E-2,4.4562533E-2,1.8608478E-1,1.779695E-1,0E0,0E0,0E0,0E0,0E0,0E0,0E0,0E0,0E0,0E0,0E0,0E0,0E0,0E0,0E0,0E0],"parents":[2147483647,0,0,1,1,2,2,3,3,5,5,6,6,7,7,8,8,9,9,10,10,11,11,12,12,13,13,18,18,19,19,20,20,21,21,22,22,23,23,24,24],"right_children":[2,4,6,8,-1,10,12,14,16,18,20,22,24,26,-1,-1,-1,-1,28,30,32,34,36,38,40,-1,-1,-1,-1,-1,-1,-1,-1,-1,-1,-1,-1,-1,-1,-1,-1],"split_conditions":[8.988697E-1,8.2E0,-2E-2,7.4E0,2.987805E-1,2.5661E1,8E-1,1.18E0,2.993E0,-2.1494E1,-1E-2,2.135E0,7E-1,-2.7E-1,-1.0537726E-1,3.9594322E-2,1.5539892E-1,2.9632485E-1,1.6458E1,-1.8E-1,8E-2,5.6E0,-2.1E-1,-1E-1,1.0165124E0,-9.380756E-3,4.536704E-2,2.0224126E-2,-1.121637E-1,9.124195E-2,-8.3503306E-2,4.6252766E-1,8.390576E-2,2.4073267E-2,-1.1184513E-1,-3.6966335E-4,2.2080578E-1,-1.0041664E-2,-3.0474E-1,-1.2630586E-1,-1.5358798E-2],"split_indices":[7,3,0,2,0,5,2,5,4,8,1,4,3,1,0,0,0,0,5,0,1,3,1,3,6,0,0,0,0,0,0,0,0,0,0,0,0,0,0,0,0],"split_type":[0,0,0,0,0,0,0,0,0,0,0,0,0,0,0,0,0,0,0,0,0,0,0,0,0,0,0,0,0,0,0,0,0,0,0,0,0,0,0,0,0],"sum_hessian":[2.11E2,1.5E1,1.96E2,1.2E1,3E0,8.2E1,1.14E2,8E0,4E0,7.4E1,8E0,1.2E1,1.02E2,5E0,3E0,2E0,2E0,1E0,7.3E1,4E0,4E0,7E0,5E0,8E0,9.4E1,3E0,2E0,6.5E1,8E0,1E0,3E0,2E0,2E0,6E0,1E0,1E0,4E0,4E0,4E0,1.7E1,7.7E1],"tree_param":{"num_deleted":"0","num_feature":"9","num_nodes":"41","size_leaf_vector":"1"}},{"base_weights":[4.052394E-3,1.0802602E-2,-5.4281343E-2,2.5806418E-2,-2.9607719E-2,-3.8444912E-1,-1.9775776E-2,1.7022797E-3,1.0679218E-1,-4.7202904E-2,1.4322762E-1,8.691254E-2,-8.004226E-2,9.915855E-3,-7.9603694E-2,-3.900094E-2,1.2936981E-1,2.9171152E-2,-8.6614035E-2,-0E0,1.7817551E-1,-2.2479104E-2,2.0442396E-1,-1.6364902E-1,2.5514362E-2,-1.1479231E-2,1.156377E-1,-1.36532E-1,3.742176E-2,5.1381186E-2,-1.19716085E-1,6.826369E-2,1.9385658E-1,-3.9547216E-3,1.11464195E-1,-3.7799656E-1,-6.469858E-2,4.3029897E-5,-3.0620394E-2,-2.0695043E-1,-1.9163208E-2,1.2014333E-1,-3.4365892E-2],"categories":[],"categories_nodes":[],"categories_segments":[],"categories_sizes":[],"default_left":[0,0,0,0,0,0,0,0,0,0,0,0,0,0,0,0,0,0,0,0,0,0,0,0,0,0,0,0,0,0,0,0,0,0,0,0,0,0,0,0,0,0,0],"id":24,"left_children":[1,3,5,7,9,-1,11,13,15,17,19,21,23,25,27,29,31,33,35,-1,-1,37,-1,39,41,-1,-1,-1,-1,-1,-1,-1,-1,-1,-1,-1,-1,-1,-1,-1,-1,-1,-1],"loss_changes":[8.362975E-2,1.16531074E-1,2.3899277E-1,2.7202615E-1,1.6393617E-1,0E0,1.4191228E-1,7.2884046E-2,1.1128244E-1,1.4758047E-1,2.4415284E-2,1.09252855E-1,1.2911022E-1,2.285618E-1,7.272098E-2,4.3310538E-2,9.4480455E-2,4.7858395E-2,1.7546219E-1,0E0,0E0,1.2238875E-3,0E0,4.382451E-2,4.4651456E-2,0E0,0E0,0E0,0E0,0E0,0E0,0E0,0E0,0E0,0E0,0E0,0E0,0E0,0E0,0E0,0E0,0E0,0E0],"parents":[2147483647,0,0,1,1,2,2,3,3,4,4,6,6,7,7,8,8,9,9,10,10,11,11,12,12,13,13,14,14,15,15,16,16,17,17,18,18,21,21,23,23,24,24],"right_children":[2,4,6,8,10,-1,12,14,16,18,20,22,24,26,28,30,32,34,36,-1,-1,38,-1,40,42,-1,-1,-1,-1,-1,-1,-1,-1,-1,-1,-1,-1,-1,-1,-1,-1,-1,-1],"split_conditions":[4.4635E1,4.4E-1,4.4665E1,8E-2,3.0507E1,-3.8444912E-1,1.2793E1,4.4635E1,1.2E0,2.135E0,5.5E-1,-8.2E-1,4.4665E1,2.5661E1,5.4477E1,2.6E-1,1.2979E1,1.48E0,2.233E0,-0E0,1.7817551E-1,-1.6E0,2.0442396E-1,1.6998154E0,3.5E0,-1.1479231E-2,1.156377E-1,-1.36532E-1,3.742176E-2,5.1381186E-2,-1.19716085E-1,6.826369E-2,1.9385658E-1,-3.9547216E-3,1.11464195E-1,-3.7799656E-1,-6.469858E-2,4.3029897E-5,-3.0620394E-2,-2.0695043E-1,-1.9163208E-2,1.2014333E-1,-3.4365892E-2],"split_indices":[8,1,8,1,8,0,5,4,3,4,1,1,4,4,5,1,5,1,4,0,0,3,0,7,3,0,0,0,0,0,0,0,0,0,0,0,0,0,0,0,0,0,0],"split_type":[0,0,0,0,0,0,0,0,0,0,0,0,0,0,0,0,0,0,0,0,0,0,0,0,0,0,0,0,0,0,0,0,0,0,0,0,0,0,0,0,0,0,0],"sum_hessian":[2.11E2,1.9E2,2.1E1,1.39E2,5.1E1,1E0,2E1,1.08E2,3.1E1,4.7E1,4E0,7E0,1.3E1,9.9E1,9E0,4E0,2.7E1,1.6E1,3.1E1,1E0,3E0,4E0,3E0,7E0,6E0,8.3E1,1.6E1,6E0,3E0,2E0,2E0,1.5E1,1.2E1,1.2E1,4E0,1E0,3E1,1E0,3E0,5E0,2E0,2E0,4E0],"tree_param":{"num_deleted":"0","num_feature":"9","num_nodes":"43","size_leaf_vector":"1"}},{"base_weights":[-1.441938E-3,4.5101132E-2,-1.1597336E-2,2.7216505E-2,1.1898783E-1,-3.4732666E-2,9.0675E-3,5.260369E-2,-4.395886E-3,-2.241992E-2,-1.323686E-1,1.9315124E-2,-1.009779E-1,6.8883123E-3,1.4121974E-1,2.8781904E-2,-3.827419E-2,-9.202025E-4,-6.251861E-2,-1.5570216E-1,-3.0467428E-2,8.298407E-2,4.5543034E-3,-2.6438521E-2,-1.6640764E-1,7.872044E-2,-4.8244027E-3,-2.2277816E-3,8.454064E-2,5.850668E-3,-4.684212E-2,-1.1561411E-2,9.5162965E-2,-1.4142108E-1,1.4499297E-2,1.7356819E-2,1.4519171E-1,3.846679E-2,-1.9539239E-2,-5.4980513E-2,7.5829793E-3,-1.9095555E-1,-4.138195E-2],"categories":[],"categories_nodes":[],"categories_segments":[],"categories_sizes":[],"default_left":[0,0,0,0,0,0,0,0,0,0,0,0,0,0,0,0,0,0,0,0,0,0,0,0,0,0,0,0,0,0,0,0,0,0,0,0,0,0,0,0,0,0,0],"id":25,"left_children":[1,3,5,7,-1,9,11,13,15,17,19,21,23,25,-1,27,29,31,33,-1,-1,35,37,39,41,-1,-1,-1,-1,-1,-1,-1,-1,-1,-1,-1,-1,-1,-1,-1,-1,-1,-1],"loss_changes":[1.0039266E-1,4.551409E-2,8.423696E-2,2.6394906E-2,0E0,9.5264226E-2,1.06010236E-1,7.046625E-2,1.8056635E-2,6.396637E-2,1.4793918E-2,7.9569995E-2,3.2688707E-2,1.2056281E-2,0E0,1.4843955E-2,3.7084427E-3,5.1386256E-2,1.613192E-1,0E0,0E0,6.1174713E-2,5.8952987E-2,5.7460982E-3,2.0509958E-3,0E0,0E0,0E0,0E0,0E0,0E0,0E0,0E0,0E0,0E0,0E0,0E0,0E0,0E0,0E0,0E0,0E0,0E0],"parents":[2147483647,0,0,1,1,2,2,3,3,5,5,6,6,7,7,8,8,9,9,10,10,11,11,12,12,13,13,15,15,16,16,17,17,18,18,21,21,22,22,23,23,24,24],"right_children":[2,4,6,8,-1,10,12,14,16,18,20,22,24,26,-1,28,30,32,34,-1,-1,36,38,40,42,-1,-1,-1,-1,-1,-1,-1,-1,-1,-1,-1,-1,-1,-1,-1,-1,-1,-1],"split_conditions":[9.9794817E-1,9.8553723E-1,1.4376957E0,5E-2,1.1898783E-1,1.3625481E0,8.1E0,-3E-2,1.18E0,2.6E-1,2.7103E1,1.8138525E0,2.2299378E0,-8.2E-1,1.4121974E-1,3.829E0,-5E-2,7E-2,4.8E-1,-1.5570216E-1,-3.0467428E-2,5E-2,1.2209E1,3.1E0,8.2E0,7.872044E-2,-4.8244027E-3,-2.2277816E-3,8.454064E-2,5.850668E-3,-4.684212E-2,-1.1561411E-2,9.5162965E-2,-1.4142108E-1,1.4499297E-2,1.7356819E-2,1.4519171E-1,3.846679E-2,-1.9539239E-2,-5.4980513E-2,7.5829793E-3,-1.9095555E-1,-4.138195E-2],"split_indices":[7,6,6,1,0,7,3,1,4,1,5,6,7,1,0,5,0,1,0,0,0,0,8,2,2,0,0,0,0,0,0,0,0,0,0,0,0,0,0,0,0,0,0],"split_type":[0,0,0,0,0,0,0,0,0,0,0,0,0,0,0,0,0,0,0,0,0,0,0,0,0,0,0,0,0,0,0,0,0,0,0,0,0,0,0,0,0,0,0],"sum_hessian":[2.11E2,3.7E1,1.74E2,3.1E1,6E0,8.2E1,9.2E1,1.7E1,1.4E1,7.4E1,8E0,8.5E1,7E0,1.2E1,5E0,7E0,7E0,4.9E1,2.5E1,6E0,2E0,1.5E1,7E1,4E0,3E0,1E0,1.1E1,5E0,2E0,1E0,6E0,4.5E1,4E0,1.2E1,1.3E1,8E0,7E0,2.9E1,4.1E1,2E0,2E0,2E0,1E0],"tree_param":{"num_deleted":"0","num_feature":"9","num_nodes":"43","size_leaf_vector":"1"}},{"base_weights":[1.7761125E-4,2.2934997E-2,-1.3992489E-2,1.488176E-3,6.1734766E-2,-9.8076705E-3,-9.787494E-2,9.947868E-3,-1.0424495E-1,7.948848E-2,-3.738074E-2,-1.4263604E-2,9.887862E-2,3.7293628E-2,-1.7728263E-1,-2.9887895E-3,6.4287044E-2,-1.8245518E-1,-1.4023142E-2,-5.8696188E-2,9.4491325E-2,-6.693784E-2,1.3032723E-3,-3.2528415E-2,1.5751529E-3,1.4666565E-1,1.4798718E-2,1.4721772E-2,-3.6515918E-2,7.979354E-2,-0E0,1.1569437E-1,-2.97849E-3,-6.693716E-3,1.36486245E-2,-2.506194E-2,-2.2032553E-1,3.7055254E-2,-1.9343363E-2,2.6645537E-2,-0E0],"categories":[],"categories_nodes":[],"categories_segments":[],"categories_sizes":[],"default_left":[0,0,0,0,0,0,0,0,0,0,0,0,0,0,0,0,0,0,0,0,0,0,0,0,0,0,0,0,0,0,0,0,0,0,0,0,0,0,0,0,0],"id":26,"left_children":[1,3,5,7,9,11,13,15,17,19,21,23,25,-1,-1,27,29,-1,-1,-1,31,-1,33,35,37,-1,39,-1,-1,-1,-1,-1,-1,-1,-1,-1,-1,-1,-1,-1,-1],"loss_changes":[6.877492E-2,6.7510694E-2,4.3948554E-2,4.8395406E-2,5.4422803E-2,6.158586E-2,7.241194E-2,3.665646E-2,2.370169E-2,5.7733312E-2,6.4605195E-3,3.565438E-2,1.6304538E-2,0E0,0E0,2.5694462E-2,9.607829E-3,0E0,0E0,0E0,4.9004838E-2,0E0,4.5708602E-4,7.1948744E-2,4.98785E-2,0E0,7.6296314E-4,0E0,0E0,0E0,0E0,0E0,0E0,0E0,0E0,0E0,0E0,0E0,0E0,0E0,0E0],"parents":[2147483647,0,0,1,1,2,2,3,3,4,4,5,5,6,6,7,7,8,8,9,9,10,10,11,11,12,12,15,15,16,16,20,20,22,22,23,23,24,24,26,26],"right_children":[2,4,6,8,10,12,14,16,18,20,22,24,26,-1,-1,28,30,-1,-1,-1,32,-1,34,36,38,-1,40,-1,-1,-1,-1,-1,-1,-1,-1,-1,-1,-1,-1,-1,-1],"split_conditions":[-3E-2,1.1553E1,9.5E0,8.889E0,3.278E1,9.1E0,1.0165124E0,-2.2E-1,-2.1E-1,-1.1908E1,-1E-1,1.2369E1,1.9E-1,3.7293628E-2,-1.7728263E-1,1.5491352E0,5E0,-1.8245518E-1,-1.4023142E-2,-5.8696188E-2,2.437237E0,-6.693784E-2,-4E-2,4.2072E1,2.7E0,1.4666565E-1,3.9E-1,1.4721772E-2,-3.6515918E-2,7.979354E-2,-0E0,1.1569437E-1,-2.97849E-3,-6.693716E-3,1.36486245E-2,-2.506194E-2,-2.2032553E-1,3.7055254E-2,-1.9343363E-2,2.6645537E-2,-0E0],"split_indices":[0,5,2,5,5,2,7,0,0,4,0,4,0,0,0,6,2,0,0,0,7,0,0,5,2,0,0,0,0,0,0,0,0,0,0,0,0,0,0,0,0],"split_type":[0,0,0,0,0,0,0,0,0,0,0,0,0,0,0,0,0,0,0,0,0,0,0,0,0,0,0,0,0,0,0,0,0,0,0,0,0,0,0,0,0],"sum_hessian":[2.11E2,8.1E1,1.3E2,5.3E1,2.8E1,1.25E2,5E0,5E1,3E0,2.4E1,4E0,1.21E2,4E0,2E0,3E0,4.1E1,9E0,1E0,2E0,2E0,2.2E1,2E0,2E0,5.6E1,6.5E1,2E0,2E0,2.7E1,1.4E1,7E0,2E0,1.8E1,4E0,1E0,1E0,5.5E1,1E0,2.4E1,4.1E1,1E0,1E0],"tree_param":{"num_deleted":"0","num_feature":"9","num_nodes":"41","size_leaf_vector":"1"}},{"base_weights":[-1.7131054E-3,-3.4217404E-3,8.549136E-2,-1.0235487E-4,-4.0317018E-2,-4.690201E-3,4.4206716E-2,-0E0,-8.635056E-2,5.7745697E-3,-2.0025073E-2,1.9262349E-3,8.5162066E-2,-6.0829237E-2,2.3487864E-2,-6.514915E-3,2.8807E-2,-6.646688E-2,-1.9333495E-3,1.7615145E-2,-2.3510916E-2,1.3722202E-1,1.4069687E-2,4.5948457E-2,-7.959841E-3],"categories":[],"categories_nodes":[],"categories_segments":[],"categories_sizes":[],"default_left":[0,0,0,0,0,0,0,0,0,0,0,0,0,0,0,0,0,0,0,0,0,0,0,0,0],"id":27,"left_children":[1,3,-1,5,7,9,11,13,-1,15,17,19,21,-1,23,-1,-1,-1,-1,-1,-1,-1,-1,-1,-1],"loss_changes":[3.1059964E-2,2.5187835E-2,0E0,3.9045833E-2,3.2018505E-2,2.8501902E-2,3.013409E-2,1.5514027E-2,0E0,3.0131547E-2,5.9682783E-2,4.346002E-3,2.986601E-2,0E0,6.3963006E-3,0E0,0E0,0E0,0E0,0E0,0E0,0E0,0E0,0E0,0E0],"parents":[2147483647,0,0,1,1,3,3,4,4,5,5,6,6,7,7,9,9,10,10,11,11,12,12,14,14],"right_children":[2,4,-1,6,8,10,12,14,-1,16,18,20,22,-1,24,-1,-1,-1,-1,-1,-1,-1,-1,-1,-1],"split_conditions":[2.63E0,7.7E-1,8.549136E-2,5.5E-1,-9.31E-1,1.3237E1,1.5295E1,-3.6E0,-8.635056E-2,1.1857E1,2.4E0,7.1E-1,2.5945E1,-6.0829237E-2,3.4E0,-6.514915E-3,2.8807E-2,-6.646688E-2,-1.9333495E-3,1.7615145E-2,-2.3510916E-2,1.3722202E-1,1.4069687E-2,4.5948457E-2,-7.959841E-3],"split_indices":[1,1,0,1,4,5,5,2,0,4,2,0,5,0,3,0,0,0,0,0,0,0,0,0,0],"split_type":[0,0,0,0,0,0,0,0,0,0,0,0,0,0,0,0,0,0,0,0,0,0,0,0,0],"sum_hessian":[2.11E2,2.08E2,3E0,1.92E2,1.6E1,1.75E2,1.7E1,9E0,7E0,1.04E2,7.1E1,9E0,8E0,2E0,7E0,6.8E1,3.6E1,1.9E1,5.2E1,6E0,3E0,4E0,4E0,4E0,3E0],"tree_param":{"num_deleted":"0","num_feature":"9","num_nodes":"25","size_leaf_vector":"1"}},{"base_weights":[2.6235648E-4,2.8423672E-3,-5.7135925E-2,-1.3981767E-3,4.033845E-2,-8.1196666E-2,-4.2608357E-3,1.4821455E-2,-1.1345794E-2,5.082586E-2,-1.4439521E-2,-9.570713E-3,-9.160771E-2,-0E0,-5.0831605E-3,8.182196E-3,8.260985E-2,5.319676E-2,-1.4240992E-2,2.6943902E-2,8.3076954E-2,2.2803498E-3,-2.410626E-2,1.742104E-2,-1.1528767E-2,7.79068E-3,9.4015546E-2,-0E0,6.796509E-2,-7.9031184E-2,-1.0344935E-2,-0E0,3.69202E-2,1.01630494E-1,2.112873E-2],"categories":[],"categories_nodes":[],"categories_segments":[],"categories_sizes":[],"default_left":[0,0,0,0,0,0,0,0,0,0,0,0,0,0,0,0,0,0,0,0,0,0,0,0,0,0,0,0,0,0,0,0,0,0,0],"id":28,"left_children":[1,3,5,7,9,11,13,15,17,19,21,-1,-1,-1,-1,23,25,27,29,31,33,-1,-1,-1,-1,-1,-1,-1,-1,-1,-1,-1,-1,-1,-1],"loss_changes":[3.1014161E-2,3.288257E-2,1.024938E-2,2.9821197E-2,1.3161827E-2,2.5856718E-3,4.896676E-6,2.9920679E-2,2.1857321E-2,1.052532E-2,9.197363E-4,0E0,0E0,0E0,0E0,1.2096692E-2,3.3696815E-3,4.3275356E-3,2.6307993E-2,3.5562264E-3,4.6706013E-3,0E0,0E0,0E0,0E0,0E0,0E0,0E0,0E0,0E0,0E0,0E0,0E0,0E0,0E0],"parents":[2147483647,0,0,1,1,2,2,3,3,4,4,5,5,6,6,7,7,8,8,9,9,10,10,15,15,16,16,17,17,18,18,19,19,20,20],"right_children":[2,4,6,8,10,12,14,16,18,20,22,-1,-1,-1,-1,24,26,28,30,32,34,-1,-1,-1,-1,-1,-1,-1,-1,-1,-1,-1,-1,-1,-1],"split_conditions":[2.5083401E0,2.395229E0,3.4E-1,1.1442207E0,1.7116E1,9E-1,4.4E-1,4.6716E1,-3.8561E1,1.2369E1,-2.1E-1,-9.570713E-3,-9.160771E-2,-0E0,-5.0831605E-3,7.944E0,-3E-2,-1.37E0,1.1664811E0,-7.841E0,5.913E0,2.2803498E-3,-2.410626E-2,1.742104E-2,-1.1528767E-2,7.79068E-3,9.4015546E-2,-0E0,6.796509E-2,-7.9031184E-2,-1.0344935E-2,-0E0,3.69202E-2,1.01630494E-1,2.112873E-2],"split_indices":[7,7,1,7,4,2,1,4,5,5,0,0,0,0,0,8,0,1,7,5,4,0,0,0,0,0,0,0,0,0,0,0,0,0,0],"split_type":[0,0,0,0,0,0,0,0,0,0,0,0,0,0,0,0,0,0,0,0,0,0,0,0,0,0,0,0,0,0,0,0,0,0,0],"sum_hessian":[2.11E2,2.03E2,8E0,1.83E2,2E1,5E0,3E0,6.9E1,1.14E2,1.7E1,3E0,1E0,4E0,1E0,2E0,6.4E1,5E0,4E0,1.1E2,1.1E1,6E0,1E0,2E0,4.4E1,2E1,1E0,4E0,1E0,3E0,5E0,1.05E2,3E0,8E0,4E0,2E0],"tree_param":{"num_deleted":"0","num_feature":"9","num_nodes":"35","size_leaf_vector":"1"}},{"base_weights":[4.7770195E-4,-4.683919E-3,1.5118716E-2,-4.3447484E-4,-3.0285759E-2,5.6530733E-2,3.5173176E-3,1.8096955E-3,-2.989199E-2,4.4035256E-2,-6.857125E-2,-3.7672117E-2,8.013851E-2,-5.116979E-2,7.483457E-3,-6.000483E-3,9.9978205E-3,-4.562683E-3,-6.424528E-2,6.0035348E-2,-0E0,-1.3696432E-1,-3.9225955E-2,1.55826E-1,4.0488392E-2,-2.4465727E-2,1.1644033E-2,8.9134475E-5,-5.065015E-2,2.8926387E-2,-3.8148582E-3,-2.0995675E-2,1.0510979E-2,7.549701E-2,-3.6364747E-3,9.466286E-3,-1.9226328E-1,9.775992E-3,-4.5478493E-2,6.438142E-2,1.1276291E-2,-5.75577E-2,1.34481555E-2,1.8742738E-2,-1.29897315E-2],"categories":[],"categories_nodes":[],"categories_segments":[],"categories_sizes":[],"default_left":[0,0,0,0,0,0,0,0,0,0,0,0,0,0,0,0,0,0,0,0,0,0,0,0,0,0,0,0,0,0,0,0,0,0,0,0,0,0,0,0,0,0,0,0,0],"id":29,"left_children":[1,3,5,7,9,11,13,15,17,19,21,-1,23,-1,25,27,29,31,-1,33,-1,35,37,-1,39,41,43,-1,-1,-1,-1,-1,-1,-1,-1,-1,-1,-1,-1,-1,-1,-1,-1,-1,-1],"loss_changes":[1.6196292E-2,1.6760232E-2,2.6105173E-2,9.325564E-3,6.586408E-2,3.0130696E-2,9.706415E-3,8.221706E-3,7.7202395E-3,6.1126277E-3,2.2970758E-2,0E0,2.1737903E-2,0E0,5.8725234E-3,1.8183583E-2,1.683308E-2,2.0594695E-3,0E0,6.899979E-3,0E0,3.6037832E-2,4.4782627E-3,0E0,4.101163E-3,7.4883658E-3,7.120839E-3,0E0,0E0,0E0,0E0,0E0,0E0,0E0,0E0,0E0,0E0,0E0,0E0,0E0,0E0,0E0,0E0,0E0,0E0],"parents":[2147483647,0,0,1,1,2,2,3,3,4,4,5,5,6,6,7,7,8,8,9,9,10,10,12,12,14,14,15,15,16,16,17,17,19,19,21,21,22,22,24,24,25,25,26,26],"right_children":[2,4,6,8,10,12,14,16,18,20,22,-1,24,-1,26,28,30,32,-1,34,-1,36,38,-1,40,42,44,-1,-1,-1,-1,-1,-1,-1,-1,-1,-1,-1,-1,-1,-1,-1,-1,-1,-1],"split_conditions":[2.1737E1,1.5729E1,2.6398E1,4.2072E1,2.4E0,-2.7E-1,2.7103E1,1.2464087E0,-3.3E-1,2.437237E0,2.3E0,-3.7672117E-2,1.1755475E0,-5.116979E-2,-2.2951E1,8.358E0,2.0451431E0,1.2401968E0,-6.424528E-2,2.003E1,-0E0,1E-2,-5.7E-1,1.55826E-1,-1E-1,1E-2,1.6465229E0,8.9134475E-5,-5.065015E-2,2.8926387E-2,-3.8148582E-3,-2.0995675E-2,1.0510979E-2,7.549701E-2,-3.6364747E-3,9.466286E-3,-1.9226328E-1,9.775992E-3,-4.5478493E-2,6.438142E-2,1.1276291E-2,-5.75577E-2,1.34481555E-2,1.8742738E-2,-1.29897315E-2],"split_indices":[5,5,5,8,3,0,5,6,0,6,2,0,7,0,8,5,7,7,0,5,0,0,1,0,1,1,7,0,0,0,0,0,0,0,0,0,0,0,0,0,0,0,0,0,0],"split_type":[0,0,0,0,0,0,0,0,0,0,0,0,0,0,0,0,0,0,0,0,0,0,0,0,0,0,0,0,0,0,0,0,0,0,0,0,0,0,0,0,0,0,0,0,0],"sum_hessian":[2.11E2,1.56E2,5.5E1,1.35E2,2.1E1,1.1E1,4.4E1,1.26E2,9E0,7E0,1.4E1,2E0,9E0,2E0,4.2E1,6.4E1,6.2E1,6E0,3E0,5E0,2E0,3E0,1.1E1,2E0,7E0,4E0,3.8E1,5.7E1,7E0,2.6E1,3.6E1,3E0,3E0,4E0,1E0,1E0,2E0,1E0,1E1,3E0,4E0,2E0,2E0,3E1,8E0],"tree_param":{"num_deleted":"0","num_feature":"9","num_nodes":"45","size_leaf_vector":"1"}},{"base_weights":[-6.6259113E-4,-6.171107E-3,6.211621E-3,-6.54079E-4,-2.4575273E-2,-1.1909101E-2,1.4231157E-2,-2.9050105E-3,4.76554E-2,2.690637E-2,-3.2548245E-2,-3.4648836E-2,1.0957908E-2,2.1358993E-2,-1.5836821E-3,-5.3843893E-3,3.83213E-2,6.3668443E-3,5.5962637E-2,-4.278618E-2,-1.4379913E-4,1.9554473E-3,-4.4796195E-2,-1.120746E-2,3.300354E-2,2.7262092E-2,-4.827313E-3,8.091192E-3,-3.6161516E-2,-2.3426453E-3,-3.0036792E-2,-0E0,4.7380503E-2,-5.050596E-2,9.314693E-3,7.0417384E-3,-1.5405095E-2,3.2966107E-3,-0E0,-1.41252205E-2,-5.711603E-2,3.2118303E-3,-2.8929709E-2,4.6860654E-2,-2.37854E-3,3.6698405E-2,7.749953E-3,1.1437271E-2,-2.2126434E-2,-8.81779E-3,1.670475E-2,-6.579471E-2,2.1921762E-3],"categories":[],"categories_nodes":[],"categories_segments":[],"categories_sizes":[],"default_left":[0,0,0,0,0,0,0,0,0,0,0,0,0,0,0,0,0,0,0,0,0,0,0,0,0,0,0,0,0,0,0,0,0,0,0,0,0,0,0,0,0,0,0,0,0,0,0,0,0,0,0,0,0],"id":30,"left_children":[1,3,5,7,9,11,13,15,17,-1,19,21,23,25,27,29,31,-1,-1,33,35,37,39,41,43,45,47,49,51,-1,-1,-1,-1,-1,-1,-1,-1,-1,-1,-1,-1,-1,-1,-1,-1,-1,-1,-1,-1,-1,-1,-1,-1],"loss_changes":[8.06567E-3,1.1814451E-2,1.385276E-2,9.80388E-3,1.2014637E-2,1.5696293E-2,7.671467E-3,9.0763755E-3,3.923755E-4,0E0,7.526662E-3,6.0875528E-3,7.9175895E-3,7.466646E-3,7.598553E-3,6.0546612E-3,1.6370378E-3,0E0,0E0,8.1220865E-3,9.597366E-4,1.7307826E-5,3.0151475E-3,2.394434E-3,4.4786287E-3,6.2677655E-3,2.8922248E-3,2.7021593E-3,6.462969E-3,0E0,0E0,0E0,0E0,0E0,0E0,0E0,0E0,0E0,0E0,0E0,0E0,0E0,0E0,0E0,0E0,0E0,0E0,0E0,0E0,0E0,0E0,0E0,0E0],"parents":[2147483647,0,0,1,1,2,2,3,3,4,4,5,5,6,6,7,7,8,8,10,10,11,11,12,12,13,13,14,14,15,15,16,16,19,19,20,20,21,21,22,22,23,23,24,24,25,25,26,26,27,27,28,28],"right_children":[2,4,6,8,10,12,14,16,18,-1,20,22,24,26,28,30,32,-1,-1,34,36,38,40,42,44,46,48,50,52,-1,-1,-1,-1,-1,-1,-1,-1,-1,-1,-1,-1,-1,-1,-1,-1,-1,-1,-1,-1,-1,-1,-1,-1],"split_conditions":[3.6E0,2.9E0,-1.8E-1,6.1699E1,-7.918E0,1.8271326E0,7E0,2.7E0,-1E-2,2.690637E-2,2.2225456E0,-3.163E0,3E0,4.0255E1,8.4E0,3.4612E1,-2.7E-1,6.3668443E-3,5.5962637E-2,6.4E0,2.4448693E0,-1.2E-1,1.0067886E0,1.5E0,2.3918078E0,4.5E-1,4.5E0,7.6E0,2.8E-1,-2.3426453E-3,-3.0036792E-2,-0E0,4.7380503E-2,-5.050596E-2,9.314693E-3,7.0417384E-3,-1.5405095E-2,3.2966107E-3,-0E0,-1.41252205E-2,-5.711603E-2,3.2118303E-3,-2.8929709E-2,4.6860654E-2,-2.37854E-3,3.6698405E-2,7.749953E-3,1.1437271E-2,-2.2126434E-2,-8.81779E-3,1.670475E-2,-6.579471E-2,2.1921762E-3],"split_indices":[2,2,1,4,8,6,2,2,0,0,6,8,3,4,3,5,0,0,0,3,6,0,6,3,7,1,2,2,0,0,0,0,0,0,0,0,0,0,0,0,0,0,0,0,0,0,0,0,0,0,0,0,0],"split_type":[0,0,0,0,0,0,0,0,0,0,0,0,0,0,0,0,0,0,0,0,0,0,0,0,0,0,0,0,0,0,0,0,0,0,0,0,0,0,0,0,0,0,0,0,0,0,0,0,0,0,0,0,0],"sum_hessian":[2.11E2,1.18E2,9.3E1,9.2E1,2.6E1,2.8E1,6.5E1,8.9E1,3E0,3E0,2.3E1,1.4E1,1.4E1,4.5E1,2E1,8.5E1,4E0,1E0,2E0,1.7E1,6E0,3E0,1.1E1,7E0,7E0,3.7E1,8E0,1.6E1,4E0,7.7E1,8E0,1E0,3E0,1.5E1,2E0,4E0,2E0,2E0,1E0,4E0,7E0,4E0,3E0,5E0,2E0,2.4E1,1.3E1,4E0,4E0,5E0,1.1E1,2E0,2E0],"tree_param":{"num_deleted":"0","num_feature":"9","num_nodes":"53","size_leaf_vector":"1"}}]},"name":"gbtree"},"learner_model_param":{"base_score":"1.1822588E1","boost_from_average":"1","num_class":"0","num_feature":"9","num_target":"1"},"objective":{"name":"reg:squarederror","reg_loss_param":{"scale_pos_weight":"1"}}},"version":[2,1,4]}