{"learner":{"attributes":{"best_iteration":"0","best_score":"111.04279703093367","scikit_learn":"{\"_estimator_type\": \"regressor\"}"},"feature_names":["watr","fedfunds_lag_1","fedfunds_lag_2","gdp_lag_1","gdp_lag_2","imports_lag_1","imports_lag_2","watr_lag_1","watr_lag_2"],"feature_types":["float","float","float","float","float","float","float","float","float"],"gradient_booster":{"model":{"gbtree_model_param":{"num_parallel_tree":"1","num_trees":"26"},"iteration_indptr":[0,1,2,3,4,5,6,7,8,9,10,11,12,13,14,15,16,17,18,19,20,21,22,23,24,25,26],"tree_info":[0,0,0,0,0,0,0,0,0,0,0,0,0,0,0,0,0,0,0,0,0,0,0,0,0,0],"trees":[{"base_weights":[-0E0,-1.0594484E2,1.4646751E0,-2.8735847E0,3.209997E1,-2.4119915E1,-2.4752323E-1,3.800525E1,5.0956154E0,-4.353872E1,-1.5329745E1,-3.2974324E0,1.2606261E1,4.456388E1,1.7583347E1,1.3402803E1,-7.675841E0,-2.458181E1,-1.0196406E1,2.1362776E1,-4.5706205E0,-1.3196357E0,1.7883875E1,1.7763159E1,4.7123043E1,-1.2521306E0,2.0932947E1,3.509869E0,1.5527159E1],"categories":[],"categories_nodes":[],"categories_segments":[],"categories_sizes":[],"default_left":[0,0,0,0,0,0,0,0,0,0,0,0,0,0,0,0,0,0,0,0,0,0,0,0,0,0,0,0,0],"id":0,"left_children":[1,-1,3,5,7,9,11,13,15,-1,17,19,21,23,25,27,-1,-1,-1,-1,-1,-1,-1,-1,-1,-1,-1,-1,-1],"loss_changes":[3.413845E4,0E0,2.8932676E4,1.0650473E4,4.1115527E3,2.9165605E3,6.745167E3,2.1624668E3,7.3950446E2,0E0,5.0890967E2,4.461668E3,2.4491172E3,2.5969727E2,4.6804688E2,2.9375671E1,0E0,0E0,0E0,0E0,0E0,0E0,0E0,0E0,0E0,0E0,0E0,0E0,0E0],"parents":[2147483647,0,0,2,2,3,3,4,4,5,5,6,6,7,7,8,8,10,10,11,11,12,12,13,13,14,14,15,15],"right_children":[2,-1,4,6,8,10,12,14,16,-1,18,20,22,24,26,28,-1,-1,-1,-1,-1,-1,-1,-1,-1,-1,-1,-1,-1],"split_conditions":[-8.2388E1,-1.0594484E2,3.9334E1,-9E-1,3.9E-1,-2.2592E1,2.31E1,1.2807505E0,5.5E-1,-4.353872E1,-1.31E0,-2.2951E1,1.2134E1,1.122363E0,1.2902924E0,4.3E-1,-7.675841E0,-2.458181E1,-1.0196406E1,2.1362776E1,-4.5706205E0,-1.3196357E0,1.7883875E1,1.7763159E1,4.7123043E1,-1.2521306E0,2.0932947E1,3.509869E0,1.5527159E1],"split_indices":[5,0,5,3,2,5,6,0,2,0,1,6,5,8,0,2,0,0,0,0,0,0,0,0,0,0,0,0,0],"split_type":[0,0,0,0,0,0,0,0,0,0,0,0,0,0,0,0,0,0,0,0,0,0,0,0,0,0,0,0,0],"sum_hessian":[2.18E2,2E0,2.16E2,1.9E2,2.6E1,2E1,1.7E2,2.1E1,5E0,5E0,1.5E1,1.38E2,3.2E1,1.5E1,6E0,3E0,2E0,4E0,1.1E1,6E0,1.32E2,9E0,2.3E1,2E0,1.3E1,1E0,5E0,1E0,2E0],"tree_param":{"num_deleted":"0","num_feature":"9","num_nodes":"29","size_leaf_vector":"1"}},{"base_weights":[-2.5103715E-1,-5.9159706E1,2.9051504E-1,2.1629944E1,-3.1191257E-1,1.042125E1,2.9361553E1,-1.8321972E1,3.8897285E-1,-3.230506E1,-8.2751E0,1.1441784E0,-1.0049146E1,-1.0547512E1,1.5384818E0,-5.510012E0,2.601804E0,2.9002094E-1,-1.2896193E1],"categories":[],"categories_nodes":[],"categories_segments":[],"categories_sizes":[],"default_left":[0,0,0,0,0,0,0,0,0,0,0,0,0,0,0,0,0,0,0],"id":1,"left_children":[1,-1,3,5,7,-1,-1,9,11,-1,13,15,17,-1,-1,-1,-1,-1,-1],"loss_changes":[7.0043394E3,0E0,2.8094504E3,2.135852E2,2.6960024E3,0E0,0E0,8.561575E2,1.6352917E3,0E0,1.5012027E2,1.8862756E3,4.1597156E2,0E0,0E0,0E0,0E0,0E0,0E0],"parents":[2147483647,0,0,2,2,3,3,4,4,7,7,8,8,10,10,11,11,12,12],"right_children":[2,-1,4,6,8,-1,-1,10,12,-1,14,16,18,-1,-1,-1,-1,-1,-1],"split_conditions":[-8E0,-5.9159706E1,-2.995E1,-3E-1,-2.1961E1,1.042125E1,2.9361553E1,-2.8632E1,8.7E-1,-3.230506E1,-5.6E-1,9.9679774E-1,1.0647079E0,-1.0547512E1,1.5384818E0,-5.510012E0,2.601804E0,2.9002094E-1,-1.2896193E1],"split_indices":[3,0,6,1,6,0,0,5,1,0,2,0,7,0,0,0,0,0,0],"split_type":[0,0,0,0,0,0,0,0,0,0,0,0,0,0,0,0,0,0,0],"sum_hessian":[2.18E2,1E0,2.17E2,5E0,2.12E2,3E0,2E0,7E0,2.05E2,2E0,5E0,1.92E2,1.3E1,4E0,1E0,3.4E1,1.58E2,3E0,1E1],"tree_param":{"num_deleted":"0","num_feature":"9","num_nodes":"19","size_leaf_vector":"1"}},{"base_weights":[-3.4792385E-1,-2.9579855E1,-7.809914E-2,-3.1970532E0,1.297151E0,2.8569543E0,-7.106106E0,2.8513367E0,-2.2354202E0,1.2685468E1,4.6134602E-2,-1.24503E1,-1.9242879E0,-1.0290657E1,3.3341198E0,-6.51875E0,-4.0565425E-1,1.869857E0,1.4472618E1,-1.591798E0,1.095364E1,-1.7685713E1,-4.085273E0,8.9680564E-1,-1.484591E1,2.3591032E0,-1.5296945E1,-1.4469118E0,4.7268777E0,-8.260925E0,-9.558135E-2,-2.325828E0,3.3076503E0],"categories":[],"categories_nodes":[],"categories_segments":[],"categories_sizes":[],"default_left":[0,0,0,0,0,0,0,0,0,0,0,0,0,0,0,0,0,0,0,0,0,0,0,0,0,0,0,0,0,0,0,0,0],"id":2,"left_children":[1,-1,3,5,7,9,11,13,15,17,19,21,23,25,27,29,31,-1,-1,-1,-1,-1,-1,-1,-1,-1,-1,-1,-1,-1,-1,-1,-1],"loss_changes":[1.7247551E3,0E0,9.392427E2,1.6059282E3,8.409014E2,7.451943E2,1.1112966E3,7.0678204E2,3.656485E2,8.874957E1,4.105763E2,8.0341846E2,8.1542175E2,2.8952982E2,6.9273047E2,1.5579083E2,2.5010968E2,0E0,0E0,0E0,0E0,0E0,0E0,0E0,0E0,0E0,0E0,0E0,0E0,0E0,0E0,0E0,0E0],"parents":[2147483647,0,0,2,2,3,3,4,4,5,5,6,6,7,7,8,8,9,9,10,10,11,11,12,12,13,13,14,14,15,15,16,16],"right_children":[2,-1,4,6,8,10,12,14,16,18,20,22,24,26,28,30,32,-1,-1,-1,-1,-1,-1,-1,-1,-1,-1,-1,-1,-1,-1,-1,-1],"split_conditions":[-8E0,-2.9579855E1,1.9E0,1.2016163E0,5.5E0,-5.361E0,1.9295284E0,-2.2592E1,6.9E0,-1.32E0,5.3413E1,2.6E0,1.5E0,-1.2E0,1.1380324E0,2.2192752E0,6.2E-1,1.869857E0,1.4472618E1,-1.591798E0,1.095364E1,-1.7685713E1,-4.085273E0,8.9680564E-1,-1.484591E1,2.3591032E0,-1.5296945E1,-1.4469118E0,4.7268777E0,-8.260925E0,-9.558135E-2,-2.325828E0,3.3076503E0],"split_indices":[3,0,4,8,4,5,0,5,4,1,5,3,4,2,7,8,2,0,0,0,0,0,0,0,0,0,0,0,0,0,0,0,0],"split_type":[0,0,0,0,0,0,0,0,0,0,0,0,0,0,0,0,0,0,0,0,0,0,0,0,0,0,0,0,0,0,0,0,0],"sum_hessian":[2.18E2,1E0,2.17E2,6.6E1,1.51E2,2.6E1,4E1,1.05E2,4.6E1,5E0,2.1E1,1.9E1,2.1E1,3E0,1.02E2,1.3E1,3.3E1,1E0,4E0,1.9E1,2E0,1.1E1,8E0,1.8E1,3E0,1E0,2E0,2.3E1,7.9E1,1E1,3E0,2.2E1,1.1E1],"tree_param":{"num_deleted":"0","num_feature":"9","num_nodes":"33","size_leaf_vector":"1"}},{"base_weights":[-2.586677E-1,1.4136173E0,-2.3379543E0,-1.4789929E1,1.6698443E0,-1.6213724E1,-1.7289962E0,2.2330184E0,-3.6309047E0,-3.4615266E-1,-6.8968515E0,2.4828649E0,-7.502461E0,-7.183696E0,2.777742E0,-3.254867E0,1.6213756E0,-1.0659582E1,-1.1124494E0,-5.8355284E-1,3.229857E0,-8.922824E0,-2.3258677E0,-1.0260557E1,-1.5391945E0,4.7434516E0,-1.10548414E-1,-1.5233375E1,-9.15704E-1,6.0522E0,-2.3422048E0,-4.199355E0,-1.4672694E1,1.0668784E0,-5.830065E0],"categories":[],"categories_nodes":[],"categories_segments":[],"categories_sizes":[],"default_left":[0,0,0,0,0,0,0,0,0,0,0,0,0,0,0,0,0,0,0,0,0,0,0,0,0,0,0,0,0,0,0,0,0,0,0],"id":3,"left_children":[1,3,5,-1,7,-1,9,11,13,15,17,19,21,23,25,27,29,31,33,-1,-1,-1,-1,-1,-1,-1,-1,-1,-1,-1,-1,-1,-1,-1,-1],"loss_changes":[7.648122E2,5.310838E2,7.998639E2,0E0,3.693084E2,0E0,6.76442E2,2.8613873E2,2.932215E2,4.4024002E2,4.233271E2,2.4929498E2,1.1921387E0,1.2302783E2,2.8958412E1,8.544995E2,8.2206134E2,2.4930273E2,9.8798676E1,0E0,0E0,0E0,0E0,0E0,0E0,0E0,0E0,0E0,0E0,0E0,0E0,0E0,0E0,0E0,0E0],"parents":[2147483647,0,0,1,1,2,2,4,4,6,6,7,7,8,8,9,9,10,10,11,11,12,12,13,13,14,14,15,15,16,16,17,17,18,18],"right_children":[2,4,6,-1,8,-1,10,12,14,16,18,20,22,24,26,28,30,32,34,-1,-1,-1,-1,-1,-1,-1,-1,-1,-1,-1,-1,-1,-1,-1,-1],"split_conditions":[1.2215E1,-8E0,1.2763E1,-1.4789929E1,2.447168E0,-1.6213724E1,5E-1,1.76E0,2.5083401E0,3.2E0,4.8E0,-7.3E-1,1.1664811E0,3.327E0,2.4734585E0,1.1437931E0,3.7E0,1.2908025E0,9.1E-1,-5.8355284E-1,3.229857E0,-8.922824E0,-2.3258677E0,-1.0260557E1,-1.5391945E0,4.7434516E0,-1.10548414E-1,-1.5233375E1,-9.15704E-1,6.0522E0,-2.3422048E0,-4.199355E0,-1.4672694E1,1.0668784E0,-5.830065E0],"split_indices":[6,3,6,0,7,0,2,2,8,3,4,1,0,5,0,7,4,0,2,0,0,0,0,0,0,0,0,0,0,0,0,0,0,0,0],"split_type":[0,0,0,0,0,0,0,0,0,0,0,0,0,0,0,0,0,0,0,0,0,0,0,0,0,0,0,0,0,0,0,0,0,0,0],"sum_hessian":[2.18E2,1.21E2,9.7E1,1E0,1.2E2,3E0,9.4E1,1.09E2,1.1E1,7.5E1,1.9E1,1.07E2,2E0,7E0,4E0,3E1,4.5E1,1.1E1,8E0,2.1E1,8.6E1,1E0,1E0,4E0,3E0,2E0,2E0,4E0,2.6E1,2.1E1,2.4E1,5E0,6E0,6E0,2E0],"tree_param":{"num_deleted":"0","num_feature":"9","num_nodes":"35","size_leaf_vector":"1"}},{"base_weights":[-3.787086E-1,-5.3157747E-1,7.968387E0,-8.3268136E-1,3.2836392E0,-9.2405677E-1,1.732786E1,7.9741246E-1,-1.7487602E0,3.4465253E-1,6.178294E0,2.4414682E0,-3.8325534E0,-1.1524094E0,8.414218E0,-3.8722112E0,-2.1685086E-1,1.3104875E0,-2.0205133E0,9.100087E0,3.6860156E0,3.0600137E-1,-3.2924254E0,5.2641363E0,1.5758409E1,-6.304263E0,-1.010222E0,-1.2566795E0,6.0409255E0,-1.6224891E0,2.0713985E0],"categories":[],"categories_nodes":[],"categories_segments":[],"categories_sizes":[],"default_left":[0,0,0,0,0,0,0,0,0,0,0,0,0,0,0,0,0,0,0,0,0,0,0,0,0,0,0,0,0,0,0],"id":4,"left_children":[1,3,5,7,9,11,-1,13,15,17,19,-1,-1,21,23,25,27,29,-1,-1,-1,-1,-1,-1,-1,-1,-1,-1,-1,-1,-1],"loss_changes":[2.8360785E2,2.5084549E2,3.4909027E2,3.0155618E2,1.3392305E2,3.8736828E1,0E0,1.0939226E3,4.1874792E2,2.3199997E1,2.4584442E1,0E0,0E0,1.8517767E2,2.638573E2,3.6942554E2,5.0207684E2,1.8987448E1,0E0,0E0,0E0,0E0,0E0,0E0,0E0,0E0,0E0,0E0,0E0,0E0,0E0],"parents":[2147483647,0,0,1,1,2,2,3,3,4,4,5,5,7,7,8,8,9,9,10,10,13,13,14,14,15,15,16,16,17,17],"right_children":[2,4,6,8,10,12,-1,14,16,18,20,-1,-1,22,24,26,28,30,-1,-1,-1,-1,-1,-1,-1,-1,-1,-1,-1,-1,-1],"split_conditions":[8.0306E1,2.4631703E0,1E-2,1.1652285E0,1.085E1,1.2076195E0,1.732786E1,1.1322893E0,1.4604473E0,2.5015006E0,1.085E1,2.4414682E0,-3.8325534E0,3.853E0,4.7E-1,0E0,2.6479E1,4E-1,-2.0205133E0,9.100087E0,3.6860156E0,3.0600137E-1,-3.2924254E0,5.2641363E0,1.5758409E1,-6.304263E0,-1.010222E0,-1.2566795E0,6.0409255E0,-1.6224891E0,2.0713985E0],"split_indices":[6,8,1,0,6,0,0,7,7,0,5,0,0,5,2,1,5,3,0,0,0,0,0,0,0,0,0,0,0,0,0],"split_type":[0,0,0,0,0,0,0,0,0,0,0,0,0,0,0,0,0,0,0,0,0,0,0,0,0,0,0,0,0,0,0],"sum_hessian":[2.18E2,2.15E2,3E0,2E2,1.5E1,2E0,1E0,7.2E1,1.28E2,8E0,7E0,1E0,1E0,5.8E1,1.4E1,5.3E1,7.5E1,6E0,2E0,2E0,5E0,3.5E1,2.3E1,1.1E1,3E0,2.8E1,2.5E1,6.5E1,1E1,1E0,5E0],"tree_param":{"num_deleted":"0","num_feature":"9","num_nodes":"31","size_leaf_vector":"1"}},{"base_weights":[1.9482727E-1,1.0569477E0,-1.2031871E0,1.9025725E0,-1.9940124E0,-5.6606045E0,-5.242037E-1,3.2471165E-1,3.280789E0,1.1824981E0,-5.2500224E0,-2.695737E0,-1.2665006E1,-1.2843546E0,2.3109903E0,-2.064295E0,2.8922505E0,4.881503E0,-1.7703445E-1,5.8909483E0,-1.4923383E0,-8.078657E0,2.0209777E0,-5.0915937E0,2.3726773E-1,-4.1397595E0,6.9963604E-2,6.446387E0,3.9449278E-1,-1.0941087E0,-9.45775E0,-2.3359063E-1,4.992384E0,5.6334467E0,-3.103865E0,-1.3916868E0,1.0543214E0,7.1604156E0,-2.2319329E-1,-5.8132777E0,8.534236E-1,-8.956479E0,3.4477913E-1,-2.770462E0,6.1420918E0,-1.1105958E0,-7.372061E0,1.3107095E0,-2.0232496E0,-1.3703516E0,-6.494191E0,7.930331E-1,-2.587954E0,6.23026E-1,7.7439704E0,6.2514253E0,-2.2513096E0],"categories":[],"categories_nodes":[],"categories_segments":[],"categories_sizes":[],"default_left":[0,0,0,0,0,0,0,0,0,0,0,0,0,0,0,0,0,0,0,0,0,0,0,0,0,0,0,0,0,0,0,0,0,0,0,0,0,0,0,0,0,0,0,0,0,0,0,0,0,0,0,0,0,0,0,0,0],"id":5,"left_children":[1,3,5,7,9,11,13,15,17,19,21,23,-1,25,27,29,31,33,35,37,39,41,43,45,47,49,51,53,55,-1,-1,-1,-1,-1,-1,-1,-1,-1,-1,-1,-1,-1,-1,-1,-1,-1,-1,-1,-1,-1,-1,-1,-1,-1,-1,-1,-1],"loss_changes":[2.652215E2,3.5466846E2,2.5119788E2,2.3158447E2,3.1653134E2,1.9414319E2,1.6244084E2,3.1880597E2,3.1640546E2,2.1034464E2,3.2489236E2,6.4500145E1,0E0,2.2849078E2,1.24196175E2,1.832185E2,1.6533087E2,2.5168799E2,2.9888378E1,4.8237717E1,1.1650564E2,8.451117E1,1.157805E2,3.712047E1,1.4777438E1,1.149093E2,8.083062E1,3.2873123E1,2.0006932E2,0E0,0E0,0E0,0E0,0E0,0E0,0E0,0E0,0E0,0E0,0E0,0E0,0E0,0E0,0E0,0E0,0E0,0E0,0E0,0E0,0E0,0E0,0E0,0E0,0E0,0E0,0E0,0E0],"parents":[2147483647,0,0,1,1,2,2,3,3,4,4,5,5,6,6,7,7,8,8,9,9,10,10,11,11,13,13,14,14,15,15,16,16,17,17,18,18,19,19,20,20,21,21,22,22,23,23,24,24,25,25,26,26,27,27,28,28],"right_children":[2,4,6,8,10,12,14,16,18,20,22,24,-1,26,28,30,32,34,36,38,40,42,44,46,48,50,52,54,56,-1,-1,-1,-1,-1,-1,-1,-1,-1,-1,-1,-1,-1,-1,-1,-1,-1,-1,-1,-1,-1,-1,-1,-1,-1,-1,-1,-1],"split_conditions":[3.9E0,2.3369E1,-2.3E-1,1.2668933E0,1.2076195E0,1.7887E1,3.1684E1,2.5E0,2.3710485E0,3.4612E1,3.6E0,3.4E0,-1.2665006E1,5.1E0,1.1613433E0,2.3E0,9.7541183E-1,5.5E0,2.454996E0,3.7E0,1.1437931E0,5.5E-1,-1.2E-1,-1.9E-1,2.4347103E0,1.5376E1,9.4E0,9.9794817E-1,2.147E1,-1.0941087E0,-9.45775E0,-2.3359063E-1,4.992384E0,5.6334467E0,-3.103865E0,-1.3916868E0,1.0543214E0,7.1604156E0,-2.2319329E-1,-5.8132777E0,8.534236E-1,-8.956479E0,3.4477913E-1,-2.770462E0,6.1420918E0,-1.1105958E0,-7.372061E0,1.3107095E0,-2.0232496E0,-1.3703516E0,-6.494191E0,7.930331E-1,-2.587954E0,6.23026E-1,7.7439704E0,6.2514253E0,-2.2513096E0],"split_indices":[4,6,1,8,8,5,5,3,0,6,4,3,0,4,8,3,8,3,7,4,0,1,2,2,0,6,4,0,6,0,0,0,0,0,0,0,0,0,0,0,0,0,0,0,0,0,0,0,0,0,0,0,0,0,0,0,0],"split_type":[0,0,0,0,0,0,0,0,0,0,0,0,0,0,0,0,0,0,0,0,0,0,0,0,0,0,0,0,0,0,0,0,0,0,0,0,0,0,0,0,0,0,0,0,0,0,0,0,0,0,0,0,0,0,0,0,0],"sum_hessian":[2.18E2,1.35E2,8.3E1,1.06E2,2.9E1,1E1,7.3E1,5E1,5.6E1,1.5E1,1.4E1,8E0,2E0,5.8E1,1.5E1,2.6E1,2.4E1,3.8E1,1.8E1,5E0,1E1,1E1,4E0,4E0,4E0,1.8E1,4E1,4E0,1.1E1,2.4E1,2E0,1E1,1.4E1,3.5E1,3E0,9E0,9E0,4E0,1E0,3E0,7E0,9E0,1E0,2E0,2E0,2E0,2E0,3E0,1E0,9E0,9E0,3.2E1,8E0,1E0,3E0,3E0,8E0],"tree_param":{"num_deleted":"0","num_feature":"9","num_nodes":"57","size_leaf_vector":"1"}},{"base_weights":[-1.1897764E-1,5.662932E-1,-9.106735E-1,-2.140213E-1,1.6696751E0,2.4450803E0,-1.2223874E0,7.623004E-1,-1.6209692E0,3.9060287E0,1.2278353E-1,4.381582E0,1.7562578E-2,-6.9370894E0,-8.2327956E-1,2.1744424E-1,3.4540892E0,-3.2115746E0,8.991863E-1,5.145663E-1,6.12329E0,-2.0000443E0,1.2846997E0,5.161179E-1,-4.835136E-1,-8.526559E0,5.0012827E-1,-6.193246E-1,-4.999991E0,9.720926E-1,-2.1534002E0,-1.6122524E0,4.568855E0,-3.8290045E0,3.637367E0,5.6151257E0,-3.9092354E-2,3.1968942E0,-1.3577467E0,1.0765911E1,1.2677163E0,-6.1960524E-1,-3.5306504E0,-3.4335585E0,1.714269E0,1.1426448E-1,6.5491235E-1,-1.0108673E-1,-6.1918366E-1,-1.0437915E1,-3.769683E0,3.580788E-1,-1.438193E0],"categories":[],"categories_nodes":[],"categories_segments":[],"categories_sizes":[],"default_left":[0,0,0,0,0,0,0,0,0,0,0,0,0,0,0,0,0,0,0,0,0,0,0,0,0,0,0,0,0,0,0,0,0,0,0,0,0,0,0,0,0,0,0,0,0,0,0,0,0,0,0,0,0],"id":6,"left_children":[1,3,5,7,9,11,13,15,17,19,21,-1,23,25,27,29,31,33,35,37,39,41,43,45,47,49,-1,51,-1,-1,-1,-1,-1,-1,-1,-1,-1,-1,-1,-1,-1,-1,-1,-1,-1,-1,-1,-1,-1,-1,-1,-1,-1],"loss_changes":[1.1933235E2,1.01968124E2,1.096722E2,9.7398605E1,1.6899057E2,4.2187084E1,2.0860475E2,6.081099E1,1.1915956E2,1.4717792E2,7.6558754E1,0E0,1.498947E0,7.5272E1,7.266281E1,6.6491035E1,4.693019E1,9.004674E1,5.3373657E1,4.955838E1,2.567426E2,2.1012882E1,4.640523E1,8.4800124E-2,8.585769E-2,5.9707336E0,0E0,6.9357155E1,0E0,0E0,0E0,0E0,0E0,0E0,0E0,0E0,0E0,0E0,0E0,0E0,0E0,0E0,0E0,0E0,0E0,0E0,0E0,0E0,0E0,0E0,0E0,0E0,0E0],"parents":[2147483647,0,0,1,1,2,2,3,3,4,4,5,5,6,6,7,7,8,8,9,9,10,10,12,12,13,13,14,14,15,15,16,16,17,17,18,18,19,19,20,20,21,21,22,22,23,23,24,24,25,25,27,27],"right_children":[2,4,6,8,10,12,14,16,18,20,22,-1,24,26,28,30,32,34,36,38,40,42,44,46,48,50,-1,52,-1,-1,-1,-1,-1,-1,-1,-1,-1,-1,-1,-1,-1,-1,-1,-1,-1,-1,-1,-1,-1,-1,-1,-1,-1],"split_conditions":[2E-2,-1E-1,2E-1,8.41E0,-2E-2,7.3E-1,7E-1,2.537E0,1.6514E1,4.356E0,1.2763E1,4.381582E0,1.2908025E0,5.2E-1,1.93E0,1.5729E1,9.7074187E-1,7.7E0,8E-1,1.8E0,1.435592E0,2.66E-1,1.1322893E0,1.0686582E0,1.5438908E0,4.7E-1,5.0012827E-1,1.2033085E0,-4.999991E0,9.720926E-1,-2.1534002E0,-1.6122524E0,4.568855E0,-3.8290045E0,3.637367E0,5.6151257E0,-3.9092354E-2,3.1968942E0,-1.3577467E0,1.0765911E1,1.2677163E0,-6.1960524E-1,-3.5306504E0,-3.4335585E0,1.714269E0,1.1426448E-1,6.5491235E-1,-1.0108673E-1,-6.1918366E-1,-1.0437915E1,-3.769683E0,3.580788E-1,-1.438193E0],"split_indices":[2,2,3,6,2,2,3,6,5,5,6,0,0,2,2,5,8,4,3,4,0,6,7,0,0,2,0,0,0,0,0,0,0,0,0,0,0,0,0,0,0,0,0,0,0,0,0,0,0,0,0,0,0],"split_type":[0,0,0,0,0,0,0,0,0,0,0,0,0,0,0,0,0,0,0,0,0,0,0,0,0,0,0,0,0,0,0,0,0,0,0,0,0,0,0,0,0,0,0,0,0,0,0,0,0,0,0,0,0],"sum_hessian":[2.18E2,1.17E2,1.01E2,6.9E1,4.8E1,8E0,9.3E1,4.1E1,2.8E1,1.9E1,2.9E1,4E0,4E0,5E0,8.8E1,3.5E1,6E0,1.7E1,1.1E1,8E0,1.1E1,1E1,1.9E1,2E0,2E0,4E0,1E0,8.5E1,3E0,2.7E1,8E0,1E0,5E0,1.6E1,1E0,1E0,1E1,3E0,5E0,5E0,6E0,6E0,4E0,1E0,1.8E1,1E0,1E0,1E0,1E0,2E0,2E0,3.9E1,4.6E1],"tree_param":{"num_deleted":"0","num_feature":"9","num_nodes":"53","size_leaf_vector":"1"}},{"base_weights":[-8.864707E-4,-1.109286E0,2.8407845E-1,1.896716E-1,-2.603317E0,1.1560572E0,-7.3881514E-2,-6.963017E-1,2.1606526E0,-4.3063335E0,-6.6272604E-1,2.9858632E0,5.16223E-1,-4.1596217E0,1.3093783E-1,2.0519478E0,-1.3834149E0,1.1071111E0,2.5693552E0,-6.47579E-1,-5.0463257E0,4.7763276E-1,-2.780262E0,1.1013885E0,6.9480844E0,-6.052201E-1,1.6123549E0,-9.2340416E-1,-5.544379E0,3.49367E0,-7.660659E-2,-3.0300515E0,4.9904265E-2,-1.4173734E-1,-8.246312E-1,-8.0612624E-1,-5.474335E0,-3.922778E-1,1.4481127E0,-3.7986653E0,1.324737E-1,-2.217595E0,1.717675E0,5.787988E-1,-1.6274899E0,-1.4185128E0,2.231244E0,-1.3343555E0,-4.5750733E-2,-4.7206223E-1,4.234969E0,2.457717E-1,-1.6045731E0],"categories":[],"categories_nodes":[],"categories_segments":[],"categories_sizes":[],"default_left":[0,0,0,0,0,0,0,0,0,0,0,0,0,0,0,0,0,0,0,0,0,0,0,0,0,0,0,0,0,0,0,0,0,0,0,0,0,0,0,0,0,0,0,0,0,0,0,0,0,0,0,0,0],"id":7,"left_children":[1,3,5,7,9,11,13,15,17,19,21,23,25,27,29,-1,31,-1,-1,33,35,37,39,41,-1,43,45,47,-1,49,51,-1,-1,-1,-1,-1,-1,-1,-1,-1,-1,-1,-1,-1,-1,-1,-1,-1,-1,-1,-1,-1,-1],"loss_changes":[6.949561E1,8.784863E1,5.4719597E1,4.5175026E1,6.649844E1,5.813301E1,1.0518976E2,3.6822456E1,5.633545E-1,2.6457108E1,2.791323E1,8.933414E1,4.8926636E1,2.1703888E1,8.4051765E1,0E0,3.558335E1,0E0,0E0,1.4213634E-1,1.1857788E1,7.332467E0,1.2405247E1,2.4258556E1,0E0,2.5160212E1,4.06886E1,1.0071695E0,0E0,2.2615349E1,5.656243E1,0E0,0E0,0E0,0E0,0E0,0E0,0E0,0E0,0E0,0E0,0E0,0E0,0E0,0E0,0E0,0E0,0E0,0E0,0E0,0E0,0E0,0E0],"parents":[2147483647,0,0,1,1,2,2,3,3,4,4,5,5,6,6,7,7,8,8,9,9,10,10,11,11,12,12,13,13,14,14,16,16,19,19,20,20,21,21,22,22,23,23,25,25,26,26,27,27,29,29,30,30],"right_children":[2,4,6,8,10,12,14,16,18,20,22,24,26,28,30,-1,32,-1,-1,34,36,38,40,42,-1,44,46,48,-1,50,52,-1,-1,-1,-1,-1,-1,-1,-1,-1,-1,-1,-1,-1,-1,-1,-1,-1,-1,-1,-1,-1,-1],"split_conditions":[1.0119288E0,9.676338E-1,1.2283461E0,9.13578E-1,3.5E0,-2.988E0,-2.336E1,8.579666E-1,5E-2,-5E-1,1.3237E1,1.1734021E0,3E-2,-2.9729E1,-1.1908E1,2.0519478E0,8.9077294E-1,1.1071111E0,2.5693552E0,9.7074187E-1,-1.14E0,3.962E0,1.1E-1,-8.4109E1,6.9480844E0,2.6398E1,1.5E0,1.122363E0,-5.544379E0,-1.9E0,3.0507E1,-3.0300515E0,4.9904265E-2,-1.4173734E-1,-8.246312E-1,-8.0612624E-1,-5.474335E0,-3.922778E-1,1.4481127E0,-3.7986653E0,1.324737E-1,-2.217595E0,1.717675E0,5.787988E-1,-1.6274899E0,-1.4185128E0,2.231244E0,-1.3343555E0,-4.5750733E-2,-4.7206223E-1,4.234969E0,2.457717E-1,-1.6045731E0],"split_indices":[8,7,7,0,4,5,6,8,1,3,5,0,1,6,6,0,8,0,0,0,1,5,1,6,0,6,4,0,0,3,5,0,0,0,0,0,0,0,0,0,0,0,0,0,0,0,0,0,0,0,0,0,0],"split_type":[0,0,0,0,0,0,0,0,0,0,0,0,0,0,0,0,0,0,0,0,0,0,0,0,0,0,0,0,0,0,0,0,0,0,0,0,0,0,0,0,0,0,0,0,0,0,0,0,0,0,0,0,0],"sum_hessian":[2.18E2,4.4E1,1.74E2,2.4E1,2E1,5E1,1.24E2,1.7E1,7E0,1E1,1E1,1.2E1,3.8E1,5E0,1.19E2,3E0,1.4E1,3E0,4E0,2E0,8E0,7E0,3E0,9E0,3E0,1.9E1,1.9E1,2E0,3E0,6E0,1.13E2,6E0,8E0,1E0,1E0,1E0,7E0,4E0,3E0,2E0,1E0,1E0,8E0,9E0,1E1,3E0,1.6E1,1E0,1E0,1E0,5E0,9.4E1,1.9E1],"tree_param":{"num_deleted":"0","num_feature":"9","num_nodes":"53","size_leaf_vector":"1"}},{"base_weights":[-2.4827009E-2,-4.3142882E-1,3.8937142E-1,-2.4089411E-1,-1.5470479E0,-9.165326E-2,1.0027914E0,-1.294199E-1,-2.7699463E0,-4.5125804E0,-8.0035883E-1,5.6868577E-1,-2.6251378E0,-5.457414E-1,1.7944247E0,-3.2998884E-1,1.5673013E0,-3.1851646E-2,-3.668694E0,-2.0465682E0,-9.6218266E-2,1.6865273E0,-1.12491526E-1,-5.6341333E0,-1.1580257E0,1.859526E0,-1.70373E0,2.0512807E0,-3.0790567E0,-5.321093E-1,8.140623E-1,4.08783E0,4.2494017E-1,1.0184501E0,-5.0344163E-1,2.7696044E0,4.337974E-1,-9.6590525E-1,1.0530336E0,3.2126692E-1,-2.7035718E0,2.4517596E-1,3.3888173E0,4.025812E-1,-3.267178E0,2.3936625E0,-2.0583706E-1],"categories":[],"categories_nodes":[],"categories_segments":[],"categories_sizes":[],"default_left":[0,0,0,0,0,0,0,0,0,0,0,0,0,0,0,0,0,0,0,0,0,0,0,0,0,0,0,0,0,0,0,0,0,0,0,0,0,0,0,0,0,0,0,0,0,0,0],"id":8,"left_children":[1,3,5,7,9,11,13,15,17,-1,19,21,23,25,27,29,31,-1,-1,-1,33,35,37,-1,39,41,43,45,-1,-1,-1,-1,-1,-1,-1,-1,-1,-1,-1,-1,-1,-1,-1,-1,-1,-1,-1],"loss_changes":[3.705104E1,2.3204062E1,3.2263664E1,2.6677235E1,3.176448E1,1.0523688E2,5.9833546E1,3.2153606E1,9.689566E0,0E0,1.2066745E1,3.827787E1,5.0796555E1,5.0516197E1,4.63628E1,1.985419E1,2.701133E1,0E0,0E0,0E0,5.0467706E0,2.4545773E1,3.2845863E1,0E0,2.3755539E1,1.3945673E1,4.0861248E1,2.4471268E1,0E0,0E0,0E0,0E0,0E0,0E0,0E0,0E0,0E0,0E0,0E0,0E0,0E0,0E0,0E0,0E0,0E0,0E0,0E0],"parents":[2147483647,0,0,1,1,2,2,3,3,4,4,5,5,6,6,7,7,8,8,10,10,11,11,12,12,13,13,14,14,15,15,16,16,20,20,21,21,22,22,24,24,25,25,26,26,27,27],"right_children":[2,4,6,8,10,12,14,16,18,-1,20,22,24,26,28,30,32,-1,-1,-1,34,36,38,-1,40,42,44,46,-1,-1,-1,-1,-1,-1,-1,-1,-1,-1,-1,-1,-1,-1,-1,-1,-1,-1,-1],"split_conditions":[1.0321E1,2.3114276E0,1.5772157E0,9.135E0,2.395229E0,1.3778216E0,3.4E0,1.9656403E0,9.910079E-1,-4.5125804E0,-5.977E0,1.2166E1,1.3065E1,1.3E0,8.7E0,1.3321E1,2.0451431E0,-3.1851646E-2,-3.668694E0,-2.0465682E0,2.3301737E0,1E-2,3.9E0,-5.6341333E0,1.8921E1,3E-1,3.3E0,2.447168E0,-3.0790567E0,-5.321093E-1,8.140623E-1,4.08783E0,4.2494017E-1,1.0184501E0,-5.0344163E-1,2.7696044E0,4.337974E-1,-9.6590525E-1,1.0530336E0,3.2126692E-1,-2.7035718E0,2.4517596E-1,3.3888173E0,4.025812E-1,-3.267178E0,2.3936625E0,-2.0583706E-1],"split_indices":[6,8,8,6,8,7,3,8,0,0,5,5,6,3,4,5,7,0,0,0,0,1,4,0,5,3,4,7,0,0,0,0,0,0,0,0,0,0,0,0,0,0,0,0,0,0,0],"split_type":[0,0,0,0,0,0,0,0,0,0,0,0,0,0,0,0,0,0,0,0,0,0,0,0,0,0,0,0,0,0,0,0,0,0,0,0,0,0,0,0,0,0,0,0,0,0,0],"sum_hessian":[2.18E2,1.1E2,1.08E2,9.5E1,1.5E1,6.1E1,4.7E1,9.2E1,3E0,2E0,1.3E1,4.9E1,1.2E1,1.6E1,3.1E1,8.3E1,9E0,1E0,2E0,4E0,9E0,1.8E1,3.1E1,3E0,9E0,5E0,1.1E1,3E1,1E0,7.1E1,1.2E1,2E0,7E0,2E0,7E0,9E0,9E0,1.8E1,1.3E1,5E0,4E0,3E0,2E0,5E0,6E0,2.6E1,4E0],"tree_param":{"num_deleted":"0","num_feature":"9","num_nodes":"47","size_leaf_vector":"1"}},{"base_weights":[-4.4692643E-2,-8.0119155E-2,2.5293891E0,6.2155557E-1,-1.7064635E-1,1.5467734E0,1.7526121E-1,-7.317613E-1,-4.8483275E-3,5.957975E-1,1.9961996E0,-2.270009E-1,8.412447E-1,-8.3868575E-1,1.9279958E0,1.8281677E0,-1.6313137E-1,1.7984341E-1,-8.3455163E-1,9.258967E-1,1.6166627E-1,-3.7782735E-1,-1.7656192E0,-1.6154464E-1,3.2738972E0,9.9270123E-1,-2.5086364E-1],"categories":[],"categories_nodes":[],"categories_segments":[],"categories_sizes":[],"default_left":[0,0,0,0,0,0,0,0,0,0,0,0,0,0,0,0,0,0,0,0,0,0,0,0,0,0,0],"id":9,"left_children":[1,3,-1,5,7,9,11,13,15,-1,-1,17,19,21,-1,23,25,-1,-1,-1,-1,-1,-1,-1,-1,-1,-1],"loss_changes":[2.0148932E1,1.3885537E1,0E0,1.00346775E1,1.7944214E1,2.2038975E0,5.0193043E0,1.4119389E1,4.3801888E1,0E0,0E0,3.1227787E0,2.4213171E-1,1.7680418E1,0E0,3.507903E1,1.4336742E1,0E0,0E0,0E0,0E0,0E0,0E0,0E0,0E0,0E0,0E0],"parents":[2147483647,0,0,1,1,3,3,4,4,5,5,6,6,7,7,8,8,11,11,12,12,13,13,15,15,16,16],"right_children":[2,4,-1,6,8,10,12,14,16,-1,-1,18,20,22,-1,24,26,-1,-1,-1,-1,-1,-1,-1,-1,-1,-1],"split_conditions":[9.8639E1,9.676338E-1,2.5293891E0,-4.59E-1,1.144153E0,-5.8E-1,2.993E0,5.4477E1,1.1746442E0,5.957975E-1,1.9961996E0,1.18E0,9.446713E-1,1.1085607E0,1.9279958E0,1.1619661E0,-1.37E0,1.7984341E-1,-8.3455163E-1,9.258967E-1,1.6166627E-1,-3.7782735E-1,-1.7656192E0,-1.6154464E-1,3.2738972E0,9.9270123E-1,-2.5086364E-1],"split_indices":[5,7,0,6,8,2,5,5,8,0,0,5,0,0,0,8,2,0,0,0,0,0,0,0,0,0,0],"split_type":[0,0,0,0,0,0,0,0,0,0,0,0,0,0,0,0,0,0,0,0,0,0,0,0,0,0,0],"sum_hessian":[2.18E2,2.16E2,2E0,2.4E1,1.92E2,7E0,1.7E1,4.3E1,1.49E2,3E0,4E0,1.1E1,6E0,4.2E1,1E0,1.1E1,1.38E2,7E0,4E0,5E0,1E0,2.9E1,1.3E1,5E0,6E0,9E0,1.29E2],"tree_param":{"num_deleted":"0","num_feature":"9","num_nodes":"27","size_leaf_vector":"1"}},{"base_weights":[4.2114053E-2,-6.786468E-2,5.0744975E-1,1.7705992E-2,-1.5082226E0,1.5347993E0,9.3074135E-2,-4.9396355E-2,9.869394E-1,-2.925572E0,4.9224132E-1,3.0766046E-1,2.365947E0,3.1937882E-1,-7.270247E-1,-8.8699006E-2,1.4932561E0,1.5667953E0,-4.1700742E-1,-5.388328E-1,-3.2931533E0,8.820835E-1,-5.285636E-1,3.016866E-3,4.5672804E-1,2.5522115E0,6.191803E-1,4.6346447E-1,-8.884041E-1,-9.22782E-1,2.1875966E-1,-4.808501E-1,6.956437E-2,1.995076E0,-1.1016084E-3,2.0566173E0,5.603192E-1,-7.060747E-1,2.2009718E-1,-8.661385E-3,1.8186685E-2,-4.632355E-1,7.47172E-1,-5.7354566E-2,-1.0823965E0],"categories":[],"categories_nodes":[],"categories_segments":[],"categories_sizes":[],"default_left":[0,0,0,0,0,0,0,0,0,0,0,0,0,0,0,0,0,0,0,0,0,0,0,0,0,0,0,0,0,0,0,0,0,0,0,0,0,0,0,0,0,0,0,0,0],"id":10,"left_children":[1,3,5,7,9,11,13,15,17,19,21,23,25,27,29,31,33,35,37,-1,-1,-1,-1,39,-1,-1,-1,41,-1,43,-1,-1,-1,-1,-1,-1,-1,-1,-1,-1,-1,-1,-1,-1,-1],"loss_changes":[1.1246603E1,2.1980536E1,1.7720634E1,1.10495205E1,2.9817986E1,1.1484556E1,5.981478E0,9.758627E0,9.61982E0,3.4511414E0,2.4595363E0,2.6649958E-1,6.6553116E-1,4.7580986E0,1.5049174E0,9.719415E0,3.0217314E0,2.7654228E0,8.969292E-1,0E0,0E0,0E0,0E0,7.842456E-4,0E0,0E0,0E0,6.395926E0,0E0,7.5533056E-1,0E0,0E0,0E0,0E0,0E0,0E0,0E0,0E0,0E0,0E0,0E0,0E0,0E0,0E0,0E0],"parents":[2147483647,0,0,1,1,2,2,3,3,4,4,5,5,6,6,7,7,8,8,9,9,10,10,11,11,12,12,13,13,14,14,15,15,16,16,17,17,18,18,23,23,27,27,29,29],"right_children":[2,4,6,8,10,12,14,16,18,20,22,24,26,28,30,32,34,36,38,-1,-1,-1,-1,40,-1,-1,-1,42,-1,44,-1,-1,-1,-1,-1,-1,-1,-1,-1,-1,-1,-1,-1,-1,-1],"split_conditions":[2.3114276E0,2.2304456E0,2.3914106E0,9.3E0,2.2707646E0,-6E-2,4.5E0,2.2192752E0,4.2E0,-5.57E-1,1.6939E1,-4.7E-1,7.4E-1,1.8372E1,1.2209E1,-1E-1,2.2299378E0,4.5E-1,1.0522742E0,-5.388328E-1,-3.2931533E0,8.820835E-1,-5.285636E-1,2.3301737E0,4.5672804E-1,2.5522115E0,6.191803E-1,-2.738E0,-8.884041E-1,-3.001E0,2.1875966E-1,-4.808501E-1,6.956437E-2,1.995076E0,-1.1016084E-3,2.0566173E0,5.603192E-1,-7.060747E-1,2.2009718E-1,-8.661385E-3,1.8186685E-2,-4.632355E-1,7.47172E-1,-5.7354566E-2,-1.0823965E0],"split_indices":[0,0,0,4,8,2,4,0,3,5,5,2,1,6,5,2,0,1,0,0,0,0,0,0,0,0,0,6,0,5,0,0,0,0,0,0,0,0,0,0,0,0,0,0,0],"split_type":[0,0,0,0,0,0,0,0,0,0,0,0,0,0,0,0,0,0,0,0,0,0,0,0,0,0,0,0,0,0,0,0,0,0,0,0,0,0,0,0,0,0,0,0,0],"sum_hessian":[2.18E2,1.77E2,4.1E1,1.68E2,9E0,1.1E1,3E1,1.58E2,1E1,5E0,4E0,5E0,6E0,2.4E1,6E0,1.55E2,3E0,7E0,3E0,1E0,4E0,3E0,1E0,2E0,3E0,5E0,1E0,2.2E1,2E0,5E0,1E0,4.4E1,1.11E2,2E0,1E0,4E0,3E0,2E0,1E0,1E0,1E0,5E0,1.7E1,1E0,4E0],"tree_param":{"num_deleted":"0","num_feature":"9","num_nodes":"45","size_leaf_vector":"1"}},{"base_weights":[1.0718449E-2,3.9493106E-2,-1.2267356E0,2.5277016E-1,-1.3137431E-1,-1.8793288E0,-1.6189702E-1,1.2135629E-1,1.9048386E0,1.443741E0,-1.7039102E-1,-3.715191E-1,1.2367355E-1,-5.4668147E-2,8.290467E-1,3.3297256E-1,2.4649904E0,-1.1305808E0,-1.1781111E-1,5.2362466E-1,-2.8296024E-1,1.2041584E0,-7.823836E-1,5.2601105E-1,-2.1552201E-2,-2.108222E0,-1.1220461E-1,6.748821E-1,-2.0142096E-1],"categories":[],"categories_nodes":[],"categories_segments":[],"categories_sizes":[],"default_left":[0,0,0,0,0,0,0,0,0,0,0,0,0,0,0,0,0,0,0,0,0,0,0,0,0,0,0,0,0],"id":11,"left_children":[1,3,5,7,9,-1,11,13,15,-1,17,-1,-1,19,21,23,-1,25,27,-1,-1,-1,-1,-1,-1,-1,-1,-1,-1],"loss_changes":[7.834577E0,7.8694735E0,3.1498637E0,2.0590626E1,7.6079645E0,0E0,2.2801122E-1,1.126444E1,5.3146305E0,0E0,5.8117495E0,0E0,0E0,9.7831955E0,1.1826725E1,2.2169206E-1,0E0,5.714884E0,7.620497E0,0E0,0E0,0E0,0E0,0E0,0E0,0E0,0E0,0E0,0E0],"parents":[2147483647,0,0,1,1,2,2,3,3,4,4,6,6,7,7,8,8,10,10,13,13,14,14,15,15,17,17,18,18],"right_children":[2,4,6,8,10,-1,12,14,16,-1,18,-1,-1,20,22,24,-1,26,28,-1,-1,-1,-1,-1,-1,-1,-1,-1,-1],"split_conditions":[1.93E0,3E0,2.74E0,2.7E0,-1.0841E1,-1.8793288E0,1.0686582E0,2.3369E1,-5.8E-1,1.443741E0,-5.361E0,-3.715191E-1,1.2367355E-1,-1.3E0,6.1699E1,8.4066296E-1,2.4649904E0,1.3E0,-5.69E-1,5.2362466E-1,-2.8296024E-1,1.2041584E0,-7.823836E-1,5.2601105E-1,-2.1552201E-2,-2.108222E0,-1.1220461E-1,6.748821E-1,-2.0142096E-1],"split_indices":[1,3,1,3,5,0,0,5,2,0,5,0,0,3,5,0,0,4,5,0,0,0,0,0,0,0,0,0,0],"split_type":[0,0,0,0,0,0,0,0,0,0,0,0,0,0,0,0,0,0,0,0,0,0,0,0,0,0,0,0,0],"sum_hessian":[2.18E2,2.14E2,4E0,9.5E1,1.19E2,2E0,2E0,8.9E1,6E0,2E0,1.17E2,1E0,1E0,7.2E1,1.7E1,2E0,4E0,5E0,1.12E2,2E1,5.2E1,1.4E1,3E0,1E0,1E0,2E0,3E0,1E1,1.02E2],"tree_param":{"num_deleted":"0","num_feature":"9","num_nodes":"29","size_leaf_vector":"1"}},{"base_weights":[5.3949626E-3,1.2150017E0,-2.2714008E-2,-3.3540452E-1,1.6889544E0,-5.1529646E-1,3.892502E-2,9.511381E-1,-6.922968E-1,2.404248E0,1.3203139E-3,-1.8983663E0,-4.7627154E-1,7.803867E-2,-3.2875374E-1,-6.926784E-2,-1.0768685E0,2.564132E-1,-1.3100992E-1,-9.2672825E-1,1.9546229E-1],"categories":[],"categories_nodes":[],"categories_segments":[],"categories_sizes":[],"default_left":[0,0,0,0,0,0,0,0,0,0,0,0,0,0,0,0,0,0,0,0,0],"id":12,"left_children":[1,3,5,-1,-1,7,9,-1,11,-1,13,-1,15,17,19,-1,-1,-1,-1,-1,-1],"loss_changes":[7.4856963E0,4.254114E0,6.5527167E0,0E0,0E0,6.885308E0,1.7050646E1,0E0,4.8040285E0,0E0,4.8344684E0,0E0,4.8028502E0,5.814633E0,1.1473295E1,0E0,0E0,0E0,0E0,0E0,0E0],"parents":[2147483647,0,0,1,1,2,2,5,5,6,6,8,8,10,10,12,12,13,13,14,14],"right_children":[2,4,6,-1,-1,8,10,-1,12,-1,14,-1,16,18,20,-1,-1,-1,-1,-1,-1],"split_conditions":[-3.8561E1,1.0539463E0,-1E-1,-3.3540452E-1,1.6889544E0,-2.36E0,2E-1,9.511381E-1,-2.6313E1,2.404248E0,3.1684E1,-1.8983663E0,-5.69E-1,1.4604473E0,2.8244E1,-6.926784E-2,-1.0768685E0,2.564132E-1,-1.3100992E-1,-9.2672825E-1,1.9546229E-1],"split_indices":[6,0,3,0,0,2,3,0,6,0,5,0,6,0,6,0,0,0,0,0,0],"split_type":[0,0,0,0,0,0,0,0,0,0,0,0,0,0,0,0,0,0,0,0,0],"sum_hessian":[2.18E2,4E0,2.14E2,1E0,3E0,2.3E1,1.91E2,2E0,2.1E1,2E0,1.89E2,2E0,1.9E1,1.54E2,3.5E1,1.2E1,7E0,8.3E1,7.1E1,1.6E1,1.9E1],"tree_param":{"num_deleted":"0","num_feature":"9","num_nodes":"21","size_leaf_vector":"1"}},{"base_weights":[4.7422727E-3,-1.4385857E-1,1.967398E-1,-5.9039295E-2,-1.5516894E0,1.6546865E0,1.318094E-1,-1.1239371E-1,6.873831E-1,-2.1224053E0,-7.993324E-2,-8.3653957E-1,2.0832242E-1,-5.1710784E-2,-1.7202342E0,1.3007996E0,-2.4873328E-1,2.5025483E-2,-2.6680193E0,3.145134E-2,-1.5635121E-1,-2.8516793E-1,-1.4733125E0,3.098738E-2,8.003455E-1,-2.4852425E-1,2.632467E-1,-2.134572E0,-2.3361027E-1,1.6802359E-1,-7.5450194E-1,-5.001406E-1,2.1527367E-2,1.826165E0,-5.092959E-2,1.4119546E0,5.0167876E-1],"categories":[],"categories_nodes":[],"categories_segments":[],"categories_sizes":[],"default_left":[0,0,0,0,0,0,0,0,0,0,0,0,0,0,0,0,0,0,0,0,0,0,0,0,0,0,0,0,0,0,0,0,0,0,0,0,0],"id":13,"left_children":[1,3,5,7,9,-1,11,13,15,17,19,21,23,25,27,-1,29,-1,-1,-1,-1,31,-1,33,35,-1,-1,-1,-1,-1,-1,-1,-1,-1,-1,-1,-1],"loss_changes":[6.277119E0,1.4699268E1,8.851877E0,4.770849E0,5.6880093E0,0E0,7.0584793E0,1.0723426E1,4.927906E0,5.95154E0,3.1701803E-2,2.0199637E0,9.100705E0,6.7599664E0,1.9415178E0,0E0,9.7576916E-1,0E0,0E0,0E0,0E0,3.4520835E-1,0E0,1.0110533E1,2.9258633E0,0E0,0E0,0E0,0E0,0E0,0E0,0E0,0E0,0E0,0E0,0E0,0E0],"parents":[2147483647,0,0,1,1,2,2,3,3,4,4,6,6,7,7,8,8,9,9,10,10,11,11,12,12,13,13,14,14,16,16,21,21,23,23,24,24],"right_children":[2,4,6,8,10,-1,12,14,16,18,20,22,24,26,28,-1,30,-1,-1,-1,-1,32,-1,34,36,-1,-1,-1,-1,-1,-1,-1,-1,-1,-1,-1,-1],"split_conditions":[1.4295535E0,1.3767663E0,1.4376957E0,1.3081095E0,1.5879E1,1.6546865E0,1.5399107E0,1.2908025E0,1.3009657E0,6E-1,1.435592E0,1.4954324E0,5.5E0,1.1475828E0,1.3625481E0,1.3007996E0,3E-2,2.5025483E-2,-2.6680193E0,3.145134E-2,-1.5635121E-1,-4E-1,-1.4733125E0,1.5723665E0,6.4E0,-2.4852425E-1,2.632467E-1,-2.134572E0,-2.3361027E-1,1.6802359E-1,-7.5450194E-1,-5.001406E-1,2.1527367E-2,1.826165E0,-5.092959E-2,1.4119546E0,5.0167876E-1],"split_indices":[8,8,8,7,5,0,8,7,8,4,0,8,3,0,0,0,1,0,0,0,0,1,0,7,3,0,0,0,0,0,0,0,0,0,0,0,0],"split_type":[0,0,0,0,0,0,0,0,0,0,0,0,0,0,0,0,0,0,0,0,0,0,0,0,0,0,0,0,0,0,0,0,0,0,0,0,0],"sum_hessian":[2.18E2,1.23E2,9.5E1,1.17E2,6E0,3E0,9.2E1,1.1E2,7E0,4E0,2E0,6E0,8.6E1,1.07E2,3E0,4E0,3E0,1E0,3E0,1E0,1E0,4E0,2E0,6.7E1,1.9E1,6.6E1,4.1E1,2E0,1E0,2E0,1E0,2E0,2E0,2E0,6.5E1,5E0,1.4E1],"tree_param":{"num_deleted":"0","num_feature":"9","num_nodes":"37","size_leaf_vector":"1"}},{"base_weights":[-4.5450926E-3,7.7593066E-2,-2.700194E-1,1.9676853E-2,5.5857944E-1,-1.3010353E0,-1.8014018E-1,6.436387E-2,-5.5400914E-1,1.3781557E0,2.2526084E-1,-1.5849178E0,-2.1969402E-1,-5.780727E-1,4.901377E-2,-4.0438075E-2,2.4470639E-1,-1.3078092E0,6.213503E-2,-3.3682504E-1,4.847777E-1,-3.073222E-1,-1.2185597E0,1.9866675E-1,-6.3092697E-1,3.336195E-1,-1.9776802E-1,-2.6544385E-2,4.7851223E-1,8.42168E-1,-2.0656513E-1,-4.238866E-1,7.106019E-4,1.3345363E0,1.04270995E-1,-3.9877485E-2,-7.787472E-1,-1.0084487E0,2.8426537E-1,6.0988045E-3,-1.273319E0],"categories":[],"categories_nodes":[],"categories_segments":[],"categories_sizes":[],"default_left":[0,0,0,0,0,0,0,0,0,0,0,0,0,0,0,0,0,0,0,0,0,0,0,0,0,0,0,0,0,0,0,0,0,0,0,0,0,0,0,0,0],"id":14,"left_children":[1,3,5,7,9,11,13,15,17,-1,19,-1,-1,21,23,25,27,-1,29,31,33,35,-1,37,39,-1,-1,-1,-1,-1,-1,-1,-1,-1,-1,-1,-1,-1,-1,-1,-1],"loss_changes":[4.798296E0,4.663187E0,4.5695E0,3.9018455E0,4.590761E0,8.616519E-1,4.5018272E0,2.6768732E0,5.202662E0,0E0,2.2069554E0,0E0,0E0,2.73167E0,3.3771868E0,5.3611617E0,3.3150625E0,0E0,1.6474832E0,1.5146482E-1,3.079847E0,1.725881E0,0E0,3.0692654E0,2.4757595E0,0E0,0E0,0E0,0E0,0E0,0E0,0E0,0E0,0E0,0E0,0E0,0E0,0E0,0E0,0E0,0E0],"parents":[2147483647,0,0,1,1,2,2,3,3,4,4,5,5,6,6,7,7,8,8,10,10,13,13,14,14,15,15,16,16,18,18,19,19,20,20,21,21,23,23,24,24],"right_children":[2,4,6,8,10,12,14,16,18,-1,20,-1,-1,22,24,26,28,-1,30,32,34,36,-1,38,40,-1,-1,-1,-1,-1,-1,-1,-1,-1,-1,-1,-1,-1,-1,-1,-1],"split_conditions":[2.3369E1,1.8212E1,2.5661E1,1.5729E1,1.1745726E0,8E-2,1.1868114E0,4.401E0,4.855E0,1.3781557E0,1.6998154E0,-1.5849178E0,-2.1969402E-1,1.1746442E0,3.9E-1,9.881007E-1,6E-2,-1.3078092E0,2E0,1.4362367E0,1.3E0,5.8707E1,-1.2185597E0,0E0,3.1684E1,3.336195E-1,-1.9776802E-1,-2.6544385E-2,4.7851223E-1,8.42168E-1,-2.0656513E-1,-4.238866E-1,7.106019E-4,1.3345363E0,1.04270995E-1,-3.9877485E-2,-7.787472E-1,-1.0084487E0,2.8426537E-1,6.0988045E-3,-1.273319E0],"split_indices":[6,6,6,6,7,1,7,6,5,0,0,0,0,7,2,0,2,0,3,0,3,6,0,4,6,0,0,0,0,0,0,0,0,0,0,0,0,0,0,0,0],"split_type":[0,0,0,0,0,0,0,0,0,0,0,0,0,0,0,0,0,0,0,0,0,0,0,0,0,0,0,0,0,0,0,0,0,0,0,0,0,0,0,0,0],"sum_hessian":[2.18E2,1.67E2,5.1E1,1.5E2,1.7E1,3E0,4.8E1,1.4E2,1E1,4E0,1.3E1,2E0,1E0,1.7E1,3.1E1,8.9E1,5.1E1,4E0,6E0,4E0,9E0,1.3E1,4E0,2.6E1,5E0,2.6E1,6.3E1,2.4E1,2.7E1,1E0,5E0,3E0,1E0,2E0,7E0,9E0,4E0,1E0,2.5E1,3E0,2E0],"tree_param":{"num_deleted":"0","num_feature":"9","num_nodes":"41","size_leaf_vector":"1"}},{"base_weights":[-1.6181592E-2,1.0311066E-1,-1.2114672E-1,2.3578222E-1,-1.114916E-1,-4.3251196E-1,-2.7322458E-2,-2.590817E-1,3.3240667E-1,-4.9225873E-1,-2.9525083E-2,-2.5236648E-1,-1.1726788E0,-5.9603065E-2,6.8718153E-1,-1.0059806E0,-8.2793735E-2,1.0973152E-1,5.506473E-1,-6.477695E-1,2.1540296E-1,3.1094956E-1,-1.4663073E-1,-3.7646422E-1,4.2871377E-1,-3.3800137E-1,-1.2943478E0,-8.305243E-2,9.852458E-1,9.642751E-1,-6.7049615E-2,-4.844995E-1,1.5715152E-1,-4.1971752E-1,2.4351251E-1,2.4382055E-1,9.738662E-1,-7.755652E-1,-0E0,-2.0184541E-1,4.8772603E-1,-5.907026E-1,-1.2294451E-2,-7.1121156E-1,-2.7496693E-1,-1.9695942E-1,1.1856769E-1],"categories":[],"categories_nodes":[],"categories_segments":[],"categories_sizes":[],"default_left":[0,0,0,0,0,0,0,0,0,0,0,0,0,0,0,0,0,0,0,0,0,0,0,0,0,0,0,0,0,0,0,0,0,0,0,0,0,0,0,0,0,0,0,0,0,0,0],"id":15,"left_children":[1,3,5,7,9,11,13,15,17,19,21,23,25,27,29,-1,31,33,35,37,-1,39,41,43,-1,-1,-1,45,-1,-1,-1,-1,-1,-1,-1,-1,-1,-1,-1,-1,-1,-1,-1,-1,-1,-1,-1],"loss_changes":[2.7548864E0,2.9601073E0,3.4015777E0,3.1470752E0,1.2286544E0,3.2899227E0,2.133563E0,1.3541853E0,2.557199E0,9.1419804E-1,1.3995826E0,2.1048448E0,5.395651E-2,2.2288969E0,9.095969E-1,0E0,1.0432873E0,2.0836906E0,3.2564573E0,4.8987508E-1,0E0,9.1715497E-1,1.5377367E0,4.7409725E-1,0E0,0E0,0E0,2.022174E0,0E0,0E0,0E0,0E0,0E0,0E0,0E0,0E0,0E0,0E0,0E0,0E0,0E0,0E0,0E0,0E0,0E0,0E0,0E0],"parents":[2147483647,0,0,1,1,2,2,3,3,4,4,5,5,6,6,7,7,8,8,9,9,10,10,11,11,12,12,13,13,14,14,16,16,17,17,18,18,19,19,21,21,22,22,23,23,27,27],"right_children":[2,4,6,8,10,12,14,16,18,20,22,24,26,28,30,-1,32,34,36,38,-1,40,42,44,-1,-1,-1,46,-1,-1,-1,-1,-1,-1,-1,-1,-1,-1,-1,-1,-1,-1,-1,-1,-1,-1,-1],"split_conditions":[0E0,1.2578E1,1.0293639E0,-1.31E0,1.469E1,1.0022845E0,9.5E0,1.1380324E0,2.6E0,-2E-2,1.2108734E0,1.0022845E0,1E-2,9.8639E1,8.3E-1,-1.0059806E0,-9.1E-1,9.7074187E-1,-2.5E-1,1.4668101E0,2.1540296E-1,1.1322893E0,1.4289002E0,-3.103E0,4.2871377E-1,-3.3800137E-1,-1.2943478E0,1.9295284E0,9.852458E-1,9.642751E-1,-6.7049615E-2,-4.844995E-1,1.5715152E-1,-4.1971752E-1,2.4351251E-1,2.4382055E-1,9.738662E-1,-7.755652E-1,-0E0,-2.0184541E-1,4.8772603E-1,-5.907026E-1,-1.2294451E-2,-7.1121156E-1,-2.7496693E-1,-1.9695942E-1,1.1856769E-1],"split_indices":[2,6,7,2,6,7,4,0,3,1,0,0,2,5,1,0,1,7,2,0,0,0,7,5,0,0,0,0,0,0,0,0,0,0,0,0,0,0,0,0,0,0,0,0,0,0,0],"split_type":[0,0,0,0,0,0,0,0,0,0,0,0,0,0,0,0,0,0,0,0,0,0,0,0,0,0,0,0,0,0,0,0,0,0,0,0,0,0,0,0,0,0,0,0,0,0,0],"sum_hessian":[2.18E2,1.02E2,1.16E2,6.3E1,3.9E1,2.6E1,9E1,1E1,5.3E1,6E0,3.3E1,2.2E1,4E0,8.7E1,3E0,1E0,9E0,2.7E1,2.6E1,5E0,1E0,8E0,2.5E1,1.9E1,3E0,1E0,3E0,8.6E1,1E0,2E0,1E0,3E0,6E0,5E0,2.2E1,1.6E1,1E1,4E0,1E0,2E0,6E0,5E0,2E1,3E0,1.6E1,5.5E1,3.1E1],"tree_param":{"num_deleted":"0","num_feature":"9","num_nodes":"47","size_leaf_vector":"1"}},{"base_weights":[-7.2312364E-3,9.396326E-2,-7.471521E-2,6.28467E-1,4.7067046E-2,-8.505002E-1,-6.2224485E-2,7.874427E-1,-1.576935E-1,-2.0356724E-2,3.5025033E-1,-4.4112753E-2,-5.0781757E-1,1.9336689E-1,8.655845E-1,-1.2101248E-1,1.18835926E-1,6.899277E-1,1.631015E-1,-9.001634E-2,1.914014E-1,-8.2426137E-1,-1.8767871E-2,-2.3152541E-2,-3.7599298E-1,-1.3577454E-1,3.0713594E-1,3.3066865E-2,8.433762E-1,3.6680803E-2,4.846631E-1,-3.0901555E-3,-3.0270344E-1,4.877514E-1,-7.0673704E-2,6.0037073E-2,-9.3188874E-2],"categories":[],"categories_nodes":[],"categories_segments":[],"categories_sizes":[],"default_left":[0,0,0,0,0,0,0,0,0,0,0,0,0,0,0,0,0,0,0,0,0,0,0,0,0,0,0,0,0,0,0,0,0,0,0,0,0],"id":16,"left_children":[1,3,5,7,9,-1,11,13,-1,15,17,19,21,-1,-1,23,25,27,29,31,33,-1,35,-1,-1,-1,-1,-1,-1,-1,-1,-1,-1,-1,-1,-1,-1],"loss_changes":[1.5023805E0,2.1694903E0,1.2170465E0,1.0053349E0,1.6866533E0,0E0,1.02931E0,1.0056782E-1,0E0,9.671192E-1,8.3249485E-1,1.3892056E0,7.49884E-1,0E0,0E0,9.853985E-1,1.4337662E0,4.6731925E-1,4.241812E-1,1.974231E0,1.6696271E0,0E0,2.3520535E-2,0E0,0E0,0E0,0E0,0E0,0E0,0E0,0E0,0E0,0E0,0E0,0E0,0E0,0E0],"parents":[2147483647,0,0,1,1,2,2,3,3,4,4,6,6,7,7,9,9,10,10,11,11,12,12,15,15,16,16,17,17,18,18,19,19,20,20,22,22],"right_children":[2,4,6,8,10,-1,12,14,-1,16,18,20,22,-1,-1,24,26,28,30,32,34,-1,36,-1,-1,-1,-1,-1,-1,-1,-1,-1,-1,-1,-1,-1,-1],"split_conditions":[1.2016163E0,-8.2E-1,1.2033085E0,-7.1E-1,1.1619661E0,-8.505002E-1,1.28E0,-3.7E0,-1.576935E-1,4.356E0,1.1734021E0,6.2E-1,1.8970091E0,1.9336689E-1,8.655845E-1,9.9679774E-1,2E-2,-6.7E-1,1.1978073E0,7E-2,2.0416095E0,-8.2426137E-1,1.9656403E0,-2.3152541E-2,-3.7599298E-1,-1.3577454E-1,3.0713594E-1,3.3066865E-2,8.433762E-1,3.6680803E-2,4.846631E-1,-3.0901555E-3,-3.0270344E-1,4.877514E-1,-7.0673704E-2,6.0037073E-2,-9.3188874E-2],"split_indices":[7,1,7,2,7,0,1,3,0,6,7,2,0,0,0,8,2,1,7,1,7,0,0,0,0,0,0,0,0,0,0,0,0,0,0,0,0],"split_type":[0,0,0,0,0,0,0,0,0,0,0,0,0,0,0,0,0,0,0,0,0,0,0,0,0,0,0,0,0,0,0,0,0,0,0,0,0],"sum_hessian":[2.18E2,8.7E1,1.31E2,6E0,8.1E1,1E0,1.3E2,5E0,1E0,6.7E1,1.4E1,1.26E2,4E0,1E0,4E0,3.9E1,2.8E1,4E0,1E1,1.06E2,2E1,2E0,2E0,2.9E1,1E1,1.2E1,1.6E1,1E0,3E0,8E0,2E0,7.6E1,3E1,9E0,1.1E1,1E0,1E0],"tree_param":{"num_deleted":"0","num_feature":"9","num_nodes":"37","size_leaf_vector":"1"}},{"base_weights":[2.0758442E-3,-1.0730532E-1,4.9004942E-2,9.955962E-2,-1.7029618E-1,2.3130307E-2,4.1828665E-1,-9.4538316E-2,1.7297046E-1,2.2451658E-2,-2.2411312E-1,2.0721023E-1,-1.2300715E-3,5.5724585E-1,-4.11173E-1,7.7564456E-2,-2.3846164E-1,3.4622347E-1,7.563907E-2,-2.5247318E-1,3.4112203E-1,-5.695849E-1,-1.5820044E-1,2.7002788E-1,-1.7261481E-1,-7.3764674E-2,8.06735E-2,7.7155614E-1,2.2948635E-1,-8.082683E-3,1.2942937E-1,-1.296415E-1,1.5423945E-1,-4.5763153E-1,1.702818E-1,2.0263447E-1,5.117799E-1,-8.7219E-2,-7.864631E-1,-3.5373604E-1,-6.543677E-2,4.868512E-2,3.4518114E-1,-2.0732796E-1,-4.659426E-2,2.8064343E-1,-1.1213122E-1,-8.2653634E-2,1.6260512E-1,3.1062332E-1,-4.253077E-2],"categories":[],"categories_nodes":[],"categories_segments":[],"categories_sizes":[],"default_left":[0,0,0,0,0,0,0,0,0,0,0,0,0,0,0,0,0,0,0,0,0,0,0,0,0,0,0,0,0,0,0,0,0,0,0,0,0,0,0,0,0,0,0,0,0,0,0,0,0,0,0],"id":17,"left_children":[1,3,5,7,9,11,13,15,17,19,21,23,25,27,-1,29,-1,-1,31,33,35,37,39,41,43,45,47,-1,49,-1,-1,-1,-1,-1,-1,-1,-1,-1,-1,-1,-1,-1,-1,-1,-1,-1,-1,-1,-1,-1,-1],"loss_changes":[1.1288373E0,8.776817E-1,1.4573853E0,2.4511896E-1,5.360764E-1,6.5253186E-1,1.3831953E0,1.4395314E-1,1.7194885E-1,1.1383355E0,8.1345224E-1,4.5320016E-1,7.722506E-1,4.4510818E-1,0E0,1.5585847E-2,0E0,0E0,1.65458E-1,6.87922E-1,3.0955553E-2,5.503565E-1,6.075118E-1,2.2877574E-1,9.2419237E-4,9.6800536E-1,8.305205E-1,0E0,1.262452E-1,0E0,0E0,0E0,0E0,0E0,0E0,0E0,0E0,0E0,0E0,0E0,0E0,0E0,0E0,0E0,0E0,0E0,0E0,0E0,0E0,0E0,0E0],"parents":[2147483647,0,0,1,1,2,2,3,3,4,4,5,5,6,6,7,7,8,8,9,9,10,10,11,11,12,12,13,13,15,15,18,18,19,19,20,20,21,21,22,22,23,23,24,24,25,25,26,26,28,28],"right_children":[2,4,6,8,10,12,14,16,18,20,22,24,26,28,-1,30,-1,-1,32,34,36,38,40,42,44,46,48,-1,50,-1,-1,-1,-1,-1,-1,-1,-1,-1,-1,-1,-1,-1,-1,-1,-1,-1,-1,-1,-1,-1,-1],"split_conditions":[-1.8E-1,1.122363E0,2.4665399E0,8.6350477E-1,-1.2E0,7E-1,2.5303907E0,-5.8E-1,9.7074187E-1,2.093139E0,-7.6E-1,4.1E0,1.7116E1,2.4734585E0,-4.11173E-1,8.4066296E-1,-2.3846164E-1,3.4622347E-1,9.8553723E-1,-1.32E0,3E-1,-7.9E-1,-5.57E-1,-2.9E0,1.3081095E0,-7.492E0,1.1868114E0,7.7155614E-1,3.327E0,-8.082683E-3,1.2942937E-1,-1.296415E-1,1.5423945E-1,-4.5763153E-1,1.702818E-1,2.0263447E-1,5.117799E-1,-8.7219E-2,-7.864631E-1,-3.5373604E-1,-6.543677E-2,4.868512E-2,3.4518114E-1,-2.0732796E-1,-4.659426E-2,2.8064343E-1,-1.1213122E-1,-8.2653634E-2,1.6260512E-1,3.1062332E-1,-4.253077E-2],"split_indices":[1,0,8,0,2,4,8,2,0,0,2,3,6,0,0,0,0,0,8,2,4,1,6,4,0,6,8,0,5,0,0,0,0,0,0,0,0,0,0,0,0,0,0,0,0,0,0,0,0,0,0],"split_type":[0,0,0,0,0,0,0,0,0,0,0,0,0,0,0,0,0,0,0,0,0,0,0,0,0,0,0,0,0,0,0,0,0,0,0,0,0,0,0,0,0,0,0,0,0,0,0,0,0,0,0],"sum_hessian":[2.18E2,6.5E1,1.53E2,1.5E1,5E1,1.44E2,9E0,4E0,1.1E1,1.1E1,3.9E1,1.6E1,1.28E2,8E0,1E0,2E0,2E0,3E0,8E0,6E0,5E0,5E0,3.4E1,1.4E1,2E0,6.8E1,6E1,4E0,4E0,1E0,1E0,2E0,6E0,4E0,2E0,4E0,1E0,2E0,3E0,1E1,2.4E1,4E0,1E1,1E0,1E0,6E0,6.2E1,2E1,4E1,3E0,1E0],"tree_param":{"num_deleted":"0","num_feature":"9","num_nodes":"51","size_leaf_vector":"1"}},{"base_weights":[1.7114156E-3,-6.1053564E-3,2.407487E-1,-4.2343352E-2,5.702891E-2,8.180375E-2,4.2207408E-1,1.1306978E-1,-7.179331E-2,8.2799256E-2,-2.6434848E-1,-1.921856E-2,1.1436397E-1,3.371427E-2,2.7687243E-1,-5.935669E-2,-3.3152765E-1,5.692364E-2,3.605897E-1,-1.8476563E-2,-3.8016528E-1,1.4705935E-1,-1.3159503E-1,1.9563671E-2,3.1482995E-1,-3.852524E-2,-2.2717239E-1,2.4925908E-1,1.1079272E-2,4.7184106E-2,4.11834E-1,4.8382875E-2,-8.1097715E-2],"categories":[],"categories_nodes":[],"categories_segments":[],"categories_sizes":[],"default_left":[0,0,0,0,0,0,0,0,0,0,0,0,0,0,0,0,0,0,0,0,0,0,0,0,0,0,0,0,0,0,0,0,0],"id":18,"left_children":[1,3,5,7,9,11,-1,13,15,17,19,-1,-1,21,23,25,-1,27,29,31,-1,-1,-1,-1,-1,-1,-1,-1,-1,-1,-1,-1,-1],"loss_changes":[4.130178E-1,4.895819E-1,1.6217923E-1,6.3016474E-1,6.6606885E-1,1.9595906E-2,0E0,2.7352974E-1,3.4788787E-1,5.0002277E-1,1.5984601E-1,0E0,0E0,3.192989E-1,5.8864474E-2,3.7662992E-1,0E0,5.942248E-1,7.233924E-2,1.6811335E-2,0E0,0E0,0E0,0E0,0E0,0E0,0E0,0E0,0E0,0E0,0E0,0E0,0E0],"parents":[2147483647,0,0,1,1,2,2,3,3,4,4,5,5,7,7,8,8,9,9,10,10,13,13,14,14,15,15,17,17,18,18,19,19],"right_children":[2,4,6,8,10,12,-1,14,16,18,20,-1,-1,22,24,26,-1,28,30,32,-1,-1,-1,-1,-1,-1,-1,-1,-1,-1,-1,-1,-1],"split_conditions":[7.0033E1,4E0,2E-2,-5E-1,4.812E1,1.1388621E0,4.2207408E-1,-2.895E0,3.9E0,3.994E1,-1E-2,-1.921856E-2,1.1436397E-1,-3E-1,-1.14E0,3.3947E1,-3.3152765E-1,4.5E0,1.1E0,1.1322893E0,-3.8016528E-1,1.4705935E-1,-1.3159503E-1,1.9563671E-2,3.1482995E-1,-3.852524E-2,-2.2717239E-1,2.4925908E-1,1.1079272E-2,4.7184106E-2,4.11834E-1,4.8382875E-2,-8.1097715E-2],"split_indices":[5,4,1,3,6,0,0,5,4,6,2,0,0,2,2,5,0,4,3,0,0,0,0,0,0,0,0,0,0,0,0,0,0],"split_type":[0,0,0,0,0,0,0,0,0,0,0,0,0,0,0,0,0,0,0,0,0,0,0,0,0,0,0,0,0,0,0,0,0],"sum_hessian":[2.18E2,2.12E2,6E0,1.35E2,7.7E1,4E0,2E0,2.1E1,1.14E2,7.2E1,5E0,1E0,3E0,1.5E1,6E0,1.1E2,4E0,6.7E1,5E0,2E0,3E0,9E0,6E0,1E0,5E0,9.9E1,1.1E1,1.2E1,5.5E1,1E0,4E0,1E0,1E0],"tree_param":{"num_deleted":"0","num_feature":"9","num_nodes":"33","size_leaf_vector":"1"}},{"base_weights":[2.7229486E-3,-8.487412E-2,2.1052431E-2,-8.314112E-3,-4.213093E-1,3.0630524E-3,1.335032E-1,-1.0396024E-1,5.3771574E-2,-1.3192934E-1,-6.0286194E-1,-6.046526E-3,2.8502545E-1,1.8145968E-1,-4.6935596E-2,7.5153396E-2,-1.9302778E-1,1.342211E-1,-0E0,2.4386888E-2,-6.640413E-2,1.4028902E-2,3.4676737E-1,-2.79007E-4,2.1413587E-1,-1.9901383E-1,2.1282814E-2,-2.8434869E-2,1.1065918E-1,-3.1346176E-2,-3.1410384E-1,3.131759E-2,2.9195443E-1,-6.8577655E-2,5.1641077E-2,-2.716454E-2,1.00144066E-1,3.171903E-1,-9.656685E-2,-9.80512E-3,9.149666E-3,1.2213362E-2,2.558183E-1,4.854639E-2,-9.7417E-3],"categories":[],"categories_nodes":[],"categories_segments":[],"categories_sizes":[],"default_left":[0,0,0,0,0,0,0,0,0,0,0,0,0,0,0,0,0,0,0,0,0,0,0,0,0,0,0,0,0,0,0,0,0,0,0,0,0,0,0,0,0,0,0,0,0],"id":19,"left_children":[1,3,5,7,9,11,13,15,17,-1,-1,19,21,23,25,27,29,31,33,35,37,-1,-1,39,41,-1,43,-1,-1,-1,-1,-1,-1,-1,-1,-1,-1,-1,-1,-1,-1,-1,-1,-1,-1],"loss_changes":[3.5277697E-1,9.709852E-1,3.6639675E-1,1.9611618E-1,2.808808E-1,4.1034546E-1,2.2619238E-1,2.2307718E-1,8.629479E-2,0E0,0E0,2.8492028E-1,7.518652E-2,1.2096882E-1,6.8260096E-2,2.2358736E-2,1.628815E-1,1.1747448E-1,4.9551778E-2,4.0570542E-1,6.30077E-1,0E0,0E0,4.5554255E-4,1.3727784E-1,0E0,5.0901677E-3,0E0,0E0,0E0,0E0,0E0,0E0,0E0,0E0,0E0,0E0,0E0,0E0,0E0,0E0,0E0,0E0,0E0,0E0],"parents":[2147483647,0,0,1,1,2,2,3,3,4,4,5,5,6,6,7,7,8,8,11,11,12,12,13,13,14,14,15,15,16,16,17,17,18,18,19,19,20,20,23,23,24,24,26,26],"right_children":[2,4,6,8,10,12,14,16,18,-1,-1,20,22,24,26,28,30,32,34,36,38,-1,-1,40,42,-1,44,-1,-1,-1,-1,-1,-1,-1,-1,-1,-1,-1,-1,-1,-1,-1,-1,-1,-1],"split_conditions":[-3.605E0,-5.416E0,7.1E0,-2.2501E1,5E0,9.5E0,8.2E0,-4.3E0,-7.1E-1,-1.3192934E-1,-6.0286194E-1,1.5E-1,-1.43E0,-7.4E-1,-2E-2,-2.85E0,1.2401968E0,-1.1908E1,2.9E-1,1.6825E1,4E-1,1.4028902E-2,3.4676737E-1,-1.09E0,8.927004E-1,-1.9901383E-1,2.8E-1,-2.8434869E-2,1.1065918E-1,-3.1346176E-2,-3.1410384E-1,3.131759E-2,2.9195443E-1,-6.8577655E-2,5.1641077E-2,-2.716454E-2,1.00144066E-1,3.171903E-1,-9.656685E-2,-9.80512E-3,9.149666E-3,1.2213362E-2,2.558183E-1,4.854639E-2,-9.7417E-3],"split_indices":[5,5,3,5,3,4,4,3,1,0,0,1,2,2,1,1,0,5,1,5,3,0,0,2,0,0,1,0,0,0,0,0,0,0,0,0,0,0,0,0,0,0,0,0,0],"split_type":[0,0,0,0,0,0,0,0,0,0,0,0,0,0,0,0,0,0,0,0,0,0,0,0,0,0,0,0,0,0,0,0,0,0,0,0,0,0,0,0,0,0,0,0,0],"sum_hessian":[2.18E2,3.7E1,1.81E2,3.1E1,6E0,1.57E2,2.4E1,1.2E1,1.9E1,3E0,3E0,1.53E2,4E0,1.9E1,5E0,4E0,8E0,7E0,1.2E1,1.02E2,5.1E1,1E0,3E0,3E0,1.6E1,1E0,4E0,1E0,3E0,4E0,4E0,5E0,2E0,5E0,7E0,6.1E1,4.1E1,3E0,4.8E1,2E0,1E0,3E0,1.3E1,2E0,2E0],"tree_param":{"num_deleted":"0","num_feature":"9","num_nodes":"45","size_leaf_vector":"1"}},{"base_weights":[3.191627E-4,2.0792246E-2,-5.28864E-2,6.703212E-3,2.8463486E-1,1.3557649E-1,-1.2901016E-1,1.9102782E-2,-9.229942E-2,5.838653E-1,1.5704976E-1,-1.4850675E-2,2.8876483E-1,1.1178517E-1,-1.5613432E-1,-9.587435E-3,6.58252E-2,1.0411805E-1,-1.4254017E-1,1.773524E-2,2.0722851E-1,6.1548192E-2,-1.0555918E-1,3.412703E-1,-6.0639497E-2,3.2179272E-1,-1.8664895E-2,-2.4056059E-1,-4.9633678E-2,2.3818167E-2,-1.06786124E-1,9.934537E-2,-1.2970394E-1,-0E0,1.3700461E-1,-1.991863E-1,-3.2147605E-2,2.3839527E-1,3.6280748E-2,-3.1950053E-2,1.6902979E-1,-0E0,-1.295245E-1,3.6457264E-1,8.407699E-2,-4.7386244E-2,2.8749581E-2,-1.0381871E-1,-3.105689E-1,1.4500771E-2,-1.9267511E-1],"categories":[],"categories_nodes":[],"categories_segments":[],"categories_sizes":[],"default_left":[0,0,0,0,0,0,0,0,0,0,0,0,0,0,0,0,0,0,0,0,0,0,0,0,0,0,0,0,0,0,0,0,0,0,0,0,0,0,0,0,0,0,0,0,0,0,0,0,0,0,0],"id":20,"left_children":[1,3,5,7,9,11,13,15,17,-1,19,21,23,25,27,29,31,33,35,-1,37,39,41,43,-1,-1,45,47,49,-1,-1,-1,-1,-1,-1,-1,-1,-1,-1,-1,-1,-1,-1,-1,-1,-1,-1,-1,-1,-1,-1],"loss_changes":[2.3933144E-1,5.8622736E-1,8.9256185E-1,1.8762489E-1,2.0631367E-1,4.2181385E-1,3.052773E-1,1.8349825E-1,1.8298392E-1,0E0,4.3009534E-2,7.623736E-2,1.8861157E-1,1.4601499E-1,3.448162E-1,2.793665E-1,3.5339877E-1,1.2948517E-2,7.8829676E-2,0E0,1.5243515E-2,6.7067355E-2,1.1392679E-2,1.2806952E-2,0E0,0E0,6.995933E-3,1.742208E-1,1.7887947E-1,0E0,0E0,0E0,0E0,0E0,0E0,0E0,0E0,0E0,0E0,0E0,0E0,0E0,0E0,0E0,0E0,0E0,0E0,0E0,0E0,0E0,0E0],"parents":[2147483647,0,0,1,1,2,2,3,3,4,4,5,5,6,6,7,7,8,8,10,10,11,11,12,12,13,13,14,14,15,15,16,16,17,17,18,18,20,20,21,21,22,22,23,23,26,26,27,27,28,28],"right_children":[2,4,6,8,10,12,14,16,18,-1,20,22,24,26,28,30,32,34,36,-1,38,40,42,44,-1,-1,46,48,50,-1,-1,-1,-1,-1,-1,-1,-1,-1,-1,-1,-1,-1,-1,-1,-1,-1,-1,-1,-1,-1,-1],"split_conditions":[2.0559E1,1.8372E1,2.6E0,1.526E1,1.8921E1,1E-2,-3.7E-1,3.829E0,1.1E0,5.838653E-1,1.435592E0,3.7E0,6.2E-1,1.1652285E0,3E-2,4.2E0,2.4347103E0,1.2684269E0,1.7633E1,1.773524E-2,-6E-2,1.144153E0,9.881007E-1,6.1699E1,-6.0639497E-2,3.2179272E-1,2.2192752E0,-1E-2,5.5E-1,2.3818167E-2,-1.06786124E-1,9.934537E-2,-1.2970394E-1,-0E0,1.3700461E-1,-1.991863E-1,-3.2147605E-2,2.3839527E-1,3.6280748E-2,-3.1950053E-2,1.6902979E-1,-0E0,-1.295245E-1,3.6457264E-1,8.407699E-2,-4.7386244E-2,2.8749581E-2,-1.0381871E-1,-3.105689E-1,1.4500771E-2,-1.9267511E-1],"split_indices":[5,5,4,5,5,2,2,5,3,0,0,3,1,0,2,4,0,0,5,0,2,0,0,6,0,0,0,1,2,0,0,0,0,0,0,0,0,0,0,0,0,0,0,0,0,0,0,0,0,0,0],"split_type":[0,0,0,0,0,0,0,0,0,0,0,0,0,0,0,0,0,0,0,0,0,0,0,0,0,0,0,0,0,0,0,0,0,0,0,0,0,0,0,0,0,0,0,0,0,0,0,0,0,0,0],"sum_hessian":[2.18E2,1.58E2,6E1,1.51E2,7E0,1.7E1,4.3E1,1.35E2,1.6E1,1E0,6E0,9E0,8E0,4E0,3.9E1,8.4E1,5.1E1,3E0,1.3E1,2E0,4E0,5E0,4E0,7E0,1E0,1E0,3E0,2.1E1,1.8E1,6.3E1,2.1E1,4.4E1,7E0,1E0,2E0,8E0,5E0,3E0,1E0,3E0,2E0,1E0,3E0,6E0,1E0,2E0,1E0,8E0,1.3E1,1.3E1,5E0],"tree_param":{"num_deleted":"0","num_feature":"9","num_nodes":"51","size_leaf_vector":"1"}},{"base_weights":[3.5640292E-3,-6.497465E-3,6.287643E-2,-4.0441543E-2,1.4361262E-2,4.6871004E-1,1.9863859E-2,4.541035E-2,-6.029722E-2,8.2048915E-2,-1.0875555E-2,-7.7297683E-3,2.7411643E-1,-2.4924336E-2,8.836566E-2,-4.2563926E-2,-2.4130401E-1,1.7476793E-1,-4.8930362E-2,1.420594E-1,-2.8510671E-2,-2.2891257E-2,1.958152E-1,1.3077406E-2,-7.061855E-2,1.947811E-2,1.17896415E-1,-5.971978E-2,5.064596E-2,-2.9754543E-1,-3.1691743E-3,4.4253254E-3,2.3457418E-1,-8.436623E-2,1.057899E-1,1.8829605E-1,-9.845889E-3,1.353558E-1,-3.9332587E-2,7.68061E-2,-5.550984E-2],"categories":[],"categories_nodes":[],"categories_segments":[],"categories_sizes":[],"default_left":[0,0,0,0,0,0,0,0,0,0,0,0,0,0,0,0,0,0,0,0,0,0,0,0,0,0,0,0,0,0,0,0,0,0,0,0,0,0,0,0,0],"id":21,"left_children":[1,3,5,7,9,-1,11,13,15,17,19,21,-1,23,25,27,29,31,33,35,37,39,-1,-1,-1,-1,-1,-1,-1,-1,-1,-1,-1,-1,-1,-1,-1,-1,-1,-1,-1],"loss_changes":[1.3166526E-1,1.3395129E-1,5.443942E-1,1.2562162E-1,2.0146592E-1,0E0,2.1525526E-1,4.513434E-2,1.7627144E-1,3.9842644E-1,2.3485895E-1,8.916246E-2,0E0,1.1917677E-2,1.46385655E-2,9.1065526E-2,6.301507E-2,1.9013542E-1,8.546792E-2,6.685075E-2,1.4268489E-1,9.185417E-2,0E0,0E0,0E0,0E0,0E0,0E0,0E0,0E0,0E0,0E0,0E0,0E0,0E0,0E0,0E0,0E0,0E0,0E0,0E0],"parents":[2147483647,0,0,1,1,2,2,3,3,4,4,6,6,7,7,8,8,9,9,10,10,11,11,13,13,14,14,15,15,16,16,17,17,18,18,19,19,20,20,21,21],"right_children":[2,4,6,8,10,-1,12,14,16,18,20,22,-1,24,26,28,30,32,34,36,38,40,-1,-1,-1,-1,-1,-1,-1,-1,-1,-1,-1,-1,-1,-1,-1,-1,-1,-1,-1],"split_conditions":[2.3710485E0,-2E-2,2.3918078E0,9.8181164E-1,-1E-2,4.6871004E-1,6.5E-1,1.2E0,-3E-2,1.4595758E0,6E-1,2.5960653E0,2.7411643E-1,-2.109E0,-2.7E-1,2.2707646E0,1.6465229E0,2.9E0,8.1E0,1.5295E1,-1E-2,2.3918078E0,1.958152E-1,1.3077406E-2,-7.061855E-2,1.947811E-2,1.17896415E-1,-5.971978E-2,5.064596E-2,-2.9754543E-1,-3.1691743E-3,4.4253254E-3,2.3457418E-1,-8.436623E-2,1.057899E-1,1.8829605E-1,-9.845889E-3,1.353558E-1,-3.9332587E-2,7.68061E-2,-5.550984E-2],"split_indices":[8,1,8,0,2,0,1,4,1,7,3,7,0,6,2,8,0,4,3,6,1,7,0,0,0,0,0,0,0,0,0,0,0,0,0,0,0,0,0,0,0],"split_type":[0,0,0,0,0,0,0,0,0,0,0,0,0,0,0,0,0,0,0,0,0,0,0,0,0,0,0,0,0,0,0,0,0,0,0,0,0,0,0,0,0],"sum_hessian":[2.18E2,1.87E2,3.1E1,7.1E1,1.16E2,2E0,2.9E1,1.3E1,5.8E1,3.1E1,8.5E1,2.7E1,2E0,5E0,8E0,5.4E1,4E0,1.8E1,1.3E1,8E0,7.7E1,2.6E1,1E0,3E0,2E0,3E0,5E0,4.6E1,8E0,3E0,1E0,5E0,1.3E1,1.1E1,2E0,6E0,2E0,4E0,7.3E1,6E0,2E1],"tree_param":{"num_deleted":"0","num_feature":"9","num_nodes":"41","size_leaf_vector":"1"}},{"base_weights":[5.958376E-3,-7.4121386E-2,8.999318E-3,-1.32460585E-2,-2.4512434E-1,-1.7932953E-2,1.838081E-2,1.2421892E-2,-5.4943956E-2,-7.007096E-3,-2.9896462E-1,9.0039566E-2,1.1805846E-2,-1.8693779E-2,8.793533E-2,1.2255132E-1,3.0017294E-2,2.3320105E-2,-3.7194252E-2,8.8713635E-3,-8.243286E-2,3.0280305E-3,1.0231118E-1,1.3713238E-1,5.2419854E-3,-2.4823345E-2,6.614345E-2,1.070008E-2,1.0943894E-1,3.3260744E-2,-1.21816225E-1],"categories":[],"categories_nodes":[],"categories_segments":[],"categories_sizes":[],"default_left":[0,0,0,0,0,0,0,0,0,0,0,0,0,0,0,0,0,0,0,0,0,0,0,0,0,0,0,0,0,0,0],"id":22,"left_children":[1,3,5,7,-1,9,11,-1,-1,13,-1,15,17,19,21,23,25,27,29,-1,-1,-1,-1,-1,-1,-1,-1,-1,-1,-1,-1],"loss_changes":[5.3346243E-2,7.744825E-2,5.3899053E-2,8.599825E-3,0E0,1.6372354E-1,7.236084E-2,0E0,0E0,6.0867775E-2,0E0,2.0164236E-2,8.310181E-2,8.755877E-2,5.9605017E-3,1.1541352E-2,1.3942191E-2,1.2695941E-1,1.718744E-1,0E0,0E0,0E0,0E0,0E0,0E0,0E0,0E0,0E0,0E0,0E0,0E0],"parents":[2147483647,0,0,1,1,2,2,3,3,5,5,6,6,9,9,11,11,12,12,13,13,14,14,15,15,16,16,17,17,18,18],"right_children":[2,4,6,8,-1,10,12,-1,-1,14,-1,16,18,20,22,24,26,28,30,-1,-1,-1,-1,-1,-1,-1,-1,-1,-1,-1,-1],"split_conditions":[8.821451E-1,-4E-2,-5.57E-1,-2.6E-1,-2.4512434E-1,-5.69E-1,2.598E0,1.2421892E-2,-5.4943956E-2,2.4604125E0,-2.9896462E-1,1.5E-1,6.8E0,2.9E0,2.2E0,9.1E0,9.8181164E-1,5E0,4.2E-1,8.8713635E-3,-8.243286E-2,3.0280305E-3,1.0231118E-1,1.3713238E-1,5.2419854E-3,-2.4823345E-2,6.614345E-2,1.070008E-2,1.0943894E-1,3.3260744E-2,-1.21816225E-1],"split_indices":[8,2,6,2,0,6,6,0,0,7,0,2,4,4,4,3,0,4,2,0,0,0,0,0,0,0,0,0,0,0,0],"split_type":[0,0,0,0,0,0,0,0,0,0,0,0,0,0,0,0,0,0,0,0,0,0,0,0,0,0,0,0,0,0,0],"sum_hessian":[2.18E2,7E0,2.11E2,6E0,1E0,5.4E1,1.57E2,4E0,2E0,5.3E1,1E0,1.2E1,1.45E2,4.8E1,5E0,7E0,5E0,1.18E2,2.7E1,3.4E1,1.4E1,1E0,4E0,6E0,1E0,2E0,3E0,1.04E2,1.4E1,1.5E1,1.2E1],"tree_param":{"num_deleted":"0","num_feature":"9","num_nodes":"31","size_leaf_vector":"1"}},{"base_weights":[-1.3221927E-3,-1.9012945E-2,3.9824747E-2,-1.1856488E-2,-1.468862E-1,1.5520994E-1,1.37438895E-2,-4.9941493E-3,-9.533685E-2,-2.1244168E-1,-2.5720296E-2,-2.5564339E-2,1.7487708E-1,-1.523238E-1,2.3073308E-2,-8.8630915E-3,9.691853E-2,-2.292625E-2,-2.7745637E-1,3.0181047E-2,-5.774776E-2,2.070977E-1,1.658956E-2,-2.8809663E-2,-1.9467604E-1,1.1076072E-2,1.1353898E-1,-3.0036733E-2,1.3596051E-2,6.768341E-3,1.15264E-1,5.6977667E-2,-5.532418E-2,-1.9705888E-2,4.9590226E-2,2.848256E-2,-4.9153253E-2],"categories":[],"categories_nodes":[],"categories_segments":[],"categories_sizes":[],"default_left":[0,0,0,0,0,0,0,0,0,0,0,0,0,0,0,0,0,0,0,0,0,0,0,0,0,0,0,0,0,0,0,0,0,0,0,0,0],"id":23,"left_children":[1,3,5,7,9,11,13,15,17,-1,19,-1,21,23,25,27,29,31,-1,-1,-1,-1,33,-1,-1,35,-1,-1,-1,-1,-1,-1,-1,-1,-1,-1,-1],"loss_changes":[1.599636E-1,1.375994E-1,1.9479401E-1,8.273253E-2,5.5699036E-2,4.8627526E-2,8.743444E-2,5.3996753E-2,1.3569638E-1,0E0,9.180067E-3,0E0,5.0428778E-2,7.849894E-3,5.50192E-2,6.381985E-2,6.268766E-3,2.64342E-2,0E0,0E0,0E0,0E0,4.8693847E-3,0E0,0E0,5.151559E-2,0E0,0E0,0E0,0E0,0E0,0E0,0E0,0E0,0E0,0E0,0E0],"parents":[2147483647,0,0,1,1,2,2,3,3,4,4,5,5,6,6,7,7,8,8,10,10,12,12,13,13,14,14,15,15,16,16,17,17,22,22,25,25],"right_children":[2,4,6,8,10,12,14,16,18,-1,20,-1,22,24,26,28,30,32,-1,-1,-1,-1,34,-1,-1,36,-1,-1,-1,-1,-1,-1,-1,-1,-1,-1,-1],"split_conditions":[2.9E-1,2.4E-1,4.2E-1,5.3446E1,1.5399107E0,8.769461E-1,4.4E-1,5.2941E1,4.5E0,-2.1244168E-1,-3.05E0,-2.5564339E-2,1.7633E1,1.1746442E0,2.6479E1,3.5E0,1.1322893E0,1.122363E0,-2.7745637E-1,3.0181047E-2,-5.774776E-2,2.070977E-1,1.2016163E0,-2.8809663E-2,-1.9467604E-1,8.4E-1,1.1353898E-1,-3.0036733E-2,1.3596051E-2,6.768341E-3,1.15264E-1,5.6977667E-2,-5.532418E-2,-1.9705888E-2,4.9590226E-2,2.848256E-2,-4.9153253E-2],"split_indices":[2,2,2,5,0,0,2,6,3,0,1,0,5,0,5,3,0,8,0,0,0,0,0,0,0,1,0,0,0,0,0,0,0,0,0,0,0],"split_type":[0,0,0,0,0,0,0,0,0,0,0,0,0,0,0,0,0,0,0,0,0,0,0,0,0,0,0,0,0,0,0,0,0,0,0,0,0],"sum_hessian":[2.18E2,1.53E2,6.5E1,1.46E2,7E0,1.1E1,5.4E1,1.36E2,1E1,4E0,3E0,1E0,1E1,2E0,5.2E1,1.32E2,4E0,8E0,2E0,1E0,2E0,8E0,2E0,1E0,1E0,4.7E1,5E0,6.8E1,6.4E1,1E0,3E0,2E0,6E0,1E0,1E0,3.7E1,1E1],"tree_param":{"num_deleted":"0","num_feature":"9","num_nodes":"37","size_leaf_vector":"1"}},{"base_weights":[-1.5041167E-3,4.803537E-2,-8.187222E-3,3.1780355E-2,8.61875E-2,-2.1616144E-2,8.812076E-3,7.920156E-2,1.4349959E-2,1.0085992E-1,-0E0,-2.7752155E-3,-1.22827336E-1,1.2657216E-1,-3.0979584E-3,9.43442E-2,4.315491E-3,-1.3678379E-2,3.35348E-2,-1.1285837E-2,6.078449E-2,-4.445958E-2,-2.0418361E-1,-3.2740785E-3,1.4701793E-1,1.2181311E-2,-5.251572E-2,2.586281E-2,-2.6245711E-2,4.389841E-2,-2.4868842E-2,-5.267429E-4,-4.063938E-2,1.4903456E-1,7.8113964E-3,2.244675E-2,-7.7768974E-2,-1.4167226E-2,-2.6349452E-1,8.5527085E-2,1.9716334E-1,-2.8466918E-2,3.9587375E-2,-1.4937936E-2,-1.0106793E-1],"categories":[],"categories_nodes":[],"categories_segments":[],"categories_sizes":[],"default_left":[0,0,0,0,0,0,0,0,0,0,0,0,0,0,0,0,0,0,0,0,0,0,0,0,0,0,0,0,0,0,0,0,0,0,0,0,0,0,0,0,0,0,0,0,0],"id":24,"left_children":[1,3,5,7,9,11,13,15,17,-1,-1,19,21,23,25,-1,-1,27,29,31,33,35,37,-1,39,41,43,-1,-1,-1,-1,-1,-1,-1,-1,-1,-1,-1,-1,-1,-1,-1,-1,-1,-1],"loss_changes":[7.2500795E-2,1.2205496E-2,4.4605277E-2,1.4459349E-2,9.038344E-3,2.0625658E-1,1.2224415E-1,4.2761266E-3,9.260774E-3,0E0,0E0,5.0497744E-2,9.682271E-2,2.3157224E-2,6.0693372E-2,0E0,0E0,4.1611074E-3,7.334724E-3,2.5779787E-2,4.8691045E-2,2.4584971E-2,8.365074E-2,0E0,1.8946826E-3,6.9192626E-2,3.1995397E-2,0E0,0E0,0E0,0E0,0E0,0E0,0E0,0E0,0E0,0E0,0E0,0E0,0E0,0E0,0E0,0E0,0E0,0E0],"parents":[2147483647,0,0,1,1,2,2,3,3,4,4,5,5,6,6,7,7,8,8,11,11,12,12,13,13,14,14,17,17,18,18,19,19,20,20,21,21,22,22,24,24,25,25,26,26],"right_children":[2,4,6,8,10,12,14,16,18,-1,-1,20,22,24,26,-1,-1,28,30,32,34,36,38,-1,40,42,44,-1,-1,-1,-1,-1,-1,-1,-1,-1,-1,-1,-1,-1,-1,-1,-1,-1,-1],"split_conditions":[-5E-1,-3E-2,1.4376957E0,-1.14E0,1.39E0,1.3009657E0,1.4595758E0,1.2401968E0,-9.14E0,1.0085992E-1,-0E0,1.2434927E0,0E0,-7.4E-1,2.147E1,9.43442E-2,4.315491E-3,-2.12E0,-2.2E-1,6.6E0,-1.5E-1,1.2E0,7.684E0,-3.2740785E-3,3.6E0,3.419E0,2.234954E0,2.586281E-2,-2.6245711E-2,4.389841E-2,-2.4868842E-2,-5.267429E-4,-4.063938E-2,1.4903456E-1,7.8113964E-3,2.244675E-2,-7.7768974E-2,-1.4167226E-2,-2.6349452E-1,8.5527085E-2,1.9716334E-1,-2.8466918E-2,3.9587375E-2,-1.4937936E-2,-1.0106793E-1],"split_indices":[3,1,7,2,2,0,0,0,5,0,0,0,2,1,6,0,0,1,1,4,1,3,5,0,4,6,7,0,0,0,0,0,0,0,0,0,0,0,0,0,0,0,0,0,0],"split_type":[0,0,0,0,0,0,0,0,0,0,0,0,0,0,0,0,0,0,0,0,0,0,0,0,0,0,0,0,0,0,0,0,0,0,0,0,0,0,0,0,0,0,0,0,0],"sum_hessian":[2.18E2,2.5E1,1.93E2,1.9E1,6E0,1.08E2,8.5E1,4E0,1.5E1,5E0,1E0,9.2E1,1.6E1,7E0,7.8E1,3E0,1E0,6E0,9E0,8.2E1,1E1,9E0,7E0,1E0,6E0,6E1,1.8E1,1E0,5E0,8E0,1E0,6.1E1,2.1E1,3E0,7E0,3E0,6E0,2E0,5E0,4E0,2E0,2.4E1,3.6E1,1.1E1,7E0],"tree_param":{"num_deleted":"0","num_feature":"9","num_nodes":"45","size_leaf_vector":"1"}},{"base_weights":[7.467522E-4,3.083272E-3,-4.280592E-2,2.0210487E-3,1.0701286E-1,-6.390933E-2,7.911407E-2,-1.2248871E-3,2.5174325E-2,-0E0,-9.241863E-2,1.2098773E-3,-9.014448E-2,4.306592E-3,5.713204E-2,-8.149422E-3,1.6142722E-2,-1.0241679E-1,-1.1214848E-2,5.500211E-3,-3.4682415E-2,-7.0418073E-3,-1.06659696E-1,3.2160796E-2,-3.8650952E-2,7.248287E-2,-0E0,-1.25188185E-2,-0E0],"categories":[],"categories_nodes":[],"categories_segments":[],"categories_sizes":[],"default_left":[0,0,0,0,0,0,0,0,0,0,0,0,0,0,0,0,0,0,0,0,0,0,0,0,0,0,0,0,0],"id":25,"left_children":[1,3,5,7,-1,9,-1,11,13,15,17,19,21,23,25,27,-1,-1,-1,-1,-1,-1,-1,-1,-1,-1,-1,-1,-1],"loss_changes":[2.2020565E-2,2.1766238E-2,3.3206277E-2,1.5902372E-2,0E0,1.8944409E-2,0E0,4.0617593E-2,1.6478583E-2,7.2041416E-4,3.3983141E-3,2.7463134E-2,4.9742013E-3,2.1519464E-2,9.389427E-3,1.1420238E-4,0E0,0E0,0E0,0E0,0E0,0E0,0E0,0E0,0E0,0E0,0E0,0E0,0E0],"parents":[2147483647,0,0,1,1,2,2,3,3,5,5,7,7,8,8,9,9,10,10,11,11,12,12,13,13,14,14,15,15],"right_children":[2,4,6,8,-1,10,-1,12,14,16,18,20,22,24,26,28,-1,-1,-1,-1,-1,-1,-1,-1,-1,-1,-1,-1,-1],"split_conditions":[9.3E0,9.2E0,7.7E-1,7.1E0,1.0701286E-1,3.962E0,7.911407E-2,8E0,1.5723665E0,1.0050694E0,1.5E-1,7.2E-1,2E-2,4.5E-1,8.7E0,8.769461E-1,1.6142722E-2,-1.0241679E-1,-1.1214848E-2,5.500211E-3,-3.4682415E-2,-7.0418073E-3,-1.06659696E-1,3.2160796E-2,-3.8650952E-2,7.248287E-2,-0E0,-1.25188185E-2,-0E0],"split_indices":[3,3,1,4,0,6,0,3,0,0,2,2,1,1,4,0,0,0,0,0,0,0,0,0,0,0,0,0,0],"split_type":[0,0,0,0,0,0,0,0,0,0,0,0,0,0,0,0,0,0,0,0,0,0,0,0,0,0,0,0,0],"sum_hessian":[2.18E2,2.08E2,1E1,2.07E2,1E0,9E0,1E0,1.82E2,2.5E1,3E0,6E0,1.78E2,4E0,1.6E1,9E0,2E0,1E0,5E0,1E0,1.6E2,1.8E1,1E0,3E0,1E1,6E0,7E0,2E0,1E0,1E0],"tree_param":{"num_deleted":"0","num_feature":"9","num_nodes":"29","size_leaf_vector":"1"}}]},"name":"gbtree"},"learner_model_param":{"base_score":"1.1182261E1","boost_from_average":"1","num_class":"0","num_feature":"9","num_target":"1"},"objective":{"name":"reg:squarederror","reg_loss_param":{"scale_pos_weight":"1"}}},"version":[2,1,4]}