{"learner":{"attributes":{"best_iteration":"0","best_score":"111.45111250809485","scikit_learn":"{\"_estimator_type\": \"regressor\"}"},"feature_names":["watr","fedfunds_lag_5","fedfunds_lag_6","fedfunds_lag_7","fedfunds_lag_8","gdp_lag_5","gdp_lag_6","gdp_lag_7","gdp_lag_8","imports_lag_5","imports_lag_6","imports_lag_7","imports_lag_8","watr_lag_5","watr_lag_6","watr_lag_7","watr_lag_8","imports_lag_1","imports_lag_2","imports_lag_3","imports_lag_4"],"feature_types":["float","float","float","float","float","float","float","float","float","float","float","float","float","float","float","float","float","float","float","float","float"],"gradient_booster":{"model":{"gbtree_model_param":{"num_parallel_tree":"1","num_trees":"26"},"iteration_indptr":[0,1,2,3,4,5,6,7,8,9,10,11,12,13,14,15,16,17,18,19,20,21,22,23,24,25,26],"tree_info":[0,0,0,0,0,0,0,0,0,0,0,0,0,0,0,0,0,0,0,0,0,0,0,0,0,0],"trees":[{"base_weights":[-0E0,-1.0629615E2,1.5041904E0,-4.8431044E0,2.3293762E1,-7.3854675E0,9.685548E0,4.750468E1,1.7999102E1],"categories":[],"categories_nodes":[],"categories_segments":[],"categories_sizes":[],"default_left":[0,0,0,0,0,0,0,0,0],"id":0,"left_children":[1,-1,3,5,7,-1,-1,-1,-1],"loss_changes":[3.437628E4,0E0,2.9435287E4,6.1659253E3,5.291461E3,0E0,0E0,0E0,0E0],"parents":[2147483647,0,0,2,2,3,3,4,4],"right_children":[2,-1,4,6,8,-1,-1,-1,-1],"split_conditions":[-8.2388E1,-1.0629615E2,2.6147E1,2.31E1,6E-1,-7.3854675E0,9.685548E0,4.750468E1,1.7999102E1],"split_indices":[17,0,17,18,5,0,0,0,0],"split_type":[0,0,0,0,0,0,0,0,0],"sum_hessian":[2.13E2,2E0,2.11E2,1.64E2,4.7E1,1.4E2,2.4E1,7E0,4E1],"tree_param":{"num_deleted":"0","num_feature":"21","num_nodes":"9","size_leaf_vector":"1"}},{"base_weights":[-1.7893615E-1,-2.3049744E1,1.4144481E0,1.7540398E1,-4.1049843E1,2.3324347E1,7.360102E-1,3.7918625E1,2.9411845E0,-1.3173265E1,-5.7422012E1,2.8222647E1,8.985165E0,-2.906352E0,4.4090495E0],"categories":[],"categories_nodes":[],"categories_segments":[],"categories_sizes":[],"default_left":[0,0,0,0,0,0,0,0,0,0,0,0,0,0,0],"id":1,"left_children":[1,3,5,7,9,11,13,-1,-1,-1,-1,-1,-1,-1,-1],"loss_changes":[7.8333516E3,1.0951152E4,2.968193E3,1.3719186E3,3.800504E3,1.6411963E2,2.6351582E3,0E0,0E0,0E0,0E0,0E0,0E0,0E0,0E0],"parents":[2147483647,0,0,1,1,2,2,3,3,4,4,5,5,6,6],"right_children":[2,4,6,8,10,12,14,-1,-1,-1,-1,-1,-1,-1,-1],"split_conditions":[-2.1961E1,7E-1,-2.2951E1,-8.3836156E-1,5E-1,5E-2,1.0069E1,3.7918625E1,2.9411845E0,-1.3173265E1,-5.7422012E1,2.8222647E1,8.985165E0,-2.906352E0,4.4090495E0],"split_indices":[17,6,18,0,5,1,10,0,0,0,0,0,0,0,0],"split_type":[0,0,0,0,0,0,0,0,0,0,0,0,0,0,0],"sum_hessian":[2.13E2,1.3E1,2E2,4E0,9E0,5E0,1.95E2,1E0,3E0,4E0,5E0,3E0,2E0,9.8E1,9.7E1],"tree_param":{"num_deleted":"0","num_feature":"21","num_nodes":"15","size_leaf_vector":"1"}},{"base_weights":[4.240663E-2,3.5122812E0,-2.9743748E0,6.6841764E0,-4.1082807E0,1.7066463E1,-4.041381E0,1.6282652E1,4.842088E0,-1.4535597E1,3.3963403E-1,2.1528774E1,5.394561E0,1.2624069E-1,-8.213116E0],"categories":[],"categories_nodes":[],"categories_segments":[],"categories_sizes":[],"default_left":[0,0,0,0,0,0,0,0,0,0,0,0,0,0,0],"id":2,"left_children":[1,3,5,7,9,11,13,-1,-1,-1,-1,-1,-1,-1,-1],"loss_changes":[2.250621E3,2.4448806E3,2.5267944E3,1.1744136E3,1.3977507E3,1.9367126E2,1.9143287E3,0E0,0E0,0E0,0E0,0E0,0E0,0E0,0E0],"parents":[2147483647,0,0,1,1,2,2,3,3,4,4,5,5,6,6],"right_children":[2,4,6,8,10,12,14,-1,-1,-1,-1,-1,-1,-1,-1],"split_conditions":[1.4590433E-2,5.4E0,-2.9E0,-8.2E-1,3.336E0,1.28E0,7.0399344E-2,1.6282652E1,4.842088E0,-1.4535597E1,3.3963403E-1,2.1528774E1,5.394561E0,1.2624069E-1,-8.213116E0],"split_indices":[0,5,6,1,9,4,13,0,0,0,0,0,0,0,0],"split_type":[0,0,0,0,0,0,0,0,0,0,0,0,0,0,0],"sum_hessian":[2.13E2,9.9E1,1.14E2,7E1,2.9E1,5E0,1.09E2,1E1,6E1,8E0,2.1E1,3E0,2E0,5.5E1,5.4E1],"tree_param":{"num_deleted":"0","num_feature":"21","num_nodes":"15","size_leaf_vector":"1"}},{"base_weights":[1.2180029E-1,-1.8941866E1,3.9146632E-1,-3.293507E1,4.47227E0,2.048684E0,-3.1465929E0,2.7992184E0,-9.592639E0,3.0425732E0,-6.1749454E0],"categories":[],"categories_nodes":[],"categories_segments":[],"categories_sizes":[],"default_left":[0,0,0,0,0,0,0,0,0,0,0],"id":3,"left_children":[1,3,5,-1,-1,7,9,-1,-1,-1,-1],"loss_changes":[1.1056963E3,1.133057E3,1.2493634E3,0E0,0E0,1.2930686E3,1.2936234E3,0E0,0E0,0E0,0E0],"parents":[2147483647,0,0,1,1,2,2,5,5,6,6],"right_children":[2,4,6,-1,-1,8,10,-1,-1,-1,-1],"split_conditions":[-8.2388E1,-6.60927E-1,2.6E-1,-3.293507E1,4.47227E0,5.4477E1,-8.652525E-2,2.7992184E0,-9.592639E0,3.0425732E0,-6.1749454E0],"split_indices":[17,0,3,0,0,9,15,0,0,0,0],"split_type":[0,0,0,0,0,0,0,0,0,0,0],"sum_hessian":[2.13E2,2E0,2.11E2,1E0,1E0,1.44E2,6.7E1,1.36E2,8E0,2.2E1,4.5E1],"tree_param":{"num_deleted":"0","num_feature":"21","num_nodes":"11","size_leaf_vector":"1"}},{"base_weights":[-1.789186E-1,-8.1760114E-1,7.769628E0,-1.9206502E-1,-7.9539165E0,-1.9235396E0,1.7715738E1,8.227488E0,-7.7554804E-1,-1.5128192E0,-2.1801767E1,5.542062E0,-9.024433E0,-1.5395558E0,2.0700716E1],"categories":[],"categories_nodes":[],"categories_segments":[],"categories_sizes":[],"default_left":[0,0,0,0,0,0,0,0,0,0,0,0,0,0,0],"id":4,"left_children":[1,3,5,7,9,11,13,-1,-1,-1,-1,-1,-1,-1,-1],"loss_changes":[1.0920492E3,8.859983E2,1.5782052E3,9.0956604E2,1.391812E3,5.274741E2,4.9359888E2,0E0,0E0,0E0,0E0,0E0,0E0,0E0,0E0],"parents":[2147483647,0,0,1,1,2,2,3,3,4,4,5,5,6,6],"right_children":[2,4,6,8,10,12,14,-1,-1,-1,-1,-1,-1,-1,-1],"split_conditions":[4.812E1,3.3947E1,1.829E1,-2.1494E1,3.4725362E-1,1.2139E1,-7E-1,8.227488E0,-7.7554804E-1,-1.5128192E0,-2.1801767E1,5.542062E0,-9.024433E0,-1.5395558E0,2.0700716E1],"split_indices":[12,12,20,9,13,18,6,0,0,0,0,0,0,0,0],"split_type":[0,0,0,0,0,0,0,0,0,0,0,0,0,0,0],"sum_hessian":[2.13E2,1.98E2,1.5E1,1.83E2,1.5E1,8E0,7E0,1.1E1,1.72E2,1.1E1,4E0,4E0,4E0,1E0,6E0],"tree_param":{"num_deleted":"0","num_feature":"21","num_nodes":"15","size_leaf_vector":"1"}},{"base_weights":[-1.3263321E-3,-5.130766E0,8.9508563E-1,5.245955E0,-7.250379E0,2.4095607E0,-1.6405623E0,-1.8971473E0,9.3167925E0,-8.637007E0,6.688312E0,1.5444692E1,1.9216135E0,-1.0287761E-1,-1.1869252E1],"categories":[],"categories_nodes":[],"categories_segments":[],"categories_sizes":[],"default_left":[0,0,0,0,0,0,0,0,0,0,0,0,0,0,0],"id":5,"left_children":[1,3,5,7,9,11,13,-1,-1,-1,-1,-1,-1,-1,-1],"loss_changes":[9.8900757E2,7.420639E2,7.067821E2,1.9288777E2,5.7981177E2,7.00037E2,1.0828483E3,0E0,0E0,0E0,0E0,0E0,0E0,0E0,0E0],"parents":[2147483647,0,0,1,1,2,2,3,3,4,4,5,5,6,6],"right_children":[2,4,6,8,10,12,14,-1,-1,-1,-1,-1,-1,-1,-1],"split_conditions":[-6.8E-1,-3.6984998E-1,2.1E-1,3.3E0,3.774097E0,-2.0957885E0,2.3805E1,-1.8971473E0,9.3167925E0,-8.637007E0,6.688312E0,1.5444692E1,1.9216135E0,-1.0287761E-1,-1.1869252E1],"split_indices":[3,15,2,6,14,16,17,0,0,0,0,0,0,0,0],"split_type":[0,0,0,0,0,0,0,0,0,0,0,0,0,0,0],"sum_hessian":[2.13E2,3.1E1,1.82E2,5E0,2.6E1,1.14E2,6.8E1,2E0,3E0,2.4E1,2E0,3E0,1.11E2,6E1,8E0],"tree_param":{"num_deleted":"0","num_feature":"21","num_nodes":"15","size_leaf_vector":"1"}},{"base_weights":[5.0304472E-2,4.645329E-1,-6.3823457E0,3.2082725E-2,8.754369E0,-9.732636E0,9.0464664E-1,-7.3417068E0,3.9117473E-1,1.0033112E1,-1.3271596E0,-1.0548992E1,-1.5508947E0,-3.1790051E0,4.7200828E0],"categories":[],"categories_nodes":[],"categories_segments":[],"categories_sizes":[],"default_left":[0,0,0,0,0,0,0,0,0,0,0,0,0,0,0],"id":6,"left_children":[1,3,5,7,9,11,13,-1,-1,-1,-1,-1,-1,-1,-1],"loss_changes":[5.7259454E2,7.229986E2,3.2706342E2,5.132155E2,1.4310303E2,4.254254E1,9.306384E1,0E0,0E0,0E0,0E0,0E0,0E0,0E0,0E0],"parents":[2147483647,0,0,1,1,2,2,3,3,4,4,5,5,6,6],"right_children":[2,4,6,8,10,12,14,-1,-1,-1,-1,-1,-1,-1,-1],"split_conditions":[9.7E-1,9.3E0,3.4725362E-1,-2.6313E1,8.7E0,1.39E0,7.3E-1,-7.3417068E0,3.9117473E-1,1.0033112E1,-1.3271596E0,-1.0548992E1,-1.5508947E0,-3.1790051E0,4.7200828E0],"split_indices":[2,8,15,17,6,1,1,0,0,0,0,0,0,0,0],"split_type":[0,0,0,0,0,0,0,0,0,0,0,0,0,0,0],"sum_hessian":[2.13E2,2.01E2,1.2E1,1.92E2,9E0,8E0,4E0,8E0,1.84E2,8E0,1E0,7E0,1E0,2E0,2E0],"tree_param":{"num_deleted":"0","num_feature":"21","num_nodes":"15","size_leaf_vector":"1"}},{"base_weights":[-4.1604448E-2,3.3418632E0,-6.9982535E-1,6.2434664E0,-4.877573E-1,-7.577289E0,-2.0675203E-1,3.149243E-1,8.191985E0,5.204735E0,-3.5575023E0,5.707636E0,-1.0815038E1,1.667169E0,-1.6501207E0],"categories":[],"categories_nodes":[],"categories_segments":[],"categories_sizes":[],"default_left":[0,0,0,0,0,0,0,0,0,0,0,0,0,0,0],"id":7,"left_children":[1,3,5,7,9,11,13,-1,-1,-1,-1,-1,-1,-1,-1],"loss_changes":[4.786673E2,3.9254224E2,6.080518E2,2.27607E2,2.979431E2,5.78398E2,4.598536E2,0E0,0E0,0E0,0E0,0E0,0E0,0E0,0E0],"parents":[2147483647,0,0,1,1,2,2,3,3,4,4,5,5,6,6],"right_children":[2,4,6,8,10,12,14,-1,-1,-1,-1,-1,-1,-1,-1],"split_conditions":[-4.901E0,3.4E0,-1.14E0,-2.2501E1,-2.738E0,-4.5E0,5.913E0,3.149243E-1,8.191985E0,5.204735E0,-3.5575023E0,5.707636E0,-1.0815038E1,1.667169E0,-1.6501207E0],"split_indices":[19,6,1,9,20,5,11,0,0,0,0,0,0,0,0],"split_type":[0,0,0,0,0,0,0,0,0,0,0,0,0,0,0],"sum_hessian":[2.13E2,3.4E1,1.79E2,1.9E1,1.5E1,1.1E1,1.68E2,5E0,1.4E1,5E0,1E1,2E0,9E0,7.3E1,9.5E1],"tree_param":{"num_deleted":"0","num_feature":"21","num_nodes":"15","size_leaf_vector":"1"}},{"base_weights":[2.4129724E-2,-9.3615484E-1,2.1011548E0,-3.6298327E0,3.256176E-1,-1.415877E0,5.460524E0,-4.6881046E0,2.1027565E0,2.7067184E0,-1.2142154E0,-5.3402214E0,1.593175E0,7.7265396E0,4.6511564E-1],"categories":[],"categories_nodes":[],"categories_segments":[],"categories_sizes":[],"default_left":[0,0,0,0,0,0,0,0,0,0,0,0,0,0,0],"id":8,"left_children":[1,3,5,7,9,11,13,-1,-1,-1,-1,-1,-1,-1,-1],"loss_changes":[4.2891403E2,5.011372E2,8.1155646E2,2.9524854E2,3.7375204E2,4.1037354E2,3.9177563E2,0E0,0E0,0E0,0E0,0E0,0E0,0E0,0E0],"parents":[2147483647,0,0,1,1,2,2,3,3,4,4,5,5,6,6],"right_children":[2,4,6,8,10,12,14,-1,-1,-1,-1,-1,-1,-1,-1],"split_conditions":[1.8212E1,-1.20628625E-1,3.3E0,8.003281E-1,1.65E0,2E-2,1.9705413E-1,-4.6881046E0,2.1027565E0,2.7067184E0,-1.2142154E0,-5.3402214E0,1.593175E0,7.7265396E0,4.6511564E-1],"split_indices":[12,14,5,13,9,4,13,0,0,0,0,0,0,0,0],"split_type":[0,0,0,0,0,0,0,0,0,0,0,0,0,0,0],"sum_hessian":[2.13E2,1.46E2,6.7E1,4.6E1,1E2,3.3E1,3.4E1,3.9E1,7E0,3.9E1,6.1E1,1.4E1,1.9E1,2.3E1,1.1E1],"tree_param":{"num_deleted":"0","num_feature":"21","num_nodes":"15","size_leaf_vector":"1"}},{"base_weights":[1.6129717E-2,7.0788366E-1,-2.7489355E0,3.109193E0,-3.5776043E-1,-1.2152016E1,-1.1892666E0,2.1710246E0,8.949869E0,-1.4448073E0,2.8064969E0,-1.4497449E0,-1.3982521E1,-4.2673877E-1,-9.909844E0],"categories":[],"categories_nodes":[],"categories_segments":[],"categories_sizes":[],"default_left":[0,0,0,0,0,0,0,0,0,0,0,0,0,0,0],"id":9,"left_children":[1,3,5,7,9,11,13,-1,-1,-1,-1,-1,-1,-1,-1],"loss_changes":[4.1106918E2,4.4152542E2,6.148387E2,2.6987317E2,4.166822E2,9.5729004E1,2.4742542E2,0E0,0E0,0E0,0E0,0E0,0E0,0E0,0E0],"parents":[2147483647,0,0,1,1,2,2,3,3,4,4,5,5,6,6],"right_children":[2,4,6,8,10,12,14,-1,-1,-1,-1,-1,-1,-1,-1],"split_conditions":[5.0951695E-1,-1.2E-1,5.9515435E-1,2.8546E1,4.9E-1,2E0,4.8004E1,2.1710246E0,8.949869E0,-1.4448073E0,2.8064969E0,-1.4497449E0,-1.3982521E1,-4.2673877E-1,-9.909844E0],"split_indices":[14,2,14,10,1,8,18,0,0,0,0,0,0,0,0],"split_type":[0,0,0,0,0,0,0,0,0,0,0,0,0,0,0],"sum_hessian":[2.13E2,1.71E2,4.2E1,5.2E1,1.19E2,5E0,3.7E1,4.6E1,6E0,8.9E1,3E1,1E0,4E0,3.5E1,2E0],"tree_param":{"num_deleted":"0","num_feature":"21","num_nodes":"15","size_leaf_vector":"1"}},{"base_weights":[-6.255258E-2,-3.1099768E0,2.4981171E-1,1.3337547E-1,-6.3766665E0,-3.1410584E0,6.1295706E-1,-3.0698943E0,1.7308384E0,-3.6614296E0,-8.339618E0,4.47615E0,-4.855294E0,-2.095933E0,1.1151968E0],"categories":[],"categories_nodes":[],"categories_segments":[],"categories_sizes":[],"default_left":[0,0,0,0,0,0,0,0,0,0,0,0,0,0,0],"id":10,"left_children":[1,3,5,7,9,11,13,-1,-1,-1,-1,-1,-1,-1,-1],"loss_changes":[2.0477092E2,2.1337534E2,2.4179135E2,6.1467743E1,2.1563751E1,2.698671E2,2.4304997E2,0E0,0E0,0E0,0E0,0E0,0E0,0E0,0E0],"parents":[2147483647,0,0,1,1,2,2,3,3,4,4,5,5,6,6],"right_children":[2,4,6,8,10,12,14,-1,-1,-1,-1,-1,-1,-1,-1],"split_conditions":[-1.1908E1,-2.2951E1,-7.5829047E-1,1.3E0,2.847E0,-6.7E-1,4E-1,-3.0698943E0,1.7308384E0,-3.6614296E0,-8.339618E0,4.47615E0,-4.855294E0,-2.095933E0,1.1151968E0],"split_indices":[18,18,0,8,19,3,7,0,0,0,0,0,0,0,0],"split_type":[0,0,0,0,0,0,0,0,0,0,0,0,0,0,0],"sum_hessian":[2.13E2,1.9E1,1.94E2,1E1,9E0,1.8E1,1.76E2,3E0,7E0,5E0,4E0,3E0,1.5E1,2.7E1,1.49E2],"tree_param":{"num_deleted":"0","num_feature":"21","num_nodes":"15","size_leaf_vector":"1"}},{"base_weights":[-6.9158696E-2,1.6632037E0,-7.0933616E-1,3.3743174E0,-7.2643894E-1,-1.3505592E0,1.4806235E0,4.653287E0,-1.3514938E0,3.1404533E0,-1.617297E0,-1.055376E0,-8.026769E0,-1.4534822E0,3.2065737E0],"categories":[],"categories_nodes":[],"categories_segments":[],"categories_sizes":[],"default_left":[0,0,0,0,0,0,0,0,0,0,0,0,0,0,0],"id":11,"left_children":[1,3,5,7,9,11,13,-1,-1,-1,-1,-1,-1,-1,-1],"loss_changes":[2.3841455E2,2.3987512E2,2.224543E2,2.1212082E2,9.1048035E1,2.3104648E2,1.8714433E2,0E0,0E0,0E0,0E0,0E0,0E0,0E0,0E0],"parents":[2147483647,0,0,1,1,2,2,3,3,4,4,5,5,6,6],"right_children":[2,4,6,8,10,12,14,-1,-1,-1,-1,-1,-1,-1,-1],"split_conditions":[2.66E-1,1.2578E1,4.5977455E-1,6.4E-1,-9.7387606E-1,3.6835578E-1,2.7E0,4.653287E0,-1.3514938E0,3.1404533E0,-1.617297E0,-1.055376E0,-8.026769E0,-1.4534822E0,3.2065737E0],"split_indices":[12,17,13,1,15,13,5,0,0,0,0,0,0,0,0],"split_type":[0,0,0,0,0,0,0,0,0,0,0,0,0,0,0],"sum_hessian":[2.13E2,5.7E1,1.56E2,3.3E1,2.4E1,1.21E2,3.5E1,2.6E1,7E0,4E0,2E1,1.17E2,4E0,1.3E1,2.2E1],"tree_param":{"num_deleted":"0","num_feature":"21","num_nodes":"15","size_leaf_vector":"1"}},{"base_weights":[-1.2168888E-2,1.9545712E-1,-3.5318282E0,-7.189057E-1,1.2435633E0,-1.070528E0,-5.1226816E0,-4.909898E0,-3.8217193E-1,4.0933995E0,3.7815845E-1,-2.7988255E-1,-1.37088E0,-6.2366166E0,-1.5252287E0],"categories":[],"categories_nodes":[],"categories_segments":[],"categories_sizes":[],"default_left":[0,0,0,0,0,0,0,0,0,0,0,0,0,0,0],"id":12,"left_children":[1,3,5,7,9,11,13,-1,-1,-1,-1,-1,-1,-1,-1],"loss_changes":[1.5740933E2,1.9549136E2,4.08835E1,1.5142044E2,2.3229977E2,8.7607E-1,1.7762878E1,0E0,0E0,0E0,0E0,0E0,0E0,0E0,0E0],"parents":[2147483647,0,0,1,1,2,2,3,3,4,4,5,5,6,6],"right_children":[2,4,6,8,10,12,14,-1,-1,-1,-1,-1,-1,-1,-1],"split_conditions":[1.19E0,1E-2,6.6E-1,-1.2863277E0,1.9E0,-6.940286E-2,1.3332114E0,-4.909898E0,-3.8217193E-1,4.0933995E0,3.7815845E-1,-2.7988255E-1,-1.37088E0,-6.2366166E0,-1.5252287E0],"split_indices":[2,2,3,14,8,13,0,0,0,0,0,0,0,0,0],"split_type":[0,0,0,0,0,0,0,0,0,0,0,0,0,0,0],"sum_hessian":[2.13E2,2.02E2,1.1E1,1.08E2,9.4E1,5E0,6E0,7E0,1.01E2,2.1E1,7.3E1,2E0,3E0,4E0,2E0],"tree_param":{"num_deleted":"0","num_feature":"21","num_nodes":"15","size_leaf_vector":"1"}},{"base_weights":[-4.9220294E-2,-4.152855E-1,1.5030862E0,-8.655755E-3,-2.4446874E0,2.1503232E0,-1.4230567E0,-4.5631385E-1,1.6635054E0,-2.2503954E-1,-4.2278366E0,2.5888875E0,-3.211136E0,1.4480966E0,-3.455368E0],"categories":[],"categories_nodes":[],"categories_segments":[],"categories_sizes":[],"default_left":[0,0,0,0,0,0,0,0,0,0,0,0,0,0,0],"id":13,"left_children":[1,3,5,7,9,11,13,-1,-1,-1,-1,-1,-1,-1,-1],"loss_changes":[1.22119934E2,1.4332095E2,8.0783005E1,1.09927605E2,1.133842E2,8.819673E1,5.1885056E1,0E0,0E0,0E0,0E0,0E0,0E0,0E0,0E0],"parents":[2147483647,0,0,1,1,2,2,3,3,4,4,5,5,6,6],"right_children":[2,4,6,8,10,12,14,-1,-1,-1,-1,-1,-1,-1,-1],"split_conditions":[2.8546E1,2.31E1,6.1699E1,1.4006E1,1.8196E1,5.2E0,-9.528733E-2,-4.5631385E-1,1.6635054E0,-2.2503954E-1,-4.2278366E0,2.5888875E0,-3.211136E0,1.4480966E0,-3.455368E0],"split_indices":[18,19,18,18,18,8,13,0,0,0,0,0,0,0,0],"split_type":[0,0,0,0,0,0,0,0,0,0,0,0,0,0,0],"sum_hessian":[2.13E2,1.73E2,4E1,1.45E2,2.8E1,3.3E1,7E0,1.15E2,3E1,1.3E1,1.5E1,3.1E1,2E0,3E0,4E0],"tree_param":{"num_deleted":"0","num_feature":"21","num_nodes":"15","size_leaf_vector":"1"}},{"base_weights":[-2.7921448E-2,1.270642E-1,-1.9600604E0,5.080363E-1,-8.061273E-1,-2.7578704E0,1.0978378E0,-1.6108619E0,7.348312E-1,1.7762325E0,-1.4504292E0,-1.252482E0,-3.8549917E0,1.6678798E0,-2.5614423E-1],"categories":[],"categories_nodes":[],"categories_segments":[],"categories_sizes":[],"default_left":[0,0,0,0,0,0,0,0,0,0,0,0,0,0,0],"id":14,"left_children":[1,3,5,7,9,11,13,-1,-1,-1,-1,-1,-1,-1,-1],"loss_changes":[6.451546E1,7.112821E1,4.2227654E1,6.9334946E1,9.904524E1,1.613166E1,3.6556983E0,0E0,0E0,0E0,0E0,0E0,0E0,0E0,0E0],"parents":[2147483647,0,0,1,1,2,2,3,3,4,4,5,5,6,6],"right_children":[2,4,6,8,10,12,14,-1,-1,-1,-1,-1,-1,-1,-1],"split_conditions":[1.2867442E0,4.5E0,7.3E0,-1.14E0,-3.4131274E-1,-4E-2,7.1E-1,-1.6108619E0,7.348312E-1,1.7762325E0,-1.4504292E0,-1.252482E0,-3.8549917E0,1.6678798E0,-2.5614423E-1],"split_indices":[14,7,6,1,13,2,1,0,0,0,0,0,0,0,0],"split_type":[0,0,0,0,0,0,0,0,0,0,0,0,0,0,0],"sum_hessian":[2.13E2,1.98E2,1.5E1,1.41E2,5.7E1,1.2E1,3E0,1.3E1,1.28E2,1.1E1,4.6E1,6E0,6E0,2E0,1E0],"tree_param":{"num_deleted":"0","num_feature":"21","num_nodes":"15","size_leaf_vector":"1"}},{"base_weights":[-2.0308359E-2,2.834692E-1,-9.274913E-1,-4.1916987E-1,9.667333E-1,2.0956357E-1,-2.0760114E0,-2.9210982E0,-1.8592978E-2,-1.2640376E0,1.4067922E0,-2.9069066E0,1.1961875E0,-2.8850586E0,3.2722745E0],"categories":[],"categories_nodes":[],"categories_segments":[],"categories_sizes":[],"default_left":[0,0,0,0,0,0,0,0,0,0,0,0,0,0,0],"id":15,"left_children":[1,3,5,7,9,11,13,-1,-1,-1,-1,-1,-1,-1,-1],"loss_changes":[5.930183E1,7.775415E1,7.114194E1,7.9828896E1,8.22895E1,8.9400085E1,1.262314E2,0E0,0E0,0E0,0E0,0E0,0E0,0E0,0E0],"parents":[2147483647,0,0,1,1,2,2,3,3,4,4,5,5,6,6],"right_children":[2,4,6,8,10,12,14,-1,-1,-1,-1,-1,-1,-1,-1],"split_conditions":[2.2218E1,3.336E0,1E-2,-4.1723466E-1,-4.274E0,2.8546E1,6.2E-1,-2.9210982E0,-1.8592978E-2,-1.2640376E0,1.4067922E0,-2.9069066E0,1.1961875E0,-2.8850586E0,3.2722745E0],"split_indices":[10,10,3,14,20,10,1,0,0,0,0,0,0,0,0],"split_type":[0,0,0,0,0,0,0,0,0,0,0,0,0,0,0],"sum_hessian":[2.13E2,1.6E2,5.3E1,7.9E1,8.1E1,2.7E1,2.6E1,1E1,6.9E1,1.3E1,6.8E1,6E0,2.1E1,2.3E1,3E0],"tree_param":{"num_deleted":"0","num_feature":"21","num_nodes":"15","size_leaf_vector":"1"}},{"base_weights":[-1.9721637E-2,2.7950897E0,-1.1483682E-1,3.5815685E0,5.1926196E-1,-3.410781E-1,1.0500767E0,1.7111138E-1,-1.0118395E0,-9.222198E-1,2.4817953E0],"categories":[],"categories_nodes":[],"categories_segments":[],"categories_sizes":[],"default_left":[0,0,0,0,0,0,0,0,0,0,0],"id":16,"left_children":[1,3,5,-1,-1,7,9,-1,-1,-1,-1],"loss_changes":[5.7347454E1,1.0259373E1,5.510598E1,0E0,0E0,6.0379677E1,9.845303E1,0E0,0E0,0E0,0E0],"parents":[2147483647,0,0,1,1,2,2,5,5,6,6],"right_children":[2,4,6,-1,-1,8,10,-1,-1,-1,-1],"split_conditions":[-4.3E0,-1.3E0,3.2875E1,3.5815685E0,5.1926196E-1,1.0069E1,-2.0687237E-1,1.7111138E-1,-1.0118395E0,-9.222198E-1,2.4817953E0],"split_indices":[5,6,20,0,0,20,15,0,0,0,0],"split_type":[0,0,0,0,0,0,0,0,0,0,0],"sum_hessian":[2.13E2,6E0,2.07E2,4E0,2E0,1.74E2,3.3E1,9.9E1,7.5E1,1.4E1,1.9E1],"tree_param":{"num_deleted":"0","num_feature":"21","num_nodes":"11","size_leaf_vector":"1"}},{"base_weights":[2.2988973E-2,-5.762555E-2,2.4293935E0,1.05051674E-1,-1.4423081E0,3.022674E0,-5.15145E-1,-7.873532E-1,4.2835018E-1,-3.9011028E0,-2.701911E-1,3.9482398E0,1.5478314E0],"categories":[],"categories_nodes":[],"categories_segments":[],"categories_sizes":[],"default_left":[0,0,0,0,0,0,0,0,0,0,0,0,0],"id":17,"left_children":[1,3,5,7,9,11,-1,-1,-1,-1,-1,-1,-1],"loss_changes":[4.189128E1,4.7138554E1,1.4036434E1,5.4253323E1,6.1932716E1,1.5295677E0,0E0,0E0,0E0,0E0,0E0,0E0,0E0],"parents":[2147483647,0,0,1,1,2,2,3,3,4,4,5,5],"right_children":[2,4,6,8,10,12,-1,-1,-1,-1,-1,-1,-1],"split_conditions":[1.48E0,9.1518843E-1,1.2E-1,2.66E-1,-8.090078E-1,-5E-1,-5.15145E-1,-7.873532E-1,4.2835018E-1,-3.9011028E0,-2.701911E-1,3.9482398E0,1.5478314E0],"split_indices":[4,15,2,19,16,5,0,0,0,0,0,0,0],"split_type":[0,0,0,0,0,0,0,0,0,0,0,0,0],"sum_hessian":[2.13E2,2.07E2,6E0,1.86E2,2.1E1,5E0,1E0,4.9E1,1.37E2,6E0,1.5E1,2E0,3E0],"tree_param":{"num_deleted":"0","num_feature":"21","num_nodes":"13","size_leaf_vector":"1"}},{"base_weights":[1.1712584E-3,1.2028122E0,-1.8565004E-1,1.8293016E0,-1.6044757E-1,-9.7141767E-1,2.3369871E-1,3.1485856E0,4.5456147E-1,1.041822E0,-1.1522642E0,1.2761584E-1,-1.7099429E0,-6.6728175E-1,6.34917E-1],"categories":[],"categories_nodes":[],"categories_segments":[],"categories_sizes":[],"default_left":[0,0,0,0,0,0,0,0,0,0,0,0,0,0,0],"id":18,"left_children":[1,3,5,7,9,11,13,-1,-1,-1,-1,-1,-1,-1,-1],"loss_changes":[4.8366333E1,2.5228348E1,6.158978E1,3.448191E1,1.3135808E1,5.3134624E1,4.4522198E1,0E0,0E0,0E0,0E0,0E0,0E0,0E0,0E0],"parents":[2147483647,0,0,1,1,2,2,3,3,4,4,5,5,6,6],"right_children":[2,4,6,8,10,12,14,-1,-1,-1,-1,-1,-1,-1,-1],"split_conditions":[-6.039E0,3.4960738E-1,-6E-2,-2.738E0,2.3E0,-7.1E-1,2.233E0,3.1485856E0,4.5456147E-1,1.041822E0,-1.1522642E0,1.2761584E-1,-1.7099429E0,-6.6728175E-1,6.34917E-1],"split_indices":[18,15,2,20,8,2,20,0,0,0,0,0,0,0,0],"split_type":[0,0,0,0,0,0,0,0,0,0,0,0,0,0,0],"sum_hessian":[2.13E2,2.8E1,1.85E2,1.9E1,9E0,6.4E1,1.21E2,9E0,1E1,4E0,5E0,2.6E1,3.8E1,3.7E1,8.4E1],"tree_param":{"num_deleted":"0","num_feature":"21","num_nodes":"15","size_leaf_vector":"1"}},{"base_weights":[9.243143E-3,-1.162243E0,1.3652131E-1,3.7918663E-1,-1.9671854E0,7.4762636E-1,-1.984213E-1,1.1871058E0,-1.3297138E0,-2.7643814E0,6.4385385E-4,4.646681E0,4.984772E-1,1.666254E-1,-1.1184443E0],"categories":[],"categories_nodes":[],"categories_segments":[],"categories_sizes":[],"default_left":[0,0,0,0,0,0,0,0,0,0,0,0,0,0,0],"id":19,"left_children":[1,3,5,7,9,11,13,-1,-1,-1,-1,-1,-1,-1,-1],"loss_changes":[3.1964485E1,2.6960733E1,3.9912178E1,1.2609475E1,2.224059E1,6.419901E1,4.2598816E1,0E0,0E0,0E0,0E0,0E0,0E0,0E0,0E0],"parents":[2147483647,0,0,1,1,2,2,3,3,4,4,5,5,6,6],"right_children":[2,4,6,8,10,12,14,-1,-1,-1,-1,-1,-1,-1,-1],"split_conditions":[-8.2471263E-1,-2.3923978E-1,-4E-2,3.5632E1,3.3947E1,-1.7207E1,4.2E0,1.1871058E0,-1.3297138E0,-2.7643814E0,6.4385385E-4,4.646681E0,4.984772E-1,1.666254E-1,-1.1184443E0],"split_indices":[15,16,4,17,11,17,5,0,0,0,0,0,0,0,0],"split_type":[0,0,0,0,0,0,0,0,0,0,0,0,0,0,0],"sum_hessian":[2.13E2,2E1,1.93E2,7E0,1.3E1,6.8E1,1.25E2,5E0,2E0,9E0,4E0,3E0,6.5E1,9E1,3.5E1],"tree_param":{"num_deleted":"0","num_feature":"21","num_nodes":"15","size_leaf_vector":"1"}},{"base_weights":[6.481103E-3,-1.0063101E0,2.2444485E-1,-4.1259268E-1,-3.1686761E0,2.3842875E-2,1.0645107E0,1.711741E-1,-2.452818E0,-3.0842017E-2,-3.5982463E0,4.3800226E-1,-5.4522645E-1,3.2773457E0,4.6971232E-1],"categories":[],"categories_nodes":[],"categories_segments":[],"categories_sizes":[],"default_left":[0,0,0,0,0,0,0,0,0,0,0,0,0,0,0],"id":20,"left_children":[1,3,5,7,9,11,13,-1,-1,-1,-1,-1,-1,-1,-1],"loss_changes":[4.738855E1,4.7120205E1,2.9693626E1,3.7569508E1,1.0309471E1,3.4166786E1,4.283636E1,0E0,0E0,0E0,0E0,0E0,0E0,0E0,0E0],"parents":[2147483647,0,0,1,1,2,2,3,3,4,4,5,5,6,6],"right_children":[2,4,6,8,10,12,14,-1,-1,-1,-1,-1,-1,-1,-1],"split_conditions":[-5.8E-1,-7.1E-1,6.3E0,2.2796E1,-1.71E0,3.7E0,9.19E-1,1.711741E-1,-2.452818E0,-3.0842017E-2,-3.5982463E0,4.3800226E-1,-5.4522645E-1,3.2773457E0,4.6971232E-1],"split_indices":[2,2,5,18,3,7,9,0,0,0,0,0,0,0,0],"split_type":[0,0,0,0,0,0,0,0,0,0,0,0,0,0,0],"sum_hessian":[2.13E2,3.7E1,1.76E2,3E1,7E0,1.43E2,3.3E1,2.4E1,6E0,1E0,6E0,8.3E1,6E1,6E0,2.7E1],"tree_param":{"num_deleted":"0","num_feature":"21","num_nodes":"15","size_leaf_vector":"1"}},{"base_weights":[-1.0144332E-2,-1.3665756E0,7.670592E-2,-2.1961994E0,-1.5981102E-2,-2.0508794E-1,5.479048E-1,-2.7463405E0,-3.305176E-1,-3.4603557E-1,3.9608523E-1,1.5355179E0,-3.202526E-1,1.3521293E0,-2.8927052E-1],"categories":[],"categories_nodes":[],"categories_segments":[],"categories_sizes":[],"default_left":[0,0,0,0,0,0,0,0,0,0,0,0,0,0,0],"id":21,"left_children":[1,3,5,7,9,11,13,-1,-1,-1,-1,-1,-1,-1,-1],"loss_changes":[2.544438E1,1.4309998E1,2.6968403E1,6.9957047E0,9.480806E-1,2.5828178E1,5.166646E1,0E0,0E0,0E0,0E0,0E0,0E0,0E0,0E0],"parents":[2147483647,0,0,1,1,2,2,3,3,4,4,5,5,6,6],"right_children":[2,4,6,8,10,12,14,-1,-1,-1,-1,-1,-1,-1,-1],"split_conditions":[-2.2501E1,2.5051448E-1,1.9450359E-1,1.6419987E-1,2.135E0,-8.3836156E-1,7.0399344E-2,-2.7463405E0,-3.305176E-1,-3.4603557E-1,3.9608523E-1,1.5355179E0,-3.202526E-1,1.3521293E0,-2.8927052E-1],"split_indices":[17,16,0,14,9,16,13,0,0,0,0,0,0,0,0],"split_type":[0,0,0,0,0,0,0,0,0,0,0,0,0,0,0],"sum_hessian":[2.13E2,1.2E1,2.01E2,7E0,5E0,1.26E2,7.5E1,5E0,2E0,3E0,2E0,7E0,1.19E2,3.8E1,3.7E1],"tree_param":{"num_deleted":"0","num_feature":"21","num_nodes":"15","size_leaf_vector":"1"}},{"base_weights":[-3.9658537E-3,7.051912E-2,-1.3940539E0,8.768569E-3,2.0901592E0,-1.6684588E0,-7.282111E-2,-2.0752938E-1,6.5948707E-1,-9.236745E-1,3.8529947E0,-1.8702087E0,-6.0822266E-1,-0E0,-1.2851305E-1],"categories":[],"categories_nodes":[],"categories_segments":[],"categories_sizes":[],"default_left":[0,0,0,0,0,0,0,0,0,0,0,0,0,0,0],"id":22,"left_children":[1,3,5,7,9,11,13,-1,-1,-1,-1,-1,-1,-1,-1],"loss_changes":[2.2388363E1,2.5213413E1,3.6924553E0,2.8191122E1,3.5729202E1,5.3977585E-1,1.7122464E-2,0E0,0E0,0E0,0E0,0E0,0E0,0E0,0E0],"parents":[2147483647,0,0,1,1,2,2,3,3,4,4,5,5,6,6],"right_children":[2,4,6,8,10,12,14,-1,-1,-1,-1,-1,-1,-1,-1],"split_conditions":[9.3E0,8.4E0,5.5E-1,3.6835578E-1,3.6412207E-3,2.1857731E-1,-1.5812737E-1,-2.0752938E-1,6.5948707E-1,-9.236745E-1,3.8529947E0,-1.8702087E0,-6.0822266E-1,-0E0,-1.2851305E-1],"split_indices":[5,5,1,16,14,14,0,0,0,0,0,0,0,0,0],"split_type":[0,0,0,0,0,0,0,0,0,0,0,0,0,0,0],"sum_hessian":[2.13E2,2.03E2,1E1,1.98E2,5E0,8E0,2E0,1.49E2,4.9E1,2E0,3E0,6E0,2E0,1E0,1E0],"tree_param":{"num_deleted":"0","num_feature":"21","num_nodes":"15","size_leaf_vector":"1"}},{"base_weights":[1.9293835E-3,-9.253782E-1,1.0281356E-1,-5.7130444E-1,-2.8260527E0,1.8293577E-1,-1.3797287E0,-8.160253E-1,2.5711906E-1,-4.5413844E-2,7.115521E-1,-2.2957873E0,-6.4487666E-1],"categories":[],"categories_nodes":[],"categories_segments":[],"categories_sizes":[],"default_left":[0,0,0,0,0,0,0,0,0,0,0,0,0],"id":23,"left_children":[1,3,5,7,-1,9,11,-1,-1,-1,-1,-1,-1],"loss_changes":[2.0032726E1,1.2178284E1,2.3176926E1,4.1176248E0,0E0,2.2430153E1,4.9571114E0,0E0,0E0,0E0,0E0,0E0,0E0],"parents":[2147483647,0,0,1,1,2,2,3,3,5,5,6,6],"right_children":[2,4,6,8,-1,10,12,-1,-1,-1,-1,-1,-1],"split_conditions":[-1.0841E1,8.7E-1,5.6663E1,2.1165E1,-2.8260527E0,2.8E-1,2.8546E1,-8.160253E-1,2.5711906E-1,-4.5413844E-2,7.115521E-1,-2.2957873E0,-6.4487666E-1],"split_indices":[19,1,10,10,0,2,11,0,0,0,0,0,0],"split_type":[0,0,0,0,0,0,0,0,0,0,0,0,0],"sum_hessian":[2.13E2,2E1,1.93E2,1.8E1,2E0,1.84E2,9E0,1.4E1,4E0,1.29E2,5.5E1,3E0,6E0],"tree_param":{"num_deleted":"0","num_feature":"21","num_nodes":"13","size_leaf_vector":"1"}},{"base_weights":[-2.738073E-2,-2.7557224E-1,3.2997954E-1,4.5918348E-1,-5.723897E-1,-2.5603008E-1,1.1863276E0,1.021442E0,-7.889755E-1,-9.264063E-1,-3.0196945E-3,3.709147E-1,-7.911194E-1,3.391221E-1,2.1073737E0],"categories":[],"categories_nodes":[],"categories_segments":[],"categories_sizes":[],"default_left":[0,0,0,0,0,0,0,0,0,0,0,0,0,0,0],"id":24,"left_children":[1,3,5,7,9,11,13,-1,-1,-1,-1,-1,-1,-1,-1],"loss_changes":[1.9065962E1,2.7971369E1,4.4557644E1,2.67953E1,1.824681E1,1.8115446E1,2.7132046E1,0E0,0E0,0E0,0E0,0E0,0E0,0E0,0E0],"parents":[2147483647,0,0,1,1,2,2,3,3,4,4,5,5,6,6],"right_children":[2,4,6,8,10,12,14,-1,-1,-1,-1,-1,-1,-1,-1],"split_conditions":[1.4006E1,5.51E-1,2E-2,3.9352655E-1,1.526E1,2.2796E1,1.2793E1,1.021442E0,-7.889755E-1,-9.264063E-1,-3.0196945E-3,3.709147E-1,-7.911194E-1,3.391221E-1,2.1073737E0],"split_indices":[18,11,4,15,11,19,20,0,0,0,0,0,0,0,0],"split_type":[0,0,0,0,0,0,0,0,0,0,0,0,0,0,0],"sum_hessian":[2.13E2,1.26E2,8.7E1,3.6E1,9E1,5.2E1,3.5E1,2.5E1,1.1E1,5.5E1,3.5E1,2.4E1,2.8E1,1.9E1,1.6E1],"tree_param":{"num_deleted":"0","num_feature":"21","num_nodes":"15","size_leaf_vector":"1"}},{"base_weights":[5.7445574E-3,-3.99815E-1,1.9399154E-1,-6.853561E-3,-9.925767E-1,-4.692858E-1,3.9859962E-1,3.864247E-1,-8.281547E-1,-1.9290961E0,-4.9145818E-1,8.717012E-2,-1.317339E0,9.159026E-1,-8.869296E-2],"categories":[],"categories_nodes":[],"categories_segments":[],"categories_sizes":[],"default_left":[0,0,0,0,0,0,0,0,0,0,0,0,0,0,0],"id":25,"left_children":[1,3,5,7,9,11,13,-1,-1,-1,-1,-1,-1,-1,-1],"loss_changes":[1.6394886E1,1.5732663E1,2.0129639E1,1.3930186E1,1.1481169E1,1.6754498E1,2.8648758E1,0E0,0E0,0E0,0E0,0E0,0E0,0E0,0E0],"parents":[2147483647,0,0,1,1,2,2,3,3,4,4,5,5,6,6],"right_children":[2,4,6,8,10,12,14,-1,-1,-1,-1,-1,-1,-1,-1],"split_conditions":[2.598E0,-2.988E0,-4E-1,1.4006E1,7E-2,1.2209E1,1.2139E1,3.864247E-1,-8.281547E-1,-1.9290961E0,-4.9145818E-1,8.717012E-2,-1.317339E0,9.159026E-1,-8.869296E-2],"split_indices":[17,17,1,10,4,20,12,0,0,0,0,0,0,0,0],"split_type":[0,0,0,0,0,0,0,0,0,0,0,0,0,0,0],"sum_hessian":[2.13E2,6.7E1,1.46E2,4.1E1,2.6E1,3.4E1,1.12E2,2.8E1,1.3E1,8E0,1.8E1,2.1E1,1.3E1,5.4E1,5.8E1],"tree_param":{"num_deleted":"0","num_feature":"21","num_nodes":"15","size_leaf_vector":"1"}}]},"name":"gbtree"},"learner_model_param":{"base_score":"1.1754221E1","boost_from_average":"1","num_class":"0","num_feature":"21","num_target":"1"},"objective":{"name":"reg:squarederror","reg_loss_param":{"scale_pos_weight":"1"}}},"version":[2,1,4]}